layers 12
layer 0 Dense
16 64
[ 4.9099624e-33  3.3817735e-33 -4.2796322e-33 -3.1090681e-02
 -7.9041985e-34  4.2615557e-33 -2.3325007e-33 -4.1524085e-01
 -3.2531373e-33  7.2318226e-02  1.0018213e-33 -7.4006282e-34
  2.0270991e-01 -1.3571638e-33  3.3960734e-34 -3.8992227e-34
  3.8836857e-33  1.0313442e-03  4.8929617e-34 -1.9031558e-33
  1.9219024e-33 -2.1049840e-33 -1.1347276e-01 -3.2705857e-34
 -3.5222487e-33  1.6000421e-01 -1.0213927e-33 -1.0795385e-33
  7.5246406e-34  2.2238353e-02  5.2907766e-33 -2.5149571e-02
 -9.4392380e-34 -4.0720821e-33 -4.1358160e-33  3.7540352e-33
  4.1169717e-33  4.9102699e-33  5.7119739e-33 -4.0793157e-34
 -1.2369630e-33  3.1419631e-33  7.6991326e-01 -1.9046422e-02
 -4.5461376e-34 -5.0621018e-02 -1.6131779e-33 -1.6297722e-33
  1.0183994e-33 -9.9198196e-34 -6.0906053e-02 -3.0612549e-33
  3.8752625e-33 -4.4782408e-33  5.7468787e-33  1.2085397e-33
 -3.5220702e-33 -3.1386691e-33  6.9089405e-34 -1.7795723e-33
 -3.1147588e-33 -2.7344798e-33 -5.0653989e-34  4.2653470e-33]
[-5.4489067e-33 -3.3817735e-33 -4.4420749e-33  3.1090681e-02
  7.9041985e-34  1.2865437e-34 -2.1975323e-33  4.1524085e-01
  3.2531373e-33 -7.2318226e-02 -5.4659308e-33  7.3951681e-34
 -2.0270991e-01  1.3571638e-33 -3.3960734e-34  3.8992227e-34
 -1.4830860e-33 -1.0313442e-03 -4.8929617e-34 -2.0149924e-33
 -1.7143050e-33 -1.7103268e-33  1.1347276e-01  3.2705857e-34
  3.5222487e-33 -1.6000421e-01  1.0213927e-33  1.0795385e-33
  9.3044859e-34 -2.2238387e-02  3.5036072e-33  2.5149658e-02
  9.4392380e-34  5.6552945e-33  4.1358160e-33 -3.7540352e-33
 -4.1169717e-33 -4.9960637e-33  5.5080466e-33  4.0793157e-34
 -4.0646883e-33 -3.1414003e-33 -7.6991326e-01  1.9046422e-02
  4.5461376e-34  5.0621018e-02 -4.0363071e-33  1.6292379e-33
 -1.0180958e-33  9.9198196e-34  6.0906053e-02  3.0612549e-33
 -3.6183736e-33 -1.8565370e-34 -5.7468787e-33 -5.4593073e-33
 -2.7113475e-33  3.1380696e-33 -6.9089405e-34  1.7795723e-33
  3.1148672e-33  2.7356029e-33  5.0653989e-34 -4.2653470e-33]
[ 2.1070126e-33  1.2193284e-33  3.8373649e-33 -6.4898932e-01
 -1.7666557e-34 -3.9978563e-33 -2.6689489e-33  4.0742406e-01
 -3.1121544e-34 -3.9721274e-01 -2.6192749e-33 -2.8666421e-33
  2.4930463e+00 -1.0856295e-33 -3.9277274e-33 -1.4262707e-34
  3.6118655e-33 -3.9381683e-03 -1.1653854e-33 -8.4357286e-34
 -4.8435760e-33  3.6435891e-33 -5.4238206e-01  1.1988229e-33
  2.3142841e-33  3.5263846e+00 -6.1779961e-34  2.0121910e-33
  6.3270469e-34  8.4222037e-01  2.0668401e-33  1.8331213e-01
 -8.3199139e-34 -2.6001509e-33  1.1160570e-33 -1.7233592e-33
  7.0276209e-34  5.1688397e-34  6.9080791e-34  1.5913029e-33
 -5.7664092e-33  5.4321567e-33  4.4420952e-01  5.8413798e-01
  7.1851605e-34 -7.7702105e-01  5.6607337e-33  1.4068296e-33
 -1.3711307e-34 -1.1757427e-33 -4.9272817e-02 -4.6024090e-33
 -3.0016663e-33 -8.9420985e-34  1.6726449e-33  5.8142592e-33
  2.4659012e-33  2.1512895e-33  8.8209601e-34 -8.3123990e-34
  1.2407486e-33  2.8488640e-33  1.2126977e-33  1.6245909e-33]
[ 4.5261069e-33 -2.6542566e-34  2.7436005e-33 -3.3305538e-01
 -1.1382434e-33  2.6611800e-33  2.3349660e-33  1.1937315e+00
 -7.8617953e-34  1.4584914e-01 -2.6451554e-33 -2.5108293e-33
  2.8251776e-01  1.6233254e-33 -1.0955787e-33 -1.6087867e-33
 -2.0679188e-33 -1.7991409e-01  1.6863120e-33 -1.5503856e-33
 -2.1462045e-33 -4.6983958e-33 -1.7807978e-01  1.1875205e-33
  9.2630305e-34  4.2665070e-01  7.3251775e-34  6.8629929e-34
 -1.2167951e-34 -4.1969206e-02  4.6050359e-33 -7.7663566e-04
  1.1037550e-33 -2.3767532e-35 -1.4210772e-33 -1.4521204e-33
 -4.5951149e-34 -1.5002830e-33 -2.6846102e-33  1.1943180e-33
  1.8912600e-33  2.5048065e-33 -8.9969240e-02 -1.3041899e+00
  9.0333435e-34  2.3074751e-01 -3.5171548e-33  3.9803997e-34
 -4.7016215e-35  1.2103652e-12  2.7428630e-01 -6.1369649e-34
 -4.2809939e-33  2.3986190e-33  1.2126674e-33  5.0730068e-33
 -1.3329627e-33  7.6726775e-34 -4.8087316e-34 -1.5140507e-33
 -2.1759137e-33  1.2496037e-33  1.4658294e-33  7.9675126e-34]
[-1.7549124e-33  1.3924041e-33 -5.7487540e-33 -7.9029746e-02
 -1.7753442e-34  5.1928697e-33 -2.7933201e-33 -2.2461875e-03
 -1.3359090e-33 -2.9220540e-02  4.7364319e-33 -1.9142742e-33
 -4.0760953e-03 -1.8837339e-33 -3.5744348e-33 -3.9866579e-33
  3.9174584e-33 -1.6533656e-03 -1.6873029e-33  6.5584356e-34
 -3.3797134e-33 -5.2809451e-34 -1.0613543e-01 -1.0800125e-33
  5.6845735e-33  3.8750193e-01 -9.6997165e-34  2.5647858e-33
 -1.4818920e-33  5.1110172e-01 -1.0599322e-34 -2.6923943e-01
 -1.3783220e-33  1.4603275e-33  2.0264079e-33  1.8687427e-33
  1.1830687e-33  1.0617932e-33 -5.0010819e-33  4.5239079e-34
  3.7158339e-33 -4.2331201e-33  2.8329110e-01  1.7731482e-01
 -9.5762263e-34 -9.4440386e-02  5.8678841e-33 -2.2051214e-33
  3.5582641e-34  2.1231849e-33 -2.0468199e-01 -3.1836509e-33
 -1.7242046e-33 -3.2249662e-33 -5.1567134e-33 -3.6108024e-33
 -5.1465064e-33  9.1643450e-34  1.1164037e-33  3.8815880e-34
 -3.6039841e-33  2.5894499e-33 -4.9843210e-34  1.7429879e-33]
[ 3.44568692e-33  3.02860885e-33 -2.36778799e-33 -1.70963496e-01
  2.97185690e-33 -2.06059458e-33 -2.40712094e-33  7.82526955e-02
 -2.98161607e-33  1.06766313e-01  1.29961333e-33  2.42001979e-33
  4.01914448e-01 -5.11840684e-34 -2.61927141e-33  2.45902398e-33
 -5.65726713e-33 -4.39454848e-03 -2.10180263e-33  7.57669384e-34
 -3.04856856e-33 -7.96344525e-34 -2.22254787e-02  1.85955988e-33
 -1.46788893e-33  4.76756878e-02  8.57652433e-34  1.38138503e-33
 -3.88649950e-33 -5.89418948e-01 -4.87973199e-33 -3.17543030e-01
 -1.12037257e-33 -1.51076995e-33  3.30452915e-33  1.96673613e-33
  3.33628880e-33 -2.21647578e-33 -2.98962156e-33  1.44596972e-33
 -3.63957479e-33 -4.08520801e-33  1.14693813e-01 -3.88653606e-01
  1.87142539e-33 -3.68284360e-02 -2.12631830e-33 -1.30164390e-33
  2.93705460e-34 -1.69001447e-33 -6.49943799e-02  3.62738859e-33
 -5.40930027e-33 -2.54083692e-33 -2.46262301e-33 -2.57175756e-34
 -2.64512329e-33  2.69446558e-33 -8.88651689e-34 -2.07167288e-33
 -2.79079661e-33 -3.56248808e-33  1.65020507e-33 -4.46354233e-33]
[ 1.7116348e-33  2.3770474e-33 -4.4116259e-33 -1.5737505e-01
  3.4811013e-33  4.1889961e-33  2.8265691e-33  2.6668480e-01
 -3.6723211e-33  4.0820912e-03 -4.9354534e-33  3.2486428e-33
  5.1876135e-02 -3.2539217e-34 -3.7045007e-33  1.6871720e-33
  1.3857609e-33 -2.2391430e-03 -1.4940612e-33  1.3554685e-33
  1.4105124e-33  9.1111575e-34 -1.1447751e-01 -3.9460376e-34
 -4.0478063e-33  2.0710325e-01 -4.6714142e-33 -1.1503793e-33
 -3.1829970e-33  3.1778935e-01 -3.2584027e-33  1.7621452e-01
 -1.0617167e-33  4.0048097e-33  3.3839547e-33  1.6998453e-33
  3.2234810e-33  3.2604261e-33 -3.2248075e-33 -4.3732550e-34
  2.3824556e-33  4.6398867e-33  1.2103746e+00 -1.5873167e-01
 -8.3568483e-34 -7.1128532e-02 -4.7455684e-33 -2.2621748e-33
  1.5596187e-33  1.6259724e-33 -8.2150295e-02  4.2953133e-33
 -3.6357607e-33 -4.0581691e-33 -2.0284125e-33  5.8032026e-33
 -5.8781293e-33  5.4275469e-33 -1.4886435e-33 -1.4989960e-34
 -1.4963693e-33 -5.7152631e-33 -1.8952717e-34 -3.7296232e-33]
[-2.3331719e-33  2.9633548e-33  4.9307782e-34 -8.1137165e-02
 -8.7734881e-35  4.9524642e-33  1.7697372e-33 -1.6190766e+00
  2.9487404e-33  7.7540055e-02 -6.5878065e-34  2.6824456e-33
  1.1202728e+00 -2.2574041e-33  1.8163627e-33  9.0337659e-36
 -3.7682293e-33 -1.2771290e-02 -1.5455661e-34 -2.5546007e-33
  4.7882807e-33 -4.1473020e-33  1.1839139e-01  2.1973595e-33
 -1.6699403e-33 -6.3259274e-01  5.2379790e-34  5.8114338e-34
 -3.6353786e-33  2.5965482e-01 -4.0613918e-34  3.2378885e-01
 -8.3795335e-34 -4.9468983e-33  4.5132147e-33 -9.2101452e-34
  1.4733950e-33  1.7918073e-33  2.7269671e-33  2.2119672e-33
  1.3179927e-33  3.3543907e-33 -4.1783735e-01 -2.0706180e-01
  1.3362226e-33 -4.5945374e-03 -5.5122986e-33  1.3282966e-33
 -1.6524462e-34  5.0247833e-34 -1.1320383e-02 -3.2898384e-33
 -1.3947336e-33 -1.2038164e-33 -3.7430741e-33 -5.7531882e-33
 -5.2816886e-33 -1.5478625e-33  3.2027266e-33  4.4708803e-34
  4.1029040e-33  1.5776038e-33  1.9576479e-33 -3.2834962e-33]
[ 5.8441803e-33  5.7002461e-33 -5.7060707e-33 -3.1156533e-33
  3.8024737e-33 -5.7666344e-33  2.5851281e-33 -3.6186690e-33
  4.9072077e-33 -3.1018460e-33  2.5725642e-33  5.4381895e-33
  1.7148112e-34 -4.2453438e-33 -3.9688440e-33 -1.4562485e-33
  3.4742911e-33  3.3862980e-34  6.2814010e-34  5.5828870e-33
  4.7239911e-33 -9.8307327e-34 -1.6723314e-33  3.7516784e-33
  3.3231148e-33 -3.0251200e-33  2.1438005e-33  3.3839022e-33
 -2.8294990e-33  2.3311787e-33 -3.9286384e-33  5.0918301e-34
  5.5617310e-33  2.1326777e-33 -4.8928373e-33  7.9260645e-34
 -3.4981603e-33  3.2647901e-33  1.2983416e-33 -3.2013652e-33
  3.3507419e-33 -4.5090251e-33  2.1464644e-33  3.1649194e-33
 -5.0303543e-33  5.7521097e-33  8.0948949e-35  5.4574592e-33
 -9.8138276e-34 -4.3188213e-34 -9.0737235e-34  1.8467442e-33
 -2.4127404e-33 -2.0938148e-33 -3.0044647e-33 -4.1233333e-33
  5.0735916e-33  1.4299742e-33  1.8505797e-33  2.1618276e-33
  5.1856790e-33 -1.2229867e-33 -1.3826308e-33  5.6385459e-33]
[ 2.3097748e-33 -2.9381277e-33 -2.7668259e-33  2.9382356e-02
 -2.9721210e-33 -3.1031872e-33 -3.0685200e-33  5.1764073e-03
 -3.0313376e-33 -1.8732174e-03 -1.6761778e-34 -3.2044582e-33
  3.3061816e-03 -9.9147402e-04 -2.8773551e-33 -2.8577728e-33
 -2.0864274e-33 -2.8726347e-03 -8.6155144e-04 -2.8302875e-33
  5.1856589e-35  2.8560439e-33  3.7730880e-02 -2.7696983e-33
 -2.8218131e-33  2.0789921e-03 -2.6305003e-33 -2.7574486e-33
 -2.7692865e-33  1.1740786e-03 -2.5899803e-33 -2.9578354e-04
 -2.8291816e-33 -2.7319708e-33 -2.9299221e-33 -5.9256906e-16
 -2.9231879e-33 -2.7662690e-33 -2.3653464e-33 -2.8975080e-33
 -2.8121394e-33 -3.0122704e-33  6.2837184e-04  7.2374893e-03
 -2.8859194e-33  1.8729495e-02  2.3269574e-33 -2.8561091e-33
 -2.6716975e-33 -3.4788952e-03  5.1629703e-02 -2.7773897e-33
 -2.7033123e-33 -2.8774531e-33 -2.9876263e-33 -2.4645703e-33
 -2.6602258e-33 -2.8805871e-33 -2.8454363e-33 -2.6136858e-33
 -2.9271288e-33 -2.8348563e-33 -2.8241933e-33 -2.7695435e-33]
[ 3.1149601e-33  9.3414001e-34  4.3391340e-34 -3.4285709e-01
 -4.9390438e-35  3.5591732e-33 -2.5751404e-33 -4.4605556e-01
 -1.4689052e-33 -1.5296581e-01  3.0232960e-33 -2.0178033e-33
  1.0169281e+00 -1.1933908e-33 -3.5536509e-33 -5.7196323e-33
 -2.3420017e-34 -5.9866271e-04 -1.4064626e-33 -5.6663684e-33
 -4.9820147e-33  3.0696331e-33 -3.1793985e-01 -4.8660052e-34
  5.8491346e-33  1.2572447e+00 -7.5021211e-34 -1.3856313e-33
  1.3231923e-33  1.0555671e+00  5.7896708e-33  1.7556226e-01
 -8.3236911e-34 -1.9275828e-33  1.2703440e-33  2.8830492e-33
  9.1321732e-34 -5.0726457e-33  4.4210572e-34  7.2968683e-34
 -2.2748095e-33 -4.7522081e-33  4.4787729e-01  3.7573144e-01
 -4.4849224e-34 -4.1430739e-01 -3.3229315e-33 -1.6329716e-33
  4.4614102e-34 -1.0776553e-33 -3.4509277e-01 -3.6919133e-33
 -2.2624835e-33 -3.4199260e-33 -2.4260852e-33 -2.8547971e-33
 -1.5784773e-33  1.2218273e-33  8.8152884e-34  9.0058590e-34
 -4.0115074e-33  2.6890499e-33 -5.7902292e-35  1.8130924e-33]
[ 2.5294148e-33  5.2574686e-33 -3.3419113e-33  5.5500180e-03
 -3.8991500e-33 -2.7081737e-33  1.8204317e-33  1.9946675e+00
  4.5288208e-33  1.2124105e-01 -4.4088782e-33  2.2306704e-33
  6.5734178e-01  2.0003358e-33  3.9701168e-33  9.2421149e-34
 -3.4299140e-33 -1.1457711e-02  1.3747322e-33  2.7395676e-33
  4.7869355e-33 -5.7468685e-33  2.2640388e-01  1.5008272e-33
  9.8989380e-34  1.7020454e+00  2.1356490e-33 -3.5327841e-34
  4.6696623e-34 -3.2790344e+00  5.5961723e-34 -4.1078339e+00
  2.1887888e-34  3.1222493e-33  1.6375091e-34  2.4165447e-33
  1.8996863e-33  3.8926872e-34  3.6134520e-33 -1.9592890e-33
 -6.7862781e-34  3.2029312e-33 -8.6559385e-01 -4.5868087e-01
 -6.7588285e-36  2.5023863e-01  2.0215393e-33  7.5397034e-34
  5.7945126e-34  1.0312200e-33  1.0448588e+00  3.4030672e-33
  5.7468720e-34 -5.8632035e-33  4.3607538e-33 -2.2888719e-33
  4.2811747e-33  2.9607768e-33 -8.0850951e-34 -6.1177795e-34
  4.4891722e-33  3.4839882e-33 -1.5505759e-33 -5.0429821e-33]
[-2.5020989e-33  3.0977928e-33  5.3821475e-33 -4.3194178e-01
  4.3182800e-34  8.2857070e-34  2.2074278e-33 -1.2537332e+00
  3.9081764e-33  1.4861393e-01  3.2724029e-33  3.3570741e-33
  1.4317204e+00 -8.8361515e-34  5.6308446e-33 -7.3380777e-34
  1.0308773e-33 -1.9052573e-02  2.2648199e-34  2.1733632e-33
 -2.5568380e-35  1.2447258e-33 -1.3507913e-01  7.1972608e-34
 -4.4983833e-33 -6.7048796e-02 -2.1383188e-33  2.4500186e-34
  4.0070354e-33 -1.5739441e-01 -5.7624078e-33 -4.9388665e-01
  5.4302168e-34 -5.8283229e-33  4.2158477e-33 -7.6238603e-35
  3.2346721e-33 -4.8627597e-33  2.4299665e-33  8.2231019e-34
  3.0606574e-33  3.8917646e-33 -8.0780643e-01 -4.3720552e-01
  3.6585030e-34 -2.0379654e-01 -7.2121721e-35 -3.1442193e-33
 -3.4297364e-34  2.2376522e-34 -4.2776099e-01  2.0152185e-33
 -3.4089990e-33  2.9209372e-33 -2.9251999e-33 -1.9533190e-34
  6.5060967e-34 -4.0059077e-33  3.5502244e-34  7.1891779e-34
  3.2773043e-33  4.3047705e-33  9.8830532e-34 -3.4084451e-33]
[ 3.4181377e-33  3.2547066e-33  2.3095253e-33  1.4945289e-01
  3.5222902e-33  1.7514513e-33  1.8239984e-33 -1.9196833e-02
  3.6841870e-33  1.5395305e-01  5.4523307e-33  3.1425027e-33
  5.8743936e-01 -2.9783816e-33  2.7316490e-33  2.1762524e-33
  5.3406940e-33 -2.6408235e-02 -4.9231591e-34 -2.7456253e-33
 -1.7616667e-33 -4.6717907e-33  3.9542952e-01  1.6922064e-33
 -3.8623593e-33 -3.6029148e-01  1.5614884e-34 -2.0178033e-34
 -1.7638359e-33 -7.6452309e-01 -2.6786566e-33  2.8379369e-01
 -2.5270342e-33  4.8323845e-33  4.1463264e-33 -6.5121662e-34
  1.3998466e-33  5.5097601e-34  2.6382729e-33  1.8851313e-33
  1.5808024e-33  3.3952656e-33 -7.4698460e-01 -6.0757506e-01
  6.5593090e-34  3.4353441e-01  2.8761720e-33  1.7955489e-33
 -2.7455686e-34  1.1089738e-34  7.5701630e-01 -1.5164323e-33
 -5.5423633e-33  5.6903492e-33 -3.4053124e-33  4.6239540e-34
  1.4524180e-33 -2.3081241e-33  1.9883149e-33  4.1979479e-34
  4.0264910e-33  1.8795398e-33  1.7761073e-33 -3.9542410e-33]
[-3.4707000e-33 -6.4789603e-34  4.5722550e-33  2.2368040e-03
 -3.1060264e-33 -1.5464721e-33 -2.2731642e-33 -5.3650234e-03
 -6.0343998e-34 -9.7223960e-02  9.7081140e-35 -9.3443223e-34
  1.2472671e-02 -1.4668833e-33 -4.0229535e-33 -3.2525712e-33
 -5.4003357e-33  4.0682675e-03 -1.0916940e-33 -4.5426094e-33
  2.8922148e-33  2.0719587e-33 -7.0248283e-02  3.4566275e-34
 -3.7479278e-33 -1.1809093e-01 -5.2015005e-34  1.9685785e-33
 -4.8851870e-33 -4.6922293e-02 -1.7429830e-33  2.8963760e-03
  1.6871330e-33  2.4594031e-33  5.3737972e-34 -7.7977740e-34
 -1.6609768e-33 -3.8504926e-33  6.3776960e-34  3.9631131e-34
  1.3850319e-33 -3.1440110e-33  1.1994045e+00 -6.4518705e-02
  1.7939390e-33 -6.7655489e-02  2.0189281e-33 -6.4628643e-34
  5.6316825e-33  2.1770258e-33  5.4980651e-02 -5.5668485e-33
  4.3474748e-33  2.6188997e-33  5.4566444e-33 -4.4058520e-33
 -3.1480892e-33  1.7506445e-33  1.7217809e-33  1.4838735e-34
 -3.4618033e-33  1.5890109e-33  7.4212976e-35  1.0606083e-33]
[-3.1227937e-33  6.4789603e-34 -1.8840383e-34 -2.2355884e-03
  3.1059206e-33 -3.2712278e-33  2.0405719e-33  5.3626662e-03
  6.0343998e-34  9.7224034e-02  1.5252108e-34  9.3499197e-34
 -1.2476568e-02  1.4668886e-33  4.0229535e-33  3.2525745e-33
  2.4109272e-33 -4.0682619e-03  1.0915825e-33 -1.4493700e-33
  3.4977136e-33  4.8850783e-33  7.0249088e-02 -3.4585101e-34
  3.7479418e-33  1.1808426e-01  5.2013857e-34 -1.9685971e-33
  2.2518916e-33  4.6918884e-02 -3.9231735e-33 -3.0669332e-03
 -1.6871329e-33  2.6541314e-33 -5.3737972e-34  7.7977740e-34
  1.6609768e-33 -4.1153587e-33  3.7917804e-33 -3.9631131e-34
 -3.1779629e-33  3.1382301e-33 -1.1994034e+00  6.4518608e-02
 -1.7937981e-33  6.7656532e-02  2.5155653e-34  6.4794929e-34
 -5.6896976e-33 -2.1770526e-33 -5.4980993e-02  5.5668973e-33
 -1.5647784e-33  3.4344022e-33 -5.4568160e-33 -4.6355267e-33
  1.6243782e-33 -1.7509598e-33 -1.7218542e-33 -1.4839859e-34
  3.4616604e-33 -1.5854434e-33 -7.4153559e-35 -1.0606083e-33]
[-0.01177587 -0.0320123  -0.00515491  0.0292965  -0.08717839 -0.00080697
 -0.00847088  0.00425306 -0.07576299 -0.00216724 -0.00165124 -0.01343722
 -0.00408053 -0.00193703 -0.02447675 -0.07870898 -0.01911753 -0.06650426
 -0.05968465 -0.00536504 -0.00621316 -0.00515417 -0.04025204 -0.00401626
 -0.03175205  0.00155794 -0.04060416 -0.00475125 -0.006576   -0.00524221
 -0.00978955 -0.00749188 -0.02858728 -0.00529524 -0.07131621 -0.02976837
 -0.03130584 -0.00575198 -0.00507977 -0.00471972 -0.00600515 -0.00943945
 -0.02423755 -0.00018191 -0.00375574  0.01892962 -0.00534117 -0.02557859
 -0.01855161 -0.00390045  0.04186877 -0.02142402 -0.00722487 -0.00512626
 -0.05965832 -0.0052907  -0.00671172 -0.00371677 -0.01057737 -0.0101978
 -0.01094789 -0.01032049 -0.00548426 -0.02218154]
layer 1 Activation
relu
layer 2 Dense
64 64
[ 2.78206250e-33  4.38492968e-33 -3.55026845e-33 -6.24934674e-34
 -4.68606488e-33 -2.33371481e-33  2.35824371e-36  3.77783570e-33
 -2.86832395e-33  4.88861946e-33  3.31159313e-33 -2.88411212e-33
 -2.23373314e-33 -7.08206143e-34  7.83409220e-34  1.06798805e-33
  2.69485717e-33  1.41733431e-33 -5.03560290e-34  1.81677593e-33
 -4.84190421e-33 -2.55735996e-33  1.94447961e-33 -1.13959136e-33
  1.39179652e-33 -1.02888596e-33  4.57422045e-35 -3.38181423e-33
  6.52727126e-34  3.39890665e-33 -1.20566075e-33 -5.25782570e-33
  3.30858350e-33  4.56230884e-33  2.83718951e-33 -2.94262199e-33
  3.33077390e-33  3.20721952e-33  3.53207767e-34 -2.72113093e-33
  1.89362589e-34  4.35672994e-33  3.61454631e-33  3.67480179e-33
 -2.26585756e-33  5.57439845e-33 -1.60611246e-33 -4.45288684e-33
 -3.34103412e-33 -5.42795629e-34 -5.03886674e-35 -3.16634685e-33
  4.54651093e-33  2.35928622e-33  5.39942245e-33 -9.18069170e-34
  3.97555496e-33  3.85377007e-34  3.31153436e-33  3.17417638e-34
  5.48182901e-33 -4.60969926e-33  4.73252556e-34  1.36150201e-33]
[-1.7253429e-33  3.4130993e-34 -4.1364184e-33 -1.5839493e-34
 -2.4034062e-33 -5.8874818e-34  2.4163976e-33  2.3409138e-33
 -2.6185691e-33  2.0236804e-33 -1.4761524e-33 -2.2852668e-33
  5.7822920e-33  3.0866483e-33  3.4456899e-33  2.7627987e-33
  2.4718516e-33 -1.8299631e-33 -2.5742182e-33  2.2352065e-33
  9.2244201e-34 -2.1139501e-33  1.5158231e-33  1.9468714e-33
 -2.7238204e-33 -2.6205218e-33  2.4285994e-33  7.1927719e-34
 -1.9761136e-33  4.4251683e-33  1.5799224e-33  2.5565542e-33
  3.1917757e-33 -2.0881733e-33  2.6402659e-33 -2.4587476e-33
 -5.2767144e-33  4.7187708e-33 -2.2751566e-33  2.5387934e-33
  4.5992436e-33 -2.2022200e-33 -9.7129225e-34 -2.7739022e-33
  4.7837970e-33 -2.4919843e-33  2.2527548e-33 -2.1873059e-33
  2.8746946e-33  2.4457385e-33 -3.4483788e-34  1.3512153e-33
 -2.2819438e-33 -3.7916863e-33 -3.6762557e-34  2.5914153e-33
 -4.1857991e-33  2.5806665e-33  2.5116832e-33  4.6299119e-33
 -5.4325618e-33  2.4654598e-33 -2.5079433e-33 -5.3370897e-33]
[-2.9258728e-33 -2.3833231e-33 -1.5812574e-33  4.7626902e-33
 -2.8063697e-33 -7.8196088e-34  2.1832442e-33 -2.0670480e-34
  2.3784086e-33  2.7113752e-33 -1.3878629e-33  2.0819191e-33
 -7.2250732e-34 -2.0205152e-33 -2.5891672e-33  4.3197188e-33
 -2.2326034e-33 -2.6459996e-33  2.1614110e-33  4.2909034e-33
  5.3637256e-35  1.0134357e-33 -5.0042995e-33 -6.9469921e-34
  2.7506425e-33  2.0441839e-33  2.7196190e-33  2.4029391e-33
  2.4037535e-33  2.7879721e-33  3.2416975e-33 -2.4575021e-33
 -2.0843677e-33 -2.4635847e-33  2.3211791e-33  2.8256052e-33
 -3.4682197e-33 -5.8518497e-33 -2.1889698e-33 -2.4527536e-33
  2.4050717e-33 -2.4722512e-33  5.2397521e-33  2.9843524e-33
 -4.8394430e-33  2.5773412e-33  2.7325319e-33 -2.3765913e-33
  2.6087921e-33  2.2524512e-33  2.3960829e-33 -1.2864330e-33
  2.7420793e-33  4.6447477e-33  3.3577056e-33  2.4011656e-33
 -1.0537785e-33  6.9658454e-34 -2.9594540e-35 -3.6738614e-33
  5.7685365e-33 -5.2753119e-33 -1.7886530e-33 -4.7516406e-33]
[-0.00131704 -0.00169183 -0.00221326 -0.00099698  0.08454411 -0.0012911
  0.06254757 -0.00216588 -0.01176129  0.07367297 -0.00089858 -0.00110353
 -0.00088193 -0.00122968 -0.00198243 -0.00913904  0.03542493 -0.00086535
 -0.00283265 -0.00199219 -0.00148238 -0.00115405 -0.00104666 -0.00216469
  0.14711303 -0.00170614  0.14569645 -0.00167203 -0.01109315 -0.0015425
 -0.00122757 -0.00175033 -0.00137163 -0.0370276  -0.04486458 -0.00534634
 -0.00161295 -0.00154804 -0.00501334  0.06663299 -0.00087531 -0.00367924
 -0.00069306 -0.00112352 -0.00106376  0.08138874  0.09255686  0.02177736
 -0.00450982 -0.0151985  -0.00102105 -0.00110243 -0.06272394 -0.00071627
 -0.00085587 -0.01108567 -0.00091732 -0.00204881 -0.00103638 -0.00065171
 -0.00134763 -0.00118729 -0.00121686 -0.00146196]
[-1.2279651e-33 -2.5207694e-33 -2.3913229e-33  2.2612924e-33
 -2.6984714e-33  2.3664927e-33 -2.6263635e-33  4.3410121e-33
  2.7643329e-33  2.1668372e-33  4.0257449e-33  1.7335566e-33
 -3.3265976e-33  3.8737909e-33  1.2190377e-33  2.6440371e-33
 -2.2449560e-33  8.2059901e-34 -2.2982648e-33  2.3215170e-33
 -2.5556015e-33 -2.8026371e-33 -9.7493518e-34  2.6922755e-33
  2.6921161e-33 -2.5490325e-33  2.7250231e-33 -9.3202771e-34
 -2.2317440e-33  4.5050123e-33 -4.2484434e-33  2.1179363e-33
  2.8763652e-33  2.7415076e-33 -2.4899781e-33  1.9144287e-33
 -2.1389007e-33  2.3618567e-33  2.5452254e-33 -2.0759368e-33
 -3.7354242e-33 -2.5842226e-33 -1.7715150e-34  3.1035365e-34
 -5.6635153e-33  2.0212871e-33 -2.5391988e-33 -2.2992787e-33
 -2.5920763e-33 -2.4907245e-33  3.6998611e-33  1.4674027e-34
 -2.3514991e-33  2.9784698e-33 -5.4403063e-34 -2.5680963e-33
 -4.3710585e-33  3.3190072e-34  4.8139855e-33  9.3136438e-34
 -3.5370654e-33 -3.7961077e-33  1.6752238e-33  3.7808523e-33]
[-4.07976841e-33  2.78298288e-33  1.69661891e-33  9.18104067e-34
  1.86904300e-33  3.80228195e-33  4.29209171e-33  4.68469213e-33
  2.36998175e-33  5.87451539e-33 -1.50677217e-33 -8.61613849e-34
  3.88037591e-33  3.98026869e-33  3.73068258e-33  2.92418840e-33
  3.39145806e-33  2.46801284e-34 -9.48307292e-34 -3.83938202e-33
  3.36006171e-33 -1.79317659e-33  2.55115298e-33  4.00373560e-33
 -4.91532963e-33 -3.27327606e-33  7.43429647e-34  2.01559261e-33
  2.04746780e-33  1.16009308e-33  1.30878292e-33  2.30925645e-33
 -2.60655495e-33  5.68198117e-33  2.55043887e-33  3.49922701e-33
 -4.14864834e-33 -2.11893877e-34  2.13019872e-33 -1.04988396e-33
 -5.75790965e-33 -1.28811736e-33  1.88727418e-33 -2.63790649e-33
 -5.63579746e-35 -2.06945689e-33 -3.04467143e-33  1.58644828e-33
 -1.40945887e-33 -9.80842405e-34  1.41091905e-33  4.34182834e-33
  5.34739580e-33 -3.32483287e-33 -3.65045363e-33  3.60229068e-33
 -2.99782541e-33 -1.41059322e-35  5.00670870e-34  2.48028133e-33
  8.36095336e-34  1.46692364e-33 -2.74169584e-33 -1.01239451e-33]
[ 2.7538369e-33  2.3730564e-33  2.2623709e-33 -4.9790664e-33
  2.6053159e-33  1.5005876e-33 -2.2873091e-33 -1.2849961e-33
 -2.5773514e-33 -1.9142768e-33  2.4200464e-33 -1.8750729e-33
 -1.6914409e-34  2.2972405e-33  2.5963186e-33  2.3361767e-33
  2.4943509e-33  2.2940367e-33  2.1741260e-33 -2.7228576e-33
 -5.8582245e-33 -2.0338690e-33  2.5408250e-33  2.8669293e-33
 -2.3753982e-33  2.3818434e-33 -2.3872600e-33 -2.2622174e-33
  2.4451344e-33 -2.9045694e-33 -2.3268327e-33 -2.0007737e-33
  2.7446430e-33 -2.9313404e-33 -2.4439743e-33 -2.5505548e-33
 -2.3992551e-33 -5.1949797e-34  2.0103938e-33 -2.5185416e-33
  4.4588499e-33 -2.8096510e-33 -5.4406889e-33 -2.4425435e-33
  2.8062106e-33 -2.8092678e-33 -1.9229086e-33  2.4656650e-33
 -2.3696238e-33 -2.1052617e-33  2.9736493e-33 -6.8189582e-34
  2.6049287e-33 -2.0693425e-33 -4.9397729e-33  2.5677646e-33
  5.0558115e-33 -2.5621422e-33 -3.7849125e-33  1.7227248e-33
  8.8998330e-35  3.0481619e-33  3.2195214e-33  5.5528127e-33]
[-1.1715225e-03 -8.7388873e-04 -4.7541060e-04 -1.2013101e-03
 -6.1777122e-02 -1.1848848e-03 -7.3453844e-02 -5.0101877e-04
  4.5145801e-01  5.5930871e-01 -1.1079776e-03 -1.2343866e-03
 -1.0844700e-03 -1.2135963e-03 -6.3798117e-04  4.0560278e-01
 -2.2373104e-02 -1.0592844e-03 -1.4072045e-04 -6.2795391e-04
 -1.0502486e-03 -1.2325078e-03 -1.2234630e-03 -5.0658453e-04
 -1.7271453e-01 -8.5954712e-04 -3.5923195e-01 -8.9193252e-04
 -1.5733589e-03 -1.0056455e-03 -1.2151287e-03 -8.2791352e-04
 -1.1356873e-03 -9.8336421e-02  3.4210697e-01  5.7571090e-04
 -9.4286609e-04 -9.9967315e-04  5.3205166e-04  3.2625169e-01
 -1.0771195e-03  1.9820618e-04 -6.1834330e-04 -1.2363316e-03
 -1.2262962e-03 -2.3258433e-01  2.1062334e-01  4.2168418e-01
  4.3644931e-04  4.1189143e-01 -1.2140542e-03 -1.2341586e-03
  3.4565765e-02 -7.0847990e-04 -1.0446921e-03 -2.1545661e-03
 -1.1305106e-03 -5.8855914e-04 -1.2187657e-03 -3.5817790e-04
 -1.1522912e-03 -1.2249469e-03 -1.2172899e-03 -1.0690475e-03]
[-2.55765861e-33  2.55144447e-33  2.77402120e-33  1.22438197e-33
  2.73723631e-33 -2.69652251e-33 -2.40170485e-33 -2.11569771e-33
  2.58180877e-33  2.36064410e-33  2.18754356e-33  4.38415238e-33
 -2.77476250e-33  3.25971930e-33 -2.51114246e-33  2.62799266e-33
 -1.99573649e-33 -1.64667142e-33 -2.12752392e-33 -2.77273201e-33
  3.46981908e-33  3.57660687e-35  2.73485042e-33  2.37998282e-33
  2.78278414e-33 -2.79844889e-33  2.33999085e-33  2.50334287e-33
 -2.61577340e-33 -1.13671975e-33 -2.85521168e-33 -2.80770407e-33
  3.13018130e-33 -2.41629402e-33  2.77372347e-33  2.86123498e-33
 -1.99585955e-33 -2.57018038e-33  2.77825133e-33 -2.57846357e-33
 -2.39889965e-33 -2.36576724e-33 -9.53105513e-34  4.36362458e-33
 -2.74816675e-33  2.34413502e-33  2.64535930e-33 -2.51321886e-33
 -2.41405636e-33  2.40584810e-33  2.54655313e-33  1.86541678e-33
  2.47669405e-33 -8.89973753e-34  3.43930692e-33 -2.33637786e-33
  4.48414361e-35 -2.49501192e-33 -4.29714523e-33  7.73927848e-34
 -3.93227987e-33  2.78979891e-33  1.48159101e-34 -1.30011292e-33]
[ 8.1800107e-07  2.4875396e-07 -1.0901254e-06 -9.6080907e-07
  7.8221545e-02  5.4687132e-07  5.3001799e-02 -1.2418109e-06
  2.8555840e-02  9.5899710e-03  6.2778469e-07 -1.4102060e-06
  9.1081665e-07 -1.7817058e-07 -1.3922415e-06  4.9036179e-02
  3.3761892e-02  1.1444495e-06  1.5032022e-06 -1.4164912e-06
  1.4586396e-06 -1.0495027e-06 -1.4003663e-06 -1.2549466e-06
 -1.1628714e-02  1.2653118e-07 -3.4832088e-03  3.9374061e-07
  9.1073815e-07  1.2625567e-06 -2.0190976e-07 -2.3054480e-07
  1.2311762e-06 -7.2651863e-02 -3.8021669e-02  2.1822457e-06
  8.5389121e-07  1.2280327e-06  1.2909802e-06 -6.0983054e-02
  9.9772853e-07 -1.1261158e-06 -9.9581359e-07 -1.3034538e-06
 -1.4564291e-06  7.1611822e-02 -5.2527223e-02 -3.8013661e-03
 -1.0554340e-06 -4.9700644e-02 -1.2222564e-06 -1.4113226e-06
 -1.3316384e-01 -1.0788430e-06  1.2423301e-06 -1.5740519e-05
  3.4048588e-07 -1.4650893e-06 -1.3401428e-06  7.1253368e-07
  1.0711173e-06 -6.8607045e-07 -3.2238290e-07  1.4795892e-06]
[ 2.3039902e-33  2.8661932e-33  3.7750582e-33  4.7707732e-33
  5.1432683e-33  1.6492344e-33  2.7678888e-33  3.8929100e-33
 -7.4196542e-34  1.7500383e-33 -4.7855000e-33  3.1649774e-33
 -2.3562020e-33  4.9322457e-35  5.6516475e-33 -4.6371739e-33
  4.1880634e-33 -5.5651414e-33 -4.7629180e-33 -6.3928673e-34
  1.4310718e-33  1.6731763e-33 -5.4024001e-33  1.5475736e-33
  3.9559426e-33  1.1796145e-33  4.1689980e-33  1.2775442e-33
  3.5668650e-34  3.5456906e-33 -4.5650378e-33  3.0636386e-33
 -5.8335865e-33  4.7644057e-33 -4.5104842e-33  3.2293548e-33
 -3.7384570e-33  1.1679374e-33  1.0537073e-33  5.2623793e-33
  5.6388420e-33 -5.6543218e-33 -1.7992186e-33 -3.5951815e-34
  4.3070466e-33 -1.1956901e-33 -9.9558448e-34  6.3412888e-34
 -5.7038277e-33 -2.9071188e-34  1.6994945e-33  2.0463446e-33
  6.5555391e-34 -3.8174840e-33  3.9859349e-33  2.5547717e-33
  4.1049846e-33  2.4983009e-33  4.9161113e-33 -8.0616872e-35
 -2.1385291e-33 -4.7856888e-33 -4.5962994e-33 -4.9352844e-33]
[ 2.1930623e-33 -2.4642553e-33 -2.6364790e-33 -5.3706500e-33
  2.9054929e-33 -2.5813586e-33 -2.3208354e-33 -1.2824813e-33
  2.7774806e-33  2.7750086e-33 -4.8113300e-33 -1.5039243e-33
  3.5034757e-33 -2.3838867e-33 -2.2318812e-33  2.4003506e-33
  2.2886870e-33 -1.1114417e-33  2.0348599e-33 -2.9713083e-33
 -3.3551430e-33 -2.2128389e-33 -1.9856012e-33 -2.2065379e-33
  2.6683555e-33 -2.2557125e-33  2.8422912e-33  2.3577768e-33
  2.8107892e-33  2.3479886e-33  2.4227152e-33  2.5827831e-33
  2.3458770e-33 -2.6777388e-33  2.2743397e-33  2.5366246e-33
  2.3053977e-33 -2.5117199e-33 -2.6606404e-33  2.4663958e-33
  1.3721159e-33 -2.4959330e-33 -1.9636960e-33 -1.6243313e-33
 -3.1092722e-33  2.6907310e-33 -2.6010283e-33 -2.7040211e-33
  2.4005479e-33  2.3292830e-33 -2.3108926e-33 -5.4819886e-34
 -2.4245662e-33 -4.1923319e-33  4.4979755e-33  2.6087030e-33
  1.6270987e-33 -2.3898235e-33 -2.5743921e-33  3.5160035e-33
  1.7797247e-33 -3.8716817e-33 -1.5484073e-33 -1.8917627e-33]
[-4.31163353e-04 -7.41281314e-04 -9.65767074e-04 -7.33693305e-05
 -4.18985188e-01 -4.02303820e-04 -3.25131476e-01 -9.49615380e-04
 -1.34042308e-01 -6.47584915e-01 -2.26223619e-05 -1.79931056e-04
 -2.01610492e-05 -3.31538264e-04 -8.86974914e-04  1.36825606e-01
 -1.26749292e-01 -1.84634227e-05 -1.02558255e-03 -8.89728661e-04
 -5.91019576e-04 -2.40319685e-04 -1.18721044e-04 -9.51836584e-04
 -2.12672383e-01 -7.49488885e-04 -3.04806322e-01 -7.28922489e-04
  2.19449706e-04 -6.39548642e-04 -3.28072871e-04 -7.75445660e-04
 -4.88225080e-04  3.63684267e-01  2.70071253e-02 -1.33069116e-04
 -6.90655317e-04 -6.44030340e-04 -2.52356636e-04 -4.18031573e-01
 -1.89052280e-05 -8.02959607e-04 -1.57642644e-04 -2.03532123e-04
 -1.36263669e-04  7.80742019e-02  7.86059946e-02 -3.20716053e-01
 -4.56745242e-04  1.75293505e-01 -9.36706492e-05 -1.79279785e-04
 -7.56742060e-02 -1.12715934e-04 -1.90500214e-05 -1.27811148e-03
 -2.78571279e-05 -9.12488438e-04 -1.07952139e-04 -3.14290170e-04
 -4.63924021e-04 -2.81389250e-04 -3.16492282e-04 -5.74074336e-04]
[-2.7279418e-33 -4.8018283e-33 -5.7889188e-33  3.8154100e-33
 -1.2378065e-27  3.8640020e-33 -2.9289743e-16 -1.0160165e-34
  2.5631546e-33  2.4142020e-33  3.3692386e-33  3.9418477e-33
  2.6372421e-33 -3.0013207e-33  4.0385945e-34  1.8832337e-17
  1.1944147e-15  2.7551016e-33 -1.9349930e-33  1.0170304e-33
 -2.1990164e-33  1.5713898e-33 -2.2887206e-33 -7.1389241e-36
  1.1747125e-13  5.6507453e-33  4.2706223e-08 -1.6283976e-34
  1.9971891e-33  2.7106231e-33  3.8172151e-33  4.4236123e-33
  2.4134780e-33 -2.2423554e-33 -2.2543212e-31  5.1847985e-33
  1.0607889e-33  5.0923150e-35 -5.2579686e-33  2.8594431e-28
 -3.3773811e-33  1.0543560e-33 -3.1945411e-33 -2.9894438e-33
 -1.8238170e-33  4.0699045e-14  4.3922529e-11 -2.3268558e-33
 -5.6516306e-33 -1.1043653e-25 -2.8619144e-33  3.2483758e-33
 -2.0339847e-33 -4.1355743e-33 -2.6080223e-33  2.5976802e-33
  3.7467560e-34 -1.2884226e-34  4.3498426e-33  2.9725548e-33
  4.6414960e-33  9.7568676e-34 -5.5295857e-33 -5.6893045e-33]
[-1.8559788e-33 -2.7739780e-33 -1.3879731e-33 -6.2519521e-34
  2.2743551e-33 -2.4947768e-33 -2.5629494e-33  2.7979484e-33
  3.1016109e-33  2.5140292e-33  9.1501968e-34 -1.2853913e-33
 -4.9232965e-33 -4.8812008e-34 -2.5749716e-33 -2.3800780e-33
 -2.0927601e-33  2.5306022e-33 -2.2120651e-33  2.7079299e-33
 -2.3530258e-33  5.0413489e-33  3.3489863e-33 -2.2473729e-33
 -2.6563151e-33 -2.2303549e-33  2.3874257e-33 -2.5638327e-33
  2.5150594e-33  2.2158023e-34 -1.8923358e-33 -2.2739714e-33
  2.0941794e-33 -2.5960098e-33 -2.3449294e-33 -2.2675999e-33
 -4.9208398e-33 -1.4911940e-33  2.8755902e-33 -2.5355375e-33
  2.3159659e-33 -2.3372788e-33  4.8627138e-33  2.2910929e-33
 -2.6477059e-33  2.4756980e-33  2.2010965e-33 -2.8362449e-33
 -2.0299373e-33  2.1151676e-33 -5.0745107e-33 -6.8162730e-34
 -3.0055387e-33 -7.5936788e-34 -2.9993363e-34  2.5385138e-33
  1.1862685e-33  2.2434356e-33 -4.8005393e-33  4.2887860e-33
  1.9174996e-33 -1.0176324e-33 -4.1250668e-33  6.1724864e-34]
[-2.1850434e-33  5.4056599e-33 -1.9815685e-33  1.9979947e-33
 -2.2532208e-33 -2.6152959e-33 -2.4949080e-33 -8.5014020e-34
  2.3216667e-33  1.9355385e-33 -4.7076352e-33  5.3833053e-33
  6.3122504e-34  2.1832747e-33  2.4914660e-33 -2.4231793e-33
 -2.1042550e-33 -1.4011786e-33 -2.2727926e-33  2.2222030e-33
  3.3781100e-33  3.7731440e-33 -2.6076906e-33  2.2265957e-33
  2.2153862e-33 -2.4861143e-33 -3.1576324e-33 -2.0940987e-33
 -2.6066051e-33 -3.8948966e-33 -1.8747574e-33 -2.8079276e-33
  2.9596171e-33 -2.4382355e-33  2.4257039e-33 -2.5315856e-33
  1.6752310e-33 -2.1353907e-33  2.4092635e-33 -2.2702096e-33
  2.5088084e-33 -2.5411503e-33 -1.0458355e-33  2.5814940e-33
 -2.5406202e-33 -2.6013525e-33  2.6052252e-33 -2.1094702e-33
 -2.6653752e-33  2.5813619e-33 -1.8730415e-33 -1.4206722e-35
 -2.2172044e-33 -2.4298280e-33 -5.1206249e-33  2.3719942e-33
  6.3783279e-34 -2.3705197e-33 -4.0560951e-33  2.5536693e-33
  4.3488398e-33 -3.5367010e-33 -4.3208096e-35 -3.8846363e-33]
[-2.4519424e-33  8.5924054e-34  1.7633965e-33  5.6546957e-33
  5.5073134e-33  5.2612717e-33 -4.7171909e-33  3.5954497e-33
 -4.2039300e-33 -6.2399217e-34  1.1729399e-33  3.8544206e-33
 -3.7518077e-33 -4.9672479e-34 -4.6477746e-33 -3.1502271e-34
 -6.7755274e-34 -2.5643604e-33  1.4213440e-33  2.1791667e-33
 -1.8972890e-33 -1.9044728e-33 -3.6282191e-33 -2.1109810e-33
 -3.6004801e-33 -4.3021918e-33  4.9848700e-33 -4.5258990e-33
  1.3873538e-33  1.7505208e-33  4.5906478e-33  5.7474470e-33
 -2.2895868e-33 -1.5909493e-33  5.6333833e-33 -3.0399329e-33
  3.1075670e-33 -3.7820818e-33 -5.8744779e-33  2.0905357e-34
  4.5404608e-33 -3.8788320e-33  5.7541918e-35 -2.1844313e-33
 -4.9979845e-33 -3.6747904e-33 -4.7493329e-33  1.7624337e-33
  4.8794616e-33 -3.2489268e-33  1.3279848e-33  1.2114494e-33
  1.9087778e-33  5.4751294e-34  5.7345654e-33  2.4944264e-33
 -1.8093797e-33  3.5016331e-33  2.9436693e-33  2.6879118e-33
 -2.5977285e-33  4.6737597e-33 -4.9035372e-33  2.4248097e-33]
[-1.47246140e-32  3.49643448e-34 -1.19377711e-32  7.75341380e-34
 -3.01337019e-02 -2.20952677e-32  1.21020172e-02  3.80073764e-33
 -6.56362921e-02  2.74021421e-02 -1.89083145e-32 -1.31380243e-32
  2.28827343e-32 -1.07800179e-33  1.26599566e-32 -1.87657624e-02
 -9.85475630e-02  2.05598752e-32 -1.01737214e-32  1.73771861e-34
  1.47753645e-32  5.54552390e-33  3.76383299e-33 -2.06177154e-33
  4.29479703e-02 -9.26718604e-34  4.97803614e-02  1.22049110e-32
 -1.06001158e-33 -5.46637787e-33  1.32855723e-32  1.50683741e-32
 -2.06251078e-32 -1.68949384e-02  2.40154639e-02 -3.44851104e-34
 -4.41813225e-33 -3.67731514e-33  2.14201887e-33  5.06381169e-02
 -2.40469719e-32  5.11742649e-33  2.35752651e-32  2.46702821e-32
 -4.89509643e-33 -2.84215389e-03  1.01404740e-02  4.98654433e-02
 -3.35327690e-33 -3.00215818e-02 -2.27885743e-32  2.35659405e-32
  3.77069935e-02  2.58063357e-32  4.44020804e-33 -1.47829502e-20
  1.56090956e-34 -3.88006294e-33  3.44930303e-33 -4.86143909e-33
  1.64621063e-32 -1.85160197e-33  1.91088656e-32 -5.75628269e-33]
[-5.84171432e-33 -1.72263132e-33 -1.51246523e-33  3.88157896e-33
  1.96800939e-14  6.79902259e-34  1.57825220e-09 -2.70132422e-33
 -2.56447886e-33  7.05298734e-27  3.51194072e-33 -7.46827193e-34
  5.80513844e-33  2.07787361e-34  4.22134568e-33 -8.62972027e-10
 -1.40529133e-09  1.86928581e-34 -1.36543973e-33  4.16634687e-33
  3.76546289e-33  3.92637154e-34 -9.10101522e-34 -2.30470765e-33
  1.40325289e-08 -4.07061792e-33 -1.89979819e-05  1.01720283e-33
  2.18262136e-33 -2.97493412e-33  5.00407615e-33  5.18837493e-33
  7.55424098e-34 -1.91708196e-33  8.41177070e-15  3.51873030e-33
  3.11672335e-33 -1.19783940e-33 -9.63248193e-34 -5.06617860e-13
  1.85002534e-33 -2.57015375e-33  1.83944258e-33  3.98581665e-33
 -1.42806254e-33  3.10134311e-07 -7.24621202e-07 -5.43002001e-25
  3.22082954e-33 -6.48335378e-12  2.51879052e-35 -4.37961828e-33
 -7.72191713e-18 -3.33766744e-33 -1.45131161e-33  2.70833403e-33
 -1.47987282e-33 -1.31812975e-33  4.30497255e-34 -4.42934463e-33
  2.39248255e-33 -1.73964274e-33  3.88255682e-33  2.94639569e-33]
[-5.4703657e-33 -2.8951858e-33 -5.5502362e-34 -2.9198163e-33
  3.0621349e-33 -2.2801777e-33 -3.2013814e-33 -2.9630333e-33
 -2.2289685e-33  3.9037932e-33 -2.9901972e-33  1.8677863e-33
 -6.3204201e-34  4.8827328e-33  2.9836534e-33  2.8065763e-33
 -5.1598297e-34  2.4437844e-33 -1.5575151e-33  1.3338004e-33
  3.4441911e-33  3.5874853e-33  5.6517357e-33  5.7327802e-33
 -1.3946864e-33  6.2607564e-35  3.2186299e-33 -4.1258419e-33
 -1.9511079e-33 -3.0688372e-33  2.2048676e-33  4.9098228e-33
  4.1657808e-33  1.9820412e-33  2.5558423e-33 -1.3516888e-33
 -4.1898986e-33  3.3858337e-33 -2.5414113e-33 -4.0343106e-33
  5.2149374e-33 -3.4698231e-33  2.1531221e-33 -5.6555054e-33
  2.1398229e-33  2.4257182e-33  3.6671372e-34 -1.0380653e-34
  4.0676939e-33 -3.8837731e-33 -4.3005277e-34 -5.0814226e-33
 -2.0286230e-33 -4.1335047e-33 -3.8754131e-33 -4.1107391e-34
 -4.0348594e-33 -1.2059600e-33 -4.1509104e-33  2.5254666e-33
 -4.4893566e-33 -6.4651087e-34  2.8653424e-33  3.5004767e-33]
[ 1.6359955e-33 -2.1570189e-33  3.3258695e-33  8.5035996e-34
  2.3761634e-33  3.8904602e-34  7.0938513e-34 -6.1921681e-34
 -2.3383143e-33  3.4233746e-33 -4.7946475e-33  2.6278463e-33
  1.7535900e-33 -2.2518615e-33 -5.4546218e-33 -4.5453766e-33
  4.2804304e-34 -6.5712632e-34 -3.5114871e-33 -3.4465920e-33
 -3.8190401e-33 -2.0352752e-33 -4.7787871e-33  1.5401459e-33
  2.3533592e-33 -3.4156791e-33  2.3615821e-33  3.4249453e-33
 -5.4500473e-33 -1.2645733e-33  3.0161734e-33  5.7724648e-33
  3.2274476e-33  3.6982481e-33 -1.1941336e-33 -2.6732159e-33
  1.2463506e-33 -2.9197526e-33  1.9025108e-33 -4.0032709e-34
 -4.5459746e-33 -5.8385820e-33  8.3535110e-34  3.3607185e-33
  5.6010047e-33  9.3555942e-34  4.9316514e-33  3.6831213e-33
 -8.6278512e-34 -2.0034986e-33  3.3085927e-33 -2.3831556e-33
 -1.7773228e-33  4.9123108e-33  3.3192019e-33 -2.7589580e-33
  5.2997089e-33  2.1878172e-33  1.0180795e-33 -4.5986852e-33
 -1.7553529e-34  3.6340467e-33  2.7355300e-33  5.7991860e-33]
[ 4.0168497e-34 -2.3783417e-33 -4.9551925e-33  2.3017618e-33
  4.7987845e-33 -2.1161602e-33 -5.3326118e-34 -4.9218051e-33
  5.6550600e-34 -4.1882673e-33 -1.0882892e-33 -3.0707968e-33
  1.3680827e-33 -1.2041059e-33 -1.3311886e-33 -4.6734820e-33
  1.4776607e-34 -3.1807639e-33  4.7853192e-33  5.2818693e-33
 -5.8599334e-33 -5.4819488e-33  2.9642617e-33  1.9944356e-33
  4.0473505e-33 -2.0765725e-33  4.0006845e-33 -4.1258414e-34
 -3.8771271e-33  5.6411717e-33  1.2960707e-33 -1.7405490e-33
  3.7917392e-33  4.1221310e-33  5.8059334e-33  5.0698689e-33
  2.2215765e-33  4.2646009e-33  3.2568577e-33 -2.8090164e-33
 -4.4492461e-33  5.7409994e-33  9.1397937e-34 -5.3823003e-33
  4.6505209e-33 -4.0811621e-34  1.2786642e-33 -2.9209492e-34
 -2.6414875e-33  3.7016611e-33 -2.5735450e-33 -2.0605270e-33
 -3.1444544e-33 -5.6392872e-33 -5.5649218e-33 -3.3610605e-33
 -3.5908998e-33  1.8197130e-33  1.0765497e-33  3.7341804e-33
 -2.6681461e-33 -2.4906152e-33  4.2648294e-33  2.9654214e-33]
[-0.00217443 -0.00271418 -0.00339681 -0.00164237  0.0895163  -0.00213429
  0.03991883 -0.00333506 -0.03251281  0.00816329 -0.00145486 -0.00183011
 -0.00142186 -0.00203769 -0.00310147  0.00929226  0.10534783 -0.00138805
 -0.00417069 -0.00311321 -0.00242043 -0.0019152  -0.00173132 -0.00333504
  0.12587488 -0.00273406  0.07803001 -0.00268764 -0.01440362 -0.00250673
 -0.00203474 -0.0027951  -0.00225713 -0.06490775 -0.02615651 -0.00729101
 -0.00260544 -0.00251483 -0.00687649 -0.01643471 -0.00140914 -0.00522096
 -0.0010103  -0.00186406 -0.00176144  0.00798082  0.12469551 -0.06195107
 -0.00625145 -0.04027441 -0.00168588 -0.00182835 -0.04150742 -0.0010654
 -0.00136903 -0.01447276 -0.00149169 -0.00318682 -0.00171277 -0.00089558
 -0.00222134 -0.00196992 -0.00201819 -0.00239104]
[ 8.0447013e-34  4.5560126e-33  7.5237768e-34  5.3028419e-34
  1.9954391e-33  3.1983199e-33  2.0014766e-33 -4.3456777e-34
  2.0784983e-33  1.8883885e-33  5.8633159e-33 -2.4607876e-33
 -4.4955536e-33 -9.8308209e-34  1.8607018e-33  2.0491287e-33
 -3.3963384e-35  3.5960929e-33  2.0663023e-33 -4.5187707e-33
  4.2776901e-33  5.6640725e-33  2.5302933e-33  1.9928687e-33
  3.1578168e-33  4.2237951e-33  2.6683797e-33 -2.2025274e-33
  2.2113701e-33  3.2650178e-33  4.0817352e-33  1.6584712e-33
 -1.4069609e-33  2.2859894e-33  2.0994120e-33  2.1932162e-33
 -2.9513783e-33 -4.7494953e-33  2.3271107e-33  1.9711485e-33
 -1.1267040e-33 -2.1655344e-33  1.9669914e-34  5.3695406e-33
 -2.0877770e-33 -9.4446480e-34  2.8065108e-33  1.9212882e-33
 -2.0634413e-33  2.0378337e-33 -4.0858307e-33  1.5995143e-33
  2.1589462e-33 -4.8060123e-33  2.3328824e-34  2.2578984e-33
  5.7517420e-33  2.8023264e-33 -2.9840354e-33  1.6456994e-34
  5.2902884e-33  4.5088672e-33  1.4731233e-33 -2.2987729e-34]
[ 3.1302228e-33  1.3823118e-33  6.1471981e-34  2.4105021e-33
  2.1540249e-33 -1.7576006e-33 -2.6000106e-33 -2.6938991e-33
 -1.9066897e-33  2.1115157e-33  3.9015524e-33  5.5172312e-33
  1.2577790e-36 -5.2405676e-33  2.4810538e-33 -2.7286651e-33
  2.8559179e-33 -3.4466431e-33 -2.1732437e-33  2.1625314e-33
  3.0514338e-33  1.6436636e-33 -3.5205336e-33 -2.2640265e-33
  2.3026079e-33 -2.5040698e-33 -2.3036582e-33 -2.0268638e-33
  2.2642640e-33 -3.5142755e-33  2.0418071e-33 -2.3630362e-33
  7.9372326e-34 -2.4219417e-33  2.6659806e-33 -2.3515186e-33
 -3.6517453e-34  2.6363638e-33  2.4164255e-33  2.5747439e-33
  3.6081167e-33 -2.2071852e-33  3.1415109e-33  1.7276398e-33
 -1.2485843e-33 -2.2513959e-33  2.4816115e-33 -2.2859354e-33
 -2.4348665e-33 -2.7473904e-33  5.4244002e-33 -3.5784362e-33
 -2.6391874e-33  2.7992921e-33  4.4730998e-33  2.3763375e-33
 -2.4996219e-33 -2.6974302e-33 -3.9636825e-33  3.8271730e-33
 -3.4290236e-33 -2.2544615e-33  1.2110393e-34  8.7320872e-34]
[ 7.5828750e-05 -3.5979952e-05 -3.7289888e-04 -2.5553156e-05
 -5.4583114e-01  7.4557938e-05 -3.6171654e-01 -3.4645380e-04
  1.2972066e-01  2.9937238e-02 -1.0913788e-04  3.2178854e-05
 -1.2676961e-04  6.7092180e-05 -2.2883515e-04  3.8949043e-01
 -9.0312886e-01 -1.4442514e-04 -6.1557046e-04 -2.3525688e-04
  5.6031084e-05  4.9920331e-05  4.7800568e-06 -3.4636326e-04
 -3.7039891e-01 -4.3982720e-05 -4.8436889e-01 -2.3504464e-05
  8.4109453e-04  3.7043057e-05  6.8142836e-05 -7.0175309e-05
  7.4815893e-05  3.2490578e-01  6.8665534e-02 -7.6197856e-04
  5.9306767e-06  3.4680052e-05 -8.1082707e-04 -1.0408562e-01
 -1.3285513e-04 -7.8785693e-04 -3.5556301e-04  3.9142164e-05
  1.4036479e-05 -3.9558355e-02  2.8921551e-01 -1.8073747e-01
 -8.4829552e-04  6.5443540e-01 -9.7811717e-06  3.1747302e-05
  2.2654097e-01 -3.4050748e-04 -1.5595858e-04 -6.9478550e-04
 -9.0104179e-05 -2.7311596e-04 -1.1939483e-06 -3.0636680e-04
  7.6334720e-05  5.8583126e-05  6.6111359e-05  6.1096121e-05]
[ 4.1837570e-33 -4.8300758e-33  1.4712029e-33  2.4610811e-33
  2.3652645e-33 -5.0680805e-34  2.1512720e-33  3.5914214e-33
 -2.2396529e-33  2.6983403e-33 -7.1279112e-34  4.4860016e-33
  1.0936550e-33  3.9343245e-33 -2.2875790e-33 -2.3144272e-33
  1.8894158e-33  4.0445719e-33 -2.1856769e-33 -2.4261287e-33
  1.4433862e-33  1.7380685e-33  5.8605266e-33 -2.1586356e-33
 -2.3231163e-33  2.2532175e-33 -2.1592369e-33 -2.3910369e-33
  1.9212357e-33 -5.2511669e-33  2.8919830e-33 -2.4596703e-33
 -1.0753709e-33 -2.3891260e-33 -2.5100682e-33  2.0182366e-33
  1.9288683e-33 -2.7841251e-33  2.0607538e-33 -2.4224861e-33
 -1.8584147e-33  2.2972930e-33 -3.6532851e-33 -3.0844652e-33
  4.5879721e-33  2.4682788e-33 -2.3266701e-33  2.3409516e-33
 -2.8106761e-33 -2.3197678e-33 -7.8881585e-34  4.9850023e-33
 -3.0877790e-33  4.2344701e-33 -3.6939469e-34  2.4919176e-33
 -8.4679674e-34 -2.2558949e-33 -1.8342076e-33  2.9867166e-33
 -3.4955617e-33  4.8034534e-33  4.9509871e-33  2.6671318e-33]
[-4.9212181e-34  2.6849433e-33  2.3053792e-33  4.6641162e-33
  2.2002940e-33  2.6088418e-33  2.0982144e-33  2.9246138e-33
  1.7683327e-33  1.2941327e-33 -7.5229802e-36  7.4864701e-34
 -1.6604335e-33 -4.0844145e-33  1.7326805e-33  1.7154678e-33
  2.1823438e-33  2.9489665e-33  1.9567608e-33  1.7443396e-33
 -4.9969086e-33 -2.3276112e-33  2.1838332e-33  2.1910570e-33
 -2.2595610e-33  5.1314696e-33 -1.8533101e-33 -2.1702987e-33
  2.5442271e-33 -5.4241835e-33 -1.5098520e-33  1.3412391e-33
  1.4758567e-33  1.9094357e-33  1.6131790e-33  2.2763764e-33
 -4.1886544e-33 -2.4710550e-33 -2.9795514e-33  1.5822549e-33
 -3.8117153e-33 -2.0828458e-33  1.8507549e-33 -2.3256017e-33
 -2.1439496e-33 -1.0000831e-33  2.2052184e-33  1.5777961e-33
  2.7439026e-33  1.5897514e-33  2.3918401e-33  1.7012518e-33
  2.0386948e-33 -3.1806482e-33  1.0626186e-33 -2.3769958e-33
 -2.4434828e-33  1.9941940e-33  2.4410040e-33 -1.9948011e-34
  3.3729297e-33 -1.1429552e-33 -2.3618494e-33  1.3528542e-34]
[ 4.1112456e-34  1.7046665e-33 -3.9556939e-33  3.8718819e-34
 -4.7020619e-33 -4.2433700e-33 -3.8145405e-33 -1.1835432e-33
 -2.6954073e-33  1.7394368e-33 -1.4930784e-33  6.3749768e-35
  3.6230374e-33  4.5982749e-33 -2.1014331e-33  2.3068937e-33
 -3.4210544e-33 -1.8434073e-33  2.7656421e-33  9.3945068e-34
  3.0368191e-33 -5.3607766e-33 -4.1396804e-33  3.1552465e-33
 -2.3966469e-33  5.2123771e-33 -2.7251563e-33 -7.1166788e-34
  1.1027149e-33 -5.2005115e-33  5.4887314e-33 -3.6566320e-33
  3.7490427e-34  3.1586907e-33 -3.4103361e-33 -1.6708521e-33
  6.7947137e-34 -5.5721503e-33  3.3465226e-33 -5.5847009e-33
 -2.6111932e-33 -3.3398024e-33  5.7209547e-34  1.9250423e-33
  4.9333896e-33 -2.1917401e-33  3.5418317e-33 -3.0734314e-33
  4.3447072e-33  5.2486513e-33  4.6327485e-33  2.4781059e-33
 -3.4941673e-34  4.8241348e-33 -4.9859680e-33  4.0017384e-33
 -4.8239004e-33 -5.6432251e-34 -2.6745973e-33 -3.8849629e-33
  3.7795560e-34 -4.5021728e-33  2.0769347e-33  4.8624232e-33]
[-3.8080549e-04 -2.4562358e-04 -2.5368921e-05 -2.9064537e-04
  1.5081005e-02 -3.8152438e-04  3.1096640e-01 -3.8834478e-05
 -3.2692343e-01  8.0145560e-02 -2.4643357e-04 -3.3978082e-04
 -2.3985145e-04 -3.7701536e-04 -1.0798201e-04 -9.1593012e-02
 -5.6061792e-01 -2.3272455e-04  6.2705243e-05 -1.0314261e-04
 -3.4084197e-04 -3.5892983e-04 -3.1449439e-04 -4.0768486e-05
  1.1328569e-01 -2.3675988e-04  9.6697432e-01 -2.5523978e-04
 -2.0955772e-04 -3.1750489e-04 -3.7653319e-04 -2.1647966e-04
 -3.7321993e-04  2.6726425e-01  1.5119763e-01 -4.4762576e-04
 -2.8456919e-04 -3.1513066e-04 -4.0620536e-04  1.9473426e-01
 -2.3671889e-04 -9.0994603e-05 -9.4577546e-05 -3.4824313e-04
 -3.2242091e-04  2.9348710e-01 -5.4396778e-01  4.6897624e-02
 -3.2019155e-04  1.3209030e-01 -3.0211231e-04 -3.3939362e-04
  3.4612849e-01 -1.3333478e-04 -2.2925160e-04 -8.1913888e-05
 -2.5400208e-04 -8.1629281e-05 -3.0936161e-04 -1.5248115e-05
 -3.7728008e-04 -3.6860345e-04 -3.7501028e-04 -3.4872198e-04]
[ 2.72317740e-33 -1.12233997e-34  1.51051355e-33  4.18698157e-33
 -2.29261071e-34  4.17267581e-33  3.01307671e-33 -4.70879821e-33
  1.98319636e-33  5.62724317e-33 -1.20676838e-33 -3.51540622e-33
 -8.66675087e-34 -2.85202664e-33 -2.38308411e-33 -3.58010764e-34
  4.01507361e-33  3.36553437e-33  4.12946721e-33 -3.20857171e-33
 -3.74940380e-33  1.74681620e-33 -3.45224654e-33 -3.97368225e-33
  4.13912940e-33  2.66906058e-33  1.17729965e-33 -3.27521305e-33
 -5.01674173e-33  4.06375707e-33 -5.65240573e-33  6.14500692e-34
  9.28317276e-34 -5.28327773e-35 -8.42614187e-34  2.83376331e-33
  4.16422915e-33  1.49104993e-33  1.71000431e-33  1.18415940e-33
 -5.34764559e-33  5.41428290e-34 -1.92962945e-33  2.46084710e-33
  4.60036841e-33  1.64493812e-34 -4.78044532e-33  4.51512743e-33
  5.57285084e-33 -6.85606345e-34 -1.19364251e-33  2.22050148e-34
  2.83047909e-33  3.81507426e-33  3.93032414e-33  2.55257239e-33
  1.59381716e-33 -3.97360070e-33 -3.25221230e-33  1.62416805e-33
 -4.82134518e-33  4.32974646e-33  3.49164654e-33  1.67876407e-33]
[-4.6432717e-05 -7.4852076e-05 -5.7217032e-05 -1.4279663e-05
 -3.3971581e-01 -4.3887521e-05  1.6812955e-01 -6.0332644e-05
  1.9899209e-01 -9.8029107e-02  4.4769040e-06 -2.6917471e-05
  8.4092317e-06 -3.8274775e-05 -7.1804621e-05 -1.0782864e-01
  2.5174022e-01  1.3229655e-05 -1.4739362e-05 -7.0842943e-05
 -6.2424158e-05 -3.1618605e-05 -2.1054468e-05 -6.1378261e-05
  9.0442427e-02 -7.4908196e-05  1.5825007e+00 -7.4132244e-05
  1.6574597e-04 -6.7120214e-05 -3.7724836e-05 -7.5929260e-05
 -5.1586205e-05  8.8236094e-02  2.8550225e-01 -2.4745846e-04
 -7.1741844e-05 -6.7740839e-05 -2.1119848e-04  2.2248510e-02
  1.0812626e-05 -6.5341039e-05  4.1658554e-05 -2.9065741e-05
 -2.3183580e-05  7.4275829e-02 -6.3437819e-01  2.7800530e-01
 -1.6103129e-04  2.2068331e-01 -1.7701626e-05 -2.6967471e-05
  4.2324406e-01  4.8521477e-05  1.5721198e-05 -7.4224532e-05
  1.9503204e-07 -6.8339607e-05 -1.9810017e-05  2.7715303e-06
 -4.9254115e-05 -3.4691177e-05 -3.7102895e-05 -6.0625593e-05]
[ 2.2736257e-33 -4.0964518e-34 -4.3092356e-33  2.7818542e-33
  2.4485018e-33 -1.0807866e-33  2.2997146e-33 -1.1532535e-33
 -2.5821486e-33  2.2646823e-33  2.4806222e-33 -2.4228360e-33
  2.3061429e-33  1.4736218e-34  2.7202286e-33 -2.6050299e-33
  2.1534388e-33 -4.7480289e-33  2.2488893e-33 -2.4762055e-33
  2.0722044e-33  2.0347756e-33 -5.8454763e-34  2.5186759e-33
 -2.1104934e-33 -2.0921886e-33 -2.2543879e-33 -2.2389358e-33
  2.6645072e-33 -4.0037507e-33  4.1200310e-34  2.5182513e-33
  5.5653556e-33 -2.3413467e-33  2.4461924e-33  2.3954487e-33
 -4.1261193e-33  1.8162089e-33  2.1121036e-33 -2.4957931e-33
 -9.0891280e-34  1.9119195e-33  2.0421878e-33  1.1833551e-33
 -2.9375367e-34  2.5161064e-33  2.3911208e-33 -2.0462642e-33
  2.2683983e-33 -2.3803526e-33  2.5831408e-33 -4.2715371e-33
 -1.8906820e-33 -4.4760246e-33  2.2465828e-33  2.2761867e-33
  1.1891815e-33 -2.6118188e-33  5.5671275e-35 -1.8261393e-33
  6.3507625e-34  4.4716841e-33  4.4346057e-34 -1.1380661e-33]
[-8.38240338e-34 -2.76586841e-33 -2.28739372e-33  3.40245554e-33
 -2.22542423e-33  2.48073793e-33  2.59594115e-33 -1.11147105e-33
  2.26791560e-33 -2.66840065e-33  1.52448797e-33 -4.65859615e-33
  4.16585867e-33 -5.22721142e-33  2.03831584e-33  2.22406801e-33
  2.58784751e-33 -2.98672782e-33  2.74266783e-33 -4.12000374e-33
 -3.38969518e-33  2.00247079e-33  1.92637718e-33  1.82171796e-33
  2.21316419e-33 -1.96287867e-33  2.60447818e-33 -2.59965425e-33
 -1.88755758e-33 -3.78545989e-33 -6.22139385e-34 -2.49601899e-33
 -5.70849738e-33  2.64311007e-33 -3.03300777e-33 -2.78411759e-33
  4.62526832e-33  1.85205821e-33 -2.49137046e-33 -2.22882068e-33
 -9.35231754e-34  2.82096953e-33  2.88378923e-33 -9.87836229e-34
  4.14042281e-33  2.22383346e-33  2.58824075e-33  2.54163203e-33
 -2.55656724e-33 -2.57960986e-33  2.54432593e-33 -3.51628123e-33
  2.62096155e-33  2.94897572e-33  5.03494646e-33  2.91374487e-33
 -5.05553010e-33 -4.95223060e-33 -4.34356807e-33  4.24646122e-33
 -5.22959180e-33  2.00403861e-33  8.87564356e-34  4.32803134e-33]
[ 1.0045187e-33 -3.8399378e-33 -3.4639034e-33  5.8500475e-33
  2.8297661e-33 -3.3097234e-33  2.4780824e-33  4.5242408e-33
  2.1550696e-33  2.8986444e-33 -1.5086706e-33 -7.8374139e-34
  7.1782297e-35  7.6016134e-34 -8.7804285e-35  2.7898173e-33
 -2.1136465e-33 -1.0660176e-33  4.5495580e-33  5.6445696e-34
 -3.8918179e-33 -3.2543870e-33 -7.8403049e-34 -4.5883358e-33
 -2.3698912e-33  2.2749195e-33  2.5531133e-33  7.8412306e-34
  2.4826009e-33 -3.8370215e-33 -4.7527881e-34  7.5962869e-34
  2.4300811e-33 -2.4823151e-33  2.9252395e-33 -2.2969253e-33
 -3.2198274e-33  3.3609885e-33 -2.2251768e-33 -2.5275762e-33
 -3.9791439e-33  1.3498181e-33 -2.1762331e-33 -1.4270222e-33
 -4.0062170e-34  2.3194381e-33  2.4933536e-33 -2.4688888e-33
  3.4799790e-33 -2.4315499e-33  2.0634951e-33  4.0370792e-35
 -2.5132348e-33 -2.7828631e-33 -8.0383536e-34 -2.7286073e-33
  9.6718941e-34  3.6616711e-33  3.3873831e-33 -3.0384766e-34
 -4.7899745e-33 -2.4021881e-33  8.9339040e-35 -4.3805355e-33]
[-6.3399480e-34  5.0860070e-33  2.5396394e-33 -4.7117652e-33
 -2.9641989e-33 -1.7622530e-33  2.2902138e-33 -5.4936986e-34
  2.2360303e-33 -2.7727469e-33  2.2149756e-33  5.3915848e-33
  4.5839747e-33  3.7393702e-33 -4.5458644e-34 -2.5060768e-33
 -2.5057335e-33  2.7575382e-33  2.1338158e-33  2.1992507e-33
 -4.4009869e-33 -3.3788263e-34 -1.7538949e-33  1.8881856e-33
 -2.1519806e-33 -3.3705067e-33  2.3664562e-33 -4.5737751e-34
  2.7517032e-33 -7.4482995e-35  5.0606780e-33 -1.7482143e-33
 -6.3724137e-34 -2.2861492e-33 -2.4163910e-33 -2.2457180e-33
  2.5852353e-34  2.4522050e-33 -2.7921425e-33  2.1578293e-33
 -5.5265022e-34 -4.3508242e-34  2.1769461e-33  2.4193892e-33
  7.3946750e-34  2.1166537e-33 -2.7692807e-33 -2.5615093e-33
 -1.0151394e-33 -2.8409954e-33 -1.5016720e-34 -3.8836228e-33
 -2.3958320e-33  3.5325321e-33 -2.6128440e-33 -2.1930862e-33
 -5.1579208e-33 -5.4493993e-33 -3.0985763e-33 -4.9375465e-34
  3.3618863e-33 -2.6524233e-33  2.3150186e-33 -4.9644605e-33]
[-4.1843301e-33  1.5952303e-34  5.1907413e-33 -9.1321842e-34
 -2.3389950e-33  5.4944549e-33 -2.3746865e-33 -8.6936293e-34
  2.5112771e-33  1.8965971e-33  1.6715155e-33 -1.4724643e-33
 -4.7571077e-33  1.7270771e-33 -3.9771157e-34  2.8248555e-33
 -2.4436188e-33 -1.4309961e-33 -3.8690680e-33 -3.5161549e-33
 -3.3547040e-33 -1.4094361e-34 -4.7763351e-33 -3.2808242e-33
 -2.3067769e-33  2.3827794e-34  2.2113703e-33 -3.6707640e-33
 -2.1295880e-33 -8.2892500e-34  4.6037931e-33 -2.7531516e-33
 -2.6050207e-33  2.2578332e-33  2.1681242e-33 -3.0500782e-33
  2.2871608e-33 -1.7516765e-33 -2.2289992e-33 -2.3347994e-33
  4.9458231e-33 -1.9537882e-33 -1.5764974e-33  2.2326010e-33
  1.6772501e-33  2.2875194e-33  2.2276863e-33 -2.1749713e-33
 -2.0200955e-33 -2.8076497e-33  4.6619360e-33 -1.5136944e-33
  2.9438575e-33  1.6396596e-33  2.0485439e-33 -2.2285994e-33
  3.0179545e-33  1.7291878e-33  1.8618839e-33  7.9861617e-35
 -2.9857806e-33 -8.9052513e-34 -4.6007166e-33 -5.2291734e-33]
[ 5.21508069e-33 -3.21128747e-33  4.20158415e-33  5.63840559e-33
 -2.44852351e-33  7.90541808e-34  2.18144385e-33  4.97127030e-33
  2.64537657e-34 -4.69926422e-33  1.03150933e-33 -2.62105486e-33
  2.41865824e-33  3.63781082e-33 -3.10495041e-33 -4.66146215e-33
 -8.01441579e-34  4.95921010e-33 -3.68499516e-33 -2.86507352e-33
 -5.44461065e-33 -1.80540173e-33  2.03147519e-33  2.35042851e-35
 -4.72769942e-33 -2.89702732e-33 -5.57657275e-33 -4.73272319e-33
 -2.29610854e-33  2.59429399e-34 -6.78471829e-34 -2.87062075e-33
 -1.02702427e-33 -1.52796523e-33 -1.21451075e-33  3.41450840e-33
 -2.57373386e-34  1.29495139e-33  4.75114907e-33 -5.20233466e-33
 -5.46952673e-33  4.96296360e-33 -1.52640733e-33 -4.91060781e-33
  4.94492196e-33  5.55684796e-33  9.40009772e-34 -5.31402866e-33
 -4.49456620e-33 -2.66747513e-33  2.09319416e-33 -2.02478461e-33
 -2.25525754e-33 -2.96055966e-34 -5.64902251e-33  4.91670753e-33
  2.40821838e-33 -2.35206722e-33 -3.01248345e-33 -5.10855151e-33
 -2.06763671e-33  2.05961304e-33  2.09757875e-33  1.88901612e-33]
[ 1.8546781e-33  9.2369171e-34 -1.8495454e-33  2.4140540e-34
 -5.5018308e-33  4.3524868e-33  2.8416871e-33 -3.3615480e-33
 -3.5072274e-33  5.2391240e-33 -2.6967967e-33 -3.0700327e-33
  1.6956153e-33  5.6335442e-33  2.2576014e-33  5.4840073e-33
 -1.4587988e-33  5.5634414e-33  3.5757671e-33 -6.9372350e-34
 -5.1573382e-33 -3.5960907e-33  1.5804147e-33  1.3659127e-33
 -3.3932819e-33  4.5721992e-34  3.3379029e-33  5.5766187e-36
  7.6589408e-34  5.5266763e-33 -4.1043102e-33  7.9377442e-34
  1.9501451e-33 -2.6546314e-33  4.9910340e-33  5.2611564e-33
  1.7434051e-34 -5.2142571e-33  9.5939918e-34 -5.5442456e-33
 -1.7785083e-33  5.4592103e-33  6.1348958e-34 -2.5996682e-33
 -1.4042738e-33  1.6216216e-33  2.3992130e-33 -1.8959135e-34
 -5.2433190e-33 -1.8847054e-33 -4.3753035e-33 -6.0777815e-34
 -4.3242521e-33  1.3643228e-34 -5.8057357e-33  3.4281941e-33
  1.2295392e-33  1.0268039e-33  5.1846133e-33  2.2392727e-33
 -5.4199774e-33 -3.7296313e-33  1.9608182e-34  5.2521381e-33]
[-1.50331328e-33  2.21304187e-33 -2.16064334e-34  2.46441950e-33
  2.14355583e-33  2.30664575e-33  2.56857454e-33 -3.90186138e-33
  2.07942967e-33  1.52519933e-33 -5.26077068e-33 -3.84022947e-33
 -4.22033466e-34  1.65604269e-33  1.95467501e-33  2.13229569e-33
  4.87410908e-33 -1.92755947e-33  1.99866109e-33  2.55032903e-33
  1.06306640e-33  6.71049317e-35 -2.68452182e-33  1.98113483e-33
 -2.62866067e-33 -6.66276076e-34  2.42020805e-33 -2.07759645e-33
  2.04960701e-33 -1.08538095e-33 -4.21535727e-33  1.72337115e-33
  5.59651685e-33  2.52585212e-33  2.31123165e-33  2.22809922e-33
  3.91493104e-33 -2.90787474e-33  2.31152607e-33  2.03540906e-33
  2.28186963e-34 -2.23164094e-33 -2.23630086e-34 -2.50510703e-33
 -2.11984170e-33 -9.90728679e-34  2.97270326e-33  2.08257853e-33
 -2.62041770e-33  2.08006811e-33  3.85428471e-33 -5.79877057e-33
  1.89449925e-33 -1.61518507e-33  1.88381373e-34 -2.31273995e-33
  4.99862369e-33  2.57394747e-33 -2.83092541e-33  4.34246495e-33
  4.20136522e-33  1.50121585e-33  1.55889873e-33  4.90981399e-33]
[ 3.02241675e-33  3.46945688e-33 -1.94332377e-33 -3.03723863e-33
  2.02293045e-33  1.50275235e-33  1.94302678e-33  3.71570054e-33
 -2.73646177e-33 -2.23045278e-33  4.14483202e-33  4.35755462e-33
  5.44071609e-33  2.62084474e-33 -4.57545123e-33 -1.60409686e-33
  3.92993916e-33 -5.69327730e-34 -3.72487197e-33  2.37285253e-33
  3.17822155e-33 -5.97644838e-34 -1.33234525e-33  4.52089112e-34
 -2.34754120e-33  2.45874627e-33  2.80986937e-33 -4.18292465e-33
  4.27969612e-33 -2.15946173e-33  5.83362673e-34  7.21081663e-34
 -1.73164038e-33 -3.72180650e-33 -2.91025108e-33 -2.16483833e-33
  7.69207595e-34  3.28236961e-33  1.86032248e-33 -2.52630138e-33
 -4.94030888e-34 -2.63371089e-33 -3.10887326e-33  3.19068105e-34
 -2.31686998e-33  2.89498655e-33 -5.46266459e-34  1.53932335e-33
  2.22289655e-33  1.83768246e-33  1.89529564e-33  2.97112864e-33
 -2.02147743e-33 -3.56795964e-33 -3.32502242e-33  1.97210924e-33
 -1.16690433e-33  2.40296833e-33  1.26652537e-33 -2.81719711e-33
  3.47440865e-33  4.71406589e-33 -5.44156355e-33 -4.97963505e-33]
[ 3.0053368e-33 -2.5409798e-33 -2.9373416e-33  3.4379907e-33
  2.6881447e-33 -2.8731865e-33 -2.1278248e-33 -2.6532153e-33
 -2.3277945e-33  2.0136659e-33  3.2040854e-35  2.9939525e-33
 -1.3002167e-33 -1.0240043e-33 -2.2137637e-33 -2.3820276e-33
  2.7396769e-33 -2.4588445e-33 -2.3672801e-33 -2.5571847e-33
 -1.0037058e-33 -2.5742525e-33  2.2130327e-33 -2.2095854e-33
 -2.4816210e-33 -2.6926726e-33  2.4342758e-33 -1.8299830e-33
  2.3386928e-33 -2.0951466e-33  2.5790756e-33 -2.4517846e-33
 -2.5426874e-33  2.2919491e-33  2.3178927e-33 -2.6538027e-33
  2.5367456e-33 -2.5080010e-33 -2.1221613e-33  2.0436168e-33
  3.3314043e-33  2.9075102e-33 -4.8792647e-33 -2.4047119e-33
 -2.8619412e-33 -2.1798103e-33 -2.3573601e-33  2.3208755e-33
  2.2958194e-33 -2.5383452e-33 -2.0784997e-33 -2.2136248e-33
  2.4226075e-33  1.9709918e-33 -3.0110482e-33  2.0566389e-33
  4.5408858e-33  2.5812657e-33 -2.6460609e-33 -5.2362289e-33
 -2.4409882e-33  3.5342038e-33 -2.3039761e-33 -2.2013097e-33]
[ 2.6576079e-05 -3.8198988e-05 -1.0176318e-04  5.2328287e-05
  4.2651862e-01  3.1232863e-05  1.9726148e-01 -9.5223368e-05
  4.5454368e-02 -3.1928706e-01  3.4094352e-05  5.3578307e-05
  2.8596383e-05  4.1260286e-05 -6.9986738e-05 -8.6962700e-02
 -9.2865556e-01  2.2923887e-05 -2.0744232e-04 -7.1320217e-05
 -4.6666755e-06  4.9949394e-05  5.4458538e-05 -9.4681163e-05
  5.8680151e-02 -3.9553575e-05  1.1685622e-01 -3.4539407e-05
 -6.3200342e-04 -1.4954559e-05  4.1869323e-05 -4.4473178e-05
  1.6842816e-05 -2.1045531e-01  1.6815625e-01  1.3424248e-04
 -2.7065973e-05 -1.6060745e-05  1.1337239e-04  8.7513402e-02
  2.6962382e-05 -1.6094446e-04 -6.8253459e-05  5.2445153e-05
  5.4043761e-05 -1.0720287e-01 -1.7685352e-01  5.1309681e-01
  2.5221903e-05  1.5759568e-01  5.3726868e-05  5.3498192e-05
  6.2921607e-01 -6.1390543e-05  1.8766706e-05 -6.4023567e-05
  3.9082599e-05 -7.8148412e-05  5.3894179e-05 -4.7792528e-05
  2.1344757e-05  4.6021534e-05  4.2702617e-05 -6.1665924e-07]
[-1.0009210e-03 -7.5448211e-04 -3.5679759e-04 -9.9610561e-04
 -4.8605811e-02 -1.0099162e-03 -3.0645967e-02 -3.8609403e-04
 -9.1847777e-03  2.3310159e-01 -9.1803586e-04 -1.0316873e-03
 -9.0003246e-04 -1.0278834e-03 -5.2572589e-04  2.6525661e-02
 -2.9723516e-01 -8.7857590e-04  3.8563012e-06 -5.1507907e-04
 -9.0785197e-04 -1.0356350e-03 -1.0181750e-03 -3.9130650e-04
  8.1553347e-03 -7.4067013e-04  1.6266437e-01 -7.6987699e-04
 -2.0052092e-03 -8.7023550e-04 -1.0275487e-03 -7.1036152e-04
 -9.7449863e-04  1.5614054e-01 -2.0973963e-01  7.3948514e-04
 -8.1663288e-04 -8.6569501e-04  7.0585671e-04  1.1635275e-02
 -8.9228019e-04  3.6476675e-04 -5.0690980e-04 -1.0362746e-03
 -1.0227876e-03  1.5179016e-01  1.0893255e-01 -1.5486445e-01
  6.0795149e-04  7.4234717e-02 -1.0080747e-03 -1.0316964e-03
  4.6860728e-02 -5.8928895e-04 -8.6771208e-04 -2.1406182e-03
 -9.3605864e-04 -4.7484774e-04 -1.0140429e-03 -2.5844850e-04
 -9.8657049e-04 -1.0335899e-03 -1.0291241e-03 -9.2288177e-04]
[ 1.6371514e-33  2.9363471e-33 -1.9652328e-34 -2.3078051e-33
  1.9789806e-33 -2.5234514e-33  2.1269024e-33  5.8086906e-34
  1.9019442e-33  1.2881814e-33  4.8354489e-33 -5.0711172e-33
 -3.8754388e-33  1.2737663e-33  1.7129857e-33  2.0819068e-33
  3.4974101e-33 -1.9789425e-33  1.8359378e-33 -3.4844004e-33
  8.0574334e-34 -1.5643214e-33  2.5005926e-33  2.0825684e-33
  2.4680786e-33 -3.3727872e-33 -2.4326145e-33 -2.5225661e-33
  2.0158839e-33  1.8585741e-34  1.1947280e-33  1.4679637e-33
 -5.6474040e-33  2.1023342e-33  2.0688192e-33  1.7942918e-33
  2.4694668e-33  3.6546002e-33  2.1327358e-33  1.6872401e-33
 -1.2561773e-33 -2.4894105e-33  4.4196332e-33 -3.6217664e-33
 -2.0896388e-33 -9.4422778e-34  2.4308984e-33  1.9336924e-33
  2.4212300e-33  1.9633404e-33 -5.2571590e-33  2.0142514e-33
  2.2652974e-33  1.7827130e-33  4.5202577e-33  2.3729062e-33
  8.7399254e-34  3.0727101e-33  2.7905250e-33  1.7738640e-33
  5.9622451e-35 -5.2904622e-33 -9.0328292e-35 -4.1342482e-33]
[-0.00057952 -0.00062416 -0.00075745 -0.00052791  0.21826343 -0.00057644
  0.07083876 -0.00074078  0.00709979  0.07687557 -0.00050816 -0.00054872
 -0.00050482 -0.00056877 -0.00068343  0.01865295  0.11556414 -0.00050248
 -0.00105266 -0.00068659 -0.00059649 -0.00055709 -0.00053801 -0.00073962
  0.09927841 -0.00062537  0.06730639 -0.00062049 -0.00717596 -0.00060456
 -0.00056828 -0.00063299 -0.0005856  -0.11113622 -0.00071468 -0.0028087
 -0.0006128  -0.00060443 -0.00255991 -0.05984445 -0.00050389 -0.001591
 -0.00055461 -0.0005524  -0.00054095  0.06756293  0.03317272 -0.00620416
 -0.00218507  0.01402774 -0.00053296 -0.0005484  -0.06938322 -0.00052654
 -0.00050097 -0.00706282 -0.00051155 -0.00070276 -0.00053626 -0.0006923
 -0.0005827  -0.00056175 -0.00056566 -0.0005947 ]
[ 1.60552986e-33 -2.89625645e-33 -5.30350652e-33 -4.30780256e-33
  1.08024551e-33  2.54748434e-33 -1.60309089e-33 -4.83841703e-33
 -3.23458687e-33 -5.10181409e-33 -1.87615327e-33  3.43408626e-33
 -5.30354251e-33  4.49385943e-33  1.70175160e-33 -4.60593364e-33
  4.54962893e-33 -6.76800240e-34  4.07277642e-33  1.94895512e-33
 -3.72830956e-33 -1.41692142e-33  1.44103669e-33 -1.87043853e-33
  4.42455229e-33  3.42654620e-33  1.47389065e-33 -3.47126421e-34
 -3.03583593e-33  2.69540653e-33  3.01323302e-33 -5.80168102e-33
  2.53501197e-33 -1.99695405e-33  1.67378696e-33  2.65131906e-33
 -1.34403251e-33  1.39120454e-33  4.56952858e-33 -5.95246829e-34
  2.20841226e-33 -2.53435627e-33 -3.71106432e-33  3.34657217e-33
  3.15648372e-33 -5.56548637e-34  9.92322944e-35 -8.81168198e-34
  4.24393574e-33  3.49706631e-33  5.52629722e-33  1.69024590e-33
  5.43174487e-33 -1.59994185e-33 -2.94617676e-33  2.68516705e-33
  5.52564813e-34 -6.83618291e-34  1.78947268e-33  3.83123731e-34
 -1.21646823e-33 -4.38157401e-33 -4.06492302e-33 -2.68039161e-34]
[-2.0787563e-33 -2.0796073e-33 -1.9741524e-33  9.4084437e-34
  2.8151604e-33 -2.6285931e-33 -2.2809145e-33 -1.8910975e-33
 -2.8358651e-33  2.0012887e-33 -1.3576348e-33  5.7541448e-33
 -9.0458662e-34  2.3877747e-33 -2.2093558e-33 -2.2063177e-33
 -2.1963816e-33 -1.4135388e-33  2.1409102e-33  2.6588365e-33
 -6.0065557e-34 -2.2525717e-33 -2.5579110e-33  2.3920840e-33
 -2.6083626e-33  2.3582893e-33 -2.2790490e-33  2.1999634e-33
  2.7308776e-33  2.7184394e-33  2.3571645e-33  2.4378967e-33
  2.4186281e-33 -2.6157646e-33  2.5705868e-33  2.1073910e-33
  2.2790405e-33 -2.4164028e-33  2.3969891e-33 -2.3723509e-33
  1.9333275e-34 -2.8918636e-33  2.5983674e-33 -2.2172281e-33
 -2.6202779e-33 -2.7404140e-33 -2.7557268e-33  2.3985329e-33
  2.2342355e-33  2.1807777e-33 -2.4377745e-33 -8.2658476e-34
  2.6334560e-33  4.2157378e-34 -5.0857308e-33  2.5637021e-33
 -2.2261391e-33 -2.4098016e-33 -2.7019994e-33 -2.2066494e-33
  2.2649827e-33 -6.1364295e-34 -2.2146927e-33 -2.0442455e-33]
[-1.61444598e-33  2.29894167e-33  3.11010238e-33  1.33936295e-33
 -1.75028391e-33  4.39146102e-33 -2.05043592e-33 -3.68948922e-33
  1.56123650e-33 -2.28032349e-33 -4.71083475e-33 -2.78047191e-33
  3.42148937e-33 -2.65277814e-33 -2.16405314e-33  1.51515179e-33
  2.21721882e-34  2.13965263e-33 -1.93866165e-33  1.36741566e-33
 -6.00243415e-34 -2.19677413e-33  1.42720672e-34 -1.58238750e-33
 -1.92312621e-33  5.55328217e-33 -1.54512561e-33  3.59102210e-33
 -1.57447458e-33  5.15325189e-33 -8.24767979e-34  2.23305686e-33
  5.86613999e-33  1.56166959e-33  1.66439568e-33 -2.03170056e-33
 -3.47868892e-33  1.38257035e-33 -1.92186237e-33  1.99187940e-33
 -4.23554382e-33  2.38973685e-33  2.80892824e-33 -5.61746783e-33
  5.17022272e-33  2.75069462e-33  1.92452284e-33  1.47014230e-33
 -2.55179803e-33  1.46896579e-33  1.04421661e-33 -2.35769269e-34
  1.95603674e-33 -1.20293792e-33  1.68302065e-33 -1.82517594e-33
 -3.95871379e-33  2.60465744e-33  4.67026881e-33  5.25056262e-33
 -1.78300783e-33 -9.63693779e-34 -2.37027783e-33 -4.38536314e-33]
[-4.6378549e-33 -5.8907401e-34  2.9842202e-34 -3.4579172e-33
  4.4821991e-06  3.9414399e-33  3.6247491e-04  2.8176769e-33
  9.7119161e-25  1.1766681e-10  1.0534633e-33  2.2496530e-33
  4.3287770e-33 -3.1090959e-33  2.3467011e-33  4.7809066e-04
 -6.2543980e-04  5.1949092e-33 -3.7592148e-33  4.6640317e-33
  3.0027122e-33 -2.5606139e-33 -5.5624040e-33 -3.5572450e-33
 -5.6931376e-04  4.1575905e-33 -4.4348701e-03 -2.0993837e-33
  1.9768671e-33 -2.4767350e-33 -5.5176485e-33  3.3843930e-33
  1.3193837e-33 -1.7317978e-33  8.3833493e-06  1.6485184e-33
  1.5689514e-33  3.6630307e-33 -3.3742374e-33  2.4165291e-05
 -2.0913646e-33  5.0128582e-33  1.5967607e-33  2.2794408e-33
 -4.5218770e-33 -8.7695904e-03  2.0455946e-04  1.3339755e-09
 -1.7118078e-33  1.9745874e-05  3.5112104e-33 -4.3278932e-33
  2.2598462e-07  3.0474030e-33 -2.9590484e-33  2.6504097e-33
 -1.8537590e-33  2.4754522e-33  4.2668983e-33 -6.1889484e-34
  1.4756392e-33  4.1918261e-33 -5.4938213e-33  5.4829942e-33]
[-0.00351427 -0.00422816 -0.00515258 -0.00279934 -0.08432993 -0.00346106
  0.02832484 -0.00506663  0.03479132 -0.08514638 -0.00252719 -0.00305652
 -0.00247695 -0.00333361 -0.00475053  0.12969166  0.05688683 -0.00242481
 -0.00621931 -0.00476539 -0.00383796 -0.00317092 -0.0029221  -0.00506808
  0.09233665 -0.0042548  -0.08289364 -0.00419329 -0.01996813 -0.0039529
 -0.00333023 -0.00433796 -0.00362286  0.00686729  0.09176195 -0.01052384
 -0.00408334 -0.00396377 -0.00995517  0.04337737 -0.00245814 -0.00767505
 -0.00175856 -0.00310295 -0.00296296  0.19629896  0.14321946  0.08365017
 -0.00909723  0.09947754 -0.00285984 -0.00305407  0.05876334 -0.00187008
 -0.00239539 -0.02007907 -0.00258185 -0.00486601 -0.00289635 -0.00148909
 -0.00357626 -0.00324361 -0.00330805 -0.00379971]
[ 2.2771175e-33 -5.2727394e-33 -2.0567808e-33  5.0969156e-33
 -2.3815179e-33 -2.2748247e-33  2.5875683e-33  3.2772254e-33
  2.7631673e-33  2.2094177e-33 -4.1383293e-33 -1.6952487e-33
  2.2954062e-33 -3.3815387e-33 -2.3128162e-33  2.3253973e-33
 -2.2754461e-33  5.4270576e-33 -2.6123790e-33 -2.7339308e-33
 -5.0965688e-33 -2.2089298e-33 -2.7131423e-33 -2.0636422e-33
  2.6027831e-33  2.4833310e-33  2.1833158e-33  2.6464762e-33
 -2.2488719e-33  7.0750920e-34  2.5999465e-33 -2.4540065e-33
  2.1726708e-33 -2.4233635e-33 -2.3228712e-33  2.5240387e-33
  2.9013274e-33 -2.1913650e-33 -2.2892775e-33 -2.7084856e-33
  3.6052955e-33 -2.5500906e-33  5.3821386e-33 -3.9774354e-33
 -2.4357139e-33  2.0310188e-33  2.3565828e-33 -2.3002613e-33
 -2.1053400e-33 -2.5123655e-33  2.3445128e-33 -2.8810917e-34
  2.3090570e-33  1.0579743e-33 -4.5222443e-33 -2.1089168e-33
 -5.1782370e-33  2.0223763e-33 -1.9157132e-33  3.6753701e-33
  3.4000895e-33  2.7612465e-33  3.9436833e-33 -3.2938986e-34]
[ 7.5961180e-35 -2.9281937e-33  2.8301933e-33  4.3152574e-33
  1.6425557e-33  1.6943471e-33  1.4393952e-33  1.2922530e-33
  1.0616858e-33  1.8053780e-33  3.2394053e-33 -1.2312993e-33
  4.2063991e-34 -2.8305690e-34  4.8323041e-33  6.7683569e-34
  5.7139462e-33  1.5905621e-33 -3.9537198e-33  4.6390638e-33
 -3.0221254e-33  1.7601496e-33  1.7686154e-33  1.6062625e-33
  3.2929332e-34 -2.4017884e-34  1.9086816e-33 -1.8524496e-33
 -2.1099409e-33  3.3714060e-33  2.0241278e-34  1.1571229e-33
 -2.7147969e-33 -5.2167782e-33 -2.6806682e-33 -4.3267945e-33
  1.0048320e-33  9.2843556e-34  1.7053670e-33  1.4708879e-33
  3.5035943e-33  3.5245229e-33  4.1450359e-33 -2.5042261e-33
  5.4450320e-33 -3.6865523e-33  2.1719176e-33  2.6216449e-34
  7.8417421e-34  6.1410116e-34  4.0279489e-34 -4.6168257e-34
  4.3671643e-33 -1.7544547e-34  4.0760717e-34  1.9423419e-33
 -3.9235761e-34 -2.7060488e-33  2.7536194e-33  5.1908942e-33
  4.7407030e-33  5.2924157e-33  2.0881570e-33  3.5196049e-33]
[-2.1263528e-33  2.8432233e-34 -2.6113486e-33  2.4385961e-33
 -2.5755083e-33 -5.4074768e-33 -2.3927404e-33  9.1342707e-34
 -2.5527886e-33 -2.9156657e-33  3.8983768e-33  3.1728091e-33
 -5.3859990e-33 -4.7332933e-35 -2.0464677e-33  2.4961090e-33
 -2.2895522e-33  2.2206295e-33  2.5245414e-33 -3.4571473e-33
  2.9335846e-33 -4.7311818e-33 -1.9557537e-33 -2.4868263e-33
 -2.1567970e-33  2.2690823e-33  2.1548780e-33 -2.6318318e-33
  1.7129693e-34  1.3048865e-33 -2.0229389e-33 -2.4745851e-33
  3.5453119e-33 -2.8187530e-33 -2.4749284e-33 -2.4280464e-33
 -4.0080757e-33 -7.3914883e-34  2.4320668e-33  2.2163652e-33
 -1.6805150e-33  2.6606650e-33  4.9382812e-33 -3.6797620e-33
  8.6709138e-34 -2.2100135e-33 -2.1173752e-33 -2.3914553e-33
 -2.2410166e-33  2.1068275e-33 -2.1508784e-33 -5.5025192e-33
  2.5329380e-33  4.8249576e-33  1.8441365e-33  2.1026679e-33
 -3.0380282e-33 -3.2798254e-33  5.0031905e-33  2.1377742e-33
 -5.1300241e-33  4.0805417e-33 -3.7269162e-33 -3.5400431e-33]
[-2.4345777e-33 -7.1301708e-34 -2.0201772e-33  2.5963342e-33
  2.1647900e-33 -2.6335579e-33  2.8140345e-33  3.9174672e-33
 -1.8406864e-33 -2.5961669e-33  3.9616378e-33  3.4069246e-33
  4.8340574e-33  2.3328652e-33 -2.3224040e-33 -2.7228233e-33
  2.5136913e-33 -3.1332016e-33 -2.6034814e-33 -2.4277797e-33
 -7.4355234e-34 -6.9786092e-34 -3.5597407e-33 -2.3694629e-33
  2.4104224e-33  2.4042347e-33 -2.2413153e-33 -2.8667807e-33
  2.4643780e-33 -1.4125093e-33 -2.4157654e-33  2.0392553e-33
 -2.3401817e-33  2.3094666e-33 -2.2223444e-33  2.3910246e-33
 -1.0316757e-33 -1.6303197e-33  2.8663897e-33  2.2633124e-33
  3.5707140e-33  2.8733279e-33  6.1437727e-34  6.6174179e-35
 -2.6821804e-33 -2.4103052e-33  2.7715343e-33 -2.4021229e-33
 -2.9333606e-33 -2.4830219e-33  7.9858219e-34 -1.5087966e-33
 -2.6801378e-33  2.9921121e-33 -5.7965632e-33  2.8058870e-33
 -2.5918166e-33 -2.6666982e-33 -3.2938729e-33 -1.2023074e-33
  9.3713863e-34 -2.2512039e-33 -2.6994921e-33  3.2697213e-33]
[ 2.85127542e-34  5.79740296e-33 -3.19083974e-33 -4.09613349e-33
  5.64572378e-33 -3.12542311e-33 -5.24966887e-33 -1.01266818e-33
  9.45061734e-34  2.90882818e-33 -1.66577688e-33 -8.78760638e-34
  2.61740715e-34  2.61287819e-33 -3.55115411e-33  3.45865923e-33
 -3.07437507e-34 -1.28962273e-33  5.32164696e-33 -4.21617644e-33
 -5.59050934e-33 -9.31824657e-34 -2.63330424e-33 -3.55333722e-33
 -1.75248796e-33 -3.51700563e-35  5.70972724e-33  2.18148591e-33
  4.50935355e-33 -1.17320214e-33  1.27790783e-33  3.57199599e-33
 -2.60119818e-33  4.17712285e-33  1.03203702e-33  5.10793732e-33
 -4.08583249e-33  2.01958727e-33  4.64739002e-33 -4.95963548e-33
  4.14815830e-33  3.12910939e-33  1.54672943e-33  1.02674730e-33
 -4.89512104e-33  3.09543074e-33  6.55287407e-34  2.32554788e-33
  2.61288737e-33  3.73396772e-33  4.57855601e-33 -1.04927675e-33
  2.78367587e-33 -5.69525250e-33  1.71670077e-33  2.65222162e-33
 -3.71231806e-33 -4.34366064e-33  5.48197007e-33 -5.17089826e-33
 -4.02387585e-33 -2.65237958e-33  1.92396099e-33 -3.89760572e-33]
[-7.2582588e-34 -5.5622670e-33  5.7741844e-35 -1.3412297e-33
  1.9885908e-33 -1.0388077e-33  3.9696362e-34  2.3517987e-33
  6.3167898e-34  2.6587840e-33 -4.1812312e-33 -4.2896768e-33
  7.9577900e-34 -1.3435088e-34 -7.0280172e-34 -2.2796274e-33
 -3.7491533e-33 -1.0244591e-33  1.4646913e-33 -2.6801418e-33
  4.6263248e-33  2.5640450e-33 -4.2108474e-33 -2.9561534e-33
 -2.7091881e-33 -2.7339626e-33  1.2927423e-33 -3.0254503e-33
  3.5818040e-33 -3.6907172e-33 -4.7156719e-33  4.3000803e-33
 -3.2446197e-33 -1.3180805e-33 -4.1953349e-33  3.1973226e-33
  1.1687371e-34 -2.5022072e-33  3.5769393e-33 -2.3042841e-33
 -4.4435508e-33 -2.1100849e-33 -5.1947461e-33  5.2549020e-33
 -2.9451118e-33  5.0163314e-33 -4.9153759e-33 -1.0799304e-33
  2.7487754e-33 -4.0910763e-33  1.9651577e-33  3.7020395e-33
  2.0091729e-33  3.3787980e-33 -2.4905970e-33  3.8871078e-33
  7.9707150e-35 -2.7019796e-33 -1.1828109e-33  2.7522400e-33
 -3.2068430e-33  4.9671608e-33 -1.9463193e-33 -3.2419701e-33]
[-2.4449827e-33 -2.2239429e-33 -2.4105690e-33 -3.5893735e-33
  2.2010213e-33  4.2605289e-33  2.4533658e-33  4.2697268e-33
  2.4239731e-33 -2.1451815e-33 -4.9358696e-33  3.0314506e-33
  1.0890492e-33 -2.3610340e-33 -2.2408238e-33 -2.1908689e-33
 -2.2172648e-33  4.7501727e-34  2.3765471e-33 -2.2636162e-33
  3.6835328e-33 -4.5546909e-33 -2.4838495e-33 -2.6071826e-33
 -2.4069342e-33  2.1419162e-33 -2.2207193e-33 -2.1383313e-33
  2.7606039e-33 -2.7117075e-33  2.3739200e-33  2.3960867e-33
 -2.2897291e-33 -2.3159569e-33 -2.9541110e-33 -2.3325740e-33
 -3.1538374e-33  4.6818147e-33 -2.8181603e-33  2.4664777e-33
 -2.8234974e-33 -3.1740889e-33  2.2689895e-33  1.0265225e-34
  1.2435658e-33  2.0030756e-33 -2.3569079e-33  2.2099059e-33
 -2.2651642e-33 -2.4120374e-33 -2.6165575e-33 -3.4998500e-33
 -2.7492530e-33  2.5087841e-33  4.5546575e-33 -2.4987263e-33
  4.0890409e-33  2.7712101e-33 -2.2384588e-33  4.9103845e-33
  3.2964256e-33  1.7899330e-33  1.8444094e-34  4.8154758e-33]
[ 8.7031058e-34  3.9492716e-34 -2.0553735e-34 -2.3181351e-33
 -2.6137943e-33  5.8951565e-34 -2.5270278e-33  5.0714716e-33
 -2.5831244e-33  2.3775578e-33 -3.1372108e-34 -2.5375911e-34
  1.0302679e-33 -5.7874528e-33  2.8595050e-33  2.3085219e-33
 -1.8660425e-33 -2.3655766e-33 -2.1698002e-33 -2.3198072e-33
  1.9781564e-33  5.7150324e-33 -2.1127942e-33 -3.0130288e-33
 -2.3206262e-33  2.2079659e-33  2.1222388e-33 -9.1842274e-34
 -2.0289756e-33 -4.0102019e-33  2.5696273e-33 -1.6799640e-33
  4.9734197e-34 -2.0418712e-33 -2.3751203e-33 -2.5560568e-33
  1.6812434e-34  1.5280672e-33 -2.8067099e-33  2.8508719e-33
 -1.0271176e-33 -2.0186812e-33  3.2555727e-33 -4.6438103e-33
 -4.6487363e-33  2.1405894e-33  2.1664482e-33  2.2617768e-33
 -1.9031274e-33  2.6799185e-33  8.1134861e-34 -4.7515024e-34
  2.8126698e-33 -4.3530561e-33  5.4487925e-33 -2.8921411e-33
 -9.5037102e-34 -2.4526038e-33 -4.9105145e-33 -4.0751605e-33
 -1.0133320e-33 -3.7324789e-33  2.9710774e-33  6.0564261e-34]
[ 5.5634531e-33  1.6101224e-33  3.2167392e-33  2.8713824e-33
  2.1998758e-33 -2.1780806e-33  2.3530881e-33 -1.8100695e-33
  2.1868013e-33  1.3089383e-33 -6.1213005e-34  2.6022473e-33
  2.1844316e-33 -5.0842768e-33  1.5007674e-33  2.2452991e-33
  1.9770873e-33 -7.2621609e-34  1.7910971e-33 -1.2367729e-33
  4.7969289e-34 -1.3802627e-33  2.7071668e-33  1.7512897e-33
 -2.2224410e-33 -3.3149899e-33  1.7986645e-33 -2.1803949e-33
  1.8933601e-33 -1.5577710e-33  2.8480450e-33  1.2917781e-33
 -1.3754459e-34  2.3601921e-33  1.9835088e-33  2.1540820e-33
  7.6760736e-34  2.8937420e-33 -2.5719466e-33  1.7245803e-33
 -3.1419722e-33 -2.5943875e-33 -5.8742318e-34  2.1110777e-34
 -7.5901105e-34 -7.5156191e-34 -2.5923272e-33  1.7281457e-33
  2.3653802e-33  2.1044767e-33 -3.0175836e-33  4.4026584e-34
  2.5678143e-33 -4.2620688e-33 -3.9398574e-33  2.2074884e-33
  5.8209933e-33 -4.4617934e-33 -5.4343082e-33 -3.2323171e-33
  2.8772680e-33  4.7531559e-33  2.1269735e-33 -2.5969242e-36]
[ 2.4735643e-33 -6.2319545e-34  2.4046750e-33 -5.7843050e-33
 -2.3879497e-33 -2.4181076e-33  2.2958373e-33 -1.8613872e-33
  2.2989354e-33  2.7075228e-33  1.0837032e-33 -2.8846442e-33
 -4.0144719e-33 -8.8645820e-35  2.2065346e-33  2.0444201e-33
 -2.2834112e-33 -2.8693872e-33 -2.4416572e-33  2.4113037e-33
 -1.5220704e-33 -1.8474912e-33  1.9692432e-33 -2.9599159e-33
 -2.5861790e-33  2.2851480e-33  2.3184780e-33  2.5391960e-33
 -2.8221726e-33 -2.2699428e-33  2.2561032e-33  2.3906400e-33
 -2.1635407e-33 -3.0248153e-33 -2.3910126e-33  2.5230649e-33
 -2.3107499e-33 -2.5828559e-33 -2.3375715e-33  2.3387814e-33
 -3.9916930e-33  2.5363548e-33  6.7826759e-34  2.9920030e-33
 -2.6120247e-33 -1.8952536e-33 -2.1617321e-33  2.6144260e-33
  2.7210733e-33 -2.2298665e-33  9.8066994e-34 -2.4916419e-33
  2.6287193e-33  2.4960043e-34  3.9099220e-33 -2.5850963e-33
  1.3571692e-33 -2.3386144e-33 -2.2248967e-33 -6.3849951e-34
  2.2867213e-33  5.6837705e-33  2.6987620e-33  1.2873649e-33]
[-2.4020941e-33 -2.4172282e-33  2.2374819e-33  5.5091747e-35
  2.5440616e-33 -2.9167014e-33  2.5789573e-33 -2.6292391e-33
  2.1750115e-33  2.3233833e-33 -3.3349969e-35 -3.2778653e-33
  6.7689520e-34  1.8901383e-33  2.2318591e-33  2.6394374e-33
  2.4578994e-33 -1.9053794e-33 -1.9308108e-33 -2.2496379e-33
  3.2272371e-33 -2.3291781e-33 -2.3159841e-33  2.4135966e-33
 -2.1047478e-33 -2.4859720e-33 -2.5196420e-33 -2.2910504e-33
  2.5743449e-33 -2.1925067e-33 -2.9319382e-33  3.0714918e-33
 -1.9947215e-33 -2.3446513e-33  1.9353545e-33  2.4921551e-33
 -2.5798655e-33 -2.4767787e-33 -2.8391649e-33  2.3284785e-33
  4.4765099e-33 -2.3443371e-33 -4.3065628e-33 -2.1769053e-33
 -2.6493881e-33 -2.9580685e-33 -1.9938340e-33  2.3238081e-33
 -2.3864231e-33 -2.7494357e-33 -1.6605660e-33 -1.6733304e-33
 -2.1039586e-33  3.3606678e-33  2.6179420e-33  2.8346556e-33
  1.3030994e-33 -2.3439872e-33 -2.6739466e-33 -3.6747291e-33
  2.0635091e-33 -7.9677891e-34 -2.2154531e-33 -3.3107049e-33]
[-3.19080595e-35 -2.97762233e-33 -7.49112588e-35 -4.55558317e-33
  2.04088190e-33 -4.55170918e-33  2.56124680e-33  4.60223487e-34
  2.02729411e-33  1.66169737e-33  4.46105396e-33 -1.19457115e-33
  4.49635993e-33 -2.00503135e-33  1.82428605e-33  2.20759235e-33
  1.51532316e-33  1.50628875e-33  2.11888844e-33  3.91909817e-33
  2.29058078e-33 -2.25974205e-33  3.18943613e-33  2.30466137e-33
 -2.25166567e-33  9.64883967e-34  2.27218705e-33 -2.02884594e-33
  2.09056068e-33 -1.46172723e-34 -2.94926463e-33  1.61087744e-33
  2.92908507e-33  2.44999288e-33  1.97759035e-33  2.28075291e-33
  3.16169189e-33  2.27224601e-33  2.38188180e-33  1.96102819e-33
 -7.52207651e-34 -2.27133518e-33  4.98903643e-33  5.24475384e-33
 -2.02061712e-33 -8.43244913e-34 -2.98805172e-33  1.82891401e-33
  2.71846752e-33  2.11888367e-33  2.13546842e-33 -3.15309315e-33
  2.33871195e-33  5.58592252e-34  4.71305827e-33  2.72686202e-33
  2.12765653e-33  2.54720736e-33 -2.80055615e-33  1.67518892e-33
 -9.29837888e-34 -3.01713143e-33  3.52176675e-33 -2.44737850e-33]
[ 2.3296013e-33 -3.6099828e-33 -1.8299596e-33  7.0116456e-34
 -3.2025804e-33  2.2680471e-33 -2.5517249e-33  1.7958455e-33
 -2.1503087e-33  2.1772066e-33 -2.9207549e-33  1.1003110e-33
  1.6807586e-34 -4.5086446e-33  2.2558041e-33 -2.0614944e-33
  2.0490106e-33 -3.3963011e-33  2.6936793e-33 -2.5673056e-33
 -5.8704041e-34  1.9973873e-33  4.1882394e-33  2.7340829e-33
 -2.4895372e-33 -2.3611139e-33 -2.2101707e-33  2.5391315e-33
  2.0890443e-33 -9.4160247e-34  2.1099675e-33 -2.4771112e-33
 -3.2043333e-33 -2.2060840e-33  2.7147307e-33  2.1546400e-33
  2.5528562e-33  6.9949995e-34 -2.5941338e-33  2.4793753e-33
  3.9110361e-33  2.0987869e-33  2.0765144e-33 -1.9127067e-33
 -2.2170703e-33 -2.4201515e-33  2.1552331e-33 -2.1026341e-33
 -2.1817155e-33 -2.1782785e-33 -6.1956671e-34 -5.2203054e-33
 -2.4879095e-33 -3.2852393e-33  5.0571949e-33  2.1162649e-33
 -3.7542711e-33 -2.4404255e-33  3.9277127e-33 -3.0680410e-33
 -1.3431733e-33 -3.8334359e-33 -8.9621067e-34  2.7283272e-33]
[-7.7526679e+00 -7.3015409e+00 -6.7541842e+00 -8.2302094e+00
  4.5984630e-02 -7.7874370e+00  4.7108531e-02 -6.8034358e+00
 -7.5523041e-02  5.5589326e-02 -8.4233427e+00 -8.0549574e+00
 -8.4599228e+00 -7.8704233e+00 -6.9867043e+00  1.2291786e-02
  4.9999529e-03 -8.4986439e+00 -6.1736979e+00 -6.9784532e+00
 -7.5458083e+00 -7.9781532e+00 -8.1459274e+00 -6.8021574e+00
  6.1345976e-02 -7.2855048e+00  5.7157256e-02 -7.3233833e+00
 -3.9831138e-01 -7.4730396e+00 -7.8730245e+00 -7.2342978e+00
 -7.6827607e+00 -1.0685053e-01  3.7842341e-02 -4.1127105e+00
 -7.3913789e+00 -7.4660354e+00 -4.3718715e+00  4.1970797e-03
 -8.4736729e+00 -5.4427633e+00 -9.0265875e+00 -8.0231276e+00
 -8.1182652e+00  8.1347175e-02  5.4507699e-02 -7.1015866e-03
 -4.7666798e+00 -3.6476430e-02 -8.1886940e+00 -8.0564117e+00
 -3.6461011e-02 -8.9319506e+00 -8.5201483e+00 -1.8942814e-01
 -8.3838797e+00 -6.9191341e+00 -8.1635122e+00 -9.2740641e+00
 -7.7126026e+00 -7.9297528e+00 -7.8875742e+00 -7.5698938e+00]
layer 3 Activation
swish
layer 4 Dense
64 64
[ 1.6702429e-04  2.4046497e-04 -1.8872930e-04  6.4763131e-05
 -1.4790615e-09  1.0934966e-07 -4.9152522e-09  9.4548554e-08
  1.9171368e-08  2.0251896e-04  2.4836528e-04 -1.8925073e-04
  4.2386883e-08  3.7552374e-07 -9.3588949e-07 -1.9562593e-05
  2.4460535e-04 -1.7373725e-06  7.0061797e-05  1.5486890e-04
  1.9010847e-07 -2.3392451e-04  2.5686182e-07 -3.7688602e-05
  3.7866599e-07 -4.5723311e-05  1.7557567e-04  2.1926191e-04
  1.5584075e-04  3.7679200e-07 -1.4527626e-06 -1.5363396e-05
 -4.5765832e-04  2.1728297e-04  3.6503712e-04  1.4320176e-05
  2.4902285e-04  1.5446298e-04  2.4509453e-04  2.2320780e-04
 -2.8327919e-04 -3.1830307e-09  1.3468066e-07 -5.5873425e-05
  1.9444333e-04  9.6384043e-05 -3.6266066e-09  9.9645817e-08
  7.4871323e-08 -5.5591386e-07 -3.1317368e-06 -3.4487098e-09
 -5.5290409e-05 -7.1707735e-04 -2.3464547e-04 -1.2353285e-06
 -1.5351998e-04  2.3180645e-04  2.5502845e-07  2.4406904e-07
  5.8891350e-09  2.3364906e-04 -2.1778840e-05 -5.8388805e-06]
[ 9.4736315e-06  2.7508553e-04 -2.8060915e-04 -1.1688222e-05
 -2.7275955e-09  1.2476117e-07 -6.7987393e-09  1.0826608e-07
  2.1869475e-08  2.4097528e-04  2.8381296e-04 -1.8670085e-04
  4.9221711e-08  4.2423181e-07 -1.0853036e-06 -4.5070698e-05
  2.8365231e-04 -2.4988196e-06  3.3582037e-05  1.4652590e-04
  2.1123398e-07 -2.0427990e-04  2.8523164e-07 -7.5237978e-05
  4.2773945e-07 -3.1291383e-05  2.0517263e-04  2.6139262e-04
  1.3706747e-04  4.2530189e-07 -1.9112445e-06 -1.6443235e-05
 -6.3044863e-04  2.0564496e-04  4.7515731e-04  6.9986927e-06
  2.8385053e-04  1.2729599e-04  2.8428598e-04  2.6752820e-04
 -3.7961520e-04 -4.6004764e-09  1.5242435e-07  2.7750972e-05
  2.1170513e-04  1.0968534e-04 -5.1813185e-09  1.1396855e-07
  8.6239965e-08 -6.6432449e-07 -3.1714942e-06 -4.9465534e-09
 -2.1929445e-04 -1.0534645e-03 -2.5601496e-04 -1.5576582e-06
 -1.6494885e-04  2.6653352e-04  2.8310870e-07  2.7044675e-07
  6.0648078e-09  2.6803007e-04  3.4516415e-06 -5.0005110e-06]
[-2.6922146e-04  3.1994656e-04 -4.1217369e-04 -1.2390883e-04
 -6.7103567e-09  1.3834179e-07 -1.1542740e-08  1.2057430e-07
  2.2999993e-08  2.7750368e-04  3.2877474e-04 -1.5085463e-04
  5.5368197e-08  4.5997490e-07 -1.2658039e-06 -7.5952317e-05
  3.3132682e-04 -3.8001003e-06 -4.1660132e-06  1.4050175e-04
  2.2526079e-07 -1.5614809e-04  3.0370998e-07 -8.1849816e-05
  4.6410764e-07 -1.8122642e-05  2.0420970e-04  3.0170855e-04
  1.6564777e-04  4.6018653e-07 -2.7224819e-06 -2.7028749e-05
 -8.4181206e-04  2.2349640e-04  6.1075180e-04 -2.2111708e-06
  3.2926581e-04  1.5109638e-04  3.3356893e-04  3.1332765e-04
 -4.9447687e-04 -8.4915435e-09  1.6705582e-07  1.0709028e-04
  2.4927990e-04  7.3644238e-05 -9.3417469e-09  1.2676398e-07
  9.6689476e-08 -7.5090065e-07 -2.5371701e-06 -8.9933661e-09
 -4.6427271e-04 -1.4076312e-03 -2.7155504e-04 -2.1029618e-06
 -1.8206393e-04  3.0481408e-04  3.0130846e-07  2.8713592e-07
  3.9576764e-09  3.0679299e-04  3.7277496e-05 -1.9493928e-06]
[ 1.73533699e-04  2.05490345e-04 -1.15539398e-04  1.05919404e-04
 -1.38941814e-09  9.23966113e-08 -4.08253964e-09  7.95785624e-08
  1.54434545e-08  1.92271516e-04  2.12232000e-04 -1.63758392e-04
  3.46809585e-08  3.22499801e-07 -7.63529272e-07  1.34561797e-05
  2.03471311e-04 -1.20755249e-06  1.07401880e-04  1.71617401e-04
  1.64782819e-07 -2.41340880e-04  2.23424962e-07  3.30103903e-05
  3.25369257e-07 -7.03366313e-05  1.99430142e-04  1.77198512e-04
  1.68651255e-04  3.23806432e-07 -1.11380109e-06 -3.02896224e-05
 -2.96399317e-04  2.44597439e-04  2.68080941e-04  1.36977214e-05
  2.14127955e-04  1.55284739e-04  2.04104465e-04  1.75004476e-04
 -1.95239569e-04 -2.65028000e-09  1.14688753e-07 -1.51866945e-04
  2.18658533e-04  8.74474936e-05 -3.01028535e-09  8.39830392e-08
  6.25458014e-08 -4.21978598e-07 -2.42892929e-06 -2.86478574e-09
  4.94280794e-05 -3.38393264e-04 -2.12711166e-04 -9.73767101e-07
 -1.44677237e-04  1.97452464e-04  2.21866728e-07  2.12568423e-07
  4.59462557e-09  1.99473245e-04 -4.97963701e-05 -4.73638011e-06]
[-4.03763400e-03  6.38281554e-02 -1.48907736e-01 -5.76412156e-02
 -8.50394717e-05 -1.18764918e-04 -6.29424321e-05 -1.92647043e-04
 -2.80161359e-04  5.80335408e-02  6.34288713e-02  1.14755854e-01
 -3.31781106e-04 -1.12486945e-03 -1.20851456e-03  4.95117158e-02
  6.33380264e-02 -2.43193354e-03 -3.30140829e-01 -1.04192674e-01
 -4.58195398e-04 -1.05636418e-01 -6.79386139e-04  6.88663870e-02
 -1.11301988e-03  1.19818650e-01  4.28919084e-02  5.79822809e-02
  4.14201319e-02 -1.13251468e-03 -2.12970260e-03 -4.74556116e-03
 -1.47603955e-02  5.37043773e-02 -1.63394853e-01  2.85700317e-02
  6.42553046e-02  4.07752842e-02  6.41290620e-02  5.98814599e-02
 -1.20248362e-01 -1.02346305e-04 -1.57260904e-04  6.08897991e-02
  5.55263869e-02  3.83791737e-02 -9.29814123e-05 -1.65759659e-04
 -2.69954500e-04 -5.13665727e-04 -1.80283654e-03 -9.84714570e-05
 -2.15179548e-01 -2.68445965e-02 -2.86030192e-02 -1.84430054e-03
  3.02594770e-02  6.20185770e-02 -6.73281203e-04 -6.31335133e-04
 -1.75634297e-04  6.22884147e-02  6.59629107e-02 -2.49004718e-02]
[ 1.7399481e-04  2.3779357e-04 -1.8131148e-04  7.0035472e-05
 -1.4255985e-09  1.0806342e-07 -4.8109783e-09  9.3413064e-08
  1.8931495e-08  2.0014709e-04  2.4560734e-04 -1.8869300e-04
  4.1833136e-08  3.7126227e-07 -9.2385449e-07 -1.6783088e-05
  2.4152258e-04 -1.6891753e-06  7.3044066e-05  1.5447274e-04
  1.8818204e-07 -2.3519393e-04  2.5425692e-07 -3.3885030e-05
  3.7437573e-07 -4.7130085e-05  1.7459862e-04  2.1579525e-04
  1.5874344e-04  3.7253022e-07 -1.4229654e-06 -1.5716032e-05
 -4.4362585e-04  2.1918598e-04  3.5669084e-04  1.4481593e-05
  2.4634594e-04  1.5704510e-04  2.4204009e-04  2.1953882e-04
 -2.7664445e-04 -3.1069050e-09  1.3316568e-07 -6.2900086e-05
  1.9465800e-04  9.4041716e-05 -3.5426027e-09  9.8457406e-08
  7.3942360e-08 -5.4696784e-07 -3.1040040e-06 -3.3678624e-09
 -4.5270310e-05 -6.9006701e-04 -2.3308030e-04 -1.2134675e-06
 -1.5229592e-04  2.2900807e-04  2.5244702e-07  2.4162784e-07
  5.8369807e-09  2.3088852e-04 -2.3771558e-05 -6.2673216e-06]
[-2.1992117e-01 -1.2284365e-02 -8.5012149e-03  3.4167770e-02
 -3.3703481e-04 -3.7760948e-04 -2.6345148e-04 -3.3069678e-04
 -2.4441871e-04 -1.0186973e-02 -1.2848397e-02  1.3222443e-01
 -1.8867443e-04 -6.6118350e-04 -3.1481858e-03  1.4232577e-01
 -1.4989096e-02 -4.6112705e-03 -1.0508202e-01 -1.1892527e-02
 -2.6521774e-04 -1.1856657e-02 -3.1673006e-04  4.6917405e-02
 -6.4855698e-04  2.9550077e-02 -5.0532650e-03 -1.7271250e-02
 -4.6138903e-03 -6.7665457e-04 -4.1961814e-03  1.3628772e-01
 -4.9317353e-03 -9.0254117e-03  3.1740658e-02  6.1226163e-02
 -1.1936837e-02 -5.2760812e-03 -1.4726101e-02 -1.8246066e-02
  5.3908951e-03 -1.5825313e-04 -3.9016706e-04 -2.5629889e-02
 -9.6059507e-03 -5.5096177e-03 -1.9608691e-04 -3.5185419e-04
 -1.7385076e-04 -2.1815770e-03 -3.2749430e-03 -1.7789919e-04
 -9.3735121e-02  3.0721460e-02  2.0147398e-02 -3.8334129e-03
  1.3533364e-01 -1.1183322e-02 -3.1342587e-04 -2.9079831e-04
 -3.1508858e-04 -1.1066958e-02  8.6540438e-02 -2.6613649e-02]
[-2.45363830e-04  3.14965553e-04 -3.98959179e-04 -1.12854934e-04
 -6.30300789e-09  1.37204097e-07 -1.10620615e-08  1.19532558e-07
  2.29154935e-08  2.74184393e-04  3.23810527e-04 -1.56927053e-04
  5.48152883e-08  4.56814121e-07 -1.24872588e-06 -7.36332149e-05
  3.26214475e-04 -3.66997574e-06 -2.23437746e-06  1.40810414e-04
  2.24192377e-07 -1.61689706e-04  3.02260332e-07 -8.46194962e-05
  4.60945614e-07 -1.91431900e-05  2.05760458e-04  2.97641440e-04
  1.62846482e-04  4.57095496e-07 -2.63632296e-06 -2.60201778e-05
 -8.22176924e-04  2.20191083e-04  5.99128834e-04 -1.34082075e-06
  3.24219989e-04  1.47752537e-04  3.28285823e-04  3.08695249e-04
 -4.83748561e-04 -8.08897660e-09  1.65863796e-07  1.00590929e-04
  2.45329109e-04  7.59539980e-05 -8.91395047e-09  1.25684792e-07
  9.57883870e-08 -7.47007334e-07 -2.61846708e-06 -8.57618687e-09
 -4.40727832e-04 -1.37737964e-03 -2.70233315e-04 -2.04490561e-06
 -1.80981631e-04  3.00600572e-04  2.99881975e-07  2.85846880e-07
  4.18559409e-09  3.02505097e-04  3.41495252e-05 -2.81633947e-06]
[-4.23687585e-02  2.21231040e-02  7.10404711e-03 -6.80642799e-02
 -1.24314072e-04 -4.75953093e-05 -5.85434464e-05 -5.63644280e-05
 -2.59444787e-04  2.14953162e-02  2.22416632e-02  1.19329222e-01
 -3.04598710e-04 -8.23420007e-04 -1.59119803e-03 -7.72359073e-02
  2.33214106e-02 -2.32763868e-03  2.27803320e-01  2.79116910e-02
 -4.29599138e-04  9.26722586e-02 -6.12289761e-04 -4.70121205e-03
 -8.22975184e-04 -8.50389991e-03  2.05356106e-02  2.26514321e-02
  1.95127614e-02 -8.15834093e-04 -2.17905967e-03 -4.19332497e-02
 -1.12389915e-01  2.19284780e-02 -9.18602273e-02 -1.02611678e-02
  2.21555699e-02  1.90670453e-02  2.35701445e-02  2.40163952e-02
  8.74332488e-02 -1.04186125e-04 -1.87852449e-04  2.90352441e-02
  2.17968002e-02  1.69349350e-02 -8.67651397e-05 -4.65434387e-05
 -1.35244802e-04 -8.42127949e-04 -1.41865260e-03 -9.52346891e-05
 -1.81967139e-01 -5.12922108e-02  1.16683859e-02 -2.01795390e-03
 -1.89222507e-02  2.13900525e-02 -6.07414288e-04 -5.73460653e-04
 -2.04849639e-04  2.14239843e-02 -6.04737317e-03 -8.79930798e-03]
[-6.1239088e-03  6.8067238e-02  4.1130453e-01 -1.8310098e-01
 -6.4709282e-05 -1.3726248e-04 -1.2506143e-04 -1.8524652e-04
 -1.5371214e-04  5.6729723e-02  6.7801304e-02  6.1791319e-02
 -3.0085427e-04 -1.1340276e-03 -6.9470674e-04 -5.1362548e-02
  6.7827359e-02 -1.7335475e-03 -1.5679137e-01  1.6574295e-02
 -3.8271287e-04 -1.9695114e-01 -6.4498937e-04  6.1395906e-02
 -1.1323348e-03  8.3273880e-02  3.1895697e-02  6.0569931e-02
  2.9690260e-02 -1.1446389e-03 -1.5102188e-03  8.4048755e-02
  7.6962323e-03  4.7695011e-02 -4.8916292e-01 -7.1881264e-02
  6.8399914e-02  2.8769618e-02  6.8673231e-02  6.2312908e-02
 -3.7384946e-02 -7.0716138e-05 -9.0098234e-05  4.7996465e-02
  5.1550776e-02  2.5117150e-02 -9.3178358e-05 -1.6754985e-04
 -3.0247218e-04 -5.1990202e-05 -1.2187132e-03 -8.1667873e-05
 -2.1447332e-01  6.0283672e-02  3.9609377e-03 -1.2798532e-03
 -1.6079620e-02  6.4926870e-02 -6.3905405e-04 -5.9726607e-04
 -7.6313983e-05  6.5252565e-02  9.0899028e-02 -5.3545004e-03]
[ 1.32714951e-04  1.92411782e-04 -9.69999164e-05  1.08700151e-04
 -1.51458712e-09  8.55383391e-08 -3.90268440e-09  7.35783061e-08
  1.38405554e-08  2.02716779e-04  1.98814232e-04 -1.52347260e-04
  3.15656052e-08  3.01804675e-07 -6.83623000e-07  2.96776670e-05
  1.87792553e-04 -1.03589230e-06  1.15599105e-04  1.83474243e-04
  1.53831309e-07 -2.34164865e-04  2.09133560e-07  6.61405065e-05
  3.04695106e-07 -8.13633305e-05  2.12265586e-04  1.66923477e-04
  1.52431719e-04  3.03157663e-07 -9.92333185e-07 -4.02681544e-05
 -2.42019116e-04  2.49494333e-04  2.36408421e-04  1.24241524e-05
  2.01042916e-04  1.39297699e-04  1.87857222e-04  1.59042844e-04
 -1.64358207e-04 -2.55767763e-09  1.06448205e-07 -1.85194222e-04
  2.33306622e-04  9.16286226e-05 -2.89250579e-09  7.76866926e-08
  5.76605679e-08 -3.64436801e-07 -2.02839578e-06 -2.75599898e-09
  6.38298661e-05 -1.79513750e-04 -2.03636679e-04 -8.71353336e-07
 -1.41822282e-04  1.88229111e-04  2.07663646e-07  1.98961644e-07
  3.93583210e-09  1.89856873e-04 -6.02736582e-05  4.96543180e-07]
[ 1.93861575e-04  2.17597757e-04 -1.37744995e-04  9.73823771e-05
 -1.31610567e-09  9.85884299e-08 -4.28972236e-09  8.50318500e-08
  1.68807350e-08  1.89535058e-04  2.24736170e-04 -1.75684487e-04
  3.75247495e-08  3.41366530e-07 -8.30340468e-07  7.76303295e-07
  2.17927969e-04 -1.37742836e-06  9.50030226e-05  1.63000630e-04
  1.74221341e-07 -2.42067734e-04  2.35769463e-07  4.02969408e-06
  3.44310479e-07 -5.97477410e-05  1.82977907e-04  1.90318606e-04
  1.73567008e-04  3.42649997e-07 -1.22694382e-06 -2.22580929e-05
 -3.50409478e-04  2.35493120e-04  2.99825158e-04  1.53389701e-05
  2.26187854e-04  1.64874786e-04  2.18645640e-04  1.91465646e-04
 -2.25587777e-04 -2.76435763e-09  1.22035061e-07 -1.17844516e-04
  2.05175165e-04  8.39896311e-05 -3.15030313e-09  8.96930885e-08
  6.70266616e-08 -4.73302634e-07 -2.75848129e-06 -2.99515968e-09
  2.09890350e-05 -4.80281888e-04 -2.20197457e-04 -1.06493349e-06
 -1.46974577e-04  2.08352736e-04  2.34119540e-07  2.24252858e-07
  5.16356424e-09  2.10444166e-04 -3.90478199e-05 -8.04087631e-06]
[ 1.2367014e-04  1.8943645e-04 -9.4464122e-05  1.0934147e-04
 -1.5191386e-09  8.4190667e-08 -3.8634758e-09  7.2407744e-08
  1.3578430e-08  2.0488125e-04  1.9578706e-04 -1.5163250e-04
  3.1018480e-08  2.9768913e-07 -6.6808138e-07  3.3019031e-05
  1.8431441e-04 -1.0041668e-06  1.1589647e-04  1.8526361e-04
  1.5158220e-07 -2.3218362e-04  2.0616864e-07  7.1517505e-05
  3.0053943e-07 -8.2698214e-05  2.1250900e-04  1.6505105e-04
  1.4906815e-04  2.9904987e-07 -9.6914005e-07 -4.1585678e-05
 -2.3174426e-04  2.4955944e-04  2.3035350e-04  1.2584740e-05
  1.9805008e-04  1.3671558e-04  1.8418892e-04  1.5582143e-04
 -1.5888625e-04 -2.5410358e-09  1.0480561e-07 -1.9140029e-04
  2.3524063e-04  9.1074107e-05 -2.8697649e-09  7.6454882e-08
  5.6725852e-08 -3.5398114e-07 -1.9470017e-06 -2.7356686e-09
  6.4981388e-05 -1.4982656e-04 -2.0137095e-04 -8.5147258e-07
 -1.4099161e-04  1.8637872e-04  2.0471799e-07  1.9613468e-07
  3.8390313e-09  1.8788641e-04 -6.1492465e-05  1.3394847e-06]
[ 1.8664172e-04  2.3110071e-04 -1.6651489e-04  8.0135389e-05
 -1.3594323e-09  1.0513409e-07 -4.6117137e-09  9.0812428e-08
  1.8302883e-08  1.9504823e-04  2.3870818e-04 -1.8548145e-04
  4.0484323e-08  3.6202965e-07 -8.9560638e-07 -1.1519207e-05
  2.3380968e-04 -1.5844864e-06  8.0373269e-05  1.5633831e-04
  1.8398276e-07 -2.3828425e-04  2.4869266e-07 -2.3227576e-05
  3.6510190e-07 -5.0806168e-05  1.7426925e-04  2.0725379e-04
  1.6533012e-04  3.6330508e-07 -1.3582645e-06 -1.7142665e-05
 -4.1355763e-04  2.2405465e-04  3.3766383e-04  1.4803409e-05
  2.3965580e-04  1.6218273e-04  2.3439286e-04  2.1039590e-04
 -2.6059424e-04 -2.9668392e-09  1.2975309e-07 -8.0438971e-05
  1.9615148e-04  8.9139423e-05 -3.3856953e-09  9.5741058e-08
  7.1785706e-08 -5.2458961e-07 -3.0194155e-06 -3.2176342e-09
 -2.2147280e-05 -6.2597147e-04 -2.2919849e-04 -1.1654588e-06
 -1.5045461e-04  2.2205549e-04  2.4693310e-07  2.3641338e-07
  5.6511182e-09  2.2402158e-04 -2.8621202e-05 -7.2909297e-06]
[-1.5023294e-04  3.0068358e-04 -3.5555003e-04 -7.6914977e-05
 -4.7124602e-09  1.3336958e-07 -9.2369330e-09  1.1602100e-07
  2.2838346e-08  2.6510441e-04  3.0957905e-04 -1.7005790e-04
  5.3115109e-08  4.4842204e-07 -1.1901860e-06 -6.3741230e-05
  3.1119533e-04 -3.2097091e-06  9.5496653e-06  1.4410667e-04
  2.2107184e-07 -1.7718502e-04  2.9829616e-07 -8.4732746e-05
  4.5216296e-07 -2.3733272e-05  2.1225648e-04  2.8611103e-04
  1.5321908e-04  4.4906989e-07 -2.3443495e-06 -2.2485190e-05
 -7.5443205e-04  2.1357078e-04  5.5450160e-04  1.1414377e-06
  3.0974648e-04  1.3754399e-04  3.1262150e-04  2.9497303e-04
 -4.4652738e-04 -6.5904668e-09  1.6190047e-07  7.6500728e-05
  2.3453374e-04  8.9334324e-05 -7.3123214e-09  1.2204228e-07
  9.2772325e-08 -7.2337457e-07 -2.8809525e-06 -7.0184356e-09
 -3.5569389e-04 -1.2655681e-03 -2.6673079e-04 -1.8505261e-06
 -1.7549405e-04  2.8909917e-04  2.9600972e-07  2.8238765e-07
  5.1575526e-09  2.9075981e-04  2.2404638e-05 -5.4844186e-06]
[ 7.78490901e-02 -5.71111999e-02  2.20358986e-02 -1.13726221e-01
 -1.70183586e-04 -2.66620948e-04 -9.35562493e-05 -2.28971272e-04
 -3.53374257e-04 -5.17489612e-02 -5.72965369e-02  7.23729730e-02
 -3.98211821e-04 -1.54933671e-03 -9.51351039e-03 -4.59891744e-02
 -5.73736206e-02 -1.45531558e-02  4.29100432e-02  6.66576698e-02
 -4.62179276e-04 -1.21353641e-02 -6.64193823e-04  5.53136542e-02
 -1.52378145e-03 -2.46344116e-02 -3.74595858e-02 -5.73826358e-02
 -3.65251303e-02 -1.61614502e-03 -1.31949615e-02  7.95795098e-02
 -4.53578085e-02 -4.75022532e-02  1.34973601e-02 -4.93674129e-02
 -5.69651201e-02 -3.63568515e-02 -5.71431257e-02 -5.69391698e-02
  2.66036183e-01 -1.43356519e-04 -3.58975813e-04 -4.93904501e-02
 -4.94197085e-02 -3.49808037e-02 -1.36287679e-04 -2.37685832e-04
 -2.69220385e-04 -6.95053115e-03 -8.52653105e-03 -1.40037897e-04
  2.65670903e-02 -2.17043199e-02  3.88654694e-02 -1.19090527e-02
 -6.89233318e-02 -5.58390990e-02 -6.58626726e-04 -6.19857863e-04
 -2.74721038e-04 -5.58673814e-02  1.36160508e-01 -2.91477260e-03]
[-9.9550197e-03  5.2151442e-01 -1.5684371e-01  1.6908620e-01
 -3.3707544e-04 -4.5763035e-04 -3.0764221e-04 -4.1262279e-04
 -2.2320979e-04  4.8802075e-01  5.2067566e-01 -7.5438045e-02
 -1.4205964e-04 -5.6780985e-04 -3.3708743e-03 -4.8230354e-02
  5.2272499e-01 -4.9715773e-03  2.2772920e-01 -5.1963944e-02
 -3.2057741e-04  4.7622788e-01 -3.7966057e-04 -7.8856580e-02
 -5.6574517e-04 -1.5748398e-02  3.4041876e-01  5.0420856e-01
  3.2391655e-01 -5.7034520e-04 -4.5798472e-03  1.0239766e-01
  6.7284532e-02  4.4689077e-01 -2.1061237e-01 -3.3003639e-02
  5.2263427e-01  3.2114062e-01  5.2535301e-01  5.1334423e-01
  3.2517992e-02 -2.5901661e-04 -4.5100477e-04  5.2763760e-01
  4.6594620e-01  2.9948288e-01 -2.8716985e-04 -4.3361919e-04
 -2.2820900e-04 -2.1707586e-03 -3.1382076e-03 -2.7528382e-04
 -1.2867144e-01 -2.8720132e-01 -1.5625400e-02 -4.1937232e-03
  2.4864229e-03  5.1317000e-01 -3.7656591e-04 -3.5576706e-04
 -2.9273023e-04  5.1409543e-01 -1.8282013e-02  2.2719628e-03]
[ 1.13820512e-04  1.87739774e-04 -9.17843572e-05  1.08236040e-04
 -1.52317581e-09  8.28044122e-08 -3.82212573e-09  7.12012067e-08
  1.33047822e-08  2.08099736e-04  1.94035732e-04 -1.49505053e-04
  3.04479215e-08  2.93492889e-07 -6.51182575e-07  3.66586319e-05
  1.82092568e-04 -9.71120471e-07  1.16785435e-04  1.88019418e-04
  1.49300433e-07 -2.29229874e-04  2.03171496e-07  7.86138044e-05
  2.96298850e-07 -8.53745660e-05  2.12243904e-04  1.64501238e-04
  1.45995844e-04  2.94863327e-07 -9.44607166e-07 -4.42905439e-05
 -2.21527007e-04  2.49876786e-04  2.24341013e-04  1.20146833e-05
  1.96333742e-04  1.34622009e-04  1.81762894e-04  1.53871137e-04
 -1.53447705e-04 -2.52458765e-09  1.03122815e-07 -1.96299588e-04
  2.37555840e-04  8.98931539e-05 -2.84654966e-09  7.51859943e-08
  5.57585196e-08 -3.42568569e-07 -1.85737861e-06 -2.71516498e-09
  6.45123291e-05 -1.19681819e-04 -2.00071212e-04 -8.30217175e-07
 -1.40468590e-04  1.85866564e-04  2.01741258e-07  1.93278382e-07
  3.73829412e-09  1.87249010e-04 -6.39762584e-05  1.99922579e-06]
[-4.39818134e-04  3.71092145e-04 -5.68838499e-04 -2.30821825e-04
 -1.34076545e-08  1.45555006e-07 -1.90812255e-08  1.27451273e-07
  2.18889937e-08  2.96261482e-04  3.79385892e-04 -8.33135637e-05
  5.92020193e-08  4.69647944e-07 -1.49989307e-06 -9.95610826e-05
  3.82957631e-04 -5.30959232e-06 -2.22818453e-05  1.28292275e-04
  2.25652641e-07 -9.77169984e-05  3.03724988e-07 -4.46034355e-05
  4.74299327e-07 -2.66096322e-06  1.74780173e-04  3.38797778e-04
  1.57583330e-04  4.68475037e-07 -3.87310865e-06 -3.66282038e-05
 -1.04379258e-03  2.47305143e-04  7.36583839e-04 -4.23708843e-06
  3.81063204e-04  1.52585533e-04  3.87186650e-04  3.57772806e-04
 -6.02304353e-04 -1.49111390e-08  1.73269115e-07  1.69735053e-04
  2.70300283e-04  7.88528559e-05 -1.61286593e-08  1.33825154e-07
  1.02999635e-07 -7.61320280e-07 -1.56568831e-06 -1.56252771e-08
 -7.40520074e-04 -1.70339039e-03 -2.71770463e-04 -2.92325649e-06
 -1.92707259e-04  3.46314453e-04  3.01152511e-07  2.86115494e-07
 -6.49568399e-10  3.49351292e-04  7.71427876e-05  3.60359991e-06]
[-1.5474089e-04  3.0188312e-04 -3.5631200e-04 -7.8446501e-05
 -4.7245061e-09  1.3356971e-07 -9.2570183e-09  1.1620409e-07
  2.2874870e-08  2.6594521e-04  3.1077230e-04 -1.6979806e-04
  5.3207131e-08  4.4878158e-07 -1.1894318e-06 -6.4347587e-05
  3.1242750e-04 -3.2225769e-06  8.6896835e-06  1.4407223e-04
  2.2125009e-07 -1.7657065e-04  2.9851194e-07 -8.4752282e-05
  4.5257735e-07 -2.3552195e-05  2.1213412e-04  2.8716552e-04
  1.5375353e-04  4.4941436e-07 -2.3509324e-06 -2.2755259e-05
 -7.5671880e-04  2.1390499e-04  5.5645785e-04  8.3362829e-07
