layers 12
layer 0 Dense
26 64
[ 0.02936519 -0.00244338  0.11886448 -0.06929438 -0.00721217  0.12343804
 -0.06165341  0.01911025  0.00992244 -0.01302653  0.0193753  -0.29202667
 -0.21373942 -0.02617392  0.07799501  0.14725313 -0.01236479  0.03119904
 -0.0375458  -0.0048016   0.02890135 -0.16565669 -0.02227468 -0.19202918
 -0.01996195  0.07035722  0.00921926 -0.04980934  0.04525372 -0.03296088
 -0.0123963  -0.00129766  0.08921726 -0.01436225 -0.0063763   0.01209097
  0.06882351  0.1468627  -0.00954537  0.00491107  0.00404799  0.2994383
  0.18783785 -0.096242   -0.04109697 -0.00393069  0.03791713  0.11287208
  0.2597636  -0.03562948 -0.00348198 -0.08794978  0.01569331 -0.06666171
  0.00764574  0.00812649 -0.0221257   0.14148766  0.06811032 -0.22238539
 -0.00964097  0.0401825   0.01456461  0.0112837 ]
[-0.02961385  0.00242457 -0.11878105  0.06917585  0.00723198 -0.12359689
  0.06603672 -0.01912196 -0.00997351  0.01304036 -0.01939319  0.28642228
  0.21369421  0.03114616 -0.07805351 -0.1461585   0.01092251 -0.03118593
  0.04695079  0.00473322 -0.02888409  0.16564593  0.02101003  0.19314696
  0.02216281 -0.07037614 -0.00924253  0.04988015 -0.04063226  0.03241133
  0.01295279  0.00129766 -0.08946804  0.0321844   0.0062379  -0.01218119
 -0.07364973 -0.14725205 -0.03178219 -0.00491107 -0.00531291 -0.29878876
 -0.18777326  0.10420635  0.04110991  0.00189379 -0.03792081 -0.11320638
 -0.25955787  0.03500537  0.003398    0.08539457 -0.01592851  0.0664445
 -0.00994558 -0.00824954  0.0221257  -0.14139672 -0.06556372  0.20968491
  0.00938515  0.02352086 -0.01456461 -0.01136401]
[ 0.10331899 -0.06409904  0.24360505 -0.24659203 -0.16326885  0.18311423
 -0.16858271 -0.02492815  0.04773932  0.22508764  0.10434116 -0.09329481
 -0.30175206 -0.03446057 -0.5101673  -0.32071328  0.32471737 -0.07524967
  0.35553467 -0.06088981  0.0364545   0.01034679 -0.0748209   0.02221113
  0.00215293  0.08892892  0.00276272 -0.0037489  -0.09611504  0.02763056
 -0.22015435  0.09316107 -0.07207186 -0.01268915 -0.04350435  0.01166345
  0.3931659  -0.72404766 -0.03030629 -0.03591729 -0.03015946  0.46514064
  0.39541975  0.10555661 -0.13866039 -0.04221844  0.15322661 -0.04686151
 -0.01888337  0.04643765 -0.02065703  0.0992065  -0.03269158 -0.03356905
  0.03323697 -0.01462713 -0.14724065 -0.05867695 -0.21003    -0.24720013
  0.5461448   0.20523663  0.20862623  0.43934992]
[ 1.93060818e-03 -4.06922884e-02  4.89919819e-03  4.25265229e-04
 -1.46931112e-01 -2.82963365e-03 -7.86327478e-03  3.46148163e-02
 -5.06913029e-02 -7.95983151e-02 -1.16540916e-01 -3.65736941e-03
 -1.32283010e-02 -1.08360965e-03 -9.10072215e-03 -1.23100833e-03
 -1.14708883e-03  1.38141634e-02  2.30909628e-03 -6.89104646e-02
  1.13359131e-01 -4.57408652e-03  3.80706112e-03 -3.39141628e-03
  1.98857747e-02 -2.17989762e-03  2.17153057e-02  8.86788033e-03
  5.61679015e-03  7.66332319e-04  1.30168553e-02  2.68592268e-01
  1.39158824e-02  4.54944093e-03  3.04640876e-03 -7.62020878e-04
  1.48215005e-03  3.33640748e-03 -2.37710075e-03 -2.56935090e-01
 -8.05974565e-03 -4.86487430e-03 -2.91690882e-03  8.37928616e-04
 -1.70256733e-03  6.46307925e-03 -4.37632087e-04 -9.17051730e-05
 -7.86569901e-03  3.94778699e-03  9.77551378e-03  3.00333928e-03
 -4.83525917e-03 -4.17660456e-03 -1.35569070e-02  2.79105618e-03
  8.15537479e-03 -5.22456272e-03  1.89210975e-03 -6.64759381e-03
 -7.03145750e-04  2.74786130e-02  1.81257740e-01  1.16418872e-03]
[-1.43892244e-01 -2.83813309e-02  3.41268778e-02 -5.28389663e-02
  2.27335021e-02 -2.49737967e-02  9.48611349e-02  2.16496903e-02
 -4.67550367e-01  2.28834953e-02  2.15180144e-02  8.98532867e-02
  9.53456089e-02  3.20581049e-02  4.53384221e-03 -7.27033615e-02
  2.55075060e-02 -5.45041263e-03 -1.44523844e-01  7.49232899e-03
  1.61000386e-01  3.27215344e-02 -2.84062661e-02 -6.28033234e-03
 -1.00903042e-01  6.56010583e-02  1.45832105e-02  8.06212872e-02
 -1.22977749e-01 -1.24813014e-04 -5.06309979e-02  7.06823692e-02
  5.81179634e-02 -1.19487301e-01 -4.07739691e-02 -4.95862663e-02
 -2.26720765e-01 -2.83931065e-02 -3.31700206e-01 -7.40305409e-02
  4.99004871e-02 -6.50950223e-02 -9.82424170e-02  4.44256095e-03
  9.76115987e-02  7.75262937e-02  9.95467138e-03 -6.03925530e-03
  9.05379429e-02 -8.39361176e-02  1.00208394e-01 -8.84283856e-02
 -3.47964950e-02 -7.58584589e-02 -9.33792815e-02 -6.84711412e-02
  7.56123587e-02  1.96070597e-01  1.34272039e-01 -2.51613259e-01
  3.32656316e-02  3.05384725e-01 -3.08756880e-03 -2.14961078e-02]
[-1.25050649e-01 -3.05056979e-04 -4.72907163e-02 -3.22366669e-03
  3.48064415e-02 -1.00583032e-01  7.28295371e-02  5.16370647e-02
  4.75284364e-03  1.07254140e-01 -1.12533905e-01  5.98520264e-02
 -5.64973950e-02  2.78378464e-02 -1.19102858e-01 -1.44737676e-01
  6.77965879e-02  2.17473004e-02 -5.49151562e-02 -5.75168878e-02
  6.89215213e-02  9.53393504e-02  1.68428212e-01  6.65581226e-02
 -1.86165795e-01 -6.44286275e-02 -2.76405718e-02 -1.64098591e-01
  1.29940854e-02  3.23200077e-02 -1.13259971e-01 -1.53036537e-02
 -1.26014173e-01 -4.39282879e-02  1.34985283e-01  4.61268052e-02
 -7.99479932e-02 -1.98300108e-02 -1.84435219e-01  3.53816748e-02
 -3.14709209e-02 -2.58035474e-02  4.63510752e-02 -5.88804595e-02
 -1.53856888e-01 -5.56500889e-02 -1.74821794e-01  3.84986438e-02
  1.94032177e-01 -2.14185584e-02  3.08861062e-02 -1.78653747e-01
  2.32100748e-02 -9.79915336e-02  1.42038334e-05 -9.35296863e-02
 -1.45723268e-01 -1.55263230e-01  5.04638255e-03 -8.54378864e-02
  2.34587975e-02 -4.11265232e-02  2.88062673e-02 -4.25366656e-04]
[-8.95934403e-02 -3.29738110e-02  4.96876193e-03 -7.44669437e-02
 -6.96104839e-02 -2.43985727e-02 -1.01002892e-02 -9.11886320e-02
  9.88677517e-03 -3.03980500e-01 -7.55495438e-03  1.32935978e-02
  3.98168117e-02 -6.73675239e-02 -9.51130167e-02 -1.39833808e-01
  1.27428889e-01 -1.03651121e-01 -1.99538648e-01  1.58557519e-01
  2.30655879e-01  3.23305242e-02 -4.09403406e-02  3.56332748e-05
  4.34762128e-02 -1.95824318e-02  1.31345347e-01 -1.27765208e-01
 -4.97376211e-02 -1.68629400e-02 -6.02552556e-02  4.71193306e-02
  2.80453190e-02 -1.19205266e-01  4.47061360e-02 -4.97618727e-02
 -1.30454585e-01  2.31674854e-02 -1.37281939e-01 -4.87477072e-02
  3.29420418e-02  2.26064362e-02  9.30603668e-02 -1.85636468e-02
 -4.73278128e-02  7.72580728e-02 -3.17632049e-01 -8.44784677e-02
 -6.22140020e-02 -1.10634476e-01 -2.75078584e-02 -2.71937549e-01
 -1.88746117e-02  3.13598923e-02 -4.44344543e-02  1.95701700e-02
 -2.86966097e-02 -7.10450634e-02 -8.20734724e-02 -1.27933949e-01
  3.99242230e-02  6.79140091e-02 -7.96609893e-02 -4.45803590e-02]
[-1.57434791e-01  4.39771749e-02 -1.97389722e-02 -4.50625159e-02
  1.76422074e-02  5.16085364e-02 -8.20504427e-02  2.78798509e-02
  3.84527862e-01  1.24330139e-02  8.74327421e-02 -5.94958756e-03
  7.08477646e-02 -6.77113831e-02  9.18939784e-02 -1.04202345e-01
 -7.14598820e-02  1.11862402e-02 -1.00081503e-01 -3.40032317e-02
 -2.46111810e-01  3.09015781e-01 -2.46128775e-02  4.21289466e-02
 -2.20035270e-01 -2.47961376e-02 -1.74424495e-05  4.41780090e-02
 -3.51625159e-02  1.96261741e-02 -3.07295453e-02 -2.63584610e-02
  4.61464785e-02 -6.32869303e-02  4.25644591e-02  6.49457723e-02
 -1.32093549e-01 -1.28062116e-03 -3.56636345e-01  3.07609215e-02
 -6.03599437e-02  6.26213402e-02  1.77880406e-01  7.74650499e-02
 -3.32437083e-02 -1.02536172e-01 -1.94280432e-03 -7.79831260e-02
  7.88917616e-02 -6.91199154e-02  3.02954227e-01 -1.15672059e-01
  2.14329660e-02 -1.96615607e-01 -1.36060223e-01 -1.89032312e-02
  3.89489196e-02 -5.69449849e-02 -1.38532966e-01 -2.14728191e-01
 -5.68819186e-03 -1.31520420e-01  3.52909379e-02  2.40075439e-02]
[-3.0622045e-33  3.8374498e-33  4.8436318e-33  4.7102687e-33
  4.3079884e-34 -4.0520062e-33 -3.0595973e-33 -1.1900088e-33
  2.9736958e-33  3.1907490e-33  5.6099425e-33 -3.2380638e-33
  4.7717217e-33 -3.8249036e-33  2.1922679e-33  3.0410107e-33
  2.7283753e-33  1.9108755e-33 -5.3673638e-33  1.4160971e-33
  2.6750490e-33 -4.0747884e-33 -1.6533622e-33 -1.5442286e-34
  3.6336352e-33  3.0841504e-33  5.2734491e-33  4.6069879e-33
 -5.9920319e-34  2.3820849e-33 -2.1190699e-33 -3.9213757e-34
 -4.1679841e-33 -3.2313069e-33  4.5697178e-33 -1.3809348e-33
  4.1223558e-34  4.9985767e-34 -2.4595430e-33  2.7551611e-33
  2.2198329e-33 -3.8341004e-33 -1.0744959e-33 -5.3508363e-33
  3.2892279e-33  3.1494667e-33 -2.8451219e-33 -4.2387636e-33
 -3.0565575e-33  4.7872830e-33 -3.7376298e-33  5.1568662e-33
  1.2641670e-34  3.5146587e-33  5.1825658e-33 -5.7383660e-33
  2.1536430e-33 -4.7159768e-34  8.5929298e-34 -5.7685218e-33
  1.8052228e-33  3.9466664e-33  6.4039169e-34  3.6426344e-33]
[-4.8102177e-33  1.5840756e-33  1.6840543e-33  9.4320014e-34
  5.5103718e-33  1.4299584e-33  6.9753100e-34 -4.4967122e-33
  4.2986903e-33  1.6950338e-33  1.0225354e-33 -1.7657218e-33
  3.7120102e-33 -4.1766817e-33  1.6319102e-33 -4.9877022e-33
  2.9789405e-34 -4.4878258e-33 -1.1170686e-34  3.7822589e-33
  4.7624331e-33 -1.0800946e-33 -3.8526875e-33  2.1233289e-33
  3.0738101e-33  3.1490605e-33  2.9907442e-33 -1.8535430e-33
 -3.9141762e-33  4.5924535e-34  2.6736619e-34 -6.0011953e-34
  2.9289205e-33  3.3455010e-34  8.1247920e-34  3.2943832e-33
  4.9320804e-33  4.5566984e-33  3.7130696e-33 -5.2482737e-33
 -3.4268860e-33 -5.7352590e-33 -2.6955154e-33 -2.8858864e-33
 -9.8147313e-34  2.1021997e-33  5.2256469e-33  3.2187974e-33
  4.5029739e-33 -1.8462340e-33  2.8015979e-33 -5.5600626e-33
 -1.9268424e-33  5.1098387e-33  8.2311567e-34 -4.4195744e-33
  5.6451437e-33  3.7684042e-33  5.4159113e-33  2.9695636e-33
  3.9182720e-33 -2.9847293e-33 -2.2840630e-33  3.0082895e-33]
[-6.8037080e-34  3.8478654e-33 -2.9713265e-33  2.8747280e-33
  1.1324988e-34 -5.5272101e-33 -1.2254308e-33 -4.5216544e-33
  3.3775038e-34  5.3706632e-33 -1.8377827e-33  3.3228169e-33
 -1.0807106e-33 -4.4474946e-33 -4.7661800e-33 -5.0955336e-33
  2.9478724e-33  5.2111060e-33 -3.9681780e-33 -2.4931164e-33
 -4.4518917e-33 -4.9114443e-33 -2.4400996e-33 -3.7946155e-33
 -1.5296598e-33 -2.7295710e-33  3.1184019e-34  5.5560505e-33
  2.1393694e-33 -1.5138040e-33  9.4068495e-34 -1.2108275e-33
 -2.2972297e-33 -8.2793777e-34  4.0931363e-33  2.5107268e-33
  1.9693599e-33  5.2988056e-33 -2.7904274e-33  1.8864284e-33
 -4.9167252e-33 -8.0801792e-34  4.2473333e-33 -2.3618082e-33
  2.3933561e-33 -4.4731571e-33  2.1441149e-33 -3.6947235e-33
 -2.1670617e-33 -5.5458413e-33 -8.1081468e-34 -3.3393499e-33
 -3.7650607e-34 -4.1455153e-33  2.1039389e-33 -1.4613217e-33
  2.4315835e-33  2.1644017e-33 -3.7235481e-33  5.6919053e-34
 -4.7780025e-33 -2.5292054e-33 -7.5168750e-34 -4.6744319e-33]
[ 0.07643473 -0.17342247  0.07033903  0.00174134 -0.0592234  -0.02241891
 -0.04142263 -0.03281897 -0.17792553 -0.00899535 -0.0939927   0.10277378
  0.17546977  0.00907503 -0.03828051  0.07122789 -0.16072062 -0.06873395
  0.0708374   0.09117343  0.18203178 -0.010083   -0.00837595 -0.04657851
  0.01542118  0.1285008   0.01825677 -0.04930522  0.18797173 -0.15193819
  0.09690682  0.03635187  0.19266465  0.09060603  0.02829552  0.7133846
  0.03273208  0.15622039  0.07297266 -0.05092876  0.04090313  0.20803605
 -0.11261783 -0.06574118  0.13066478  0.04965487  0.07279543 -0.07949822
  0.08223961 -0.09627579  0.14189099  0.00528095  0.04552581  0.27720472
 -0.12126654  0.22854103  0.17529824  0.03663612 -0.24156143  0.11550476
  0.1174027  -0.1921685   0.13658312 -0.08855397]
[-0.00303061  0.22348733  0.11483701  0.13029023 -0.09256333 -0.03920189
  0.54558706 -0.01890799  0.08238263 -0.06006275 -0.09111398 -0.14210506
  0.13960432 -0.17289016 -0.15131857  0.0261985   0.34600997 -0.13122302
  0.00203125  0.01557928  0.0400126  -0.08504031 -0.06217107  0.12383585
  0.15797202  0.26453587 -0.06268575  0.24592383 -0.10026255  0.04216614
  0.26997927 -0.04488512  0.09809335 -0.03134653  0.14441046 -0.09194498
  0.277921    0.41797167 -0.08247249 -0.05364044  0.18924807  0.35191447
 -0.36391717  0.02519566 -0.19916381 -0.07985239 -0.05157906 -0.05574304
 -0.3100802   0.01284682 -0.14024685 -0.06843561 -0.04117569 -0.19014521
 -0.132692    0.01543412  0.14261155 -0.44749096  0.06817165  0.20463963
 -0.08922094  0.07998818  0.03520023 -0.02202348]
[ 0.21261747  0.16960308  0.30106214 -0.05773975 -0.19437301 -0.2050066
  0.38033843  0.25911373 -0.03543928 -0.3788014  -0.00306852 -0.13715692
  0.12187977 -0.04030363 -0.34507248 -0.25537053  0.19719312 -0.08886539
 -0.05777957 -0.45555225  0.3869288  -0.05027304 -0.0365213  -0.25234845
 -0.1270002   0.08115492 -0.65825295  0.02775971 -0.27066997  0.3187633
  0.11837775  0.0412016  -0.27866697  0.22051689 -0.06202567 -0.05384014
 -0.07101158  0.2082463   0.02697769 -0.04842091  0.38404     0.27060372
 -0.06379527  0.4529011   0.04543581 -0.1856033  -0.536262   -0.21438201
 -0.10752761  0.2631256   0.23146182 -0.17511974 -0.33452246  0.0532347
  0.03055646  0.43103766  0.03191908  0.07859499 -0.08258592 -0.02579432
 -0.29797018 -0.01348706  0.48119298 -0.04741853]
[ 0.08917543  0.02223234  0.07218996 -0.1499874   0.41122758 -0.02662418
  0.18766469  0.05214858  0.42415157 -0.03828754  0.60652304  0.0802207
  0.01618962  0.0022596  -0.0426611   0.02063747  0.04824838  0.33448678
  0.0626379   0.07829332 -0.17716748  0.0477263  -0.05453264 -0.20401564
  0.21206367 -0.16280323  0.22601184 -0.01644392  0.14904806  0.0528967
 -0.02577086 -0.00430393  0.02424635  0.00702839  0.18093103  0.07858729
  0.07133382  0.08445057 -0.08389241  0.13944186  0.17443821 -0.13650736
 -0.02265195 -0.10598023 -0.0464087   0.01572315  0.06204012 -0.00521886
 -0.07858124 -0.00242951  0.05319963 -0.04509417  0.1273958   0.34768417
  0.00261576 -0.03265856  0.13912931  0.08977877  0.15891162  0.01628743
  0.00896585 -0.08270099 -0.16089438 -0.06939872]
[-0.01605221 -0.01387765  0.3555728   0.08416668  0.00565237  0.07690658
  0.02582881  0.00524375  0.0416211   0.07079803 -0.04841868  0.02667285
 -0.21704502  0.21660669  0.04659939 -0.00623546 -0.21342781  0.2097132
  0.01942185  0.01014261 -0.07989483 -0.33623353 -0.04866641 -0.05473205
  0.03405944 -0.08212651  0.03749798 -0.05112486  0.04267864 -0.07525292
 -0.01933265 -0.01867379  0.09776735 -0.00862391 -0.07630969 -0.00111451
  0.2489459   0.04538024 -0.11229536  0.03635537 -0.08766661 -0.18800461
 -0.20910347  0.01805181 -0.32799897  0.00724588  0.04378201  0.39168766
  0.11806367  0.10789356  0.12902345  0.00906069 -0.24810752 -0.13543575
 -0.10934953 -0.11115447  0.01782751 -0.3908929  -0.16203031  0.0523896
  0.0675771  -0.00366216  0.00731703  0.146466  ]
[-0.09759647 -0.11792883 -0.23166941  0.02792796 -0.00962794 -0.02765549
 -0.03374844 -0.11861127  0.02267278 -0.00826479  0.03776091  0.05093428
 -0.10209202  0.05485554 -0.03323226 -0.14538664  0.0174313   0.07760332
  0.05683597 -0.0251358  -0.05811555  0.00511665  0.67754585 -0.13760291
  0.047382   -0.01017036 -0.06384166 -0.10210838 -0.00906954 -0.03458304
  0.06948467  0.13132864 -0.1616131  -0.17549331  0.03194127  0.02612151
  0.08753286  0.02113082  0.0605545  -0.03982394  0.07406469  0.06309763
  0.10769917 -0.11698129 -0.23510493 -0.04175074 -0.0020544  -0.09902497
  0.05809117 -0.01786474 -0.0892539  -0.01973449 -0.07882461  0.09565982
  0.05767119  0.02765742 -0.01943044 -0.02441934  0.08301169 -0.13068242
 -0.16781086  0.06110554 -0.05321425  0.06371616]
[-1.47279441e-01  2.71697957e-02  9.08697303e-03 -3.31134722e-02
  3.20598036e-02  4.06034514e-02 -6.57181814e-03  1.58293042e-02
  1.29322764e-02 -3.31380814e-02 -8.45713913e-03  3.83600369e-02
 -7.54805980e-03 -5.39899338e-03 -2.32359786e-02  2.92768423e-02
  1.41701438e-02  6.54094368e-02  2.59645488e-02  2.94961315e-02
  2.93653291e-02 -2.57246867e-02  7.12115690e-03 -2.49322541e-02
  6.39529377e-02 -2.61221081e-03  3.64251039e-03  1.79766044e-02
  2.17424966e-02  2.55648922e-02 -1.16334055e-02  7.11922348e-02
 -5.90947606e-02  4.93880808e-02  2.91468427e-02 -3.39232273e-02
  1.05956374e-02 -1.38298352e-03 -1.05890473e-02 -4.90897335e-02
  6.63283141e-03  2.89116763e-02  1.05617233e-02  1.21396342e-02
 -3.65539268e-02  3.96309048e-03  6.23022905e-03  1.80656370e-02
  1.31249186e-02  8.99925921e-03  1.57562941e-02 -3.56642492e-02
  1.85369485e-04  8.99791867e-02 -4.99523710e-03 -5.85030876e-02
  3.17040473e-01  1.22005735e-02  3.25532965e-02  8.50113481e-03
 -4.64509893e-03 -1.09508708e-02 -5.16691022e-02 -1.25800865e-02]
[-3.01063284e-02  8.38850886e-02 -1.00763053e-01  9.94950160e-02
  1.95913106e-01  3.36626954e-02  3.53056639e-02  1.97633937e-01
 -4.02700335e-01  1.20456174e-01 -3.84212136e-02 -5.91719709e-02
 -1.35676246e-02 -6.22588024e-02 -2.95354098e-01 -5.04881702e-02
 -1.20047256e-01  1.83822215e-02  3.61265242e-02  1.76345810e-01
 -6.09805211e-02 -3.34079266e-02 -4.21342812e-03 -1.35064329e-04
  5.60234152e-02 -2.27149874e-02  1.13952905e-01 -1.12367161e-01
 -6.88933805e-02  5.74124455e-02 -5.36718443e-02 -5.35564385e-02
  2.41562072e-02  3.11797066e-03  1.58003882e-01 -4.73277152e-01
 -4.35652658e-02 -7.90895075e-02  1.65693298e-01  9.91862491e-02
 -3.57339978e-02  3.98855396e-02 -3.19960266e-02  1.16613962e-01
  1.10581070e-01  2.95382608e-02  1.33846281e-02  8.42891261e-02
 -6.74431399e-02  4.56702523e-02 -2.29504611e-02  6.32436126e-02
  2.57557649e-02 -1.18185736e-01  7.40235969e-02 -1.16468795e-01
 -1.00644618e-01  1.89649135e-01  1.11570761e-01 -3.22314203e-02
  1.32827451e-02 -1.48619235e-01 -1.40477540e-02 -2.21922919e-01]
[ 0.04668445  0.06284616 -0.10211602  0.10799062 -0.03826147  0.14975955
 -0.0314103   0.10535233 -0.07512581  0.07367434  0.05115287 -0.08163389
  0.08259106  0.20220453  0.221443   -0.05458554 -0.35019696 -0.11753952
  0.24201185 -0.05001092  0.05036801 -0.03627275 -0.04799339 -0.40078455
 -0.09428453  0.4420807   0.03564225 -0.29974884  0.02400768 -0.02709932
  0.2646616   0.06950509 -0.20358086  0.06320459 -0.22572877  0.0080845
  0.10735947  0.01561914  0.00762831  0.10959064 -0.1522659   0.19818078
  0.45233876  0.00253541  0.24873602  0.1322313  -0.04047168 -0.23456134
 -0.01786294 -0.00507596  0.09801519 -0.03371687  0.13650098  0.03483682
 -0.00444976 -0.1796827  -0.02413067 -0.16145578 -0.5040037  -0.21707812
  0.19065869 -0.08065264  0.08719977  0.05330388]
[ 0.16743723  0.24747717 -0.08423699  0.05409601 -0.24012965  0.36965683
 -0.06027966  0.47140723  0.07384595 -0.17851032 -0.04274334 -0.08182817
 -0.12008791  0.4988708   0.14556384  0.11408538 -0.12962657  0.2685074
  0.01689979 -0.37797794  0.2949563   0.07706194  0.01851544 -0.23531105
  0.00629788 -0.19556631 -0.25297445 -0.08413277  0.38336048  0.12939589
  0.00187427  0.1193395  -0.03145778  0.5506283   0.58334047  0.05929123
 -0.04776743  0.1292658  -0.07802696  0.04111309  0.3126604  -0.1592817
  0.03373462  0.31425926 -0.01592464  0.50511605  0.21470363  0.19884291
 -0.00290158  0.3552909   0.39219642  0.13359022  0.5063999   0.09855725
  0.10567433 -0.14180444  0.05135692  0.12488836  0.01000476  0.10735758
 -0.02041573 -0.02552838  0.42533493  0.07869434]
[ 0.24652012  0.40861094 -0.06207135 -0.10991703 -0.05100015  0.19637777
 -0.04429419 -0.14032966  0.03159143  0.02967265  0.40642127 -0.02456261
 -0.02013241 -0.06508379 -0.05259237 -0.03467739  0.17976138  0.07003142
 -0.04761644  0.2959906  -0.1056631   0.06248593  0.10758588 -0.22746067
 -0.49613124 -0.145027    0.07722023  0.15249355  0.01332869  0.2733008
 -0.17740835 -0.13796441  0.1606908  -0.09576531 -0.03859664 -0.03256329
 -0.12268406  0.05178908  0.03979867 -0.21036352 -0.1831684  -0.03167341
  0.03234766  0.19680162 -0.10087015 -0.17970146 -0.17016923  0.16893195
  0.1340356   0.06437746  0.17178193 -0.079324   -0.10018091  0.2824602
  0.26924202  0.0290155  -0.0815318   0.17141968 -0.00499829  0.12875567
 -0.06562867 -0.07364924 -0.09803543  0.16974378]
[-4.12575610e-05 -3.47093455e-02  1.63774744e-01  4.71319165e-03
 -5.06380275e-02  1.30862132e-01  2.93033775e-02  1.61324501e-01
 -4.64736810e-03  7.60327727e-02  2.67472882e-02  9.37916711e-02
  3.06286030e-02 -1.25187740e-01  1.13102406e-01  2.41789013e-01
 -1.16028665e-02 -3.15749608e-02 -4.63774940e-03 -5.68937045e-03
  3.51520553e-02  7.43707046e-02 -2.22033542e-02  1.43991694e-01
 -1.62387397e-02  2.59006143e-01  9.92674474e-03  3.74720395e-01
 -7.65715092e-02 -1.19132847e-01 -1.43271208e-01 -1.44535815e-02
 -1.64333522e-01  1.02368537e-02  3.21446180e-01  8.75828341e-02
 -1.02104597e-01  4.21279334e-02  3.88807654e-02  1.59892179e-02
  2.90114768e-02  1.01932488e-01 -1.99947576e-03  8.57739002e-02
  2.60402381e-01  1.41901681e-02 -7.80798942e-02  5.58158047e-02
  9.48541015e-02 -7.76943415e-02 -2.52619423e-02  9.75484625e-02
 -1.31713077e-02 -1.44935176e-02  1.36949539e-01  1.04420386e-01
 -4.33074348e-02 -3.34801450e-02 -3.85364234e-01  5.62847406e-03
 -3.80957499e-02 -7.56171495e-02 -4.06544539e-04  1.55572176e-01]
[ 0.00821007  0.09390797 -0.16661365 -0.37335625  0.04955318  0.05858611
 -0.13725047 -0.11825603 -0.03284078 -0.21628891 -0.00903679  0.12031477
 -0.01070678 -0.4983561  -0.02246748  0.08370756  0.10015749  0.05256155
  0.32130775 -0.04821402  0.03652814 -0.01327423 -0.11263152  0.04692311
 -0.00801805  0.08055356  0.07436781  0.22969304 -0.04221945 -0.2814191
 -0.09531348 -0.03241701  0.11964036 -0.33140764 -0.05244233 -0.00824753
  0.1343689  -0.06698027 -0.04621419  0.025458   -0.25916177 -0.13350067
  0.0751076  -0.17274481 -0.09867663  0.07488643 -0.28111124  0.11468629
 -0.01301711 -0.4306272  -0.33389232 -0.18573344 -0.09007123 -0.03310603
 -0.10520147 -0.10135798  0.01521387 -0.1629692   0.03583488  0.03441231
  0.29433414  0.06161545  0.0311309   0.19113155]
[-1.37624517e-01  7.37718306e-03  2.44502706e-04 -3.17147039e-02
  5.41795418e-02  4.38337512e-02 -6.86011557e-03  2.74605323e-02
 -7.09804241e-03 -9.14624985e-03 -2.61040051e-02  3.07194740e-02
 -2.52288021e-02  5.30959899e-03 -2.01352276e-02  2.24361513e-02
  1.29550295e-02  6.14814982e-02  1.78331118e-02  2.85366718e-02
 -3.66716720e-02 -9.13572963e-03  5.10589294e-02 -1.79360900e-02
 -2.63405472e-01  1.03422599e-02  3.95802967e-03  3.67571646e-03
 -3.17497272e-03  6.95059635e-03 -1.03963017e-02  3.30387875e-02
 -4.63742986e-02  9.64296013e-02  7.19528412e-03 -1.35176154e-02
  2.15724725e-02 -2.06505060e-02  5.62690459e-02 -1.20313585e-01
  6.04137080e-03  2.43084822e-02  5.24730934e-03  1.39781991e-02
 -3.56727503e-02  3.93288024e-03 -7.34761963e-03  4.39389013e-02
  1.40280696e-02  2.35280283e-02  1.41258156e-02 -4.01345342e-02
  1.80750433e-02 -1.73870310e-01  2.44399861e-01 -4.40888777e-02
  1.69714823e-01  1.49306301e-02  1.83923114e-02 -1.65685341e-02
  1.04612047e-02 -3.74255050e-03  3.32014598e-02  1.54460017e-02]
[ 0.00790883  0.00166393  0.02842435  0.00155561  0.24297297  0.01393037
  0.08231056  0.11305788 -0.12013693 -0.02493262 -0.01387792  0.04139918
  0.03054557 -0.00236887 -0.10244421 -0.01489627 -0.00799942 -0.03533353
  0.07134873  0.08727759  0.01645391  0.01743096  0.01694496 -0.00876595
  0.0770299   0.03030402 -0.04656568 -0.02970041  0.07126362 -0.04126412
  0.14604275 -0.012827    0.02909965  0.12343702  0.06914016 -0.01767108
  0.10878264  0.03439663  0.21698226 -0.00739451  0.08664288 -0.00753696
 -0.00486031  0.12262191 -0.02060631  0.02252948 -0.05351628  0.14011565
  0.02693675  0.01061735  0.02966738  0.05840727 -0.01477303  0.0648329
  0.07383523 -0.01690271 -0.01559702 -0.00723389 -0.02778614  0.03114676
  0.06748039  0.7152029  -0.018721    0.03764632]
[ 0.15848361  0.21887411  0.14903559 -0.0162018   1.0532899   0.1219218
  0.22969958  0.3976243  -0.15335047  0.05568944  0.14022452  0.18782166
 -0.02204379  0.04190706 -0.16067827  0.02853416  0.17441319  0.0449363
  0.22169246  0.19661145 -0.10717813  0.08807708  0.1650703   0.03035106
  0.2362749   0.3118957  -0.58903396  0.00728987  0.14573373 -0.13571087
  0.28767353 -0.12907507  0.34246865  0.32487428  0.37568745  0.06818545
  0.28320628  0.2798947   0.32925373  0.14904204  0.4966965  -0.25419727
  0.14562917  0.30034292 -0.22899494  0.1462396  -0.5818403   0.34554046
  0.20983118  0.09595947  0.04498614  0.18595552 -0.07574274  0.33293933
  0.2318991   0.04162889 -0.7096552  -0.04765965 -0.0505925   0.10304488
  0.03790212  0.80425686 -1.8208958   0.330711  ]
layer 1 Activation
relu
layer 2 Dense
64 64
[ 2.5411458e-03 -7.9447677e-04 -9.5338058e-03  1.2212495e-03
  2.8198936e-03  2.6937472e-03  6.2683001e-02 -6.9483586e-02
  3.4173459e-02 -7.9261349e-04  1.9181037e-02  8.3727628e-02
  1.5053125e-01 -1.6054318e-03  1.9627198e-04  1.7657641e-03
 -5.9636064e-02 -1.4459994e-01 -5.2635379e-02  3.1887803e-03
 -5.1496536e-03  2.2730154e-03  1.8325270e-03  2.6663022e-02
  1.0948790e-01 -3.8295694e-02  9.6944153e-05  6.9120049e-02
 -5.5568824e-03 -2.0234757e-03  1.6250089e-02 -9.7717997e-04
  1.7654894e-01  6.2912323e-02  6.0101633e-04 -3.7395608e-04
  1.9835446e-03 -2.7794712e-03 -5.6167628e-05  2.3033884e-03
 -2.8292832e-04  3.9800638e-03 -1.6200588e-03  6.3625075e-02
 -8.7780831e-03 -5.3412328e-03  2.9111984e-03 -8.2466088e-04
  1.1081486e-03 -5.3668030e-02  1.3779747e-01 -8.3182921e-04
  2.2032280e-03  4.9228091e-02 -1.9726750e-01  4.6972513e-02
 -1.9236255e-03 -1.0947763e-01  3.6327457e-03 -2.9767297e-02
 -9.3681359e-04 -6.5176681e-02  9.7989701e-02  3.3956189e-02]
[ 2.01505865e-03 -2.81998364e-05 -3.09870094e-02  2.52223667e-03
  3.29660671e-03  4.15785611e-03  1.08883038e-01 -5.11343032e-03
  1.58172771e-01 -7.25774080e-05 -1.01490729e-01 -2.60057729e-02
  2.81351715e-01 -1.97528163e-03 -6.39803417e-04 -4.13924456e-04
 -5.90887219e-02  3.42435725e-02 -8.77502635e-02  2.47829943e-03
  1.54246595e-02  2.53255549e-03 -3.03909229e-03  1.90803826e-01
  6.32781759e-02 -1.66346021e-02 -7.91926344e-04 -3.07446104e-02
 -1.85952131e-02 -2.32640048e-03 -6.78189918e-02 -3.24323424e-03
 -7.37914070e-03 -8.06273520e-03 -4.53654863e-03  7.59570336e-04
 -6.28024645e-05 -3.46191670e-03  1.18232143e-04  2.02239351e-03
 -5.83387882e-05  4.23442433e-03 -3.47891510e-05  1.84660226e-01
 -2.99931597e-02 -2.35003643e-02  3.13497987e-03  1.17142772e-04
  1.18363870e-03  1.70169733e-02  9.77716520e-02  4.33003152e-04
 -4.80589952e-05 -8.52092728e-02  8.95337686e-02 -3.11976057e-02
 -2.55781761e-03 -2.31074803e-02 -1.92212709e-03  2.13595375e-01
  1.66775403e-03  3.23841833e-02  1.39627224e-02  5.38777485e-02]
[ 3.9756956e-04 -3.7320604e-04 -3.1439375e-02 -3.9262610e-05
 -2.3989251e-04 -1.9908093e-03 -1.2158744e-01 -1.5046017e-01
  9.5989026e-02 -1.7583983e-03 -7.1696290e-03 -1.3804637e-02
  9.5761105e-02 -4.1501867e-04  1.0106938e-03 -1.0922347e-03
  1.3571121e-01 -1.0861714e-02 -3.1017467e-02  1.5667484e-03
  2.0361766e-02  1.5744683e-04  6.0564103e-03  1.2591957e-01
  4.2913117e-02  6.2335201e-02 -9.5490797e-04  1.4049509e-01
 -1.6787414e-02 -1.3893420e-03  5.4404028e-02  1.5761310e-03
 -6.6795245e-02 -2.4259469e-02 -1.3069294e-03  1.7201203e-04
  4.6616973e-05 -2.8189548e-04 -2.1729006e-03  1.4450870e-04
 -4.8955856e-04 -1.9460372e-03 -3.1994204e-03 -1.5312030e-02
 -2.9489029e-02 -2.2000404e-02 -5.4862734e-04 -1.9179852e-03
 -2.0105317e-03  2.1172728e-02 -4.7813971e-02 -1.7246855e-03
 -3.2947217e-03  8.1761971e-02 -9.6314356e-02 -3.4520883e-02
 -1.4166594e-03 -4.1591543e-01  2.9141691e-03 -1.3454532e-02
 -1.9426905e-03 -3.1940691e-02  1.8978453e-01  3.3634771e-03]
[ 1.96433975e-03 -3.34605225e-03 -2.14455221e-02 -1.13959284e-03
  2.14654626e-03  4.55688918e-03  8.84215012e-02  1.54811954e-02
 -8.96121562e-02  4.88181657e-04  2.95376964e-02  9.49544981e-02
  3.34043778e-03 -1.49029773e-03  7.43486453e-05 -3.16323363e-04
 -4.06163260e-02  1.01581626e-01  4.21431400e-02  3.64503660e-03
 -7.75375664e-02  1.17594772e-03  3.80936475e-03 -1.29198888e-02
 -1.98531836e-01 -1.17794193e-01  2.43041315e-03 -8.89739022e-02
 -1.37123121e-02  5.75411948e-04  7.34537002e-03 -4.42545675e-03
 -7.97706470e-02 -1.43777635e-02 -3.10341269e-03 -1.97923189e-04
 -2.86893430e-03 -2.88029085e-03  2.76583887e-06  6.51554554e-04
 -1.16198382e-03 -1.55166083e-03 -2.46874872e-03 -3.55051607e-02
 -2.00539362e-02 -1.60777532e-02  3.60408355e-03  2.27299111e-04
  1.77551899e-03 -4.50211614e-02 -7.33363777e-02 -1.43956498e-03
 -2.19863374e-03 -9.80047286e-02  1.27696902e-01  1.10980555e-01
  2.81980057e-04  8.73858184e-02  9.40752565e-04 -9.18311551e-02
  2.36058072e-03 -1.69984907e-01  4.66183722e-02 -1.56131953e-01]
[-1.5323685e-03 -3.0320341e-04 -3.4743808e-02  6.3418492e-04
 -6.2126911e-04 -1.0009499e-03 -1.2284997e-02  1.0288105e-01
  7.9939812e-02  5.1096542e-04 -9.6432768e-02 -7.9739675e-02
 -1.2902546e-01 -2.3505819e-04  7.1522297e-04  4.0844863e-04
  2.4562520e-01 -8.7265717e-03  7.7615999e-02 -1.2266112e-03
 -1.5949598e-02 -3.5749498e-04 -3.9126570e-03  1.2148759e-01
 -5.3166118e-02  4.0365551e-02  1.1959476e-03 -3.9465774e-02
 -2.7072007e-02 -6.8114379e-05 -9.1311790e-02  1.2123475e-03
 -1.6517116e-01 -3.0465338e-02 -8.8991253e-03  3.2992597e-04
  3.2565494e-03  4.0565414e-04  4.0139028e-04 -8.5833622e-04
  1.2432211e-03  1.0898850e-03  3.8556482e-03 -4.4891840e-01
 -3.5326347e-02 -2.7943194e-02 -1.5158646e-03 -9.6744916e-06
 -1.8545907e-03  5.1866613e-02 -1.9030392e-01 -7.7604019e-04
 -2.7886574e-04 -2.0801729e-02 -4.7465667e-01  6.4818531e-02
  4.9339877e-05  2.2868237e-02  4.2394391e-04 -7.2223544e-02
 -2.5563997e-03 -1.7211353e-02  4.3095578e-02 -2.4973651e-02]
[ 0.00037582  0.0009457  -0.0049056  -0.00159109  0.00031927 -0.00406218
  0.1491287   0.01149311  0.08999882  0.00131302 -0.17563896  0.03648404
  0.13165191 -0.00143854 -0.00129159 -0.00038085 -0.14169137 -0.08967962
  0.02154463 -0.00186989 -0.01050854  0.00104985  0.00559843  0.08589392
 -0.04368667 -0.15477654 -0.00106523 -0.17383374 -0.01444883 -0.00140767
  0.0197849   0.00488844  0.07191221  0.04413434 -0.00434482  0.0007816
  0.00137244 -0.00087907  0.00047092  0.00089152  0.00087307 -0.0021861
  0.00018075 -0.01047112 -0.00784016 -0.01383408  0.00019601  0.0014504
 -0.00322021  0.0192102   0.08768613  0.00098409  0.00078997 -0.02565858
 -0.13332227  0.09020744 -0.00141684 -0.04240514  0.00360657 -0.00995101
 -0.00307693 -0.13571641 -0.04105193 -0.02301412]
[ 7.82159506e-04 -5.32993348e-04  1.65692676e-04  1.29496679e-03
  2.01584143e-03  5.01015456e-03 -1.48939371e-01 -1.85570419e-01
  1.77519713e-02 -1.99160946e-04 -5.37249148e-02  8.61311182e-02
  2.58833319e-02 -2.82732857e-04  2.01082323e-03  1.24592171e-03
  1.53431192e-01  7.74866939e-02 -1.12525173e-01  1.59184821e-03
 -1.88120119e-02  1.22663972e-03 -2.17156019e-03  1.93610266e-01
 -2.92485267e-01  1.46729261e-01  3.52581235e-04  9.95926708e-02
  2.09231162e-03 -5.56516286e-04  1.19446263e-01 -5.42102382e-03
 -2.00237595e-02 -5.49792051e-02  6.06803282e-04 -1.22300116e-03
 -1.27818657e-03 -1.88913115e-03 -1.17153606e-04  4.47673781e-04
 -1.96331297e-03  3.22951516e-03  9.39494290e-04 -5.21855578e-02
 -4.77298629e-04  1.76775816e-03  1.89800723e-03 -3.53036507e-04
  2.33903271e-03 -2.03579031e-02 -3.95699404e-02 -7.98545880e-05
 -2.08102353e-03  6.18353151e-02  9.68959704e-02 -1.31520167e-01
 -6.77317847e-04 -2.95385778e-01 -1.66990573e-03  9.64763835e-02
  2.75320234e-03 -6.66080862e-02  1.15470868e-02  1.37759909e-01]
[ 8.8562351e-04  5.7886919e-04  1.7928213e-02  2.8663613e-03
  2.8349899e-03  2.1407206e-03 -4.6799280e-02 -7.3181972e-02
 -3.4991007e-02  7.1810058e-04 -1.3520987e-01 -6.6413288e-03
  1.0013561e-01 -1.5251541e-03  4.5241151e-04 -2.7871481e-04
 -1.0944876e-01 -1.0163230e-01 -5.6412283e-02  9.8638309e-05
  2.8272023e-02  2.5086631e-03  1.0456213e-04 -6.6876121e-02
 -8.7068379e-02  7.0790306e-02 -7.6317682e-04 -1.3268490e-01
  2.3877441e-03 -3.0178460e-03  9.5759630e-02 -8.6509594e-04
 -4.8235662e-02 -1.9709896e-02 -1.1733996e-03 -3.5236214e-04
  1.7908780e-03 -2.6637614e-03  1.0310777e-03  1.7139841e-03
 -1.1459640e-03 -3.9102088e-04 -8.9704513e-04  1.4258124e-01
  1.3927256e-02  6.0311132e-03  1.7409889e-03  6.6175580e-04
 -6.0898520e-04 -3.1678438e-02  5.8213245e-02  7.9820596e-04
 -1.0906742e-03  7.9907440e-02 -5.0131732e-01 -1.8322928e-02
 -2.9974338e-03 -1.3289851e-01  6.5591838e-04 -4.0972587e-03
 -6.6064781e-04 -8.8177271e-02 -8.6810917e-02 -9.0639420e-02]
[-8.3203672e-04 -1.0232190e-03 -9.2771668e-03 -5.8113888e-04
 -1.3675324e-03  3.3652883e-05 -2.1320136e-01 -7.0897475e-02
  6.4830169e-02 -9.1362323e-05  4.6067659e-02  6.7286871e-02
  1.7606309e-01  1.9269325e-03  7.6824136e-04  4.2990585e-05
  1.9501106e-01 -4.9868628e-02 -9.6340559e-02 -3.2331602e-04
  8.1350490e-02 -1.5878933e-03  7.4254731e-03  1.2325504e-01
  3.1176528e-01 -8.9724980e-02  1.1759736e-03  1.8875550e-01
 -4.5606769e-03  1.3167673e-03  1.6377433e-01 -8.4839790e-05
  1.9390659e-02  9.9577922e-03  2.5234222e-03 -1.0255552e-03
 -3.2150449e-04  1.7895135e-03 -5.0607149e-04 -1.5872340e-03
 -1.2390751e-03 -1.5936513e-03 -1.9773317e-03 -1.1222869e-01
 -8.4465872e-03 -5.7179858e-03 -1.0540284e-03 -4.2253069e-04
  1.3046743e-03  7.9572387e-02 -1.8790439e-01 -9.0675068e-04
 -3.2477727e-04  2.5720276e-02 -5.9414309e-02 -3.1198296e-01
  1.3523650e-03 -2.0686261e-01  4.9969465e-03  2.0175915e-02
  1.0946132e-03 -6.3097470e-02  6.6023953e-02 -5.3532291e-02]
[ 8.81187385e-04 -2.23169627e-06 -3.68011780e-02 -1.93825632e-03
 -1.49802619e-03 -2.86684814e-03  1.06265787e-02 -2.58550197e-02
 -5.06395996e-02 -1.09076570e-03  2.42282867e-01 -1.58740908e-01
 -9.68922973e-02 -1.35119626e-04  2.46772030e-03 -3.24276596e-04
  2.02907361e-02  5.15818037e-02  6.76058680e-02 -1.01071695e-04
 -5.47032952e-02 -7.84770644e-04  6.11360976e-03  3.31152305e-02
  1.25816211e-01 -1.02049656e-01  1.46660779e-04  1.52062610e-01
 -1.59556363e-02  1.49918499e-03 -8.75665471e-02  3.23751988e-03
  4.40006964e-02  1.85480453e-02 -7.76450965e-04 -6.48048517e-05
  9.78709431e-04  9.50426969e-04 -1.58248539e-03 -2.36689157e-05
 -1.25248020e-03 -1.07970403e-03  2.94243509e-04 -1.93661764e-01
 -3.13971341e-02 -1.76052805e-02 -2.46983283e-04 -1.25899224e-03
 -1.26888731e-03 -5.91692934e-03 -1.61250234e-01 -1.51723565e-03
 -8.97500649e-05  4.71504815e-02  2.56335467e-01  1.30411357e-01
  1.67163066e-03  1.10218376e-01  1.48969470e-03  2.68738903e-02
 -2.01101182e-03 -3.09181046e-02 -3.16673368e-02 -1.74650908e-01]
[-3.00895236e-03 -2.16544303e-03 -3.12070921e-02 -7.89451320e-03
 -8.90193041e-03 -1.07454956e-02  9.85030159e-02 -4.82336283e-02
  1.67531610e-01 -2.32797978e-03 -1.60035551e-01  1.77867219e-01
  1.03156552e-01  4.91728727e-03  1.14736462e-03  2.25292955e-04
  3.27306390e-01  6.96190745e-02  2.58612875e-02 -1.75278331e-03
 -1.29137784e-01 -7.25222239e-03  1.32865016e-03  3.30916226e-01
  1.01931848e-01  4.77553867e-02  2.26307241e-03 -6.55668154e-02
 -6.12645596e-03  8.65796395e-03  3.83305252e-02  6.24116696e-03
  7.53830792e-03 -1.50560867e-02  8.78268760e-03  1.45328545e-03
 -5.65968035e-03  8.49077757e-03 -3.60311684e-03 -4.94929263e-03
  8.96061538e-04  5.25888428e-03  2.23090663e-03 -4.56126109e-02
 -2.61097550e-02 -1.07718669e-02 -6.07988238e-03 -3.01261479e-03
  1.20951491e-03  5.39752692e-02 -4.00807895e-02 -3.72326607e-03
  4.56714816e-03  3.13597798e-01 -2.14394610e-02  3.54892574e-02
  8.65200628e-03  3.30157466e-02  1.43411371e-03  6.24671876e-02
  1.58941757e-03  1.43335804e-01  1.06913894e-01  2.18731984e-01]
[-4.01153322e-03  5.10172802e-04 -4.42602225e-02 -1.32723094e-03
 -3.25180544e-03 -3.02732154e-03 -4.49520238e-02 -4.85636666e-02
 -1.34249264e-02  3.42815416e-04  1.85289029e-02 -1.65142622e-02
 -8.74768719e-02  3.23400972e-03 -1.59626186e-03  4.79671406e-04
 -1.11630103e-02  1.23148255e-01  4.87779714e-02 -3.86499567e-03
  1.23313718e-01 -3.10793542e-03 -2.78897132e-05 -1.98250100e-01
  1.08429924e-01 -1.35975286e-01  4.59131727e-04 -1.05750874e-01
 -2.15440374e-02  2.44500302e-03 -1.85069758e-02  8.76378035e-04
 -5.05070062e-03 -5.20071872e-02 -1.30682182e-03 -9.60182660e-05
 -2.46737478e-03  3.24920425e-03 -4.08789376e-04 -2.93102651e-03
  1.17496809e-03 -2.18629674e-03 -2.20212596e-03 -1.42058328e-01
 -4.13913801e-02 -2.75775678e-02 -3.51791014e-03  5.38995664e-05
  1.14531873e-03 -5.07896021e-02  3.41068991e-02  2.55616760e-04
  1.67620624e-03 -1.38612866e-01  8.51208493e-02  2.48460442e-01
  2.44194944e-03  2.14986634e-02  1.05277949e-03 -1.09970748e-01
  1.21039327e-03 -6.64756745e-02  1.37412176e-01  3.63240391e-02]
[-4.4515883e-03  2.0303002e-03 -4.1692562e-02 -7.8556256e-04
 -3.0001735e-03 -3.9687334e-03  3.7824012e-02  5.9549667e-02
 -3.6167804e-02  2.1183121e-03  7.9529528e-03  7.5008467e-02
 -1.2953603e-01  3.8685843e-03 -2.1675848e-03 -1.0636585e-03
  3.2597706e-02 -8.5216276e-02  1.9531189e-02 -5.3738658e-03
 -8.8471681e-02 -2.4418845e-03  1.8788280e-03  2.1012174e-01
 -5.4781280e-02 -2.0545746e-01 -1.0569909e-03 -5.1349845e-02
 -1.8208073e-02  1.1746957e-03 -7.6012298e-02  5.9586461e-04
 -5.5885199e-02 -1.1004433e-01 -4.6132985e-03  1.1942458e-03
 -3.1052965e-03  3.3751903e-03  2.3465983e-04 -2.7398604e-03
  4.5558720e-04 -4.1853175e-03  1.5582695e-03 -7.7981703e-02
 -3.7045270e-02 -2.3684328e-02 -3.6428859e-03  1.4932735e-03
  1.1238946e-03  1.2718606e-02 -8.5967377e-02  1.6739632e-03
  1.8764342e-03 -2.9387203e-01 -2.0048955e-02  9.4239481e-02
  1.1822579e-03  1.6578412e-01  1.0356928e-03  2.3804083e-02
  1.3253178e-03  5.4484955e-04  9.1571569e-02  8.4452547e-02]
[ 3.85860068e-04 -1.21668307e-03 -4.70033102e-02 -2.10979924e-04
  1.24438317e-03  3.13504506e-03 -6.16135560e-02  3.74668203e-02
 -1.14237532e-01  8.35049083e-04 -1.91455990e-01 -3.14843297e-01
  7.55602494e-02 -1.13754044e-03 -1.17097993e-03 -5.39035886e-04
 -1.17374465e-01 -8.40577707e-02 -1.03202425e-02  4.17744421e-04
  1.19841628e-01  3.39786551e-04 -5.96914534e-03  1.26391679e-01
  1.83614254e-01 -1.52315021e-01  1.20455388e-03 -2.33624309e-01
 -1.40527450e-02  3.53646639e-04 -1.39626771e-01 -4.39902721e-03
  3.09091974e-02  5.90653569e-02 -3.38035938e-03  1.70383032e-03
 -4.01485199e-03 -1.98760838e-03  7.80296104e-04  1.42351491e-04
  1.00576691e-03  7.84344971e-04 -4.50481806e-04 -7.03345314e-02
 -3.92149501e-02 -1.88073646e-02  2.36045336e-03  1.05860364e-03
  3.49018816e-03  5.11188917e-02 -7.55794421e-02  5.83216315e-04
  1.67564256e-04  4.89126332e-02  1.84429809e-01 -2.34441124e-02
  1.32910442e-04  2.69691736e-01 -4.51646512e-03 -6.80994838e-02
  5.23072435e-03 -9.66181979e-02  9.76124480e-02  3.41868959e-02]
[ 3.5823339e-03  1.3009433e-04  1.5794630e-03 -1.4299992e-03
  3.9881369e-04 -3.8651004e-04 -5.5221666e-02 -6.3439675e-02
 -1.1292334e-01 -2.3171203e-03  1.3213572e-01 -6.2002592e-02
 -4.0988684e-02 -2.7077086e-03  4.3567066e-04  9.3204621e-04
  2.2383532e-01 -9.1244876e-02  1.8780703e-02  4.6522785e-03
 -1.0118554e-01  7.8370859e-04  3.8210480e-03  4.7798517e-01
 -6.0808109e-03 -6.3684404e-02 -1.3598301e-03  2.2517072e-01
 -4.5071966e-03  1.5871864e-03  8.0664016e-02 -3.6513375e-05
 -1.2521757e-01 -2.8057974e-02  4.3684449e-03 -1.1744932e-03
 -3.9267838e-03 -1.4145367e-03 -1.8272743e-03  2.3481669e-03
 -1.6911651e-03 -2.2545692e-03 -2.5172506e-03 -1.0518342e-01
  3.9442739e-04 -1.2854004e-03  1.5322027e-03 -1.9748902e-03
  2.2462145e-03  2.7667662e-02 -1.8310219e-01 -7.3644100e-04
  1.5408267e-03 -7.3989719e-02  7.8920178e-02 -4.6745360e-02
  1.3922281e-03 -9.4328500e-02  3.0158353e-03  3.0799678e-02
  3.5704991e-03  2.1042166e-02 -1.8010668e-02 -1.4029954e-01]
[ 0.00409538 -0.0005742   0.02298082  0.00277221  0.00374395  0.00585155
  0.06880853  0.02850241 -0.03618777 -0.00254557  0.08860077 -0.14347905
 -0.01485961 -0.00296983  0.00146873  0.00049671  0.038805    0.0161995
  0.04784728  0.0063863  -0.17263994  0.00276913  0.00437274  0.05728586
 -0.35281378 -0.1381026  -0.00044727 -0.05426816 -0.00234615 -0.00220522
 -0.0303431  -0.00296686 -0.008457    0.02205106 -0.00091153 -0.00111904
  0.00202296 -0.00385048 -0.00080455  0.0028728  -0.00208551 -0.00281727
 -0.0045818   0.03168149  0.01690673  0.00273378  0.00398703 -0.00201147
  0.00078915  0.00335919 -0.01789764 -0.00044693 -0.0038222  -0.18484804
 -0.02426324  0.14362171 -0.00234615  0.03137933 -0.00083622 -0.11902207
  0.00062514  0.05378786 -0.15646191 -0.0551396 ]
[ 9.0201350e-04 -3.3018345e-03 -2.4421443e-03 -8.1454188e-04
 -2.1996873e-03  6.3051534e-04 -1.2291753e-01 -1.7932460e-02
 -8.4526367e-02 -2.4472191e-03 -2.5230652e-01 -1.3281798e-01
  1.5577538e-01  1.4495205e-03 -1.1039992e-03  2.1659159e-03
 -8.5072428e-02 -9.6569285e-02 -1.0993940e-01  1.9313708e-03
  1.1354016e-01 -2.4261610e-03  1.4074524e-03  1.3788365e-01
 -7.6248139e-02  3.9482150e-02  3.6165451e-03 -1.2343478e-01
  1.0511235e-03  1.9721065e-03 -3.4644179e-02 -1.3022156e-03
 -2.5174353e-02  2.4502005e-02  9.7517425e-04 -6.5919809e-04
  3.0571760e-03  1.8115643e-03 -1.3339968e-03 -1.9127966e-03
 -3.9793435e-04  2.6368243e-03  1.3055599e-03  4.8171114e-03
 -9.3900796e-04  4.5609144e-03 -1.6865182e-04 -2.7288867e-03
  5.7132315e-04  1.6073427e-01 -6.0896292e-02 -3.2281321e-03
  3.0248780e-03 -1.8322088e-01 -1.3738488e-01 -7.2414026e-02
  2.2181997e-03  8.3623193e-02  2.4416656e-03  1.4440760e-01
 -1.0372753e-03  7.1256854e-02  2.3284872e-01  6.7242756e-02]
[-5.13797719e-03  1.76936621e-03 -3.97089273e-02 -8.32801859e-04
 -4.77066915e-03 -2.82620382e-03 -1.73077822e-01 -8.91290084e-02
  3.85123119e-02  6.12952397e-04 -5.04710525e-02  5.85289225e-02
 -3.11342418e-01  5.29778562e-03 -2.73256237e-03 -2.81203160e-04
  9.93536636e-02  4.30394476e-03 -4.68417164e-03 -6.01566117e-03
 -8.39299560e-02 -4.67637088e-03 -2.74767424e-03 -3.75146680e-02
  1.26997218e-03 -4.71560732e-02  8.63654132e-05 -6.90360293e-02
 -1.70828309e-02  2.84036715e-03  2.36212160e-03 -7.22024415e-04
 -1.06322266e-01 -3.49348485e-02 -1.38002331e-03  1.10501936e-03
 -2.86977668e-03  5.27701108e-03  6.00056897e-04 -4.64190356e-03
  1.49936019e-03 -6.91439665e-04 -2.31306558e-03 -1.72588155e-02
 -3.63261253e-02 -2.31969599e-02 -4.25474951e-03  5.62523957e-04
  3.28568672e-03  1.50881521e-02 -2.89104134e-02  1.79675198e-03
  2.40697688e-03  9.15547553e-03 -1.32954419e-01  2.17406265e-02
  2.96553108e-03 -1.10920094e-01 -6.76417898e-04 -1.35920823e-01
  4.10289224e-03  7.28980079e-02 -1.02817021e-01 -5.61854206e-02]
[-1.11096096e-03  7.71546271e-04 -1.09774647e-02 -1.79483875e-04
 -1.37954089e-03 -1.87790114e-03  7.28357676e-03 -7.79517889e-02
 -8.50462466e-02 -1.19768747e-03  2.68639978e-02  7.97908083e-02
 -1.07825935e-01  9.04652756e-04  2.13822606e-03  1.71931030e-03
  1.41409025e-01 -8.49066749e-02  3.74614657e-03 -9.22691310e-04
  1.44858602e-02 -1.04268384e-03 -1.69954175e-04 -1.92008898e-01
 -3.80911380e-02 -1.25945648e-02 -6.38381171e-04  7.70900398e-02
 -5.83806681e-03 -6.82348153e-04  1.45579934e-01  2.83847796e-03
  4.66811247e-02 -1.47858693e-04  2.82671326e-03 -7.26812694e-04
  1.40170858e-03  1.45693868e-03 -5.66058618e-04 -7.09526299e-04
 -4.54218243e-05  3.72852478e-03  2.29889737e-03  7.52932802e-02
 -1.06822541e-02 -6.10721717e-03 -2.12253234e-03 -1.07693719e-03
 -8.61514825e-04 -9.04509351e-02  6.26267344e-02 -4.29982494e-04
  1.64669123e-03  1.03244796e-01 -1.16135485e-01  6.99158013e-02
 -6.36406941e-04 -2.85715371e-01  1.23269041e-03  4.36864868e-02
 -2.09993380e-03 -5.26698381e-02 -3.13605785e-01  1.82247236e-02]
[-4.2750728e-03  1.0492697e-03 -4.7155850e-02 -2.3110681e-03
 -5.0701932e-03 -6.8165199e-03  2.6171729e-02 -6.5579467e-02
 -2.7440159e-02  1.2894406e-03  1.4450580e-01  1.6439345e-01
 -4.0647894e-02  4.9783061e-03 -1.4638326e-03  1.3898900e-03
 -3.4177650e-02  8.8375034e-03  4.7559071e-02 -5.9867096e-03
 -5.0648589e-02 -3.9095432e-03  4.6059908e-03  2.3797438e-02
  6.6133857e-02  4.8053186e-02  4.1574342e-04  1.6926433e-01
 -2.6798749e-02  1.8550472e-03 -2.3774967e-02  4.5565870e-03
 -3.1712335e-02  3.3063501e-02 -9.0419222e-03 -4.6647715e-04
  2.8375145e-03  5.6142150e-03  4.5666727e-04 -3.7398005e-03
 -4.1898084e-04 -3.9783092e-03 -8.8211156e-05 -3.6590105e-01
 -4.3041803e-02 -2.9233800e-02 -4.8792111e-03  7.2477962e-04
 -2.3383752e-03  4.6782933e-02 -1.0998386e-01  6.7611475e-04
  8.6648110e-04 -6.7199662e-02  3.2791343e-01  4.1470300e-02
  2.1132787e-03  2.4482943e-01  1.4970399e-04 -1.3086700e-01
 -3.7464891e-03  1.0375763e-01  8.0876663e-02  1.4436065e-01]
[ 1.62837072e-03  2.14893545e-04 -3.03389560e-02  3.00886831e-03
  3.13491444e-03  1.81081134e-03 -1.67445898e-01 -1.66179389e-01
 -1.23417348e-01 -2.50621379e-04 -1.16498386e-02 -2.07964972e-01
 -6.84750825e-02 -2.02665222e-03  1.58469507e-03  1.84594758e-03
 -1.15699068e-01 -1.01238899e-01 -7.13355541e-02  1.32654177e-03
  1.12383468e-02  3.04790842e-03 -2.78322469e-03 -1.53000504e-01
 -1.64843544e-01 -1.10940084e-01 -9.50744667e-04 -1.09138250e-01
 -9.12187342e-03 -4.09661559e-03  6.65011853e-02  4.61078278e-04
  2.45200135e-02 -6.53410405e-02 -2.61825090e-03 -1.64439401e-03
  3.37977544e-03 -3.50470678e-03 -7.69955397e-04  2.14479445e-03
 -1.60369871e-03  1.42383110e-03  1.81773189e-03  1.43916816e-01
 -2.50585936e-02 -1.06317513e-02  2.34887120e-03 -3.78771278e-04
 -1.63993146e-03 -4.57327440e-03  6.17133640e-02 -8.64076079e-04
 -2.39953515e-03 -1.23243354e-01 -3.69825125e-01 -1.00191562e-02
 -4.08371165e-03 -1.16351783e-01 -2.38816557e-03  5.43807559e-02
 -3.00458819e-03  5.93396313e-02 -2.57898588e-02 -1.67036772e-01]
[-2.24854914e-03  9.09397204e-04 -3.20296772e-02 -8.75650498e-04
 -1.72102265e-03 -3.88652552e-04 -4.25101927e-04 -1.06059171e-01
 -1.11111097e-01  2.89044343e-03  7.18306303e-02  2.15751767e-01
  4.11741398e-02  1.85937725e-03 -2.25437735e-03 -7.08296546e-04
  4.51906733e-02 -3.30639482e-02  1.35470731e-02 -3.87707097e-03
  3.62468585e-02 -1.84239796e-03 -3.79792042e-03 -1.39078408e-01
  2.29613334e-01 -1.77446917e-01  1.93251210e-04  7.54513443e-02
 -2.23776810e-02  1.41769066e-03  7.28332996e-02 -2.10091658e-03
 -8.44054297e-02 -5.10810651e-02 -9.23271757e-03  2.06896500e-03
 -2.47785798e-03  1.83765613e-03  1.91318640e-03 -1.70392811e-03
  1.65549968e-03 -2.24391185e-03  1.02627091e-03  7.37233844e-04
 -3.03293839e-02 -2.43919287e-02 -1.49486191e-03  2.68136756e-03
  2.35454342e-03 -7.73515925e-02  1.19440340e-01  2.13127886e-03
  1.25352002e-03 -1.70219634e-02  2.70051975e-02  1.04890615e-01
  1.58056256e-03 -6.74340054e-02 -4.64872271e-03 -5.19882925e-02
  2.05196603e-03  1.08043596e-01  1.09742776e-01  1.97911281e-02]
[-9.63805243e-03  4.75936616e-03 -3.50613445e-02 -1.55426632e-03
 -7.57390726e-03 -9.29570850e-03 -2.15618446e-01 -2.17758976e-02
 -6.50201663e-02  4.59254533e-03  2.10591167e-01 -9.93761867e-02
  1.75699204e-01  7.86128547e-03 -1.48548628e-03 -8.36187566e-04
 -6.55116290e-02  1.28779382e-01 -3.90631752e-03 -1.53311053e-02
 -1.71450138e-01 -6.60538068e-03 -2.22727121e-03  7.63657317e-02
 -1.43632621e-01 -2.72122212e-02 -1.41726958e-03 -8.51370022e-02
 -1.41559467e-02  4.36737016e-03  1.59295425e-02  5.57612511e-04
 -1.19253159e-01  4.40056175e-02 -3.18545243e-03  1.33398047e-03
 -6.93583209e-03  8.80373269e-03  3.49824899e-03 -6.58425968e-03
  1.86057150e-04 -7.04173464e-03  1.45770446e-03  4.83462028e-03
 -3.10238656e-02 -1.76323131e-02 -7.87761528e-03  4.41799406e-03
  3.12418444e-03 -5.48399240e-02 -8.10127426e-03  5.58727141e-03
 -1.82639691e-04 -1.11231156e-01  6.80307299e-02 -2.71466542e-02
  4.41713165e-03 -4.32182521e-01 -3.37701640e-03  6.52375119e-03
  5.82461851e-03  1.57382891e-01 -1.47486791e-01 -7.39487410e-02]
[ 1.86104293e-03 -2.55235122e-03 -3.87400873e-02 -4.30349959e-03
 -7.22643745e-05  4.08435334e-03 -7.87706822e-02 -5.63527271e-02
 -1.09561220e-01 -7.64555880e-04 -1.61789469e-02  1.67546630e-01
  1.19460478e-01 -1.94869004e-03 -1.01862213e-04 -2.02422816e-04
  5.49820475e-02  1.63184945e-02  4.77273576e-02  3.92440008e-03
  4.72479574e-02 -8.41994770e-04 -2.71669449e-03 -4.07289654e-01
  1.11563295e-01 -5.50923347e-02  1.65594695e-03  3.71907763e-02
 -2.85029672e-02  2.61740247e-03  5.77139258e-02 -2.86792684e-03
 -1.02107309e-01 -4.51439582e-02 -9.85884853e-03  1.26190006e-03
 -4.51570842e-03 -1.46082556e-03 -2.81568966e-04  2.44483235e-04
  1.25420548e-03  1.49469892e-03  9.74215392e-04 -9.75951999e-02
 -3.71267907e-02 -2.95673907e-02  1.54641410e-03 -5.61278372e-04
  2.52161711e-03 -1.97657235e-02 -1.54596716e-01 -1.18228712e-03
 -2.76618011e-05 -1.12675764e-01  1.88874617e-01  1.79651827e-01
  2.49005854e-03 -1.29841730e-01 -1.76136964e-03 -2.47801952e-02
  2.43761484e-03 -1.46173313e-01 -4.67623733e-02 -2.76901096e-01]
[ 1.2414039e-03  1.7607255e-03  9.8779192e-03  1.9842482e-03
  2.9236260e-03  1.4139961e-03  5.8752660e-02 -5.6023456e-02
 -6.5462478e-02  5.4356211e-04  1.3060132e-01 -7.2182216e-02
  2.8245905e-01 -2.3147373e-03  1.3771771e-03 -1.7334626e-04
 -9.0879284e-02  2.3330824e-02 -1.1292553e-01  6.8678422e-04
  5.1669981e-02  3.1123909e-03  3.1974327e-03 -2.8937262e-01
 -9.1045059e-02  6.5063797e-02 -2.2882062e-03 -1.1647337e-02
 -3.9577819e-03 -3.7097880e-03  1.3159998e-01  6.8037177e-04
 -9.6370831e-02  5.6601044e-02 -3.9401744e-03 -7.9489104e-04
  2.1243831e-03 -3.1208198e-03  2.9046473e-04  2.2329758e-03
 -1.2519830e-03 -4.7822474e-04 -5.6199129e-05  3.7484661e-02
  6.0152500e-03 -1.7834111e-03  2.0183146e-03  5.8458844e-04
 -2.0261360e-03  9.3912981e-02  1.8345229e-01  1.3264302e-03
 -8.2369050e-04 -1.9405642e-01  1.3175418e-02 -7.4706594e-03
 -3.7663681e-03  5.5984247e-02  3.9557512e-03  9.1419019e-02
 -1.6471604e-03 -1.8583621e-01  4.8063793e-03 -1.3695073e-01]
[ 2.36081099e-03  5.51301113e-04 -5.82283828e-03 -1.19723336e-04
  2.70440779e-03 -4.98673005e-04 -6.69581816e-02  3.09668221e-02
 -4.63742092e-02 -6.80857745e-04  8.87740329e-02  6.48765117e-02
 -1.22630067e-01 -2.95864465e-03  3.11971223e-03  1.66129874e-04
  3.08284331e-02  2.73009818e-02  4.90351431e-02  1.98016991e-03
 -1.23174280e-01  3.04947980e-03  2.94255884e-03 -1.65618777e-01
 -6.44003078e-02 -1.46968141e-01 -1.29832258e-03  5.39248288e-02
 -5.14508411e-03 -2.35750852e-03  1.21726565e-01  2.92224856e-03
  1.36962324e-01 -1.07470758e-01  3.43935186e-04 -9.71314148e-04
  2.67476169e-03 -3.28541361e-03 -6.99332624e-04  3.01367906e-03
 -1.80231116e-03  1.69561850e-03  1.41243625e-03 -1.41006447e-02
 -5.55679528e-03 -6.61061797e-03  1.26295886e-03 -5.39583736e-04
 -3.53448419e-03 -1.79833859e-01 -5.29384203e-02 -6.53565570e-04
 -2.07853480e-03  3.15438062e-02  3.88350673e-02  9.98404473e-02
 -2.37696827e-03 -2.82331318e-01  7.89107115e-04  5.00753671e-02
 -3.97260627e-03  6.33781403e-02 -2.79329449e-01  2.47456148e-01]
[-2.5096303e-04  1.8817500e-03 -1.8843126e-02  2.5639988e-03
  2.0231446e-03  1.0918661e-03  2.1454597e-02  8.5723259e-02
  6.2121570e-02  2.3928033e-03  6.3286312e-02  5.4321706e-02
  3.3893209e-02 -5.9903535e-04 -1.1137739e-03 -6.3733535e-04
  1.2242005e-02 -6.9155775e-02  1.0044530e-02 -2.1427225e-03
  1.4845947e-02  1.9344052e-03  4.0093116e-03 -1.4368084e-01
 -4.3516569e-02 -1.2180130e-01 -1.9823702e-03  1.0860131e-01
 -1.4159694e-02 -3.7054098e-03  8.1834331e-02 -1.0890701e-03
 -8.8245340e-02  9.8650083e-03 -4.0144920e-03  7.1543921e-04
  1.6771862e-03 -1.8558656e-03  2.8129991e-03  1.0824982e-03
 -4.9659298e-05 -3.0470344e-03 -4.3433360e-03  8.1788981e-03
 -1.8501889e-02 -1.5575226e-02  5.0271250e-04  2.5198467e-03
 -1.0748907e-03  2.2866633e-02 -1.7065082e-02  2.7432377e-03
  8.7124715e-04 -1.2418290e-01  6.2245506e-01  6.8080999e-02
 -3.6605585e-03  1.6824773e-01 -8.8267622e-04 -3.2531735e-03
 -1.7396950e-03  1.0367192e-01 -1.1449318e-02  1.4325933e-01]
[-3.3067269e-03  3.0731247e-04 -2.6563564e-02  1.5601947e-03
 -3.5712814e-03 -5.7298481e-03 -1.4471793e-01  2.2705153e-02
  1.6578521e-01 -2.0092928e-03 -1.9204654e-01 -2.0709006e-01
 -1.7653834e-02  4.1945186e-03  4.8019731e-04 -3.2093941e-04
 -3.2407869e-02 -1.4764069e-02 -6.4136975e-02 -3.7601804e-03
 -6.9769062e-02 -3.0897865e-03  4.3299003e-03  1.4391661e-01
  1.5136810e-01 -1.0496732e-01  1.3180790e-03 -1.5224907e-01
 -1.7793892e-02  1.7624925e-04 -7.5997569e-02  4.9122660e-03
  2.1693004e-02  8.2698897e-02 -2.3212179e-03 -1.0899714e-03
  8.9483494e-03  4.2606499e-03 -2.4552902e-03 -3.4895961e-03
 -1.6410026e-03 -3.8731489e-03 -1.5382065e-03  3.6109716e-02
 -2.5834627e-02 -2.2781074e-02 -4.2240606e-03 -2.4350786e-03
 -3.9287442e-03 -1.5652853e-01 -2.7243252e-05 -1.8981276e-03
 -1.5292368e-03 -8.5829481e-02  2.6312295e-01 -6.4323209e-02
  5.7518773e-04  1.6832191e-01  5.2904588e-04 -2.6863992e-02
 -5.5763731e-03  3.3192851e-02  2.8385664e-03  7.6868288e-02]
[-1.09354081e-03 -4.01833036e-04  1.30219897e-02 -4.23269253e-03
 -3.29264859e-03 -3.47314705e-03  5.35121076e-02 -5.90505600e-02
 -5.15548028e-02 -1.20385224e-03  4.04342636e-02 -9.07758623e-02
  7.74607342e-03  1.58220693e-03 -9.63392435e-04  3.81314574e-04
  1.28666401e-01 -4.56690788e-02  9.64321941e-03 -9.99299344e-04
 -8.73811021e-02 -2.95503065e-03  1.89964566e-03 -1.43078133e-01
 -5.09378947e-02 -4.46037129e-02  5.62513829e-04  1.64391935e-01
  6.88091200e-03  3.03179189e-03 -3.03527564e-02  2.74768588e-03
  1.09104747e-02  8.47175717e-03  1.66685227e-03 -1.17986398e-04
 -2.45225779e-03  2.34161760e-03 -9.18950711e-04 -1.81090878e-03
  1.55429647e-04 -1.32703909e-03 -1.50626129e-03  8.36570337e-02
  1.22608701e-02  1.10703185e-02 -1.80846406e-03 -1.23449042e-03
  2.54826824e-04 -6.07776418e-02  9.07373428e-02 -8.57554551e-04
  2.08071969e-03 -1.75064325e-01  1.69656314e-02  1.14532687e-01
  3.02988198e-03  5.71012311e-02  1.90513197e-03 -5.73033392e-02
  4.94730542e-04 -7.69884661e-02 -1.23381704e-01 -2.94402361e-01]
[-1.1552919e-03  9.5489953e-04 -2.1312695e-02  2.7465548e-03
  1.2908773e-03  1.7094947e-03  1.0709528e-01 -1.3581242e-02
  3.1581849e-02  2.5406342e-03  1.8119743e-02  1.3311043e-01
 -1.5203601e-02  5.1785319e-06 -3.3775149e-04  2.1973230e-04
 -4.8657522e-02  2.3176705e-02  2.3447363e-02 -2.3780046e-03
 -1.0394375e-01  9.6122897e-04 -5.3758528e-03 -1.3993874e-01
  1.1208324e-01 -6.8330996e-02 -4.8858265e-04 -2.1504626e-02
 -1.0539029e-02 -2.5167393e-03  1.3277258e-02 -2.6844162e-03
 -5.4054238e-02 -5.1602919e-02 -3.5591761e-03  3.1344988e-04
  2.9219434e-04 -8.1489072e-04  2.2630072e-03  1.7068093e-04
  4.4930290e-04  3.5086714e-03  4.9194996e-04  6.3806698e-02
 -1.9257914e-02 -1.1851082e-02  9.9847748e-05  2.7246322e-03
 -1.5388013e-04 -5.6810383e-02  1.0435400e-01  2.3879798e-03
 -2.2375319e-04  1.6522343e-01  1.1392406e-01  1.7936163e-01
 -2.5315722e-03 -4.1353356e-02 -3.8053636e-03  6.0684811e-02
  1.0883858e-04  7.4429914e-02 -1.2931256e-01 -6.3242100e-02]
[ 3.18949606e-05 -5.33148239e-04 -3.43793933e-03 -2.59425770e-03
  3.28149879e-04  1.85291551e-03 -3.26462165e-02 -3.90258320e-02
 -1.53045058e-01  5.61903638e-04  9.23831314e-02 -2.93924101e-02
 -1.03044391e-01 -7.83560856e-04  1.12480274e-03  6.42024796e-04
  9.38960910e-02  1.38834445e-02 -1.59384552e-02  1.15765119e-03
 -7.56311193e-02  8.01183487e-05  3.65742104e-04 -4.85572666e-02
 -3.40149403e-01  1.58727393e-01  4.93524203e-05 -9.91278142e-03
  3.55430460e-03  1.18215254e-03  8.93340036e-02 -1.20539474e-03
  1.23092674e-01 -3.66082489e-02  2.91456073e-03 -7.56590976e-04
 -3.73806176e-03 -1.53655082e-03  7.86378921e-04  4.56305890e-04
  6.05724868e-04  3.30012897e-03  8.04520168e-05  9.58349258e-02
 -1.59445778e-03  4.34415834e-03  1.42251170e-04  4.86623205e-04
  1.64077140e-03 -1.22409925e-01  7.35106394e-02  4.84987977e-05
  2.40675313e-03 -8.38062763e-02 -2.75538601e-02  4.88530397e-02
  1.02626986e-03  2.10703947e-02  2.90260161e-03 -6.76865969e-03
  1.28208648e-03 -2.38111675e-01 -3.99310794e-03 -1.33465797e-01]
[ 3.4176833e-03  7.5820362e-04 -8.6607337e-02  5.5415495e-03
  5.6936559e-03  5.8058826e-03 -7.7886708e-02 -2.5009611e-01
 -1.0427894e-02 -8.9526537e-04 -5.0876163e-02 -3.9003704e-02
  1.8961323e-02 -4.2415257e-03  8.8672643e-04 -5.5390544e-04
 -2.2540860e-01  1.5165224e-02 -1.2265203e-01  4.2283321e-03
  6.2048927e-02  4.7121104e-03 -4.6109715e-03 -1.1214308e-01
 -1.5916602e-01 -4.7004458e-02 -1.8488439e-03 -1.4896853e-01
 -3.9883107e-02 -3.4805434e-03  1.7911224e-01 -4.5193345e-03
 -8.4624430e-03 -5.3363005e-03 -1.0206543e-02  1.5917337e-03
 -1.5124702e-03 -5.7061897e-03 -2.4350223e-04  3.8800249e-03
  9.5430703e-04  1.3822069e-03  2.8944504e-03  1.8252958e-01
 -7.8282587e-02 -4.6727143e-02  4.6009691e-03 -5.6696893e-04
  1.0429206e-03  1.9675875e-02  9.3834892e-02  4.2429334e-04
 -1.8871773e-03 -8.3821461e-02  1.7936055e-01  2.1616809e-02
 -3.8443315e-03 -1.9608875e-01 -5.6571625e-03 -9.1425851e-02
  4.2560771e-03 -6.7148358e-03 -4.0338386e-02  3.7986465e-02]
[ 6.9572800e-04  2.1148883e-03  2.7826084e-02  2.6685190e-03
  1.5518388e-03 -7.3878100e-04 -2.1347944e-02 -8.3138987e-02
  1.4262076e-02  3.0037385e-04  2.8781604e-02  5.3092483e-02
 -7.0757391e-03 -7.2459265e-04 -3.9959158e-04 -1.2677745e-04
  4.3482926e-02 -1.9105066e-03 -3.4313522e-02 -2.8280666e-04
 -2.9013695e-02  2.0749748e-03  4.8998459e-03 -3.6420260e-02
 -2.0957781e-01 -1.8399136e-01 -2.6756439e-03  1.5231723e-04
  2.0207749e-03 -3.3964990e-03  8.8775363e-03  1.6568418e-03
 -2.1120884e-02 -5.1969541e-03 -4.7238159e-04  1.8516468e-04
  2.7319565e-03 -1.2826197e-03  4.0604139e-04  1.7141623e-03
 -1.0805722e-04 -3.2585594e-03 -2.1540979e-03 -1.4977197e-01
  2.1794869e-02  8.1880074e-03  5.7511461e-05  1.6092481e-04
 -1.5549891e-03  9.7075449e-03 -1.2731205e-01  1.0869886e-03
  1.6659542e-04 -6.7595594e-02  1.7418794e-01  8.1094280e-02
 -3.3022165e-03  2.6425865e-01  4.9586082e-03 -2.1430507e-02
 -2.5633045e-03 -1.1226960e-01  7.6056279e-02  3.2953795e-02]
[-1.6742889e-04 -2.1518525e-03 -8.3250244e-04 -1.2541167e-03
 -6.5910787e-04  2.4260476e-03  5.5104017e-02  4.2623635e-02
 -4.8681118e-02 -7.0515712e-04  3.2019662e-03  7.2623208e-02
  5.7322361e-02  3.6210971e-05  1.4529034e-03  5.1787218e-05
 -5.7382077e-02 -1.2881987e-01 -4.4202551e-02  1.6026996e-03
 -2.0498553e-02 -1.3313896e-03 -9.5605681e-04 -1.1084190e-02
 -1.6530009e-01  1.3241197e-01  1.6717177e-03  1.6446720e-01
  2.3771883e-03  1.2614462e-03  6.3983656e-02 -2.6290298e-03
  3.4199022e-02  1.4570927e-02  1.1402385e-03 -2.6318055e-05
 -2.1839305e-03 -1.5736224e-04 -4.0411003e-05 -1.0864692e-03
 -4.7686519e-04  1.7093617e-04  4.7066656e-04  1.1873831e-01
  8.0049247e-04  5.0098044e-03  1.8194190e-04 -6.7429786e-04
  1.9795280e-03 -1.2258085e-01  8.8462926e-02 -1.1629628e-03
 -4.3724512e-04 -6.2508263e-02 -4.4502160e-01  4.5827828e-02
  1.1864083e-03 -9.5741287e-02 -1.1391671e-03 -9.0119280e-02
  2.0000592e-03 -1.6526426e-01 -9.9614030e-03 -3.7141669e-01]
[-1.64150668e-03  1.21195312e-03 -1.24244792e-02  1.17273536e-03
 -4.27812862e-04 -2.82637775e-03 -6.47043111e-03 -5.77187873e-02
  6.87380731e-02  1.02695543e-03 -2.04853773e-01 -6.11328296e-02
 -1.30744949e-01  1.20824471e-03 -3.51835857e-04 -7.45510770e-05
 -8.47629309e-02 -4.44709603e-03  5.76625280e-02 -4.40710504e-03
 -9.75745991e-02 -4.23721474e-04  1.72475644e-03 -2.69009471e-02
 -1.91751111e-03 -2.41347458e-02  9.28205409e-05 -3.48206967e-01
 -1.20283682e-02 -7.13463756e-04  9.91078094e-03  1.59518491e-03
 -5.45054488e-02  2.49110050e-02 -5.09590562e-03 -4.73731016e-05
  2.55898293e-03  1.27862615e-03  1.47904997e-04 -9.51321155e-04
 -1.07113982e-03 -3.60564329e-03 -1.21773989e-03 -1.36018440e-01
 -1.31136067e-02 -1.16904182e-02 -5.17840730e-04  9.19858227e-04
 -1.25271245e-03 -1.21384382e-01 -5.05680358e-03  9.71145637e-04
 -8.80247098e-04  6.52756691e-02  7.97300786e-02  1.38020232e-01
 -6.63898361e-04  9.90717709e-02 -1.37762760e-03 -6.96187988e-02
 -7.86459248e-04  1.16687305e-02 -3.71918321e-01 -2.95168996e-01]
[-0.00498255 -0.00068568  0.00877186 -0.01134103 -0.01167841 -0.0129895
  0.07648145 -0.10453066  0.24640277 -0.00584415  0.01713619 -0.12395591
  0.17506225  0.00794969  0.00164263  0.00146138 -0.00654356 -0.237539
 -0.03473208 -0.00250019  0.01597572 -0.00984248  0.00451302 -0.17520235
  0.14650755 -0.4074039   0.00154214  0.26612893  0.00788236  0.01023616
  0.09995778  0.00990621  0.10753723  0.07556183  0.00434169 -0.00204886
 -0.00329622  0.01025619 -0.00653829 -0.00625151 -0.00126578 -0.00262205
  0.00107687  0.1653788   0.01091473  0.01113068 -0.01032377 -0.0061558
 -0.00161851 -0.13095042  0.27360424 -0.00505073  0.00051708 -0.17622583
 -0.03218909  0.03277532  0.01042112  0.02844115  0.0052295   0.11525857
 -0.00244488  0.17317091 -0.15251625 -0.11814007]
[-6.5271201e-04  2.0531805e-03 -4.6684708e-02 -3.2528373e-04
 -1.3778664e-04 -1.3233274e-03  6.7627333e-02 -1.0416309e-02
 -2.1305454e-03 -2.1007944e-04 -3.9528200e-01 -7.7251241e-02
 -1.1125406e-01 -8.9104091e-05  8.7541959e-04 -2.8423534e-04
 -2.1496345e-01 -6.9132626e-02 -9.9780113e-03 -6.5492839e-04
 -1.0551689e-01  3.6374736e-04 -4.9284945e-04 -4.9460288e-02
 -5.1744957e-02  2.7459012e-02 -2.2895194e-03 -2.4012171e-01
 -1.8648550e-02 -1.7925750e-03  3.0340580e-03  1.7232529e-03
 -6.6962149e-03  3.7012294e-02  7.8849436e-04  8.9894456e-04
 -4.7824759e-04 -1.3859750e-04  6.0664647e-04  7.1057834e-04
  1.2358052e-03  3.1620397e-03  1.3709487e-03 -8.9296885e-03
 -4.2013161e-02 -2.5408043e-02 -1.2193575e-03  1.4126310e-04
 -8.1144297e-04  2.4711885e-02  3.5502115e-05  1.5723429e-03
  9.1009843e-04  1.3017043e-01  7.8910790e-02  7.4665181e-02
 -1.7694245e-03  2.0120615e-01  7.2770065e-04  1.2765793e-02
 -1.1194821e-03 -1.2946735e-02 -2.5009653e-01  3.1161552e-02]
[ 1.4282039e-03 -2.1183058e-03 -2.6171250e-02 -5.1298584e-03
 -1.6756344e-03  2.1832034e-03  3.5180904e-02 -1.0492715e-01
 -1.8788557e-01 -1.4645307e-03 -1.2108394e-01 -1.6345036e-01
 -3.1288591e-01 -4.1901594e-04 -7.3640316e-04 -3.1150892e-04
  2.5323594e-01  4.8141483e-02  1.4958428e-02  2.8690137e-03
 -1.0878021e-01 -1.7557363e-03  1.9577753e-03  9.0751275e-02
 -4.1646796e-01 -2.3539731e-02  2.0452968e-03 -2.2306606e-01
 -1.5622362e-02  3.1540850e-03 -2.3448644e-02 -3.0252599e-04
  5.9526179e-02 -7.4954316e-02 -3.0171627e-03  6.6355773e-04
 -1.4633402e-03  1.3264421e-04 -2.1246250e-04 -6.6911586e-04
  1.7841246e-03  5.8007124e-04 -1.6761399e-04 -4.3636553e-02
 -2.4671130e-02 -1.7799307e-02  4.9863919e-04 -1.3059491e-03
  5.3744874e-04 -4.2354490e-04  1.8246147e-03 -1.8110195e-03
  2.1508362e-03 -4.8443285e-01 -3.6572535e-02  1.4350580e-01
  3.3125945e-03 -3.0188285e-02  2.7030970e-03  3.6365185e-02
 -3.2243063e-04  1.6032588e-02 -2.6216447e-01  3.4075651e-02]
[ 2.9971523e-04 -7.9507957e-04  2.2920839e-02  2.4328292e-04
  6.6593355e-05  1.1822343e-04  1.8129064e-01 -1.3753251e-02
 -1.4059393e-01 -5.5693241e-04 -2.7242876e-03 -5.4301046e-02
  7.1848594e-02 -1.7010811e-05  1.6405554e-03  1.7779992e-03
 -2.2870732e-02  3.7381053e-02  1.2678912e-01  4.9074437e-04
  8.3414786e-02 -1.4217646e-04 -8.5520354e-05 -4.3893892e-02
  1.0421065e-01  8.3643652e-02  7.0006878e-04  1.3766146e-01
  2.7506198e-03 -4.2388318e-04 -4.7156117e-03  7.8236370e-04
 -9.1328189e-02  8.0221698e-02 -1.7949055e-03 -9.2582696e-04
  9.6619833e-04 -3.3971883e-05 -4.7063146e-04 -6.6985362e-05
 -5.7632546e-04  1.1382054e-03  7.5306749e-04  8.8986848e-03
  1.8326206e-02  1.0380365e-02 -2.1027666e-04 -7.4105029e-04
 -1.1158531e-03  8.0728352e-02  2.8435844e-01 -1.0404072e-03
  1.6897962e-04 -5.5339333e-02 -8.5641652e-02  3.6012274e-01
 -3.1281478e-04  5.0196253e-02  1.2216152e-03 -5.6546744e-02
 -1.4114073e-03  3.3016447e-02 -1.9307749e-02 -7.7621296e-02]
[ 6.9508553e-03  1.3153246e-03 -8.3734356e-02  8.3424514e-03
  8.9049786e-03  8.1965690e-03  6.1852310e-02  2.0028338e-01
  4.0576410e-02 -2.9728811e-03 -6.2908856e-03 -1.4513955e-01
 -4.5157596e-02 -6.4439112e-03  1.6646828e-03 -4.0249847e-04
  1.1001412e-01 -1.8199649e-01  3.5236510e-03  8.6880596e-03
 -1.4068551e-01  7.7483607e-03 -8.3733732e-03  6.9668382e-02
  1.7325155e-01  5.5939537e-02 -4.2533553e-03  5.1762372e-02
 -2.6879633e-02 -6.7455322e-03 -2.2545854e-02 -4.9303272e-03
  4.7319205e-05 -1.0127228e-02 -9.3168356e-03  1.5296254e-03
 -7.4346212e-04 -8.5413978e-03 -2.3444239e-03  7.0423353e-03
 -4.6892336e-04  8.8160681e-03  4.8839679e-04 -2.4668312e-01
 -7.2293200e-02 -3.5465810e-02  7.3569831e-03 -2.0975361e-03
  5.7352841e-04 -2.4564251e-02 -2.0035516e-01 -2.5756430e-04
 -3.6888537e-03 -1.4077654e-02 -1.4267029e-01  6.1870869e-02
 -7.0627448e-03 -2.5938157e-02 -1.0200666e-02 -7.6554164e-02
  3.3826670e-03  4.9518440e-02 -1.1760592e-03 -3.9610066e-04]
[ 4.21577352e-05  6.23935251e-04 -2.63256393e-02  8.28054734e-04
  2.79237225e-04  1.15977414e-03 -6.90616816e-02  9.18134376e-02
  2.60577574e-02  1.07304266e-04 -9.85074341e-02  3.15791927e-02
 -2.71992236e-01  3.81477614e-04 -5.74598147e-04  6.90151574e-05
  6.06741086e-02 -5.45340776e-02  1.82313528e-02 -2.36183099e-04
 -9.30722356e-02  3.18140694e-04  4.33319423e-04 -6.30589202e-02
 -1.29023910e-01  1.36916772e-01 -6.19022991e-04 -9.90452021e-02
 -1.14739994e-02 -1.57136458e-03  1.23168677e-01 -1.24610856e-03
 -7.08819181e-02 -8.86861235e-02 -4.05920856e-03  2.89617630e-04
  2.68449541e-04 -2.28320656e-04  1.84127042e-04 -9.26196662e-05
  1.16642285e-03  5.74107398e-04  1.11893273e-03 -1.93925709e-01
 -2.29583252e-02 -1.24370726e-02  2.41878952e-04 -3.47458190e-05
 -2.97854218e-04 -1.00805677e-01 -1.34004712e-01  6.71304995e-04
  1.16703776e-03  6.65953383e-02  2.88566083e-01  9.27317366e-02
 -1.57234259e-03 -4.01103757e-02 -1.64874771e-04  5.25713339e-03
 -5.54343045e-04  3.47378515e-02 -2.28203088e-02 -1.82558700e-01]
[ 2.5056289e-03 -1.0011147e-03  1.2621762e-02 -8.8399893e-04
  2.1497642e-03 -2.3726807e-03  1.5645543e-01  5.5811882e-02
  1.6264167e-01 -6.0890050e-04 -1.3937341e-01 -4.1034929e-02
 -1.7718684e-02 -3.9301869e-03  5.3155003e-04 -7.6349432e-05
 -1.7849873e-01  2.0324329e-01  7.1939051e-02  2.1205069e-03
 -1.8391789e-01  2.6038117e-03  6.2189987e-03 -4.2432144e-01
 -1.1295901e-01  1.3969177e-01 -1.5668588e-03 -2.6302457e-01
  5.8209863e-03 -1.6072559e-03 -4.3795545e-02  1.1567672e-03
  1.4188376e-02 -4.1681845e-02  5.8819489e-03  1.0152024e-03
 -5.6060869e-03 -3.4170428e-03 -2.1637154e-03  2.6751196e-03
  1.8913191e-03  1.3601122e-04 -9.1332395e-04 -6.6105545e-02
  1.1724848e-02  7.6559894e-03  1.9530848e-03 -8.9774048e-04
 -1.1538032e-03  8.5581705e-02  6.2559433e-02 -2.0307635e-03
  8.6949585e-04  2.6880643e-01 -4.7136761e-02  1.7777385e-01
 -1.9098385e-03  7.6098032e-02  1.3939571e-03  1.1174881e-01
  1.4438379e-03 -1.3823295e-01 -2.1370493e-01 -2.1470019e-01]
[ 2.9787316e-04 -2.6739773e-03  1.0112158e-02 -4.2470316e-03
 -3.7644571e-03 -6.0760472e-03 -1.8009195e-01  1.1379499e-01
 -3.7435055e-02  6.0823513e-05  2.1173713e-01  1.1509395e-01
  1.2354348e-01  1.9857423e-04 -1.1975768e-03  7.8699877e-04
  2.5065666e-01 -8.7544805e-04 -7.7093253e-03 -1.6128905e-03
 -5.6703478e-02 -2.6390913e-03  9.5866434e-03  3.1900787e-01
  1.0702860e-01  4.7369421e-02  2.7454558e-03  1.8954010e-01
  1.9338807e-03  4.3396410e-03  2.3009960e-01  3.1799192e-03
  7.2094545e-02 -6.0531601e-02  1.1980128e-03 -9.3156734e-05
 -1.4142612e-03  2.7366844e-03 -9.6692622e-04 -1.7427133e-03
 -4.8945256e-04 -7.5288344e-04 -1.4770334e-03 -7.9717562e-03
  9.3692569e-03  6.6153533e-03 -1.1857221e-03 -6.0082728e-04
 -2.4991576e-04  1.7244552e-01  5.1631808e-02 -2.5210455e-03
  4.1079540e-03 -6.1696414e-03 -6.7985885e-02 -6.3512698e-02
  4.3538185e-03 -2.3914684e-01  7.7810776e-03  7.1453683e-02
 -6.1301696e-05  9.2498809e-03 -1.5622124e-01  6.9432370e-02]
[ 8.6064741e-04 -1.3445392e-03 -8.9623053e-03  2.7993303e-03
  1.1428400e-03  4.7425395e-03  4.1878060e-02 -6.5744750e-04
  2.9768024e-03 -1.1844651e-03 -9.6398443e-03  1.6630921e-01
  2.2926076e-01  6.4069935e-04  3.9056994e-04  2.5228638e-04
 -4.0264707e-02 -1.1365717e-01 -1.6780645e-02  1.9037866e-03
  9.8844275e-02  2.2863464e-04 -8.7752991e-04 -1.5713762e-01
  3.4796737e-02  3.3213027e-02  1.4886527e-03  4.3951396e-02
 -2.4775565e-03 -5.7523209e-04  7.9282396e-02 -5.5256062e-03
  5.0315034e-02  6.2276968e-03 -5.6229671e-04  1.1421576e-05
  3.2109520e-04 -5.8591407e-04 -6.4688578e-04 -6.4278743e-04
  2.6055143e-04  2.3981319e-03  1.6007366e-03  1.7496420e-01
 -7.4055740e-03 -1.4529240e-03  1.9888589e-03 -1.3744473e-03
  2.3998814e-03 -1.1239449e-01  1.4725873e-01 -7.8530266e-04
  9.3698525e-04 -6.7537844e-02 -2.9077351e-01  6.9427513e-02
 -5.9831853e-04 -1.6429955e-01 -4.7351490e-04  6.8428561e-02
  2.6429077e-03 -6.1083522e-02  9.9493332e-02 -8.2113750e-02]
[-1.4533456e-03 -1.0405176e-03  1.0490482e-02 -1.6924023e-03
 -2.6360652e-03 -2.6545255e-03 -1.5617515e-01 -9.5641814e-02
 -4.8023995e-02 -2.0115662e-04  1.5210091e-01  6.7551643e-02
  9.5813617e-02  1.5552195e-03 -9.2335657e-04  6.2558407e-05
  2.3880319e-01 -1.2754436e-01 -7.9659708e-03 -1.2770963e-03
 -5.6061909e-02 -2.4646125e-03  4.1018464e-03 -6.0215285e-03
 -1.8357591e-01  4.3716472e-02  1.2039798e-03  2.2473033e-01
 -1.9056214e-03  2.8585833e-03  1.2536043e-01  1.1781438e-03
 -1.0738650e-01 -4.9341276e-02 -2.2959937e-03 -3.4610226e-04
 -1.1597230e-03  2.2755736e-03 -1.0253064e-03 -2.1492972e-03
  2.4813326e-04 -6.1593321e-03 -1.3002297e-03  6.8095930e-02
  8.0941459e-03  1.5929467e-03 -1.7908521e-03 -5.1778666e-04
  7.2521355e-04 -2.0303374e-02 -7.2938278e-02 -1.3306674e-03
  1.5968125e-03  4.5657877e-02 -2.7406905e-02 -7.6207601e-02
  2.9546868e-03 -2.0717703e-02  3.8763359e-03  2.2312813e-02
  3.6348210e-04  7.6074079e-02  2.1219309e-02 -1.5007854e-01]
[ 1.6418680e-04  1.8303317e-03  6.8946243e-03  1.7037359e-03
  2.4682248e-03 -2.7712146e-04 -2.2960363e-01  8.3080366e-02
 -2.6239103e-02  1.3491833e-03  1.2721428e-01 -1.1856617e-01
 -9.4520703e-02 -1.8252502e-03 -1.0475821e-03 -6.4686232e-04
  1.0549358e-01 -2.7605385e-02 -4.1280217e-02 -1.9533597e-03
  3.1538747e-02  2.4445681e-03 -1.4751818e-03  1.8834904e-02
 -9.6160926e-02  2.3197696e-02 -1.7171173e-03 -3.7862271e-02
 -1.7038062e-03 -3.1905228e-03  1.0002345e-01  1.6038729e-03
 -2.0506784e-02 -1.9328589e-02 -6.1050046e-04  6.7800086e-04
  1.7584581e-03 -2.6924014e-03  1.0070453e-03  1.8497554e-03
  1.9266547e-03 -4.8531889e-05 -5.7710829e-04 -6.2240243e-02
  4.7058207e-03 -5.4408517e-04  1.2473337e-03  1.6674268e-03
 -1.4118634e-03  2.0768584e-03 -1.4451039e-01  1.8238376e-03
  1.5477408e-03 -4.0878136e-02  1.3191761e-01 -1.0146413e-01
 -3.2143795e-03 -4.0272351e-02  1.0909399e-03 -6.2177088e-02
 -1.6463783e-03 -1.4435969e-01 -5.4055393e-02  5.5378344e-02]
[ 2.75558326e-03 -6.00153755e-04 -1.61154475e-02  2.67198100e-03
  4.00990667e-03  3.85603169e-03 -2.70525813e-02  2.55853161e-02
 -7.71748601e-03 -1.84106571e-03  2.47820631e-01  4.24042437e-03
  7.81630911e-03 -2.77109281e-03  2.43448955e-03  1.35115162e-03
  2.40285739e-01  3.21943909e-02  1.28683411e-02  3.51435505e-03
  2.77392212e-02  3.12547968e-03  4.64962423e-03 -5.48113184e-03
  2.84330808e-02 -7.36013204e-02 -4.31492983e-04  1.70642719e-01
 -1.22735444e-02 -4.29756474e-03  2.87579615e-02 -4.64668294e-04
  1.62255261e-02 -5.37567772e-04 -1.14890514e-03 -5.61571273e-04
  1.90100353e-03 -4.33312822e-03 -1.42152759e-03  2.37869541e-03
 -1.51391095e-03  4.39573918e-03  2.26057353e-04 -6.41848426e-03
 -1.48023758e-02 -1.12253707e-02  3.28360591e-03 -1.68506172e-03
 -1.48291467e-03  1.73197705e-02 -1.10634826e-01 -1.44914025e-03
 -4.13024507e-04 -2.22133696e-01  5.02111971e-01  1.60758607e-02
 -4.38555889e-03 -2.25774333e-01  2.80801510e-03  4.13283519e-02
 -1.02449208e-03  9.47047919e-02  3.44370082e-02 -2.69004032e-02]
[-7.2979520e-04  1.7542538e-03 -2.1951025e-02  3.1991298e-03
  1.4207632e-03  6.6140416e-04 -1.0046104e-01 -7.3894992e-02
  9.9362321e-02  2.3660653e-04  7.9969382e-03  1.5197463e-01
  8.3280534e-02  1.8564679e-05 -1.5643857e-03 -1.2506878e-03
  6.9143981e-02  1.4170718e-01  2.1301227e-02 -6.2265148e-04
 -2.2155489e-01  1.3871952e-03 -3.0002997e-03 -1.4680725e-01
 -5.6384288e-02 -2.3396416e-01 -1.7969147e-03  5.1742806e-03
 -1.9099256e-02 -2.4806049e-03  7.0417076e-02 -4.6205113e-04
 -1.4026803e-01  1.4194040e-02 -1.5457047e-03  7.9840620e-04
  7.4463454e-04 -8.4713637e-04  6.9987215e-04  6.4036006e-04
  1.7019488e-03  6.2341185e-04 -4.2341859e-03 -9.8170610e-03
 -2.5276458e-02 -2.4008965e-02  4.1252858e-04  2.5593417e-04
  1.3907121e-04 -1.2177846e-01  1.0477595e-03  1.6351752e-03
 -1.6800406e-03 -1.1626245e-01 -5.6053080e-02  8.6532667e-02
 -2.5453039e-03 -2.1968232e-01 -1.3597782e-03 -1.2999859e-01
  4.7901366e-04 -3.4965187e-02  6.5832771e-04 -1.3568817e-01]
[-1.2522874e-03  7.5945933e-04  1.8857807e-03  3.7049816e-04
 -2.1049341e-03 -2.4124354e-03 -3.4249090e-02  1.2423035e-02
 -1.1346304e-01  6.2767314e-05 -1.0378962e-01  2.0600403e-02
  1.4003029e-02  1.7075251e-03  1.4086346e-03  3.7963182e-06
 -1.3160780e-01 -2.1420922e-02  6.3775457e-02 -1.6086717e-03
 -4.2468339e-02 -1.2190826e-03  1.5323834e-03 -2.1055321e-01
 -3.4110282e-02 -1.8671189e-01 -8.2168248e-05  1.0012811e-01
 -6.0107727e-03  8.7406905e-04 -8.5311998e-03  2.4402604e-04
 -1.5923865e-01 -1.5342965e-02 -2.3460570e-03 -4.3549473e-05
  3.1986102e-03  2.1817719e-03  2.1868436e-04 -1.1402288e-03
 -1.0153563e-03 -2.7076533e-04  1.5544645e-03 -1.9044932e-02
 -4.5364583e-04 -3.5770000e-03 -2.7280133e-03 -3.7103982e-04
 -7.8495534e-04  2.0826872e-02 -3.0827285e-03  2.9341114e-04
  8.3535659e-04  9.5813759e-02  2.0961882e-01  2.2222918e-01
  1.1050383e-03  1.3037118e-01  1.7129788e-03 -2.6887473e-02
 -1.1779533e-03  4.9216632e-02 -2.9680779e-02  2.7319979e-02]
[-1.3661095e-03 -3.3063619e-04 -4.0989589e-02  2.3037931e-03
  1.2308226e-03  2.5838753e-03 -3.3557194e-03  4.4816047e-02
 -8.3432443e-02  1.9383276e-03  9.0074137e-02  2.7346081e-01
  1.0558846e-01 -1.8541727e-04  1.8792292e-05  1.3356757e-05
  5.2771643e-02 -1.6760269e-02 -6.2000030e-03 -1.3807776e-03
 -3.7648268e-02  4.5350631e-04 -1.3302960e-03 -7.8853384e-02
  1.1290912e-02  7.2929062e-02  4.0910149e-04  2.7323999e-02
 -1.4579654e-02 -9.1987208e-04  9.4506644e-02 -4.9752649e-03
  2.2477176e-02 -1.3717990e-03 -4.0467749e-03  1.6051341e-05
 -2.6789031e-03 -1.0634355e-03  1.8659710e-03 -3.1356484e-04
 -5.8145128e-04 -3.0665478e-04 -4.5258341e-05  7.3955418e-03
 -3.4877211e-02 -1.8683283e-02  8.2119269e-04  2.0575810e-03
  3.0538852e-03 -1.7360330e-01  4.8660193e-02  1.7017707e-03
 -4.1598611e-04  5.7148091e-02 -2.8194740e-01  7.0859017e-03
 -1.0975040e-03 -2.9182744e-01 -2.6391156e-03 -7.1972474e-02
  4.3885312e-03 -1.4474814e-01 -3.7118625e-02 -8.7472260e-02]
[-2.92732171e-03  1.58138675e-04 -4.78067435e-02 -8.78793246e-04
 -2.65083695e-03 -1.73547887e-03  1.63612545e-01 -1.88155577e-01
 -7.95373842e-02  9.02418571e-04 -8.42140913e-02 -2.21774075e-03
 -2.25850623e-02  2.15647859e-03  2.97886669e-04 -5.05843025e-04
  4.52154316e-02 -1.72350869e-01 -1.26322489e-02 -2.76750885e-03
 -1.54332686e-02 -2.58661318e-03 -1.60691357e-04  2.76390812e-03
  2.86042653e-02 -1.99519783e-01  1.06115791e-03 -2.27165386e-01
 -1.69922262e-02  2.38408917e-03 -9.57931206e-02 -2.90899450e-04
  7.52370581e-02 -4.13253121e-02 -4.23673354e-03  8.41777015e-04
 -1.39195425e-03  2.50117388e-03 -3.52044299e-04 -2.29519070e-03
  1.37555340e-04 -3.06200213e-03  3.24492648e-05  7.90302157e-02
 -4.06401008e-02 -2.08591539e-02 -2.87998701e-03  7.45875470e-04
  1.35280285e-03 -1.32316247e-01  1.22099414e-01 -2.37748056e-04
  3.34490876e-04  6.75604865e-03 -2.67986864e-01  9.85051095e-02
  2.49334564e-03 -2.24688146e-02 -1.44215999e-04  3.01432721e-02
  1.32616749e-03 -6.11236133e-02 -3.09425462e-02 -1.91549882e-01]
[ 1.98156165e-04 -8.88898736e-04 -1.83535088e-02 -1.04565604e-03
 -3.98354867e-04  2.28176330e-04  5.65244406e-02  4.27730083e-02
 -5.21809570e-02 -5.96676779e-04  1.64867491e-01  9.62125957e-02
 -1.01838835e-01  5.46988391e-04 -4.40755335e-04 -5.68471092e-04
 -4.32518460e-02  6.65899143e-02  3.96047458e-02  3.24332912e-04
  2.01642606e-02 -7.31609587e-04  4.46852855e-03 -1.48861885e-01
 -1.08909709e-02 -2.61710025e-03  1.20416621e-03  1.41787305e-01
 -1.72686502e-02  1.23275863e-03  2.63626296e-02 -3.12543532e-04
 -1.33046523e-01 -2.23357640e-02 -5.39547717e-03  2.98288534e-04
 -5.57007967e-04  5.48484037e-04 -6.44352287e-04 -5.90393029e-04
 -7.19868054e-04 -3.45357507e-03 -1.89907383e-03 -1.00380942e-01
 -1.81417707e-02 -1.61639024e-02  5.14813408e-04 -7.08459353e-04
  1.77501366e-04  4.07142602e-02 -3.14750932e-02 -8.07965582e-04
  9.60936770e-04  8.27527642e-02  1.11942530e-01  1.19784087e-01
  1.17320509e-03  1.64004013e-01  1.56347896e-03 -6.00820333e-02
  8.91543925e-04  1.07068285e-01 -1.22964438e-02 -1.93901673e-01]
[ 8.9993293e-04  6.3400867e-04  2.1672144e-03  1.6866302e-03
  2.2187380e-03  1.0836115e-03 -4.4997133e-02  1.7240815e-02
 -9.5158651e-02  5.0051877e-04 -6.0439557e-02 -2.2187510e-01
  1.2838000e-02 -1.7781779e-03  8.2143961e-05  7.5556681e-04
  6.6442847e-02 -9.1702089e-02 -1.5273859e-02 -7.0821040e-04
  9.8356813e-02  1.8358584e-03  8.5137226e-04  2.3692435e-01
  7.9797454e-02  2.8265951e-02 -7.0272072e-04 -2.0498101e-02
  1.4277808e-03 -2.1010388e-03  2.5165671e-02 -8.5243117e-04
 -9.4156429e-02  2.5205497e-02 -1.4366610e-03 -4.8690705e-04
  4.5431216e-04 -2.2525985e-03  5.7830568e-04  1.3806643e-03
 -1.4490695e-04  2.1749170e-04  1.9196725e-03 -1.1703994e-01
  3.2842101e-03  4.4543967e-03  1.9304999e-03  8.8022463e-04
 -1.4634529e-04  9.1567114e-02 -4.0407181e-02  1.1969237e-03
  1.6984462e-03  1.2897690e-01  3.4784400e-01 -1.0712672e-01
 -2.2234346e-03  1.6814281e-01  2.1110571e-03 -8.4426060e-02
  4.4864300e-04  1.0041292e-01  4.1931150e-03  3.9503407e-02]
[-3.49983480e-03 -5.24391886e-04 -1.53759113e-02 -5.50439721e-03
 -7.73758255e-03 -6.69457717e-03  2.15062331e-02 -2.11533308e-01
  6.17329329e-02 -1.03263929e-03  3.09317391e-02  1.48347959e-01
 -2.16971457e-01  4.84182080e-03 -1.69207365e-03 -2.15382548e-04
  1.47766218e-01 -1.30452178e-02  8.18452146e-03 -4.34014667e-03
 -7.03262957e-03 -6.48755068e-03  2.63471971e-03  2.65920877e-01
  1.69689775e-01 -1.07454635e-01  1.87174592e-03  2.38281101e-01
 -8.09683651e-03  5.69624640e-03  1.28455609e-02  3.86747485e-03
  2.48176418e-02 -4.38906662e-02 -6.41293067e-04 -1.13612972e-04
 -1.10068428e-03  7.23596383e-03 -1.11794681e-03 -5.83244022e-03
 -1.22290672e-04 -2.53875111e-03  5.70257078e-04 -2.14710146e-01
 -1.40358284e-02 -7.56764924e-03 -4.36091656e-03 -1.75692444e-03
  1.28056025e-04 -9.25786421e-02  6.73231622e-03 -1.60894555e-03
  3.28677264e-03  1.01091839e-01 -1.07189186e-01  4.54292372e-02
  6.08272711e-03 -6.68195030e-03  2.56210123e-03 -6.97479993e-02
  1.39289477e-04  1.77860484e-01 -3.27588767e-02  1.36635065e-01]
[-3.1162226e-03 -2.2050190e-04  1.1381503e-02 -1.3703723e-03
 -4.4713411e-03 -3.7254624e-03  5.2672580e-02 -7.8139298e-02
  4.8429374e-02 -5.1847799e-04 -6.0723454e-02  1.7627975e-02
  2.8193721e-01  3.9629187e-03 -4.7235872e-04  5.4798648e-04
  5.7069734e-02  7.1709283e-02 -8.0120660e-02 -3.4730728e-03
  1.0466513e-01 -4.1343165e-03  2.3088318e-03 -9.8181382e-02
  5.1398918e-02  6.0842365e-02  1.8088513e-03  1.2350748e-01
 -1.7475241e-03  2.8418479e-03  3.2489389e-02  1.5157901e-03
 -8.2182780e-02  6.0227897e-02 -1.2205115e-03  2.6313536e-04
  6.9144310e-04  4.9247085e-03 -2.0700556e-04 -3.9096116e-03
  5.9163646e-04 -3.8026939e-03  1.4463324e-03 -4.6825789e-02
  8.3940448e-03  2.9896921e-03 -3.6285643e-03 -7.1967440e-04
 -2.4701172e-04  8.0873510e-03  1.1043570e-01 -1.2410677e-04
  6.7514728e-04 -1.2902492e-01  4.7557335e-02  2.7528830e-02
  2.9145936e-03 -9.9953942e-02  1.0662315e-03 -3.6844805e-02
  1.0873005e-04  1.3581364e-01 -4.8758768e-02 -7.0631611e-03]
[ 0.00081781 -0.00187811  0.00583596  0.00047456 -0.00103153  0.0004482
 -0.08612677  0.09628749  0.08357215 -0.00400363 -0.17362463 -0.0750766
 -0.22384404  0.00110993  0.00226559  0.00081402 -0.12368551 -0.05397566
 -0.05903538  0.00457173 -0.00523014 -0.00093269  0.00324121 -0.11243635
  0.13310361 -0.12517947  0.00134224 -0.0349796   0.00700163 -0.00057683
 -0.0210766   0.00100774 -0.05137074  0.00697658  0.00423091 -0.00127635
  0.00483966  0.0008546  -0.00380874 -0.00056566 -0.0006469   0.00148079
  0.00102437  0.00335458  0.00708185  0.00861475 -0.00101774 -0.00434297
 -0.00272736 -0.00113632 -0.09541485 -0.00406135 -0.00106086 -0.11952365
  0.21767929  0.01819579 -0.00042928  0.10354511  0.0021042   0.06391999
 -0.00458378  0.05982206 -0.08775734  0.04941909]
[-0.01076972  0.00505608 -0.01688126 -0.00232244 -0.01101633 -0.01033816
 -0.14611119  0.0601354   0.1704939  -0.00050409 -0.09037054 -0.00854605
 -0.15146224  0.01219402 -0.00124786 -0.00164518  0.1309553  -0.02067349
 -0.03652578 -0.01162636 -0.07143355 -0.00945957  0.00169952  0.13373996
  0.14873901  0.01599337 -0.00123454 -0.12300439 -0.01522712  0.00534017
  0.02260049  0.00586265 -0.16976349  0.05203712 -0.00252677 -0.00052015
  0.00209746  0.01286584 -0.00069885 -0.00799083  0.00122183 -0.00854154
 -0.00063086  0.01995288 -0.01662539 -0.01803777 -0.01395032 -0.00058075
  0.0005472   0.00213924 -0.13622881  0.00232865 -0.00230335  0.02351527
 -0.06084516 -0.06371892  0.00603448  0.02915142  0.0037016  -0.07551364
  0.00032715 -0.14651743  0.04696845  0.01222824]
[ 2.8859996e-03  4.0315259e-03 -2.8019605e-02  7.9582306e-03
  6.7229490e-03  1.7050279e-03 -1.3083279e-02  1.0848364e-01
 -4.1242849e-02  2.3382916e-03  3.0173323e-01 -3.9290015e-02
  8.2156368e-02 -4.1486002e-03 -2.7414184e-04  7.5839111e-04
  3.2882461e-01 -2.1824254e-01 -3.4652319e-02 -2.5757536e-04
 -1.5270588e-02  6.9468343e-03  4.3565892e-03  1.1354445e-01
 -1.6988713e-01  1.1266729e-01 -4.2940765e-03  2.3275685e-01
 -1.4080049e-02 -8.9167189e-03  1.7305906e-01  1.5347558e-03
 -6.8628520e-02  8.6842112e-02 -4.7087548e-03 -4.8601645e-04
  9.7254207e-03 -5.6474013e-03  2.8853295e-03  5.2715968e-03
 -2.4854082e-05  8.6569815e-04  7.3729985e-04 -1.4557481e-02
 -2.4727546e-02 -1.5701175e-02  2.9916742e-03  2.7125275e-03
 -5.2661779e-03 -8.1880301e-02 -6.1125573e-02  3.7373216e-03
  2.5413763e-03 -1.1418256e-01 -6.2109269e-02 -4.0898778e-02
 -8.7824753e-03 -1.3908975e-01  4.8712739e-03 -9.9616855e-02
 -5.6011830e-03  6.8761140e-02  6.0710743e-02 -4.8243571e-02]
[ 1.9773040e-03  2.4725383e-04 -5.5657353e-02  1.0567501e-03
  2.3724022e-03  1.6060276e-03  1.6875541e-01  1.4871798e-01
  2.0680634e-02  1.4306748e-03  5.3409595e-02 -2.4779706e-01
 -5.5375118e-02 -1.7120035e-03 -1.7272520e-03 -9.7232067e-04
 -2.0429671e-01 -9.3380459e-02  1.9626724e-02  6.3020299e-04
  6.0675323e-02  2.1658062e-03  4.4227885e-03 -1.5986121e-01
  9.2643708e-02 -4.9854100e-02 -1.0354342e-03 -1.7318197e-01
 -3.1036261e-02 -1.6102415e-03 -1.4709394e-01 -1.9513643e-03
 -7.2272435e-02  5.1334381e-02 -7.2645666e-03  9.5339003e-04
 -8.0966012e-04 -2.5798478e-03  1.5301593e-03  1.6577144e-03
  5.8629963e-04 -9.9774310e-04 -1.1062265e-03 -4.4298746e-02
 -5.0990921e-02 -3.7509874e-02  2.6031558e-03  1.3438782e-03
  3.0300824e-04 -1.3790766e-02 -2.0277521e-02  1.4222465e-03
  1.5831555e-03 -1.5779288e-01  1.9103412e-01  2.0139773e-01
 -1.7092237e-03  1.6707262e-01  1.1389434e-03 -2.1822399e-03
  1.0285451e-03 -9.0843230e-02  5.2629575e-02 -5.9788674e-02]
[-2.49454472e-03 -6.98063232e-04 -1.33643160e-02 -1.52050599e-03
 -3.15409619e-03 -2.53213756e-03  1.21180430e-01 -3.90958451e-02
 -7.75843412e-02 -6.08083152e-04 -5.71616832e-03 -1.22168317e-01
 -1.26388237e-01  2.51003657e-03 -1.29768264e-03 -1.32418156e-03
 -6.97822124e-02  1.08808696e-01  2.78875269e-02 -2.25180620e-03
  1.49834514e-01 -3.17808869e-03  2.29751633e-04  1.82416327e-02
 -3.82567826e-03 -2.04456404e-01  1.14234898e-03 -1.57536045e-01
 -4.41817148e-03  2.91534537e-03 -1.32946476e-01  4.57887945e-05
  1.05579667e-01  6.82441071e-02  2.12258752e-03  1.17645669e-03
 -3.32451798e-03  2.96580652e-03 -1.01037580e-03 -3.17866867e-03
  6.86285843e-04 -1.01302088e-04 -3.77715798e-03 -1.21341534e-01
 -1.24517931e-02 -5.67747653e-03 -2.33987975e-03 -9.55636729e-04
  1.56293390e-03 -3.54083884e-03  8.66704956e-02 -1.26079889e-03
  2.59663025e-03 -1.84691653e-01 -1.03231348e-01  1.03468977e-01
  3.01854964e-03  1.56890482e-01  1.15067244e-03 -1.53604802e-02
  2.48956331e-03 -2.69539297e-01  3.01240049e-02 -1.56818202e-03]
[ 5.1745708e-04 -4.0638647e-03 -9.8145260e-03 -4.5685475e-03
 -3.3337707e-03 -7.3228683e-04 -4.1106261e-02  1.4525981e-01
  2.2062892e-02 -2.7561395e-03 -2.9197308e-01  6.4746162e-04
 -8.8896275e-02  4.8085849e-04 -4.5677618e-04  1.1426377e-03
 -1.1894348e-01  2.4444310e-02  2.9350158e-02  2.4785951e-03
  1.3171425e-02 -3.1299284e-03  3.3380701e-03  4.0902793e-02
  3.1602703e-02 -1.1280723e-01  4.1034417e-03  1.5570057e-02
 -1.1996111e-02  4.1741086e-03  4.6667002e-02  1.6272890e-03
 -2.0343015e-01 -6.0890328e-02  1.4111344e-04 -2.0630044e-04
  8.6720969e-04  1.6773304e-03 -1.7987563e-03 -1.9245808e-03
 -6.3306617e-04  1.8133238e-03  1.0345995e-03  6.4895108e-02
 -1.0749071e-02 -1.1560201e-02 -1.6472766e-03 -2.9416499e-03
 -4.7164859e-04  7.8961551e-02 -2.4835989e-01 -4.3864571e-03
  3.5257274e-03  2.5228441e-02  3.1711143e-01  7.0638880e-02
  4.4079013e-03  1.8843730e-01  5.2215480e-03  2.4550920e-02
 -2.0948001e-03  1.3654019e-01 -3.0205685e-01 -3.0221535e-02]
[-8.60878790e-04  1.29652544e-04 -2.38445420e-02 -1.22289173e-04
 -3.62471852e-04  7.03386555e-04  3.69478852e-01  4.52653207e-02
 -1.54278368e-01  5.09448117e-04 -4.06039804e-02  3.79033908e-02
  2.58924991e-01  4.54311492e-04  1.06307496e-04  7.69334263e-04
 -6.36071637e-02  3.58301215e-02  2.70306408e-01 -6.53708470e-04
  1.18943766e-01 -4.32518747e-04  1.01143261e-04 -2.30706468e-01
 -1.95582464e-01  5.51486723e-02  1.91058149e-04 -1.21768869e-01
 -2.66813077e-02  3.75172880e-04  1.26401633e-01 -1.46324513e-03
 -1.44227862e-01  2.11362585e-01 -9.67811234e-03 -6.31308532e-04
 -9.33362986e-04  1.42126795e-04  5.42038179e-04 -5.46567258e-04
  8.77236715e-04 -2.78753490e-04 -6.76106138e-04  1.40455380e-01
 -2.63577607e-02 -2.26315707e-02 -4.81746363e-04 -5.06563301e-05
  1.18437863e-03  4.39618826e-02  5.09501696e-01  3.70122929e-04
  1.46704074e-03  7.75108263e-02 -5.49255796e-02  6.19532824e-01
  3.53139942e-04  1.02326676e-01  2.20379629e-03  6.14579543e-02
  8.48533644e-04 -1.68073684e-01 -8.35746154e-02 -1.32728294e-01]
[ 8.34083371e-03 -3.27008287e-03 -4.45206910e-02  1.07531324e-02
  1.39933899e-02  2.15343088e-02  1.55834612e-02  9.62656084e-03
  1.27661824e-01 -6.11233234e-04 -7.87819102e-02 -1.49501860e-01
 -1.96340561e-01 -7.61465309e-03  1.61428587e-03 -5.22615039e-04
  3.67202237e-02 -1.10636495e-01  3.79716009e-02  1.37674268e-02
 -1.31246239e-01  1.03138275e-02 -1.92949530e-02  2.78322268e-02
  5.98817579e-02 -7.00210184e-02  1.01354334e-03 -5.59915900e-02
 -2.50448063e-02 -1.00882621e-02  6.19533807e-02 -1.36987511e-02
  4.75390702e-02  1.06251100e-02 -9.94291622e-03  1.25246018e-03
  3.76207079e-03 -1.31378388e-02 -1.34019210e-05  7.66357780e-03
  7.53702247e-04  1.10683916e-02  3.92627483e-03 -2.60196239e-01
 -4.14141491e-02 -3.31730209e-02  1.25864092e-02 -2.70720862e-04
  2.69656465e-03 -6.44797273e-03 -1.58107802e-01 -1.43152662e-03
 -5.45657612e-03  1.60123155e-01 -5.09012282e-01 -7.80110154e-03
 -1.02978200e-02 -4.51213634e-03 -1.34815108e-02 -1.29087850e-01
  1.74510479e-03  7.73276910e-02  1.29107609e-01  6.46407949e-03]
[-1.4378990e-03 -4.1952945e-04 -4.4737734e-02 -9.4440603e-04
 -3.1079063e-03 -3.4606061e-03 -3.4096453e-02 -7.7792569e-03
  2.6618676e-02 -1.0136862e-03 -2.2610691e-01 -9.0211615e-02
  1.9227658e-01  1.8089791e-03 -7.3968654e-04 -2.3813336e-05
 -1.2699202e-01 -2.0503718e-01 -6.2681340e-02 -1.8539235e-03
  1.0431347e-01 -2.7219485e-03  2.5591729e-03  5.6540921e-02
 -3.5219990e-02 -1.6207580e-01  1.0206742e-03  1.2904553e-01
 -2.0850841e-02  1.9252877e-03  9.9595726e-02  1.5876676e-03
 -4.0190235e-02  8.5660964e-02 -5.7212042e-04 -6.3522439e-04
  6.6526685e-05  2.4529488e-03 -6.3112902e-04 -2.2599101e-03
 -1.1410430e-03  6.4586365e-04 -1.3229313e-03  1.6783936e-01
 -4.0590547e-02 -2.6943054e-02 -2.3549898e-03 -1.0849845e-03
  2.3573214e-04 -3.8392320e-02  9.5041595e-02 -1.0057463e-03
  1.6179485e-03  1.9364721e-01  1.0667522e-02  2.6923749e-03
  2.0733818e-03 -1.6879594e-01  1.7906299e-03  3.5962336e-02
 -4.6375513e-04  1.4793058e-01 -1.6174118e-01 -5.1360961e-02]
[ 1.15110597e-05 -1.08047761e-03 -7.88926840e-01 -3.97667493e-04
 -4.60482028e-04  2.41289847e-04  1.89277321e-01  1.01960689e-01
 -5.35832703e-01 -5.26298652e-04  2.52284378e-01  3.41508538e-01
  4.79276441e-02  1.46753120e-03 -1.27744520e+00 -1.27901745e+00
  1.73933163e-01  1.55241296e-01  2.94566095e-01  2.01701280e-03
 -1.15023986e-01 -1.09057745e-03 -1.27387810e+00 -1.42669350e-01
 -3.96584213e-01 -5.71018875e-01  4.11156041e-04 -3.94716784e-02
 -9.72380936e-01  1.45085528e-03  4.02219981e-01  4.21332486e-04
 -3.43567103e-01  1.90535933e-01 -1.19131291e+00 -1.28131652e+00
  8.45736708e-04  2.24758452e-03 -1.52370357e-03 -2.38937238e-04
 -1.28059137e+00 -1.27123535e+00 -1.27539039e+00  1.77143499e-01
 -8.15526247e-01 -9.60632026e-01 -5.02510113e-04  2.31305836e-03
  1.13730028e-03 -1.48674712e-01  2.59286553e-01  8.61142180e-04
 -1.27819502e+00 -1.87119141e-01 -2.62366980e-01  3.61076057e-01
  1.11606217e-03  2.66508222e-01 -1.27378154e+00  4.11003865e-02
  5.64887654e-04 -3.06715220e-01 -1.78673312e-01 -2.99474537e-01]
layer 3 Activation
swish
layer 4 Dense
64 64
[-3.11335971e-05  7.20837479e-03 -2.05698510e-04 -1.28601372e-04
 -3.01313773e-03 -9.52952832e-05  5.92782671e-05 -1.12096337e-03
 -2.18683854e-03 -2.94901547e-05 -9.31773902e-05 -1.58487237e-03
 -1.92075467e-03 -5.68719697e-05 -2.05310318e-03  5.48308017e-04
 -2.02684477e-03 -1.46600534e-04  1.56656635e-04  9.49988025e-05
  2.21501949e-04  8.30538193e-05 -2.46484391e-03  1.54028879e-03
  9.51245602e-05 -1.21576122e-04 -2.71775934e-06 -8.05176445e-04
 -1.17348187e-04 -7.60149705e-05 -3.54055919e-05  4.09494911e-04
  2.25420576e-04  7.91165861e-04 -1.14917313e-03 -1.86032569e-03
  1.04063365e-04 -1.08065701e-03 -3.72258597e-04  3.81604594e-04
 -1.39268965e-03 -1.38109329e-03 -3.38488899e-04 -7.09004380e-05
 -9.13293858e-04 -3.73823248e-04 -2.55868258e-03  2.07465389e-04
  6.04110573e-05 -1.42222655e-03 -7.91456492e-04  4.66824131e-05
 -4.25989201e-05 -2.04831522e-05 -2.20596907e-03  8.59469219e-05
  1.51892746e-04 -5.41427219e-03  2.39154836e-03 -1.26696681e-03
  4.89447630e-05  6.09709066e-04  3.19766550e-05 -3.94350709e-03]
[-3.85555468e-05  3.46513028e-04 -1.08696768e-05  1.85274348e-05
 -1.37798709e-03 -3.62224346e-05  2.00266436e-06  3.77217453e-04
  1.48886617e-03  2.83375906e-04  2.39836008e-05 -5.32990671e-04
  8.36400024e-04  2.26543489e-04 -3.58959922e-04  2.53801845e-04
  2.28986304e-04  6.80916673e-06  3.16209298e-06 -4.95545373e-06
  9.23850166e-07  1.11641093e-04  1.07288221e-03  2.05557793e-03
  4.84197553e-05 -6.96468996e-05  2.11042308e-04 -7.13538611e-04
 -1.92411626e-05 -7.40449559e-06 -3.41353643e-06  2.65147137e-05
  2.09110178e-04 -5.46638221e-05 -1.12897542e-05 -3.76779120e-04
  4.58857074e-04  4.96363617e-04 -5.38624954e-05  3.25310684e-04
 -3.39633494e-04 -1.96516723e-03 -6.72704919e-05 -1.04660985e-05
  3.94510425e-04 -4.77036956e-05 -8.59910389e-04  9.01298990e-05
  1.78948219e-04 -3.70788097e-04 -2.28511242e-04  3.60819213e-05
  3.50587288e-06 -1.24656697e-04  7.45145080e-04  7.41212352e-05
  2.55716695e-05  3.73484625e-04 -1.28018507e-03  9.77423741e-04
  4.69507577e-05  1.66204758e-04 -1.61427452e-05  8.75889673e-04]
[ 4.28092499e-05 -9.06510744e-04  2.69428419e-05  2.83957752e-06
  9.74168288e-05  6.03899025e-05  2.56628573e-06 -8.43987167e-02
 -2.66433150e-01 -1.00986843e-04 -4.58892282e-05  2.04004144e-04
 -7.49887228e-02  2.27155673e-04  2.75966915e-04 -1.02093145e-05
 -4.81593050e-02  4.92675608e-05 -3.00253960e-05 -2.19099984e-05
  4.41110897e-05 -8.13573788e-05 -7.62992948e-02  1.44907826e-05
 -1.16686613e-04  3.00657030e-06 -3.62144851e-06  2.30866135e-07
 -1.39460462e-05 -7.48407037e-05 -4.73012005e-05  2.82326182e-05
  7.90243066e-05 -1.01976068e-04  5.62977220e-04  8.51642981e-05
  9.12759206e-05 -9.04803053e-02  2.47078824e-05  1.24177212e-04
 -2.10307539e-04 -1.19692522e-05 -1.06561791e-04 -8.64011745e-05
  1.89667698e-02  2.89412128e-06 -6.49655558e-05  2.71153276e-05
 -8.89392395e-05  1.91629442e-04 -1.47872473e-04 -5.32581507e-05
 -4.61499731e-05  3.42364956e-06 -1.11103959e-01 -8.15600652e-05
 -2.15746513e-05 -4.75664698e-02 -4.44443338e-02 -1.38244766e-04
 -1.16726740e-04 -1.08465058e-04  1.73181434e-06  1.93645747e-03]
[-1.4870376e-05  4.4945478e-03 -1.4433943e-04 -6.2307277e-05
 -3.5383762e-03 -1.5672518e-05  6.5712717e-05  1.6860855e-03
  2.0383194e-03 -3.5262990e-04  3.6539692e-05 -5.1731715e-04
  1.4272747e-03  1.8982864e-04 -1.1556596e-03 -2.6707846e-04
 -2.7114786e-03 -6.1834580e-05  8.5104242e-05  3.6023201e-05
  3.1768501e-05  7.4180993e-05  1.5243556e-03  5.2215683e-04
  8.5530664e-06 -1.4835098e-04  4.4799843e-04 -6.4953649e-04
 -8.9072790e-05  9.0801104e-06 -1.8158669e-05  2.7666608e-04
 -6.4773136e-05  3.5183568e-04 -6.6249934e-04 -1.5712467e-03
 -2.3168542e-04  1.7796683e-03 -2.7063757e-04  1.1284422e-03
 -3.3207461e-03 -1.0679500e-03 -2.7041041e-04  2.0711645e-05
 -5.0319073e-04 -2.4424196e-04 -1.2533558e-03  1.4923367e-04
  8.6059277e-05 -9.0819021e-04 -4.5400768e-04 -2.5098785e-05
 -2.2193537e-05 -8.4137791e-05  9.3230954e-04  6.8986687e-05
  1.4774952e-04 -1.0719006e-03  3.4631500e-03 -2.0603882e-03
  8.1034659e-06  5.0504273e-04  3.5705056e-05 -2.4385587e-04]
[ 7.9138677e-05  8.6310357e-03 -3.9375405e-04 -1.6396993e-04
 -5.0411378e-03 -3.5742181e-05  9.1896633e-05  8.4239291e-04
 -2.8371287e-04 -3.1944906e-04 -1.6329964e-04 -8.1199349e-04
  3.4447061e-05  2.2380656e-04 -2.9522537e-03 -8.0527458e-04
 -2.5102359e-03 -1.5814236e-04  2.8360318e-04  1.6889050e-04
  1.8916660e-04  3.0002365e-04 -4.5759883e-04  2.1027364e-03
  4.1603689e-06 -3.1205310e-04  3.8595559e-04 -1.0793399e-03
 -2.2612733e-04 -3.5287590e-05 -6.1788051e-05  6.3662138e-04
  1.8216083e-04  9.9645567e-04 -1.8849666e-03 -3.1640073e-03
  3.9696526e-05  9.6935115e-04 -6.6724920e-04  9.3762239e-04
 -3.8900012e-03 -2.5164830e-03 -5.4790481e-04  4.0358653e-05
 -2.0829181e-03 -7.9860713e-04 -2.9410180e-03  3.6632369e-04
  2.6506628e-04 -2.5491847e-03 -9.1316528e-04 -2.1593269e-05
 -7.3277995e-05 -1.9737010e-04 -1.6963494e-04  1.5448095e-04
  3.5137861e-04 -4.1172756e-03  4.5390297e-03 -7.7103608e-04
  1.1498632e-05  9.9287496e-04  6.2117877e-05 -4.3357499e-03]
[-9.7801421e-06  5.1245247e-03 -1.8589877e-04 -7.7832767e-05
 -4.6221362e-03 -6.3972060e-05  3.6031299e-05  1.9580210e-03
 -1.2644136e-04 -1.1437063e-03 -4.6506921e-05  1.5465572e-05
  1.2298344e-03  3.2804301e-04 -2.6248829e-03 -2.9251055e-04
 -3.0166833e-03 -8.8944951e-05  1.1252493e-04  8.1308870e-05
  1.9216936e-04  2.0493745e-04  1.1794708e-03 -8.8924478e-04
  1.1759668e-05 -2.3673203e-04  7.0949394e-04 -4.1653574e-04
 -1.6114762e-04  2.8894272e-05 -8.1936625e-05  4.3473853e-04
 -5.8318337e-04  3.4363155e-04 -1.6135715e-03 -2.9728571e-03
 -1.1401613e-03  2.0762298e-03 -4.7151031e-04  1.1779614e-03
 -5.1039271e-03  2.0323385e-04 -1.7943943e-04  6.3102503e-05
 -2.9458757e-03 -3.4842099e-04  1.3782689e-04  1.8409267e-04
  1.6889022e-05 -1.9395138e-03 -1.2298836e-04 -4.4820285e-05
 -8.0063575e-05 -2.6009924e-04  9.1268047e-04  7.7695549e-05
  1.9658891e-04 -1.8595519e-03  5.9635229e-03 -3.1771290e-03
 -1.6279060e-05  4.5796097e-04  7.3048344e-05 -2.8770873e-03]
[ 5.9483072e-04  5.4368135e-03 -1.4545533e-04 -4.5008515e-04
 -4.3872860e-04 -2.8299552e-04  4.5295717e-05 -9.5363930e-02
  5.1679051e-01  9.0837607e-04 -1.1295170e-03 -2.5992270e-03
 -1.2762351e-01 -1.8107299e-03 -2.2275113e-03 -2.3673546e-04
 -9.3946725e-02 -4.2182938e-04  1.3195630e-04  9.0985413e-05
  5.2151602e-04  7.4243994e-04 -1.5920325e-01  8.4820093e-04
  5.8457634e-04 -6.7611007e-05 -6.9990446e-04 -1.2251930e-03
  4.3809752e-05 -4.5215053e-04  2.4250294e-04  3.0327248e-05
 -1.2564240e-03  5.6064926e-04 -2.2129517e-03 -1.0590859e-03
 -1.2640510e-03 -8.5665330e-02 -2.1013455e-04  4.7293043e-04
 -3.6586024e-04 -1.4239014e-03  3.1232089e-04  1.1184842e-03
  2.3289974e-01 -2.5095529e-04 -2.1602376e-03  3.2093801e-04
  1.4496541e-03 -1.2891188e-03  2.6120769e-04 -3.3988993e-04
  2.4067072e-04 -2.3741087e-04 -1.4366393e-01 -1.4541653e-04
  1.2734978e-04 -4.0408529e-02 -1.3609055e-02  2.9792220e-04
  3.0487990e-05  7.6932652e-04  2.6920950e-04 -6.8695727e-03]
[-5.4017536e-04  7.5705969e-03 -1.6205598e-04 -1.7962499e-04
 -4.7787135e-03  2.0668966e-04  8.5062260e-05 -1.1167414e-02
  1.7584223e-01 -6.2140625e-04 -9.0573961e-04 -1.6221064e-03
 -4.9120512e-02  7.1066641e-04 -2.4358965e-03  1.8804495e-03
 -1.6162927e-01 -2.2613184e-04  8.0630845e-05  3.6178797e-05
 -1.3330276e-04  1.1343954e-04 -1.0925053e-01  3.7193103e-03
 -2.5381829e-04 -1.8918134e-04 -3.0211117e-03 -3.7400651e-04
 -8.5593732e-05 -7.6016772e-04  4.2111980e-05 -7.1543051e-05
  1.9770383e-03  1.2128513e-03 -5.9183885e-04 -2.7472663e-03
  1.3657069e-03 -1.6759388e-02 -3.2602629e-04  7.2657497e-04
 -3.2353150e-03 -5.6351949e-03 -2.4957341e-04  3.4145845e-04
 -1.1754434e-01 -5.6115619e-04 -4.6130484e-03  3.3785705e-04
  1.2192527e-03 -2.1020367e-03 -5.3257460e-04 -3.0380054e-04
  4.1513867e-05 -1.5330605e-03 -1.3270201e-01 -3.3155688e-05
  1.9476443e-04 -2.4766065e-01  8.9036204e-02 -2.7943391e-04
  2.1151273e-04  9.9325681e-04  2.8251606e-04 -5.5094983e-04]
[ 2.42110895e-04 -4.37363313e-04  9.12045016e-06 -1.45203929e-04
  6.17594196e-05  1.56806098e-04  1.76326066e-05 -3.16779204e-02
 -2.47428626e-01  1.86557794e-04  2.06181910e-04 -5.80067717e-05
  3.42851592e-04  2.90522905e-04 -2.49297009e-05 -1.13396614e-03
  1.91775277e-01 -4.31540248e-05 -1.46615885e-05 -1.08760742e-05
  2.24575473e-04  1.80367279e-04  4.41462994e-02 -8.46506737e-06
 -2.07880192e-04 -4.38421830e-06  1.43180171e-03 -4.80982708e-05
 -1.92215630e-05 -1.69756313e-05 -6.71994349e-05 -1.37109208e-04
 -8.07401608e-04 -4.61968230e-05  3.16428777e-04 -9.79950710e-06
 -5.19626541e-04 -3.58836427e-02 -1.21863486e-05 -8.36884283e-06
  3.85339779e-04  3.62004677e-04  9.96668241e-05 -2.13504347e-04
  1.25381544e-01 -5.62801724e-05  1.06062391e-03  1.35229086e-04
  5.14269341e-04  1.11153582e-04  6.49713184e-05 -1.47666316e-04
 -6.65958069e-05  1.48329520e-04  6.36369437e-02  1.50758060e-05
 -4.39177711e-06  2.46757179e-01 -1.23468280e-01  4.67895647e-04
 -2.39686837e-04 -7.54851280e-05  1.40732474e-04  1.90202880e-03]
[ 2.6350461e-05  2.6878512e-03 -7.1052513e-05 -6.0503517e-05
 -3.0332620e-03 -6.9133850e-05  1.4799574e-05 -4.0683412e-04
 -1.9528053e-04  2.8163585e-04 -8.8416462e-05 -8.4315491e-04
 -1.6763591e-04  4.0758227e-04 -1.3193450e-03 -1.1745278e-04
  2.0753713e-03 -6.8660804e-05  4.1709845e-05  2.5957845e-05
  7.9269943e-05  2.4031122e-04 -5.1400624e-04  2.6842565e-03
  4.4560195e-05 -2.2943538e-04  5.3014245e-04 -1.0102962e-03
 -5.3203352e-05 -2.3140152e-05 -1.6450877e-05  1.5074697e-04
  5.8314006e-04  3.5203568e-04 -7.9124572e-04 -2.3526680e-03
  8.0208434e-04 -3.8589732e-04 -1.4473527e-04  8.1496168e-04
 -1.2214402e-03 -2.5266754e-03 -1.8115521e-04 -1.5720490e-05
 -1.3494744e-03 -1.5561323e-04 -1.7285493e-03  1.7240364e-04
  1.7787243e-04 -1.4940634e-03 -2.3016112e-04  5.2047493e-05
 -2.0289726e-05 -2.8506579e-04  2.0016232e-04  6.5330794e-05
  7.1870956e-05 -8.9353038e-05 -1.1347905e-03  1.3064488e-03
  5.0998882e-05  4.0626584e-04  2.5388129e-06 -4.9111870e-05]
[ 5.70476841e-05 -1.77323190e-03 -2.16850567e-05 -1.40964126e-04
  5.33126295e-04  8.24083254e-05 -4.58137147e-05  1.64943531e-01
 -2.22392559e-01 -1.00072438e-03 -4.17383009e-04 -7.85372395e-05
  1.05370551e-01 -1.94245495e-03  3.74543073e-04 -1.76316965e-03
  4.77628499e-01 -4.85604869e-05  7.54938228e-05  7.88031321e-05
 -2.78204621e-04 -6.49544963e-05 -7.59939104e-03 -2.96460511e-03
 -4.80141643e-05  7.67871024e-05 -2.01028306e-03  1.36717281e-03
 -1.01706219e-05  1.45588610e-05 -1.83051652e-05  7.24920901e-05
 -3.41981708e-04 -6.55581185e-04 -2.19754502e-03  1.10802427e-03
 -5.11476886e-04  1.77848265e-01  3.36454905e-05 -1.07329426e-04
 -1.75043650e-03  1.08562934e-03 -4.83474287e-06  2.26788416e-05
 -1.10188283e-01  2.02285024e-04 -2.94026744e-04 -3.71495640e-04
  1.37700932e-03  5.35175321e-04  7.86539094e-05 -1.33782334e-04
 -2.11417373e-05  6.66807173e-04  3.75406891e-01 -1.53600340e-04
 -1.25957104e-06  1.38491243e-02  1.08968206e-01 -4.40170942e-03
 -1.13384078e-04 -3.63293744e-04  6.12033764e-05 -4.31842543e-03]
[ 1.0261800e-04  2.5962917e-03 -6.7451979e-06 -1.9768559e-04
  1.5453050e-03  2.2887558e-04  3.4499544e-06  1.7804983e-01
 -8.1471130e-02  3.9462355e-04 -3.1591335e-06  1.1989756e-03
  1.7777997e-01  2.1850967e-03 -4.5754909e-04  2.1912602e-03
  3.4610042e-01 -2.4292777e-04 -2.0478203e-05 -1.5016889e-05
  2.0187441e-04  5.7399669e-04  1.2536505e-01  6.2989206e-03
 -3.6501358e-04 -3.4957793e-05 -1.0676405e-03  2.0096508e-04
  8.7065964e-06 -7.8731573e-06  6.9627407e-05 -8.6878426e-05
  5.1968195e-03  1.1200689e-03  9.0880203e-04 -2.9201375e-04
  5.1522995e-03  1.9091268e-01 -2.2247532e-06 -4.3894752e-04
