layers 12
layer 0 Dense
26 64
[-0.11032951 -0.004868    0.07230636  0.06549144  0.10348028 -0.019289
  0.00090966 -0.03929406 -0.20915374 -0.00768956 -0.0135042  -0.0176175
 -0.0163359   0.19513215 -0.10127706 -0.20964825  0.04889108 -0.16019206
 -0.10145759 -0.12326759 -0.0013757   0.07816098 -0.00764998  0.0133115
 -0.01816666 -0.02257762  0.19447446 -0.00674422  0.03519634  0.02830178
 -0.00375244  0.00800929 -0.12632166  0.04282313  0.01185566  0.03251692
 -0.01959932  0.15010285  0.19132403  0.04553905 -0.18707491  0.11582484
  0.00816886 -0.01096357 -0.01669355 -0.23424932 -0.00258879  0.02752106
  0.09717083  0.10816553 -0.16830583  0.00409743 -0.1328452   0.01450351
  0.02308057 -0.08930889  0.2548204  -0.07614482 -0.02107994  0.27858385
  0.26827273 -0.00182776  0.0072395  -0.16291906]
[ 0.11032951  0.00486798 -0.07230636 -0.06549144 -0.10348028  0.019289
 -0.00090966  0.03929406  0.20915374  0.00768956  0.0135042   0.0176175
  0.0163359  -0.19513215  0.10127706  0.20964825 -0.04889108  0.16019206
  0.10145759  0.12326759  0.0013757  -0.07816098  0.00764998 -0.0133115
  0.01816666  0.02257616 -0.19447446  0.00674422 -0.03519634 -0.02830178
  0.00375244 -0.00800929  0.12632166 -0.04282313 -0.01185566 -0.03251692
  0.01959932 -0.15010285 -0.19132403 -0.04553905  0.18707491 -0.11582484
 -0.00816886  0.01096357  0.01669355  0.23424932  0.00258879 -0.02752106
 -0.09717083 -0.10816553  0.16830583 -0.00409743  0.1328452  -0.01450351
 -0.02308057  0.08930889 -0.2548204   0.07614482  0.02107994 -0.27858385
 -0.26827273  0.00182776 -0.0072395   0.16291906]
[ 8.9726470e-02 -5.8230434e-02 -9.8980844e-02 -1.9863953e-01
  1.9739268e-02 -8.4695220e-02  1.2210135e-02  6.0495515e-03
 -3.7540507e-01 -1.8037273e-02 -3.9676283e-02 -9.4018772e-02
 -4.7752269e-02 -1.3919429e-01  7.5460926e-02  1.5333606e-01
  7.1532898e-02 -3.3279255e-02  8.8962182e-02  2.2476734e-01
 -4.4642318e-02  3.9427140e-01  4.3346386e-02  3.5856921e-02
 -3.2986660e-02  6.3484237e-02 -5.0040042e-01 -2.1540189e-01
 -9.4528164e-04  1.2685518e-02  1.3854968e-02  2.8283864e-01
  1.3531913e-01  2.2730674e-01 -1.4552234e-01  6.2144175e-02
 -2.5587815e-01  4.2700580e-01  1.0902462e-01 -3.1195647e-01
 -5.9632562e-02  2.5878375e-02  1.4910330e-01 -2.4656023e-01
 -1.4537674e-01  1.2736866e-01  3.0843231e-01 -3.2746288e-01
  6.6408791e-02 -6.0783856e-02 -4.1225426e-02  1.1233869e-01
  2.4535124e-01  3.0430388e-01  2.1285470e-01  3.8263848e-01
 -4.2697945e-01  3.8760424e-01  2.4887428e-01  3.1183824e-01
 -2.4344493e-02  3.9023865e-02  4.7162417e-02 -1.0453873e+00]
[-5.4770645e-02  1.3223933e-02  4.5679007e-03  1.7527209e-03
 -5.0545414e-04  1.2781630e-01  3.3649674e-04  3.1471187e-03
  1.9377982e-04  2.7276785e-03  3.8398763e-03  2.1184988e-03
  1.4329748e-02 -1.0637003e-03 -8.1876863e-04 -2.8819826e-03
 -1.0354557e-01 -6.6163065e-03  7.1724510e-04  9.6495508e-04
 -2.3335984e-03 -2.1516196e-03  5.6327670e-04  1.1727105e-04
  5.2944660e-02 -8.0493191e-05  4.6598888e-03  3.3519862e-03
 -8.4396144e-03  1.2988755e-03 -7.2639245e-03  1.3459767e-01
 -2.8432093e-03  1.3952543e-02  1.6088212e-03 -5.3375959e-02
 -2.4350975e-02 -2.7652549e-02 -8.0780815e-03  3.0311770e-05
 -2.9733367e-03  9.6520089e-04 -4.8562795e-02 -1.1768633e-01
 -7.9926595e-02  1.7378188e-03 -8.5238635e-04 -8.5948203e-03
 -3.3643555e-03 -2.3947398e-03 -6.2799132e-03 -1.0923485e-01
  1.7230739e-03  1.8544060e-01 -5.3449932e-02  9.2365462e-03
 -1.7643968e-02 -9.9299503e-03 -3.6887818e-03 -7.9031370e-04
 -2.5890283e-03 -6.2816958e-03 -8.1742933e-04  6.7978783e-04]
[-0.2051248  -0.04591056  0.05474845 -0.14386413 -0.00062608  0.13761368
  0.01487733  0.24049075  0.03934147 -0.03979595 -0.12671538 -0.02400243
  0.02363998  0.03052266  0.12299205 -0.04117666 -0.05926195 -0.03996139
  0.06342193  0.14382455 -0.06175553 -0.06002479  0.07904058 -0.14246975
 -0.08307136 -0.074205    0.06437018 -0.02169796  0.11546642 -0.02619376
  0.01455254  0.10950355 -0.0101724  -0.05376377 -0.02757666  0.00445977
  0.00624101  0.07884286  0.06771792  0.05872067  0.0381272   0.02816382
 -0.05874623 -0.0157285   0.09598765  0.07312154  0.05495081 -0.10898763
  0.11504787 -0.14529443  0.13614078 -0.01873777 -0.14444035 -0.00694113
 -0.10843657 -0.01873921 -0.03661137 -0.14718302 -0.19532165  0.15657552
 -0.14161457  0.06374168 -0.09772056 -0.09017423]
[ 1.2035498e-01 -1.1919328e-01 -3.6013134e-02 -1.5031098e-01
  7.8658372e-02  3.5837211e-02  2.8011117e-02 -2.1482480e-01
 -3.9163511e-02  5.6786962e-02 -1.8273550e-01  1.4871332e-01
  3.0711575e-03 -9.8847941e-02 -1.5817374e-02 -2.8695911e-02
 -1.1401280e-06 -6.0995221e-02  5.5544015e-02 -1.2492804e-01
  6.1131183e-02 -2.4902532e-02 -3.8535741e-01  1.1456117e-01
  4.3941993e-02 -4.0931460e-02 -2.9395582e-02 -5.5471867e-02
 -2.5808645e-02 -5.8175843e-02  7.7241533e-03  3.3715554e-02
 -5.2823894e-02  6.7270331e-02 -2.2007249e-01  1.2520621e-02
 -6.8137482e-02 -4.1921204e-04 -2.4123695e-01 -3.5486374e-02
  5.7813518e-02 -1.2213234e-01  1.0376486e-01 -2.0569237e-02
 -2.5573390e-02  2.6281825e-03  2.2598950e-02  1.5334864e-02
 -6.6999830e-02  1.2243075e-01  2.0247974e-01 -2.2663195e-02
  6.5244583e-04 -1.1255757e-03 -2.0028817e-02 -1.1933630e-02
 -3.9046984e-02 -4.7689945e-02  1.5301821e-01  1.5785357e-01
  1.0378350e-02 -6.1331693e-02 -9.0395167e-02 -3.1040300e-02]
[ 0.09649269 -0.02726336  0.07120027 -0.18829091 -0.05354035 -0.04402133
 -0.02755269 -0.03655534  0.01191212  0.06837992 -0.11834917 -0.02425209
 -0.00838975 -0.00644429 -0.14642921  0.00121403 -0.11082661  0.0388478
 -0.03748619 -0.00159206  0.00888119 -0.12377632 -0.1974242  -0.01281469
 -0.08206595  0.03533672  0.06460231 -0.10335499  0.04076506  0.09290195
  0.00407831  0.080079    0.02733774 -0.04840184  0.19391826  0.03326361
  0.07492448  0.00921569 -0.05473825 -0.02966627 -0.01626824  0.03406417
 -0.05374336 -0.02359644 -0.00649308 -0.04512976 -0.00081309 -0.06154424
 -0.0116361   0.03542635  0.06305014 -0.03752252  0.02140939  0.01357531
 -0.0588561   0.19171698 -0.04748888 -0.09755105 -0.0320588   0.04775138
 -0.03971156  0.0967906  -0.09846342 -0.01896296]
[ 2.55959719e-01 -1.95157230e-01 -4.38412763e-02 -8.33971649e-02
  5.68274260e-02 -1.02253906e-01 -2.80689653e-02  1.38094857e-01
 -2.42468379e-02 -4.32368815e-02 -1.52726039e-01  1.15626929e-02
  4.41966951e-02 -4.94226988e-04  3.75801437e-02  2.68002357e-02
  1.49074450e-01  7.01534972e-02  1.87811509e-01  5.55177145e-02
  3.31614129e-02 -1.20509446e-01 -4.03613085e-03  6.86377883e-02
  8.96390006e-02  8.21446925e-02 -8.52559432e-02  5.71911149e-02
 -4.96609658e-01  1.06612928e-02 -5.74342324e-04 -1.35992825e-01
  1.11393696e-02  6.51230291e-02  2.17380315e-01  1.05134249e-02
 -1.86600890e-02 -3.00179678e-03  4.33368422e-02  2.10458669e-03
  2.15570275e-02 -9.93589871e-03  9.73010510e-02  4.98610660e-02
 -7.51621276e-02  3.08264687e-04  2.01730151e-03 -2.36559629e-01
 -1.02790937e-01  3.96685190e-02 -8.66735429e-02  1.70662103e-03
  1.36027653e-02 -4.45284620e-02  1.34795055e-01  7.45117143e-02
  1.18092202e-01 -4.73601371e-02 -1.03921957e-01  3.54878753e-02
  1.03890181e-01 -1.96853697e-01 -6.38661832e-02  8.61245096e-02]
[ 4.9998653e-33  1.2269634e-33  4.8848123e-33  5.6405207e-33
  1.4271427e-33 -2.6974245e-33  1.8158570e-33  3.4475912e-33
 -5.1884326e-33  5.2956623e-33 -3.1009449e-34 -3.6569545e-33
  5.5617604e-33 -9.8016934e-34 -5.0922334e-33 -5.0753192e-33
  3.0040346e-33 -2.8735503e-33  4.6941912e-33 -5.6845540e-33
 -5.4253737e-33  5.5145606e-33 -1.7243272e-34  2.4285666e-33
  3.2479456e-33  3.6046564e-33 -1.3953228e-34  4.0902876e-33
  5.1874911e-33 -3.8119041e-33 -2.6630556e-33 -3.3757810e-33
 -3.3097109e-33 -3.9457069e-33 -5.4130413e-33 -9.3242636e-34
 -5.6459644e-33  6.3108545e-34 -5.6481497e-33  2.0441935e-33
 -1.9506201e-33  4.6833862e-33 -2.9336886e-33 -4.7791897e-33
 -8.1925105e-34  4.4913611e-33  7.1857235e-34 -3.5385370e-33
  2.1216791e-33  2.1583825e-33 -1.3327424e-34 -3.0094966e-33
 -4.0398255e-33 -1.6872552e-33 -1.9966205e-33 -2.3949625e-33
  5.4776802e-33  2.6526367e-33  4.7707739e-33 -3.4245677e-34
  1.4695637e-33 -3.3817679e-33 -1.0991588e-33  7.5227575e-34]
[ 2.7226808e-33  3.7540404e-34 -2.4275769e-33  2.8272491e-33
 -3.1690990e-33  2.4187817e-33  2.9789686e-33 -4.9158233e-33
 -4.1996358e-33  2.0811005e-33  1.2175179e-33 -4.3795342e-33
  3.0697469e-33  1.5140250e-33  2.0330421e-33  5.7758620e-33
  5.2307451e-34  7.8208165e-35  4.3082904e-33  4.3313558e-33
  1.1897909e-33  2.9549728e-33 -4.7971631e-33 -2.6220562e-33
 -3.6926157e-33 -3.8093503e-33 -3.2546467e-33  3.2471738e-33
 -4.5176099e-33 -4.9336251e-33 -3.8961995e-33  5.2216928e-35
  4.2409254e-33  4.8188046e-33  3.6660458e-33 -8.0709369e-34
  3.0420060e-33  2.7680379e-33  7.9986550e-34 -2.9504614e-33
 -2.3237496e-33 -3.7762932e-33  1.7115806e-33  3.3986223e-33
  2.4223317e-33 -1.1270206e-33 -1.0534457e-33  2.0408492e-33
 -1.0134899e-33 -1.4216816e-33 -3.1917460e-33  5.8655405e-33
 -4.9400260e-33  5.0615729e-33  1.6368583e-33 -1.7086001e-33
  5.6779595e-33  2.7368917e-33  1.5570422e-33 -2.8209174e-33
  2.8384085e-33 -2.3792481e-33 -4.4853926e-35  4.6362798e-33]
[ 2.8370040e-33 -2.8147242e-33  1.7242140e-33 -2.0048589e-33
 -1.0398643e-34 -2.8384074e-33 -3.9822318e-33 -4.9209287e-33
 -5.7985851e-33 -5.5444351e-33 -2.8098701e-33  5.4537979e-34
 -2.7476920e-33 -3.4326904e-33  4.4385432e-33 -2.2503829e-33
 -3.8810852e-33 -1.9075722e-33 -3.0975128e-33  2.6547539e-34
 -5.1560756e-33  3.1234479e-33 -4.9728288e-34  3.5528828e-33
  1.1333411e-33  3.2951138e-33 -3.2116651e-33  9.4935275e-34
  2.1525594e-33 -8.3595869e-34  4.5504121e-34 -5.6052655e-33
  1.6713098e-33 -5.7857894e-33  1.0742397e-33  5.1576152e-33
 -3.6169197e-33 -5.3734793e-33 -2.3152537e-34  2.4879779e-34
  3.9078810e-33 -2.3120776e-33  1.2242641e-33 -2.6518605e-33
  3.0110780e-33 -5.2396368e-33 -8.9678464e-35 -1.0817637e-33
 -5.1122587e-33 -5.6422520e-33 -7.7190627e-35  3.0118285e-33
  3.9127836e-33 -4.4038386e-33  3.5717778e-33 -2.6918459e-33
  1.1523007e-33  3.6952414e-33 -3.0900246e-33  4.4485665e-33
  8.9431702e-34  3.5726748e-33  3.1016392e-34 -5.0173214e-33]
[-0.21614663 -0.01661492 -0.01120748  0.01275297  0.12856464  0.01953382
 -0.01067382  0.02500944 -0.01733782  0.00274238 -0.02756399 -0.14543667
  0.07707813 -0.03298225 -0.0309043   0.01208021 -0.04069078  0.02454789
  0.05809506 -0.10669809  0.05639658  0.08099025  0.0049232  -0.0153115
 -0.11303408 -0.01182931  0.05453219  0.02376243 -0.05538747  0.00318964
  0.08303379 -0.08261609  0.02123478 -0.08485715  0.0506217   0.14710039
 -0.05493164 -0.22731106 -0.03513089 -0.02552938  0.21682814 -0.00226674
  0.01251081  0.07464562 -0.03761072  0.07407253 -0.05422496  0.09601182
  0.04440736  0.08346477  0.02305922  0.05330606  0.11673768  0.20513006
 -0.06202339  0.05817323  0.00118335 -0.00127682  0.05467422  0.07912388
  0.10511301 -0.06146158 -0.02877289 -0.03296519]
[ 0.26084888  0.13594772  0.61982805 -0.23900849  0.13473041  0.05885214
 -0.19608821 -0.01414    -0.38881978 -0.12322637 -0.00845566  0.1598506
 -0.0055046  -0.11005583  0.46448842 -0.42448828  0.16262299  0.24711645
  0.00884057 -0.02089426  0.03720791 -0.16337131 -0.35471746  0.27951172
 -0.07233902  0.00715262  0.274789    0.22923681  0.52059406  0.09981665
 -0.2343048   0.12611426  0.3091754  -0.3545488  -0.13139603 -0.01438828
  0.09561055 -0.02610116 -0.10353293  0.5299506   0.16988786 -0.06105169
 -0.04461974  0.12576605 -0.01306428 -0.17706008  0.10354572  0.20067187
  0.16120118  0.24599136 -0.06623811  0.07829857  0.14138941  0.05636149
 -0.09397402 -0.14304923 -0.16800666  0.01689385 -0.23667303  0.2883177
 -0.808141   -0.22255479  0.10802996  0.03378658]
[-0.16365322 -0.2089651   0.21114351 -0.11497427  0.09969226  0.01748722
 -0.02350855 -0.05370275 -0.17858571  0.4829509  -0.09065628  0.13011193
 -0.48981395 -0.07112637  0.01777741 -0.17848723 -0.31681564  0.42897794
  0.4202476   0.29908073 -0.22066757  0.06636251 -0.8145998   0.25254518
 -0.41894567 -0.02020881  0.2885693   0.23510136  0.24877314 -0.03441446
 -0.60632     0.53181905 -0.01606416  0.22460382 -0.04210984  0.21898915
  0.37816077  0.01989387 -0.11679833 -0.04726344  0.31960934 -0.22866169
  0.04613451 -0.3493695  -0.49004263 -0.20805839  0.01910548 -0.10976821
 -0.11711787  0.27694055  0.07740983 -0.09731974  0.04534054  0.31042382
  0.03154484 -0.3262191   0.17660053 -0.04979355 -0.01777855  0.08737004
 -0.2012875   0.12329245 -0.112791   -0.02299089]
[ 0.04791526  0.4873844   0.18338336 -0.11724386  0.00863427 -0.68442
  0.17360964  0.12129283  0.21648571 -0.09969433 -0.01007217  0.2947129
  0.05964623 -0.17069763  0.00809364  0.11003581  0.18036042 -0.0674393
  0.08531448 -0.06661863  0.01203174 -0.15260132  0.03441928  0.02333456
 -0.01440983 -0.09122548 -0.06091532  0.01092743  0.03702987  0.29842687
 -0.04249725 -0.2412188   0.05774873 -0.02938865 -0.10700628  0.20107113
  0.10509511 -0.0190104  -0.04631129 -0.22301735 -0.10727663  0.02025103
 -0.09109011  0.40527406  0.17176713  0.00871932  0.07677832 -0.29526985
  0.06902003  0.03708556 -0.03478398  0.3260484   0.06320579 -0.20795524
 -0.3305049  -0.05429672  0.04961088 -0.12793563 -0.22272636 -0.01940854
 -0.04401025 -0.11050699 -0.01612758  0.0872384 ]
[ 0.08961511  0.01331024 -0.10008702 -0.03604785 -0.39025846 -0.02300927
 -0.00742334  0.2702944   0.23110616  0.00230502 -0.0788558  -0.07027922
  0.07299086  0.01191776 -0.10640223  0.06253836 -0.14570944  0.03581346
 -0.06392912  0.04976738 -0.08682823  0.06100944  0.08670191  0.06453119
  0.02499919 -0.05234188  0.01962071 -0.4814567  -0.03500362 -0.07401092
  0.11784884 -0.00154415 -0.01008362  0.00411471 -0.36549303 -0.00373147
  0.06506073 -0.07415053  0.1555648  -0.05122446 -0.0791406   0.02979927
  0.0247004   0.05471713  0.06965823  0.15680571 -0.17671116 -0.05422063
  0.11082299 -0.46196774 -0.24850658  0.01275075  0.09143446  0.00383038
  0.00412881 -0.06486     0.07132734 -0.00870694  0.0977996   0.2885607
  0.19256501  0.02613756  0.1245615   0.07563036]
[-0.02820783  0.00444943 -0.00794544 -0.02086185 -0.15604584  0.03181154
 -0.00603576 -0.04753255 -0.16430946 -0.05199128 -0.00393518 -0.02090658
 -0.03273844  0.0060419  -0.14813624  0.10001279 -0.13224185 -0.05552002
 -0.1453645  -0.07138221 -0.5914796   0.15872005 -0.00925388 -0.36297867
 -0.07818685  0.04341946 -0.13151754 -0.0944685  -0.07017133  0.17242391
 -0.08820204 -0.01496676  0.18019441 -0.15417616  0.12899555 -0.00565247
 -0.15303649  0.02376298  0.01149355 -0.04087587 -0.14112942 -0.24926952
 -0.10085212 -0.03228028 -0.06893781  0.28965577 -0.08094338 -0.06303044
  0.01238586 -0.17959422  0.01314503  0.02126353  0.10199606 -0.05209026
 -0.03610406 -0.06491494 -0.01685933  0.10493948  0.1946552   0.04208206
  0.12021882  0.05233877 -0.10866566  0.04945596]
[-2.20483840e-02 -2.54916400e-02 -2.16051899e-02 -3.75894383e-02
 -2.23254450e-02 -1.25350328e-02  1.49974059e-02 -3.33038755e-02
 -1.97704718e-03  6.73131202e-04  4.83230278e-02 -6.08320422e-02
 -1.12447403e-02  7.12836860e-04  4.44719195e-02 -8.18298478e-03
  1.28525617e-02  1.65699734e-04 -2.62466744e-02  2.30492768e-03
 -8.84343218e-03 -2.60488447e-02  4.91120014e-03 -2.16739699e-02
  1.35010760e-02  1.06412023e-02 -2.87572425e-02 -1.39227500e-02
 -2.92525254e-03 -1.56796705e-02 -1.95940435e-02  5.99113153e-03
  1.86166074e-02 -3.29518877e-02  1.16205914e-02 -3.97637747e-02
  5.53645603e-02 -1.94959494e-03 -2.38013407e-03 -2.26323158e-02
 -7.85639733e-02  5.41100167e-02  4.06669155e-02 -2.75008250e-02
 -1.98657829e-02  4.26317751e-03  2.55858502e-03 -1.00135710e-02
  6.09648786e-02 -1.88777372e-02  3.57737951e-03  8.74730945e-03
  1.04022240e-02 -7.36382008e-02 -3.35875824e-02 -2.77914293e-02
 -6.10205438e-03  3.44263352e-02 -9.43782367e-03 -8.00075196e-03
 -1.02800587e-02  2.14141384e-01  4.18618694e-02 -1.09031855e-04]
[-0.1994194   0.04613373  0.00047385 -0.04572296  0.06821302  0.24494681
  0.03078328  0.06796608 -0.06170933 -0.06094415  0.02224738 -0.00867268
  0.08368932 -0.05368054  0.04625078  0.0252226  -0.19243754 -0.00904887
  0.00431771  0.09939481  0.13731028  0.05403931 -0.03514818 -0.06465266
 -0.11400803  0.01473907  0.09063093 -0.0223402  -0.21690759 -0.036958
  0.14368923 -0.01357209 -0.05212066  0.17665519  0.03843315  0.07350405
  0.01580856  0.09980088  0.03192903 -0.05157005  0.00670843 -0.00241586
  0.14881866  0.16656888  0.09357847  0.02152704 -0.07294917  0.15519308
  0.01271585  0.11909775 -0.03422565 -0.01688507  0.02434661  0.07309635
 -0.21479739  0.20171049 -0.12110523  0.18637167  0.16187038  0.08734367
 -0.12858267 -0.14153442  0.0149484  -0.15409096]
[ 0.17815487 -0.0423165  -0.10374937 -0.26177266  0.26834574  0.03939432
  0.15510273 -0.0246463  -0.23867567  0.02883929  0.36206642  0.09307606
 -0.01846487  0.43135017 -0.31493136 -0.7698966  -0.11896798  0.10914098
  0.07402083  0.17303605 -0.09946603  0.3154731   0.1053929  -0.18897286
  0.06171793 -0.00144669  0.05988785  0.0422027  -0.47545055 -0.24370149
  0.19579212  0.01256707  0.07709838  0.08375321  0.37111688  0.03106635
 -0.11178192  0.25067768  0.12375624  0.1904391   0.26371104 -0.06060418
  0.21096194 -0.11631311 -0.1336232  -0.01266435 -0.09581598  0.03379543
 -0.6722895  -0.06572416  0.042151    0.17106985  0.02674313  0.06008529
 -0.12230711  0.10085743 -0.08766999  0.00240119  0.23570968  0.0297249
  0.2704185  -0.09121135  0.01991835  0.2953476 ]
[ 0.05379725  0.00287408 -0.07369306 -0.15714696 -0.01264616 -0.02425944
  0.7858839   0.04513878  0.24942923 -0.6042295   0.02761874  0.1393499
 -0.48336312  0.4797885   0.36626747  0.34910598  0.03733607 -0.1571057
 -0.3116416  -0.04587765  0.10303518 -0.02136909 -0.44707978  0.37054884
  0.11683666  0.9356771  -0.29393128  0.08748145 -0.31513593  0.2255867
 -0.4789827   0.3541823   0.38613573  0.04513243  0.02510254 -0.02745965
  0.31975788 -0.18833333  0.15563518 -0.00151218 -0.3233039   0.28722343
  0.12063826 -0.1393388  -0.07707305 -0.01690711 -0.31412154 -0.27663672
  0.17351265  0.0262064  -0.30078426 -0.02994513 -0.13826625  0.2774582
 -0.34773788 -0.15039866  0.00510327 -0.1046763  -0.15486467 -0.02488305
  0.18250996  0.03667548  0.30562     0.12755568]
[ 0.0963871  -0.67308694  0.0268152  -0.03525303 -0.07428434 -0.2887588
 -0.16547985  0.05132055  0.13289313  0.24402237 -0.03722523  0.4406191
  0.172477    0.2600247   0.25730166  0.1568628   0.35186532  0.18996446
 -0.14832902  0.28195617 -0.14604321  0.02337853  0.02737496  0.05476858
  0.09371994  0.25643203 -0.04240553 -0.0294013  -0.15546632 -0.03718891
 -0.01952582 -0.08430547  0.15780766  0.2535985   0.00316314 -0.327871
  0.42688563  0.00417688 -0.06196427  0.05528472 -0.08566515  0.15991491
 -0.2020658  -0.3632766   0.25868535  0.09339208  0.14725944 -0.05844818
  0.2527851  -0.02662686  0.07924268  0.16873841 -0.28032568 -0.07061993
 -0.0467275  -0.21953626 -0.03785748  0.10495644 -0.05889107  0.0153645
  0.0295764   0.16803595 -0.01158786 -0.10649431]
[ 0.05188302 -0.03963806  0.06426614 -0.18407995  0.07007997 -0.04817159
 -0.03065684  0.16588469 -0.15814139 -0.02629257  0.34739158 -0.20739393
 -0.11214713  0.01802818  0.29160854 -0.34632817  0.012655   -0.04360971
 -0.02727492 -0.17253397  0.19863479  0.3444239  -0.0369247   0.01678452
  0.03578643 -0.02848407 -0.06334166  0.06808441 -0.10382642 -0.11725249
  0.00771882  0.02003188  0.03257073  0.02605672 -0.20519258 -0.08158785
 -0.01735824 -0.0160681  -0.20014855  0.00665303 -0.10233799  0.09382354
  0.12150248 -0.04573702 -0.02295031 -0.08118752  0.03258464 -0.02329538
  0.174112   -0.36016196 -0.0363625  -0.01681571 -0.08651642  0.02077195
  0.06415448  0.08104838  0.02846006  0.11002935 -0.2052679  -0.12079771
 -0.00907383 -0.09340242  0.24967201  0.11663751]
[-4.10363562e-02  3.99101004e-02  1.33924752e-01  1.17369607e-01
  1.66189864e-01  2.45166048e-02 -2.39040956e-01  2.31632426e-01
  2.34186903e-01  2.12740958e-01  1.12289593e-01  1.12131551e-01
  4.08158675e-02 -8.70640278e-02 -1.56382129e-01 -1.16203427e-01
 -7.82235712e-02 -1.07227936e-02 -8.25602561e-02 -7.86027163e-02
 -6.29494190e-01 -1.97174147e-01 -2.70868570e-01 -4.39908445e-01
  2.09700033e-01 -3.47983658e-01 -1.45503521e-01 -2.09885761e-01
  9.32522789e-02  2.28956744e-01  2.46700067e-02 -3.72673012e-02
 -3.53495210e-01 -9.81096849e-02  4.11515124e-02  1.00216744e-02
 -2.40512323e-02 -2.23389827e-02 -1.50063857e-01  4.53665443e-02
 -2.01607635e-03  2.08845481e-01 -2.58288026e-01  6.63865805e-02
 -7.95016240e-05 -2.00951010e-01  5.33897102e-01 -1.69956043e-01
 -8.50826651e-02 -2.05589101e-01  2.35414445e-01  1.00493282e-01
 -1.26563877e-01 -1.04592163e-02  1.66670587e-02  1.78743884e-01
 -1.42807499e-01  6.71458021e-02 -1.81078002e-01 -4.32858989e-02
 -1.18440375e-01 -2.10375085e-01 -1.11171447e-01 -1.67199612e-01]
[-0.0878813   0.00179331  0.00745139 -0.03561202 -0.04583985 -0.00725505
  0.00446053 -0.03899772  0.01179159 -0.00172967  0.02060051 -0.09019075
 -0.02290033 -0.00369922  0.04083982 -0.0036545   0.03768849  0.00043013
 -0.03248068 -0.04364543 -0.00110615 -0.02475881 -0.00709946 -0.01890244
 -0.00164127  0.01532211 -0.01865876  0.0143021   0.01771855 -0.01769576
 -0.01009911 -0.00597319  0.00536352  0.08277719 -0.00569348 -0.00769015
 -0.00415911  0.00458157 -0.02891229 -0.02061055 -0.06595352  0.05697621
 -0.03600234  0.01013575 -0.05072718  0.02069049  0.01618626  0.0168616
  0.07703349  0.01108007 -0.00051808  0.0081324   0.1016598  -0.05976604
 -0.05845432 -0.01424255  0.08327266 -0.0020353  -0.00216238 -0.0286418
 -0.04315254  0.07432967  0.05724078 -0.00564663]
[-0.05775571  0.00764907  0.00020181 -0.01212051  0.02557233  0.06387179
  0.01016031  0.02770882 -0.01710494 -0.01375614  0.01077155 -0.01448309
  0.02005214 -0.01291655  0.01964063  0.01206656 -0.04589584 -0.00254474
  0.00643674  0.01893384  0.02651788  0.01735243 -0.01039479 -0.01630655
 -0.02895068  0.02965162  0.01138168 -0.00042135 -0.0458675  -0.00189679
  0.03535703 -0.00564828 -0.00953717  0.02901926  0.01183656  0.02689536
 -0.00255913  0.00698797  0.00040645 -0.01123205  0.01828622 -0.00269367
  0.03114665  0.04428924  0.01561878  0.00328837 -0.01359585  0.03732034
  0.00057496  0.02443211  0.00083407  0.00612598  0.01151171  0.02716639
 -0.04510121  0.05457836 -0.01345078  0.03631278  0.04130648  0.02918435
 -0.00610043 -0.03117427  0.00282212 -0.03908422]
[-0.3763666   0.10768458  0.24303615  0.19144927  0.43080044  1.3854042
  0.3158376  -0.08787858  0.15846984 -0.10407154  0.22125597  0.44405347
 -0.12104727  0.35834008  0.3984555  -0.48132887  0.71698517  0.14094172
 -0.22786169  0.01015187 -0.8877687   0.2923289  -1.745259    0.22828583
 -0.23213859  0.45602116  0.17127593 -0.05497262  0.2540451   0.23971365
 -0.89798564 -0.5301959   0.3012371   0.29814187 -0.11355464 -0.4408484
  0.13812642  0.34533635 -0.16233584  0.24241048 -0.1076577  -0.08993707
 -0.03491089  0.7743473   0.38008448 -0.1491848   0.06857204  0.21987075
  0.15428878 -0.1038847   0.2582455  -0.28697947 -0.07264522 -1.4000189
  0.46299475 -0.22088212  0.07093572  0.16921519 -0.284463    0.19603829
  0.48927718 -0.25342047  0.10802715 -0.01112275]
layer 1 Activation
relu
layer 2 Dense
64 64
[ 4.7802079e-01 -5.6169440e-05  6.8650744e-03 -7.2366777e-03
 -5.5274222e-04  2.0340227e-02 -1.5823857e-03  7.9762167e-04
  2.2923094e-03 -6.8581017e-04  1.0064359e-05  5.1113036e-03
 -5.7659270e-03 -1.2863483e-04 -2.1671110e-03  3.9189844e-03
 -1.2995745e-01  8.4645636e-03 -6.7397086e-05 -1.1287826e-01
 -5.9033209e-04 -9.5649646e-04 -1.7917861e-04  1.7732062e-04
  2.8473297e-03  2.1903575e-04  1.3527838e-03  1.0170705e-03
  1.7483599e-01  8.2048476e-03 -7.0284531e-02 -1.8206036e-03
 -2.7969208e-02 -2.4054905e-02  2.0378908e-02 -7.3972231e-05
  1.0615343e-03 -5.2692373e-03  3.4005577e-03 -8.8239551e-02
  1.4598851e-01 -7.5598458e-05 -4.2230911e-03 -1.5738820e-04
  9.4842762e-03 -2.3338513e-03  8.1116956e-04  8.4207937e-02
 -7.4471114e-03 -4.4035463e-04  1.4872572e-01 -1.3982721e-04
 -9.4983447e-03 -9.7215317e-02 -4.4418242e-02 -9.2682691e-04
  8.2580780e-04 -6.7705095e-02 -1.4963733e-03 -1.7131482e-03
  2.9173864e-03  7.6548127e-04 -1.8783752e-03 -7.0462753e-03]
[-8.22848827e-02 -4.63972130e-04  1.31143373e-04 -1.91131353e-01
 -4.00768942e-04 -5.29978983e-02 -2.16300512e-04 -6.78665820e-05
  4.08935332e-04 -1.86250181e-05  2.76955339e-04 -1.08977698e-03
  1.38076802e-03 -3.44846558e-05 -4.53986489e-04  1.26816006e-03
 -8.27602968e-02  1.77746871e-03  5.75800477e-05  9.87013951e-02
  1.21596362e-03  1.40302454e-03 -2.35881918e-04  3.73108232e-05
  7.25923281e-04 -5.25517447e-04 -3.57453828e-04 -5.21011461e-05
  1.26944989e-01  1.41055265e-03  4.24840068e-03  2.59814799e-01
 -1.72028899e-01  1.02065444e-01 -1.17986396e-01  3.29358882e-04
  6.56773860e-04  1.09809905e-03 -1.79548442e-04 -6.28535673e-02
 -8.18076134e-02 -4.60495685e-05  8.33108730e-04 -4.41650991e-05
  8.18017172e-04  1.84563850e-03  2.09331870e-01 -2.18432397e-01
 -2.75663869e-03 -1.44745485e-04  7.29808062e-02  2.27060533e-04
 -6.02578931e-02 -3.21135879e-01 -3.22197914e-01 -6.26425084e-04
  1.11539877e-04 -1.50670141e-01  1.68636718e-04 -4.46525402e-04
 -3.61972954e-04 -2.08904152e-04  4.65298916e-04 -2.41976348e-03]
[-1.48487613e-02 -2.43395451e-03 -1.01454568e-03  2.72055669e-03
 -2.67041754e-03 -1.96517169e-01 -1.07819156e-03  3.89677662e-05
 -3.72087117e-04  2.39090831e-03  4.80104936e-04  1.97632983e-03
 -3.80949234e-03 -6.31110597e-05 -1.13027781e-04  1.28157600e-03
  2.67765969e-01 -1.24510855e-03  6.25184039e-05 -3.63867223e-01
  4.74805216e-04  7.00507488e-04  3.76539509e-04  7.05746497e-05
  2.13912129e-03  5.33628772e-05  1.69148808e-03  1.06928882e-03
 -6.18114993e-02 -3.92677292e-04 -1.99035123e-01 -1.81676652e-02
 -4.11449745e-03  9.27345678e-02  1.54682413e-01  5.57132997e-04
  1.70176820e-04 -4.35348414e-03 -1.72692956e-03  1.13549143e-01
 -2.79695570e-01 -6.27597910e-05 -3.48631013e-03 -5.88112998e-05
 -1.76245812e-03 -4.91259573e-03 -6.35954291e-02  5.61764538e-02
 -1.11370966e-04 -2.01714574e-03  1.30034477e-01  1.34291081e-03
  6.50934279e-02 -2.03485936e-02  1.12004995e-01 -1.21633906e-03
 -7.83609576e-04 -1.48218079e-02  1.07144134e-03 -2.94482743e-04
 -1.12703734e-03  5.06306300e-04 -1.61916052e-03 -3.03372275e-04]
[ 9.84037016e-03 -1.62860437e-03  2.10061250e-03 -1.03259355e-01
 -2.48624058e-03  2.01115340e-01 -4.77930950e-03 -3.42067913e-03
  9.94855727e-05  4.15991992e-03 -8.15412146e-04  4.15285816e-03
 -6.11165958e-03 -2.10945527e-05 -1.39881857e-03  1.19368406e-03
  1.51544377e-01  2.58994661e-03  3.79074081e-05 -1.47641525e-01
 -7.71898602e-04 -8.39148561e-06  6.10391377e-04 -2.06350887e-05
  3.25954799e-03  1.86705252e-03  4.82223695e-04  4.50065796e-04
  1.54748455e-01  2.69798120e-03  7.74116069e-02  5.32665104e-02
  7.85683095e-02  1.97538897e-01 -1.24938548e-01  4.11815150e-03
  3.53490264e-04 -5.87451225e-03 -3.93376034e-03  1.99414596e-01
  1.79467380e-01 -2.36261021e-05 -4.65755444e-03 -3.46663692e-05
  2.26648850e-03 -4.13885899e-03 -1.15594482e-02  1.08219497e-01
 -2.80753686e-03  2.06854875e-05 -3.74519043e-02  4.80175950e-03
 -1.05859883e-01  8.88589323e-02 -2.46607259e-01 -3.50136939e-03
 -8.65366135e-04  1.26008525e-01  1.30904978e-03 -2.07746006e-03
 -2.30111228e-03  1.60743983e-03  1.75759685e-03 -2.95050512e-03]
[-6.57719821e-02 -2.85670022e-03 -2.43052817e-03  1.48508102e-01
 -3.25380685e-03  1.78495705e-01 -2.56051717e-04 -4.58433933e-04
 -5.36418753e-04  2.57488643e-03 -3.03557329e-03 -6.05714507e-04
  8.98150436e-04 -2.66162224e-05  5.93983859e-05  4.01687692e-04
 -3.11454773e-01 -4.56804503e-03  1.22163634e-04 -7.74615165e-03
 -4.18091705e-03 -3.18941730e-03 -4.62251424e-04  4.12635854e-05
  7.35215552e-04 -5.45058283e-04 -3.33987665e-03  8.28915567e-04
 -1.07506864e-01 -2.73862854e-03 -1.16518535e-01  1.64351314e-02
 -1.29724324e-01 -1.04046173e-01  9.76409391e-02  7.23188219e-04
 -6.20140810e-04 -3.04630637e-04 -3.81389936e-03 -1.34300720e-02
  1.24857865e-01 -6.02094842e-05 -2.11665421e-04  9.52268874e-06
 -4.55037551e-03 -1.83979003e-03  9.77054611e-02  1.12778306e-01
  2.71519087e-03 -1.84642756e-03 -2.81596780e-01  1.51655739e-04
  2.50646621e-02  9.37065408e-02  1.17409658e-02 -1.89177226e-03
  2.69364129e-04  1.15460403e-01  2.50509079e-03 -6.83223829e-04
 -3.98068782e-03 -1.03307236e-03  2.00089975e-03  2.12269789e-03]
[-1.8017493e-01  1.3498869e-03  1.0497399e-03 -6.1389577e-02
  2.0136135e-03 -1.1565360e-01  2.4929042e-03  4.7498830e-03
  4.9609545e-04 -5.0189551e-03 -2.7943397e-04 -1.9938303e-03
  4.3042032e-03 -1.9978010e-05 -2.7812755e-04  1.2362285e-03
 -1.4296490e-01 -2.2406187e-03  7.2092844e-05 -2.8803778e-01
  1.2481288e-03  1.0393378e-03  5.2137908e-05  2.4616058e-04
 -2.1078091e-03 -6.1630696e-04 -3.6195482e-03 -1.2841869e-05
 -4.1855920e-02 -3.8590335e-04 -4.2247731e-02  2.0379844e-01
 -4.3423567e-02 -2.5640605e-02 -2.7186838e-01 -2.0881200e-03
  2.5632969e-04  4.4464120e-03  5.5080811e-03 -2.0090829e-01
 -2.6159987e-01 -1.2837794e-04  2.9128050e-03  4.0615309e-05
 -1.5035016e-03  4.5026378e-03  2.2775345e-01 -3.2783542e-02
  4.2134163e-04  3.0352236e-04 -2.8359699e-01 -5.0788592e-03
 -1.3922720e-01  3.0432878e-02 -4.7392479e-01  2.1108808e-03
  7.9840614e-04 -1.2785338e-01 -5.6935928e-04  1.5352530e-03
  4.1133631e-03 -6.3088664e-04 -2.5824711e-04  2.1259242e-04]
[-3.31142172e-02  1.12428889e-03 -1.53623975e-03 -6.49274141e-02
  1.00874633e-03 -2.90655959e-02 -5.28420031e-04  2.32246751e-03
  1.30730344e-03 -2.56654900e-03 -2.43010858e-04  7.17292889e-04
  3.32830008e-04 -2.90407625e-05 -3.54054064e-04  2.80009885e-03
 -1.02739863e-01  5.90743031e-04  1.08702254e-04 -1.41014621e-01
 -1.57863338e-04  9.22937397e-06 -9.62244580e-04  1.71749944e-05
  3.48045229e-04 -6.70401787e-04 -2.05177790e-03 -9.75051837e-04
 -1.02526844e-01  1.07752695e-03 -3.64710093e-02 -2.24867433e-01
 -6.80475384e-02 -5.06739736e-01  7.17612579e-02 -3.52699717e-04
  1.41273451e-03  7.18352559e-04  3.15194903e-03 -1.70770094e-01
 -6.30819723e-02 -6.35782708e-05 -6.59939775e-04 -3.71730930e-05
 -1.25297811e-03  1.90368888e-03  4.31771986e-02 -1.46144092e-01
  1.37618626e-05  1.50986644e-03 -1.96995810e-01 -2.11376534e-03
  3.43705356e-01  1.31297410e-01  1.09538153e-01 -7.54955909e-05
  8.97457008e-04 -5.58524653e-02 -7.84459466e-04 -2.19492184e-04
  3.08183418e-03 -7.82195479e-04 -9.48956731e-05 -6.58069504e-04]
[-6.09845780e-02  3.62858479e-03  8.84817075e-03  1.64215967e-01
  2.11188220e-03 -2.71809369e-01 -5.07298019e-03 -1.45067656e-02
  3.16496845e-03  1.30020799e-02 -5.14246849e-03  6.24202983e-03
 -9.29268822e-03 -6.81280217e-05 -2.48787669e-03  3.48356459e-03
  2.18619049e-01  1.40929064e-02 -7.61932315e-05 -4.47243862e-02
 -7.59123918e-03 -6.24526804e-03  9.41580365e-05  1.25324965e-04
  1.14676496e-03  6.98860560e-04  3.95913934e-03 -3.73839727e-03
 -7.92144910e-02  1.07180486e-02 -7.81982467e-02  1.10782519e-01
 -2.07407206e-01  2.45778207e-02  6.57362491e-02  6.17997441e-03
  1.47262716e-03 -9.18958150e-03 -1.50445411e-02 -9.87927313e-04
 -3.45515646e-02 -3.69608970e-05 -4.70640790e-03 -1.45382990e-04
  1.36070568e-02 -1.28514459e-02  1.54765680e-01  9.25612897e-02
 -1.11176986e-02  4.64594923e-03 -5.79044931e-02  1.23354187e-02
  6.64157197e-02  1.74784753e-02 -8.19471013e-03 -1.84040575e-03
  9.31042712e-04 -1.15071036e-01 -6.07326766e-03 -1.69533701e-03
 -1.45818871e-02  1.28494622e-03  1.48729002e-03 -1.00872293e-02]
[-3.92072983e-02 -3.83765250e-03 -1.58375234e-03 -3.80222350e-01
 -3.43939452e-03  2.13688374e-01 -1.60819083e-03 -1.35764584e-03
 -1.25220907e-03  3.30841332e-03  2.92093842e-03  5.20479982e-04
 -3.02524981e-03  1.10982735e-04  2.82560970e-04  1.11892878e-03
 -1.17207929e-01  2.23385869e-03  2.53141217e-04  2.56839301e-02
  1.24444743e-03  7.54133100e-04  1.18332205e-03  1.26107061e-05
  2.37023830e-03 -9.50610847e-05  2.65079970e-03  2.70137656e-03
 -9.61034819e-02  1.86770107e-03 -1.62283834e-02  6.99679479e-02
  1.38221934e-01 -5.01595028e-02  7.06754550e-02  1.48511794e-03
  2.82723480e-03 -3.21259745e-03 -3.11592477e-03 -5.47582321e-02
 -1.04146495e-01  3.78261066e-05 -1.48779911e-03  2.04307180e-05
  1.46907289e-04 -1.47720380e-03 -1.11729160e-01 -1.95302308e-01
 -1.35784782e-03 -3.42977885e-03  1.19544014e-01  2.56913970e-03
 -4.15386170e-01 -2.00718436e-02 -3.77210170e-01 -2.19562254e-03
 -1.58557529e-03 -4.02353406e-02  3.43717309e-03 -4.38184885e-04
 -3.09016835e-03  9.01651452e-04 -3.36834230e-04 -1.66449382e-03]
[-3.4169167e-02  2.6579469e-03  4.3516010e-03  9.3541861e-02
  2.5076207e-03 -2.9266233e-02  3.9908187e-03  2.4597958e-04
  7.9744781e-04 -2.4112037e-04 -3.0997526e-03 -7.1163703e-04
  3.8817714e-03 -1.6586218e-04 -1.3908719e-03  2.5517424e-03
 -1.3773754e-01  2.5231235e-03  4.0606836e-05 -3.5648614e-01
 -1.7492773e-03 -1.7055023e-03 -2.4642948e-05  4.6117912e-05
 -5.3585051e-03  1.9203525e-04 -4.0361015e-03 -1.3732933e-03
  1.2595028e-01  3.0250493e-03  1.9363980e-01  8.7303214e-02
 -2.1695871e-02 -4.3697909e-01  1.4643118e-01 -3.3491172e-03
 -8.0673047e-04  3.2867519e-03  1.6554482e-03 -1.7875599e-02
 -7.4207149e-02 -1.5467471e-04  2.6662443e-03 -1.1489948e-04
  3.0261236e-03  6.0105772e-04 -1.5884188e-01 -9.9315733e-02
 -1.9440172e-03  1.2946938e-03 -1.1483149e-01 -5.0747229e-05
  1.3757770e-01  1.9382726e-02 -8.1577331e-02  3.5274136e-03
  2.8202811e-04  1.9974388e-01 -2.0906087e-03  2.7764952e-03
  2.2192511e-03  2.0300125e-04 -1.2412608e-03 -2.1361532e-03]
[-2.76141502e-02 -2.13195733e-03 -3.65160569e-03 -2.12263197e-01
 -1.25752494e-03 -1.28651083e-01  2.22356454e-03  6.12424547e-03
 -3.47818801e-04 -4.62803291e-03  9.48260422e-04 -2.41546729e-03
  2.75798817e-03  1.30824570e-04  1.39645662e-03  1.43795903e-03
 -4.86746401e-01 -1.98314269e-03  1.85125711e-04  1.95943844e-03
  1.81561452e-03  1.18740217e-03 -7.93441839e-04 -4.49175495e-05
  3.31069808e-04 -1.51124771e-03 -2.98112631e-03  1.73418608e-03
 -1.09672092e-01 -1.62501575e-03 -9.05592367e-02 -1.67865381e-02
  7.70802721e-02  6.41263947e-02 -1.55773722e-02 -3.10236379e-03
  2.37514148e-03  2.43546790e-03  5.42951096e-03 -6.80391639e-02
 -1.34171739e-01  7.49257742e-05  1.68428768e-03  6.82774989e-05
 -4.75238077e-03  4.14402084e-03 -1.57967787e-02  4.83692922e-02
  4.99191810e-04 -3.36284074e-03  8.34694952e-02 -5.04259299e-03
  8.34953785e-03  4.91397306e-02 -4.74622734e-02  1.20056036e-03
  1.18788055e-04 -4.28597108e-02  1.96284126e-03  7.35531503e-04
  6.08623773e-03 -1.34940713e-03 -1.40797696e-03  4.14290524e-04]
[ 1.7228714e-01 -2.7153999e-04 -2.5466257e-03  7.2969377e-02
 -8.9217909e-05 -2.5425196e-01 -1.2725268e-03 -5.7439976e-03
  1.5719017e-04  5.9751081e-03 -2.6523031e-04  9.1586611e-04
 -3.4595171e-03  5.8611316e-05  3.0578222e-04  8.5014978e-04
 -1.4959961e-01 -4.5024310e-03  7.7166915e-05  2.0564616e-01
  4.3121030e-04  1.5110697e-03  2.5582152e-05 -7.1961731e-05
  7.7193708e-04 -2.9261739e-04  2.7877686e-04 -6.2408496e-04
  3.1699166e-02 -2.4755802e-03  1.0892441e-02  3.4082051e-02
  2.8630270e-02 -2.1631800e-02  1.6255814e-01  1.4670487e-03
  6.7981717e-04 -3.5930122e-03 -4.1164523e-03  3.7180044e-02
  1.1525858e-02 -2.0715695e-06 -1.1001489e-03  6.8430745e-05
 -4.0794201e-03 -4.2705107e-03 -2.8381553e-02 -1.4712968e-01
  3.1749364e-03 -8.4504063e-07  1.9809975e-01  6.3224789e-03
  2.3460941e-01 -2.7285066e-01 -1.7750730e-01 -2.9734292e-04
  2.4473490e-04  2.5904420e-01 -1.5747795e-04  6.3148583e-04
 -3.2991727e-03 -8.3301857e-05 -1.4511067e-03  2.4586744e-03]
[-2.66329914e-01  2.64880876e-03  2.59325374e-03  6.02317527e-02
  2.45236978e-03  2.03730300e-01  3.68806650e-04 -5.32608479e-03
  1.29857555e-03  4.69234446e-03  2.45987496e-04  3.97115387e-03
 -5.35246637e-03 -3.96460018e-05 -1.21032086e-03  2.04321416e-03
  2.23196242e-02  2.79941293e-03  1.89105522e-05 -1.09457240e-01
  1.08697999e-03  5.02689742e-04 -7.89638318e-04  6.84549595e-05
 -1.47450226e-03  1.46062404e-04  3.85198137e-03 -1.87477411e-03
  2.67471001e-02  3.18008615e-03  1.96500778e-01  4.54268567e-02
  4.81593192e-01  2.42253587e-01 -8.52541625e-02 -8.22853064e-04
  9.13494208e-04 -5.11206966e-03 -5.84843056e-03 -9.71992537e-02
 -1.33576006e-01 -4.03266858e-05 -2.33141147e-03 -4.70333835e-05
  2.79393839e-03 -6.25427114e-03 -2.99315061e-03 -2.83313170e-03
 -3.44913104e-03  2.43217964e-03 -1.59804955e-01  5.02846437e-03
 -6.77635446e-02 -1.24227606e-01  1.59502819e-01  1.97447254e-03
  4.17724805e-04 -5.53766452e-02 -3.31954239e-03  1.69569091e-03
 -5.62652014e-03  1.14592607e-04 -2.31804745e-03 -3.42075550e-03]
[ 4.69093136e-02  4.01456986e-04 -2.91894632e-03  6.47455007e-02
 -9.70966576e-05  1.14931613e-01 -1.98348588e-03  2.97044031e-03
  3.44490763e-05 -1.00297038e-03  3.13191704e-04  9.15847777e-04
 -6.72215188e-04 -1.20384893e-05 -2.60089029e-04  2.22986843e-03
 -3.43250901e-01  1.42387906e-03  8.74931720e-05 -2.15526856e-02
  1.13716011e-03  1.09296595e-03 -8.02631548e-05  9.64830087e-06
  1.82580086e-03  3.21413070e-04 -2.98906141e-03 -7.19322765e-04
  5.88813983e-03  1.76777260e-03 -1.47770241e-01  1.69587553e-01
 -1.31753221e-01 -2.55678147e-01  1.51363775e-01  2.58057658e-03
  1.47297990e-03 -7.18121242e-04  2.91748485e-03  5.66690452e-02
 -9.29150358e-02 -2.52700720e-05 -1.40113314e-03 -4.91672436e-05
 -7.50009436e-04  4.10598906e-04 -9.38312933e-02  2.67300844e-01
 -1.84650987e-03  6.79700519e-04  8.42174366e-02 -6.42213388e-04
 -4.01278377e-01 -1.02935858e-01 -1.15135521e-01 -1.53685408e-03
 -1.51674976e-04 -1.53295755e-01 -1.11632061e-03 -1.41408760e-03
  2.62866518e-03  1.20702156e-04  6.99712953e-04 -2.15351582e-03]
[-2.55418003e-01 -1.92769384e-03 -2.29465123e-03 -9.84800458e-02
 -1.97137264e-03 -2.10213318e-01 -1.22773019e-03 -1.04434999e-04
 -1.53454335e-03 -8.30347708e-04  5.09436126e-04  5.62013127e-04
  1.37926254e-04  8.09112680e-05  1.08007446e-03  5.27653261e-04
  3.16120267e-01 -5.11510624e-03  1.72006155e-04  3.21430445e-01
  3.85148043e-04 -1.68562541e-03  6.94269547e-04 -3.12746415e-05
  1.71595975e-03  2.00966984e-04  3.31684365e-03  2.01834436e-03
 -6.25007004e-02 -2.61361059e-03 -4.00311574e-02  1.09985001e-01
 -2.99269129e-02 -7.80656934e-02  1.14901416e-01  1.22252488e-04
  1.02293328e-03 -4.91704850e-06  2.26555159e-04 -2.90823262e-02
 -2.95823932e-01  6.27816826e-06 -1.22052967e-03  8.04110896e-05
 -4.84699337e-03  9.08640039e-04 -2.40029525e-02  7.55605404e-04
  3.90052632e-03 -1.32544490e-03  1.54629633e-01  3.84170562e-04
  4.62115444e-02 -8.94700810e-02 -1.31990969e-01 -1.33319967e-03
 -1.13532203e-03  3.56486768e-01  1.51026912e-03 -1.95823680e-03
 -7.08246604e-04  4.92623250e-04  2.00235983e-03  3.23094311e-03]
[-2.11446788e-02 -2.15817778e-03 -2.51313625e-03 -7.38544703e-01
 -1.74553611e-03  1.53004155e-01 -1.10703695e-03  2.11580796e-03
  8.03914882e-05 -2.13304069e-04  2.86445254e-03  6.35549193e-04
 -1.89086795e-03  1.32724148e-04  6.39254635e-04  2.88651296e-04
 -4.45500314e-02  1.21864059e-03  7.98109431e-06  4.50382894e-03
  2.31089001e-03  2.16435269e-03  2.74364807e-04 -6.03077788e-05
  1.49132556e-03 -2.15464490e-04 -4.33726050e-03  1.91100431e-03
  1.03461489e-01  8.01279792e-04  4.81165014e-02  5.25867343e-02
  1.16483770e-01  1.00972824e-01  1.49016097e-01  7.03957514e-04
  1.98306260e-03 -2.36783992e-03  2.67180381e-04 -5.15436381e-02
 -1.95855737e-01  8.93468678e-05 -1.56223984e-03  6.59271464e-05
 -3.46593617e-04 -7.02162157e-04 -3.05013149e-03 -6.50234520e-01
 -2.21416494e-03 -2.16552359e-03  9.51962769e-02  1.18184835e-05
 -6.48774281e-02  1.80121318e-01 -1.03789695e-01 -5.82785986e-04
 -6.66123524e-04 -7.19588250e-02  2.01087352e-03 -8.86935959e-05
  9.10648203e-04  1.48824038e-04 -8.98449041e-04 -2.01745005e-03]
[ 1.7520578e-01 -1.0006570e-03 -2.1954258e-03  2.1175231e-01
 -9.8330260e-04 -4.7417611e-02 -8.6419244e-04 -2.2175277e-03
  7.5850484e-04  3.8157814e-05  2.4929296e-04 -1.4395044e-03
  6.8182935e-04  2.8101007e-05 -2.4911703e-04  1.0527062e-03
  5.4085933e-02 -1.2145985e-03 -8.9750592e-06  3.5969311e-01
  1.1470824e-03  1.3588490e-03 -1.6434233e-04  1.1550106e-04
  7.6824817e-04 -1.4737484e-03  3.3273916e-03  4.7819849e-04
  1.2070166e-01 -5.1358406e-04  1.3409838e-01  3.1806797e-02
  2.5263795e-01  4.7823217e-02 -2.6908388e-02  5.3315994e-04
 -7.2193361e-04  4.0944709e-04 -2.9799493e-03  1.2754244e-01
  1.0145745e-01 -6.3847663e-05  2.5110948e-04  8.9180918e-05
 -1.8583504e-03 -1.0996315e-03 -1.7177926e-01  1.7999269e-02
  8.4269384e-05 -6.0172391e-04  4.5264818e-02  1.0262596e-03
  9.8293655e-02 -2.5151652e-01  9.3597151e-02 -8.3471288e-04
  6.9832473e-05  2.9219526e-01  9.7932899e-04 -5.1788299e-04
 -4.6071843e-03 -3.3888142e-04  2.9633613e-04  1.3298600e-04]
[-6.2965199e-02  8.4140094e-04  6.3731945e-03 -2.8798270e-01
  6.2079733e-04 -1.6710790e-01  3.5464193e-04 -1.5151802e-03
  7.8721129e-04 -8.6054171e-04 -1.9903358e-03  9.0056588e-04
  5.4740516e-04 -2.9427116e-04 -2.4932467e-03  2.8767863e-03
  5.7875294e-02  2.3661894e-03  6.5163702e-05  7.9765834e-02
 -1.7441155e-03 -1.4295483e-03  1.5723248e-04  8.1499427e-05
 -1.3006345e-03  2.1531759e-04  3.4738453e-03 -1.3745821e-04
  1.4258860e-01  3.6733076e-03  4.3893601e-03  1.1867854e-01
 -7.4115396e-03  1.1889959e-01 -6.1931599e-02 -1.0334578e-03
 -1.7731866e-03  8.7126828e-04  9.4044092e-04  9.0609990e-02
  7.7206701e-02 -2.5684747e-04 -1.9107448e-04 -2.1076176e-04
  3.7648166e-03  9.5841690e-04  8.6139375e-03 -5.6462862e-02
 -2.6549269e-03  1.0170172e-03  8.5091688e-02 -1.0575735e-05
  2.5771269e-01  1.3726820e-01 -1.6433421e-01  2.9532076e-04
 -1.0501386e-04 -1.0569969e-01 -5.2334566e-04  1.3268722e-04
  2.2358503e-03  4.8374108e-04  4.4527819e-04 -2.9812569e-03]
[ 5.25368452e-02  4.61420603e-03  1.17201346e-03  1.02866195e-01
  4.58213780e-03 -2.01417971e-02  7.28048244e-03  7.88212195e-03
 -7.60064111e-04 -7.96362944e-03 -4.42130025e-03 -1.43667031e-03
  7.56431464e-03 -3.79376579e-05 -1.53315195e-04  7.42453383e-04
  4.43617292e-02 -6.58955472e-03  3.28828464e-05 -7.36376718e-02
 -3.16988304e-03 -2.82829138e-03 -1.48693260e-04 -2.99504118e-05
 -8.21606163e-03 -1.49321946e-04  1.41973805e-03 -1.10112457e-03
 -1.67949975e-01 -3.11361020e-03 -1.52470276e-01 -9.79086012e-02
  7.93535858e-02  2.50330448e-01  8.39494541e-02 -6.29524235e-03
 -3.75611853e-04  7.25691998e-03  8.96187592e-03  9.84680131e-02
 -1.69789776e-01 -4.23668098e-05  5.18663973e-03  1.72221280e-06
 -3.74739803e-03  6.87180739e-03  9.22663808e-02  1.42981112e-01
  4.10475070e-03  1.64102507e-03  1.20787703e-01 -7.25781173e-03
  9.49627012e-02  6.14473298e-02  1.28044635e-02  6.13056403e-03
 -9.26981811e-05 -2.04479039e-01 -3.14448145e-03  4.08880040e-03
  7.62338238e-03 -3.14644887e-04 -1.46366097e-03  3.24478233e-03]
[ 4.92260382e-02  1.16673333e-03  2.97103543e-06 -6.76666275e-02
  1.74794695e-04 -8.43841117e-03  6.24507607e-04  5.82671666e-04
 -3.94643372e-04 -1.36588281e-03 -3.43585177e-03  2.82518216e-04
  2.02757306e-03 -1.81141240e-06  5.06213255e-05  5.44343959e-04
 -1.35359079e-01 -4.28591110e-03  6.02678701e-05  1.02585681e-01
 -2.68230541e-03 -2.60737143e-03  1.39276119e-04 -1.27645635e-05
 -2.65943166e-03  1.60390482e-04  1.30955351e-03 -3.54980468e-04
  2.27359980e-01 -2.06506485e-03  2.04064459e-01  1.55233383e-01
 -1.20134257e-01 -2.05762070e-02  2.38886654e-01 -3.98527482e-04
 -7.08822336e-04  1.58889219e-03  1.94349908e-03  4.16445807e-02
 -2.50377208e-01 -3.45817134e-05  5.79477404e-04  3.77559154e-05
 -2.71544163e-03  1.19893043e-03  4.11188565e-02  6.99379519e-02
  2.57819891e-03  1.27550680e-03 -8.65996331e-02 -9.71514557e-04
  2.68036313e-02 -1.30261453e-02  3.17855068e-02 -1.46447448e-04
 -2.19884125e-04 -1.52481005e-01 -2.12692234e-04  3.99299242e-05
  2.56209797e-03 -8.66000701e-05  1.93271087e-03  2.03885068e-03]
[ 3.9619103e-01  1.4305384e-03 -2.0876538e-03  4.6691456e-01
  1.7764347e-03 -2.0181529e-01  1.4111027e-03  2.1386463e-03
 -5.7027792e-04 -1.5825273e-03 -1.7153276e-03  1.2627611e-03
 -8.3726813e-04  1.2271870e-04  8.9218258e-04  2.3248025e-04
  7.8888692e-02 -4.0268311e-03  1.7683638e-05 -2.7013296e-01
 -2.5693327e-03 -2.6523448e-03 -1.8499445e-04  2.3316075e-05
 -2.0210936e-03 -3.9832795e-04 -6.7532383e-04 -8.8569112e-05
  3.0328931e-02 -2.1420533e-03 -1.0562642e-01 -1.1732265e-01
  4.7633093e-02  1.6969919e-01 -1.2855170e-02 -1.3209473e-03
  1.5756477e-03 -4.3919479e-04  2.3188214e-03  1.4356670e-01
 -1.3201663e-01  9.6377145e-05  1.2003912e-03  8.0200465e-05
 -3.3335565e-03 -1.6669906e-04  2.1207553e-01  7.3372424e-02
  3.0429089e-03 -1.9884565e-04 -1.0418719e-01 -1.7694799e-03
  5.9633072e-02 -6.9856225e-03  1.3950260e-02  2.1378782e-03
  5.4156699e-05  2.0559182e-02 -1.9258062e-03  9.6573692e-04
  2.4319827e-03 -4.9832190e-04 -7.2368735e-04  2.6334457e-03]
[-1.5884970e-01  1.6390821e-03  1.7723325e-03  7.4502416e-02
  1.4791831e-03  9.5022254e-02  2.2015150e-03 -5.2671100e-04
  7.6015928e-04 -2.5024661e-04  2.0703750e-03 -1.0389327e-03
  3.2591671e-03 -8.7317138e-05 -1.1167998e-03 -2.9013833e-04
 -1.3059597e-01  2.4567065e-03 -3.5670528e-05 -7.6526679e-02
  2.9255026e-03  1.2506238e-03  3.6257168e-04  6.6479290e-05
 -2.8625613e-03  9.0974069e-04 -2.4545521e-03  3.6047612e-04
 -6.9775159e-04  2.4842429e-03 -8.2392953e-02  3.5886969e-02
  7.3080234e-02 -3.9376438e-02  1.4412542e-01 -1.6634552e-03
 -7.1972259e-04  3.1356630e-03  1.6301229e-03 -6.7290597e-02
  8.0996333e-03 -8.3750288e-05  1.6736290e-03 -8.9622321e-05
  2.8317636e-03  3.3933748e-03  1.7837662e-02 -5.7907128e-03
 -4.0735202e-03  1.3181332e-03 -3.4757847e-01  1.7186739e-04
 -2.3421136e-01 -8.6477622e-02  6.5028042e-02  1.1274419e-03
  1.5112878e-04 -5.1395702e-01  4.4907852e-06  1.5201323e-03
  3.1574336e-03  6.6094985e-04  2.3685966e-04 -3.7230817e-03]
[ 9.93417725e-02 -8.26591218e-04 -5.63595584e-03  1.31907672e-01
  5.08182857e-04  5.18740155e-02  4.07227129e-03  3.53318127e-03
 -1.33345381e-03 -4.98723518e-03 -3.80160590e-03 -1.09417189e-03
  1.64681464e-03  3.42004845e-04  2.59696692e-03 -1.19425810e-03
  1.28983572e-01 -9.17399302e-03  6.44740503e-05 -8.23906958e-02
 -5.30739920e-03 -5.54944761e-03 -5.99053979e-04 -1.00255354e-04
 -2.49384157e-03 -8.12696293e-04 -1.10092142e-03  1.76675548e-03
 -2.87784427e-01 -5.56791620e-03 -1.04513489e-01 -2.31316105e-01
  6.58671916e-01 -6.45759702e-02 -8.05534143e-03 -4.13832441e-03
  3.24145006e-03  1.87631627e-03  4.74763801e-03  6.49897680e-02
 -2.73360312e-01  2.49230012e-04  3.49121704e-03  2.42070208e-04
 -7.35800480e-03  2.27109203e-03 -3.67580980e-01  2.40563810e-01
  7.93219358e-03 -3.87428538e-03  5.08042723e-02 -5.72430156e-03
  2.59196043e-01  3.72830629e-01  3.39928009e-02  3.73570970e-03
  1.81860058e-04 -6.03886321e-02 -3.11240554e-04  1.58013625e-03
  3.39580467e-03 -1.35202694e-03 -1.09781185e-03  6.78486424e-03]
[ 5.94882146e-02 -8.01408140e-04 -1.45196123e-03  1.27024293e-01
 -1.99606479e-03 -5.32409310e-01 -4.08736058e-03 -9.40592610e-04
  3.42307147e-04  2.89702439e-03  3.83497070e-04  2.00233888e-03
 -2.15283409e-03 -1.26906394e-04 -7.45282159e-04  2.39039259e-03
  1.47382021e-01 -1.33822090e-04  8.33459126e-05 -7.31913373e-02
 -3.20365391e-04 -7.59981631e-05 -4.64756420e-04  6.11071737e-05
  3.18012107e-03 -1.37697789e-03 -1.11173536e-03 -4.40914300e-04
 -8.68493617e-02  6.28696289e-04  6.76302165e-02  5.01762852e-02
 -2.31176421e-01  1.92132950e-01  5.64959124e-02  3.77171999e-03
 -4.92691470e-04 -2.73567671e-03 -2.55264039e-03  7.38877729e-02
 -4.94858017e-04 -1.40029035e-04 -3.97848664e-03 -8.77060302e-05
 -1.06855738e-03 -2.69901287e-03  5.69845028e-02  8.08696449e-03
 -6.10972929e-04  1.28605869e-03  1.12450816e-01  2.50845146e-03
 -1.08397603e-01 -2.11613514e-02  1.26907647e-01 -4.01179027e-03
  6.71136513e-05 -6.46574348e-02  4.87718906e-04 -2.80582486e-03
 -3.79922311e-03 -8.53617152e-04  1.68654218e-03 -8.96347628e-04]
[-1.89595848e-01 -1.77854975e-03 -5.50265610e-03  6.96025789e-02
 -1.78026967e-03 -1.03037015e-01 -2.84562097e-03 -4.47906845e-04
 -1.68945093e-03  2.44388264e-03 -9.29728209e-04  3.97969561e-05
 -2.59332289e-03  2.25774391e-04  2.29020161e-03 -1.27882301e-03
  9.56080854e-04 -9.39410273e-03  1.05764033e-04 -7.65907168e-02
 -1.35678577e-03 -8.57941748e-04 -3.06960719e-04 -1.40056916e-04
  3.06956260e-03 -3.41067236e-04 -1.01148733e-04  6.37259509e-04
 -9.66947973e-02 -6.30642846e-03 -3.76254693e-02  5.94402254e-02
  3.05770397e-01 -8.24645162e-02 -1.12384133e-01  2.56257062e-03
  1.91487093e-03 -2.72331107e-03 -7.14257942e-04 -4.34399880e-02
 -7.17261806e-02  1.59210424e-04 -8.66335467e-04  1.74596964e-04
 -9.10822023e-03 -2.39849556e-03 -1.05105750e-01  2.38371845e-02
  6.13425160e-03 -1.41073205e-03  1.03440899e-02  1.99399493e-03
  8.24280530e-02  1.10421427e-01 -3.90929505e-02 -2.08444893e-03
 -3.00334825e-04 -1.19007997e-01  5.48554934e-04 -2.11104006e-03
  9.00146086e-04 -8.99686245e-04  1.21222250e-03  5.27431816e-03]
[ 7.66421901e-03  1.07699202e-03 -1.90212822e-03 -1.78416558e-02
  5.84206195e-04 -5.13391018e-01 -1.68699550e-03  2.08376860e-03
  1.15812139e-03 -2.44499533e-03 -8.02283757e-04  4.50521708e-04
  8.92677577e-04 -1.99139104e-05 -3.72172042e-04  2.29469710e-03
 -9.52409580e-02  3.70220834e-04  1.19057899e-04  8.32026750e-02
 -1.01331016e-03 -8.57608684e-04 -6.85749459e-04  1.50796095e-05
  9.00781539e-04 -6.10362215e-04 -7.49081781e-04 -9.74092050e-04
  7.63704628e-02  8.91436823e-04 -5.02843022e-01  2.74204284e-01
 -2.34452024e-01  1.58750683e-01 -1.34029672e-01  1.05066027e-03
  1.18158315e-03  1.01584720e-03  3.50957201e-03  9.48615745e-02
 -4.85041849e-02 -6.56178454e-05 -5.33691724e-04 -1.89431375e-05
 -1.25906849e-03  2.22115498e-03 -8.59383419e-02  7.57450089e-02
 -2.98208703e-04  1.85485219e-03  4.29415852e-02 -1.76667119e-03
 -2.50403196e-01  6.94103613e-02 -6.72548078e-03 -1.45048881e-03
  5.79060172e-04  1.75868675e-01 -8.77451210e-04 -1.44400669e-03
  3.39101092e-03 -3.91117937e-04  1.31660036e-03 -8.51525401e-04]
[ 1.3526610e-01 -9.0742996e-04  1.2222957e-03  3.2139513e-01
 -4.0141190e-04  3.0774546e-01  1.5316898e-03  5.4995939e-03
  5.6057779e-05 -5.0730980e-03  2.9095942e-03 -1.2312380e-03
  3.6530809e-03 -1.7214756e-04 -1.6191376e-03  1.2922229e-03
 -2.9531430e-02 -2.1570837e-03 -4.4192584e-06  2.0466191e-01
  1.2080589e-03 -4.0958868e-04  3.3029547e-04  1.0679229e-04
  2.2672070e-04  4.5481662e-04  3.4742339e-03  1.1588971e-03
 -9.2403768e-03 -4.6346016e-05 -2.6039576e-02  1.5317703e-02
 -2.3129143e-02 -2.6709870e-01 -2.3680198e-01 -1.7208746e-03
 -1.4637822e-03  3.6173104e-03  5.4173428e-03 -2.2043268e-01
 -1.1189487e-01 -1.4882606e-04  9.9224830e-04 -1.1805587e-04
 -1.0094478e-03  6.3930033e-03 -4.6023265e-02  1.8895666e-01
 -8.2635367e-04 -1.0208510e-03  5.9805781e-02 -6.3138916e-03
  1.3579091e-01 -1.7066976e-01  8.5158676e-02  3.3781515e-04
 -1.2322543e-04 -1.0132442e-01  1.1136616e-03  2.4298475e-04
  5.1970650e-03  3.7811519e-04 -1.6683036e-04 -1.3366750e-03]
[ 5.14120199e-02 -3.60881211e-03 -6.06120098e-03  1.16683632e-01
 -2.71601789e-03  1.04893474e-02 -1.34733797e-03  2.62567680e-03
 -1.03646205e-04 -8.84679102e-05  1.61910977e-03 -2.11210991e-03
 -1.07187743e-03  1.66934842e-04  1.33316638e-03  4.18754527e-04
 -1.66852772e-01  5.91614109e-04  2.98767809e-05 -2.65968353e-01
 -6.45254040e-04 -7.97028712e-04 -5.13214851e-04 -2.49498726e-07
  2.79014139e-03 -9.81929014e-04 -1.95449893e-03  1.57435518e-03
  1.84260402e-02 -6.64347826e-05  1.15086034e-01 -9.30792540e-02
 -1.46512508e-01  4.79769036e-02  1.25603616e-01  1.00492663e-03
  2.66988552e-03 -1.28733250e-03  9.86969331e-04  1.86082259e-01
  1.04926594e-01  1.25407183e-04 -1.15267270e-04  7.92910650e-05
 -2.20953557e-03 -1.31229742e-03  9.17540118e-03 -7.26077110e-02
  5.89573901e-05 -3.38677387e-03 -3.06821545e-03 -4.94679145e-04
  6.13036267e-02 -4.57953177e-02  1.44092124e-02 -1.20182207e-03
 -1.44616541e-04  2.78730959e-01  3.07863508e-03 -6.52919407e-04
  1.47442054e-03 -7.10765948e-04  2.37733911e-06 -8.51831282e-05]
[-7.4408329e-01  2.2735960e-04 -1.8763290e-03  1.7492203e-01
  8.4975059e-04 -2.1131302e-01  2.7988362e-03  1.1128843e-03
 -4.5640371e-04 -1.3154201e-03  7.1995158e-04 -2.7549695e-03
  3.1387201e-03  3.6634396e-05  1.4134609e-04  1.9228632e-05
  1.4124762e-01 -3.9639724e-03  2.3226794e-05  6.1578594e-02
  2.5220396e-04  1.2591344e-04  3.5897779e-04 -2.1361700e-05
 -2.3388988e-03  5.6387704e-05  1.2059129e-03 -3.1798825e-04
  4.8779673e-03 -1.8791193e-03 -2.5973428e-02 -2.9593047e-02
 -9.6661501e-02 -8.1605569e-02 -1.3257489e-01 -2.1461560e-03
 -3.5382016e-04  2.9251941e-03  2.1306202e-03 -2.3933561e-01
  1.1259236e-02  1.3864346e-06  2.4222673e-03  5.5267155e-05
 -3.3410832e-03  3.2836872e-03 -8.5591804e-03 -8.9970538e-03
  2.4766505e-03 -3.5375956e-04 -2.2807804e-01 -2.3964136e-03
 -2.3985197e-01  1.1157102e-02  9.1848098e-02  1.8308685e-03
 -6.2470790e-04  4.1758969e-02  2.3888822e-05  2.1712775e-03
  2.8799612e-03  1.9313936e-04 -1.2452446e-03  1.7281106e-03]
[-1.7298295e-01 -2.6703540e-03  1.1070876e-03 -2.1817593e-02
 -1.7042317e-03  1.0159892e-02 -6.7635672e-04  2.2336179e-03
  1.9002113e-03 -3.6077210e-04  2.2819880e-03 -1.3185670e-03
 -1.8544589e-03 -8.5889835e-05 -1.4454005e-03  4.0157037e-03
  2.8343902e-03  7.9666339e-03  1.4822986e-05 -2.2441063e-02
  2.6225799e-03  2.3104129e-03 -6.8763671e-05  7.7227349e-05
  1.7218984e-03  3.2923525e-04 -1.0546098e-02  1.0124444e-03
 -6.8243085e-03  6.1032730e-03 -3.1212837e-01 -1.5739232e-02
 -1.1360684e-01  2.0786884e-01  1.4757429e-02 -1.5131409e-04
  1.2722985e-03 -1.7330691e-03  9.0130343e-04  4.6555731e-02
  2.4786507e-01 -8.9913970e-05  6.7958143e-05 -1.1886421e-04
  5.4028579e-03 -1.8457962e-03 -5.8002812e-03 -1.0169229e-01
 -4.6797418e-03 -2.4923699e-03  2.9825797e-02 -6.5382017e-04
  4.5044612e-02  4.5850281e-02  4.4725444e-02 -3.6027795e-04
  5.5094197e-04  9.6528210e-02  2.4471881e-03  3.6254208e-04
  1.7092853e-03  5.8301818e-04 -1.3644166e-03 -4.9036420e-03]
[-1.4868510e-01  7.0169132e-04 -2.5740729e-03  4.4031274e-02
  7.9465512e-04  2.8428367e-01  1.4860327e-03 -4.4185710e-03
  3.1757462e-04  2.8763448e-03 -3.2262499e-03  2.2364722e-03
 -2.1501114e-03  1.4872548e-04  1.2180214e-03  7.7262096e-04
  1.7893039e-01 -4.8096004e-04  6.8731446e-05 -1.4257833e-01
 -5.1060477e-03 -4.8387419e-03 -8.6293666e-04 -2.5108782e-05
 -1.6331213e-03 -1.1575739e-03  7.8602799e-04  3.6284706e-04
 -8.2460023e-02  9.1221998e-05 -4.9417056e-03 -1.3041537e-01
  4.7086832e-01 -7.3749997e-02 -1.7626293e-01 -1.5185524e-03
  2.2079817e-03 -2.0896299e-03 -4.4557275e-03  1.3385406e-01
 -1.2309732e-01  9.8648859e-05 -2.4493904e-05  8.4881685e-05
 -1.2607184e-04 -3.8191208e-03 -2.4691938e-01  1.3436280e-01
  1.5539859e-03 -8.3259674e-04  1.9746062e-01  1.8240786e-03
  9.2549464e-03  1.6951567e-01 -3.8404379e-02  1.7924776e-03
  7.2148954e-04 -7.0570163e-02 -1.6341248e-03  5.5303395e-04
 -4.9018664e-03 -1.1568135e-03 -8.9221855e-04  1.4275206e-03]
[-5.0020520e-02  1.2968914e-03  1.2550122e-03 -5.5365462e-02
 -4.0036911e-04  1.8865576e-02 -2.4390665e-03 -3.8116350e-04
 -3.3892391e-04  1.1216893e-03 -2.8112435e-03  4.5674806e-03
 -4.6434300e-03 -8.3321975e-05 -5.0255569e-04  2.9073661e-04
  5.7788249e-02 -4.6725906e-03 -4.5991368e-05 -3.1135619e-02
 -4.5226631e-03 -3.6597429e-03 -2.0368996e-05  4.7656489e-05
  7.1049732e-04  5.5209053e-04 -1.4344725e-03 -1.0694013e-03
 -1.4043668e-01 -2.6166553e-03 -4.1020080e-02  5.1112957e-02
 -6.2163979e-01 -2.0296443e-02  2.3515929e-02  1.3105551e-03
 -1.0237767e-03 -4.8374683e-03 -3.0703850e-03  1.3974080e-02
 -2.6415871e-03 -5.5584624e-05 -4.6667452e-03 -3.6818914e-05
 -3.2370458e-03 -6.8642385e-03  1.9696043e-01 -4.5859165e-02
  2.4905191e-03  2.4611617e-03 -3.1221842e-02 -1.8325277e-03
 -5.8133215e-02  3.1992011e-02 -2.7550066e-01 -2.2353099e-03
  5.0465638e-05 -9.1764003e-02 -2.1302174e-03 -1.8096156e-03
 -1.2254263e-03  1.1247886e-04  7.6936343e-04  1.7981059e-03]
[-2.6460964e-02  4.9323251e-04  3.5342067e-03 -2.5298130e-02
 -6.3962019e-05 -3.7302399e-01 -1.6080042e-03  1.7651229e-03
  1.1946987e-03 -3.5411271e-03 -2.5515654e-04  7.8488589e-04
  1.3186531e-03 -1.8785616e-04 -1.7029281e-03  2.7025277e-03
  1.6861933e-01  2.5303260e-04  2.1249220e-05  6.8114318e-02
  3.7639251e-04 -6.4433424e-04 -1.7247790e-04  8.5714819e-05
  3.7908868e-04 -2.8843523e-04 -2.8007526e-03 -4.4606350e-06
  1.5797056e-01  1.8336147e-03 -1.4128768e-01  1.7095059e-02
  5.1474750e-02  1.7265850e-01  1.1199071e-01  7.0862164e-04
 -8.5317425e-04  1.6182092e-03  4.9817245e-03  1.9678946e-01
 -2.2173160e-01 -1.7026957e-04 -5.7157612e-04 -1.1984530e-04
  1.0694263e-03  5.0007245e-03 -6.8059519e-02 -5.8801439e-02
 -1.2076549e-03  1.7395980e-03  1.2028494e-02 -1.7959240e-03
  8.0272250e-02 -1.4654183e-01  6.3051000e-02 -2.0057240e-03
  3.7780628e-04  4.0607929e-02  2.4619687e-04 -1.5393583e-03
  5.3270482e-03 -2.3029788e-05  2.3776519e-03 -1.6906266e-03]
[ 3.89050484e-01  5.24774310e-04 -2.62923632e-03 -9.06258076e-02
 -2.50378333e-04  2.56533083e-03 -5.96896338e-04 -4.09204746e-03
 -3.78570170e-04  3.75797483e-03 -3.04630841e-03  7.51441548e-05
  1.84029966e-04  2.66576390e-05  3.07480979e-04  1.98580834e-04
  1.30612710e-02 -3.97177320e-03  9.55973665e-05  1.12313189e-01
 -2.60262727e-03 -1.62521168e-03 -2.20969203e-04  1.30984881e-05
 -6.33391261e-04 -3.75384770e-05  2.66929227e-03 -4.89357219e-04
  1.14520885e-01 -2.44170451e-03  1.14218637e-01  1.56822667e-01
  1.16932988e-02 -7.11680278e-02  8.06482807e-02  1.67487620e-03
 -6.31102361e-04 -5.15492167e-04 -4.74361703e-03  1.01535670e-01
  2.63577960e-02 -2.53266044e-05 -1.19069970e-04  6.11772484e-05
 -3.82201700e-03 -3.54784657e-03  1.20200090e-01 -1.13337509e-01
  1.98931410e-03  7.11157685e-04 -2.01790884e-01  3.80044035e-03
 -9.01136100e-02 -6.04662262e-02 -1.68617889e-01 -8.47798656e-04
 -2.38298540e-04  6.31829277e-02 -8.04081908e-04 -7.50609324e-04
 -5.26210759e-03  2.75551429e-04  1.46072009e-03  1.70713628e-03]
[ 2.78629452e-01  2.92592612e-03  1.75689708e-03 -5.38973659e-02
  2.69773230e-03  1.28436208e-01  1.64100132e-03  1.36576430e-03
  1.78156747e-03 -1.03632675e-03  2.11956445e-04 -4.73231106e-04
  2.89295148e-03 -8.23363589e-05 -2.11699354e-03  1.60252862e-03
 -1.18527815e-01  4.19918681e-03 -5.15205356e-05 -2.10074320e-01
 -9.09423456e-04 -8.52133613e-04 -1.88518432e-04  1.16019211e-04
 -2.27969163e-03 -1.79146300e-04  1.16837407e-04 -1.33131130e-03
 -6.37179688e-02  3.75514571e-03 -2.26215869e-02 -8.78984332e-02
  1.90331444e-01 -1.73259065e-01  1.26646146e-01 -1.62225857e-03
  3.42518848e-04  2.96294573e-03  6.23126514e-04  1.31530702e-01
  3.39928456e-02 -5.77269093e-05  1.02183130e-03 -9.11567549e-05
  2.98831984e-03  2.75529642e-03  7.08061829e-02 -6.96713552e-02
 -5.14226779e-03  2.75081256e-03 -2.39677638e-01 -1.08728721e-03
 -5.56183308e-02  3.43678147e-02  1.24620356e-01  1.49805890e-03
  4.64496465e-04  3.48344296e-02 -1.64989999e-03  1.26772048e-03
 -1.06836640e-04  3.85446852e-04 -7.93950399e-04 -5.12043806e-03]
[-2.7541476e-01 -1.1350842e-03  1.8313983e-03  5.8842927e-02
 -1.0509026e-03 -2.4038743e-02 -1.1285837e-03  3.7582841e-04
  1.8250078e-03  8.6322182e-04  1.2483726e-03  1.6164395e-03
 -3.3215485e-03 -1.7461814e-04 -1.8982657e-03  2.0626632e-03
  3.3416802e-03  4.2792656e-03  7.3848105e-06 -3.7438799e-02
 -3.6794622e-04 -9.1469294e-04 -3.7729580e-04  1.0259650e-04
  1.9857965e-03 -3.3313903e-04 -3.0835014e-04  5.8711052e-04
 -9.8242424e-02  3.9637433e-03 -9.7256199e-02 -1.5300067e-01
  4.1881219e-02 -6.1180048e-02 -1.1617740e-01  2.7086819e-04
 -1.0593368e-03 -3.1032437e-03  1.2492213e-03  7.9245800e-03
  4.6769802e-02 -1.5317100e-04 -2.3538095e-03 -1.2059493e-04
  3.3062776e-03 -2.6730367e-03 -7.7633478e-02  1.4374606e-01
 -3.9198995e-03 -8.6800073e-04 -1.6562056e-02  3.0971135e-04
 -7.3104985e-02  1.2149710e-01  2.7971901e-02 -7.3250849e-04
  6.2277366e-04 -3.4362789e-02  4.0961496e-04 -5.6239520e-04
  2.6196428e-03  3.3045271e-05 -1.4852687e-03 -3.9432910e-03]
[ 8.7394036e-02  2.0020080e-03 -5.7916821e-04  4.8980456e-02
  1.5395152e-03  2.7286503e-01 -1.4615944e-03 -8.2937619e-03
 -1.7237321e-04  6.8179066e-03 -5.1391649e-04  5.5692769e-03
 -7.3760217e-03 -5.3412834e-05 -3.5250181e-04  2.9378284e-03
  2.7089268e-01  4.5863604e-03  6.2203595e-05 -1.3922723e-01
 -1.5760231e-03 -1.0294993e-03  3.5951592e-04  1.3512571e-04
  2.8900139e-04 -2.9501182e-04  6.1435844e-03 -1.4315301e-03
  2.7051109e-01  3.8414623e-03 -1.5085673e-01  9.4078340e-02
 -9.2309311e-02 -1.2273435e-01 -1.9861127e-01  9.7431225e-04
  2.2091770e-03 -6.7372941e-03 -7.7024242e-03  1.2550323e-01
  1.6593017e-01 -3.5053105e-05 -4.2165900e-03 -1.0776265e-04
  2.2531291e-03 -8.4980465e-03  1.6046001e-02 -8.9871302e-02
 -3.3985639e-03  1.5283419e-03  1.9248515e-01  6.7319842e-03
 -2.1837711e-01  3.7805222e-02 -2.4895927e-01  4.4236277e-04
 -8.3117210e-04 -3.5767596e-02 -3.2307685e-03  2.8531405e-04
 -7.3996563e-03  3.2257763e-04 -2.4023140e-03 -3.4817867e-03]
[ 6.4711586e-02 -2.4872357e-03 -3.1604788e-03  3.6831643e-02
 -1.7278846e-03  2.7936795e-01  3.2536034e-03 -3.2698247e-03
 -7.7404582e-04  2.4194459e-03  1.6118642e-03 -4.3768617e-03
  3.8745115e-03 -1.2835250e-05  5.4808916e-04 -1.0802627e-03
 -1.1610320e-01 -4.4535212e-03  5.5413437e-04 -2.7309343e-02
  2.5583736e-03  2.7024755e-03  4.2395311e-04 -2.0034176e-04
 -9.2492852e-04  7.4455886e-05  2.8704465e-03  2.0754114e-03
  1.4776765e-01 -2.6468786e-03 -1.3358320e-01  7.2529882e-02
  7.8558348e-02  9.8393895e-02  1.6461319e-01 -2.8360966e-03
 -1.5379325e-04  3.6699192e-03 -2.9080536e-03  3.6481779e-02
  3.2321319e-02 -6.9591442e-05  3.2716587e-03 -3.0115802e-05
 -3.5491847e-03  2.1787605e-03  1.6851355e-01 -6.6491097e-02
  2.1628502e-03 -2.8512680e-03 -3.3486909e-01  2.1388677e-03
 -2.9151978e-02 -1.7909819e-02  1.1031235e-01  9.4333774e-04
 -1.1601461e-03 -2.7729937e-01  3.7385386e-03  1.4180120e-03
 -3.3880579e-03  4.1322046e-04 -9.5895299e-04  1.7582806e-03]
[-1.1302663e-01  1.6099983e-04  2.6316333e-03  1.7546330e-01
  8.2497078e-05  1.5808064e-02 -7.4136001e-04 -4.4801263e-03
  2.4103667e-03  3.5478170e-03  5.8227940e-04 -1.2838951e-04
 -1.0831045e-03 -7.3858042e-05 -1.5499296e-03  1.3479956e-03
 -4.6406649e-02  4.4771791e-03 -2.9427585e-05  3.4508683e-02
 -5.5401254e-04 -2.1679405e-04 -2.3982579e-05  9.4260766e-05
  4.1009887e-04  3.2260775e-04  5.1073916e-03 -6.7448406e-04
 -1.4770703e-01  3.9989026e-03  6.2559843e-02 -3.4404829e-02
  1.6338745e-01  2.0587031e-02  1.5665042e-01  9.2192454e-04
 -9.3402341e-04 -1.1266364e-03 -3.5282399e-03  1.9902882e-01
  4.1760888e-02 -6.4241409e-05 -4.6232319e-04 -4.5788707e-05
  3.9853505e-03 -2.7064439e-03 -3.0506324e-02 -7.6453075e-02
 -4.0649455e-03  5.6414574e-04  1.4345387e-01  4.5796018e-03
  5.2948587e-02  1.6070466e-01 -4.9048942e-04 -4.0156889e-04
  3.6116730e-04 -1.5530327e-01 -2.6912402e-04 -1.2972261e-05
 -3.4244831e-03  6.4832025e-04 -3.1362844e-04 -4.1360110e-03]
[-2.35269457e-01 -3.53022665e-03 -3.95180751e-03  2.31576245e-02
 -2.60263472e-03 -9.98984426e-02  1.08107153e-04  5.55749284e-04
 -1.25197810e-04  1.30809407e-04  1.04388024e-03 -1.87132519e-03
  4.65124147e-04  8.42953887e-05  1.07215415e-03  6.02689805e-04
 -2.04689801e-01 -2.64902855e-03  8.12594371e-05  5.96633106e-02
  2.27959812e-04  6.37716847e-04 -6.44627202e-04 -2.04887765e-05
  2.32845172e-03 -1.08256005e-03  2.01480067e-03  2.21981434e-03
 -6.69058561e-02 -1.84801780e-03 -1.23874724e-01  2.23613590e-01
  3.68294604e-02  3.88439409e-02 -1.17321588e-01 -5.20569505e-04
  1.61160587e-03  3.67008091e-04 -2.03303323e-04 -4.88287210e-02
 -2.75900751e-01  5.07308832e-05  3.08475865e-04  4.05583633e-05
 -4.13874583e-03  3.60237871e-04 -1.05903536e-01  5.06715104e-03
  1.27281726e-03 -3.81390075e-03  8.01718533e-02  6.28527952e-04
 -1.05609514e-01  5.34362942e-02  6.01681806e-02 -3.45411652e-04
  7.03229744e-05 -1.23486750e-01  3.12593253e-03 -2.09846723e-04
 -1.73808017e-04 -8.88282666e-04 -6.35511708e-04  1.07218372e-03]
[ 1.18791952e-03 -1.34771661e-04 -1.53269432e-03 -4.80158925e-01
 -4.36524861e-04  8.08639973e-02  4.23730467e-04  3.28785530e-03
 -8.25254072e-04 -4.63506160e-03 -5.21797128e-03 -2.24906090e-03
  4.38891444e-03  6.20452120e-05  9.95919458e-04  8.94919736e-04
 -2.34549150e-01 -5.69167128e-03  1.20770026e-04 -9.39332172e-02
 -6.03551930e-03 -5.44489082e-03 -6.08524191e-04 -5.82165085e-05
 -1.78718299e-03 -1.01898145e-03  3.44597502e-03 -5.06186698e-05
 -2.14151278e-01 -3.74602480e-03  5.93613572e-02 -1.18720401e-02
  1.22176623e-03 -9.71418098e-02  9.40772798e-03  1.53945788e-04
  1.00920303e-03  3.79446126e-03  5.26181282e-03 -1.78480551e-01
  7.84379914e-02  1.43427606e-05  2.17038090e-03  6.51026348e-05
 -5.62224723e-03  3.42271896e-03  2.70609409e-02  3.65969874e-02
  4.17589489e-03 -6.49372814e-04 -5.11676259e-02 -3.16845113e-03
 -1.09928027e-01  3.67528796e-02  4.90994267e-02  1.98635840e-04
  2.06692072e-04 -2.83245128e-02  1.47689148e-04 -7.37619586e-04
  5.14801312e-03 -1.34623528e-03  3.22157214e-03  3.53296800e-03]
[ 1.6955219e-01  6.5738405e-04 -7.0243520e-03  2.4156371e-02
  9.7436790e-04 -1.6273260e-01 -6.4153253e-04 -1.4553673e-03
 -6.6632114e-04  1.7243591e-03 -1.0209886e-03  3.1923836e-03
 -4.9432414e-03  2.2616459e-04  2.7002757e-03  7.2747160e-04
  7.4927807e-02 -5.5983360e-03  2.0421507e-04 -1.4117193e-01
 -3.4513543e-03 -2.9463849e-03 -5.8887614e-04 -6.8534828e-05
  6.3485757e-05 -1.3529077e-03  1.0682226e-03 -1.6118976e-04
  7.2110057e-02 -3.4934336e-03 -5.4545872e-02 -3.4091979e-02
  6.5837495e-02  2.4991449e-02  1.9330588e-01  4.6389239e-04
  3.5924676e-03 -4.3778513e-03 -1.1726280e-03  1.3280044e-01
 -1.4014497e-02  1.6432883e-04 -1.3782935e-03  1.3199291e-04
 -7.7308095e-03 -3.2758664e-03  8.1169149e-03 -6.5108277e-02
  5.0268974e-03 -4.7950324e-04 -8.4656626e-02  1.9230291e-03
  1.4076939e-01 -4.4045277e-02  5.2922390e-02  1.1863046e-03
  2.2577669e-05 -1.4305186e-01 -2.2440769e-03  4.7403906e-04
 -3.2747707e-03 -1.1620427e-03 -1.4014210e-03  4.3699029e-03]
[ 8.3461553e-02 -5.3090585e-04 -2.9030512e-03 -2.7970659e-02
 -1.0669557e-03 -7.3115283e-04 -1.4134655e-03 -2.3262370e-03
  6.2593003e-04  2.0169835e-03  1.5794574e-03  7.8402736e-05
  9.3712704e-05 -3.4790573e-05 -1.1814819e-04  1.4307924e-03
  8.1600524e-02 -1.6500192e-03  6.0116323e-05 -5.3217497e-02
  1.7790271e-03  1.7568077e-03 -5.5492105e-04  2.3361579e-05
  1.7483184e-03 -1.5277042e-03  4.8826304e-03  1.5881580e-04
 -5.4686437e-03 -1.0580178e-03 -1.2507497e-01 -2.6946789e-02
  7.6376513e-02 -1.9504902e-01  4.2645633e-03  7.4878911e-04
 -9.6418586e-04 -1.3189725e-05 -2.5424829e-03 -8.7061383e-02
 -1.2980889e-01 -8.4075291e-05 -1.7269978e-03  1.9953164e-05
 -3.9144019e-03 -2.7789467e-04 -6.0198266e-02  1.0186159e-01
 -4.7621824e-04  6.4609433e-04 -2.1728075e-01  2.1967823e-03
 -2.1688636e-01  1.5969490e-01  3.0474762e-02 -1.9221749e-03
  3.4561461e-05  1.8366803e-03  8.6114707e-04 -1.4498405e-03
 -3.4596482e-03 -1.0034884e-03  8.4473286e-06 -5.7199906e-04]
[-5.01149967e-02  8.08331242e-04 -1.55168632e-03  4.86725084e-02
  9.03973356e-04  3.71895032e-03  1.37993324e-04 -1.65383925e-03
  6.76735828e-04 -8.85851332e-04 -8.12993385e-04  7.91432685e-05
  7.18043302e-04  5.93930163e-05  1.91504776e-04  8.65819340e-04
 -5.88784926e-02 -1.49011542e-03  3.95970674e-05  1.74367175e-01
 -3.07920564e-04 -5.65395458e-04 -1.19695673e-03  1.13617039e-04
 -4.97736386e-04 -8.95368576e-04  3.60720069e-03 -4.02680977e-04
 -1.14756033e-01 -6.22254971e-04  5.77269457e-02 -3.02768648e-01
 -1.73181415e-01  1.20458946e-01  5.23255719e-03  1.20275901e-04
  4.40038246e-04  5.94589510e-04 -8.48163152e-04  1.02708004e-01
  1.78366587e-01 -4.46525301e-05 -1.51128421e-04  8.79889703e-05
 -2.23938073e-03  8.53966048e-04 -4.37615424e-01  2.15614036e-01
  9.38612327e-04  1.00392639e-03 -2.76922323e-02 -1.67408970e-03
  1.14640579e-01  1.54089659e-01  1.85036361e-01  1.42431105e-04
  8.83350032e-04  1.29013937e-02 -8.63529393e-04  2.21426482e-04
 -2.12674518e-03 -1.25699979e-03  5.49781427e-04  7.21776916e-04]
[-7.2451338e-02  1.3960735e-03  1.3758993e-04  2.2000928e-01
  7.0755306e-04  3.2037038e-02 -2.2798176e-03 -5.0132261e-03
  8.7229110e-04  3.0704981e-03 -2.9011662e-04  3.6654179e-03
 -4.1866656e-03  3.4575907e-05 -3.8224825e-04  1.2652220e-03
  6.5057591e-02  7.9191802e-04  1.2217155e-04  1.3381064e-01
  2.1818320e-04 -5.8577413e-04 -3.7448044e-05  5.8538622e-05
  6.6680665e-04 -3.0078582e-04 -1.5467129e-05 -1.1869678e-03
 -2.2256015e-02  1.1928013e-03  1.6802667e-01 -1.3226950e-01
  1.4245357e-01  1.7514291e-01  2.3946145e-01  2.1615210e-03
  9.9706533e-04 -4.1487454e-03 -4.8970254e-03 -2.0960732e-03
 -4.0382557e-02 -3.6727073e-05 -2.9527582e-03  2.6297701e-05
  6.8945019e-04 -4.5778826e-03 -3.7992799e-01 -1.7802941e-02
 -1.1862051e-03  1.8045556e-03  1.6330434e-02  3.6484492e-03
  1.0201969e-01 -1.3461523e-01  1.4766197e-01 -9.1403525e-04
  2.7076571e-04  5.4090675e-02 -2.1438780e-03 -7.3165778e-04
 -4.4974959e-03  1.7697757e-04  2.9315590e-04 -1.1775098e-03]
[-1.84969231e-01  3.03362240e-03  2.71483045e-03 -3.14568698e-01
  2.22458458e-03 -2.74542961e-02 -1.30667363e-03 -1.65066973e-04
  2.96591781e-03  1.98696647e-03 -3.26690060e-04  3.07214004e-03
 -2.85485107e-03  3.21053012e-05 -7.16072624e-04  1.60254724e-03
  3.18672247e-02  7.65836518e-03  1.07750575e-05 -7.41142258e-02
 -9.91296722e-04 -8.09832942e-04 -3.51098046e-04  1.12368725e-04
 -9.62764141e-04 -2.64148170e-04 -9.00424365e-03 -2.78855837e-03
  1.57920308e-02  6.26207562e-03 -5.58108687e-02  2.36470141e-02
  7.59766176e-02 -1.39649455e-02  4.39157300e-02  2.49858713e-03
  1.34488591e-03 -2.46990658e-03 -1.15617306e-03 -3.51139665e-01
 -1.61248326e-01  3.65480696e-06 -1.71241397e-03 -1.72596956e-05
  7.84459058e-03 -2.34969868e-03  2.91352738e-02 -1.52989820e-01
 -5.38759213e-03  3.59798619e-03 -1.21304207e-01  1.31153688e-03
  5.93467429e-02  1.49343312e-02  7.45446384e-02 -1.94943510e-04
  1.40645704e-03  2.70873699e-02 -3.29617341e-03  1.32267713e-04
 -9.04127606e-04  1.64736819e-04  5.69402182e-04 -4.74723894e-03]
[-2.77850777e-02 -2.11789599e-03 -2.57183448e-04  2.70384382e-02
 -2.12390791e-03  1.57840550e-01  8.05284013e-04 -4.58557298e-03
  6.07795955e-04  4.94037289e-03 -1.96579751e-03 -1.85293052e-03
  1.03055274e-04  7.62108102e-05  4.24037920e-04  3.35794903e-04
 -1.68093681e-01  6.14665216e-04 -8.63030655e-05 -1.28245458e-01
 -9.06093861e-04 -8.97480990e-04 -2.10747137e-04 -2.67166906e-05
 -3.09628376e-04  1.44187052e-05 -3.11418716e-03  6.34310127e-04
  1.49436042e-01  3.94322851e-04  2.34956324e-01 -4.39941473e-02
  1.57579988e-01 -3.64876032e-01 -9.74745601e-02 -4.57750721e-04
  7.60247349e-04 -4.88351972e-04 -6.57232478e-03 -1.58520937e-01
  5.83423190e-02  5.63300600e-05  9.20018472e-04  6.75471529e-05
  2.79808650e-04 -5.91087621e-03 -5.22388006e-03 -1.28952459e-01
 -6.28424459e-05 -2.58807070e-03  7.64179043e-03  4.84945904e-03
  1.20543085e-01  9.62649286e-02  2.67210491e-02  6.62345381e-04
  4.19033720e-04 -2.31841832e-01  1.72979920e-03  7.11549656e-05
 -5.59954997e-03 -1.51589236e-04  4.78010537e-04 -1.29379652e-04]
[-1.5552010e-01 -1.2177741e-03 -2.4864459e-03  1.1151214e-01
 -1.5513941e-03  1.3034871e-01 -3.0149361e-03 -6.0368626e-04
 -1.5397680e-04 -9.5300580e-04 -1.1138140e-05 -8.9578860e-04
  1.2940937e-03  7.7412769e-05  2.9962091e-04  4.3820566e-04
 -2.4813294e-01 -1.9047852e-03  6.7334746e-05 -2.7364703e-02
 -7.9167847e-05 -5.6251936e-04  3.1137952e-04 -3.2965570e-05
  2.7256201e-03 -2.9874206e-04  2.6868500e-03 -1.2303829e-04
 -2.5578240e-01 -1.5446829e-03  1.8821022e-01 -4.0410325e-02
  2.5947869e-01  2.1416992e-01 -1.3334700e-02  2.7542210e-03
  7.9668238e-04  1.6990494e-03  2.1220483e-03 -1.9105279e-01
 -3.1521082e-02  2.3196553e-05 -2.8160671e-04  6.5102744e-05
 -3.3243422e-03  2.5677788e-03 -6.9366217e-02  1.6414644e-01
 -1.1221741e-04 -1.3746826e-04 -1.9823489e-01  1.1426427e-03
 -1.3270241e-01 -9.3744352e-02  8.6980455e-02 -2.5450068e-03
 -3.8222451e-04  7.5748041e-02  7.7537558e-04 -2.7951545e-03
  2.2355248e-03  4.8876609e-06  2.7343913e-03 -1.3154771e-04]
[-7.9760991e-02  8.3188422e-04  3.3229108e-03  1.0498355e-01
  1.9133225e-04 -2.5570926e-01 -2.1768925e-03  4.1401912e-03
  2.6958408e-03 -2.7213413e-03  6.0963194e-04  1.7103972e-03
 -1.1032857e-03 -1.7501615e-04 -2.0880208e-03  2.3635970e-03
  1.4576215e-01  6.8037435e-03 -5.0642266e-05 -6.9758430e-02
 -1.0045154e-03 -8.6946279e-04 -1.9303973e-04  1.3449608e-04
  1.3047055e-03 -1.1226338e-04 -4.7690317e-04 -7.9108076e-04
  1.1529480e-01  5.1669907e-03  4.5492288e-02  6.7358099e-02
  2.5399750e-02  1.2997019e-01  1.3151431e-01  1.6834999e-03
 -1.1129107e-03 -1.0596479e-03  3.0160637e-03  2.8845361e-01
 -4.1882165e-02 -1.4153028e-04 -2.1214986e-03 -1.2656006e-04
  5.0848043e-03  1.6017017e-03 -1.1572746e-01 -1.5614623e-01
 -6.1487141e-03  1.7472712e-03  2.3952618e-01 -2.9476504e-03
 -3.0240563e-01  2.8744666e-02 -1.5642056e-01 -1.7194552e-03
  7.0416700e-04  2.6046994e-01 -1.1635185e-03 -1.3557121e-03
  1.5428736e-03  3.2274428e-04  5.2098051e-04 -5.9179948e-03]
[-1.4897804e-01  6.3285226e-04 -1.1027232e-03 -5.3572003e-02
 -4.1710693e-04  1.1567406e-01 -2.3867930e-03 -4.1908302e-04
  7.7392778e-04  1.7956799e-03  7.0006427e-05  2.2229969e-03
 -1.5254269e-03 -6.2120547e-05 -1.5661515e-03  3.5653502e-04
 -2.0296058e-01  1.3573532e-03  2.1124994e-05  1.1694685e-01
 -7.5777841e-04 -3.4517329e-04  2.9469994e-04  4.3848573e-05
  1.1420962e-03  2.7370240e-04 -2.2846924e-03 -1.0601034e-03
 -8.7459743e-02  1.9285225e-03 -4.8754856e-02  5.3603076e-03
  9.7162038e-02 -3.3328179e-02  1.0207657e-01  1.7456902e-03
 -1.1822268e-03 -2.0985124e-03 -3.3444576e-03 -3.2229438e-01
  2.7726597e-01 -7.0199967e-05 -3.4126430e-03 -3.7028985e-05
  1.3231577e-03 -2.8913899e-03  5.4312428e-03  8.2656488e-02
 -2.0526645e-03  2.4410570e-03 -2.7864712e-01  7.7416591e-04
 -2.7849957e-01  9.8367907e-02 -1.5574621e-01 -2.2078692e-03
 -2.9669926e-04  7.7867314e-02 -2.4788675e-04 -9.7658345e-04
 -3.5865949e-03  7.5011246e-04  6.3148129e-04 -2.1780012e-03]
[-1.5944901e-01 -1.7092023e-03  1.3895618e-03 -2.1700147e-01
 -1.3438439e-03 -1.1989181e-01  1.3199549e-03  4.1030189e-03
  2.0389459e-03 -1.3856149e-03 -5.3105228e-05 -7.3585717e-04
  1.0013463e-03  8.7568857e-05 -2.2406374e-04  1.0858799e-03
 -1.3476935e-01  4.4139259e-04 -6.0288989e-05  3.1620193e-02
 -9.2371262e-04 -1.5987090e-03 -9.9435844e-04 -9.7909333e-06
 -6.3403440e-04 -4.0288782e-04 -1.2461960e-03  1.1997018e-03
  2.2639401e-01  1.0495546e-03  5.7662088e-02  8.6912416e-02
 -5.8343951e-02  6.2469542e-02 -1.0933483e-01 -6.7676633e-04
  1.5310376e-03 -2.0807332e-05  2.2327730e-03  1.5036390e-03
 -1.7913483e-01  4.1729840e-05  4.9738353e-04  7.2672796e-05
  5.7279505e-04 -1.9483794e-04  1.3299843e-02  1.6933461e-01
  3.8695667e-05 -2.2270337e-03  1.0045920e-01 -3.1552413e-03
 -5.7222985e-02  6.4475872e-02 -9.2694551e-02  1.8537778e-04
  1.5145584e-03  8.8095732e-02  9.2177367e-04  9.7819197e-04
  1.2796590e-03 -6.0558785e-04 -2.2873090e-04 -4.2895199e-04]
[-1.10214494e-01  2.71115080e-03 -2.07291776e-03 -5.13779186e-02
  1.20376528e-03  7.01150969e-02 -2.29139300e-03 -1.96200889e-03
  2.64322443e-06  2.62237433e-03  2.83814943e-03  2.72706500e-03
 -2.45998567e-03 -2.79016356e-04 -1.68635696e-03  9.25190339e-04
  3.77775659e-03  1.56139606e-03  7.03093465e-05 -9.62506384e-02
  2.60441587e-03  2.70289741e-03 -5.23567069e-05  1.59620522e-05
  9.24234162e-04 -5.83228830e-04 -3.41407326e-03 -2.53549707e-03
  1.41563177e-01  3.05704918e-04 -4.92360629e-02  8.36697146e-02
 -6.45540655e-02 -6.04257658e-02  1.31706923e-01  2.53309635e-03
 -3.93202994e-03 -2.35495972e-03 -2.35614181e-03  8.48433643e-04
  1.63836524e-01 -2.69472512e-04 -4.20412002e-03 -1.49136380e-04
 -5.89624862e-04 -2.00011767e-03 -1.05625905e-01  1.07648350e-01
 -3.84875736e-03  4.82504303e-03  1.06832765e-01  2.58346158e-03
  1.37710378e-01  1.57001734e-01  1.47713348e-01 -1.96188106e-03
 -4.88957856e-04  2.94476710e-02 -2.10011867e-03 -2.62701767e-04
 -8.76023609e-04 -1.14254501e-04 -1.04370120e-04 -3.38133168e-03]
[-6.1831545e-02  1.8579005e-03  3.5745909e-03  2.9074522e-02
  8.9767942e-04  5.4414220e-02  9.6040079e-04  4.5734923e-03
  2.1031068e-03 -3.9281668e-03  4.3333357e-04  1.3034212e-04
  3.3308547e-03 -9.6228345e-05 -1.4005029e-03  6.7584019e-04
  2.3648001e-03  3.6676324e-03 -6.5450855e-05 -2.0501553e-01
  1.7964140e-03  2.4451376e-03  3.9233270e-04  9.0596899e-05
 -1.9214198e-03  9.6411335e-05 -1.4754116e-03 -1.0090369e-03
 -1.9132881e-01  3.1146244e-03 -3.7216250e-02 -8.8616855e-02
  1.9770999e-02  6.7874394e-02  8.1776090e-02 -8.5938303e-04
 -1.3918268e-03  2.9767917e-03  4.6478151e-03 -3.3778377e-02
 -3.7310068e-02 -9.1676040e-05 -2.6763786e-04 -4.4442175e-05
  4.6494394e-03  3.9727082e-03 -9.2620708e-02  2.8183725e-01
 -3.7900084e-03  2.6628231e-03 -1.0961016e-01 -3.5013140e-03
  1.1029376e-01  5.2810002e-02  3.5736345e-02 -3.3377728e-04
  2.7292850e-04 -1.4282666e-01 -2.6212152e-04  4.8367132e-04
  3.6143749e-03  8.5510581e-04  5.0985167e-04 -3.3478288e-03]
[ 7.09997714e-02  2.56464875e-04 -2.38251081e-03  2.44937688e-02
 -8.32668331e-04  1.46930460e-02 -8.94898025e-04 -4.26045479e-03
 -3.08510102e-03  1.90351007e-03 -3.20219086e-04 -7.86175835e-04
  2.15377985e-03 -9.78511616e-06  6.88540400e-04 -2.39148852e-03
 -1.97922792e-02 -1.02370735e-02  9.05743655e-05  1.26613393e-01
 -1.24903931e-03 -1.37681534e-04 -1.06262069e-05 -2.04390424e-04
  6.03898021e-04 -4.46622260e-04  8.91771074e-03  2.29949350e-04
 -4.95395856e-04 -7.56902061e-03  1.49620147e-02 -1.29487932e-01
 -4.26932365e-01 -1.02720922e-02  1.28602132e-01  8.70339340e-04
 -1.91718619e-03  2.02958263e-03 -8.31581838e-03  1.65261328e-01
  1.24520756e-01 -2.65383369e-05  1.76005822e-04  5.95225538e-05
 -8.88063386e-03 -9.69022745e-04 -2.26779938e-01  7.56569654e-02
  5.32314740e-03  1.46164780e-03  1.86337113e-01 -1.03827612e-03
  4.91303876e-02  5.72059266e-02 -9.84464213e-02 -2.37593567e-03
 -1.10224087e-03  4.80836555e-02  7.11212517e-04 -1.83934649e-03
 -8.15661438e-03 -7.91304512e-04  2.62485817e-03  5.24150487e-03]
[ 1.46611035e-01 -5.53706195e-04 -3.38509795e-03 -1.70129880e-01
 -7.86266537e-05 -2.25778986e-02  1.16097135e-03 -4.03082988e-04
 -1.66167971e-04  7.42813063e-05 -1.48528954e-03 -2.79043196e-03
  1.40070566e-03  1.72556975e-04  9.86721134e-04 -4.95719374e-04
  2.56360918e-02 -4.12084348e-03  1.99822200e-04 -2.22531021e-01
 -2.65893620e-03 -1.78004289e-03 -5.78125764e-04 -1.18999582e-04
 -2.80093227e-04 -1.54345893e-04 -1.59401225e-03 -1.10867422e-03
  4.15108114e-01 -2.15347600e-03 -1.44603044e-01  3.19502316e-02
  2.34862000e-01 -1.14822857e-01 -2.32116371e-01 -8.50150594e-04
  1.72985462e-03  1.27533393e-03 -3.46583576e-04 -6.39678538e-02
 -1.15875006e-01  1.18032222e-04  2.26921309e-03  1.06995663e-04
 -3.32791521e-03  8.89107410e-04 -1.24164864e-01 -1.39890715e-01
  2.57509388e-03 -7.68570288e-04  9.34705213e-02 -7.51308398e-04
 -1.49827018e-01  8.19831491e-02 -8.84731486e-02  9.97001538e-04
 -9.60631587e-05  6.61054924e-02 -8.53389502e-05  1.02323247e-03
  4.27161052e-04 -2.33613449e-04 -1.75839348e-04  2.03560852e-03]
[-8.6851291e-02 -7.2770845e-04 -3.9562397e-03 -1.9718042e-01
 -6.4931979e-04  6.0465634e-02  1.5532059e-03 -2.2786853e-03
 -6.3866557e-04  2.3847108e-03 -2.5713299e-03 -1.8929713e-03
  1.6867506e-03  2.9484904e-04  1.8969829e-03 -1.0809430e-03
 -7.2529137e-02 -2.2695132e-03 -1.6623038e-04 -2.0978238e-02
 -3.1623140e-03 -4.7193049e-03  1.1127376e-04 -4.3512908e-05
 -1.0670006e-03 -4.5264550e-04  3.5578031e-03  6.6660711e-04
  2.4536285e-01 -1.8630666e-03 -1.4344484e-01  3.8253635e-02
  3.8374048e-01  1.6447149e-01 -2.6860926e-01 -4.6492837e-04
  2.3659146e-03  1.2747719e-03 -3.6841293e-03  2.2416642e-02
 -1.5423170e-01  2.3796763e-04  2.3134321e-03  2.3628610e-04
 -2.2463631e-03 -2.9060871e-03 -6.4994954e-02 -8.3420731e-02
  1.2686821e-03 -2.2087374e-03 -1.3840842e-01  1.9317772e-03
 -3.0572647e-02  9.7467937e-02  6.4693466e-02  1.4635368e-03
 -1.5936172e-04 -5.9137132e-02  3.0120533e-05 -4.8593816e-04
 -4.3857340e-03 -7.5603783e-04  1.6124595e-03  1.5270236e-03]
[-3.4997258e-02  5.5259850e-04  4.1760574e-04  4.9417000e-02
  4.7009494e-04 -5.5274915e-02 -1.5410522e-03 -1.7049919e-04
  1.2274352e-03  2.9701227e-03 -8.5599988e-04  3.1243176e-03
 -5.4003117e-03 -5.2059400e-05 -1.5469972e-03  2.7277793e-03
 -9.5956109e-02  3.0849762e-03 -4.8724276e-05  9.6637450e-02
 -2.2089009e-03 -2.6918871e-03  2.6164483e-04  1.4834091e-04
  1.9966901e-04  4.4071651e-04  2.3917786e-03 -8.6742768e-04
 -8.4538661e-02  3.5358111e-03 -1.3630159e-01 -7.8319125e-02
  2.1646243e-01 -2.7053794e-02  1.1903605e-01  2.2706864e-03
  9.6205785e-04 -5.7645948e-03 -1.2884608e-03 -1.6791786e-01
  5.4602746e-02 -3.2650867e-05 -2.6935781e-03 -7.4787655e-05
  2.2888042e-03 -5.0860974e-03 -2.1833194e-02  9.6755266e-02
 -3.2025361e-03  2.5260611e-04  2.7862102e-01  1.7165204e-03
 -1.8283524e-02  1.3607734e-01  3.7162520e-02  1.4508551e-04
  1.8858937e-04 -3.6716402e-01 -2.2221140e-03  5.0941930e-04
  1.7477217e-04  7.5809506e-04 -5.2839506e-04 -3.5247311e-03]
[ 1.03742830e-01  1.13617792e-03  2.35082628e-03 -1.68273553e-01
  8.35993444e-04 -4.35994752e-02  2.40094983e-03  1.92721630e-03
  1.84578425e-03 -1.70508341e-03  5.61421271e-04 -7.97915040e-04
  2.33232253e-03 -1.29672362e-05 -1.08127831e-03 -2.51028396e-04
 -8.31957832e-02  2.77242297e-03 -2.67905270e-04 -1.15200154e-01
  2.70585879e-03  3.28618567e-03  3.64762673e-05  1.15704257e-04
 -2.29228893e-03  7.00631994e-04 -3.04172188e-03 -6.96750474e-04
  1.52072892e-01  2.87174736e-03  1.67051524e-01  9.12121981e-02
  5.88025264e-02  8.01203400e-02 -1.49133459e-01 -2.00252072e-03
 -6.97821612e-04  2.30054790e-03  1.69197691e-03  1.43774897e-01
 -1.89353704e-01 -6.78577999e-06  1.05074502e-03  2.07267367e-05
  3.76970787e-03  1.63527322e-03  3.07568628e-02  1.95210904e-01
 -3.25953774e-03  1.19917816e-03 -1.24217868e-01 -2.19859695e-03
  2.61712056e-02 -1.29513279e-01  4.64266203e-02  1.03265804e-03
  7.27154606e-04 -3.13792974e-02  9.69476387e-05  1.88766420e-03
  2.62864353e-03  7.91075057e-04 -6.89937035e-04 -3.00845969e-03]
[-5.65355159e-02 -1.19798220e-04 -3.45523847e-04 -1.07078306e-01
  1.75308043e-04  1.79185808e-01  1.73751917e-03 -2.83978065e-03
  1.08591351e-03  3.48416419e-04 -1.04792809e-04 -1.40955369e-03
  2.65651243e-03  5.33340244e-05  1.50457738e-04  5.42361755e-04
  1.35325685e-01  3.71054863e-03  4.86684403e-05  1.05946615e-01
  5.20706410e-04  3.56552220e-04 -2.72532168e-04  5.16533837e-05
 -1.68841192e-03 -5.43914153e-04 -7.14793932e-05  1.18010445e-03
  5.07001430e-02  2.45854282e-03 -9.08120871e-02  8.28092173e-02
  2.10518196e-01 -1.46739349e-01 -1.98230445e-01 -1.61964528e-03
  7.23063364e-04  2.37311795e-03 -2.83399131e-03 -7.78729916e-02
 -1.11990184e-01  2.91763536e-05  2.23032688e-03  2.29696161e-05
  2.69695884e-03  6.34330325e-04 -1.88591406e-01 -4.68407124e-02
 -2.96700560e-03 -1.06041133e-03  1.24742255e-01  2.72309617e-03
 -1.73195735e-01  9.84005481e-02 -2.75548976e-02  9.82545316e-04
 -5.07433870e-05 -2.09381804e-01  1.09555013e-03  1.36804563e-04
 -3.63245211e-03  2.66197079e-04  2.77716696e-04 -2.34069466e-03]
[-3.3270165e-01  2.4604755e-03  6.0293046e-03  2.3255063e-02
  1.1061614e-03  2.5627805e-02 -3.9712749e-03 -5.6294510e-03
  1.9553897e-03  5.0190166e-03  1.4101235e-03  2.9732431e-03
 -4.2610639e-03 -2.5421550e-04 -2.8122033e-03  1.7810869e-03
 -3.8771880e-01  4.5251893e-03 -1.5675028e-04 -7.5998552e-02
  1.5412204e-03  1.5247213e-03  3.4889209e-04  1.0198497e-04
  1.0692043e-03  1.1768941e-03  3.2789193e-03 -2.5601508e-03
  6.6539876e-02  4.4126236e-03  6.5589130e-02 -2.1870483e-02
 -2.7643649e-03 -1.3816740e-01  3.3874385e-02  3.3279019e-03
 -2.7261765e-03 -4.0716561e-03 -5.2384571e-03 -1.3856699e-01
  5.0928228e-02 -1.8025211e-04 -3.6289573e-03 -1.6539656e-04
  4.8678415e-03 -5.6251939e-03 -4.6398003e-02  3.0932525e-02
 -5.0295768e-03  4.1375021e-03 -2.7625728e-01  6.6997600e-03
 -3.1249031e-01 -6.1422978e-03 -8.3985683e-03 -2.4903938e-03
  4.3213868e-04 -1.1791166e-02 -2.0526005e-03 -1.5895155e-03
 -5.4428731e-03  9.3724881e-04  2.8767012e-04 -5.3219898e-03]
[ 3.52376074e-01  3.15384800e-03  4.71061468e-03 -1.91892892e-01
  3.56055424e-03 -3.36997986e-01  5.23216266e-04 -1.31740735e-03
  2.45428481e-03  4.43722733e-04  4.51518875e-03  2.13882234e-03
 -2.46632169e-03 -1.78076327e-04 -2.60439399e-03  4.01206920e-03
  1.19168228e-02  4.93162684e-03 -1.00172081e-04  8.46274644e-02
  3.70955328e-03  1.98241277e-03  2.44268274e-04  1.68575571e-04
 -1.91761367e-03 -6.99635595e-04  5.54271694e-03 -6.58573874e-04
  1.64563835e-01  4.81069135e-03 -4.02584225e-02  2.51152039e-01
  1.11731194e-01 -1.59512192e-01 -1.14885151e-01 -5.18535962e-04
 -1.06158492e-03 -1.44341053e-03  4.48721083e-04  5.50573096e-02
  2.08575621e-01 -1.61492775e-04 -2.94257188e-06 -1.01712270e-04
  4.80612228e-03  2.82515655e-04 -1.86793618e-02  8.01199004e-02
 -4.95271804e-03  2.30031880e-03  7.24485442e-02  2.39082077e-03
 -1.70732394e-01  1.71673112e-02 -9.62436050e-02  2.03894055e-03
  6.12485921e-04 -6.93177998e-01 -2.34439154e-03  1.80531759e-03
  1.30485604e-03  5.13881911e-04 -2.65252613e-03 -4.85283695e-03]
[-3.03688645e-02 -4.40237578e-04  7.16118724e-04 -1.27823660e-02
 -1.62722438e-03 -4.84925285e-02 -7.30769383e-03 -3.76527035e-03
  1.77251501e-03  6.23268029e-03  2.78878654e-03  7.18481094e-03
 -1.13732498e-02 -3.13267192e-05 -1.06974598e-03  1.45591400e-03
 -1.69716492e-01  6.81878859e-03 -1.03823822e-05 -2.24295929e-02
 -4.76559653e-04 -1.12822978e-03 -1.45897313e-04  7.06979699e-05
  6.32153312e-03 -1.09767454e-04  2.04755273e-03  7.99874833e-05
 -1.23412810e-01  4.78058727e-03  2.18175836e-02  1.32253408e-01
 -2.19674170e-01 -4.16495875e-02 -9.23532620e-02  5.44834230e-03
  2.08321857e-04 -1.08873621e-02 -5.46683371e-03 -4.94966023e-02
  1.98364425e-02 -5.12670267e-05 -8.55399854e-03 -3.13952914e-05
  4.94662253e-03 -1.02118794e-02  2.19966576e-01 -2.32768860e-02
 -4.54836991e-03  1.95781165e-03 -3.49530913e-02  5.80937183e-03
 -4.70718462e-03 -6.59707859e-02 -1.27643645e-01 -5.18809864e-03
  2.19483336e-04 -1.44340873e-01 -1.10739924e-03 -4.14044410e-03
 -3.40154045e-03  4.06473031e-04 -1.56698021e-04 -4.28887922e-03]
[-9.1526724e-02  9.8720100e-04  1.7660290e-03  5.8364827e-02
  3.1192997e-04  1.3060233e-01 -1.4685610e-03  1.8575744e-03
  1.6941706e-03 -1.3926993e-03  1.9138343e-04  2.4897789e-03
 -1.3618518e-03 -6.1870058e-05 -5.9422496e-04  2.4611412e-03
 -9.9958085e-02  4.1069118e-03  3.5405843e-05 -4.5652473e-03
 -8.4071251e-04 -1.0179604e-03 -6.0727959e-04  1.0578687e-04
  1.5667399e-03 -1.2810045e-03  2.8636728e-03 -8.1025343e-04
 -3.0594284e-02  3.4506298e-03 -5.8171484e-03  4.2047851e-02
 -9.3911268e-02 -2.8299969e-01 -1.1156487e-02  1.0942785e-03
  1.1946957e-03 -1.2572429e-03  2.1456827e-03 -4.2056784e-02
 -1.7126653e-01 -4.5164597e-05 -2.6888286e-03 -8.2954692e-05
  2.1243428e-03  1.6145360e-03 -2.0035703e-02  3.7629243e-02
 -4.2876843e-03  1.8633229e-03 -9.6424771e-03 -1.6519879e-03
  1.9020038e-02 -1.2547193e-01  8.0411687e-02 -1.3592397e-03
  7.7253598e-04 -1.6492249e-01 -1.7606185e-03 -1.1659560e-03
  1.6312377e-03 -7.0532359e-04  3.3407233e-04 -4.1340631e-03]
[ 5.8097087e-02  6.8747654e-04 -4.8571844e-03 -1.1751438e-01
  2.3129042e-03 -4.5580432e-02  2.8742428e-03  2.2834451e-03
  7.4720307e-04 -4.8180651e-03  1.4208530e-03 -5.1667960e-03
  6.0570170e-03  2.9764444e-04  2.3854966e-03  2.5777446e-04
 -2.8396389e-01 -3.1728782e-03  4.9523485e-05 -2.7408051e-01
  7.4456359e-04  8.5295149e-04 -1.1320295e-03 -4.3004737e-05
 -1.4709164e-03 -2.2215701e-03  4.4498127e-03  1.3646935e-04
 -1.5693231e-01 -2.3266573e-03  1.8453049e-02 -2.8065318e-02
  1.5384668e-01  2.0813644e-02 -4.1520262e-01 -3.3589248e-03
  4.1668084e-03  7.1352106e-03  6.0505611e-03  8.8695355e-02
  4.0681636e-01  2.1886363e-04  5.9776688e-03  1.7774923e-04
 -5.1654843e-03  8.1933932e-03 -4.2780597e-02 -2.5830904e-01
  2.3045018e-03 -9.5998129e-04  2.9491788e-01 -3.5591787e-03
 -5.1594987e-03  3.4188846e-01  1.6269563e-01  3.1682544e-03
  1.1204479e-03 -6.1211509e-01  3.4517312e-04  1.2699915e-03
  6.5584732e-03 -1.9724837e-03 -1.7977668e-03  1.9140120e-03]
[-5.5753432e-02  1.7545511e-03 -1.2766515e+00 -2.4228095e-01
  1.4370857e-03  5.3681459e-02  8.9317403e-04  2.0166133e-03
 -1.2787987e+00 -1.0345195e-03  7.3902193e-04 -1.4020376e-03
  1.9423477e-04 -1.2788353e+00 -1.2792878e+00 -1.2789081e+00
  7.8251980e-02 -1.2768836e+00 -1.2792265e+00  2.6117471e-01
 -2.8633064e-04  1.8094248e-03 -1.2790570e+00 -1.2786177e+00
  3.3624630e-04 -1.2776226e+00 -1.2848030e+00 -2.6442509e-03
 -7.1938497e-01 -1.2776976e+00 -4.1618523e-01  8.3773494e-01
 -6.3408697e-01  2.4407106e-02 -6.9531858e-01 -5.7524530e-04
 -1.2793894e+00  9.7136496e-04  1.5768663e-03  5.0109881e-01
 -1.8969458e-01 -1.2780766e+00  7.3927949e-04 -1.2790737e+00
 -1.2783192e+00  9.2789851e-04  7.0665652e-01  2.9633066e-02
 -1.2797647e+00  1.8857757e-03 -8.0520242e-01 -1.1799603e-03
  5.1625978e-02  2.8102443e-01 -2.8977018e-02  8.0882706e-04
 -1.2780589e+00 -5.2074254e-01 -1.0587777e-03 -2.1274277e-04
  2.4875626e-03 -1.2791860e+00 -1.6659308e-03 -1.2812519e+00]
layer 3 Activation
swish
layer 4 Dense
64 64
[ 2.6247606e-06  5.6131708e-04  4.9249497e-06 -1.6015965e-01
  1.6825677e-05 -1.1514430e-33 -5.3582946e-04  1.3962586e-03
 -2.8394953e-07  1.3135961e-04  5.8184913e-04  7.0370384e-06
  3.4736299e-33 -6.1326209e-06 -6.6155830e-04  5.1041236e-33
 -1.4514731e-06  1.6279606e-05  4.0454461e-07 -1.3939078e-01
 -2.7210586e-04 -7.9124133e-05 -6.2243444e-01  1.3229983e-05
 -2.0614336e-05  6.1231846e-04 -3.4234592e-05  1.3533665e-04
  4.6430490e-05 -3.4102668e-05 -1.2783863e-04  6.7129848e-05
 -4.3222350e-05 -3.7086429e-05 -1.2078405e-04 -3.6496195e-04
 -1.5908065e-05 -5.6315776e-06  3.0038234e-05 -1.0872218e-05
  1.4748757e-01 -3.5811037e-05 -7.3423769e-05 -2.2803676e-01
  6.4381165e-04  2.6601815e-06  1.7636473e-01 -9.2116152e-06
 -2.5892159e-01  9.4936884e-05  5.8939803e-04 -2.7413573e-05
  6.3461348e-02  1.6862855e-06  5.9023337e-04  7.8361476e-04
 -4.9320778e-01  1.9935328e-04  2.4298008e-05  4.5784647e-05
  1.2241165e-33 -1.5674818e-06  2.5029399e-04  1.0169195e-05]
[-5.03423462e-06 -5.13894847e-05 -5.11853868e-05 -8.91102973e-05
 -5.87712975e-06 -3.69878114e-33  1.63755903e-04 -4.51091531e-04
  7.10279693e-08 -1.04765813e-05 -6.93642578e-05  5.07253935e-06
 -5.74114967e-33  1.34258585e-07  3.78671306e-04  1.73750408e-33
 -9.58822071e-08 -5.55750830e-06  2.87544435e-06  9.88803804e-05
 -4.77383146e-05  1.07769756e-05  2.01193223e-04 -8.63617061e-06
 -1.08061136e-06  5.58355998e-04  6.51154596e-06  4.93722546e-05
 -5.06249489e-06 -5.83705798e-07  4.83862550e-06  6.30478189e-06
 -2.42206596e-07 -3.72778095e-06  7.01079989e-05  3.36386547e-05
  6.74992916e-05 -5.17382205e-07  1.25844264e-04  6.58526824e-06
 -1.21007126e-03  1.42207209e-05 -5.51444828e-06  1.38889678e-04
  7.09219195e-04 -5.00180377e-08 -8.53674952e-04  4.52850287e-07
  7.24995625e-04 -1.16921125e-04 -1.35506576e-04  3.94103836e-06
 -9.47970431e-04 -3.53100305e-08  8.82650609e-04  3.24630470e-04
  4.32931294e-04  4.69762308e-05 -1.78951086e-06 -2.62904105e-05
 -1.21410346e-33  7.29849546e-07 -3.82067170e-04 -5.65071605e-06]
[-2.56050644e-05  7.67447462e-04  1.58447801e-05 -2.44927201e-02
  7.93682466e-06 -5.45511884e-33 -4.75966750e-04  1.94465421e-04
 -1.08691756e-06  2.29218494e-04  8.89771793e-04 -3.22972915e-06
  2.30595588e-33 -1.00134466e-05 -4.26613056e-04  2.72325399e-33
 -3.26191889e-06  5.17217522e-05 -1.99321676e-06 -1.97705105e-02
 -1.58256895e-04 -4.81794050e-05 -9.59598497e-02 -4.10057623e-08
 -2.63172606e-05  3.93931055e-04 -7.67270685e-05  9.05756388e-05
  1.15782233e-04 -2.72387442e-05 -1.06169071e-04  1.68422575e-05
 -3.20688923e-05 -6.11538053e-05 -9.63507046e-06 -6.95615425e-04
 -4.57142487e-05 -1.71740539e-05  3.71062924e-06 -3.01125165e-05
 -2.97033191e-02 -1.11536268e-04 -3.24896573e-05 -3.07749528e-02
  4.93540894e-04  4.90929187e-06 -3.93924937e-02 -1.61471326e-05
 -3.44582880e-03  9.52911359e-05  4.90682432e-04 -7.51784100e-05
 -3.64346517e-04  3.67617326e-06  4.33339883e-04  8.55746548e-05
 -6.06891885e-02  4.54556975e-05  3.91100402e-05  1.16522664e-04
 -1.96658864e-33 -5.30081343e-06 -9.72170266e-04  2.48681208e-05]
[-1.1192012e-05  3.9449311e-04  1.7485204e-04  3.3473857e-02
  2.1230029e-05 -2.6787138e-33 -9.1528893e-04  2.6492885e-04
  5.8048499e-09  3.9731418e-05  4.1438075e-04 -7.4319423e-06
 -6.6902747e-34 -5.6812469e-06 -4.0455008e-04  4.8974316e-33
 -1.0170648e-06  4.1853182e-06  4.5680526e-06 -7.3957473e-02
  4.5598013e-04  1.5328464e-04 -5.2192611e-01 -2.8272578e-05
 -1.6332631e-05  1.0611012e-03 -1.9627074e-05 -1.5158056e-04
  2.8540398e-06  9.4050874e-06 -1.5165757e-05 -4.2663243e-05
  1.2372783e-05 -2.4431389e-05 -1.2735149e-04 -2.0404883e-05
 -2.2005569e-04 -4.1293570e-06  1.0718748e-04  7.6517281e-06
  3.4825224e-01 -1.6926317e-05  5.9651786e-05 -1.4122799e-01
  1.0370793e-03  2.3158514e-06  3.6280584e-01 -8.5299689e-06
  6.3289255e-02  4.6300096e-04  6.9358648e-04 -1.5943948e-05
  1.3026902e-01  1.2441649e-06  1.2459039e-03 -2.0068809e-03
 -4.4847143e-01  1.9220499e-04  1.0449183e-05  1.4811747e-05
 -2.2598365e-33 -1.1579915e-06 -2.6739456e-04 -7.2877674e-06]
[-1.9011627e-06  3.7871156e-05 -5.6472203e-05 -2.5089880e-04
  1.2319365e-06 -7.6531147e-34  5.7242071e-04 -3.3298845e-04
  2.2726013e-07  1.5291418e-05  1.2763625e-04 -9.2505989e-06
  7.3890399e-34 -3.4210973e-07  6.3471211e-04 -7.4767318e-34
  8.2053020e-08 -8.3571904e-06 -1.1572395e-06 -4.1468971e-05
  2.4516148e-06 -1.9505376e-05  9.2459493e-05 -2.5536729e-06
  9.7971156e-07  2.0688865e-04  6.4020564e-06  2.7515396e-05
  1.2237043e-05 -3.7787117e-07  5.6488178e-05 -3.1177566e-05
 -7.1603040e-08  2.1894348e-06 -1.6560662e-05 -3.5576113e-07
  6.0904058e-05  9.0613662e-07  4.1001844e-05 -9.0677058e-06
 -5.7973771e-04  1.5494902e-06  2.3893632e-05 -9.3727867e-05
  5.5095006e-04 -1.4673769e-07 -2.2825459e-04  5.6107729e-07
  2.0782354e-04 -2.3154056e-04 -6.7436876e-04  1.3762088e-05
 -3.7657667e-04 -1.6457912e-07  8.1930740e-04  6.5829704e-04
  2.0891137e-05 -3.6985359e-05  1.9824415e-06  5.4441080e-07
 -8.1901393e-34  6.7396616e-07  7.6048297e-04  1.4361589e-06]
[ 8.37421030e-05  1.21951045e-03  4.46073362e-04  1.86976403e-01
 -1.44319012e-04 -4.79231561e-33 -7.52697582e-04 -5.22783899e-04
 -6.67485983e-06  1.00411518e-04  1.27267768e-03 -1.74666275e-04
 -1.38088187e-33 -1.31083550e-06 -1.42636665e-04 -6.19307270e-34
 -8.16642114e-06  8.01118731e-05  1.09141074e-05 -3.96928117e-02
  4.14337876e-04  2.65060866e-04  1.66484371e-01 -3.40963088e-05
 -4.79371056e-06 -2.48734397e-03 -1.05335865e-04 -4.94290784e-04
  3.05890571e-04 -9.33857154e-06  3.18326551e-04 -2.95788166e-04
 -1.09361754e-05  1.61496428e-04  1.34256508e-04 -4.40614909e-04
 -6.85946434e-04 -6.84524639e-05 -4.05936298e-04 -3.10761498e-05
 -3.98149490e-01 -3.01020977e-04  3.35502060e-04  5.18763326e-02
 -2.57194997e-03  5.47634136e-06 -5.77085137e-01 -1.27525764e-05
  5.29539250e-02  6.92024303e-04  9.99358599e-04 -1.05184568e-04
 -1.87343240e-01  6.27395639e-06 -3.37051018e-03 -1.89894007e-03
  3.11610043e-01 -7.89096113e-04  1.52910507e-05  1.46903621e-04
 -4.95098715e-33 -1.18612325e-05 -3.72872571e-03  7.18538504e-05]
[ 9.8626797e-06  3.1454946e-04  6.2832660e-05  8.6244877e-04
 -1.8288124e-06  5.7523286e-33  1.3999194e-03  4.6009372e-06
  8.0666649e-07  2.0322697e-05 -1.8193500e-04 -5.6161622e-05
  4.0213427e-33  1.2750058e-07  1.4021362e-03  3.2513351e-33
  7.6162837e-07 -2.2587796e-05  5.9297463e-07  1.1027006e-03
  1.6280418e-04  2.1943240e-04  8.5693080e-04  2.1140708e-05
  5.3254541e-07 -8.0434453e-05  2.3732922e-05 -5.9504106e-05
  3.8083468e-05  6.8752856e-06  1.4784229e-04 -1.3974625e-04
  8.6352329e-06  8.3803707e-06 -9.5214840e-05 -1.2538720e-05
 -3.3686774e-05  4.5256738e-06  1.8301575e-05 -5.8140060e-05
  3.6044298e-03  8.0772970e-06  1.9783233e-04  8.0949860e-04
 -3.0397368e-04 -7.7547924e-09  3.4576687e-03 -3.4294633e-06
  8.9594250e-04 -8.8753746e-05 -1.7948019e-03 -3.1502814e-06
  3.1317694e-03 -7.1572242e-07  1.6677927e-04  1.2357257e-03
  1.8481159e-04 -3.0829557e-04  5.3399208e-06  9.6783824e-06
  4.6100244e-33  3.8059002e-06  4.1483468e-03  1.8810422e-05]
[ 2.0326162e-05  2.3768021e-04 -1.0880916e-04 -1.4439438e-03
 -1.3659482e-05  5.4250828e-33  5.2956218e-04 -5.9269427e-04
  1.5253794e-07  4.6477653e-05 -5.3953714e-05 -7.3882286e-05
 -1.6796169e-33 -6.5699624e-07  8.1935513e-04  3.8782145e-33
 -4.1525186e-07  1.3489192e-05  1.2487259e-06 -1.6119693e-03
  1.7913780e-04  5.8318161e-05 -1.1908491e-03 -1.1926488e-05
  2.3196151e-07 -7.9596217e-04 -9.9816134e-06 -2.3721057e-04
 -2.7027870e-06  1.8407818e-06  1.0188592e-04 -1.5976818e-04
  5.2463220e-06  4.4942968e-05 -1.1878346e-06 -8.6003885e-05
 -7.7772238e-05 -3.4958755e-06 -1.4915271e-04 -5.3435455e-05
 -1.4321733e-04 -4.3261462e-06  1.9516738e-04 -1.7445360e-03
 -9.9932437e-04  1.2358969e-07  2.9516322e-04 -2.1350504e-06
 -1.5751325e-04 -1.8234922e-04 -8.0801494e-04  2.0718098e-06
  3.8186967e-04  2.7814525e-07 -1.6056356e-03  8.9292771e-05
 -1.8702161e-03 -2.5497715e-04  1.6746209e-05 -1.3802555e-05
 -2.6921230e-33  2.2116872e-06  1.6318026e-03  4.5221655e-05]
[-2.53095695e-05  7.67863239e-04  1.67726757e-05 -2.44557839e-02
  7.88175748e-06 -5.20339995e-33 -4.75953042e-04  1.89316008e-04
 -1.08974814e-06  2.29408266e-04  8.90693394e-04 -3.66073573e-06
  2.47682464e-33 -1.00171246e-05 -4.25017643e-04  3.37305275e-33
 -3.26604959e-06  5.18341549e-05 -1.97969075e-06 -1.97928678e-02
 -1.60849493e-04 -4.68344442e-05 -9.60496813e-02 -4.77354547e-08
 -2.63472994e-05  3.93522263e-04 -7.68347454e-05  9.10746967e-05
  1.16001414e-04 -2.70481960e-05 -1.05471219e-04  1.62354663e-05
 -3.18662387e-05 -6.09005692e-05 -9.15342935e-06 -6.96346164e-04
 -4.71590283e-05 -1.72018117e-05  3.70807720e-06 -3.01954351e-05
 -2.97319125e-02 -1.11721376e-04 -3.15572652e-05 -3.07918489e-02
  4.93822678e-04  4.91316814e-06 -3.94240916e-02 -1.61533389e-05
 -3.40699847e-03  9.64679348e-05  4.90339648e-04 -7.52751803e-05
 -3.90889501e-04  3.67929601e-06  4.34085989e-04  8.31479265e-05
 -6.07140921e-02  4.48377541e-05  3.91633293e-05  1.16626870e-04
 -1.95294482e-33 -5.30141006e-06 -9.77545162e-04  2.49615550e-05]
[-1.51616232e-05 -3.24314431e-04 -4.42117562e-05  7.67537451e-04
  1.05004219e-05 -2.04103435e-33 -7.49043073e-04 -2.93829711e-04
 -3.98111297e-07 -5.62144633e-05  8.72855016e-05  5.36997213e-05
 -3.62419602e-33 -4.00178180e-07 -6.29613700e-04  4.41386815e-33
  5.48705117e-08 -1.10049214e-05  3.39687313e-06  1.12730660e-03
 -5.85050402e-05 -1.08122404e-04  7.93223677e-04  3.46856359e-05
  5.12158465e-07  6.14131277e-04  7.00985856e-06  1.47840838e-04
 -4.84458724e-06 -3.33589492e-06 -1.11311150e-04  1.06799467e-04
 -4.04718139e-06 -2.70319433e-05  2.43518807e-05  1.24133221e-04
  1.01427882e-04  2.28193153e-06  1.14234106e-04  3.55528027e-05
 -4.04612918e-04  8.21311460e-06 -1.37528725e-04  1.09780207e-03
  5.50426135e-04 -3.78042131e-07 -2.53813458e-04  1.77082029e-07
  1.24679541e-03  7.13623085e-05  9.40168218e-04  1.79564790e-06
 -3.91114416e-04 -4.97798283e-08  4.16550902e-04 -3.23511282e-04
  1.23887986e-03  2.28055491e-04 -7.15055467e-06  5.80836149e-06
 -2.02021047e-33 -5.23563699e-08 -2.60905456e-03 -1.13613023e-05]
[ 8.53312486e-06 -2.34584382e-04 -2.17072211e-05 -3.09843017e-05
 -2.84534303e-06 -5.70260521e-33 -8.34794482e-04  1.68955827e-04
 -2.93281516e-07 -2.44950643e-05 -3.42692190e-04  1.31067873e-05
 -2.78241864e-33  2.66824486e-06 -9.52137692e-04 -1.08938351e-33
  4.88214766e-07  1.43539874e-05  6.79486175e-06 -8.18471774e-04
  3.66691056e-05 -1.25717284e-04 -5.31305268e-04 -2.01545008e-05
  4.49870015e-07  4.66053461e-05 -1.24067219e-05 -4.61645031e-05
 -3.67246867e-06 -2.38604207e-06 -8.06782336e-05  7.17637013e-05
 -3.49287893e-06  1.68125807e-05  1.77248905e-04  1.44953719e-05
  6.36945551e-05  2.49780669e-06  2.59058288e-06  4.68208018e-05
 -7.30999163e-04 -1.33192098e-05 -1.26882907e-04 -6.14121440e-04
  6.25976420e-04 -4.65846711e-07 -9.72890412e-04 -1.55632165e-07
 -7.62760465e-04  1.22983096e-04  9.79328877e-04  1.19426122e-05
 -8.09494057e-04  2.89474087e-07  7.37567432e-04 -6.30298979e-04
 -3.04122688e-04  1.70918400e-04  3.36097605e-06 -2.00730483e-05
  1.48841095e-33  9.63201956e-07 -2.43869051e-03 -5.00336682e-06]
[-1.75847799e-05 -4.50629232e-05 -8.97997743e-05 -7.66004319e-04
 -1.12117459e-06 -3.50579729e-33 -5.15289546e-04 -4.47227940e-04
