layers 12
layer 0 Dense
15 64
[ 0.01688258  0.33516023  0.04491134  0.47959813  0.4271459  -0.07385916
  0.00595596  0.05878442 -0.39546925  0.28590247  0.15696527 -0.02532759
  0.27549618  0.00778241 -0.25269035 -0.44189018  0.11661737 -0.41399425
  0.48215908 -0.39082718 -0.5161538  -0.14504065  0.01396101  0.01154457
  0.25164998 -0.21261023  0.04008756  0.19169228 -0.21521893 -0.0559507
  0.22259443 -0.00323101  0.00266232  0.03651587  0.38193715  0.22310847
 -0.25157276 -0.11938467  0.30539015 -0.01536222 -0.35215774 -0.27291152
  0.2341944  -0.338014   -0.00998983 -0.3332476   0.3242414   0.30683848
 -0.20856628  0.09808699  0.2342478   0.02003184  0.39471355  0.19177777
 -0.06283268 -0.25565583  0.08059739  0.00165648  0.20578286 -0.16695191
  0.3040118  -0.13705277 -0.22949712 -0.01133535]
[-2.19336338e-02 -3.23594421e-01 -3.67599577e-02 -3.69516939e-01
 -4.37316626e-01  7.33034536e-02  1.37187913e-03 -5.23167625e-02
  4.28086996e-01 -2.98246861e-01 -1.41269282e-01  2.61141267e-02
 -2.93275177e-01 -5.83549356e-03  2.65411139e-01  4.82260644e-01
 -1.23096630e-01  4.02459234e-01 -4.01183516e-01  3.80530030e-01
  6.22538030e-01  1.28881305e-01 -4.70251252e-04 -1.27786193e-02
 -2.44296744e-01  2.12724775e-01 -4.31845747e-02 -2.00612903e-01
  2.97923952e-01  5.23363724e-02 -2.07813516e-01 -7.66977388e-03
 -3.00503802e-03 -3.11372299e-02 -3.70041817e-01 -2.33246565e-01
  2.81898677e-01  1.14167534e-01 -2.88435787e-01  8.62100068e-03
  3.26947331e-01  2.71756679e-01 -2.32355490e-01  3.74642581e-01
 -5.25666215e-03  3.40100557e-01 -2.26072669e-01 -3.30449760e-01
  2.10734233e-01 -9.73171368e-02 -2.42314622e-01 -1.69188362e-02
 -3.71565223e-01 -1.99944317e-01  4.74715643e-02  2.85290629e-01
 -8.29335302e-02  1.04801338e-02 -2.17795074e-01  1.92134097e-01
 -3.09934080e-01  1.34287953e-01  2.01925114e-01  9.27431975e-03]
[-0.4349072   0.12673436  0.27520338  0.10165279  0.04856088  0.08388701
  0.24606995  0.0786178  -0.09460847  0.092426    0.41601464  0.17585452
 -0.11717138 -0.4562228   0.10349166  0.31515682  0.40738875  0.03660017
  0.16501665 -0.09794208  0.14589658 -0.09386571  0.17070735  0.12712026
 -0.02519961  0.5394311  -0.06124274  0.14359681 -0.02643433 -0.00287964
 -0.53096247  0.03821249  0.08149458  0.20428437  0.12249318 -0.30025116
 -0.0275898   0.04977317  0.23171765  0.26532513 -0.00606734  0.12216669
 -0.0087471  -0.358338    0.09666385 -0.17956842 -0.02054503 -0.07317039
  0.14164384 -0.8611022   0.12154482  0.02234594 -0.2612844   0.05484203
 -0.09336254  0.19149105  0.02078654  0.2627918   0.39974824  0.7626412
  0.30793393 -0.04058253  0.11094812 -0.25145933]
[-1.41108793e-03  8.99224579e-02  1.20418996e-03  6.01616353e-02
  2.23792065e-03  4.88206893e-02 -1.25120685e-01 -1.40456983e-03
 -2.20272806e-03 -4.81423049e-04  1.17765437e-03  1.07152492e-01
 -1.36324968e-02 -9.20496881e-02  7.47274384e-02  1.06102759e-02
 -1.27369224e-03  1.11979118e-03  4.72804755e-02 -7.50295445e-02
  4.76498045e-02  2.57315990e-02  1.06287174e-01  2.27116778e-01
 -5.45402952e-02 -3.30931321e-03 -9.88323428e-03  1.15560405e-01
  5.15762195e-02  2.18565390e-03  3.31841060e-03  3.61644547e-03
  1.81867331e-02  1.37924275e-04 -1.42174782e-02  1.52815285e-03
 -5.00700297e-03  1.69563293e-02  1.47617143e-03 -9.24420208e-02
 -1.12500628e-02 -3.68514424e-03  8.34816471e-02 -4.05746046e-03
 -6.09709183e-03 -1.60822051e-03 -1.54315541e-02 -5.83160296e-02
  1.08931936e-01  3.18967993e-03  2.94176266e-02 -5.85801452e-02
  6.55109342e-03 -1.18390797e-02 -3.42487358e-02 -1.25997858e-02
 -9.81013924e-02  1.40772033e-02 -3.46994522e-04 -6.85514789e-03
 -6.97353063e-03 -8.25292096e-02  1.26089277e-02 -1.13599181e-01]
[ 0.1525924  -0.00901041  0.15170532 -0.00969184 -0.04433216 -0.11115522
 -0.02973955  0.10442635  0.12794201  0.06243817  0.07176677 -0.02406826
  0.15240842 -0.14710757  0.05420014  0.08975276  0.28519297  0.04756315
  0.02826866  0.17279647  0.03136212  0.05708626 -0.09945243  0.11945543
 -0.05424302 -0.17319883  0.07868451 -0.02875969  0.08489182  0.12065116
 -0.14112306  0.07201792 -0.01920811  0.02237099  0.06005748 -0.0014361
  0.0667837  -0.10097504 -0.02957711 -0.01706148  0.01096053  0.10209643
 -0.09510657  0.02277551  0.18302335  0.11763397 -0.0676183   0.00515878
  0.03749153 -0.18002112 -0.14402334  0.04969067 -0.1180545   0.03649088
 -0.1929152  -0.08907365  0.1413615  -0.02472472 -0.39159316  0.07209303
  0.0338325  -0.08240986 -0.01362668 -0.05373042]
[ 0.07066184  0.08079463  0.23636055  0.07733199  0.01606536 -0.1384021
 -0.12316522  0.07769745  0.07955704  0.08644211  0.03196503 -0.06323469
  0.03924081  0.0918266   0.1055641  -0.06187232 -0.13277923 -0.17349152
  0.03689091 -0.05503772  0.06828569 -0.12892237  0.08931921  0.08415216
 -0.02743859  0.39784074  0.38052037 -0.02589178  0.16587606 -0.13737282
  0.31063884 -0.23552069  0.4916758   0.39865375  0.09915768  0.30418628
 -0.32998785 -0.14334181 -0.07725193  0.07769058 -0.15809585  0.05943635
  0.08580301  0.06224743  0.08643872  0.07767706 -0.18482837  0.0739966
  0.01380064 -0.0866231  -0.03608214 -0.14028172  0.10941689 -0.19135931
  0.10504948  0.06110107  0.351103   -0.10750026 -0.35281107 -0.01903201
  0.12616575  0.00738537  0.1414402  -0.29744825]
[-0.40628263 -0.02954173  0.4452979   0.03236237  0.00910016  0.07740977
  0.0338596   0.18000539 -0.10776303  0.06035286 -0.28666544  0.04203885
  0.4614      0.01665172 -0.00485035 -0.2418091  -0.51187766 -0.0088935
  0.01942604  0.02147205  0.00631527  0.05242892  0.00939541 -0.00165312
 -0.01144908  0.29452658 -0.2788907   0.06325746  0.00404006 -0.26962665
 -0.04547158  0.1420594  -0.04435213 -0.08455599 -0.01735074  0.17452054
 -0.30382848 -0.04873611  0.04876541 -0.28766274  0.17377424 -0.01412561
  0.09709994 -0.05049932 -1.17097     0.11999622  0.05380496 -0.01411399
  0.01231767  0.02937062  0.07643882  0.24649447 -0.0926924   0.05409826
 -0.02125712 -0.0354558   0.2685673  -0.16209607  0.0447138  -0.04984668
 -0.11049832  0.19591376  0.22330967 -0.40327296]
[-0.12949722 -0.07692982  0.06934908  0.04871348 -0.02397908  0.00803953
  0.09459002  0.0056868  -0.10255052  0.0411079  -0.20294148 -0.1543466
 -0.00942475  0.24329123 -0.06778147  0.00106116  0.09409225 -0.07441097
  0.07770441  0.12016924  0.13204555  0.2743512  -0.17314678 -0.07318235
  0.18219401  0.00699966 -0.17008495 -0.11572804  0.19662245 -0.16581006
  0.02686677 -0.12247701 -0.10065384 -0.21291785 -0.41777375 -0.14665249
 -0.04188178  0.00318728  0.18830362  0.1272902   0.09947728 -0.3413042
 -0.15933119 -0.15890987  0.38036457  0.00363873  0.12826303  0.18784705
 -0.13639171 -0.23426442  0.38512945  0.30298603 -0.05531886  0.15711182
 -0.18372059 -0.48154548  0.16817342 -0.15801725  0.08413541 -0.01221895
 -0.0065147   0.0137721   0.04301866  0.21809855]
[-7.59414901e-34 -8.43683152e-34  4.03229827e-34  1.42270155e-33
 -2.86319980e-34  9.70298220e-34 -2.57191129e-33  3.07091967e-33
 -2.39999727e-33 -4.43169709e-33 -1.19335360e-33 -5.58055621e-33
  5.19915862e-33 -5.74547513e-33  4.82053336e-33 -3.94255516e-33
  3.55592661e-33  2.45257272e-33  1.80422440e-33 -3.91076832e-33
 -1.54035531e-33 -2.92226720e-33 -1.92210169e-33  3.10535081e-33
  1.06919440e-33  1.77478249e-34  5.06729680e-33  3.34948373e-33
  1.38956069e-33 -3.21554202e-33 -3.39660856e-33 -4.51150654e-33
  3.61116934e-33  2.60417696e-33 -4.02844889e-33  3.44217072e-33
 -1.94964554e-34  2.20160596e-33 -4.33336442e-34 -5.34382818e-33
  2.41840036e-33  5.55360837e-33  4.57132708e-33  8.15440982e-34
  1.91846262e-33  2.52691135e-33  1.84341612e-33 -4.83470908e-33
 -8.48988122e-34 -3.66274636e-33  1.96574982e-34  9.89157190e-34
  1.78197597e-35 -3.35210949e-33 -1.63970148e-33  2.21119818e-33
  4.37198271e-33  2.71427009e-33 -3.05914048e-33  4.87750516e-33
 -1.29113361e-35 -2.46656588e-33  4.61316146e-33  3.39211817e-33]
[-0.18106794 -0.02632976  0.22709706  0.02407741  0.04051277 -0.18736504
 -0.00597014 -0.40642634  0.08318105  0.06733327 -0.19798948 -0.01921598
  0.01141041 -0.02445998 -0.07367861 -0.10156844  0.26474088 -0.04480692
 -0.03666668  0.11610644 -0.12399557  0.07080811  0.00832027  0.0890005
  0.04462989  0.07116358  0.18895218 -0.00937817 -0.07998833 -0.10007552
 -0.00893772 -0.11079026 -0.04921569 -0.40171117  0.06591879 -0.08123202
 -0.06711128  0.10285442  0.22829752 -0.01985614 -0.24826206 -0.0456569
  0.16048464  0.05138809 -0.1567876  -0.28713742 -0.07456442 -0.01244036
 -0.060317   -0.4490962  -0.14780694 -0.01639026  0.14309314 -0.0872599
  0.08346207  0.04047545 -0.15688087  0.16629602 -0.02970444 -0.10185812
 -0.20773764  0.0207905  -0.03542085  0.27502537]
[ 0.2489424   0.50671923 -0.16850609  0.17607218 -0.4933631  -0.42961666
 -0.52544475  0.03606183  0.13405012  0.07503249  0.37360328  0.3144199
 -0.23306225 -0.1144115   0.42508233  0.18506895  0.068284   -0.25536335
  0.22852208 -0.06866633  0.32357997 -0.07623569  1.2388229  -0.13870853
  0.13049355 -0.10175315 -0.27831405  0.29102534 -0.01609685  0.289271
 -0.13240355 -0.72804886 -0.39186072 -0.278946    0.14875656 -0.11271601
  0.1668825   0.5094362   0.3658183  -0.23315382  0.35502064  0.09230794
  0.0742675   0.4217416  -0.03233239 -0.0350495   0.17531684  0.0869849
  0.33280635  0.2700119  -0.10193401 -0.296008    0.4890165   0.09418432
 -0.5567414   0.087382    0.08528228 -0.60993403  0.22294168  0.20546786
  0.11248102  0.10772747 -0.06662843 -0.20759977]
[ 0.30068284  0.14322439 -0.8214364  -0.03185387 -0.20361799  0.00385914
 -0.09304046  0.5341149   0.07176373 -0.02628388  0.08847241  0.30321932
 -0.33747646  0.2621833   0.08093645  0.01331715 -0.21432836 -0.36898044
  0.05715393  0.13904755 -0.06606183  0.121098    0.07680924 -0.01089716
  0.15244608  0.47416037 -0.19594188  0.20632952 -0.16439755 -0.48220986
  0.3214497  -0.08922887  0.32463014  0.11577345 -0.03805073  0.04320834
  0.21167387  0.03976777  0.17018525  0.4663575  -0.01341187  0.1268278
 -0.26849836  0.02428583  0.33970368 -0.39848155 -0.14131387 -0.1021852
  0.24257238 -0.07208185 -0.0887688  -0.27821583  0.12905028 -0.09318127
  0.06924834 -0.02317045 -0.05986798  0.264104   -0.26581028  0.06444997
  0.16226767  0.18592803 -0.1234788   0.0590215 ]
[ 0.42432022 -0.05959829 -0.03760528 -0.22598737 -0.01010792  0.01024149
  0.03772989  0.0467691  -0.30682915 -0.24466616  0.47906807 -0.14714989
 -0.23777916  0.10433476 -0.03511058 -0.05386632 -0.05792148  0.01940573
 -0.08262865  0.05320214 -0.12070558 -0.533116   -0.04303002  0.04350363
 -0.3332178  -0.08556896  0.2664668  -0.16888922 -0.14135256  0.08704852
 -0.09571917  0.10348376  0.07609986  0.16706201  0.4002167   0.3112045
  0.00765347  0.12054574  0.01417951  0.11232296 -0.02146031  0.28996816
 -0.06737874  0.15970625 -0.3328881   0.08241463 -0.05666269 -0.12109183
 -0.10463624  0.32411826 -0.13661577 -0.10108744  0.00612291 -0.12550624
  0.09987625  0.5054936   0.53833514  0.03929095  0.012961    0.17391075
  0.14856906 -0.26568446 -0.1279105   0.03584935]
[-0.2506403  -0.02824506 -0.02056486  0.00287639  0.11924925  0.04318239
  0.01720647 -0.15219559  0.04977645 -0.02155293  0.08576253 -0.04152573
  0.54651195  0.08595976 -0.01079101 -0.0043314   0.00872191  0.13258117
  0.0423608   0.08654554  0.06219502  0.00055903  0.00809961 -0.03630348
 -0.00416978  0.0739333  -0.06182002 -0.0374235  -0.03246259  0.02763498
  0.07583833  0.02580227 -0.20000876 -0.06321331 -0.03602358 -0.10015708
 -0.24777086  0.03640005 -0.00505781 -0.00673621 -0.06515411 -0.03654573
 -0.02328357  0.00479816  0.03842847  0.10635512  0.16314787  0.05208581
 -0.02137446  0.06428111 -0.00424416  0.10483877 -0.09154934 -0.02066636
 -0.07260477 -0.01562399  0.0969025  -0.00114254 -0.01694246 -0.04125341
 -0.03638836 -0.04294822  0.07371936 -0.03058845]
[ 2.40479305e-01 -1.49587204e-03  1.16487509e-02  4.32785077e-04
 -1.49156600e-01 -4.26955968e-02 -1.56774540e-02  1.82797745e-01
 -5.32020405e-02  1.67163536e-02 -7.50525147e-02  3.92466113e-02
 -5.49794018e-01 -8.06052387e-02  2.84890775e-02 -1.00900624e-02
 -9.85221006e-03 -1.11560315e-01 -2.23459173e-02 -8.31719637e-02
 -4.05181423e-02  5.95650589e-03 -5.98865980e-03  3.97018790e-02
 -6.99273660e-04 -6.37840629e-02  5.93465976e-02  4.47936095e-02
  2.69826427e-02 -2.76518539e-02 -7.88018554e-02 -1.46047408e-02
  2.01543748e-01  4.82264087e-02  3.44687477e-02  1.10796474e-01
  2.47702226e-01 -2.85661165e-02 -1.71024748e-03  8.83785635e-03
  6.40386790e-02  2.32503619e-02  2.39072051e-02 -1.19198635e-02
 -6.27893060e-02 -1.20629162e-01 -1.46867543e-01 -4.60537896e-02
  4.03413996e-02 -6.75864443e-02  3.79749574e-03 -9.92376283e-02
  9.77260694e-02 -6.09810464e-04  7.04139322e-02 -4.43295529e-03
 -9.48631763e-02 -1.64177176e-03  2.66663600e-02  4.16060388e-02
  2.50915270e-02  4.68602739e-02 -6.17879182e-02  3.55355181e-02]
[ 0.11702437  0.15654352  0.37061226  0.01922565 -0.01304798 -0.28427646
  0.561366    0.67554843  0.0362604   0.04767832 -0.02782757 -0.08185227
  0.20606776  0.35105166  0.24908158  0.19258961 -0.05616532  0.05370205
  0.05682496  0.00975743  0.20156883  0.03583428 -0.35314444  0.01039637
  0.37070122 -0.11199352 -0.02921197 -0.041049    0.01522636  0.01898251
  0.46903765  0.2527313   0.10633942  0.17278434  0.08915641 -0.15742494
 -0.02591591  0.18645939  0.16269413  0.31184897  0.22810252  0.16810758
  0.02677976  0.14217946 -0.13894786  0.23588403  0.08207764  0.11120236
  0.0347843  -0.47198674  0.01621998  0.12193038  0.04871197  0.170525
  0.26041567  0.17292188  0.55930763 -0.36355656 -0.01514714  0.28364736
  0.02683177  0.34901416  0.00765401  0.22216123]
layer 1 Activation
relu
layer 2 Dense
64 64
[-7.94860423e-02  1.14644878e-01 -6.33788630e-02  1.42128855e-01
 -5.69603667e-02 -4.83059473e-02  1.97055895e-04 -5.39292805e-02
  1.11254841e-01  8.51634443e-02 -2.33828112e-01 -2.29828730e-01
 -5.40876351e-02 -1.51082233e-01 -1.23405606e-01 -1.34707405e-03
 -9.81085282e-03  4.37974185e-02 -6.37245402e-02 -3.08091015e-01
  5.12813963e-02  1.82816181e-02 -5.68258576e-02 -2.56291707e-04
 -9.98791680e-02 -3.12309593e-01  6.92439303e-02 -4.98088300e-02
 -7.59289488e-02 -1.93626098e-02  7.05932528e-02  9.86813800e-04
 -6.75883740e-02 -5.31813712e-04  2.30904366e-03 -9.25540254e-02
 -1.15541235e-01 -6.45338073e-02 -1.38134748e-01 -2.14639321e-01
 -2.79700726e-01 -1.03407845e-01 -1.25753060e-01 -6.82124719e-02
 -1.28629745e-03  3.63821425e-02 -1.38420433e-01  1.85763068e-03
 -8.47024057e-05 -1.02406129e-01 -6.33557290e-02  3.22036505e-01
 -7.51204439e-04 -5.73077314e-02  3.88705395e-02 -7.00986534e-02
  1.90700404e-04 -6.44613579e-02 -5.63367084e-03  1.27375945e-02
  1.91626116e-03  3.00512154e-04 -2.98976064e-01 -1.88510552e-01]
[-7.5604483e-02 -2.8311095e-01 -8.0123574e-02 -6.1502520e-02
 -3.8170923e-02 -2.3837483e-02 -1.0423477e-04 -3.9419614e-02
 -4.4438943e-02 -1.2208045e-01  5.9165983e-03 -8.5555263e-02
 -7.1215056e-02 -1.3448556e-01 -2.0874264e-02  4.2866729e-04
 -2.0724237e-02 -1.2354239e-01 -3.5945829e-02 -1.3606810e-02
 -9.8720536e-02 -1.3194039e-01  1.4827570e-01 -1.0077271e-04
 -3.9674380e-01  7.2571054e-02 -1.5325011e-01 -1.4018033e-01
 -4.4003632e-02 -5.3340781e-02 -4.1019149e-02  3.1357628e-01
 -2.9103242e-02 -2.3609269e-04  3.6434867e-04  2.3648964e-01
 -2.5145253e-02 -4.0407207e-02 -8.1282496e-02 -1.4745208e-02
  3.7843883e-02 -2.6504491e-02 -1.0907186e-01 -4.0245377e-02
  1.4991111e-04 -2.5197221e-02 -4.9919125e-02 -3.5311878e-04
 -5.0886365e-04 -1.0079565e-02 -4.3445233e-02  7.5620770e-02
 -1.4245325e-05 -3.8690060e-02 -2.1306848e-02 -4.0892143e-02
 -2.2598576e-04 -1.4615096e-01  6.9279135e-03 -4.6218768e-02
  6.3162290e-05  5.7804078e-05 -6.0203895e-02  7.4960485e-02]
[-7.08342567e-02  5.46973497e-02 -3.11125573e-02 -7.46752918e-01
 -2.76058856e-02 -3.42405103e-02 -8.70044518e-04 -1.41211012e-02
 -3.37118236e-03  7.59171881e-03 -2.77416427e-02 -2.90153851e-03
 -1.01858892e-01 -3.66040431e-02  1.99895874e-02 -2.03679595e-03
 -4.67107520e-02 -2.11389586e-01 -3.37824374e-02 -3.13892901e-01
 -9.13035572e-02 -2.46402800e-01 -1.25658661e-01  2.76001520e-04
 -7.91543797e-02 -1.19110104e-02  1.68443680e-01 -2.82350890e-02
 -2.72049941e-02 -3.60724479e-02 -4.20124307e-02 -6.78092316e-02
 -5.41671999e-02  1.24532758e-04 -2.78432533e-04  1.42172068e-01
 -5.95764816e-02 -1.59260388e-02 -2.64686525e-01 -2.66360585e-02
 -4.27250981e-01 -3.73006277e-02 -5.93893267e-02 -3.34367640e-02
 -1.30556669e-04 -6.78123087e-02 -2.03412935e-01  1.02957850e-03
 -1.51218602e-03 -1.04151843e-02 -2.59855632e-02  1.75052181e-01
  9.59287398e-04 -1.16284825e-02 -1.63589254e-01 -9.69150104e-03
 -4.00505814e-05 -6.00993074e-03  3.13409120e-02 -7.40148202e-02
 -1.34400220e-03 -3.55127704e-04 -1.03788599e-02  5.59403654e-03]
[-5.86470626e-02 -1.56207934e-01 -5.46188392e-02 -1.37189135e-01
 -4.27449942e-02 -3.17675062e-02 -3.97313153e-04 -4.76419814e-02
  1.38985720e-02 -6.24532215e-02 -3.08500469e-01 -4.43022698e-02
  3.40000466e-02 -8.44654739e-02 -1.40273403e-02 -4.33092035e-04
 -1.26629099e-02 -8.25203732e-02 -3.99103016e-02  1.07416674e-01
  7.96944201e-02 -5.99878319e-02  2.15342000e-01 -4.84584656e-04
 -1.78666040e-01  2.30939016e-02  3.84522974e-02 -1.69477593e-02
 -4.85873558e-02 -6.41131327e-02  2.38434668e-03  3.49039733e-01
 -2.34449860e-02 -1.82314645e-04 -1.45015086e-03  1.11877620e-01
 -5.89910597e-02 -4.70264666e-02  4.70762365e-02 -3.67476717e-02
  3.97782438e-02 -5.23782223e-02 -3.48423570e-02 -4.41176221e-02
  6.39920239e-04  1.00626182e-02 -4.25230227e-02 -2.06901366e-03
 -1.05372351e-03 -3.35739329e-02 -4.82392274e-02  4.82307263e-02
 -2.45050323e-04 -4.85114790e-02  7.54224882e-02 -4.83277030e-02
 -5.81810775e-04 -6.12844601e-02  1.06737530e-03 -7.49297738e-02
 -2.82310555e-03 -5.21450820e-05  4.56648506e-02  6.10377081e-02]
[-1.07085437e-01  1.29923865e-01 -9.61050838e-02  1.25823408e-01
 -5.85897081e-02 -5.41714840e-02 -9.52184142e-04 -5.38168997e-02
  1.11753538e-01 -7.19244629e-02  4.59155977e-01 -6.25838712e-02
 -8.37965161e-02 -2.12801531e-01 -2.73621758e-04 -1.58894958e-03
 -7.76669085e-02 -1.72240004e-01 -6.04772381e-02  9.23549160e-02
 -8.91391654e-03  9.52389836e-03 -3.66841316e-01  6.95212511e-04
  2.06486255e-01 -2.37020403e-02  3.01018924e-01 -9.98784751e-02
 -6.49512559e-02 -6.47781119e-02 -1.57294467e-01 -1.92286000e-01
 -5.63829578e-02 -2.67116484e-05 -3.02149681e-03 -1.34867474e-01
 -1.18467830e-01 -5.43485284e-02 -1.27825528e-01 -3.34354416e-02
  1.53874997e-02 -6.28217980e-02 -8.72764504e-04 -6.37166724e-02
  2.55646789e-03 -1.10521965e-01 -3.48852910e-02 -2.02107662e-03
 -1.99409295e-03 -3.18106227e-02 -6.53392300e-02  1.12132914e-01
  3.76751093e-04 -6.36194497e-02  2.69201174e-02 -5.31512052e-02
 -9.85339051e-04 -9.73157957e-02 -4.87290882e-02 -6.64721653e-02
 -4.95121907e-03 -4.86277975e-04 -8.45225975e-02 -4.49022949e-02]
[-2.8593058e-02  2.0190430e-01 -5.9758060e-02  1.5702392e-01
 -2.5864301e-02 -2.4246959e-02 -3.3035967e-04 -2.5512833e-02
 -1.4422485e-02  4.8284002e-02  5.5331524e-02 -1.9515794e-02
  1.1866937e-02  1.5276299e-02 -1.0681727e-03  1.7402929e-03
 -9.2362516e-02 -6.1058784e-03 -2.8532278e-02  2.0622272e-02
 -7.3007181e-02  2.9731993e-02  1.4402723e-01  7.2981435e-04
  3.7459975e-01 -4.5410730e-02 -3.2131940e-02  8.0492102e-02
 -2.9213507e-02 -1.8133689e-02 -6.8636566e-02  2.3776274e-02
 -3.4437269e-02  5.4039749e-05  1.8457473e-03  5.1002681e-02
 -5.2695997e-02 -2.6217574e-02 -5.7348523e-02 -6.7229293e-02
 -4.0414922e-02 -3.5053045e-02  7.9635894e-03 -3.1022443e-02
 -2.1099783e-03 -8.3670869e-02 -1.3345808e-02  2.1220068e-03
 -5.8366219e-04 -5.0258007e-02 -3.1243518e-02 -1.2182070e-02
  1.2786150e-03 -3.0645121e-02  2.6854308e-02 -2.5929734e-02
 -4.6243606e-04  1.4920715e-02 -5.5743653e-02 -1.1310952e-02
  3.0162225e-03 -2.3875239e-04 -2.8449703e-02 -5.5965539e-02]
[-2.7705915e-02 -1.6953005e-01 -2.4454743e-02 -1.9286722e-01
 -3.3955418e-02 -3.1050023e-02 -7.3834404e-04 -4.2229947e-02
  6.0655206e-02  7.9989590e-02 -3.4084585e-02  8.0658821e-03
  3.2822274e-02  5.8702761e-03  5.3355284e-02  1.0680367e-03
  6.2199342e-03 -1.5473062e-01 -2.5211133e-02  1.3776265e-01
  4.4335935e-02  4.7702666e-02 -3.3202499e-01 -8.2432723e-04
 -5.4598134e-02  5.7144031e-02  1.1923221e-01  1.2013464e-01
 -2.2306604e-02 -5.2041665e-02  7.9743691e-02 -2.8049481e-01
 -1.6247887e-02  2.7014845e-04 -3.0654971e-03 -1.4477094e-01
 -6.5841362e-02 -3.6425669e-02 -1.6057433e-01  1.2011594e-02
 -1.5865757e-01 -2.2643365e-02  7.1280248e-02 -2.9803183e-02
  3.0679875e-03 -2.4584252e-02 -5.1681325e-02 -1.7789903e-03
  9.3228585e-04 -3.5097137e-02 -3.1353641e-02 -4.0473584e-02
 -4.3426483e-04 -3.9186932e-02  7.0706522e-03 -2.8934514e-02
 -3.4551873e-04  3.1968258e-02 -4.9557876e-02 -8.5561275e-02
 -4.3637268e-03 -4.1010461e-04  4.5458496e-02  8.3002552e-02]
[ 2.6583552e-02 -2.6106918e-02  2.0686707e-02 -2.9859001e-02
 -5.3979561e-04  9.0756929e-03 -9.5182104e-04 -3.3626026e-03
  1.0199485e-02 -2.2741789e-02 -1.2722318e-02 -1.1192795e-01
  5.0900731e-02  9.3392037e-02 -4.1434135e-02  8.7796664e-04
 -6.4001091e-02  1.7009769e-01  2.2365677e-03  4.9313675e-03
  4.1453671e-02  1.5072052e-01 -4.2539850e-01 -5.8332273e-05
  1.1981327e-01  4.0268209e-02 -1.7298919e-01 -3.4924260e-01
  3.3728732e-03  3.2959819e-02 -5.1061355e-02 -1.1912626e-01
  1.0076377e-03 -8.4509770e-04 -1.5849688e-04 -1.4252064e-01
 -3.1214183e-02 -1.9782681e-03 -1.7384861e-01 -6.0297661e-03
  1.0468749e-01  9.7458382e-05 -1.3857445e-01  5.7651161e-04
 -2.4478128e-03  8.0697360e-03  2.7681401e-01  4.9826049e-05
 -1.2329294e-03 -7.4582152e-02  1.6956350e-03  8.3176196e-02
  1.3496858e-04  1.7233975e-03 -2.2311817e-01 -2.6486691e-03
 -7.6367555e-04  1.1503092e-03 -1.3700742e-02  4.2726208e-02
 -2.5655841e-04 -8.7911589e-04 -4.6614826e-01  4.4947878e-02]
[ 3.48018855e-03 -1.05109341e-01 -1.26514751e-02  1.59296066e-01
 -2.03421880e-02 -1.88906305e-02 -7.13897054e-04 -2.02404521e-02
 -4.98318812e-03  3.26929167e-02 -4.24067557e-01  8.70235115e-02
 -6.06835708e-02 -1.20235002e-02 -1.15958273e-01 -1.38433010e-03
  1.01370782e-01 -2.40221564e-02 -2.62859464e-02  1.61951721e-01
 -1.80576276e-02 -1.21691056e-01  1.38128459e-01  2.07529869e-04
 -3.60694677e-01 -9.22880396e-02  9.41495597e-02 -1.03536569e-01
 -4.55945320e-02 -2.04414129e-02  1.20312437e-01 -1.77142814e-01
 -1.15598785e-02 -7.37251594e-06 -1.74160057e-03 -7.29913786e-02
  8.07746500e-02 -2.93704234e-02  7.46736228e-02 -1.40778348e-02
 -5.46686351e-02  1.08337924e-02 -1.08838789e-01 -2.34075356e-02
 -1.79783488e-03  5.73981553e-02 -7.89059401e-02 -1.42230885e-03
 -1.50534720e-03  3.38198952e-02 -1.95383504e-02  2.14221869e-02
  6.31032919e-04 -1.88364591e-02 -8.01633373e-02 -4.12053615e-02
 -6.93925773e-04  1.97017267e-02 -1.70360822e-02 -1.58701278e-02
 -3.02725425e-03 -6.70806912e-04  1.80108733e-02 -5.53809628e-02]
[-4.78997789e-02 -8.28858390e-02 -7.14454986e-03 -1.65005103e-01
 -3.11535299e-02 -2.63588727e-02 -3.19127983e-04 -3.42432074e-02
  4.97254170e-02 -3.43956538e-02 -3.26509923e-01  5.17982878e-02
 -9.51658189e-02 -1.23355731e-01 -7.49907573e-04 -4.36102040e-04
  2.32984424e-02 -6.11047447e-02 -3.11777890e-02  7.71808699e-02
  9.40507129e-02 -7.97948241e-02  1.32658422e-01 -2.58818705e-04
 -1.15402594e-01 -7.64018798e-04  8.98307413e-02  2.74457037e-02
 -3.90650071e-02 -6.05248138e-02  1.55021757e-01  1.07228257e-01
 -2.18669791e-02  4.34837748e-05 -5.10910933e-04 -8.16201270e-02
 -9.07684341e-02 -3.34504768e-02 -6.39996603e-02 -1.77170597e-02
 -6.53171539e-02 -5.12250885e-02 -5.83537146e-02 -3.28128561e-02
  4.47113125e-04  3.41063738e-02 -3.64579307e-03 -2.30524573e-04
 -6.07622380e-04 -7.03691766e-02 -3.27447504e-02  8.31876099e-02
  2.21223570e-04 -3.27298120e-02  8.90725758e-03 -3.15383412e-02
 -3.99881974e-04  2.00143047e-02  1.88206490e-02 -9.10975188e-02
 -1.42658234e-03 -1.73513123e-04 -6.63644895e-02  1.37398066e-02]
[-7.75920823e-02  1.22766076e-02 -6.76223338e-02 -1.90547392e-01
 -2.68318988e-02 -2.56451033e-02  1.81710002e-05 -2.83831041e-02
 -7.37925693e-02  8.95120651e-02  5.20005077e-03  6.53417408e-02
  1.27263799e-01 -1.75776243e-01 -4.47168723e-02 -1.06940221e-04
  1.03447199e-01  3.88610661e-01 -3.05500310e-02  7.48360679e-02
  1.03470117e-01  1.25374317e-01  6.63096607e-02 -1.31675028e-04
  4.07609455e-02 -4.43654582e-02  1.36429593e-01  1.08231783e-01
 -4.68029901e-02 -2.55828407e-02  5.69395870e-02  1.08433515e-01
 -3.29292454e-02 -7.50280102e-04  2.17643403e-03  9.83762294e-02
 -1.04216091e-01 -3.21707577e-02 -3.13089609e-01 -7.12428018e-02
  1.39657065e-01 -4.96149361e-02 -6.69977516e-02 -3.19560468e-02
 -2.08367663e-03  5.96275330e-02  3.96581560e-01  1.36114517e-03
 -3.58992751e-04 -1.60918795e-02 -3.06141414e-02  3.26069109e-02
  1.39733034e-04 -3.63160968e-02 -1.15784518e-01 -3.78093347e-02
 -1.50018459e-04 -2.09745429e-02  8.46645460e-02  5.41033074e-02
  2.45865085e-03  6.89191074e-05 -3.11423481e-01  7.53651373e-03]
[-8.14551488e-03 -6.48679584e-02  1.10289482e-02 -6.10187501e-02
 -1.06839053e-02 -2.97071110e-03  1.35871465e-04 -1.17705604e-02
 -1.26487939e-02 -6.75283223e-02  2.03489512e-01 -4.13463451e-03
 -7.92976618e-02 -8.39137360e-02  4.08694707e-02  2.39510322e-04
  2.02453993e-02 -4.30576093e-02 -5.61377918e-03 -1.23183839e-02
 -1.00092068e-01 -4.22229059e-02  2.17864141e-01 -2.45672301e-04
 -1.90925196e-01  8.28504413e-02 -1.20739646e-01 -7.02132732e-02
 -2.66349292e-03 -2.92628221e-02 -4.78548072e-02  1.68063551e-01
  3.72440484e-03 -1.60259486e-04  5.43271715e-04  1.49369061e-01
 -4.00007404e-02 -8.79478268e-03  7.16536716e-02  2.80346181e-02
  2.24267896e-02 -8.94075725e-03  9.88814048e-04 -7.69934431e-03
 -9.65322193e-04  9.88509506e-03 -7.89125115e-02  1.75148743e-04
  1.06749369e-03 -1.95888951e-02 -1.02832261e-02 -7.63958097e-02
 -8.87419272e-04 -5.40148607e-03 -3.61390263e-02 -1.70382089e-03
  6.97317955e-05 -1.84702903e-01  5.03627546e-02 -2.65541673e-02
  1.57683343e-03  2.78241532e-05  4.34412770e-02  4.47435230e-02]
[ 3.05273086e-02 -1.53292017e-02 -2.56145243e-02 -5.05472898e-01
 -2.86380220e-02 -2.84541044e-02 -3.33617529e-04 -3.25875729e-02
 -9.69279557e-02 -8.36728364e-02  1.22884020e-01  9.12584439e-02
  1.10733397e-01  6.51760921e-02 -1.86034605e-01 -1.57819712e-03
  3.65248621e-02 -7.15159252e-02 -3.13217007e-02  3.15798461e-01
 -2.39393026e-01  9.11939144e-02  7.76672438e-02 -8.37111031e-04
 -5.37790284e-02 -2.75339097e-01 -1.00401774e-01  1.77316785e-01
 -5.60893938e-02 -2.47876905e-02  1.79500505e-02 -6.26351088e-02
 -1.42436018e-02 -8.91488104e-04 -1.00005628e-03  1.85734183e-01
 -4.67219353e-02 -5.19707538e-02  1.19627319e-01 -8.09602067e-02
 -1.82824597e-01 -6.60736561e-02 -1.51934773e-01 -2.63013355e-02
  1.36778876e-03  5.11589833e-02 -2.91922957e-01  2.00241611e-05
 -4.47674567e-04 -1.69980153e-01 -1.13916658e-02  1.19953409e-01
 -1.51689840e-03 -3.31154726e-02 -1.10207655e-01 -6.35757148e-02
 -7.36671267e-04  1.18074678e-01  2.36174222e-02  1.08182598e-02
 -3.00035370e-03 -3.09070951e-04 -3.30030382e-01 -5.56881130e-01]
[ 4.83225994e-02  4.86963242e-02  1.15391433e-01  1.32700145e-01
  1.26983216e-02  9.27241147e-03 -4.96530673e-04  1.98428109e-02
  1.37004837e-01  1.46178991e-01 -5.99910617e-02 -1.50382631e-02
  2.44755343e-01  4.00510952e-02  4.09920327e-02  3.92332731e-04
 -3.11623444e-04  5.65693639e-02  1.57050937e-02 -3.25375609e-02
  6.92112744e-02  7.48469532e-02 -8.05591270e-02 -6.61861384e-04
  3.36882323e-02 -5.45660108e-02 -1.21141024e-01 -1.03529520e-01
  2.61968058e-02  7.27815554e-02  7.41253495e-02 -1.28497882e-02
  2.38570031e-02 -6.53940078e-05 -7.42925156e-04 -1.49608687e-01
  1.17110470e-02  2.04172172e-02  1.78951412e-01  3.57092246e-02
  9.22281370e-02  1.42507926e-02  3.27572823e-02  1.69462841e-02
  2.28329143e-03  4.96018156e-02  8.88825506e-02 -1.07916479e-03
 -1.38544201e-04  3.01075522e-02  1.88044533e-02 -2.84098744e-01
 -6.10136078e-04  1.62173044e-02 -1.15068346e-01  2.92169210e-02
 -4.49352228e-04  1.78424448e-01  2.67114826e-02  1.02524497e-01
 -6.80780737e-04 -3.38387734e-04  6.43934682e-02 -1.48068413e-01]
[ 8.63462314e-03 -2.23077178e-01 -3.48551124e-02 -1.49935722e-01
 -1.24045536e-02 -1.28911249e-02 -2.52285274e-04 -1.13431597e-02
 -4.44669053e-02 -1.00873657e-01  9.24831927e-02 -5.45328595e-02
  3.45548242e-02 -3.20108570e-02 -3.47235538e-02 -4.91204788e-04
 -2.65257265e-02 -1.07139545e-02 -1.65060051e-02  1.10951155e-01
 -1.14230039e-02  5.34319244e-02  1.08510219e-01  2.08800091e-04
 -3.28751445e-01  2.01637726e-02 -1.09245896e-01 -1.15392253e-01
 -1.64065734e-02 -5.41028194e-03 -5.17433770e-02  3.08173060e-01
 -1.50489481e-02 -1.09217341e-04 -1.65207882e-03  1.77734956e-01
  5.30382209e-02 -1.17444517e-02  5.16705438e-02  1.97023395e-02
  5.35613149e-02  1.86583474e-02 -1.46934297e-02 -1.38308564e-02
  1.19159813e-03 -1.13976516e-01 -6.61915839e-02 -1.45872799e-03
 -4.24567901e-04  7.89476372e-03 -1.15876589e-02 -4.27407734e-02
 -2.13934516e-04 -1.06800310e-02 -2.05046479e-02 -1.55729186e-02
 -2.47963268e-04 -1.09028421e-01 -5.47538809e-02 -8.45146552e-03
 -2.22776737e-03 -1.22951606e-04  1.16263600e-02 -1.46737031e-03]
[-7.21955597e-02 -3.39775644e-02 -1.17661305e-01  9.52966884e-02
 -5.63506037e-02 -5.26382327e-02 -5.26616932e-04 -6.21085800e-02
  7.63985217e-02  8.87606964e-02 -1.03335232e-01  4.51961495e-02
 -5.84651455e-02 -1.68566592e-02 -8.25850964e-02 -1.59755058e-03
 -1.71271488e-01  9.51550379e-02 -6.00068569e-02  1.24972783e-01
  1.40632018e-01 -1.17139444e-01  8.42286646e-02 -2.24124888e-05
 -4.23600562e-02 -9.76193175e-02  2.36794427e-02  7.15124458e-02
 -6.44453317e-02 -1.40677825e-01 -5.33554852e-02  1.83426350e-01
 -4.00846265e-02  1.34893780e-05 -2.09725928e-03  2.46564439e-03
 -7.19487900e-04 -6.27418980e-02 -2.23635375e-01 -1.21450372e-01
  5.18583842e-02 -9.92767364e-02  3.03601734e-02 -6.27471730e-02
 -1.48740504e-03 -9.41029787e-02  1.11515343e-01 -1.85803242e-03
 -1.87984935e-03  2.30675493e-03 -6.64469972e-02  6.83273301e-02
  1.00061363e-04 -5.44961132e-02  1.51540458e-01 -7.52044097e-02
 -9.89128952e-04 -2.93386251e-01 -7.65139088e-02 -1.43997490e-01
 -4.06673877e-03 -2.16605367e-05  8.89771730e-02  1.01438433e-01]
[-3.33990753e-02 -3.64209116e-02 -6.67884899e-03  3.16719979e-01
 -3.23469751e-02 -4.52274233e-02 -1.56420938e-04 -3.28794383e-02
  5.58171794e-02  1.99533012e-02  1.07846543e-01  2.38128919e-02
 -1.92335956e-02  9.91029069e-02 -1.86609358e-01  2.28513917e-03
  6.64694700e-03 -1.37245998e-01 -5.30161411e-02 -8.34197178e-02
  1.01040602e-01 -5.94591141e-01  1.03066958e-01 -6.66176202e-04
  2.08930653e-02 -1.90364853e-01  1.24120526e-01  1.04630865e-01
 -7.03019798e-02 -7.48331249e-02  2.28535920e-01  3.25330794e-02
 -7.59881511e-02 -3.68781446e-04 -3.84032144e-04  8.16681609e-02
 -1.52170751e-02 -3.99474204e-02 -1.69951141e-01 -1.26057923e-01
 -1.62906185e-01 -2.06021294e-02 -1.32837713e-01 -4.70410511e-02
  4.39375763e-05 -1.95777733e-02  2.25148484e-01 -9.92324640e-05
  8.51771096e-04 -1.04315780e-01 -3.36332954e-02 -8.17218348e-02
 -5.47689677e-04 -1.56599954e-02 -1.75861463e-01 -5.86325452e-02
 -2.19324880e-04  7.82906637e-02 -1.10780172e-01 -1.84000596e-01
  1.38744886e-03 -3.59026424e-04 -1.19960256e-01 -1.86003014e-01]
[-4.33158875e-02  6.42827675e-02 -6.64841905e-02  1.38959605e-02
 -4.16204110e-02 -2.37254165e-02 -3.78493220e-04 -5.06488048e-02
 -1.81841012e-02 -8.06483775e-02  2.71025062e-01  5.11250086e-03
 -1.73999563e-01  7.37965629e-02 -9.53932926e-02 -7.61414645e-04
 -1.81560799e-01  1.09607039e-03 -3.83131430e-02 -8.23235232e-03
 -3.23320329e-02 -1.51379392e-01 -1.19059138e-01 -9.97904106e-04
  2.53195137e-01 -1.45967826e-01  1.64142877e-01 -7.39286318e-02
 -5.49866781e-02 -6.28081560e-02 -1.85402527e-01 -9.61670429e-02
 -1.24137495e-02 -7.19409552e-04  1.43219286e-03 -4.97002229e-02
 -9.35890600e-02 -5.43943532e-02 -2.51353353e-01 -1.29723057e-01
 -9.07159150e-02 -7.04030469e-02 -4.63054329e-02 -4.82514501e-02
 -5.58704557e-03 -3.69023383e-02 -2.06498732e-03  1.02727674e-03
 -1.34852598e-03 -8.53251293e-02 -5.35756722e-02  2.21998796e-01
 -1.14800711e-03 -5.04133403e-02  2.48019714e-02 -6.29599094e-02
 -6.15773606e-04 -1.40965253e-01 -3.57586853e-02 -6.19110130e-02
  9.92563670e-04  5.79113621e-05 -1.64506433e-03 -8.32857713e-02]
[-5.93049601e-02 -1.07966632e-01 -6.03752211e-02 -1.60646901e-01
 -3.95405851e-02 -2.80230306e-02 -3.30267969e-04 -4.17225584e-02
  3.03135570e-02 -3.21097585e-04 -1.53783426e-01 -1.39855426e-02
  7.44917169e-02 -9.01121423e-02 -1.79295689e-02 -4.85305180e-04
 -3.10884472e-02 -4.85060662e-02 -3.67300250e-02  1.09988600e-01
  2.59048883e-02  8.63995869e-03  3.08476556e-02 -2.33718500e-04
 -1.14121430e-01  2.40003318e-02 -4.10089716e-02 -2.57845642e-03
 -4.65269201e-02 -5.47424480e-02 -5.51732853e-02  4.10824507e-01
 -2.37464346e-02  8.25286133e-06 -1.64024159e-03  1.13027714e-01
 -6.13030195e-02 -4.41272408e-02  2.70591415e-02 -2.70360634e-02
  1.11965224e-01 -5.51139116e-02 -4.91202362e-02 -4.10053991e-02
  3.24457651e-04  7.45918695e-03  3.52487452e-02 -2.31274310e-03
 -1.58108119e-03 -3.15911844e-02 -4.36109491e-02  6.92833364e-02
 -4.54880064e-05 -4.59515192e-02 -1.00996336e-02 -4.55454364e-02
 -5.75138780e-04 -2.77702650e-03  2.43913606e-02 -3.54030319e-02
 -3.55467852e-03  4.13087691e-05  3.31640802e-02  8.57359767e-02]
[ 5.17449565e-02  1.23316385e-01  1.73159000e-02  9.44639370e-02
 -1.38706295e-03 -1.90345407e-03 -3.58834426e-04  3.87314823e-03
  1.92827620e-02  1.83090910e-01 -2.18252838e-01  5.08744121e-02
  2.34658957e-01  4.20933478e-02 -4.00224924e-02 -1.93084741e-03
  3.01457220e-03  8.15983117e-02 -3.27496510e-03 -6.46216199e-02
 -1.18370885e-02  1.56698570e-01 -4.48718481e-02  2.12699917e-04
 -1.18026957e-01 -7.06642717e-02  5.05582280e-02  1.34095907e-01
 -4.58418904e-03  5.67822307e-02  3.27951498e-02  4.62921001e-02
  4.37673880e-03 -6.01147985e-05 -2.89496197e-03  1.04082666e-01
  8.38125823e-04 -5.12473658e-03  2.00220689e-01 -9.32778232e-03
 -2.59927928e-01  1.84424669e-02 -2.21095048e-02 -1.62046868e-03
  3.03984643e-03 -6.55215532e-02  4.71214019e-02 -2.04217760e-03
 -1.95062996e-04 -3.89388949e-02  4.76302672e-03 -1.30688697e-01
  6.26509718e-04  4.48321039e-03 -5.30427918e-02 -7.60516897e-03
 -1.70938918e-04 -7.80426338e-02  1.19425533e-02  6.02231212e-02
 -3.29580018e-03 -3.06268659e-04  5.29462751e-03 -1.58091649e-01]
[-2.8294912e-02 -1.5007029e-01 -6.8557002e-02 -1.1307516e-01
 -4.3976087e-02 -3.6942504e-02 -3.7999486e-04 -5.2443940e-02
  2.8317563e-02  5.1251538e-02 -2.2953749e-01  6.0808058e-03
  1.4068024e-01 -3.8459230e-02 -6.7966275e-02  2.9201241e-05
 -9.0380264e-03  8.1903845e-02 -4.5725305e-02  2.2154808e-01
  2.2518264e-01  4.7725827e-02 -4.3317828e-02  3.1864335e-04
 -3.0737928e-01 -4.4968914e-02  5.4355282e-02 -2.6934400e-02
 -5.7578482e-02 -2.4943570e-02  1.1153982e-03  5.4788083e-01
 -3.4889001e-02 -3.8774073e-04 -2.4473190e-03  2.4425194e-01
  6.3177529e-03 -5.5824615e-02  6.7552745e-02 -2.8366920e-02
  1.0959495e-02 -1.4659034e-02 -2.0488355e-02 -4.1041955e-02
  7.4359856e-04 -8.9251094e-02  6.4191207e-02 -1.6265289e-03
 -2.6265318e-03 -7.1665473e-02 -4.5657016e-02 -5.0219703e-02
  3.8285574e-04 -5.3700890e-02 -6.0045835e-02 -6.1222520e-02
 -6.9897977e-04 -1.8191677e-02 -7.2967283e-02 -1.3604882e-02
 -4.8524202e-03  2.2055402e-04 -1.6131161e-02 -5.3527053e-02]
[ 5.2253623e-02 -4.4108505e-04  5.7366572e-02  3.4612611e-01
  8.1710424e-04  4.6788924e-03 -5.5988098e-04 -2.8818683e-03
 -8.7611750e-02  4.3455299e-02  9.9260837e-02  4.9799044e-02
  1.4139187e-02  3.6708698e-02 -1.8728850e-02 -2.1905981e-03
  4.3104221e-03 -3.4800805e-02  3.8212554e-03  1.6559301e-01
 -4.3694101e-02  4.2701755e-02  3.6283001e-02 -3.6439515e-04
  2.8452041e-02 -5.2043401e-02 -2.2997778e-02 -2.0244879e-01
 -5.6785494e-03 -1.1064679e-02 -2.1622947e-01  1.6138072e-01
  2.5846705e-02 -1.6744523e-05 -1.0747736e-03  1.7329368e-01
  4.1952722e-02 -6.2696952e-03  3.9318625e-02  1.8561820e-02
 -9.9139385e-02 -1.7786490e-02 -6.0370851e-02  3.3437901e-03
 -4.0222881e-03  9.1001898e-02 -7.5109877e-02 -8.2011247e-04
 -3.8338208e-06 -3.3451263e-02  3.5060032e-03 -6.0639344e-02
 -3.2675450e-04 -6.1064714e-04 -4.9879055e-02 -1.0565985e-02
 -5.4649275e-04 -1.3957480e-01  8.0038823e-02  8.8336403e-03
 -9.3212543e-04 -4.8989896e-04 -3.3009086e-02 -1.4194195e-01]
[-1.19067952e-01 -8.79155099e-02 -1.01234436e-01  2.20973864e-01
 -2.82836668e-02 -3.87435034e-02  9.54225543e-04 -1.26113649e-02
  1.17716894e-01 -1.65678188e-01  1.04410326e+00 -1.60161376e-01
 -1.50810540e-01 -1.55145988e-01  6.43059462e-02  1.04446150e-03
  1.50509691e-02 -9.70939621e-02 -4.02833670e-02  3.86673212e-02
 -2.24306947e-03 -1.10445224e-01 -3.97617817e-01  9.61712678e-04
 -5.90761006e-03  7.93230161e-02 -1.89628899e-01  4.95642535e-02
 -2.69863214e-02 -2.98903510e-02  1.49311766e-01 -5.06202467e-02
 -8.17711279e-02  7.50385458e-04  3.12474580e-03 -8.34451336e-03
 -7.37812370e-02 -1.32174976e-02  4.01442051e-02 -4.09014449e-02
  3.81379314e-02  3.70010268e-03 -9.65851471e-02 -3.78853232e-02
  1.79635361e-03 -1.67376682e-01 -1.33678034e-01  1.76876131e-03
  1.60492188e-03 -1.23264175e-02 -3.03265359e-02 -8.46034884e-02
  5.18506335e-04 -1.92292798e-02 -1.37137473e-01 -2.01195828e-03
  9.14639910e-04 -8.94502699e-02 -4.50539850e-02 -4.01467271e-02
  5.62922657e-03  4.34414396e-04 -8.31359029e-02 -2.57624965e-02]
[-3.95123661e-02  1.80832699e-01  1.48183620e-03 -7.36577138e-02
 -4.60823849e-02 -4.13478240e-02 -9.99205979e-04 -5.91542497e-02
  2.06046961e-02 -3.71464118e-02  3.61164004e-01 -1.05444856e-01
 -2.51197480e-02 -9.06529278e-02 -3.72489840e-02 -1.17399241e-03
 -3.77193168e-02 -4.24306504e-02 -3.69930118e-02  6.78275106e-03
 -1.69344798e-01 -5.09222485e-02  7.71424025e-02 -2.65314593e-04
  2.34650344e-01 -3.34518887e-02 -5.31488732e-02 -8.03215802e-02
 -4.02733274e-02 -1.16690613e-01 -6.01383448e-02 -5.16887233e-02
 -4.49349843e-02  3.69140645e-04 -3.76200047e-03  2.18859334e-02
 -8.79150257e-02 -4.68901284e-02  8.78853898e-04  1.06606982e-03
  1.95115786e-02 -7.21608326e-02 -1.58090685e-02 -4.38424759e-02
  3.89000378e-03 -5.70968278e-02 -5.17131761e-02 -2.87693320e-03
 -1.72553281e-03 -1.28715932e-01 -4.36418951e-02 -3.18730138e-02
  3.59995669e-04 -3.31798084e-02 -7.47387335e-02 -4.17438447e-02
 -5.79141080e-04 -1.98678505e-02 -1.53220510e-02 -1.67699024e-01
 -5.01949154e-03 -8.11892562e-04 -2.89057624e-02 -1.45580396e-01]
[-3.40907723e-02 -4.82637063e-02 -1.84268393e-02 -4.22035865e-02
 -2.67489813e-02 -2.03586891e-02 -5.59033768e-04 -3.24597098e-02
  5.45168780e-02 -4.50468399e-02 -4.63665962e-01  2.76938062e-02
 -1.66689903e-02 -6.92171529e-02  1.85821019e-02 -5.64916292e-04
  7.66146332e-02 -1.21750645e-01 -2.52502281e-02  1.71023197e-02
 -2.68535153e-03 -1.14629984e-01 -9.38452929e-02  3.97767697e-04
 -9.87088382e-02  3.52836885e-02  2.94754021e-02 -7.18872771e-02
 -2.56288443e-02 -4.51968759e-02  1.13278881e-01 -1.51336908e-01
 -2.14767437e-02 -1.38593648e-04 -1.93921907e-03 -1.75092593e-01
 -2.84873955e-02 -2.92069558e-02  1.39211712e-03 -1.82025635e-03
  4.20653298e-02 -3.13516967e-02 -3.11807543e-02 -2.65401956e-02
  7.16153707e-04  2.97817457e-02 -8.51529464e-02 -1.78255234e-03
 -1.33164693e-03 -3.48491818e-02 -3.06056254e-02 -6.19631596e-02
  1.48450723e-04 -3.27623300e-02  5.90712503e-02 -2.48383954e-02
 -6.02318265e-04 -3.72016133e-04  4.52580350e-03 -4.79014814e-02
 -3.39142676e-03 -4.78118513e-04  4.14776839e-02  8.75678807e-02]
[-9.3777098e-02  8.4567457e-02 -1.2593129e-01 -2.6763430e-01
 -2.3596661e-02 -1.9383593e-02 -8.9289191e-05 -2.8618399e-02
  6.4829774e-02  1.5020208e-01 -3.4107333e-03  9.8007366e-02
 -3.3339190e-01 -1.6234355e-02 -1.6080528e-01  7.2057656e-04
  6.5908216e-02  2.9664608e-02 -3.1085273e-02 -1.7369136e-01
 -6.9877401e-02 -5.4250801e-01  6.6175207e-02  9.2732109e-05
  4.7077224e-02 -3.7943322e-04  6.9973551e-02 -9.4322087e-03
 -4.5850173e-02 -1.0089145e-01  8.6071201e-02  2.3546051e-02
 -5.7339638e-02  2.9809430e-04  8.4915649e-05  2.9159408e-02
  6.3394746e-03 -2.6839528e-02 -2.0951569e-01 -5.0291974e-02
 -4.8805341e-02  2.6850903e-02 -1.8501927e-01 -3.0638307e-02
 -1.6090546e-03 -1.4298808e-02 -1.3100749e-01  7.6617725e-04
 -2.9739062e-04 -1.0543046e-01 -3.0190164e-02  1.9825827e-01
 -1.3850867e-04 -2.2798732e-02  1.3128703e-02 -3.8414776e-02
  8.3188061e-05  1.6124503e-01 -1.8063326e-01 -1.8127066e-01
 -2.7781716e-04 -3.7265047e-05 -3.1176503e-03 -4.4650406e-02]
[ 6.33797189e-03 -1.34775534e-01  1.07300967e-01  7.58400336e-02
 -4.70050727e-04  4.50841757e-03 -1.22786787e-05  6.03112532e-03
 -7.52090961e-02 -1.09229293e-02 -1.87275726e-02  3.17137614e-02
 -8.44605360e-03 -4.73995926e-03  6.47949725e-02  7.85574608e-04
 -2.85540354e-02 -2.61869609e-01 -1.58903887e-03 -2.56342888e-01
 -1.30630821e-01  2.35447079e-01 -2.19956622e-01 -3.26402333e-05
  9.81653407e-02  1.59003004e-03  2.91379588e-03 -1.56734481e-01
  4.17704042e-03 -9.72898118e-03 -5.94482897e-03  3.96431014e-02
 -1.59978736e-04  2.28990157e-05  1.05936220e-03  1.11923486e-01
 -3.08544207e-02  3.37543455e-03  1.24125697e-01 -1.31573519e-02
 -4.66679148e-02 -2.48469617e-02  5.84459901e-02 -3.72406282e-03
 -6.81522870e-05  8.12984183e-02 -2.12864146e-01  1.61506352e-03
 -2.56195199e-04  2.96731349e-02  2.41321206e-04  2.47112494e-02
  3.88503046e-04  2.18267576e-03  2.53565699e-01  4.83730435e-03
  4.84174234e-05 -1.88398615e-01  5.79066798e-02 -1.26073780e-02
  2.61221692e-04  9.86243685e-05  2.02068454e-03  9.78528261e-02]
[-1.74616706e-02 -1.20168209e-01 -9.47596878e-03 -2.01864377e-01
 -1.61476228e-02 -7.26654846e-03 -8.32641599e-05 -1.80585030e-02
 -3.37476023e-02 -1.01768658e-01  1.09012716e-01 -4.37620208e-02
 -3.89231630e-02 -7.54458457e-02  4.17565182e-02  8.28661025e-04
  9.94248409e-03 -5.43527789e-02 -8.42848048e-03  3.33255380e-02
 -5.97107038e-02 -5.89975901e-02  1.75428852e-01 -4.95347311e-04
 -2.71278590e-01  9.85788852e-02 -1.40018985e-01 -5.15786558e-02
 -3.52051039e-03 -4.80308048e-02 -2.17692573e-02  1.56457692e-01
  2.36410182e-03 -1.63681485e-04 -5.27591095e-04  2.10712045e-01
 -7.79899508e-02 -1.38812130e-02  1.14185065e-02  2.79471762e-02
  3.15118507e-02 -2.87384745e-02  1.25970691e-03 -1.19090797e-02
  7.36328540e-04  6.76616793e-03 -6.64961338e-02 -1.03823410e-03
  9.77987656e-04 -4.01053764e-02 -1.56961009e-02 -2.99964398e-02
 -7.72093073e-04 -1.35316933e-02 -8.74500498e-02 -5.14962338e-03
 -2.33964092e-04 -1.49895191e-01  4.93044853e-02 -6.77233934e-02
 -1.13906601e-04 -1.68721017e-04  6.06315630e-03  3.85157131e-02]
[ 2.2130003e-02 -7.6950677e-02  2.1471431e-02  1.9191220e-02
 -1.3856956e-02 -5.0862674e-03 -5.2277232e-04 -2.4610255e-02
 -3.7161905e-02  1.1800072e-03  8.9477591e-02  7.9741376e-04
  3.8015477e-02  1.1660831e-02  2.5364226e-02 -4.5309094e-04
 -7.6465845e-02  6.8634368e-02 -9.6356329e-03  2.3814689e-01
  4.9449950e-02  4.0067811e-02 -1.0494423e-01 -3.8743907e-04
  1.1928422e-01  9.3885008e-03  6.9302566e-02 -9.5041372e-02
 -1.1751012e-02 -4.9945913e-02 -1.4465076e-01  1.5583582e-01
  1.4712018e-02 -5.1785068e-04 -8.3317014e-04  6.1947163e-02
  3.7511424e-03 -1.8734969e-02 -8.3007313e-02  9.1915522e-03
  7.5627059e-02 -4.1470621e-02 -1.6056914e-02 -1.1598240e-02
 -7.0202089e-04 -3.8104004e-04  4.2553611e-02 -8.6622662e-05
 -6.6337211e-04 -4.6752494e-02 -1.8252125e-02 -5.7601184e-02
 -4.7450705e-04 -2.2770153e-02 -4.1481204e-02 -1.8561702e-02
 -3.2381923e-04 -1.0074092e-01 -6.3370937e-03 -5.8556691e-02
 -1.8235402e-03 -1.8200153e-04 -2.3932353e-02  2.7372933e-03]
[-4.73064929e-02 -4.98621128e-02 -4.66015078e-02 -8.44090208e-02
 -3.04619446e-02 -1.63795408e-02 -8.21152062e-04 -3.04308943e-02
  1.10618575e-02 -9.36527401e-02 -4.33709882e-02  5.26251234e-02
 -1.75097257e-01 -4.75911610e-02 -1.27611205e-01  1.80433609e-03
 -8.36872831e-02 -9.59082022e-02 -3.26648243e-02 -1.06392484e-02
 -5.12007773e-02 -1.10292703e-01 -2.69935071e-01 -2.48119497e-04
  1.96888167e-02 -1.37155250e-01 -3.60682867e-02 -1.89889386e-01
 -3.89911309e-02 -4.57584932e-02 -7.24063590e-02 -1.00207396e-01
 -1.17703713e-02 -3.70233000e-04 -1.87063485e-03  1.28361642e-01
  3.34959254e-02 -3.20264138e-02 -1.51176021e-01 -6.91153258e-02
  5.33898920e-02 -1.44894645e-02 -1.09606072e-01 -3.55693884e-02
 -3.45596741e-03  3.98538262e-02 -2.06865016e-02 -2.50612013e-03
 -2.31849938e-03  9.98957604e-02 -3.98857482e-02  2.45983049e-01
  3.79283563e-04 -3.04116327e-02  6.18568771e-02 -4.08363268e-02
 -9.68524546e-04 -1.26920283e-01 -8.21875632e-02 -7.64976293e-02
 -9.54181072e-04 -7.96829001e-04 -3.82943661e-04 -1.27198264e-01]
[-1.58453397e-02  5.95601881e-03  1.00575849e-01  2.48817429e-01
 -3.98734137e-02 -4.07569669e-02 -1.31647495e-04 -4.36681397e-02
  1.43936172e-01  6.20070882e-02 -2.96699762e-01 -5.09203151e-02
 -4.38840538e-02  4.63031493e-02 -8.64025578e-02 -2.13191891e-03
  1.69857461e-02  2.63538603e-02 -4.65775803e-02 -1.98568944e-02
  6.26985952e-02 -1.59335807e-01  6.12079585e-03 -3.62199753e-05
  1.17290296e-01 -1.05983235e-01  1.34191915e-01 -3.73777270e-01
 -4.89468127e-02  2.16871471e-04  1.39467604e-02 -2.53619943e-02
 -3.21392566e-02 -2.45401054e-04 -1.69959385e-03 -7.00742230e-02
  3.70404534e-02 -4.39226329e-02 -3.09161898e-02 -5.13699315e-02
  5.29162101e-02 -3.96133736e-02 -1.54664114e-01 -4.37275805e-02
  1.99397502e-04  9.31920186e-02  6.90215454e-02 -1.80043071e-03
 -5.29519457e-04 -2.28619277e-02 -4.89767715e-02  9.32140872e-02
 -2.78004503e-04 -4.18462567e-02 -6.09728873e-01 -4.84296605e-02
 -4.14974929e-05 -2.33389195e-02 -8.04060921e-02  2.20330488e-02
 -1.88174821e-03  2.75430910e-04 -1.99749127e-01 -3.11672658e-01]
[-3.53820994e-02  3.75424922e-01 -6.44124523e-02  3.77404898e-01
 -4.79199290e-02 -3.74212228e-02 -3.36226862e-04 -5.52359298e-02
  5.67205846e-02  6.86490536e-02 -2.76621785e-02  2.08321922e-02
  2.94650421e-02  2.08715443e-02  2.19837278e-02  4.34255344e-04
 -1.01135805e-01 -8.40240121e-02 -4.71958257e-02  7.68863112e-02
 -7.77150467e-02 -8.79355986e-03  7.07503185e-02  7.61595802e-05
  3.58827710e-01 -2.70686224e-02  1.15494274e-01  5.27935289e-02
 -4.45168577e-02 -6.19567558e-02 -6.52035177e-02 -2.05032647e-01
 -1.59384143e-02  1.38299030e-04  5.29733879e-05 -9.45211872e-02
 -3.45319211e-02 -5.01595177e-02 -1.59947518e-02 -5.10952435e-02
 -1.36732191e-01 -4.32156362e-02 -7.18943169e-03 -4.91315126e-02
  3.77340621e-05 -5.73846847e-02 -1.28119692e-01  5.33187645e-04
 -1.35139632e-03 -3.40556353e-02 -6.12596199e-02  2.78355014e-02
  2.32500970e-04 -6.44259527e-02  5.09531796e-02 -5.05215675e-02
 -3.48500500e-04 -4.83383983e-02 -8.87174830e-02 -9.31286588e-02
 -1.08916464e-03  2.07528301e-05 -4.31185029e-02 -7.77591020e-02]
[ 1.65438093e-03 -6.00976869e-02  1.71177909e-01 -1.94058955e-01
  3.99055984e-03  1.59789082e-02 -1.03763938e-04 -2.26828875e-03
 -6.57206029e-02 -1.42540857e-01  1.91421464e-01 -1.83680467e-02
 -5.72592951e-02 -2.09700406e-01  7.84282610e-02  1.92490336e-03
  1.72390435e-02 -1.49868727e-02  1.43449558e-02 -5.33787534e-02
 -7.99651667e-02 -2.25657046e-01 -6.27927035e-02  4.15794435e-04
  2.52522111e-01  1.94318786e-01 -9.28739756e-02 -1.22369066e-01
  2.49251649e-02 -6.24585561e-02 -3.57190333e-02 -4.22536023e-02
  4.07110602e-02  2.87884061e-04 -3.72695329e-04  4.84755635e-02
 -1.11935847e-02  9.97131877e-03  8.01581964e-02  1.08894236e-01
  2.20955983e-01  2.17414781e-04 -2.46620122e-02  1.04676606e-02
  1.08844391e-03  1.94376752e-01  3.23902932e-05  6.66318461e-04
 -6.92783797e-04 -1.97281409e-03  2.29951972e-03 -1.20904289e-01
  4.03719721e-04  6.84001483e-03 -3.63454036e-02  2.06457004e-02
 -2.12643208e-04  6.83878735e-02 -6.79413229e-02 -1.47689015e-01
 -6.31834730e-04 -3.39630293e-04 -9.79085863e-02  1.14162594e-01]
[ 3.16845104e-02 -6.80287480e-02  3.64515185e-02  2.96128362e-01
  6.38093799e-03 -1.73086452e-03 -1.81688214e-04  6.61630416e-04
 -8.63510091e-03  6.94499984e-02  8.66141468e-02 -4.77373526e-02
  3.17952216e-01 -6.22322075e-02 -2.28772741e-02  1.87238955e-04
 -5.97589575e-02 -7.18010962e-02  4.81365854e-03  1.66051582e-01
 -1.45571604e-01  1.49509251e-01 -1.13494046e-01 -1.34300833e-04
  2.62813512e-02  7.72668272e-02  2.85713710e-02 -3.96939442e-02
  1.33418739e-02  3.16517986e-02 -8.72252509e-02 -4.34321687e-02
  1.17132235e-02  1.42030724e-04 -3.11329844e-03  4.34199795e-02
  1.72286496e-01  9.64033604e-03  1.85399786e-01  3.50507908e-02
 -4.05123159e-02  3.61579992e-02  2.76310109e-02  8.72322358e-03
  2.84733670e-03  2.72900909e-02 -1.12109847e-01 -1.24281575e-03
 -6.64043182e-04  1.53343871e-01  3.64701566e-03 -2.37682074e-01
  1.78610411e-04  6.41059596e-03  1.50006324e-01  5.52941021e-03
 -1.78231552e-04  2.59681735e-02 -1.49344593e-01  1.22968610e-02
 -4.50360868e-03 -1.31511842e-04 -9.39735472e-02  1.22323595e-01]
[-6.81529045e-02 -1.81263715e-01  3.65828685e-02 -7.08955154e-02
 -3.46800983e-02 -3.32646556e-02 -6.72737369e-05 -3.26709524e-02
 -2.13792250e-02  1.04394674e-01 -1.27688661e-01 -5.81212761e-03
  1.73429504e-01 -1.51252866e-01  1.53971892e-02 -3.33735079e-04
 -7.35923601e-03  3.50389965e-02 -3.67278159e-02  9.15969983e-02
 -2.28859521e-02 -4.19073850e-02 -1.43370569e-01 -4.18576165e-05
 -1.21426433e-01 -5.44218160e-02 -8.20100866e-03 -1.18082635e-01
 -4.36013564e-02 -6.89540133e-02 -1.79378733e-01  2.73168117e-01
 -2.97283418e-02 -1.64356505e-04  3.20442399e-04  2.67737985e-01
 -1.30884022e-01 -3.53448130e-02 -1.21713303e-01 -4.44042794e-02
  2.07125749e-02 -8.19465443e-02 -7.72372410e-02 -3.83694582e-02
 -5.72639517e-04  7.96500668e-02  1.22826755e-01  4.56891285e-04
 -1.16331840e-03 -5.51051535e-02 -3.69765125e-02  6.53119087e-02
  5.89784700e-04 -3.45645174e-02  3.34569290e-02 -3.06878779e-02
 -1.71930064e-04 -6.52877092e-02  3.48814800e-02 -4.86439429e-02
 -8.89135292e-04  2.54262734e-04 -5.21317646e-02 -4.08575684e-02]
[ 1.13479458e-02  2.54506059e-02 -7.55801238e-03 -2.85071433e-02
 -2.45536072e-03 -9.29274596e-03  2.05710021e-05 -8.15726933e-04
  1.75134867e-01  8.17442909e-02  2.94248853e-02 -1.16486974e-01
  3.43699604e-02 -5.53106703e-02 -7.08737075e-02  6.61161976e-05
 -1.13008052e-01  2.27539483e-02 -5.06968331e-03  1.41375616e-01
  7.22411945e-02  4.23141867e-02  8.35159943e-02  6.67630171e-04
 -4.66456115e-02 -8.47372934e-02  1.70598179e-01 -2.24799693e-01
  1.32948393e-03 -1.40782958e-02 -5.71770184e-02  1.20037958e-01
 -7.50036910e-03  2.48569093e-04  1.43517903e-03 -5.68040200e-02
  3.28576490e-02  1.64529483e-04 -2.09388047e-01 -5.84894642e-02
  7.66676068e-02 -1.75029039e-02 -6.72482923e-02 -1.91916304e-03
 -4.64669196e-03 -4.49691489e-02  1.66799486e-01  8.32555990e-04
  3.30765150e-04  2.78140381e-02 -2.90870410e-03  1.50551021e-01
  3.25714296e-04  6.52704248e-03 -3.20108324e-01 -1.33567490e-03
  2.67476949e-04 -1.21916033e-01 -8.98538306e-02 -8.90785013e-04
  3.68718687e-03 -1.00122008e-04 -2.18489408e-01 -1.08009741e-01]
[-2.8821828e-02  8.8842340e-02 -8.5906744e-02  2.0005772e-01
 -3.0972764e-02 -4.2602498e-02 -1.8938098e-04 -3.7322722e-02
  1.2936047e-01  8.1536457e-02 -2.2587390e-01 -3.1214567e-02
 -6.7865543e-02 -1.4848641e-01 -1.4789934e-01 -3.4800696e-04
 -1.3070118e-01 -1.1599455e-02 -3.8908131e-02  1.3707124e-01
  1.4622569e-01 -6.3274555e-02 -1.0127223e-01 -4.4604158e-04
 -1.0871223e-01 -9.5116377e-02  1.0170301e-01 -2.0901063e-01
 -4.6098724e-02 -5.3402290e-02 -5.5654984e-02  6.2572606e-02
 -4.0676948e-02  2.7542430e-04 -1.0867092e-03 -1.2582226e-01
 -9.8384153e-03 -3.5174660e-02 -5.1305376e-02 -7.1321093e-02
  2.0109124e-02 -4.3596536e-02 -6.8962514e-02 -3.3795770e-02
  2.9094148e-04 -7.0944399e-02 -3.2409027e-02 -7.9126866e-04
 -3.2024062e-04  2.8389897e-02 -3.3549719e-02  2.2873496e-01
 -8.3100528e-04 -2.3631444e-02  1.9395961e-01 -4.7914505e-02
 -3.0936464e-04 -1.4114280e-01 -1.6633303e-01 -4.6057738e-02
 -2.9205699e-03 -1.9602924e-04 -1.7613298e-01  7.0123471e-02]
[-6.2809639e-02 -1.0840615e-01 -4.6815231e-02 -1.9086559e-01
 -3.0824581e-02 -2.2903802e-02  4.1391386e-04 -2.4387693e-02
 -1.1644298e-02  1.9481376e-02  6.8326376e-02 -5.4066904e-02
  1.4698010e-02 -1.2880345e-01 -6.0635395e-02 -1.2804831e-04
  5.8465697e-02 -4.5555672e-03 -3.5610534e-02 -1.1713322e-01
 -5.2841939e-03  5.6374364e-02 -9.7480282e-02  9.7093085e-05
 -4.1456035e-01 -1.1925237e-02 -1.3861330e-01 -6.2618963e-03
 -4.5173936e-02 -2.0182692e-02  2.1072751e-02  1.1466153e-01
 -4.7581084e-02 -1.3627474e-04  1.8806587e-04  5.2886479e-02
  3.4915858e-03 -3.1434506e-02 -4.1130174e-02 -4.0510543e-02
  1.5766740e-02 -4.8648925e-03 -1.0550346e-01 -3.7619241e-02
  4.6357294e-04 -1.3722352e-02 -1.0589739e-02 -5.0721876e-04
  5.8037194e-04 -2.8985059e-02 -3.1391546e-02  8.0082975e-02
 -6.7653003e-05 -2.3001986e-02 -2.2812502e-02 -3.3584781e-02
  3.6021072e-04  2.6042914e-02  7.5656478e-03  1.8665411e-02
 -1.7142412e-04  4.5064191e-04  6.5078167e-03  1.5872965e-02]
[ 5.41890925e-03  1.87574718e-02  6.56454824e-03 -2.07216844e-01
 -5.30583085e-03  7.73634005e-04  1.27755775e-04 -1.16669084e-03
 -9.54328254e-02  2.84764487e-02 -1.48239836e-01  1.30968034e-01
 -1.17533475e-01 -1.14094801e-01 -5.39926696e-05  7.61468778e-04
  1.75401371e-03 -2.78204173e-01 -6.13692682e-03 -1.74550667e-01
 -1.36945829e-01  3.01967002e-02 -2.81919818e-02  5.60592511e-04
 -2.44272217e-01  1.22189634e-01 -8.86967406e-02  1.18484557e-01
 -6.15000259e-03 -8.42069089e-03 -1.15790954e-02  3.82881984e-02
 -5.52286673e-03 -3.09645766e-05  1.24655326e-03  3.66202667e-02
  6.88353106e-02 -2.69632088e-03  2.47014403e-01  7.70317465e-02
 -2.47372407e-02  2.55215988e-02 -1.44071449e-02 -4.76366468e-03
 -1.90888345e-03 -3.38221714e-02 -1.69944987e-01  9.35384887e-04
 -1.96092739e-03  2.59238482e-02 -1.64000783e-03  1.20029300e-01
  1.18601532e-03  7.37940473e-03  8.23965669e-02 -3.27005517e-03
  2.01095478e-04 -9.60232597e-03  4.19468200e-03 -9.55366530e-03
  1.62803131e-04  2.40533365e-04  1.26719162e-01  2.69008666e-01]
[-1.21248085e-02  1.02311164e-01  4.79869880e-02  1.12140924e-01
 -1.35575151e-02 -1.95427984e-02 -3.58043500e-04 -8.43783375e-03
  1.66644491e-02  1.71226561e-01 -6.15991317e-02  4.80907336e-02
  1.62471905e-01  7.21469745e-02  2.92253233e-02 -1.16442243e-04
 -5.86156212e-02  3.89703959e-02 -1.90268662e-02 -1.15110025e-01
  8.31130147e-02  3.76142301e-02 -1.36955425e-01 -2.83324509e-04
 -3.30192670e-02 -4.27987948e-02  1.75602257e-01  2.09404171e-01
 -1.02494955e-02  3.62017974e-02  5.54373376e-02 -3.89472768e-02
 -3.31119224e-02 -3.29894741e-04 -3.22938780e-03 -1.79611176e-01
 -1.10582575e-01 -9.92642809e-03  1.60404310e-01 -8.02163184e-02
  4.63663600e-03 -3.42612080e-02  5.68170436e-02 -1.76193863e-02
  2.99277087e-03 -2.57289764e-02  1.12046160e-01 -1.37379451e-03
 -7.60709110e-04 -6.21853955e-02 -1.46852480e-02 -3.57742965e-01
 -2.64777627e-04 -1.23807164e-02 -1.65290851e-02 -4.72731004e-03
 -2.41042100e-04  7.48855174e-02 -5.01906574e-02  5.75963296e-02
 -6.36529410e-03 -2.75957136e-04  2.65995064e-03  1.36485368e-01]
[ 7.2313845e-04 -1.0770905e-01 -4.9642004e-02 -1.9519727e-01
 -5.8988845e-03 -3.6076431e-03 -5.5820984e-04 -8.5954731e-03
  1.7740829e-02 -1.6197685e-02 -5.2588928e-01 -2.0467579e-02
  1.5485764e-01 -3.2744672e-02  3.6276288e-02  7.9850550e-04
 -2.1415476e-02  7.5130500e-02 -5.4705492e-03  1.3493496e-01
  6.9563836e-02  8.7098688e-02 -4.6895806e-02  3.0600486e-04
 -2.4694380e-01  3.7389629e-02 -1.0805251e-01  1.4316767e-01
 -5.9508048e-03  1.9781390e-02  1.1410105e-01  1.0976175e-01
 -7.7920803e-03  2.0748677e-04 -1.6645595e-03  5.7752069e-02
  3.6270797e-02 -4.8706755e-03  8.7687172e-02  2.0461744e-02
  3.7822772e-02  3.3813566e-02  3.7007511e-02 -6.9858767e-03
  2.4071883e-03 -1.5617274e-01  3.0255402e-02 -1.4717699e-03
 -1.5525722e-03  3.6633197e-02 -7.8743510e-03 -3.0195953e-02
  8.8333432e-04 -8.1271511e-03  4.8767969e-02 -4.2218496e-03
 -4.3774396e-04 -6.4883843e-02 -1.1689080e-02  1.8286061e-02
 -2.5295427e-03 -3.0829397e-04  1.1452020e-01  5.3747490e-02]
[ 3.15731764e-02  3.35823037e-02 -4.26725931e-02 -1.97236225e-01
 -9.02282726e-03 -4.47959360e-03 -3.78332101e-04 -1.12836165e-02
 -2.20921217e-03  3.70696336e-02 -9.27179977e-02 -1.58741903e-02
  1.72450483e-01 -3.76925766e-02 -6.92031682e-02  2.85692484e-04
 -1.06937960e-01  4.36293930e-02 -9.72807687e-03  3.00924592e-02
  9.48982406e-03  2.51050424e-02 -1.09166406e-01 -6.19093014e-04
 -1.52969658e-01 -3.62575427e-03  4.88441549e-02 -1.27330124e-01
 -1.50670018e-02  4.84838802e-03 -9.68752429e-02  1.29384205e-01
  1.59381721e-02 -2.94211233e-04 -1.30642927e-03  2.77475297e-01
  1.32244512e-01 -1.30344862e-02  5.29123247e-02  1.74987428e-02
 -1.12095639e-01  4.46572192e-02 -2.36358885e-02 -8.19821842e-03
  1.19084318e-03 -1.43486172e-01  2.40985514e-03 -1.33136264e-03
 -5.23038791e-04  5.43148406e-02 -1.06499130e-02  6.16529435e-02
 -2.88123090e-04 -5.72248315e-03 -5.69890160e-03 -1.94969699e-02
 -4.55713453e-04 -2.04287902e-01 -5.85485399e-02  1.23509485e-03
 -2.52964254e-03 -2.31145721e-04  4.24725302e-02 -2.61102449e-02]
[-9.82035138e-03 -1.85998762e-03 -3.05370707e-02 -8.10641050e-02
 -2.72549484e-02 -2.53897868e-02 -2.72392645e-04 -3.24618146e-02
  5.14166355e-02 -1.16121419e-01  1.66468218e-01 -5.14610112e-02
 -1.17487483e-01 -2.47819964e-02 -1.69270374e-02  4.12655005e-04
 -1.44906238e-01 -8.96647274e-02 -2.34302115e-02  1.85266525e-01
 -4.56315726e-02 -1.09136969e-01  1.81970149e-01 -9.84138169e-05
  4.83458303e-02 -3.91668603e-02  3.92598286e-02  2.22368725e-02
 -2.06288025e-02 -5.67978993e-02 -9.35817361e-02 -5.48905246e-02
 -6.63308240e-03 -6.32129959e-04 -1.39536639e-03  2.74694785e-02
 -6.02978542e-02 -2.66652629e-02 -2.16520831e-01 -2.96959113e-02
 -2.87096128e-02 -4.11181971e-02  5.36458716e-02 -2.49082223e-02
  1.33194891e-03 -6.87459782e-02 -7.48469159e-02 -1.31488417e-03
 -8.45956791e-04 -6.31024390e-02 -2.91039459e-02 -6.90510198e-02
  5.59099717e-05 -2.45656818e-02  5.10611758e-02 -2.61540972e-02
 -4.19827033e-04 -1.86070859e-01 -1.73869412e-02 -1.12562336e-01
 -2.14567874e-03 -1.35627488e-04  5.57486564e-02 -1.05643243e-01]
[ 3.67116393e-03  2.11347640e-02 -2.61570793e-02 -8.48889574e-02
 -2.43483167e-02 -2.19870750e-02 -3.77109944e-04 -1.90152209e-02
  3.64798382e-02 -3.31167467e-02 -1.49523348e-01 -5.61872646e-02
 -2.87609771e-02 -7.64071271e-02 -2.33892668e-02 -1.38723175e-04
  4.23744600e-03 -3.76946889e-02 -2.89778952e-02  2.00644359e-02
  1.38590075e-02  1.14628494e-01 -5.02144814e-01  2.81342800e-04
  8.09275433e-02 -3.45184058e-02 -2.24679802e-02 -6.22436702e-02
 -3.28744091e-02  5.01289740e-02  1.13216199e-01 -2.41891995e-01
 -2.56003365e-02 -2.08051628e-04 -8.97588790e-04 -1.96648419e-01
  6.93846792e-02 -2.52969880e-02  7.67062455e-02 -9.60837491e-03
 -8.43119994e-02  2.63844468e-02 -5.35235889e-02 -2.88630538e-02
  1.76507107e-03 -1.15249403e-01 -9.02140364e-02 -1.44239387e-03
 -1.60495506e-03 -1.56248175e-02 -2.45430823e-02  1.79704711e-01
  1.14228413e-03 -2.69408077e-02 -1.33914173e-01 -2.59557981e-02
 -1.65714257e-04  2.08416078e-02 -5.08888401e-02  7.59086981e-02
 -1.49537122e-03 -1.47597588e-04 -3.65961455e-02 -9.39454734e-02]
[-5.6084085e-02 -8.0440558e-02 -6.7752510e-02  8.6791962e-01
 -1.5899733e-02 -1.0164408e-02 -4.7958642e-05 -8.3192466e-03
 -1.4261451e-02  3.5732895e-02 -4.8777321e-03 -1.5121683e-02
  1.5210718e-01  2.5546715e-02 -4.4468768e-02 -4.4041514e-04
 -1.9126531e-02 -2.1520139e-01 -1.5525658e-02 -2.0394765e-01
  5.5077586e-02 -1.8532526e-02  9.4243661e-02 -8.1834482e-04
 -1.5170013e-03  7.9004206e-02  4.8769958e-02 -3.6595568e-02
 -1.8354340e-02 -3.3242982e-02  3.9844885e-02 -4.8849039e-02
 -2.4263101e-02 -7.3329057e-04  1.4160243e-03 -9.4598062e-02
 -1.4401032e-01 -1.5963126e-02  5.8023864e-01 -7.4046463e-02
 -2.6409302e-02 -2.9180598e-02 -2.1518137e-02 -1.9997759e-02
 -7.9903342e-03  4.0048659e-02 -1.3376015e-01  2.5705862e-04
  1.0341071e-03 -2.6040513e-02 -1.3226633e-02 -1.3591174e-02
 -1.2206218e-03 -1.0884448e-02  4.5563400e-01 -1.7686244e-02
 -3.6910444e-04 -1.4993878e-01 -7.2979955e-03 -2.5070677e-02
  4.4051092e-03 -9.2958624e-05 -4.6178810e-02  3.4114173e-01]
[-0.01017621  0.0329918  -0.05984706 -0.32662475 -0.05321228 -0.04702283
 -0.0009609  -0.07839334  0.12250325 -0.03071223 -0.22530472 -0.07321099
 -0.07303649  0.0180507  -0.07163603  0.00114471 -0.19928184  0.11759074
 -0.05067702  0.21202087  0.1756885  -0.0863357  -0.0459196  -0.00035686
  0.05628671 -0.01832872  0.26620275 -0.07472573 -0.05576913 -0.07840885
  0.00233027  0.06167788 -0.01821588 -0.00074247 -0.00077796 -0.09121882
 -0.04151476 -0.06497715 -0.23418613 -0.06378407  0.0163171  -0.0568551
 -0.03981939 -0.0538807  -0.00069923 -0.13822147  0.13886577 -0.00041456
 -0.00264263 -0.07737464 -0.06939974  0.19379169  0.00035373 -0.06099851
 -0.05193345 -0.06941962 -0.00082812 -0.11402865 -0.1957046  -0.11850211
 -0.00162181 -0.00056137 -0.0772528  -0.00423211]
[-7.07444474e-02 -6.58912584e-02 -1.57372341e-01 -1.74885184e-01
 -2.72203162e-02 -2.34407652e-02 -2.07763020e-04 -2.18649935e-02
  4.71283942e-02 -2.03199172e-03 -1.40100598e-01  3.56781334e-02
 -8.28723907e-02 -1.10187538e-01 -4.17269431e-02 -1.47900940e-03
  4.77630869e-02 -7.55204856e-02 -2.83495151e-02  5.95900342e-02
  1.00777321e-01  8.13703313e-02 -4.63153571e-02 -1.24476792e-04
 -1.49315044e-01 -4.36237156e-02  8.42946842e-02 -8.32397863e-02
 -4.04418111e-02 -1.73136238e-02 -1.46646947e-02  1.11854635e-01
 -3.53120267e-02 -8.99857623e-05 -3.23535805e-03  7.12833777e-02
 -8.34269449e-02 -3.04642878e-02 -2.17354938e-01 -3.75769362e-02
  1.89497709e-01 -4.10940237e-02 -4.04520631e-02 -3.00316699e-02
  1.98911526e-03 -5.82212880e-02  7.77160749e-02 -3.82560934e-03
 -6.49561174e-04 -6.03317879e-02 -2.42653172e-02  1.69853419e-01
 -2.93249206e-04 -2.87497509e-02 -1.00264117e-01 -3.48734111e-02
 -4.58779396e-05 -5.93404099e-02  7.34609365e-02  5.52379265e-02
 -4.14670212e-03  4.43482641e-05 -6.68792203e-02 -1.24293707e-01]
[-5.2922398e-02 -1.2741789e-01 -3.2101493e-02 -1.2502928e-01
 -2.7771195e-02 -2.1460947e-02 -3.1027547e-04 -2.9807726e-02
  7.1770586e-02  1.4539927e-02 -3.6914432e-01  3.7186775e-02
 -3.3304747e-02 -5.3289704e-02 -1.2618608e-02 -2.3853583e-03
  5.8591574e-02 -4.4167176e-02 -2.8799875e-02  1.7204303e-02
 -4.2432235e-03 -2.9692736e-02 -3.9917924e-02 -2.0390548e-04
 -2.1042423e-01 -4.2955164e-02  8.0755688e-02 -5.2950855e-02
 -3.6871698e-02 -4.1647833e-02  7.7576086e-02  7.0979312e-02
 -2.2985473e-02  7.8465229e-05 -2.1361839e-03 -9.5952623e-02
 -4.8699748e-02 -3.1448960e-02 -5.4412968e-02 -3.9308004e-02
  3.4061112e-02 -4.4763390e-02 -2.3676811e-02 -3.0908708e-02
  8.1733684e-04  3.8637176e-02 -1.0272239e-01 -1.6859262e-03
 -6.7529798e-04 -4.3866374e-02 -3.1620450e-02  3.6530983e-02
 -2.6399898e-04 -3.0747170e-02  8.2723446e-02 -3.2531168e-02
 -2.0341344e-04 -4.2361569e-02  4.4460714e-02 -1.3288176e-02
 -3.5591137e-03 -2.9973759e-05  9.5167816e-02 -7.1026817e-02]
[ 1.08633786e-02 -9.26763564e-02 -9.11581330e-03 -1.68091822e-02
 -1.27919605e-02 -8.90743546e-03 -5.93814693e-05 -1.52244912e-02
 -5.66714145e-02 -3.94228920e-02  2.27540359e-01 -3.35205421e-02
 -8.56616125e-02 -4.34194840e-02 -1.49912490e-02  2.01774965e-04
 -2.70788111e-02 -6.03858344e-02 -1.04667218e-02  2.78266575e-02
 -6.63244948e-02  8.68483819e-03  2.16936275e-01 -3.21910426e-04
 -2.28743777e-01  1.63629465e-02 -1.33869454e-01 -1.42986849e-01
 -1.12118991e-02 -2.79894788e-02 -1.20040439e-01  1.29874468e-01
  1.78007677e-03 -3.57289711e-04 -1.00985414e-03  1.81644708e-01
  1.85127500e-02 -1.37403477e-02  7.31427372e-02  1.79543290e-02
  2.90913749e-02  6.64205011e-03  8.44547711e-03 -9.97056533e-03
  2.91485514e-04 -4.66663912e-02 -9.78527889e-02 -9.21269995e-04
  5.48905809e-04 -1.62538178e-02 -1.18858833e-02 -3.15159187e-02
 -7.64332770e-04 -7.80650321e-03 -3.76572832e-02 -1.28607620e-02
 -1.29198437e-04 -1.62313938e-01 -1.77291408e-02 -3.06273364e-02
 -9.69670888e-04 -4.45010483e-05  4.14617406e-03 -2.45341333e-04]
[-8.57106447e-02 -9.43719933e-04 -5.96086830e-02  1.84709758e-01
 -1.83515735e-02 -1.21309711e-02 -3.75068514e-04 -6.28150115e-03
  6.21675923e-02 -9.81878936e-02 -5.53788781e-01 -7.93613419e-02
 -6.64360747e-02  6.91293553e-03 -1.55585036e-02 -4.45211743e-04
  6.42247126e-02 -4.59347486e-01 -2.94891074e-02 -5.01264967e-02
 -1.42878130e-01 -1.61854461e-01 -2.18049213e-01  1.96676308e-04
 -1.59080356e-01 -8.31310079e-02  2.77636368e-02 -8.42481256e-02
 -3.77179869e-02  5.19408211e-02  2.23552883e-01 -1.75823644e-01
 -5.17742261e-02  1.10505833e-04 -6.63429266e-04 -4.16284539e-02
  4.15321477e-02 -1.88055187e-02 -3.77461821e-01 -9.35651585e-02
  2.58144557e-01  1.52735654e-02 -1.05016589e-01 -3.22688818e-02
 -6.67187123e-05 -2.75391527e-02 -2.58267343e-01 -2.26912787e-03
 -9.05360794e-04  1.76110268e-02 -2.43871324e-02  9.89535525e-02
  3.54594704e-05 -2.16758400e-02 -4.13474590e-01 -2.53529679e-02
 -1.66208600e-04 -6.04336858e-02  7.29396716e-02  1.11175574e-01
 -3.70981579e-04 -9.25251297e-05 -1.95731074e-01 -2.02283412e-01]
[-3.9278388e-02  1.8152271e-01 -4.0615026e-02 -3.3638265e-02
 -2.7034486e-02 -2.2220289e-02  2.2440722e-04 -2.8724303e-02
  9.8135248e-03 -3.8999721e-02  2.6625665e-02 -4.0425424e-02
  2.9927351e-02 -3.4074899e-02  1.4267599e-02 -5.3521246e-04
 -1.2335919e-01 -8.2074940e-02 -2.8715426e-02 -1.5372291e-02
 -4.5371160e-02 -2.9691584e-02 -5.6359768e-02  1.2741224e-03
  3.4727836e-01  2.1204162e-02 -7.9200044e-03  9.6396521e-02
 -2.7921129e-02 -6.4271256e-02 -1.6624121e-01  1.1159320e-01
 -3.0340748e-02  2.2050067e-04 -3.0135012e-03  8.5159436e-02
 -6.0706075e-02 -2.6820494e-02 -5.1774405e-02 -2.5382387e-02
  8.7253518e-02 -3.8338028e-02  3.8767714e-02 -3.0590937e-02
  3.9772969e-03 -7.6969825e-02  8.1619009e-02 -2.7994011e-03
 -1.7325865e-03 -1.7431650e-02 -3.1564292e-02 -7.9051316e-02
  1.2387439e-03 -2.8701734e-02  4.4638541e-02 -2.8174665e-02
  1.1828657e-04 -4.1793581e-02 -5.7499304e-02 -7.0438653e-02
 -5.4166182e-03  2.5191245e-04  1.2836185e-01  7.0689060e-02]
[-2.6320409e-02 -6.7894503e-02 -2.1379674e-02 -1.8580002e-01
 -1.8602738e-02 -1.2750366e-02 -2.3412312e-04 -2.2116546e-02
  1.7253816e-03 -5.9668280e-02  3.3174303e-01 -7.0909321e-02
  2.1932406e-02  2.3274882e-02  6.4243346e-02 -6.9670985e-04
 -9.2715546e-03 -8.7692082e-02 -1.4845784e-02 -5.7626199e-02
 -1.3238487e-02  1.3523365e-02 -1.6120951e-01  4.9830205e-04
  6.8529896e-02  5.7962302e-02  9.1513440e-02  1.4715875e-03
 -1.2525429e-02 -2.3662059e-02 -3.1132923e-02  2.8407779e-02
 -9.7231651e-03  2.5295906e-04 -8.4409030e-04  1.1163834e-01
 -1.1017374e-01 -1.7148787e-02 -7.6639652e-02 -4.5676935e-03
 -2.6265895e-01 -2.6705107e-02  4.0703390e-02 -1.8474020e-02
  2.6375013e-03 -3.4222648e-02 -1.7371069e-01  3.3173672e-04
 -9.2131313e-04 -5.9542164e-02 -2.2676498e-02  5.5261105e-02
  4.9638690e-04 -2.3697240e-02 -5.2526008e-02 -7.5951698e-03
 -7.7219753e-05  7.9799384e-02 -9.6899569e-03 -3.9720666e-02
 -1.6695394e-03 -2.2014126e-04  6.0592495e-02 -1.2074760e-01]
[-1.08319975e-01  5.11920871e-03 -5.92426248e-02  3.05883616e-01
 -4.36358824e-02 -3.78475264e-02  3.88599437e-04 -3.62887047e-02
  1.13216490e-01  1.15075924e-01 -9.04755294e-03 -5.43883480e-02
  7.38545880e-02 -1.19381197e-01 -3.08256708e-02  1.15593092e-03
 -9.03320592e-03 -4.80538197e-02 -5.08225337e-02  1.00691542e-01
 -1.83967594e-03 -1.88290104e-01 -4.71450597e-01  6.34835917e-04
 -1.20813131e-01 -8.73522758e-02 -5.41572273e-02 -3.11555535e-01
 -5.38597442e-02 -3.67171504e-02  6.25187308e-02 -1.59786031e-01
 -5.46489432e-02 -3.46971137e-05  2.84049357e-03 -1.87021658e-01
 -2.33803801e-02 -4.27471027e-02 -5.24158180e-02 -1.17992818e-01
  8.35880041e-02 -4.91691753e-02 -1.45715371e-01 -5.39827086e-02
 -2.42005871e-03  4.19683084e-02 -3.15127634e-02  1.33389223e-03
 -1.09564513e-03  1.83318369e-02 -5.29219508e-02  1.85323954e-02
  8.83365225e-04 -3.88820469e-02  8.89402479e-02 -4.38448004e-02
  3.05585272e-04 -2.13571340e-01 -6.81933342e-03 -7.54423812e-03
  3.98374442e-03  2.67760974e-04  2.60855742e-02  1.32393483e-02]
[-6.1850607e-02 -1.9020136e-02 -8.6692043e-02 -5.2617084e-02
 -2.6455728e-02 -2.0269059e-02 -9.0156522e-05 -2.4990115e-02
 -7.6135127e-03  1.2598818e-02 -6.4282857e-02 -8.4240884e-03
  1.1211525e-01 -1.3494906e-01 -1.8803185e-02 -4.8591034e-04
  6.8094082e-02 -2.9250715e-02 -2.6326636e-02  1.1178194e-01
  1.2381108e-01  2.7281785e-02 -8.2494728e-02  2.9908266e-04
 -1.2270979e-01  4.2973603e-03  2.1206401e-01 -6.5152466e-02
 -3.3545002e-02 -2.4717534e-02 -3.8006589e-02  1.3588990e-01
 -2.6831696e-02 -1.2317387e-04 -1.8796545e-03 -1.6662183e-03
 -7.1442537e-02 -2.8460380e-02  4.4027697e-02 -2.1334497e-02
  2.8424880e-02 -3.1792920e-02 -5.3260114e-02 -2.8454261e-02
  1.1665532e-03  1.9902404e-02  3.8643606e-02 -2.7043170e-03
 -6.5357360e-04 -5.5646401e-02 -2.7216757e-02  3.0474428e-02
 -9.0714791e-05 -2.8787639e-02 -3.0258425e-02 -2.8863264e-02
  2.7812488e-05 -4.7184177e-02  3.6842208e-02  1.9580884e-02
 -2.3439978e-03  1.0314976e-05 -1.5299256e-01 -5.7612266e-03]
[ 3.5259824e-02  4.3264303e-02  1.1248829e-01  1.1360634e-01
 -2.2401687e-02 -1.2747222e-02 -2.8983448e-04 -3.5719167e-02
  1.9629892e-02  1.9918229e-02  9.6102141e-02  1.9050268e-02
 -5.1426593e-02  2.9232083e-02  9.1275781e-02  1.9546886e-04
 -3.2128293e-02 -4.7279432e-02 -8.0152508e-03 -6.9122493e-02
  1.2681156e-01  1.2138966e-02 -1.7342532e-01 -7.8162440e-04
  2.4317276e-01  5.1374339e-02  1.9321048e-01 -7.6612659e-02
  2.1275994e-03 -2.8624490e-02  6.0958218e-02 -1.7965528e-01
  3.9067395e-02 -1.7085178e-04  1.2994441e-04 -1.4106637e-01
 -9.3450053e-03 -2.4224782e-02  9.8076187e-02  4.3318011e-02
 -1.7130539e-01 -3.7509214e-02  2.9721327e-02 -1.2105656e-02
 -1.4036046e-03  9.4547652e-02 -7.9147518e-02  4.1434795e-04
 -4.1596257e-04 -4.3094244e-02 -2.5069296e-02  6.3926674e-02
 -3.6295850e-04 -2.9584613e-02 -4.0653400e-02 -1.2132369e-02
 -8.5674823e-05  1.0652503e-01 -5.0401229e-02 -6.0316328e-02
 -1.1962553e-03 -1.9246430e-05 -2.2911230e-02 -1.0857004e-01]
[ 5.5240993e-03 -4.0395442e-02 -6.1267950e-02 -3.4021541e-01
 -2.7624771e-02 -1.7623290e-02 -4.6169595e-04 -3.5812810e-02
 -8.2267001e-03 -1.9164838e-02 -3.9559666e-02 -4.4147212e-02
  1.0700097e-01  1.0427328e-02 -6.8453781e-02  1.5617773e-03
 -2.1322694e-01  5.5002917e-02 -2.7486239e-02 -6.6373177e-02
  3.3271007e-02 -1.4615402e-02 -1.9083275e-01 -8.1441092e-04
 -1.9395426e-02 -7.8031994e-02  5.6029495e-02 -7.0496768e-02
 -3.1403050e-02 -2.4292773e-02 -1.8287711e-01  4.2861009e-01
 -2.4399726e-04 -5.3899898e-04 -1.1069102e-03  2.9985166e-01
  7.8764580e-02 -3.4760095e-02 -6.9869690e-02 -2.8820721e-02
 -1.1001004e-01  1.9447198e-02  1.3279602e-02 -2.7767215e-02
  2.0596606e-03 -2.2553773e-01  1.1717526e-01 -9.1559696e-04
 -8.9341484e-04  3.2950096e-02 -3.5963599e-02  7.0883952e-02
 -2.1270559e-04 -2.9343171e-02  1.5278406e-02 -4.1286871e-02
 -5.9490203e-04 -2.0498261e-01 -1.1302686e-01 -1.6648818e-02
 -2.5097155e-03 -2.5321715e-04  1.0748063e-01 -9.8720983e-02]
[-2.2522310e-02  6.1613239e-02 -6.9479458e-02  1.9079036e-01
  3.1939943e-04  1.2753068e-03  5.0958717e-04  4.3288637e-03
  1.2065809e-01  3.8498801e-01  1.3499799e-01  7.5794145e-02
  1.4880222e-01  2.0600492e-03 -1.7853547e-02 -1.5967062e-03
  5.5735815e-02  2.1136476e-01  1.7825972e-03 -1.1814244e-01
  5.6375079e-02  2.2916043e-01  9.0313815e-02 -7.9473684e-04
 -1.5520091e-01  1.0683942e-03 -8.5350774e-02  1.0868399e-01
  2.5547270e-03  4.1512914e-02  1.3783181e-01  4.5784838e-02
 -2.1126397e-02  5.6761139e-05  2.0515739e-03  3.8020100e-02
 -9.1747835e-02  2.5849869e-03  2.5899485e-01 -3.7790388e-02
 -7.0982702e-02  1.8397903e-03  8.0673601e-03 -1.6401043e-03
 -8.6817738e-05 -5.3978402e-02  2.7288178e-01  2.7887630e-03
 -3.0856722e-04 -2.3208100e-02  9.6076110e-04 -3.1328383e-01
 -9.7011536e-05  2.5888660e-03  6.4599417e-02  3.9654342e-03
  1.2642003e-04  1.0390342e-01  1.0454692e-01  1.2549268e-01
  3.3037554e-04  5.5203750e-04 -2.5357716e-02  4.9631845e-02]
[-5.52753024e-02  2.96123952e-01  8.06535874e-03  4.52273637e-01
 -1.23130074e-02 -2.61683185e-02  2.76642066e-04 -1.27959996e-04
  5.41599169e-02  1.09411195e-01  1.95969224e-01 -2.25271806e-02
  6.22169934e-02 -5.69182001e-02  3.43799889e-02 -6.05440116e-04
 -1.49946064e-02 -2.63031460e-02 -2.25929823e-02  3.30030061e-02
 -1.22295812e-01 -1.92001481e-02  1.98338866e-01 -4.18562471e-04
  3.41766417e-01 -4.56525572e-02  9.27325040e-02 -7.30607733e-02
 -2.31537074e-02  2.12734304e-02  4.63808179e-02 -9.03768167e-02
 -3.39953639e-02  1.36348375e-04  1.12551695e-03 -7.23684058e-02
 -4.17829156e-02 -6.94607198e-03 -1.90900546e-02 -5.67127690e-02
 -1.28245112e-02 -3.33844349e-02  4.09150787e-04 -1.99781451e-02
 -2.41830316e-03 -2.73218751e-02 -1.99222565e-01  7.93559884e-04
  1.75884506e-03  6.58849478e-02 -1.12580992e-02 -1.05366431e-01
 -7.31264357e-04 -5.77356620e-03  8.29913467e-03 -6.00958522e-03
  2.41177142e-04 -7.29572475e-02  1.03099095e-02  4.35592905e-02
  7.60801951e-04  3.08880815e-04  1.03329927e-01  1.49386734e-01]
[-2.84584034e-02  5.68094440e-02 -1.10878535e-02  2.52643943e-01
 -1.35982288e-02 -1.54196899e-02  3.36159224e-04 -1.21341869e-02
 -5.34108840e-02  6.96840882e-02  9.12228748e-02  5.99462725e-02
  2.92994201e-01 -1.30425841e-01 -5.34988707e-03 -4.42960765e-04
  1.01687431e-01  3.51108834e-02 -1.43054789e-02  2.32613474e-01
  4.70107161e-02  2.77421772e-01  8.01123306e-03  4.65501769e-04
 -6.97188601e-02 -7.02194795e-02 -8.10946673e-02  6.11314327e-02
 -2.40127053e-02  2.22480949e-02 -5.72228711e-03  6.75673932e-02
 -1.23170586e-02  1.04954568e-04 -6.42601692e-04  2.88571548e-02
 -3.96478772e-02 -1.74823049e-02 -1.21060712e-02 -1.13776131e-02
  1.74479470e-01 -1.75938066e-02 -7.23524466e-02 -1.46452133e-02
 -2.94768193e-04  8.59552771e-02  2.24040598e-01 -2.34534382e-03
  9.26884532e-04 -2.97201183e-02 -1.03541370e-02 -2.04280198e-01
 -1.51045911e-04 -1.99851152e-02 -1.23158626e-01 -1.83318239e-02
  6.19429862e-04  1.35007754e-01  6.78636134e-02  7.75825605e-02
 -7.55757093e-04  2.81654327e-04 -1.55981764e-01 -7.12281987e-02]
[ 5.27424775e-02  4.21609581e-02  5.14639122e-03 -6.75936863e-02
  7.25406641e-03  3.59840109e-04 -1.59336909e-04 -5.40165522e-04
 -9.82587710e-02  7.72065744e-02 -3.89053524e-02  6.50383458e-02
  3.58778685e-01  7.91285932e-02 -2.60783583e-02 -1.18617911e-03
 -3.45520042e-02  2.78595276e-02  5.01622446e-03  1.42268643e-01
 -1.02541305e-01 -1.48816571e-01  9.92248580e-02 -1.23466680e-05
  1.86242566e-01  7.95248821e-02 -1.30309090e-01  1.86468840e-01
  4.31631133e-03 -1.38271013e-02  8.56078696e-03  8.57582316e-02
  5.74044697e-03 -3.55826254e-04 -2.08833197e-04  9.93539579e-03
  9.72294137e-02  5.70902228e-03  3.47545087e-01  4.68454063e-02
  4.61000174e-01  3.47524285e-02  9.73502323e-02  8.43873248e-03
 -7.20546581e-04 -6.47847131e-02  1.14693232e-01  7.82641349e-04
 -4.68533952e-04 -9.46407730e-04  7.15163490e-03 -4.97939914e-01
 -5.56365121e-04  4.80496557e-03  1.19752489e-01 -2.00165855e-03
 -5.00220223e-04  7.87223205e-02 -7.33308792e-02 -8.17881897e-02
 -2.84741726e-03 -1.33898102e-05  1.96582347e-01  1.40603334e-01]
[-1.71184987e-02 -7.78553039e-02  2.67416555e-02 -9.79252085e-02
 -2.15271749e-02 -2.14098822e-02 -1.03233811e-04 -2.75008902e-02
 -4.78766263e-02  8.97761062e-02 -1.46771833e-01 -1.94042409e-03
  2.40702853e-01 -7.64643960e-03 -1.63462870e-02 -2.61413306e-03
  3.72696966e-02 -2.88585983e-02 -2.11455561e-02  1.06593758e-01
  4.04704083e-03  1.05506234e-01 -1.63516067e-02  2.99152394e-04
 -8.39241967e-02  5.74544212e-03 -5.56274466e-02  1.25474498e-01
 -2.46039126e-02 -2.97701079e-02 -4.22604717e-02  2.51951814e-01
 -1.02273412e-02 -1.13696959e-04 -2.18571906e-04  8.15826431e-02
 -3.38251628e-02 -2.56461464e-02  2.19468743e-01 -2.45136991e-02
  1.36287376e-01 -3.80591974e-02 -1.64726358e-02 -1.99155789e-02
 -1.73455419e-03  8.54962021e-02  5.94900660e-02 -2.33736951e-04
 -5.60685876e-04 -3.23573314e-02 -2.25538947e-02 -4.41205427e-02
  1.62962286e-04 -2.44693551e-02  4.45597917e-02 -2.70217862e-02
 -1.74430505e-04  1.14473648e-01 -4.24407125e-02 -1.08478591e-02
 -1.30476092e-03 -1.61953103e-05  4.61815894e-02  1.27542257e-01]
[-6.7993693e-02 -6.6170037e-02 -1.1511139e-01  1.3711259e-01
 -1.8196158e-02 -1.1335605e-02 -7.3899806e-04 -1.7187957e-02
  3.7267387e-02 -1.3469357e-02 -3.8596439e-01  4.5452900e-02
  6.7109212e-02 -1.3142876e-01 -4.1966464e-02  1.3457483e-03
  6.1131634e-02 -1.9808954e-02 -2.0545598e-02  1.4112064e-02
  1.1294123e-02 -2.4806857e-02 -1.2810868e-01 -5.6157092e-04
 -7.7305183e-02 -1.5188190e-02 -2.0569950e-02  1.0963510e-01
 -2.9375551e-02  1.6597208e-02  1.3208723e-01 -1.0605583e-01
 -4.4790763e-02 -2.0056477e-05 -1.6089955e-03 -9.3909994e-02
 -7.0459563e-03 -1.9420303e-02  3.7865572e-02 -3.7521802e-02
 -7.6466754e-02  1.5972381e-02 -1.1309868e-01 -2.4839085e-02
  1.9078063e-03 -7.2319858e-02  7.9772705e-03 -2.0473059e-03
  1.3467933e-03  1.7625712e-02 -2.1294173e-02 -1.4087112e-01
 -1.3597782e-03 -1.8294934e-02 -7.3719062e-02 -2.1934174e-02
 -4.3136004e-04  3.7426442e-02 -1.8763041e-02  1.7133571e-02
 -6.6586037e-04 -6.4478291e-04  2.6858738e-02  2.5603727e-02]
[-1.5070109e-02 -8.6750232e-02 -4.4881687e-02 -8.7662898e-02
 -1.6238624e-02 -1.5929516e-02 -5.0147687e-04 -1.9079387e-02
  3.8728379e-02 -2.2439354e-03 -6.8079665e-02  2.0923346e-02
 -8.0053955e-03  5.3969592e-02 -5.9463810e-03  3.1913849e-04
  2.4410017e-02  1.2539414e-01 -1.3821172e-02  7.5498372e-02
  1.8442677e-03 -1.0414635e-01  7.3303290e-02 -4.9696269e-04
 -7.8256577e-02 -1.3341890e-02  3.6570817e-02  9.1697192e-03
 -1.3731276e-02 -1.6822303e-02 -1.5166225e-02  8.8027932e-02
 -1.5376339e-02 -7.5068994e-05  1.2497505e-03 -3.8276605e-02
 -3.1724315e-02 -1.6992399e-02 -1.4093310e-01  6.0678372e-04
  6.5642488e-03 -1.5369438e-02 -3.1687979e-02 -1.4678612e-02
 -1.8014897e-03  5.8582984e-04  2.8846938e-02  1.7364395e-03
  8.8415654e-05 -7.1058206e-02 -1.7572735e-02 -1.6865115e-01
 -6.1856839e-04 -2.2801727e-02 -2.4264774e-01 -1.4774187e-02
 -3.3473576e-04  1.2588586e-01 -4.4939332e-02 -1.7566444e-02
  1.6147649e-03 -3.1957362e-04  3.5141829e-02 -1.8102813e-01]
[ 4.85203303e-02  6.20609894e-02  1.21085145e-01  2.23397493e-01
 -7.96249416e-03  8.17252323e-03 -7.10385269e-04 -2.09026318e-02
  1.02476351e-01  6.92486092e-02  3.94080430e-02  4.24271673e-02
  1.69058070e-02  7.00290799e-02  6.64731339e-02  1.28798059e-03
 -7.83914176e-04  3.55953984e-02  8.97206273e-03 -1.97530046e-01
  2.12785840e-01  4.03846009e-03 -4.12656069e-02  8.51801131e-04
  7.62754008e-02  7.26685226e-02  7.38144517e-02 -6.37631044e-02
  1.28798401e-02 -6.53218552e-02 -2.44686659e-02  1.01138614e-01
  6.26599938e-02  7.68977916e-05 -2.31894176e-03 -3.89625430e-02
 -6.69610798e-02 -1.46493670e-02  3.80395204e-01  7.23048821e-02
 -2.55132001e-02 -2.82988064e-02  6.17952831e-02  6.58932514e-03
 -2.44846829e-04  1.13930650e-01  9.43960994e-02 -1.39906956e-03
 -3.30772554e-03 -3.54493409e-02 -4.34072735e-03  1.89458326e-01
  1.11431920e-03 -1.08064208e-02  1.00566059e-01 -1.66269194e-03
 -6.38189958e-04  2.31363066e-03  2.08073780e-02 -1.00409828e-01
 -2.91456515e-03 -5.30803343e-04  1.44874603e-01 -1.43744811e-01]
[-0.16150188 -0.10953476 -0.18907848 -0.01922163 -0.3131566  -0.18279865
  0.00972925 -0.3388344   0.07939499  0.50700223 -0.60903245 -0.01978302
  0.11196554 -0.1558195  -0.25442505  0.00460576 -0.09280844  0.06141417
 -0.2337795   0.3897446   0.10786071 -0.01575401 -0.07419433  0.00349451
 -0.18744606 -0.15292287  0.08094861 -0.08880349 -0.2449241  -0.22197579
 -0.04376283  0.16241615 -0.10494752  0.0042936   0.02015796  0.08873366
 -0.10721538 -0.3323843   0.01561136 -0.13046998  0.10581359 -0.18872043
 -0.12203157 -0.2582269   0.00305601 -0.07898101  0.0449616   0.01622403
  0.02086428 -0.20280634 -0.29346853  0.12520444  0.0007623  -0.44300067
 -0.10196562 -0.33058947  0.0095862  -0.15909646 -0.11660698 -0.21092147
  0.03702148  0.00487685 -0.08325945 -0.16402547]
layer 3 Activation
swish
layer 4 Dense
64 64
[ 2.8175133e-04  3.1363048e-02  4.5005596e-04  3.7784112e-04
 -4.1831210e-02  1.2878504e-03  1.5707796e-03 -8.1665501e-02
  7.4929418e-03 -1.9790797e-02  5.9357225e-03  3.4477131e-04
  3.8207495e-03 -4.2585742e-02  6.2665134e-04 -1.0289129e-02
 -7.0738196e-02 -2.1661830e-04 -2.6953779e-02  4.9615088e-03
 -5.7534840e-02  2.8981585e-02  4.7430173e-03 -1.5003331e-05
 -1.9381350e-02 -8.8505577e-03 -8.4856860e-02 -1.8279018e-02
  1.3269257e-03 -3.0139463e-02 -2.1446958e-02  3.0245576e-02
 -5.2809727e-04  1.2834200e-03  2.8037060e-02  1.0153624e-03
  1.1868544e-04 -3.6450886e-04 -6.5841354e-02  2.8573090e-02
 -1.3644535e-04 -1.5653279e-05  2.7775089e-03 -5.8441795e-02
 -4.3628488e-02  9.5987302e-04  9.1330125e-04  1.4774620e-03
  4.2087305e-04 -8.2639016e-02 -1.3570839e-01  5.0024403e-04
  6.7753514e-04 -9.1746338e-03  4.0519820e-03 -4.1858815e-02
 -1.1972719e-04 -3.3609625e-02  1.3387920e-03  1.2692778e-03
  3.2730117e-02  2.3718029e-03 -2.5507679e-02  4.6887688e-02]
[-1.30962289e-04 -5.15817776e-02 -1.82316347e-04  4.96899884e-05
 -1.91141646e-02  2.20416568e-05 -8.82884706e-06  1.65644392e-01
 -2.59702955e-03  8.65207836e-02 -8.73600692e-02 -5.69456679e-05
  1.51437387e-04 -1.19860336e-01 -1.93053187e-04 -7.84073994e-02
  1.90151230e-01 -7.45309808e-05  9.34065208e-02 -8.57811654e-04
 -8.23786780e-02 -3.52975056e-02 -4.59758856e-04  1.16745643e-04
 -7.13694543e-02 -5.70368692e-02 -1.03426515e-03 -6.20118715e-03
  4.61745585e-05 -1.34461345e-02 -2.53029373e-02 -3.02362908e-02
  1.28221844e-04  7.14613561e-05 -6.99261203e-02  3.46415254e-06
  3.15679150e-04 -7.41964031e-05  4.61880006e-02 -2.95873880e-02
  4.66244346e-05  1.04727123e-05  2.45536823e-04 -1.86563600e-02
 -1.95023343e-01  4.86682075e-05  3.58764664e-05  9.92677233e-05
  8.67202471e-06 -9.61891785e-02 -2.36463949e-01 -2.01727671e-04
 -1.82554955e-04 -3.34723480e-02 -1.39471009e-01 -1.57188371e-01
 -9.53491253e-05 -8.66517797e-02 -1.79071176e-05  2.21311086e-04
 -6.41583651e-02  3.45733075e-04 -2.01536007e-02  5.38646840e-02]
[ 3.27735295e-04  3.28251533e-02  5.27507451e-04  3.68619309e-04
 -9.22700390e-02  1.24985143e-03  1.54131011e-03 -1.65738449e-01
  7.29471771e-03  3.47767062e-02 -1.63523084e-03  3.53400683e-04
  3.53625999e-03 -3.30464542e-02  7.06849736e-04 -1.05226710e-02
 -8.78438130e-02 -1.95121407e-04 -4.89044078e-02  4.72257193e-03
 -8.05847645e-02  2.99709532e-02  4.49265121e-03  7.52903870e-05
 -1.54993935e-02 -6.07531331e-03 -5.34458496e-02 -7.00452626e-02
  1.29482429e-03 -5.38334846e-02 -6.17749542e-02  3.16872299e-02
 -4.78370697e-04  1.23660301e-03  4.63076904e-02  9.94388480e-04
 -1.06707506e-04 -9.07919777e-04 -5.39414994e-02  2.95721516e-02
 -2.25668100e-05 -4.23795136e-05  2.56624632e-03 -6.39713407e-02
 -3.55109572e-02  9.22681298e-04  8.55793245e-04  1.40930316e-03
  4.12142748e-04 -1.30984232e-01 -1.12263009e-01  5.86658949e-04
  7.46294914e-04 -4.77625942e-03  3.83372009e-02 -2.68754698e-02
 -9.90185654e-05 -4.56210114e-02  1.29581743e-03  1.20687997e-03
  3.61822098e-02  2.18620477e-03 -6.47469908e-02  5.93131185e-02]
[ 1.6956573e-04 -4.1698292e-03 -1.3189780e-04 -1.3315126e-04
  3.3137277e-01 -9.9121779e-04 -1.4956065e-03 -2.7960238e-01
 -5.7512769e-03  5.9932178e-01  1.4291056e-01 -1.9590878e-05
 -2.2330533e-03 -2.3517901e-02 -3.9877265e-04  3.1494558e-02
  3.6837418e-02 -3.3111341e-04  1.6848487e-01 -3.6456310e-03
 -1.7691530e-01 -7.8809327e-03 -3.9247992e-03  7.8468595e-04
 -6.8725073e-03 -4.0289415e-03  2.0047905e-01  8.2887787e-01
 -1.6611271e-03  1.5166011e-01 -4.7800954e-02 -9.0507399e-03
 -1.4865662e-03 -8.7154616e-04  3.0171052e-02 -7.6581480e-04
 -1.6630207e-04  2.8869500e-03  5.0807897e-02 -9.5885005e-03
 -2.9951346e-04 -5.0050217e-05 -1.1615575e-03  5.6802142e-02
  3.2093015e-02 -9.6290850e-04 -2.1586969e-04 -9.4498420e-04
 -3.8230082e-04 -1.6341299e-01 -1.6410609e-01 -1.9461877e-04
 -4.2562603e-04 -3.5742164e-02  2.3935656e-01 -1.8540463e-01
 -4.4085830e-04 -5.8248375e-02 -1.0963890e-03 -5.0796842e-04
  7.9838540e-03 -1.0001112e-03  1.5883438e-01 -6.6198528e-02]
[ 3.1244897e-04  2.0405108e-02  4.9612951e-04  3.5280752e-04
 -5.2972853e-02  1.2896939e-03  1.6083798e-03 -9.8755635e-02
  6.9492161e-03 -1.3616232e-02  1.2610448e-02  3.3967278e-04
  3.5717604e-03 -3.8980701e-04  6.6306681e-04  1.1006642e-02
 -5.6490492e-02 -1.3034238e-04 -2.3842745e-02  4.7158091e-03
 -3.1000542e-02  2.1626236e-02  4.4677751e-03  1.1838220e-04
 -5.1394536e-04  9.0517607e-03 -1.7004287e-02 -3.9042484e-02
  1.5417059e-03 -2.9775240e-02 -4.0299809e-03  2.4368674e-02
 -3.2357179e-04  1.2511646e-03  4.6592969e-03  1.0362327e-03
  2.3241679e-04 -4.6826649e-04 -1.6995540e-02  2.2548126e-02
 -1.0449012e-05  3.7898793e-05  2.5560504e-03 -2.5397865e-02
  1.6938394e-03  1.1692279e-03  8.3082134e-04  1.4069730e-03
  4.1039480e-04 -6.5934323e-02 -5.2653819e-02  5.4853706e-04
  7.0400053e-04  7.5380965e-03 -2.1772427e-03 -7.1547311e-03
 -1.3840694e-05  1.4434285e-03  1.3852140e-03  1.1630639e-03
  1.8731713e-02  2.1839244e-03 -1.3788582e-02  8.8910460e-02]
[ 2.64658156e-04  1.98717732e-02  4.28468426e-04  3.11424636e-04
 -5.46885431e-02  1.15197059e-03  1.43996894e-03 -4.44559306e-02
  6.11807778e-03 -1.48784285e-02  1.32796704e-03  2.91609351e-04
  3.11533385e-03 -4.61227773e-03  5.75125625e-04  8.07800423e-03
 -8.48122388e-02 -1.48656967e-04 -3.64932716e-02  4.13061352e-03
 -5.38012944e-03  2.04999540e-02  3.90802696e-03  6.84341794e-05
  5.90290688e-03  5.05193789e-03 -2.19359752e-02 -5.49109764e-02
  1.40383514e-03 -2.33266912e-02 -1.84942950e-02  2.26322524e-02
 -2.02461204e-04  1.11359206e-03  6.90626074e-03  9.24048829e-04
  1.24480444e-04 -5.07841876e-04  7.79544760e-04  2.11150516e-02
  1.00345205e-05 -8.55188773e-07  2.22425372e-03  3.32709700e-02
 -1.52344443e-02  1.07560458e-03  7.22453638e-04  1.25310023e-03
  3.66425520e-04 -2.64333133e-02 -3.86361815e-02  4.73620981e-04
  6.10315066e-04  8.74240231e-03 -9.65561369e-04 -9.67479404e-03
  7.48734647e-06  1.03959693e-02  1.24498061e-03  1.02276984e-03
  1.84215866e-02  1.91310246e-03 -4.15859260e-02  1.04405992e-01]
[ 1.32933765e-05  1.85435361e-04  2.27305100e-05  4.76540163e-06
 -8.64502799e-05  3.08383860e-05  4.23520141e-05 -8.07504577e-04
 -5.37702363e-07  1.30116983e-04 -4.62480792e-04  2.03375021e-06
 -4.68470607e-05  1.13071646e-05  2.19231733e-05 -4.66652942e-04
  1.99329967e-04  1.34046979e-06  7.06800347e-05 -4.88480509e-05
  3.44006403e-04  2.38375040e-04 -5.91863172e-05 -2.31194008e-06
 -1.82118951e-04 -2.36297870e-04  1.23720209e-04 -9.28672671e-04
  6.08927803e-05  3.89351364e-04  6.56723569e-04  2.02953976e-04
  1.68044993e-04  2.03495438e-05  5.18952671e-04  2.55610739e-05
  6.47114064e-07 -6.98059011e-06  1.08750799e-04  2.29577578e-04
  6.68548018e-05 -5.37456481e-06 -2.95699683e-05  1.39349443e-03
 -7.57694070e-04  4.81067545e-05 -6.58849149e-06  2.20164929e-05
  1.38973919e-05  1.71652064e-04  4.95500572e-04  2.22707840e-05
  1.72983200e-05 -1.49454441e-04 -7.35307927e-04 -1.41843723e-03
  2.96624639e-05  3.17708298e-04  4.24530699e-05 -4.93568041e-06
  1.33697773e-04 -1.61857861e-05  5.89736039e-04 -6.28516136e-04]
[ 3.2365645e-04  2.0198101e-02  5.1383337e-04  3.5891106e-04
 -1.3644269e-02  1.3113442e-03  1.6365079e-03 -1.0936192e-01
  7.0615364e-03  1.4450930e-02  2.2192238e-02  3.4959390e-04
  3.6342102e-03  2.5232993e-03  6.8518351e-04  1.8738940e-02
 -7.4535325e-02 -1.2127881e-04 -7.8262515e-02  4.8010396e-03
 -7.4136496e-02  2.1629306e-02  4.5484090e-03  1.3023902e-04
  2.4082763e-03  1.3405043e-02  1.0783947e-02 -3.6122404e-02
  1.5739870e-03 -4.7634363e-02 -5.4884730e-03  2.4609042e-02
 -3.3556926e-04  1.2712466e-03  4.1072816e-03  1.0554976e-03
  2.4935286e-04 -4.6000973e-04 -5.2560799e-02  2.2676298e-02
 -7.5962248e-06  4.8809263e-05  2.5988237e-03 -4.1697770e-02
  1.9149967e-02  1.1945707e-03  8.4534875e-04  1.4274211e-03
  4.1740344e-04 -5.2906789e-02 -1.6048452e-02  5.6817895e-04
  7.2583719e-04  3.3942172e-03  3.3886875e-03 -4.5418525e-03
 -1.0905877e-05 -6.1755802e-04  1.4090715e-03  1.1806571e-03
  1.8401770e-02  2.2172313e-03 -6.3966282e-02  7.2540089e-02]
[-3.9805879e-04 -3.4939457e-02 -5.9242779e-04 -3.5033078e-04
  4.2041160e-02 -1.2027832e-03 -1.4380680e-03  1.6610137e-01
 -8.3296718e-03  8.0098569e-02 -6.4529546e-02 -4.0081641e-04
 -3.4089389e-03 -7.0738159e-02 -7.9002383e-04 -3.0317079e-02
  1.7583668e-01  1.4577281e-03  3.9190698e-02 -5.4356609e-03
  3.5915576e-02 -3.3629142e-02 -4.5913411e-03 -5.0252082e-05
 -6.1153796e-02 -3.8699619e-02  3.5754982e-02  3.8208745e-02
 -1.7928506e-03 -2.8407903e-02 -3.9026845e-02 -3.7574477e-02
 -8.9683005e-04 -1.1707796e-03  4.7945981e-03 -1.0183400e-03
 -2.4039128e-04 -6.3210481e-04  3.3191618e-02 -3.4799784e-02
 -1.5155395e-04  8.0244755e-04 -2.3453089e-03 -1.3102317e-02
 -1.1506281e-01 -1.5590278e-03 -8.4953173e-04 -1.2634165e-03
 -4.0401460e-04 -7.8939078e-03 -3.5819199e-02 -6.6341745e-04
 -8.0995687e-04 -3.9188769e-02  3.8163681e-02 -1.6740940e-03
 -2.9076167e-04 -1.8105296e-02 -1.3399601e-03 -1.0407624e-03
 -3.2607678e-02 -2.0226866e-03 -4.6356758e-03 -1.5022388e-01]
[-2.5416847e-04 -3.6698535e-02 -5.4413953e-04 -4.7848845e-04
  1.0153181e-01 -1.8244134e-03 -2.3162123e-03 -6.6790745e-02
 -1.5172199e-02  6.5829545e-02 -1.2950256e-01 -4.3444920e-04
 -6.1299978e-03  1.6900377e-02 -8.6333998e-04 -4.7935151e-02
  8.4849738e-02 -4.0102721e-04  6.6630155e-02 -9.1139004e-03
  9.5408015e-02 -4.2591184e-02 -8.3160223e-03 -3.8419646e-04
 -3.0017814e-02 -7.6615233e-03  6.8121694e-02  4.4942044e-02
 -2.2818446e-03  7.1854196e-03  1.2776270e-02 -4.7761284e-02
 -1.0966584e-03 -1.7761101e-03  5.9879858e-02 -1.4643826e-03
 -3.1529120e-04 -2.8402647e-03 -7.0388233e-03 -4.6649817e-02
 -6.6599925e-05 -1.0878551e-03 -4.1787615e-03 -3.0958617e-02
 -1.4564873e-01 -1.7678750e-03 -1.2482123e-03 -2.0021824e-03
 -6.0012564e-04  5.6597892e-02  2.5947683e-02 -5.9234665e-04
 -9.9209382e-04  2.8454583e-02  5.5893090e-02  7.8060158e-02
 -3.1810685e-04  7.1673974e-02 -1.9763221e-03 -1.6619122e-03
 -1.5507271e-02 -3.4707298e-03 -1.4191050e-02 -5.9057462e-01]
[ 1.6113420e-04  1.2421275e-02  2.7312792e-04  2.6707677e-04
 -9.0092696e-02 -2.1652407e-04 -4.6243332e-04  3.4882188e-01
  3.6202411e-03  1.4513096e-01 -9.4910212e-02  3.9737721e-04
  3.6073937e-03 -3.1105095e-01  4.2940970e-04 -1.9227336e-01
  1.9083799e-01 -1.8788363e-04  7.9389341e-02  2.8854788e-03
 -1.9799165e-01  2.6506232e-02  3.4021237e-03 -8.9786126e-04
 -2.2446413e-01 -1.6962907e-01 -5.3155284e-02 -1.1471252e-01
 -7.3850394e-04 -6.9001801e-02 -1.6111647e-01  2.4052862e-02
 -9.9992605e-05  1.0368573e-04 -1.6235958e-01 -2.4443242e-04
  3.1504710e-04  9.2879083e-04  3.8448207e-02  2.7769305e-02
 -4.1740274e-04 -3.9164905e-04  3.0473047e-03 -7.8447945e-02
 -3.5218018e-01 -7.1806309e-04  1.1371899e-03  3.1344796e-04
 -1.7949665e-04 -2.6737210e-01 -5.4450130e-01  3.1985415e-04
  4.9405132e-04 -1.0538950e-01 -7.0040770e-02 -3.6448485e-01
  1.2806345e-04 -2.6710042e-01 -5.3538766e-04  1.1857388e-03
 -5.0070886e-02  2.3166717e-03 -1.3610584e-01  2.3933601e-01]
[ 2.08070909e-04 -2.99056005e-02  2.05632750e-04  1.75148278e-04
 -4.99941930e-02  1.37283962e-04  3.25625006e-05  1.84749067e-02
  3.17013869e-03 -1.05982132e-01 -6.46360442e-02  3.43206892e-04
  1.60942157e-03 -1.05797626e-01  3.29420378e-04 -6.88855723e-02
 -1.15029840e-02  1.45932354e-04  2.73779985e-02  2.11868715e-03
  9.80569795e-03 -1.84988771e-02  1.84686412e-03  9.11771494e-04
 -4.06661779e-02 -2.42346302e-02 -2.81819068e-02 -1.57639593e-01
 -1.14174545e-04 -1.91895179e-02  5.78901544e-03 -1.56874489e-02
 -1.72394083e-03  2.24870950e-04 -2.55940780e-02  1.91438579e-04
  9.08370013e-04 -6.51070732e-04  7.71198561e-03 -1.49508771e-02
 -3.33963922e-04  2.11888560e-04  1.49131450e-03 -5.05016744e-03
 -1.86505303e-01 -1.27875071e-04  7.92884093e-04  2.06450990e-04
  8.51643636e-05 -2.07138527e-02 -7.69717842e-02  2.37877728e-04
  3.93550697e-04  9.15872119e-03 -4.64643277e-02 -2.34875120e-02
 -4.72691609e-04 -3.60667631e-02  7.44569188e-05  5.86252834e-04
 -3.13996114e-02  1.07684929e-03 -3.45628299e-02  9.34014388e-04]
[-2.6793536e-04  7.8333085e-03 -6.1134173e-04 -3.5788486e-04
  1.5028031e-01 -1.3963750e-03 -1.8371487e-03 -1.8814951e-01
 -7.9070879e-03  1.1848895e-01  4.3406613e-02 -3.6565078e-04
 -3.9062747e-03  4.9234953e-02 -8.4876543e-04  5.1481314e-02
 -4.3322932e-02  3.1381255e-04  8.4811755e-02 -5.5035488e-03
 -5.5599116e-02 -2.0241462e-04 -5.1828586e-03  5.6683779e-04
  3.6036134e-02 -7.4978420e-03  1.3436246e-01  3.5318843e-01
 -1.8591220e-03  9.2636615e-02  1.1396965e-01 -8.1990170e-04
 -5.7958113e-04 -1.3188459e-03  7.3327787e-02 -1.1179186e-03
  1.5084662e-03  4.9065291e-03 -6.0657982e-02 -2.5591184e-03
 -3.6330189e-04 -4.8890710e-04 -2.7527392e-03  6.4143166e-02
  3.7076645e-02 -1.3517443e-03 -9.2345051e-04 -1.4902311e-03
 -4.7858205e-04 -2.4996553e-02  7.7812597e-02 -6.8558950e-04
 -8.7179843e-04 -3.7430041e-02  4.0344350e-02 -1.3332483e-01
 -1.9531269e-04  4.2916205e-02 -1.5286834e-03 -1.2550899e-03
  2.2261117e-02 -2.3298757e-03  8.6109236e-02 -5.4085833e-01]
[ 2.91867647e-04  3.97122726e-02  4.15580289e-04  3.86037631e-04
 -6.93468451e-02  1.16504915e-03  1.33536081e-03 -1.78655297e-01
  7.32479664e-03  3.14146914e-02  5.04482202e-02  3.60816659e-04
  3.62543529e-03  3.25939432e-02  5.90227311e-04  4.23691235e-02
 -2.14575335e-01 -1.16737021e-04 -9.13326368e-02  4.63360921e-03
 -4.20213751e-02  3.32303308e-02  4.47442429e-03  3.77642027e-05
  2.17876993e-02  3.01753376e-02 -4.64998782e-02 -8.91893730e-03
  4.95478511e-04 -1.25378268e-02 -3.82782966e-02  3.26924399e-02
 -1.55262765e-03  1.21046766e-03  7.67565966e-02  8.88372946e-04
  2.21987706e-04 -3.48677189e-04 -7.72081688e-02  3.09688337e-02
 -5.57506632e-04  1.18690776e-04  2.71484978e-03 -5.53443171e-02
  4.11241502e-02  1.28720116e-04  9.40799771e-04  1.43612002e-03
  4.21720528e-04 -6.16240278e-02 -3.73824053e-02  4.66272875e-04
  6.39684149e-04  6.56504277e-03  4.93368767e-02  1.32347783e-02
 -5.31741942e-04  2.32138485e-02  1.09284255e-03  1.28684845e-03
  5.00871912e-02  2.26187054e-03 -3.47198658e-02 -2.63319276e-02]
[ 3.89224238e-04  3.50473449e-02  6.34499942e-04  4.19948658e-04
 -7.14642853e-02  1.55049970e-03  1.97895872e-03 -1.63669437e-01
  9.02357604e-03  6.15438931e-02  2.02108864e-02  4.21301578e-04
  4.39646328e-03 -8.89729988e-03  8.63010122e-04  8.47288035e-03
 -1.26886413e-01 -1.63025543e-04 -4.92248759e-02  5.96685521e-03
 -5.17447591e-02  3.30882594e-02  5.73391654e-03  2.05554010e-04
 -1.08636720e-02  2.70488160e-03 -3.66768911e-02 -4.39933352e-02
  1.95504469e-03 -5.08691035e-02 -1.48806525e-02  3.54339741e-02
 -1.13007394e-04  1.49224128e-03  3.74088697e-02  1.24833290e-03
 -4.45866972e-05 -6.57801400e-04 -6.99192360e-02  3.30535658e-02
  1.16104748e-04  3.85510175e-05  3.12247779e-03 -8.78762230e-02
  5.14945481e-03  1.47242739e-03  1.01115624e-03  1.67995761e-03
  4.90710372e-04 -6.98755756e-02 -1.00246139e-01  7.13080866e-04
  9.15761746e-04 -1.55685318e-03  3.09780855e-02 -2.30085813e-02
  8.77606872e-05 -1.86686851e-02  1.66876998e-03  1.41986634e-03
  3.64464372e-02  2.61303922e-03 -7.05386996e-02  7.17565939e-02]
[-1.82064969e-06  4.11911227e-04  1.60283125e-05 -8.05984382e-05
  5.09384554e-04 -3.16021760e-05  2.49599070e-05  5.65204828e-05
 -1.71584048e-04 -6.52262388e-05  1.24953175e-03 -6.29643109e-05
 -1.82436925e-04  6.13220560e-04  1.75021228e-06  6.36052515e-04
  6.90805318e-04 -4.50763673e-06  5.08908648e-04 -2.29224199e-04
  4.65723133e-05  3.11235897e-04 -2.48311495e-04 -4.33985260e-05
  3.47406080e-04  2.90602300e-04  3.38561455e-04  5.04031370e-04
  1.56537484e-04  6.12345233e-04  8.90822150e-04  1.60829382e-04
  7.82196643e-04 -6.32066003e-05 -4.89112805e-04 -8.55132894e-05
 -2.39748115e-04  1.26862738e-04  6.28055248e-04  2.33766652e-04
  1.61868273e-04  6.46540138e-05 -1.31196168e-04  7.68116792e-04
  9.69598419e-04  1.79374154e-04 -1.09302026e-04 -1.48488816e-05
 -7.50850741e-05  2.40355439e-05  2.68647913e-04  1.23651380e-05
 -1.69566556e-05 -8.76398044e-05 -9.74899813e-05 -7.27853330e-04
  3.16802441e-04  1.94571796e-04  1.13705764e-05 -1.06695203e-04
  4.44940204e-04 -1.22154961e-04  6.26924390e-04  2.91716715e-04]
[ 1.83923345e-04  2.17746459e-02  2.81076966e-04  1.58406416e-04
 -1.06019033e-02  7.89117767e-04  9.88844549e-04 -8.78663436e-02
  3.66964587e-03  1.17269419e-01 -3.38919833e-02  1.51625616e-04
  1.51505950e-03 -7.18785599e-02  3.52176488e-04 -3.93018760e-02
 -9.86107737e-02 -2.01345145e-04 -3.81533839e-02  2.33762176e-03
 -4.97472547e-02  1.85397100e-02  2.00393749e-03  6.84931001e-05
 -4.29828204e-02 -2.36908253e-02 -3.49528641e-02 -3.91409211e-02
  1.11313211e-03 -6.29642010e-02 -2.91550569e-02  2.00088434e-02
 -2.54814775e-04  7.06288847e-04  7.42833391e-02  6.78840501e-04
 -1.53403336e-04  5.41163201e-04 -3.55559923e-02  1.79627258e-02
  2.19535272e-04 -4.19100870e-05  9.88840242e-04 -5.97264543e-02
 -1.14040114e-01  9.85035673e-04  2.98096216e-04  7.28652114e-04
  2.32905368e-04 -8.92504901e-02 -1.33896738e-01  3.02374538e-04
  3.57906712e-04 -1.51199196e-02  8.14889148e-02 -7.88001567e-02
 -8.60864020e-06 -5.05648144e-02  9.19621729e-04  4.52594541e-04
  2.95433979e-02  8.76294274e-04 -5.83283417e-02  2.67189108e-02]
[ 2.14625848e-04 -5.28037036e-03  3.45902517e-04  4.33187059e-04
  1.87351421e-01  1.52680941e-03  1.92600454e-03 -6.44220635e-02
  6.15990907e-03 -9.07221735e-02  5.45516498e-02  3.21176049e-04
  4.63171117e-03 -6.10441156e-02  5.00694849e-04 -1.64365377e-02
  7.81290978e-02  1.91149695e-04  1.15774147e-01  5.07597532e-03
 -6.03252277e-02  3.75820627e-03  5.24303690e-03 -4.28092200e-04
 -4.58020084e-02 -2.39209700e-02  1.29370973e-01  3.21301728e-01
  1.83028006e-03  1.07523806e-01  8.59195516e-02  1.02544455e-02
 -6.32594863e-04  1.52329088e-03 -6.08395189e-02  1.18469889e-03
  4.54071647e-04  2.88319599e-04  2.32742485e-02  8.70743115e-03
 -3.74607152e-05  1.68074650e-04  3.37431394e-03  8.92834589e-02
 -7.42246909e-03  1.45241199e-03  9.97132855e-04  1.81226840e-03
  4.71961888e-04 -3.17086391e-02 -1.48022488e-01  3.87609034e-04
  5.72885736e-04 -3.41752879e-02 -1.04310781e-01 -1.11356109e-01
 -4.50456864e-05 -7.19196796e-02  1.62205053e-03  1.56143401e-03
 -1.38936443e-02  2.96965311e-03  1.32651553e-01  3.31099667e-02]
[ 3.0595050e-04  2.1290516e-02  4.8786195e-04  3.4931090e-04
 -6.6037802e-03  1.2710631e-03  1.5835521e-03 -3.9734863e-02
  6.9050319e-03 -2.7346977e-03  6.8253614e-03  3.3494469e-04
  3.5271551e-03 -2.6988895e-03  6.5394602e-04  7.7957450e-03
 -8.7926358e-02 -1.4920779e-04 -3.0340729e-02  4.6638977e-03
 -4.0198602e-02  2.2175910e-02  4.4206209e-03  1.0828343e-04
  6.0010711e-03  5.2828714e-03 -1.8432382e-02 -7.3876612e-02
  1.5115343e-03 -8.1696818e-03 -1.1441211e-04  2.4662092e-02
 -3.1233311e-04  1.2349198e-03  7.6162750e-03  1.0202524e-03
  1.6683240e-04 -5.4172752e-04 -5.3942852e-02  2.2933211e-02
 -1.6749293e-05  2.1574600e-05  2.5280649e-03 -3.2626834e-02
 -1.0345142e-02  1.1477791e-03  8.2497142e-04  1.3911622e-03
  4.0483099e-04 -7.7941656e-02 -6.0023323e-02  5.4023834e-04
  6.9466006e-04 -2.7443478e-03  8.0502250e-05 -1.3162540e-02
 -1.4577932e-05 -1.0994746e-02  1.3633873e-03  1.1545867e-03
  1.9859912e-02  2.1606195e-03 -3.8068876e-02  7.5720668e-02]
[-6.0818036e-04 -1.6435003e-01 -1.4737688e-03 -1.2358855e-03
  6.5181904e-02 -4.3901121e-03 -5.3829169e-03 -2.6973549e-02
 -2.9458513e-02 -1.6812010e-01  1.1455926e-01 -1.1285120e-03
 -1.3993755e-02 -7.3887497e-02 -2.3044769e-03 -4.4866204e-02
  6.4985722e-02  4.5342520e-05 -4.7612291e-02 -1.8975213e-02
 -9.0443246e-02 -1.3610163e-01 -1.7710235e-02  1.5946024e-03
 -1.3181958e-01 -5.4284681e-02  1.0023379e-02  2.4721949e-01
 -5.0076353e-03  3.5051689e-02  5.1716916e-02 -1.4231473e-01
  9.2777261e-04 -4.3496769e-03 -2.3449293e-01 -3.4632988e-03
  1.0744389e-03  9.7571890e-04  9.1247428e-03 -1.3119163e-01
  4.6125008e-04 -1.0309903e-03 -9.8490026e-03  2.1804798e-02
  7.0843853e-02 -3.5423790e-03 -3.1492873e-03 -4.9662702e-03
 -1.5453660e-03 -5.2051444e-02 -7.1490459e-02 -1.6532837e-03
 -2.5126110e-03 -1.2129594e-01 -3.2626057e-01 -2.1111399e-01
 -3.0711901e-04 -1.3382059e-01 -4.6207160e-03 -4.1542896e-03
 -1.8675269e-01 -8.2811909e-03  9.9635674e-03 -2.8567123e-01]
[-1.0871434e-04 -6.4118775e-03 -1.6148812e-04  1.7335886e-04
  1.1759380e-01 -1.0141182e-04 -2.8420752e-04  2.0329443e-01
 -3.8740034e-03  6.4449146e-02 -6.2730119e-02  3.7134450e-05
 -2.9279423e-04 -8.2833000e-02 -2.0724462e-04 -6.7581698e-02
  1.1932667e-01 -2.3096212e-04  4.3771856e-02 -1.9689347e-03
  6.3641764e-02 -7.1193781e-03 -1.4366194e-03 -5.0310936e-04
