layers 12
layer 0 Dense
26 64
[ 0.12378085 -0.03721583 -0.00246745  0.05882383  0.00801552  0.03924036
 -0.01201458  0.301594   -0.03331219  0.02081006  0.09712977  0.01844368
  0.12632905  0.06619585  0.07731254  0.14374001  0.12146815 -0.29941615
 -0.23712996  0.00547765 -0.00711389 -0.05253872 -0.07085814  0.10494025
 -0.28056562 -0.24150452 -0.12625116 -0.11408592 -0.07535554  0.03148615
 -0.10403912 -0.07046238 -0.01247727  0.02083164  0.1934048  -0.00389837
 -0.01385436 -0.00144086  0.12827267  0.01654372  0.03332611  0.08777597
 -0.11380377 -0.02288288 -0.05729132 -0.21227507  0.00291315 -0.01369966
 -0.00124366 -0.00549133  0.0106716  -0.20769222 -0.04224922 -0.12071288
  0.33381435  0.06184609 -0.30643827  0.03635638 -0.02120295  0.01174972
  0.09782211  0.00620993 -0.05894008 -0.03946853]
[-0.12378088  0.03722024  0.00247408 -0.05882383 -0.0080169  -0.03924036
  0.01201457 -0.30159336  0.03337986 -0.02081006 -0.09712989 -0.0184459
 -0.12632905 -0.06619605 -0.07731254 -0.14374001 -0.12146617  0.29941586
  0.2373991  -0.00547765  0.00713479  0.05253717  0.07084464 -0.10494018
  0.28057992  0.24151194  0.12624954  0.11408529  0.07535551 -0.03148615
  0.10403912  0.07041289  0.01247417 -0.02083167 -0.19340467  0.00389842
  0.01385183  0.00144209 -0.128273   -0.01654353 -0.03332592 -0.08777592
  0.11379395  0.02288288  0.05730763  0.21225889 -0.00291335  0.01370053
  0.00124366  0.00549088 -0.01067165  0.20768824  0.04129979  0.12072147
 -0.33381435 -0.06183819  0.3064543  -0.03635638  0.02120339 -0.01174972
 -0.09794687 -0.00620993  0.05893992  0.03951113]
[-1.7013092e-01 -3.2449183e-01 -2.7396846e-01  6.1055705e-02
  1.0954398e-02 -4.6539802e-02  7.5740397e-02  3.7562270e-02
 -2.4334568e-01  1.4492454e-01  7.1860082e-04 -4.4035831e-01
  4.0991282e-01 -5.6087631e-01 -3.1520844e-02 -1.4244252e-01
 -4.4980121e-01 -3.6130131e-03 -1.2716262e-01  1.7762619e-01
 -7.1530324e-01 -1.3644327e-01 -7.0481819e-01 -5.6447241e-02
  3.1497756e-01 -7.1634990e-01  2.7323145e-01  2.2783937e-01
 -9.3300365e-02 -2.5388750e-01 -1.0848256e-01 -2.1064760e-01
 -1.8238257e-01  8.8687152e-01 -3.5099056e-02  8.8742822e-02
 -2.4853167e-03 -3.1139277e-02  1.7457776e-01 -8.2000792e-03
  1.2617557e-01  2.1476808e-01  2.9881343e-01  8.9583419e-02
 -7.6248363e-02  2.8521112e-01 -2.9731596e-01 -2.5420088e-02
  2.1327850e-01  4.0952370e-02  2.6270160e-01 -2.4668751e-02
  1.8134654e-02  4.1324419e-01  6.2271327e-01 -1.5534960e-01
 -6.8858922e-02  4.0935662e-02  1.1344153e-01 -6.5964431e-02
 -4.2515814e-02  1.0587395e-01  1.2313290e-01  6.4421296e-01]
[-0.00111933  0.00135428  0.00774347  0.00046893  0.00344744  0.00034019
 -0.00228364  0.01073986 -0.00029476  0.09062052 -0.00126086  0.00486116
 -0.00308429 -0.00078305 -0.00221165 -0.00145682 -0.0050273  -0.0084288
 -0.00213728 -0.11992431  0.00021461  0.00031126 -0.00150444 -0.00071068
 -0.00472213  0.00119808 -0.00293438 -0.00074026 -0.00154033 -0.00658201
  0.01623256  0.00115482 -0.01454604 -0.00379282  0.0037892   0.02080082
 -0.00389411 -0.0262063  -0.00134602  0.00137567 -0.00163511 -0.00712242
  0.0022637  -0.03372435 -0.00679188 -0.00871272  0.0082052   0.11960176
  0.04776549  0.00291305 -0.01617289 -0.00170744 -0.00089785 -0.00414868
 -0.00673614 -0.12437008 -0.00086198 -0.08777921  0.00419438 -0.05175261
  0.00135455 -0.06880979 -0.00161213  0.0004749 ]
[-0.18429789 -0.17339157 -0.1691048  -0.12308879 -0.06365849  0.28268623
 -0.04966893  0.1005284  -0.03746092 -0.00261318 -0.00854508 -0.04198287
 -0.06134019  0.04862755  0.01861206  0.11579842  0.05953591 -0.01093019
  0.17920494 -0.01898583  0.1500858  -0.12193478 -0.1075781   0.1173237
 -0.04421341  0.12515292  0.03592376 -0.1493049  -0.04631641  0.06479759
 -0.03704258  0.01714882  0.01734166  0.06543547  0.17925102 -0.00114447
 -0.1891806   0.12877254 -0.01064074  0.04906886  0.01763724 -0.06880431
  0.2393259  -0.08662239  0.03990081  0.01005747 -0.1083539   0.28838113
  0.03167672 -0.12399937  0.14518306  0.01440286 -0.04494796 -0.02363591
 -0.17093794 -0.08978826  0.14652307  0.09158751 -0.11191904 -0.10196655
 -0.16692016  0.05670134  0.05404752 -0.16879036]
[ 8.54082406e-02  1.48389429e-01 -1.16004802e-01 -4.01016809e-02
  6.83911517e-02 -8.77677277e-02  2.90143453e-02  8.94849971e-02
 -1.56544909e-01  2.06752978e-02 -9.27641839e-02 -1.09060980e-01
 -1.58767253e-01 -3.09771132e-02  2.77217681e-04 -2.01730534e-01
  1.00968622e-01  5.90627193e-02  4.37940024e-02  2.09898390e-02
  8.43852609e-02 -7.16069415e-02 -2.49729246e-01 -9.07348618e-02
  1.02353349e-01 -1.42578468e-01  8.39670524e-02  1.10078283e-01
  1.96582451e-02  8.28950778e-02  3.04023251e-02 -1.53395548e-01
  2.94755340e-01  2.83258408e-03  1.31055936e-01 -1.07707255e-01
 -6.00402169e-02 -4.41222824e-02  1.92663714e-01 -1.58071786e-01
  7.03944592e-03 -6.45465702e-02  4.24462333e-02 -2.35022083e-02
 -1.72452584e-01 -6.53391853e-02 -1.12409949e-01  3.89541984e-02
 -5.93522079e-02 -1.55534688e-02  2.05553085e-01  5.53412884e-02
 -8.38980358e-03  1.09065428e-01  1.16865195e-01  8.05508569e-02
  6.86800256e-02 -3.24532650e-02  1.00826398e-01  9.01958793e-02
 -2.43233554e-02 -1.05696917e-01 -3.22636962e-02 -9.51255858e-02]
[ 0.01567525 -0.26968378 -0.07211146 -0.00437437  0.0291899  -0.07683462
 -0.03580774 -0.06491599 -0.09510041  0.1351669  -0.11854921 -0.12426005
 -0.18298434 -0.03761676 -0.03510811 -0.05172752  0.14318953  0.09085058
 -0.13097681  0.16163772 -0.02828846 -0.049594   -0.07048319 -0.02758607
 -0.08148097 -0.05457489  0.15798925  0.03937796  0.00244619 -0.12944415
 -0.0502881   0.02754655  0.32805225 -0.08587232  0.12435569 -0.11231951
 -0.13551104  0.02875223 -0.01023276  0.05235875 -0.14789979  0.08978106
  0.15114228  0.11686648 -0.27903637  0.03740972  0.04770591  0.09246915
 -0.0241364  -0.03489333  0.04213985 -0.04397696  0.02082464 -0.1702002
 -0.01781268 -0.20389454 -0.0214458  -0.07038564  0.05882427  0.11295952
 -0.00727461 -0.01362747 -0.02787641 -0.05812438]
[-0.22631934  0.15899287 -0.13041916  0.18397921 -0.1103925   0.02035948
 -0.04975054 -0.10580921 -0.04715544 -0.04785921 -0.16185631 -0.12681977
 -0.06933193  0.00233802 -0.0036143  -0.03842564  0.06944539 -0.0444878
  0.09465099 -0.09542534 -0.15093607 -0.13748707 -0.03758295 -0.05608889
 -0.14709544 -0.10125031  0.14966759  0.05614509 -0.00500695  0.10093179
 -0.01213232  0.06084988  0.14174503 -0.00815119 -0.15958853  0.03932525
 -0.11139561 -0.14818634 -0.02075092 -0.00454719 -0.03032128  0.05544613
 -0.06281721 -0.11805946 -0.03192034  0.12782839 -0.12573117 -0.35918385
  0.11071649  0.15921168  0.0251553   0.39895216  0.01574337 -0.26150894
  0.02145281  0.19950502 -0.08543383  0.20817049  0.1473982  -0.10714791
 -0.15804254  0.04865278  0.00730433 -0.15906529]
[ 1.34614050e-33  5.02411024e-33  6.06418434e-34  2.73171149e-33
  4.77222090e-33 -1.90835630e-33  1.36696475e-33 -4.81909117e-33
  4.15867567e-33  2.63005106e-34 -2.61408785e-33 -2.39538896e-33
  4.23526794e-33  4.04868246e-33  2.01630268e-33 -9.16865482e-34
  1.12565908e-33 -2.56362534e-33 -3.00503376e-34  4.97442614e-33
 -4.88376540e-33 -2.10527512e-33  3.45004910e-33 -5.12320038e-33
 -3.01214623e-33  3.75157553e-33 -3.85041330e-33  4.61851730e-33
  1.29354383e-33 -3.53813955e-33 -3.16867396e-33 -4.70654126e-33
 -2.16692649e-33  2.49226329e-33 -5.43791768e-33 -1.86031532e-34
  2.00725321e-33 -4.16523934e-33 -2.81612851e-33  3.81862279e-34
  3.80294647e-33  5.66553012e-33  1.07902043e-33  8.61867683e-34
  4.97111749e-33  1.61087101e-33 -4.81746972e-33  1.13519234e-33
 -2.75746510e-33  3.67983254e-33 -3.62300657e-33  4.87076186e-33
 -5.61247125e-33  2.01609863e-33 -1.30858345e-33  3.79029558e-33
 -5.03312481e-33  3.17025243e-33  5.14670806e-33 -3.58609898e-33
 -2.98523072e-33 -3.01050862e-33  5.32634968e-33 -5.13132818e-33]
[ 1.19744157e-33  4.34088391e-34  3.04790881e-33  5.83067055e-33
  4.54468965e-33 -3.55168565e-33  1.40931303e-33  2.29647001e-33
 -2.95596311e-33 -3.78466973e-33 -2.47395827e-34  3.06313018e-33
 -4.14953583e-33 -4.43501162e-33  5.21744894e-33 -1.70024421e-33
  3.29997852e-33  3.70676302e-35 -6.69157506e-34  1.86967666e-33
  3.84292760e-33  1.34192635e-33 -8.62138230e-34 -1.76832370e-34
  4.36937826e-33  2.50802887e-33  2.81488267e-33  3.50328614e-33
  5.06185867e-34 -1.47769228e-33 -3.47333601e-33  1.99599786e-33
  4.79607683e-33 -3.93478514e-33 -3.70830631e-33  5.76107430e-33
 -7.45890839e-34  1.40390980e-33 -2.83142279e-33 -5.62861960e-34
 -4.55125625e-33  3.96391021e-33  4.38399737e-33 -4.39599071e-34
 -5.22415220e-33 -2.94736658e-33 -4.28647615e-33 -1.39406357e-33
 -2.42138428e-33 -4.32122009e-33  2.68061568e-34 -2.93517119e-33
  1.40127816e-33  1.51417999e-33 -4.06633030e-33  2.98605283e-33
  4.62125106e-33  3.86708254e-33  1.60250443e-33 -9.14537727e-34
  4.82789856e-33  4.46587642e-33  4.02128977e-33  2.22931769e-33]
[-2.3716958e-34 -7.1246713e-34  3.7792423e-33 -3.0382268e-33
 -1.6062544e-33 -4.4082067e-34 -1.5154150e-33 -1.3296075e-33
  3.4316677e-33 -4.2374812e-33  1.2535839e-34  4.2296403e-33
 -4.0225086e-33  4.0484430e-34  3.1814597e-33  3.6917502e-33
 -2.6370890e-33 -1.8841016e-33  3.1122447e-33 -3.7215350e-33
  5.0676384e-33 -5.8551300e-34 -2.9433438e-33 -1.0230680e-33
  4.8343858e-33  5.8169705e-33  8.5043269e-34 -3.5487128e-34
 -3.1347481e-33  4.7827633e-34  4.5461620e-33 -3.2231747e-33
  4.5537865e-33 -3.9600854e-33  3.3376943e-33 -4.6810536e-33
 -2.7112502e-33  3.6373403e-33 -3.2813631e-34  1.6357022e-33
  1.2854574e-33 -2.7094897e-33 -1.8335513e-33 -4.6282552e-33
 -1.9707163e-35 -2.2988991e-33 -5.6320432e-33 -3.4505399e-33
  1.4960539e-33 -2.0401852e-33 -2.9818302e-33  3.3834386e-33
  1.9650445e-33 -2.9232002e-33  4.1337243e-33  1.6351286e-33
 -1.0650860e-33  1.1217515e-33 -2.2968614e-33  4.9408768e-33
  4.3874346e-33 -2.1014588e-33  3.3498628e-33 -5.2761263e-33]
[ 3.63871711e-03  4.08628397e-02  4.63461466e-02 -1.44662693e-01
  1.56414937e-02  5.25658485e-03  1.42958602e-02  2.22232223e-01
  8.70662481e-02  4.75058965e-02  8.13559517e-02  2.53590733e-01
  2.60787476e-02  1.73495605e-03 -3.45944252e-04  9.52409580e-02
 -1.91264018e-01  2.69281536e-01  6.63738623e-02  7.18085244e-02
  7.32330978e-02  9.52372421e-03  2.80720815e-02  5.79194352e-02
  7.73803443e-02  5.00597581e-02 -4.19944711e-02 -1.58229753e-01
 -5.38208336e-02  2.23512188e-01  2.66727787e-02  1.00614931e-02
  3.02689373e-01  3.87791470e-02 -1.10830210e-01  1.71294853e-01
  4.60479176e-03  1.10324241e-01  2.88549233e-02  4.84679360e-04
  7.61588365e-02  3.14357737e-03  1.86613515e-01 -1.55282980e-02
  1.32217795e-01  1.27990440e-01 -4.13567433e-03  1.42439157e-01
  1.03345707e-01 -3.74960229e-02 -4.59263980e-01  1.96705312e-01
  3.33006568e-02 -7.53584411e-03 -1.49129882e-01  9.79078859e-02
  1.79376185e-01  1.30464032e-01 -1.02933146e-01 -2.27428004e-02
  6.07821718e-03 -1.66340044e-03 -1.83577001e-01  7.02459142e-02]
[ 1.5128814e-01 -4.7832061e-02  7.9363734e-03  9.2485204e-02
 -4.0911895e-01  7.5499170e-02 -1.5786666e-01 -9.7525753e-02
  6.0115135e-01  1.4365183e-01 -3.3294484e-01 -1.7954609e-01
  2.0852648e-01  1.2510225e-01 -1.8032931e-01 -2.1705966e-01
 -1.3394605e-01 -1.7896043e-01 -3.6917737e-01  9.4474189e-02
  2.1598262e-01 -5.3604010e-02  4.2101482e-01 -2.8449577e-01
  2.8975013e-01 -6.9323786e-02 -4.0102804e-01  1.9287132e-01
  1.5594910e-01  1.3492845e-01 -6.1386490e-01  7.1760714e-01
 -4.1129824e-02 -1.3239293e-01 -1.4498118e-01  4.0334895e-01
 -2.1668820e-02  8.7478437e-02  3.8881293e-01  6.0959470e-01
 -1.3284956e-01 -3.4861792e-02 -1.3627039e-01  3.8057098e-01
  1.2319163e-01  6.6951459e-04  2.1492517e-01  4.1115150e-02
  2.5516110e-03  5.7722218e-02 -5.7514526e-02  5.3608656e-01
 -3.0141357e-02 -1.3517962e-01  4.6810180e-01 -1.3852696e-01
 -6.8695837e-01  9.6486077e-02  3.8005694e-04 -4.7953531e-02
 -3.7631828e-01  1.5922414e-01  3.1593245e-02 -1.5272315e-01]
[-0.45339528  0.41889292 -0.5365409   0.2741654   0.09025979 -0.6515466
 -0.5279392   0.11771894 -0.17642206  0.2486683  -0.14758001 -0.4542073
 -0.13027157  0.29147756  0.50901014 -0.02903505  0.23736447 -0.3144633
 -0.221958    0.01508682  0.13329679 -0.05479601 -0.05962427  0.21613444
 -0.24628958  0.19605568 -0.1969397   0.25364736 -0.17988789 -0.20480864
 -0.24612015  0.41855305  0.20492776  0.02973616 -0.34036145 -0.08428113
  0.09062393  0.5624202   0.24937075  0.06362302  0.11728771  0.20658737
 -0.2807381  -0.24662499 -0.09267686  0.10427883 -0.17329293  0.19568403
  0.10497188 -1.277751    0.5673059  -0.3003535   0.730071   -0.0979782
  0.2304531  -0.551167    0.13563986  0.26985684  0.3770598  -0.17359956
 -0.02022972  0.01391807  0.44861895 -0.0294384 ]
[-0.03187397 -0.01813926 -0.05988613  0.11590704  0.40974995  0.05408691
  0.25584936 -0.02112469 -0.24806827  0.06398307 -0.19343683 -0.38743845
 -0.07163902  0.0853991   0.5033122  -0.07497993  0.47534242 -0.16341113
 -0.20807731  0.38026783 -0.10209986  0.4778822  -0.39862844  0.05882952
 -0.12295514  0.2483631  -0.05120401  0.20022994 -0.33922657 -0.01500405
  0.07179086  0.03595727 -0.04114906  0.16206792 -0.19034861 -0.10970178
 -0.19577254 -0.20961468  0.1525191   0.28838387  0.20583853  0.12460274
  0.38824758  0.16107903 -0.22456037 -0.3275135  -0.02536519 -0.4919175
  0.01871228 -0.10077788  0.2741542  -0.38235024  0.00066977 -0.19959342
  0.10339052  0.15920125  0.20933624 -0.20908399  0.2112756   0.39633545
  0.5478589   0.51263654  0.2504034   0.23255676]
[-0.03894127  0.08931251 -0.00232663 -0.19769359  0.5067169   0.04471314
  0.0894112  -0.2282941  -0.14024566  0.07424916  0.10862638  0.01644302
  0.05323468  0.4245089   0.11282291  0.17198472  0.05126829 -0.06234697
  0.30159828  0.01125827  0.08279048  0.04322684  0.17265484  0.06530825
 -0.12386923 -0.1908822   0.05921194 -0.27945223  0.20765057  0.16448684
  0.10148136  0.09706095  0.03800822 -0.21605408  0.38582322 -0.3383072
 -0.15196896 -0.00199637  0.18362992 -0.13359363  0.2972783  -0.92962664
  0.05655622  0.05227621 -0.03279029  0.15074936  0.06934792 -0.05611993
 -0.0124551   0.04931281 -0.00607271 -0.15640411  0.01478078 -0.09246321
 -0.17808615 -0.02400092  0.01750666  0.08962875  0.34612197 -0.21798135
 -0.01913714  0.04325597  0.28039294  0.02718678]
[-0.15098207 -0.38163266 -0.02176411 -0.15287742 -0.00127201  0.01349122
  0.00768237 -0.03464103  0.12495602  0.1271957  -0.17545679  0.11862031
  0.03739431 -0.03492066  0.07058288 -0.23589548 -0.00108708 -0.08946954
 -0.10303652 -0.04821919 -0.38265952  0.06684631 -0.04997151 -0.50518495
  0.18730983  0.00170654  0.00894509 -0.23858303  0.10875456 -0.12562025
  0.1777648  -0.09059519 -0.04747467  0.00094838  0.08525711  0.11998332
  0.23154326 -0.06763098 -0.09023385  0.07453993 -0.5812773  -0.07027189
  0.22284427 -0.06538188 -0.15577863 -0.39016882 -0.06238533  0.08234233
 -0.07518522 -0.00923927  0.04537542  0.10633582 -0.42468625  0.0741322
 -0.04317454  0.036791   -0.09295391  0.12234873 -0.22551455  0.19092642
 -0.00352551 -0.01108123 -0.5418192   0.2341694 ]
[ 0.02539932 -0.05171657 -0.080404   -0.2515669   0.042486    0.01884756
  0.03951823 -0.0187677  -0.00325046 -0.10470562 -0.41559196 -0.07980174
  0.00057115  0.10970698  0.07732162  0.36278322 -0.04319403 -0.00742711
  0.11584595  0.0367597  -0.01914031  0.0268262   0.1321233   0.1417525
  0.12782495  0.03938697 -0.19976427  0.06306275 -0.37147713 -0.16341059
  0.10646623  0.10191888  0.0081508  -0.03783045 -0.00893715 -0.02925905
 -0.02568037 -0.0275789  -0.14585064 -0.09477617 -0.11213703  0.06776753
 -0.09917781 -0.06721159 -0.12267926 -0.11358412 -0.06676855 -0.02020043
  0.23527731 -0.03375609  0.08493984  0.00912366  0.04031646 -0.03035667
 -0.00516542 -0.00603474  0.00798629 -0.0539778  -0.1378323   0.0292095
  0.02142412  0.00135486  0.01579127 -0.00060338]
[-5.27705789e-33 -4.95796334e-33 -5.85410770e-33 -1.38749476e-33
 -1.71167259e-33 -4.93706231e-33  1.26163605e-33 -2.81519583e-33
  3.38880217e-33 -4.84068574e-33 -1.47013274e-33 -1.68389749e-34
 -9.00587181e-34 -2.00745672e-33  3.74690514e-33 -2.00078102e-33
  4.49579606e-33  1.05017196e-34  2.84822795e-33 -2.17528150e-33
  5.86271783e-33 -5.18289896e-33  3.53312460e-33  3.94227010e-34
 -4.29419841e-34  1.30148879e-33 -1.75604089e-33 -3.02867919e-33
  5.11889256e-33  8.66466988e-35 -1.94063409e-33  3.42976852e-33
  2.52025658e-33  5.38546125e-33 -5.29039314e-33  5.83979716e-33
 -6.17008720e-34 -1.40042519e-34  4.88700756e-33  2.30559405e-33
  2.65895353e-33 -4.59902467e-33 -4.82170738e-33 -2.61724405e-33
 -1.76390127e-33  4.80765435e-34 -5.09018221e-33  4.92470971e-34
 -4.46915165e-33  3.99593950e-33 -1.33316304e-33  5.24229338e-33
 -7.57708965e-34 -4.48191935e-33 -4.19216183e-33 -1.53236507e-33
 -8.69006239e-34 -2.33153096e-33  1.84043991e-33 -1.81737892e-33
  2.21526061e-33  3.86042337e-33  5.42936743e-33 -2.30128366e-33]
[-1.44073749e-33 -4.94649125e-33 -2.39097131e-33  1.32296746e-34
 -3.98469075e-34  3.58412342e-33  2.89151094e-33 -5.83490931e-33
  3.07318415e-33 -5.27081308e-33  1.30221852e-33  5.56709055e-33
  3.14156008e-33 -4.26766787e-33  1.25980521e-33 -1.34478244e-33
 -2.65611838e-33 -2.94751755e-33  4.80977795e-33 -6.36029137e-34
 -3.11837162e-33 -1.88623130e-34 -2.57428928e-33  3.87115930e-33
 -1.54546724e-33 -3.21613785e-33 -5.35688792e-33 -3.11416335e-33
  4.23864822e-33  4.22755523e-34  1.51940873e-33  3.93214836e-33
 -2.33276707e-33 -4.54301934e-34 -4.39213656e-33 -1.36212171e-33
  1.22786336e-33 -5.01066442e-33 -4.77221613e-33  4.21756206e-33
  5.61796962e-33 -5.32600584e-33 -2.96764496e-33  2.28657969e-33
 -1.34922507e-33 -2.89444343e-33 -1.04107584e-33  1.44866895e-33
  3.12663644e-33  8.77304587e-34  1.82196041e-33 -5.35520696e-34
  2.62198974e-33 -1.46006225e-33 -1.88337411e-33 -3.06989239e-33
 -6.86243822e-34  4.08739957e-34  2.99094491e-33  3.75476736e-33
 -2.36135821e-33  2.64616690e-33 -2.15830755e-33 -1.62238498e-33]
[-3.1390478e-33 -2.2823369e-33  1.8603150e-33 -5.0884285e-34
  8.4466836e-34  1.6759736e-33 -2.7477915e-33 -3.3729870e-33
 -2.9144803e-33  3.3437135e-33 -4.5025588e-33  1.2259106e-33
  4.5395917e-33 -2.8203752e-33  3.4458537e-33  1.5264445e-33
  2.0443577e-33  1.1893902e-33 -2.0519620e-33 -3.5384966e-33
  5.7235639e-33 -5.4830490e-33  3.8887366e-33 -2.3323924e-33
  1.0318137e-33 -2.4020606e-33 -5.1388205e-33  2.7798711e-33
 -9.2279521e-34  1.8614034e-33 -2.5340271e-33  3.2201496e-33
  5.6814603e-33 -1.3779665e-33  2.8158071e-33 -2.2231419e-33
 -3.5798582e-33 -2.3163520e-33 -1.2391984e-33 -4.2691663e-33
 -1.2757420e-33 -6.3653901e-34  3.0023191e-33 -1.4046217e-33
 -1.9149626e-33  4.7647018e-33 -9.9595182e-34 -1.5890773e-33
  2.0796016e-33 -3.9995185e-33  3.7750406e-33  4.0276036e-33
 -5.2308073e-33  2.5011640e-33 -1.0904216e-33  1.2407967e-34
  3.7798381e-33 -2.2260425e-33  5.3851755e-33 -4.3285368e-33
  2.9792794e-33 -3.8567430e-33 -2.6952060e-33  2.8056853e-33]
[ 1.6166772e-33  4.4150818e-33 -5.1827840e-33  3.7617237e-33
 -5.5789480e-33  4.7050983e-33 -2.7310921e-33 -1.0256012e-33
  1.9647227e-33  2.3856610e-33 -9.8950947e-34  4.3440397e-33
  1.9656903e-33 -4.8194839e-33  2.7371327e-33 -6.5790931e-34
 -2.7196450e-33  2.3739645e-33 -5.3651862e-33  1.2433714e-33
  5.1488284e-33  1.8805151e-33 -6.0212935e-34  5.7146349e-33
 -2.8492602e-33  3.2553196e-33  2.2298424e-33  3.9493212e-33
 -4.6224166e-34  5.6912554e-33 -4.3483015e-34 -4.3747903e-33
 -2.9347947e-33 -2.2922134e-33 -4.3273914e-34  2.6153410e-33
 -5.3231843e-33  1.0203017e-33  1.6970818e-33 -3.3128142e-33
 -4.0531912e-33  5.8370164e-34 -2.3060091e-33  5.8251292e-34
 -5.7203511e-33 -2.9990626e-33 -1.9507050e-33 -2.6064560e-33
  4.6059149e-33 -1.5840102e-33 -5.5547486e-33 -6.1513619e-35
  3.3180102e-33 -4.4325067e-33 -2.3750841e-33 -4.0943350e-34
  2.1263392e-33 -4.8888928e-33 -5.4077663e-33  1.8092408e-33
  1.3197769e-33 -3.8318045e-33 -4.2618789e-33 -2.1548567e-33]
[ 9.6693227e-34 -2.2131822e-33  2.4302247e-33  7.7208875e-34
  2.9563709e-33 -4.7110522e-33  5.1493632e-35 -3.3367039e-33
 -4.7238416e-34  5.1295364e-34 -5.6297841e-34  3.7676005e-33
 -4.0979423e-33  8.8955682e-34  5.7572334e-33 -4.5666134e-33
 -1.9438761e-33 -4.1779622e-34 -4.8033069e-33 -8.7534362e-34
 -2.5413710e-34 -5.4059501e-33  5.5912624e-33  2.8098203e-33
  2.4185602e-33  3.7462212e-33  1.8254840e-33  1.4608487e-33
  4.6272277e-33 -5.4975299e-33  3.7099968e-33 -2.1520892e-33
  3.6226436e-33  1.1825947e-33  4.0911369e-33 -1.8992488e-33
 -2.9790597e-33  5.6029997e-33 -5.7060178e-33  3.4656751e-33
  2.9171916e-33  3.6433331e-33 -5.8436469e-33 -1.7802862e-33
 -5.3689309e-34  1.2594763e-33 -5.2935975e-33  1.9446254e-33
  5.4245538e-33  3.6019145e-33 -5.7535710e-33  2.2889698e-33
 -2.7319800e-33  1.8358048e-33 -5.5155947e-33 -4.9803789e-33
  1.7203099e-33  7.2283499e-34  1.6883383e-33 -1.2814358e-35
  7.1424254e-34 -3.5782680e-33  4.1934468e-33  4.3371451e-33]
[-5.0629129e-33  1.1776455e-33  4.4727854e-34 -2.8085414e-33
  4.0057556e-33  3.1932796e-33 -1.9132920e-34  1.9510429e-33
  4.9647621e-33  1.7798908e-33 -4.9593225e-33 -4.2522391e-33
 -2.2134856e-33 -3.6543475e-34 -1.3677415e-33 -3.5965513e-33
  3.0823839e-33  4.6757558e-33  4.2149400e-33 -3.4377722e-33
 -3.6464448e-33  1.2032830e-33 -5.2278646e-33  5.7861020e-33
  1.2768602e-33  1.4899143e-33 -5.4534074e-33 -4.3528027e-33
 -1.1446681e-33  3.6701755e-33 -4.5973584e-33  3.5364167e-33
  1.0994806e-33  4.7309368e-33  3.3100591e-33  1.0673419e-33
  4.3595030e-33  2.4317845e-33  1.2516028e-33  2.8518099e-33
 -2.5395643e-33  2.4895501e-35  8.7521065e-34 -3.3024224e-33
  3.8209657e-33  4.8266092e-33  2.2157558e-33 -9.2494030e-34
  2.1988377e-33 -3.3515181e-34  5.8852712e-33  5.2340620e-33
  2.4515570e-33  4.3516375e-33  3.9846316e-33  1.1897472e-33
 -4.1690222e-33 -5.2846406e-33  5.5985813e-33  3.6368465e-33
  5.7440076e-33  1.4998054e-33 -1.4122389e-33  4.0870717e-34]
[-4.98750388e-33  2.55800318e-33  1.33758749e-33  1.08126268e-33
 -8.22332501e-34 -2.59914823e-33 -1.14789485e-33  2.19620181e-33
 -5.29884384e-35 -2.82109148e-33  2.08438162e-33 -1.80523606e-34
 -1.09321415e-33 -2.51724640e-33 -8.96091374e-34 -5.15634087e-33
  1.96282871e-33  4.93623175e-33  4.86102179e-34  1.36575564e-33
 -1.68458516e-33 -3.19869425e-33 -2.23866728e-33  1.30658805e-33
  2.04517007e-33 -2.41500025e-33 -1.59326504e-33  4.33812976e-34
 -3.52477565e-33  4.84910962e-33  4.99367192e-33 -2.05722330e-33
 -4.32183575e-33 -1.39278613e-33 -5.25508129e-33  1.07869864e-33
  2.01911726e-33  4.40569993e-33 -7.10436460e-34 -2.09420637e-33
 -3.58403158e-33  4.49721878e-33 -4.56680804e-33  2.05891362e-33
  1.36598101e-33  5.73512049e-33  5.50344194e-33 -2.10832553e-33
 -2.48455278e-33 -2.34909873e-33 -4.84057957e-33 -1.35587469e-33
  4.64839653e-33  2.77417365e-33  3.84026437e-33 -2.85818953e-33
  2.52085939e-33  5.67419058e-33 -5.38866998e-34 -5.60572391e-33
  2.64770919e-34 -2.90766903e-33 -5.55245859e-33  5.30478266e-33]
[ 0.00244607  0.01505595  0.06272145 -0.03718166  0.01157137  0.00936439
  0.00416896  0.07755731  0.02510098 -0.00120706 -0.00601565  0.05878455
  0.00102835  0.01137896  0.0003566   0.02776561 -0.05870203  0.07359154
  0.00534004  0.01308281  0.01741871  0.01155949 -0.00292337  0.00542328
  0.02093104 -0.00375048 -0.00926149 -0.06109222 -0.01903733  0.05692003
 -0.01150495  0.05584823  0.09386703  0.05096927 -0.00201848  0.04937402
 -0.00074502  0.04043764  0.03613207  0.01112871  0.01362692 -0.00486247
  0.0419235  -0.0164182   0.02295621  0.03700619 -0.00548773  0.175207
  0.0243677  -0.02026445 -0.12570378  0.05029418  0.08348546  0.01777451
 -0.05190663  0.09861957  0.01007762  0.02140749 -0.02986907 -0.0157734
  0.00971952  0.00601662 -0.04876423  0.01453416]
[ 0.12612844  0.11757696  0.6897742   0.05552101  0.17155892 -0.26893792
  0.17407785  0.32234663  0.28938407 -0.294719   -0.49170175 -0.10985461
  0.288182    0.46965638  0.1263435   0.26384294  0.21298102  0.1166861
 -0.07404128 -1.2929325  -0.24779701  0.06757426 -0.01806714  0.06644873
  0.01181998  0.10836245 -0.0755057  -0.03429452 -0.04542176 -0.05462221
 -0.39857787  0.68421006  0.30947933  0.5383889   0.35144132  0.01818102
  0.27069846  0.5460225   0.371269    0.34556308 -0.3114103  -0.2780376
  0.05439889  0.06844123  0.1515802  -0.0107204   0.19548984  1.1078242
 -0.00217424 -1.2999887  -0.33957794 -0.38956046  0.44421452  0.43355253
 -0.46350995  1.1624198   0.12396715  0.50997174  0.3783932  -0.03445013
  0.19493419 -0.24538824  0.07146441  0.12452648]
layer 1 Activation
relu
layer 2 Dense
64 64
[-2.45472342e-01 -7.50300474e-03 -2.34382562e-04 -2.15037335e-02
  2.76038947e-04 -1.90902352e-02 -3.10171675e-03 -1.76830465e-04
  3.12143981e-01  2.63016089e-03 -6.17417172e-05  9.25842896e-02
  1.05380751e-01  7.18007535e-02 -3.29307024e-03 -3.42465527e-02
 -1.12514140e-03  1.67110364e-03 -1.65031815e-03 -1.26827380e-03
 -5.42870723e-03 -5.60814105e-02  7.62701602e-05 -1.02395676e-01
 -6.49830268e-04 -7.71386130e-03 -1.23077305e-04  9.39305723e-02
  1.96161315e-01 -7.96949677e-03 -5.23360027e-03 -4.98686498e-03
 -9.86710116e-02 -1.40748848e-03 -1.86132491e-01  1.03017381e-04
 -7.89842044e-04  2.18921952e-04 -7.61160278e-04  1.47421196e-01
 -4.24644761e-02 -1.06679752e-01  2.54208110e-02  1.10552406e-04
 -5.21200709e-02 -1.71082914e-01 -2.15642713e-03 -1.01903500e-03
 -1.81035808e-04  7.33932538e-04  4.81152092e-04 -9.82361734e-02
 -1.80127739e-04 -1.72249436e-01 -9.82864527e-04  5.36249368e-04
  3.87471082e-04 -8.16306248e-02 -5.19517483e-03 -8.69240146e-04
  1.27182819e-03 -6.27211630e-02 -8.92432705e-02  1.08442036e-03]
[-1.6410916e-01 -1.3944461e-02  1.0329304e-04 -1.9311263e-01
  3.1210447e-04  7.4114747e-02 -9.1385897e-03  5.1977701e-04
  3.1918321e-02 -5.4542435e-04  5.5658648e-04  1.0073528e-01
  5.5929036e-03 -7.5061776e-02 -2.1293308e-04  1.1199756e-01
 -7.0308242e-04  7.1707455e-04 -5.8548327e-04  5.4493762e-04
 -1.8425283e-03 -1.6995056e-01  1.5339416e-03 -1.7454387e-01
 -1.6192443e-03 -2.9317276e-03 -1.8214085e-03 -2.5524998e-01
  2.0984459e-01 -3.7682116e-02  2.4149835e-04 -5.3836070e-03
  8.2562722e-02  4.6015492e-05 -2.5602031e-01 -1.4573557e-03
 -7.6960772e-04  7.5954368e-04 -4.0690147e-04  3.2427069e-02
  9.8796234e-02 -2.0667705e-01  2.2346026e-01 -2.9487826e-04
  6.3323945e-02  2.4503196e-02  4.6916131e-04  1.4438495e-04
 -3.7407386e-05  1.0459061e-03  1.3353028e-03 -1.0240541e-02
  9.2565897e-04  5.5338513e-02 -3.3092857e-04  1.0570219e-03
  1.3101431e-04 -2.1621858e-01  2.0941411e-04 -8.2082365e-04
  1.6251738e-03 -1.1568956e-01 -1.0303728e-01 -2.1628910e-03]
[ 1.18404469e-02 -2.48922198e-03 -2.82294437e-04  7.05717653e-02
  5.17643697e-04 -1.12391822e-01 -7.43399607e-04 -2.99157226e-04
 -3.43739474e-03 -8.53211444e-04  7.72657513e-05  6.08941019e-02
  1.89201519e-01  7.71247298e-02 -3.00424942e-03 -2.78676469e-02
 -2.24181917e-03  4.70495829e-03 -1.78294035e-03 -2.24124407e-03
 -4.67796251e-03  2.23749951e-02  2.23991065e-03  2.12594971e-01
 -7.48795283e-04 -6.62537524e-03  2.64923205e-04  2.91269213e-01
 -2.72415262e-02 -4.65548560e-02 -4.07175301e-03 -5.04521746e-03
 -1.07052624e-01  1.59416595e-04  1.19917423e-01 -2.42315093e-03
 -1.25461502e-03  3.74377734e-04 -4.06242674e-04  4.16511409e-02
 -1.49474382e-01 -1.27899513e-01  2.34259695e-01  2.99170584e-04
 -2.67213732e-01 -6.28365353e-02 -2.06870167e-03 -2.16575968e-03
 -5.02112554e-04  1.39460794e-03  1.43397099e-03 -7.59762898e-02
  6.73997507e-04 -2.54280656e-03 -6.75935647e-04  1.23652723e-03
  3.94258910e-04 -5.87504767e-02 -5.14740683e-03 -1.28666591e-03
  1.18811917e-03  8.33720863e-02  2.22061947e-01 -1.08191918e-03]
[ 2.48236254e-01 -2.12448575e-02 -1.49758955e-04 -1.26011625e-01
 -7.05193743e-05  5.15179001e-02 -1.17507447e-02  1.51632848e-04
 -9.41785499e-02  5.45015512e-03  7.15695845e-04  1.51882097e-01
 -5.56469634e-02 -2.31909007e-02  5.01388730e-03 -2.68790089e-02
 -4.65052621e-03 -1.60700607e-03 -1.65167067e-03  1.23710360e-03
 -5.49440458e-03 -9.70795229e-02 -1.45557127e-03  1.51281664e-02
  1.61128491e-03 -1.02925515e-02 -6.08975533e-03  1.95041727e-02
  1.08705223e-01 -2.64986064e-02 -5.43844374e-03 -8.02066084e-03
 -1.92126911e-02 -2.96988850e-03  3.95075139e-03 -4.83761216e-03
  8.16310756e-04  3.48933128e-04  3.13185330e-04  1.61254823e-01
  5.66262230e-02 -4.25763093e-02 -1.19345291e-02  1.05676088e-04
 -2.90622795e-03  1.65868640e-01  3.09240050e-03 -4.07815725e-03
  1.21934456e-03 -4.49130457e-04 -1.97595044e-04 -8.31695497e-02
 -2.67651514e-03 -2.53010448e-02  6.18094299e-03  1.58998475e-04
  2.18845729e-04  9.53669474e-02  3.83235980e-03  8.86472873e-04
  3.46759392e-04  8.52068439e-02  3.48509699e-02  3.43048549e-03]
[ 1.01261154e-01  1.15783541e-02 -7.84364311e-05  6.69817403e-02
  3.11738142e-04 -3.86335999e-02  1.03444072e-04  4.82387666e-04
  3.98561060e-02  9.10200761e-04 -7.28888554e-04 -1.08062113e-02
 -3.99285436e-01 -1.95113774e-02 -3.86927254e-03 -9.23561025e-03
 -4.82348056e-04 -1.37357286e-03  9.70499532e-04  2.12431289e-04
  1.43601408e-03 -4.69004214e-01 -1.18828553e-03  1.36135995e-01
  1.22082708e-02  7.72837130e-03  7.60788657e-03 -8.32696408e-02
 -4.82177176e-02 -5.29880961e-03  1.00153880e-02 -1.47843384e-04
 -1.03316918e-01 -2.74994745e-05  5.83575815e-02 -2.69104051e-03
  3.31733201e-04 -2.50863639e-04  5.00265924e-06  1.85640782e-01
 -1.91594958e-01 -1.44394159e-01  1.09988533e-01  6.65225904e-04
  4.74795280e-03 -2.77751274e-02 -2.13794596e-03 -8.13731691e-04
 -1.86231849e-03 -8.19017121e-04 -1.39461539e-03 -2.24341685e-03
 -3.17885331e-03  1.27829477e-01 -8.90349504e-03 -9.02122410e-04
 -2.10145896e-04  2.02867702e-01 -4.67512466e-04  3.19715939e-04
  1.47523812e-03 -4.24218178e-03  7.24515989e-02  1.76586269e-03]
[-3.0915228e-01 -7.6495921e-03 -3.3500188e-04 -1.3061842e-01
  9.2275220e-04 -1.7835241e-02 -1.2906706e-02 -2.1849496e-04
  1.3405845e-01  2.0636225e-03  1.6278398e-04  5.3253970e-03
 -1.1861567e-02 -1.2131782e-01  1.7359890e-03 -8.2776442e-02
 -4.5403452e-03 -6.3403142e-03 -1.3457680e-03 -2.0297416e-03
 -7.0124594e-03 -2.1638488e-02 -1.8492312e-03  1.3898300e-01
  8.5536800e-03 -3.0922969e-03 -2.2448122e-03  1.8969566e-01
 -3.2559469e-01  8.1974536e-02 -7.4058487e-03 -8.8786641e-03
  2.7713163e-02 -1.6802246e-03 -2.1084759e-02 -5.7122349e-03
  1.4391071e-03 -1.0784924e-03  6.5347581e-04  2.2644930e-02
 -3.7466777e-03  1.4032627e-02  1.4756393e-01 -1.0858702e-05
 -1.0247984e-02 -3.2096155e-02 -2.0197741e-04 -3.2175293e-03
  8.3892490e-05 -1.6255974e-03 -1.9438463e-03  2.2741048e-02
 -2.8232087e-03 -1.4947170e-01  4.3023964e-03 -1.3939765e-03
  1.3528549e-04  3.6329195e-02 -7.9634169e-04  1.4923812e-03
  1.1974665e-03 -2.3543471e-01  1.5565649e-01 -5.6209490e-05]
[-3.26467633e-01  3.53870401e-03 -1.54235793e-04  1.52308969e-02
  1.19406701e-04 -7.86496103e-02  7.59039191e-04 -3.70552589e-04
  2.55012233e-03 -1.90039107e-03 -3.31291434e-04  6.64887354e-02
  4.91389297e-02 -1.51974978e-02 -5.95747959e-03 -7.02560097e-02
  3.92290857e-03  9.91528505e-04  2.84928246e-04 -2.36020749e-03
  4.58420662e-04 -1.29297867e-01  9.43200605e-04  4.06437628e-02
  2.92344484e-03  5.44587104e-03  5.48971072e-03  1.45504981e-01
 -1.86326206e-01 -6.54022619e-02  6.86408370e-04  1.30064887e-04
 -6.31625503e-02  3.11549287e-03  3.51961367e-02  2.69786012e-03
 -9.00828512e-04  2.39995163e-04 -7.86111632e-04  1.23662241e-01
  1.63142145e-01 -1.70852482e-01  1.43920407e-01 -3.87719192e-04
 -1.33349672e-01  1.52534042e-02 -4.10599448e-03  3.72328190e-03
 -1.92055362e-03  7.27631268e-04  5.41059562e-05 -1.03918575e-01
  1.21756631e-03 -9.72208306e-02 -6.58710720e-03  5.32450387e-04
 -1.02602862e-04  5.98160066e-02 -6.26411615e-03 -1.01093168e-03
 -4.48327919e-04 -6.56096339e-02  2.37851933e-01 -8.57196399e-04]
[ 2.79970060e-04 -7.27663655e-03 -2.76574196e-04 -1.15661755e-01
  8.27830227e-05  2.80625690e-02 -3.06588807e-03  5.22733098e-05
  4.34699059e-02 -6.17094478e-03 -1.53802015e-04 -1.61493778e-01
  2.49986038e-01  1.23173064e-02 -4.17691562e-03 -1.80345982e-01
 -1.16330956e-03  1.98484003e-03  2.22670264e-04 -8.77561572e-04
 -2.21923529e-03 -1.61591828e-01  3.60463979e-04  8.42996463e-02
  2.43846513e-03  3.43990803e-04  3.45248310e-03 -1.09608337e-01
 -2.19608650e-01 -7.54923606e-03  6.28030021e-03 -5.46715735e-03
 -5.84005229e-02 -3.15280259e-03 -1.19936042e-01  8.27662006e-04
  4.87584795e-04  1.38051459e-04  7.90259510e-05  1.19977228e-01
  3.45886908e-02 -1.69168875e-01  1.78325310e-01 -6.43438252e-04
 -7.51660988e-02  1.54689355e-02 -2.38422421e-03 -2.20637652e-03
 -2.03431980e-03 -3.45585111e-04 -1.19253085e-03 -9.29309875e-02
  7.00335426e-04 -2.32759770e-03 -5.19518089e-03 -2.18216097e-04
 -6.45435357e-05 -1.13193609e-01 -1.45897828e-03  4.25560400e-04
 -2.84476439e-03  9.87187922e-02  1.34958073e-01 -4.54023248e-03]
[-1.04658313e-01 -4.96172067e-03  4.07040388e-05 -1.44545689e-01
 -4.68817685e-04 -9.63509306e-02 -7.46325997e-04 -3.86705389e-04
 -2.16271743e-01  5.65394014e-03 -9.08223228e-05 -9.17985812e-02
 -3.27211879e-02 -5.23174368e-02  2.71799997e-03  1.13213569e-01
 -4.85129887e-03 -2.85583804e-03 -2.11384962e-03  1.18488481e-03
 -3.65564344e-03 -2.94995487e-01 -1.42164005e-03  1.91977471e-01
 -8.78820103e-03 -9.12864041e-03 -4.38319519e-03 -1.41129166e-01
  1.21702664e-01  3.81933376e-02 -7.92251155e-03 -1.44340051e-03
 -3.68751548e-02 -2.18783203e-03 -1.14664495e-01 -4.05968679e-03
  1.06844316e-04  3.62783176e-05  8.27794793e-05  1.02281824e-01
  9.10235718e-02 -1.21977227e-02  2.81197488e-01 -3.42212763e-04
  1.36147052e-01  4.65909652e-02  1.57195481e-03 -4.48260969e-03
  1.62239454e-03 -7.81159906e-05  3.09459545e-04 -6.88719237e-03
  1.36245159e-03 -2.29745820e-01  3.68943741e-03  2.36916894e-04
 -9.95721130e-05  2.94550620e-02  1.78801536e-04  1.88942824e-04
  2.69591808e-03  1.69557378e-01 -4.86781299e-02  3.30600189e-03]
[ 1.02165081e-01  1.19399773e-02 -3.68254478e-05  2.19454411e-02
 -1.16249605e-03  1.71889320e-01  4.42199362e-03 -8.31575075e-04
  3.75936180e-02 -5.67942904e-03 -5.94546786e-04 -4.67115790e-02
 -4.16722409e-02  9.58513469e-02 -1.02623282e-02 -1.36041199e-03
 -1.01183025e-04 -8.94267578e-03  2.84930319e-03 -1.29514467e-03
  1.07069025e-02 -2.15075463e-02 -1.29553385e-03 -4.63465601e-02
  5.87584032e-03  1.73698664e-02  8.69955216e-03  8.05087239e-02
 -6.57670125e-02  6.52701333e-02  1.20603126e-02  9.93502140e-03
  6.58533052e-02 -2.53797020e-03 -1.12483948e-01  5.47477510e-04
  1.26004743e-03 -8.07673787e-04  5.19989291e-04  2.19306536e-03
 -1.79565903e-02 -2.18332019e-02 -1.03896894e-01 -1.08550268e-03
  4.52291630e-02  2.23022401e-02 -6.05404424e-03 -1.19310408e-03
 -4.57401806e-03 -1.79455802e-03 -3.81202949e-03 -7.89968949e-03
  1.52923772e-03 -2.32597500e-01 -1.12118190e-02 -2.38940469e-03
 -1.60069787e-03 -1.64157867e-01 -5.23601333e-03  1.10424939e-03
 -1.26696168e-03 -6.06033392e-02  1.57266840e-01 -3.38202645e-03]
[ 1.42206326e-01  7.56788114e-03  1.27164298e-04 -6.88321795e-03
 -9.48488538e-04  1.15910225e-01  1.20995790e-02  1.14892653e-04
  2.58445889e-01  3.55630345e-03  3.94453935e-04 -1.81117907e-01
 -7.52604741e-04  1.33677227e-02  2.36552581e-03 -2.21228197e-01
  6.39500702e-03 -4.16711671e-03 -5.58834756e-04  2.40888586e-03
  1.91121921e-03  2.11428583e-01  4.13575023e-03  2.01017242e-02
 -6.68682391e-03 -5.61810192e-03 -3.84902628e-03  7.17825908e-03
  7.94512779e-02  2.30176933e-02 -4.74379025e-03  7.50334980e-03
  3.56427208e-02  4.67703026e-03 -4.77027223e-02  6.47765491e-03
 -2.96146842e-03  1.68734987e-03 -1.55618985e-03 -4.34046909e-02
 -1.81958213e-01  4.69023958e-02 -4.98541594e-02  8.17303837e-04
 -2.38558710e-01 -9.54867601e-02  7.99678382e-04  6.92548882e-03
  6.96951640e-04  3.57490918e-03  4.72642202e-03  6.67020027e-03
  1.11463561e-03 -2.30854601e-01  4.93479613e-03  3.23999207e-03
 -3.77001707e-04 -8.25280249e-02 -3.64789186e-04 -3.06208781e-03
  2.88504083e-03  4.69457172e-02  8.31389278e-02  3.71025852e-03]
[-1.37048349e-01  9.90634225e-03 -1.16276555e-04  1.41516283e-01
  5.30952530e-04  1.19201213e-01  4.42965189e-03 -1.43128587e-03
  1.87710337e-02  2.61087716e-03 -9.31942050e-05 -9.76493303e-03
  3.48742530e-02  2.06522197e-02 -2.05293717e-03 -1.22783624e-01
  2.33238493e-03  4.01957752e-03 -1.70307804e-03  4.86717152e-04
 -2.76162405e-03 -8.22467878e-02  2.69382633e-03  2.30470046e-01
 -4.92523657e-04 -2.00094446e-03 -2.53384933e-05  7.98491836e-02
  2.65585452e-01  2.65904814e-01 -3.61407036e-03 -1.75502943e-03
 -1.36019900e-01  1.24312297e-03 -1.05410013e-02  3.23858997e-03
 -2.01364793e-03  1.06702058e-03 -1.46123045e-03  3.17693204e-01
  2.35607803e-01 -1.60923284e-02 -1.23764239e-01 -1.35319040e-03
 -2.90499806e-01 -1.96209133e-01 -1.51078985e-03  2.83895270e-03
 -5.51334524e-05  2.23292620e-03  2.29140930e-03 -4.61603794e-03
 -3.82501748e-04 -7.90990517e-02 -3.91729525e-04  2.09525647e-03
  3.82303464e-04  1.62421018e-01 -4.44023684e-03 -2.09813169e-03
  2.49954266e-03 -5.33377007e-02  1.53940186e-01  2.39608740e-03]
[-1.42621338e-01  7.97123462e-03 -9.87936946e-05 -5.89831099e-02
 -1.54221221e-03 -1.60891619e-02  4.78250487e-03 -1.30346918e-04
  1.72946835e-03 -3.01056309e-03 -3.31909279e-04 -2.38830782e-02
  6.12768903e-02  7.68454224e-02 -1.66908349e-03 -3.35498750e-01
 -4.76639951e-04 -6.90999394e-03  3.03915981e-03 -3.64003179e-04
  1.10571533e-02 -5.81247685e-03  8.42601366e-06  2.10980818e-01
 -2.04480952e-03  1.35946441e-02  1.29377784e-03  2.04174727e-01
 -1.78543210e-01 -6.63021952e-02  6.17370941e-03  1.25110904e-02
 -1.36707276e-02 -2.67273211e-03  1.09492414e-01 -3.78738856e-04
  3.10180098e-04 -3.81262289e-05  3.76017415e-04  5.66501357e-02
  9.37960595e-02  1.00579716e-01  1.60991684e-01 -4.05110768e-04
 -1.36900961e-01  9.74338967e-03 -1.03767973e-03 -3.01152846e-04
 -1.45305018e-03 -4.75687208e-04 -9.93675203e-04 -4.03020084e-02
  2.21198983e-03  7.24788010e-02 -2.22101272e-03 -4.83704353e-04
 -1.68823346e-03 -1.58415958e-01  7.90935475e-04  3.34183918e-04
 -2.67014490e-03  1.03467274e-02  1.74500868e-02 -6.52517425e-04]
[-1.31455511e-01  1.61601289e-03 -1.45874175e-04 -1.11815840e-01
 -3.35377757e-04 -6.73987418e-02 -2.89345114e-03  1.28008251e-04
  1.09070376e-01 -8.37784377e-04  1.65946563e-04  1.20661691e-01
  9.72515345e-02  5.42635582e-02  5.02727751e-04  2.37484481e-02
 -3.08171555e-04 -2.18026247e-03  5.24131829e-05 -9.25346569e-04
 -1.31024665e-03 -4.05639678e-01 -9.19350830e-04 -5.32857738e-02
  8.57268646e-03  9.36374243e-04 -9.15887882e-04  1.03962518e-01
  2.10246623e-01  1.31444991e-01  3.02808010e-04 -1.75796740e-03
 -1.05113581e-01  5.16765227e-04  5.13662696e-02 -1.77520409e-03
  6.53713709e-04 -1.07766973e-04  5.83357469e-04 -3.26741844e-01
 -2.75841445e-01 -1.69962257e-01  8.47082511e-02  1.22019544e-03
  1.31773353e-02 -1.98448300e-01  5.27345110e-04 -5.52536396e-04
 -6.78867218e-05 -5.32596372e-04 -3.87626525e-04  2.50014644e-02
 -4.20098612e-03 -5.20351455e-02 -1.51509419e-03 -2.02636875e-04
 -6.12524454e-05  7.83807114e-02  1.59608747e-03  6.89286157e-04
  3.09592782e-04 -9.17017907e-02 -1.68058217e-01  8.21152295e-04]
[ 2.60170043e-01 -2.64461327e-04 -1.12395268e-04 -2.33489111e-01
  3.67412227e-04  2.84689013e-02 -6.69302605e-03 -2.34676263e-04
  1.04813024e-01 -7.79137597e-04 -1.78930044e-04 -4.46328595e-02
  6.16969429e-02 -4.04966474e-02  2.32776580e-03  6.11071140e-02
  5.63027454e-04 -3.20855854e-03 -9.25951404e-04  2.80821783e-04
 -3.01210489e-03 -2.43915230e-01 -2.53800559e-03 -8.45489353e-02
  1.05014415e-02  9.70094930e-04 -1.68521292e-04 -5.08023463e-02
 -2.59477068e-02 -1.34187028e-01  2.56288471e-03 -5.53409616e-03
 -1.40300333e-01  5.42080030e-04 -3.56417000e-01  5.20065252e-04
  1.63304934e-03 -7.09512737e-04  7.10083230e-04 -9.85513553e-02
  2.30466068e-01 -8.06419924e-02 -2.80621890e-02 -5.64479793e-04
  3.53257963e-03  1.88183427e-01  2.20286520e-03  8.68601375e-04
  8.42469162e-04 -2.02145334e-03 -1.91420340e-03 -4.73782793e-02
 -3.29724583e-03  4.21174206e-02 -3.31456168e-03 -1.48183038e-03
 -2.60913221e-04 -1.11619942e-02  4.93137678e-03  1.78182649e-03
  1.47626398e-03 -2.61217296e-01  4.68653776e-02 -2.01744057e-04]
[-8.4805610e-03  7.5835646e-03 -8.4272033e-05 -5.8262140e-02
  2.6210520e-04  1.7878501e-01  2.2151857e-03  2.8908005e-04
  1.6580038e-01  3.1190745e-03 -7.4396719e-04  3.8878683e-02
 -8.0999814e-02  4.2799218e-03 -1.4796490e-03 -3.8885079e-02
  3.4775049e-03  2.2953100e-04 -1.3138723e-03  3.0032969e-03
 -3.9862841e-03 -2.9684263e-03  4.3994919e-04  1.2528010e-01
  3.9275899e-03 -3.6619166e-03  1.3443673e-03  3.6128927e-02
  4.2108148e-02  1.2855208e-01  3.0749899e-03 -1.5970775e-03
 -3.0581334e-01  4.5401794e-03 -5.0055124e-02  2.5861673e-03
 -9.0728316e-04  8.3976949e-04 -4.2603197e-04  1.2602752e-01
 -2.0372958e-01  1.4806572e-01 -5.2284040e-02  9.3092106e-04
 -2.8070274e-01 -1.5683456e-01 -7.8408036e-04  3.1654602e-03
 -4.1913180e-04  1.0267985e-03  1.0869849e-03  3.6147319e-02
 -4.9173823e-03 -3.1664651e-02 -2.8576353e-03  1.0477781e-03
  1.5230718e-04  1.5141189e-01  6.0967426e-04 -9.2210539e-04
  2.7448193e-03 -5.4652803e-02  8.7344706e-02  3.6488385e-03]
[ 1.51900902e-01 -2.05959310e-03 -1.74129076e-04 -1.76483065e-01
 -8.54682061e-04 -2.96299011e-01 -3.48901493e-03 -1.07569201e-03
 -3.00835315e-02 -6.15592487e-03 -8.12534126e-05  8.51309747e-02
  7.22990409e-02 -5.51582240e-02  1.06884574e-03 -3.97869766e-01
 -2.72293575e-03 -1.44562079e-03 -8.97123944e-04 -3.33984243e-03
 -1.60576566e-03 -2.56309569e-01 -3.87271255e-04 -3.40513848e-02
 -2.44323211e-03 -5.80411870e-03 -1.56270398e-03  1.46656623e-02
  1.86380029e-01  1.23376451e-01 -7.42109551e-05  7.36187503e-04
 -5.33016697e-02 -5.02151763e-03 -7.59893656e-02 -2.63992959e-04
  5.03283285e-04  3.56253149e-04  2.31335085e-04 -2.25121547e-02
 -2.02689674e-02 -1.20145164e-01  8.20173696e-02 -7.10035383e-04
  1.78412691e-01 -4.21157777e-02  9.41764680e-04 -4.07184009e-03
  1.56497379e-04 -2.49184261e-04 -4.36985894e-04 -3.12137716e-02
 -4.18404676e-03 -2.12475136e-02 -1.25775507e-04  6.22451698e-05
 -4.67778998e-04 -9.52031314e-02  1.69927976e-03  5.05786622e-04
 -3.44172423e-03 -2.26583123e-01 -8.54503810e-02 -4.13516210e-03]
[-7.01061636e-02 -1.10686226e-04 -5.41347137e-04  4.55058925e-02
 -5.97284452e-06  1.28891747e-02  2.76294840e-03 -9.63390165e-04
 -1.62530959e-01 -1.03925739e-03  3.79857374e-04 -1.48214549e-01
 -9.20638256e-03  9.55893006e-03  1.65210629e-03  1.63711116e-01
 -2.14282773e-03  2.48394418e-03 -1.45485823e-03  9.00791201e-04
 -2.92714662e-03  3.96380313e-02  2.41712620e-03  1.42309412e-01
 -3.92276002e-03 -5.62584586e-03 -4.58260207e-03  3.31915878e-02
 -4.07977253e-01 -9.37359333e-02 -5.87961311e-03 -4.54933208e-04
 -5.90058006e-02  6.14107877e-04 -2.32096061e-01 -2.89223506e-03
 -9.97229828e-04 -5.80820197e-05 -1.60760988e-04 -9.86858010e-02
  6.97174519e-02 -4.00110856e-02  1.69166744e-01  2.59166642e-04
 -4.95507754e-02 -1.97545484e-01  5.79734333e-04 -2.03639222e-03
  7.95943313e-04  1.08157634e-03  1.90983841e-03 -5.76086231e-02
  1.20726309e-03 -8.62064138e-02  4.83265286e-03  9.62142425e-04
 -1.61679724e-04 -8.08876157e-02 -1.38459262e-03 -9.69743123e-04
  1.05293875e-03 -1.29547259e-02  1.30703062e-01 -5.10874961e-05]
[-1.12536222e-01  6.54577371e-03 -1.51371729e-04 -2.72546262e-02
  3.06558242e-04  5.85510805e-02 -4.45303071e-04 -7.50995416e-04
 -1.13513127e-01 -7.59401242e-04 -1.05931205e-04 -1.46546261e-02
 -1.35447755e-01  8.31511468e-02  6.28473889e-03  2.81201918e-02
  2.54180282e-03  2.86593684e-03 -1.58643327e-03  1.81750942e-03
 -6.08102279e-03 -4.50461000e-01  1.04086575e-04 -9.49861929e-02
  3.34970211e-03 -6.47955202e-03 -5.75748645e-03 -6.35813251e-02
 -9.85936671e-02  7.72311613e-02 -5.43420343e-03 -3.19194095e-03
 -4.03915718e-02  2.54044193e-03 -2.74931550e-01  8.22107017e-04
 -1.93090091e-04 -3.12630640e-04  1.36157687e-04 -1.03739940e-01
  1.13249145e-01 -6.49500117e-02  8.35993364e-02 -7.95546977e-04
 -1.03989705e-01 -2.52694249e-01  3.21254344e-03  2.76494469e-03
  1.97686790e-03 -7.77584646e-05  9.68154520e-04 -1.51200324e-01
 -5.31216431e-03 -7.93180708e-03  7.98091479e-03  1.55522532e-04
  3.07358423e-04  1.30609810e-01  3.74497380e-03 -6.38704660e-05
 -6.41433406e-04 -2.16031060e-01  7.95049220e-03  1.74489664e-03]
[-1.69894993e-01 -3.51957069e-03 -6.55240437e-05  3.46205644e-02
 -1.34645507e-03  9.76873338e-02  1.16801960e-03  1.28649757e-04
 -8.11512992e-02 -8.12515500e-04 -5.35867875e-05  9.98793542e-03
 -6.19795062e-02  6.01839498e-02 -6.22211315e-04  3.23853977e-02
 -2.73474609e-03 -8.17094580e-04  1.47461821e-03 -1.05429976e-03
  5.09714708e-03 -4.28509600e-02  4.81847383e-04 -4.01014611e-02
 -3.91375693e-03  4.47606295e-03  4.72184620e-05  4.63248715e-02
  1.92773491e-02 -3.73115279e-02 -1.47511275e-03  8.12603906e-03
 -1.29269743e-02 -2.41698301e-03 -1.01523682e-01 -3.22216959e-03
 -8.44398746e-05 -1.36069895e-04 -1.21756246e-04 -6.66407719e-02
  4.54643369e-02 -1.08635694e-01 -1.23132162e-01  7.83585783e-05
  2.55575538e-01 -2.37833224e-02 -3.98695818e-04 -2.30044150e-03
  3.22030901e-05  4.30997170e-05  9.68721870e-05 -4.22691591e-02
  6.96348958e-04 -2.31228806e-02 -1.53497397e-03  9.75020666e-05
 -8.02343595e-04  1.90569580e-01 -9.43053630e-04 -6.66724663e-05
 -1.26214908e-03  1.29131973e-01  9.77036636e-03 -4.53872723e-04]
[-9.31175575e-02 -9.71067417e-03  9.02403845e-05 -5.30370884e-03
 -1.26380182e-03 -1.50887236e-01 -3.14080389e-03 -3.55138647e-04
  1.87950656e-01 -2.17930740e-03  5.28321951e-04  1.74304038e-01
  2.73212224e-01 -8.96543562e-02  5.76855894e-03  2.11182103e-01
 -1.65802077e-03 -3.60323698e-03 -2.81402608e-03  1.21926086e-03
 -4.47551487e-03 -2.10551992e-01  1.03370845e-03 -1.16596945e-01
 -1.66529901e-02 -1.79015175e-02 -1.02915959e-02  1.76420271e-01
  2.43149534e-01  2.56958371e-03 -1.12040043e-02  2.99868477e-03
 -4.20523100e-02 -6.82509490e-05  1.83947533e-02 -1.94322108e-03
 -9.90353874e-04  1.09428121e-03 -5.07639139e-04 -2.36051276e-01
 -2.59549648e-01 -1.36332121e-02 -1.29569903e-01  1.21782112e-04
  1.99149810e-02  2.30522435e-02  3.44787957e-03 -1.13997411e-03
  2.38740258e-03  1.47161586e-03  2.37215101e-03  4.38598953e-02
 -3.08678928e-03  6.81733713e-02  9.97011457e-03  1.78738858e-03
 -1.36678354e-04 -1.85426980e-01  2.19929800e-03 -9.33780975e-04
  5.67145296e-04 -1.52751818e-01 -1.28788963e-01 -1.94535684e-03]
[ 1.87465638e-01 -3.68187972e-03 -3.05977010e-04  2.23898068e-02
  5.36493724e-04 -4.12051566e-02 -6.49553351e-03 -1.52436376e-04
 -1.50197744e-01 -9.73513874e-04 -1.08215230e-04  2.71045249e-02
 -1.59686163e-01 -2.11529359e-02 -3.91584635e-03  1.15407132e-01
 -2.37686024e-03  3.77211440e-03 -1.14127621e-03 -2.63073761e-03
 -6.13105530e-03  1.06249616e-01 -4.42674616e-04  1.02896765e-01
  2.41656066e-03 -4.33325954e-03  1.68228243e-03  1.29563555e-01
  6.83858767e-02  5.46188094e-02 -4.10012342e-03 -6.34899130e-03
 -9.69497114e-02 -1.31908385e-03  1.07210847e-02 -3.02566611e-03
  2.27844677e-04 -7.74258107e-04 -2.46627838e-04  1.32521838e-01
  1.08378194e-02  1.01870202e-01  1.23640448e-01  2.22855160e-04
 -4.15000319e-03  3.72791998e-02 -2.40820320e-03 -2.75848852e-03
 -4.71733947e-04 -5.85355563e-04 -1.00785971e-03 -7.93058500e-02
 -2.19186069e-03  1.27206102e-01 -3.31794634e-03 -8.07693170e-04
  5.84337104e-04  1.06063597e-01 -5.80950687e-03  1.86216086e-04
  7.15702190e-05 -1.15627915e-01  9.55959857e-02 -1.72870164e-03]
[-3.8070083e-01  4.7426326e-03 -1.7126177e-04  4.8595078e-02
 -5.8235571e-04 -3.2923862e-02  1.6337158e-03 -1.3779363e-04
  1.1968245e-01  1.2670604e-03  9.2911994e-04  5.3650837e-02
  4.2244005e-01 -2.8871503e-02  3.5321862e-03 -1.7028671e-02
  1.5639005e-03 -2.5300565e-03 -3.6295337e-04  1.0224896e-03
 -1.7044591e-03 -2.8162089e-01 -5.5867175e-05 -7.4955210e-02
  1.4949233e-04 -2.1133116e-03 -8.0149770e-03 -5.2885991e-02
  1.9861113e-01  6.8424307e-02 -8.1574228e-03  4.0640292e-04
 -1.6603541e-01  2.1591366e-03 -3.7407118e-03  9.9580284e-05
  3.3394323e-04 -3.0692632e-04  2.4655394e-04 -4.2571965e-01
 -1.1535542e-01 -9.8653324e-02  1.4738789e-01 -1.4384324e-04
  1.3755761e-01 -1.8625398e-01  1.8998141e-03  9.9945930e-04
  1.2949381e-03 -2.0428424e-04  4.6647302e-04 -2.3877958e-03
 -1.3520092e-03 -1.8045299e-01  6.9821440e-03  2.9789640e-05
 -1.6344448e-04  3.8603213e-02  1.3838273e-03  4.5728887e-04
  1.6450137e-03 -1.0727968e-01 -7.1833313e-02  1.8380921e-03]
[ 4.2712104e-02  6.2036160e-03  3.9618833e-05  1.6612251e-01
  1.6794907e-04  6.2174365e-02  5.5538183e-03 -2.4010456e-04
  5.4602407e-02 -3.9193204e-05 -4.7091304e-05  1.0569733e-01
 -5.4133441e-02 -5.2395076e-02 -2.7256773e-03 -1.9805695e-01
  5.0207609e-03  3.7974049e-03 -1.5821145e-03  9.1768947e-04
 -3.4856950e-03 -2.7079249e-02  2.4984395e-03  8.3380416e-02
 -7.8099375e-03 -4.9738260e-03 -2.4497366e-04 -1.3984832e-01
 -1.9109952e-01  1.8081790e-02  2.0070993e-03 -1.0762322e-03
 -2.3010595e-01  3.1653466e-03 -3.3161886e-02  7.0207268e-03
 -1.7020882e-03  1.3418393e-03 -8.1916951e-04  2.6066002e-01
  7.9318628e-02 -1.1565901e-02 -8.2202859e-02 -1.2607167e-04
  1.0194097e-01 -2.3966765e-01 -1.2567131e-03  4.6371962e-03
 -8.4661593e-04  2.0653515e-03  2.0601011e-03 -6.5510264e-03
  1.8449803e-03 -1.2758347e-02 -1.4203705e-03  1.7719463e-03
  4.6626065e-04  2.0597551e-02 -1.4928093e-03 -1.8311066e-03
  1.0551759e-03  9.1659211e-02 -6.5150045e-02 -6.8777712e-04]
[ 9.1472752e-02  1.1638956e-02 -6.9898110e-06  2.8263230e-02
 -1.1338743e-03 -1.0926196e-01  5.7856422e-03 -1.3426867e-03
  2.1258093e-01 -2.3844960e-04 -1.3162717e-03  7.6426163e-02
 -1.7384514e-01 -1.0047457e-02  1.6149011e-03  5.3399224e-02
  6.9916830e-04 -8.0204587e-03  2.1453381e-03  2.1376184e-03
  8.4565207e-03  1.1655537e-01 -1.1637614e-03  1.4525521e-01
 -4.2925235e-03  1.0530150e-02  1.4321130e-03  1.9653654e-01
 -1.8200369e-01 -1.1835845e-02 -1.5302342e-03  1.2252033e-02
 -1.4818812e-03 -1.6607213e-03 -7.1043074e-02  3.0992826e-04
 -4.4784596e-04  6.7330140e-04 -2.6616588e-04 -3.5703722e-01
 -1.8915682e-01  5.5531543e-02  2.2321299e-02 -1.5290458e-03
  1.5759224e-01 -2.9656157e-01  1.3273071e-03  1.9995056e-04
  1.7576864e-03  3.8969071e-04  6.6572306e-04 -4.3098233e-03
  1.0517882e-03 -9.2347888e-03 -1.4118986e-03  7.0892891e-04
 -1.4760111e-03 -1.1394908e-01  9.8888949e-04 -3.8787030e-04
 -5.7363883e-04 -2.7704986e-02 -9.3723759e-02 -2.8319756e-04]
[ 1.2151996e-02 -6.4214845e-03  1.0294948e-04  1.3722144e-02
  1.0482295e-03 -1.4814113e-01 -8.9285858e-03  1.6869820e-03
 -7.1249771e-01  2.6871597e-03  3.3964930e-04  2.0117746e-01
 -1.7665135e-02 -1.1126033e-02  1.0379404e-03  4.1848380e-02
 -1.6167244e-03  4.3032956e-03 -6.4006029e-04 -4.3319596e-05
 -3.8422532e-03 -4.0765207e-02 -2.9237964e-03 -1.8627923e-02
  3.8532098e-04 -4.9795574e-03 -1.0912378e-03 -3.6554515e-02
 -2.1955927e-03 -4.6194892e-02 -3.1042381e-03 -5.6280419e-03
 -4.0977355e-02 -2.4656267e-03  1.0686036e-01 -7.4158894e-04
  9.5238909e-04 -9.5247128e-04  7.4098452e-06  2.0326416e-01
  8.0035590e-03  6.1620150e-02  1.8703490e-01  1.4507440e-03
  8.1495471e-02  3.1003705e-01  4.5375098e-05 -1.4097115e-03
 -1.2372540e-04 -1.4372728e-03 -1.4297020e-03 -5.4296203e-02
 -3.5379040e-03 -9.3575060e-02  1.9431771e-03 -1.1889156e-03
  4.8217000e-04 -7.9976305e-02  4.9268710e-04  1.0821986e-03
  9.1559294e-04 -1.6378826e-02  4.0313728e-02  1.7937884e-03]
[ 1.93723425e-01  1.31122498e-02  8.49467906e-05  1.38088524e-01
 -1.53478689e-03 -4.52517085e-02  1.01964539e-02 -6.28238849e-05
  5.61403297e-02  9.24198481e-04  3.91713082e-04  8.37495402e-02
 -2.23163024e-01  7.85234757e-03  7.62487249e-03  2.46677008e-02
 -1.09749532e-03 -1.07593080e-02  3.23832687e-03  3.78694758e-03
  1.09834066e-02 -2.49876752e-01 -1.71146123e-03  2.06548944e-01
 -2.61574541e-03  1.59592275e-02 -8.03842675e-03  7.23472312e-02
  7.96439573e-02 -8.82488266e-02 -7.71824503e-03  1.39688365e-02
  5.74077480e-02 -1.97905625e-04  3.37483548e-03 -1.15006894e-03
  9.28569760e-04 -1.10558595e-03  3.02175322e-04  1.71306103e-01
  2.99651682e-01 -4.56488542e-02 -3.68469581e-02  3.99626791e-04
 -1.50974229e-01  5.62749170e-02  3.68058565e-03 -1.71351677e-03
  2.26908736e-03 -1.19309674e-03 -3.21677391e-04 -4.64224555e-02
  4.06476576e-03 -1.01165406e-01  1.13966037e-02 -9.10594943e-04
 -1.62667432e-03  4.32092473e-02  5.42159751e-03  1.11099205e-03
 -3.02296889e-04  7.29554668e-02  5.93373515e-02  6.94099930e-04]
[-8.36888421e-03 -1.86943088e-03 -6.70479785e-05  1.96004659e-01
 -1.64914527e-03  1.87809505e-02  1.73205265e-03  5.81483007e-04
 -1.54143423e-01 -1.84329296e-03  9.05725581e-04 -1.26173692e-02
 -6.08384721e-02  4.81800660e-02 -1.67134963e-03  3.81254435e-01
 -1.98141695e-03 -6.06877264e-03  1.50040409e-03 -3.36489221e-03
  4.63437894e-03 -1.41013283e-02 -4.21326666e-04  1.09091386e-01
 -6.05285540e-03  4.24997136e-03 -2.62839836e-03 -7.20304921e-02
 -1.13792486e-01  8.96883160e-02 -1.05240401e-02  6.63608871e-03
 -5.84796704e-02 -3.70301050e-03 -2.26259604e-01 -2.14027916e-03
  5.85133792e-04 -9.95759736e-04  7.40396899e-06  5.93069345e-02
  9.86482427e-02 -2.91984919e-02 -1.56375337e-02  6.26397814e-05
  4.18247543e-02 -1.59272123e-02 -1.23952480e-03 -1.41465454e-03
 -2.96928047e-05 -7.60765513e-04 -9.04819346e-04  5.20264804e-02
  2.77656247e-03  9.59288329e-02 -1.95301574e-04 -7.86136079e-04
 -1.03066000e-03  1.06793456e-01 -4.35504923e-03  6.14804390e-04
 -4.84506181e-03 -4.34418283e-02  1.01571321e-01 -1.47489453e-04]
[ 2.50090271e-01  9.19755269e-03 -1.65159203e-04  5.36844181e-03
 -7.70902028e-04 -7.94819742e-02  6.01542275e-03  1.22745681e-04
  2.58641958e-01 -6.36934768e-03  1.21074915e-03  1.17095396e-01
  6.29941374e-02 -7.50895068e-02  8.70714337e-03  1.22862021e-02
 -2.94236845e-04 -7.80782383e-03  1.10365741e-03  1.34576974e-03
  3.58557398e-03 -1.13884628e-01 -1.06925072e-04 -4.53202538e-02
  3.98417842e-03  9.38698370e-03 -1.18362131e-02  4.85817939e-02
 -5.64835072e-02  5.86097129e-02 -1.47869438e-02  2.82918685e-03
  5.25013246e-02 -1.20742060e-03 -5.36880717e-02 -2.60337576e-04
  4.05455299e-04 -7.71802443e-04  1.76233283e-04 -2.46998340e-01
  1.95107296e-01 -1.41127497e-01  2.30560098e-02  4.33995068e-04
 -9.08130780e-02 -1.67837262e-01  4.65149479e-03 -3.48715490e-04
  3.27627803e-03 -3.17078549e-04  9.20463819e-04  4.12242264e-02
  6.79077441e-03 -3.93307954e-02  1.35321515e-02  1.54274021e-05
 -7.76431116e-04  6.71590790e-02  2.87700770e-03  5.79304353e-04
 -2.29984825e-03  9.07959864e-02  5.43327443e-02 -6.60244701e-03]
[-1.73178360e-01  3.52479145e-03 -1.27964086e-04  9.80165675e-02
 -8.98071448e-04  1.41911924e-01  1.64401869e-03 -3.83465318e-04
 -1.10565357e-01 -4.88109700e-03 -2.30445658e-04 -8.57265666e-02
  1.40410632e-01  2.37508286e-02 -1.34682737e-03  1.31416339e-02
  4.24470659e-03 -4.80941124e-03 -6.47465000e-04 -6.63134560e-05
  3.79315577e-04  8.63147527e-02  1.09442638e-03  4.37001437e-02
 -7.23711541e-03 -1.67149364e-03  5.82817243e-04  3.16076577e-02
  1.01018166e-02  9.56878737e-02  1.04658445e-03  4.12088307e-03
 -1.55953532e-02  2.61132838e-03 -7.03919530e-02  4.17200895e-03
 -6.55420998e-04  2.91256292e-04 -3.98237666e-04  1.62493169e-01
 -1.59738231e-02 -1.31078556e-01 -8.65621418e-02 -1.03785162e-04
 -7.18823746e-02 -9.58623216e-02 -1.30294659e-03  4.14883718e-03
 -9.97812254e-04  6.05291454e-04  4.94363019e-04  2.29631274e-04
  1.43439753e-03 -2.29355842e-01 -6.94765884e-04  3.62289895e-04
 -5.05223870e-04 -1.11184224e-01 -1.09850860e-03 -7.30906555e-04
  1.04763303e-05 -2.61363517e-02 -1.37977332e-01 -3.28382105e-03]
[ 5.2811704e-03  1.9553598e-02 -1.5226802e-04 -1.4315188e-03
  5.7349826e-04 -1.7480282e-02  4.6398384e-03 -3.9539230e-04
 -2.5453424e-01 -1.6867754e-03 -2.4051600e-04 -4.6893869e-02
 -2.9943237e-01  2.5768535e-02 -4.8761573e-03 -1.4712077e-01
  1.0625788e-02  8.4415171e-03 -1.1710886e-04 -2.3732677e-03
 -2.4660416e-03  8.5198238e-02  1.3909456e-03 -8.3626680e-02
  7.3409472e-03  2.0481669e-03  3.0235043e-03  5.5006510e-03
  5.6821875e-02 -1.7357681e-02  4.1119603e-04 -2.7330373e-03
  2.8243443e-02  4.8660943e-03  1.0959305e-01  1.1867998e-02
 -5.7194725e-04 -1.3432367e-04 -5.7453191e-04  3.4213115e-02
 -3.1705797e-01 -2.6092783e-02  1.4518821e-01 -9.3648536e-04
 -1.6814861e-01 -7.0532337e-02 -3.2928674e-03  8.9244395e-03
 -1.4027621e-03  4.0606185e-04 -6.6458393e-05 -5.8667943e-02
 -1.8777361e-03 -1.2091203e-01 -4.7155642e-03  1.0234373e-04
  6.0117111e-04  2.0792930e-01 -5.5427616e-03 -6.5682962e-04
 -2.0367743e-03  6.1742391e-02  2.8058419e-01  9.2644087e-04]
[ 2.14943230e-01 -4.98717139e-03 -2.64524599e-04 -3.90385129e-02
 -8.22804344e-04  4.07140888e-02 -1.53366430e-03 -4.49994914e-05
 -4.43456918e-01  1.84566388e-03 -5.15563879e-04 -9.61885005e-02
 -1.75157413e-01  8.01527128e-02  4.09097550e-03  1.16157904e-01
  2.10744608e-03 -4.18125885e-03 -1.70394906e-03  2.35778349e-03
 -4.15900070e-03  1.05118975e-01 -1.98307773e-03  2.27965429e-01
 -6.02965709e-03 -1.04300901e-02 -4.26750863e-03 -9.60075259e-02
  2.40112585e-03  1.62071660e-01 -4.41297051e-03 -2.23117793e-04
 -1.50310574e-02  3.62438662e-03  1.40089288e-01  1.83744670e-03
  1.73042179e-04  4.26323706e-04  3.27757065e-04  4.08982873e-01
 -8.96346848e-03  1.29318461e-01 -2.02512182e-02  3.55154480e-04
  2.66449660e-01 -9.11415666e-02  2.66551110e-03  2.54172599e-03
  1.92219601e-03 -7.13715490e-05  8.62395857e-04 -5.47116576e-03
 -1.66521827e-03 -1.56474277e-01  2.26578605e-03  5.02780487e-04
 -4.64593671e-04  4.60922383e-02  4.09398600e-03  3.22466396e-04
  2.18763901e-03  1.01973556e-01 -1.37183905e-01  1.74254237e-03]
[ 1.0082674e-02  9.1670500e-03 -3.3206164e-04 -3.5480820e-02
 -8.3985063e-04 -6.5644622e-02  4.7532567e-03 -6.7118282e-04
  4.7406059e-02 -4.6508596e-03  2.7759428e-04  1.6611144e-01
  2.1563733e-02 -8.1360728e-02  4.9355812e-03 -1.3466269e-02
  4.9958243e-03 -3.9160863e-04 -1.5902000e-04 -1.5578400e-04
  9.7287388e-04 -1.2379644e-01 -1.8378041e-03  2.9063493e-01
 -2.0943368e-03  2.1803579e-03 -3.7758201e-03  6.2852547e-02
 -5.3288579e-02  1.7928463e-01  4.0792825e-04  5.6215632e-03
 -4.4285756e-02  1.7507150e-03  7.5002111e-02  8.3406754e-03
  1.8928366e-03 -5.8301998e-04  8.9795364e-04  1.3742666e-01
 -2.2215004e-01 -7.8761745e-03  2.1234658e-01  3.2229487e-05
 -1.3408881e-01  4.3510266e-02  3.2024391e-03  2.8709448e-03
  1.0572106e-03 -2.1314903e-03 -2.2585809e-03  5.7908110e-02
 -2.3456567e-03  1.2292098e-01  4.5153289e-03 -1.3935461e-03
 -9.2856970e-04 -6.0113385e-02  6.0751289e-03  2.1630328e-03
  7.1342505e-04 -9.1431312e-02  4.3960650e-02 -2.9925322e-03]
[ 9.55728889e-02  5.96853392e-03 -3.91053996e-04  3.64173055e-02
 -1.60443329e-03 -2.96536461e-03  4.64531360e-03 -6.74641225e-04
  3.23153771e-02 -3.32400622e-03 -2.65162264e-04  3.84478085e-02
 -8.47155005e-02  3.85652706e-02 -1.36806606e-03 -2.12566808e-01
 -5.59679698e-04 -7.29140500e-03  3.89945135e-03  2.93533929e-04
  1.27766570e-02  1.01798154e-01 -1.06761861e-03  1.99675262e-01
 -1.20846904e-03  1.70226321e-02  2.08515557e-03  9.76939276e-02
 -6.84724629e-01 -3.77654940e-01  3.98034044e-03  1.35104554e-02
  3.66085917e-02 -8.90813535e-04 -1.79436505e-01 -1.12916983e-03
  8.19132663e-04 -5.23601484e-04  2.51205551e-04  1.04582787e-01
  2.24157885e-01 -2.74893567e-02  2.11104617e-01 -2.29315017e-04
  9.51789320e-02 -1.81827210e-02 -1.22485089e-03 -4.11539892e-04
 -1.09838997e-03 -1.00694434e-03 -1.36001804e-03 -2.70350296e-02
  3.13766627e-03 -1.56656019e-02 -2.12027575e-03 -8.62496963e-04
 -1.85578631e-03 -1.54056221e-01  5.97172941e-04  8.76390259e-04
 -7.30745378e-04 -3.00328881e-01  1.10083364e-01 -1.40528544e-03]
[-1.6915871e-01  8.8377940e-03 -2.1255978e-04 -1.2602697e-01
  4.5676340e-04  1.6111496e-01 -1.3960153e-03 -2.9790174e-04
  2.4939424e-01 -9.2326704e-04  3.7761006e-04 -9.4127603e-02
 -1.6474985e-01 -5.4691397e-02  5.1672836e-03 -1.9344516e-01
 -1.6692336e-04 -5.2977083e-03  1.0853747e-03 -3.0991936e-03
  1.8133044e-03 -2.0952867e-02 -1.9295233e-03  1.4760081e-01
  1.3016598e-02  8.8018356e-03 -5.0933873e-03 -5.2835617e-02
 -2.4203125e-01  2.7710164e-03 -3.6727136e-03 -4.9605919e-04
 -1.7843612e-01 -3.0260865e-04 -2.0443834e-01 -1.0539638e-03
  2.1743642e-03 -1.1248472e-03  7.9569675e-04  8.7810636e-02
  2.2276706e-01 -1.5479782e-01  8.4182292e-02 -1.1625629e-03
 -9.6439883e-02  3.8471889e-02  3.1423825e-03 -5.2805711e-04
  1.6072568e-03 -2.5724247e-03 -2.7304348e-03  1.3497315e-01
 -1.2778353e-03  3.0888291e-04  6.0032415e-03 -1.8502737e-03
 -5.7598168e-04  2.7426949e-02  3.3236991e-03  2.4411445e-03
  2.4125997e-04 -9.4240963e-02  1.4322692e-01  4.0406734e-04]
[ 5.1098473e-02 -3.5734021e-03 -8.5387968e-05  4.2150076e-03
 -1.1197152e-03  2.6367491e-01  7.8541669e-04 -2.9818539e-04
  1.6843349e-01 -3.4341081e-03  1.4962396e-04  8.1458844e-02
 -5.6207411e-02  1.9070726e-02 -4.4138175e-03 -5.4968510e-02
  9.9939620e-04 -2.3222023e-03  6.4848602e-04 -1.6988115e-03
  3.2519330e-03 -6.6608585e-02 -9.5840733e-05 -2.9869381e-01
 -6.3312137e-03  2.6248172e-03  4.0650147e-04  2.7530538e-02
 -8.5608445e-02  3.5869824e-03 -2.0318092e-03  4.2152870e-03
  1.4511153e-01 -6.2115100e-04  1.4079104e-02  2.2377265e-03
  9.5989679e-05 -3.5460349e-04  3.6091340e-05 -2.3789806e-02
  1.5862184e-02  1.2473711e-01 -6.8047285e-02 -7.1297243e-04
 -1.4333525e-01  6.8654902e-02 -2.5626032e-03  9.1552548e-04
 -1.1099802e-03 -2.9668209e-04 -9.8560494e-04 -6.8260714e-02
  2.4010553e-03 -8.5585997e-02 -2.1368323e-03 -5.7516503e-04
 -5.7696085e-04 -3.3241685e-02 -5.3090225e-03  3.4047935e-05
 -2.1113255e-03 -5.9438068e-02 -1.6204891e-01 -2.0967657e-03]
[-8.0249794e-03  1.6803615e-04  3.2621345e-05 -8.4071130e-02
 -1.3920359e-04  1.0008003e-01 -2.4089289e-03  1.0123575e-04
  3.0842664e-02 -6.5021118e-04 -2.8447379e-04 -2.5380850e-01
  3.8774639e-02 -1.3157357e-01  1.5236763e-03  4.3704335e-02
 -5.3204582e-03 -3.7640552e-03  1.0792946e-03  2.3539665e-03
  2.7726621e-03 -1.1852424e-01 -1.1467523e-03 -1.3494025e-03
  1.8945608e-03  4.6452018e-03  5.3734408e-04 -1.2230229e-01
 -4.5250519e-03 -8.5809897e-04  1.3056459e-03 -5.3549826e-04
  2.0775415e-03 -6.4398185e-03 -1.2013694e-01 -4.6663247e-03
  2.8426468e-04  3.2621506e-04  1.4325143e-04 -4.0969018e-02
  7.5136255e-03 -8.5419819e-02 -3.3290908e-02 -8.0599228e-04
  1.5093350e-02  1.3901947e-01  1.0165935e-03 -5.2098152e-03
  4.2255811e-04 -5.0193754e-05  1.8993585e-04  5.7031766e-02
  2.4347615e-03  7.4271068e-02 -6.2897516e-04  4.2659370e-04
 -6.2819157e-04 -7.2995752e-02  2.6399589e-03  3.6469885e-04
 -2.3824200e-03 -6.8351462e-02 -1.8784119e-01 -6.1459665e-04]
[-2.07315981e-01 -1.06919985e-02 -4.51597676e-04 -5.80626242e-02
 -2.81594374e-04 -2.41562977e-01 -4.72099241e-03 -1.55064292e-04
 -7.29242936e-02 -2.02157884e-03  3.07389622e-04 -9.10540894e-02
  6.53603673e-02 -1.24539569e-01  4.09918325e-03  6.65862486e-02
  3.20168154e-04  3.74322088e-04 -9.40843311e-04  8.09028861e-04
 -3.46627808e-03  6.45032004e-02 -1.77963811e-04  1.76981419e-01
  5.06560435e-04 -2.07896577e-03 -3.77580873e-03  1.26944661e-01
  2.37355400e-02  4.87492196e-02 -2.24290183e-03 -5.30289253e-03
  1.23119704e-01  5.34524908e-04 -4.81789485e-02  1.34920550e-03
  4.75572830e-04  1.59758813e-04  6.61614686e-05 -8.65546390e-02
 -3.27904105e-01  9.14805830e-02  1.63472101e-01 -2.00994429e-04
 -2.44343746e-02 -2.53502633e-02  3.33566405e-03 -6.46961926e-05
  1.80914078e-03 -4.18239797e-04  8.70553631e-05 -9.97481197e-02
 -6.04121771e-04  9.80840325e-02  1.39678153e-03  2.86155439e-04
 -3.35134857e-04  9.54598095e-03  4.22705943e-03  6.35830511e-04
  4.25293605e-04  1.60139844e-01 -1.15989178e-01 -3.23254848e-03]
[-9.8187134e-02  3.4052434e-03 -8.5308719e-05 -4.4438358e-02
 -1.6739309e-03  9.1761060e-02  2.9936286e-03 -1.0195422e-03
 -5.1837493e-02 -8.6320163e-04  2.1435288e-04 -2.2051732e-01
  1.6626920e-01  1.3541444e-01  1.2440534e-03 -1.9571720e-01
  7.3985942e-04 -6.7236256e-03  3.5137584e-04  1.2203129e-03
  5.5701090e-03  1.5860096e-01 -1.3287674e-03 -1.7559569e-01
 -5.7695792e-03  2.8148652e-03 -2.4793940e-03  3.8202073e-02
  1.4570057e-01 -2.7874162e-02  2.6035232e-03  8.1939735e-03
  9.6750006e-02  6.4634031e-04  7.5108223e-02  9.0798472e-05
  8.5432857e-04  5.0868199e-05  3.3597308e-04 -2.8837311e-01
 -3.4558605e-02  1.9056626e-01 -9.5754370e-02 -1.1498349e-03
  1.4266563e-02 -5.2122675e-02  1.4470734e-03  1.1349279e-03
  5.6989506e-05 -9.2990627e-04 -1.3290622e-03  5.5844087e-02
 -2.3927361e-04 -4.9179628e-02  5.9817685e-04 -6.9094094e-04
 -1.1413669e-03  1.6711770e-02  3.0053009e-03  8.9805952e-04
  1.0384685e-04  5.6024488e-02  1.9379545e-02  1.4505328e-03]
[ 1.15287237e-01 -2.89685396e-03 -6.20516294e-05 -1.67505499e-02
 -1.73448422e-03  8.91881995e-03  3.25490534e-03 -7.92893756e-04
 -1.78251252e-01  4.56379144e-04  3.46803252e-04 -7.60627165e-02
 -1.29192844e-01  9.33724940e-02  7.29524705e-04 -4.89559732e-02
  4.53644665e-03 -5.46510937e-03 -1.21464848e-03 -2.68937565e-05
 -3.15195532e-04  1.82867661e-01 -1.09217223e-03 -9.45416167e-02
 -1.30438916e-02 -6.52823830e-03 -4.80278675e-03 -1.48862213e-01
  1.89036906e-01  1.38681367e-01 -6.66857418e-03  4.19754116e-03
  4.48005162e-02  3.59538081e-03  2.23462805e-01  6.64016837e-03
  5.99831750e-04 -2.80621840e-04  4.63633041e-04  4.91146296e-02
  8.15943033e-02  2.91834980e-01  1.17047034e-01 -3.33000295e-04
  1.37651563e-01  4.90118228e-02  3.98436794e-04  3.83125385e-03
  4.18164738e-04 -6.01819367e-04 -6.45631750e-04 -6.20812476e-02
  3.30555416e-03 -2.66493559e-01  2.92804162e-03 -4.56682872e-04
 -5.84051246e-04  2.03907847e-01 -8.77055922e-04  6.50148722e-04
  1.08977465e-03  4.48273942e-02  1.67906046e-01 -4.08724853e-04]
[ 1.05954565e-01 -5.91219310e-03  1.26467232e-04  2.45830566e-01
  1.32553265e-04  2.62662470e-02 -2.09845812e-03  2.42981681e-04
 -2.07464710e-01 -1.95847847e-03  9.70985333e-04  1.09088056e-01
 -1.56009689e-01  6.12053508e-03 -2.92157498e-03  9.58148018e-02
 -2.47929501e-03 -3.76161159e-04 -4.19322401e-04 -5.09918784e-04
 -2.79844797e-04  1.68953106e-01 -1.98433438e-04  1.11014649e-01
  3.35663348e-03  2.94637145e-03 -6.88878528e-04 -1.52202576e-01
  1.11629024e-01  8.12766328e-02 -1.00456481e-03 -2.39723874e-03
 -1.12320304e-01 -1.31897628e-03 -1.43909439e-01 -4.38169390e-03
  6.63758023e-04 -9.49791924e-04  3.90267960e-04  2.07840964e-01
  1.27571970e-01  4.39275466e-02 -1.10461310e-01 -5.62124944e-04
 -6.54430762e-02 -2.70437032e-01 -1.36682543e-03 -1.61820988e-03
 -1.02236751e-03 -1.02810620e-03 -1.27262331e-03 -8.58260989e-02
  5.27762400e-04 -5.91313727e-02 -1.50199258e-03 -1.32788904e-03
 -2.34913787e-05 -1.79964919e-02 -2.70906510e-03  7.08025007e-04
  6.07329712e-04  7.41440952e-02 -1.55223543e-02 -1.92487519e-03]
[ 6.17539398e-02 -9.88363102e-03 -1.17667914e-04 -2.64413595e-01
  6.71174144e-04 -1.08595543e-01 -3.05875600e-03 -1.45136990e-04
  8.12645257e-02 -7.81260664e-04  7.53337983e-04  1.89061925e-01
  1.17482856e-01 -8.04138370e-03  5.46717783e-04 -2.31521472e-01
 -8.25312221e-04  2.93042790e-03 -1.58463628e-03 -1.02250592e-03
 -5.33215934e-03 -6.89767599e-02 -6.39068428e-04  2.36090440e-02
  2.16164207e-03 -3.56918317e-03 -4.70272545e-03  1.68248832e-01
 -5.44869006e-02 -5.25962096e-03 -5.25594456e-03 -7.16015277e-03
 -6.53658435e-02 -4.55719652e-04  1.03614256e-01 -8.91864882e-04
  7.64917466e-04  1.79558454e-04  2.91636272e-04 -5.92260957e-01
  1.38375744e-01  1.47723081e-02 -3.41987573e-02 -4.18964133e-04
  1.19540002e-02 -1.02649555e-01  6.04071422e-04 -4.03258397e-04
  3.98882228e-04 -3.78117547e-04 -9.61198471e-04  1.21328868e-02
 -4.48708131e-04 -9.20203328e-02  3.89528344e-03  7.26150247e-05
  4.58673516e-04  2.06542034e-02 -8.99073784e-04  7.81022827e-04
 -1.38488715e-04  4.31876212e-01  2.36079305e-01 -1.93091779e-04]
[-2.93709248e-01  1.80120002e-02  3.31173214e-04  3.18834186e-03
 -8.90300784e-04 -5.99766858e-02  8.47821217e-03  1.19821448e-03
  7.33402893e-02 -2.42480519e-03 -1.46660418e-03 -4.26642559e-02
  5.66101260e-02 -5.48855052e-04 -3.05678416e-03  8.74995962e-02
  1.73941976e-03 -6.21901220e-03  3.15038813e-03  1.75741944e-03
  1.26939751e-02 -1.34801134e-01 -1.46930257e-03 -6.37386739e-02
  2.15802487e-04  2.28405017e-02  7.59216584e-03  2.40720883e-01
  1.22882105e-01 -2.85018355e-01  8.54144245e-03  1.47791049e-02
  6.39216825e-02  1.10015401e-03  2.38177225e-01  1.49781536e-03
  1.10869098e-03 -5.37953223e-04  6.74888084e-04 -2.99820662e-01
  9.61307436e-02  2.10071690e-02  3.36997323e-02 -4.14820010e-04
 -5.22955395e-02 -1.11140169e-01 -2.42357934e-03  1.37113966e-03
 -2.13473919e-03 -1.35129131e-03 -2.37895199e-03  1.47212688e-02
  2.38617347e-03  5.21351993e-02 -6.84529450e-03 -1.17512583e-03
 -1.41985901e-03 -1.04530171e-01  1.52854191e-05  1.08605064e-03
  1.98670244e-03  6.07101172e-02  1.43089667e-01 -1.00509427e-03]
[-1.58742312e-02 -4.72840038e-04 -1.07622473e-05  1.64330751e-02
 -2.28323787e-03 -9.80325788e-02  2.84115085e-03  4.50072112e-04
  1.09840808e-02 -4.09032265e-03  4.64411190e-04  2.14803278e-01
 -1.00453850e-02  1.00135647e-01  1.32351636e-03  1.90044921e-02
 -3.02672945e-03 -1.39764445e-02  1.83490303e-03 -1.31733250e-03
  7.36228097e-03  8.93342495e-02 -1.64030225e-03 -6.74969852e-02
 -8.31129216e-03  6.68161036e-03 -3.78176314e-03  1.21135905e-01
 -9.63953659e-02  5.36584593e-02 -1.11263720e-02  1.04154451e-02
  6.37747049e-02 -1.89691386e-03  1.00366428e-01 -4.09818813e-03
  6.91967027e-04 -4.55339090e-04  2.54851999e-04  8.02180395e-02
 -1.44457102e-01 -1.30623788e-01  8.76881406e-02 -4.68026410e-05
  2.56626487e-01 -4.24505286e-02  4.06879699e-04 -2.23355694e-03
  9.51501657e-04 -5.81794069e-04 -5.44407056e-04 -1.07259722e-02
  4.83970996e-03  1.03595652e-01  1.80508289e-03 -2.45126110e-04
 -1.74394285e-03  7.10690394e-02 -1.90247479e-03  7.45287107e-04
 -2.34504696e-03 -2.79568825e-02  1.64735749e-01 -3.86060169e-03]
[-1.08381629e-01 -6.91931555e-03 -1.10904628e-04  3.76257934e-02
  2.78896099e-04 -1.84347585e-01 -3.87232006e-03  8.04116833e-04
  3.58387153e-03  3.05274065e-04  1.04678166e-03  1.50195137e-01
 -1.72103383e-02 -7.38363247e-03 -5.67096751e-04  1.23930998e-01
 -3.97514179e-03  1.45589671e-04 -8.27631331e-04 -2.11845478e-03
 -3.96216661e-03 -5.27291521e-02  3.56641388e-03  1.17400944e-01
 -1.49035081e-03 -8.69523548e-03 -3.74435098e-03  7.50778839e-02
 -3.33492272e-02  2.97964122e-02 -6.02452457e-03 -4.05058637e-03
 -3.36975679e-02 -1.95762003e-03 -1.43458471e-01 -5.03497757e-03
 -1.45661272e-03  1.42794452e-04 -8.58067826e-04  1.29620969e-01
 -1.19787410e-01  1.24467097e-01  9.32206959e-02  9.78212105e-04
  2.38455106e-02  1.96495447e-02 -7.95393484e-04 -3.19882529e-03
 -6.41487713e-05  1.55190413e-03  2.13241577e-03  1.16824266e-02
  1.52877605e-04 -1.05253160e-01  2.44827894e-03  1.22786767e-03
  3.15348996e-04 -5.94603382e-02 -3.77672887e-03 -1.49627868e-03
 -6.55192649e-04  7.89022166e-03  1.42398119e-01  8.73420795e-04]
[-2.72492051e-01 -6.46010623e-04  4.07886109e-05  5.21519370e-02
 -7.32879736e-04 -1.04875326e-01  3.27268825e-03  3.45064618e-04
  1.02863498e-01 -1.21345557e-03  9.24930966e-04  1.66504875e-01
  4.64191474e-02 -5.66869089e-03  4.96109715e-03 -1.21473046e-02
 -7.81634450e-03 -1.15266200e-02  1.20638590e-03  7.16072042e-04
  3.78503324e-03 -8.62918515e-03  1.49077561e-03  9.76621658e-02
 -7.99523841e-04  5.49758971e-03 -8.08013231e-03  5.39927594e-02
 -1.24059580e-01 -8.18381682e-02 -9.68563557e-03  5.66420192e-03
  1.01402871e-01 -6.08727289e-03 -3.16802263e-01 -9.53598320e-03
 -1.96865905e-04 -3.86497297e-04 -4.04109269e-05 -2.31854945e-01
  6.89270496e-02  7.27261975e-02  1.49377408e-02  5.85017515e-05
  2.68304288e-01 -3.94355394e-02  2.54718005e-03 -6.33416092e-03
  1.89298671e-03  2.34315608e-04  1.27717596e-03 -7.17465430e-02
  1.69020554e-03  1.08597852e-01  8.34704470e-03  3.71324160e-04
 -1.22651074e-03 -1.39090896e-01  1.48354552e-03 -1.03420862e-04
 -1.40012312e-03 -1.94159359e-01  1.10658221e-01 -1.81644701e-03]
[-1.77034542e-01  2.99432129e-03 -5.23965355e-05 -1.12404898e-01
 -1.40292279e-04  1.12825051e-01  2.00847141e-03 -9.05474299e-04
 -6.25324249e-02 -1.83497777e-03  3.08359129e-04  3.70999309e-03
  5.76974712e-02  1.18993567e-02 -1.21556711e-03  7.67998919e-02
 -1.32806890e-03  7.20058277e-04 -1.39649690e-03 -5.87903138e-04
 -2.21559918e-03 -1.24673806e-01  9.35257238e-04 -1.18211150e-01
 -6.76079281e-03 -3.04549932e-03 -2.11971020e-03 -1.00064643e-01
  6.74824193e-02 -9.44115315e-03 -5.40296175e-03 -1.07438158e-04
 -3.41105089e-02 -9.45974898e-04  8.01682565e-03 -1.42656569e-03
 -4.49134997e-04 -1.70211773e-04 -5.68977208e-04 -6.81055486e-02
 -1.99798327e-02 -5.79591133e-02  7.13506192e-02 -5.08462486e-04
  1.20104834e-01 -1.22223832e-01 -9.09112510e-04 -1.53233600e-03
  1.35729817e-04  4.03642422e-04  3.95762210e-04 -5.67750596e-02
  1.62260118e-03 -2.51594037e-01  1.69642433e-03  2.15162610e-04
  2.47608317e-04  6.20304560e-03 -3.80428880e-03 -5.04290510e-04
  8.28502642e-04  4.42985371e-02  1.71936583e-02 -2.45592254e-03]
[-2.32155174e-01 -8.69121053e-04 -5.29154611e-04 -1.57688260e-01
 -2.63103320e-05  5.15777886e-01  6.04901114e-04  2.27020399e-04
  5.66766299e-02 -1.64495106e-03  2.52697908e-04 -3.58522385e-01
 -1.70022264e-01 -4.47622910e-02 -2.62410706e-03 -9.31754932e-02
 -1.46060437e-03 -2.27672135e-04 -4.30467298e-05 -1.21553268e-04
 -2.73803435e-03 -1.67921990e-01 -3.61484301e-04 -4.73164693e-02
  2.65073543e-03  6.23754750e-04  1.55381532e-03 -7.04262108e-02
 -1.02014914e-01  6.99866116e-02  2.91437958e-04 -3.19297053e-03
  1.43890902e-01 -1.29641988e-03 -1.32787362e-01  3.47429392e-04
  8.39976419e-04 -3.61990067e-04  1.44498947e-03 -8.38500112e-02
 -1.36617217e-02  8.45196657e-03 -1.53851688e-01  4.18376148e-04
 -5.52832223e-02 -1.38224453e-01 -2.38263491e-03 -1.93907029e-03
 -1.82511087e-03 -5.48632175e-04 -8.35878076e-04 -6.54993504e-02
  1.74717628e-03 -1.08000398e-01 -1.38780428e-03 -1.93317683e-04
 -6.18928636e-04 -2.48761922e-01 -2.34765513e-03  8.99911276e-04
  9.25160071e-04 -5.47156483e-02  4.71244426e-03 -1.76348211e-03]
[-1.0288972e-02  7.6889768e-03  9.3080580e-06 -3.6531384e-03
 -3.0396070e-05  2.1265715e-01  3.7234377e-03 -5.9907039e-04
  1.6601861e-02  4.0726578e-03 -1.0734313e-03  1.7450869e-02
  1.7656881e-04  7.2395176e-02 -7.7462816e-03  4.8513677e-02
  6.8412903e-03 -3.7539271e-03  1.6754196e-04 -1.5884186e-03
  1.2264122e-03 -4.0617362e-03  7.6723890e-04 -2.6220024e-02
  9.2473021e-04  6.5718411e-04  6.4409254e-03  4.3498866e-02
  6.9256304e-03 -9.7518928e-02  7.3757470e-03  3.7380778e-03
 -2.1565540e-02  4.2629060e-03  1.0157549e-01  8.0234241e-03
 -4.6837935e-04  8.4465737e-06 -3.7216302e-04 -3.8887508e-02
  1.3285516e-01 -1.7766925e-02  2.0499384e-02 -9.8779961e-04
 -1.7562644e-01 -7.0895217e-02 -4.9580340e-03  5.5791563e-03
 -3.0609171e-03 -1.3765834e-04 -1.3711493e-03 -3.9205324e-02
 -1.2813024e-03 -1.0619257e-01 -7.3271808e-03 -7.0397730e-04
 -4.6249709e-04 -1.6782519e-01 -4.6847030e-03 -5.3385261e-04
  1.3218480e-03  4.1829128e-02  3.3092037e-02  3.1629198e-03]
[ 1.1595691e-01 -6.2429514e-03 -3.5599573e-04 -1.2721133e-01
 -2.0317093e-04 -4.8201934e-01 -2.6211874e-03 -8.4786315e-04
 -4.4471387e-02  8.0268469e-04  1.6304629e-03  2.1584825e-01
 -2.2168672e-01  1.7614024e-02  9.3332231e-03 -9.3558848e-02
 -3.4929314e-03 -4.6508145e-03 -1.1383261e-03 -2.9368890e-05
 -3.1813306e-03  8.4946349e-02  3.0326599e-04  3.8710445e-01
  2.9058638e-03 -1.0419085e-03 -1.2867671e-02  4.7193426e-01
 -2.4721224e-02  1.3685046e-02 -2.0472564e-02 -3.0465159e-03
  8.9136563e-02 -2.3541111e-03  6.8589687e-02 -5.0823833e-03
  2.3903105e-04 -3.7156843e-04  1.5302344e-04  1.4623490e-01
 -3.8191193e-01  9.3176261e-02  3.8935536e-01 -7.6815917e-04
 -1.5618037e-01 -1.0171929e-01  4.3079928e-03 -2.4064118e-03
  3.3210733e-03  2.4836411e-04  1.5266092e-03 -5.6116566e-02
  2.4707401e-03 -1.0963563e-01  1.5753109e-02  7.9695182e-04
 -1.4311014e-04  8.8685334e-02  1.2748581e-03  3.5671380e-04
 -4.2241329e-04  9.0467907e-02  5.2630466e-01 -7.3584920e-04]
[-1.71047077e-01  3.40475924e-02  5.66421586e-05 -3.65605727e-02
 -2.15256470e-03  2.42612690e-01  1.24179516e-02 -9.21471394e-04
  1.55051321e-01 -3.63736600e-03  1.05845364e-04  3.53331231e-02
 -1.97142307e-02  5.30897975e-02  6.74213329e-03 -1.23493768e-01
  8.05055443e-03 -6.67550135e-03  3.59028531e-03 -1.61345920e-03
  1.63343661e-02 -1.63091555e-01 -3.15587991e-03 -2.35626891e-01
 -6.72242325e-03  2.33060569e-02 -4.80223540e-03 -1.90455317e-01
 -4.25519422e-02 -5.10997586e-02 -6.42958190e-03  2.22815108e-02
  1.35977520e-03  1.03359984e-03 -1.26864612e-01  1.20733222e-02
  2.61622667e-03 -1.73990591e-03  1.06675073e-03 -1.27261296e-01
  4.25087839e-01  1.42048240e-01 -2.03671247e-01 -1.19109615e-03
  1.03280894e-01  6.40637875e-02  3.92614957e-03  6.01885421e-03
  2.33086920e-03 -3.26149887e-03 -3.02430987e-03 -3.69355828e-02
  1.92967593e-03 -9.08237472e-02  3.70535417e-03 -2.46973708e-03
 -2.16550333e-03  1.29891425e-01  5.55257825e-03  3.00692068e-03
 -1.19090278e-03 -1.05264284e-01 -1.36769518e-01 -1.03626994e-03]
[-2.1743424e-02  1.4868358e-03 -4.2303340e-04 -1.6496111e-01
 -1.9448391e-03 -4.8740983e-02  2.8539142e-03 -1.0644763e-03
 -2.5619912e-01  4.9563113e-04  5.5459928e-04  3.2952514e-01
 -5.3172009e-03  1.6651431e-02  7.7297734e-03 -4.8462048e-01
 -2.6355707e-03 -1.3250752e-02 -1.4880993e-03  1.0065561e-03
 -8.4065337e-04 -2.9759449e-01  3.5399784e-04  1.7683244e-01
 -4.4153286e-03 -7.7577052e-03 -9.5588649e-03 -7.6550052e-02
 -1.7009695e-01  1.5013693e-01 -8.6611062e-03  6.1638551e-03
  8.0963321e-02 -1.2929329e-03  3.8892042e-02 -1.5667551e-03
  3.9562568e-04 -3.9473984e-05  4.0677926e-04 -1.4963821e-01
  9.3595907e-03  1.1007707e-01  1.3056423e-01 -4.1715355e-04
  1.8911389e-01  2.6394280e-02  3.3428334e-03 -2.4126775e-03
  1.2480386e-03 -2.3155399e-04  3.8353857e-04  1.0792453e-02
  2.1575303e-03  5.1611315e-02  1.4119251e-02  2.4753759e-04
 -1.4679158e-03  2.1523561e-02  4.7378186e-03  5.0564780e-04
 -1.1062045e-03 -1.6425997e-01  1.0837394e-01  1.9985409e-03]
[ 9.0672977e-02 -9.9397302e-03  5.8143170e-05 -3.3312166e-01
  1.7038132e-04  1.0469905e-01 -5.5721328e-03 -7.2327483e-04
 -6.0974132e-02  7.7958353e-04 -3.0586179e-04 -9.8045394e-03
 -1.1757382e-01 -1.9517399e-02  1.9157853e-03 -5.4511696e-02
 -3.2134510e-03  2.5748939e-03 -2.2267445e-03 -5.9210276e-04
 -5.5722133e-03  1.1746352e-01  7.0809742e-04 -6.6833802e-02
 -4.8215394e-03 -8.5815545e-03 -1.9330124e-03 -3.3617613e-01
  1.2594748e-01  3.9006360e-02 -1.1443405e-03 -5.5119377e-03
  4.0185697e-02 -9.8236988e-04 -4.9191201e-01 -3.5035384e-03
 -2.9319210e-04  6.7390851e-04 -2.9648020e-04  1.2272483e-01
  1.0436724e-01 -1.7381264e-01  9.8629899e-02 -7.4515818e-04
  7.9721488e-02 -3.4304451e-02  2.0233069e-03 -2.2711665e-03
  1.3312206e-03  3.5714998e-04  7.5335085e-04 -2.2500187e-02
 -8.4735639e-04  1.1148257e-02 -7.8746391e-04  8.4201677e-04
  3.8614788e-04 -1.2015721e-01  2.3098662e-03 -2.3109699e-04
  4.5931237e-04  7.7498898e-02  1.9497236e-02 -4.8813294e-04]
[-2.59316683e-01  3.58852628e-03 -8.35069950e-05  8.70364904e-02
 -1.01384090e-03  5.29399961e-02  2.94710253e-03  6.51981754e-05
  1.41336143e-01 -1.53730530e-03 -7.63858916e-05 -2.26563767e-01
 -2.34647214e-01 -3.27052996e-02  4.88038058e-04  3.52680869e-02
 -1.11191103e-03 -7.45114591e-03  3.24651645e-03 -8.62372341e-04
  7.45000970e-03 -1.18705863e-03  8.93887016e-04  3.96133289e-02
 -2.18471570e-04  9.04609915e-03 -1.14864716e-03 -6.25061244e-02
 -1.19551994e-01 -1.26372084e-01 -1.94652518e-03  7.97338411e-03
  5.95009141e-02 -3.71652306e-03 -1.31693095e-01 -2.09868816e-03
 -7.02256861e-04  4.25170118e-04 -3.18665785e-04  7.49556124e-02
  1.83747783e-01 -1.41455010e-01  1.23626232e-01  5.21051243e-06
 -2.41277013e-02 -1.18626086e-02  2.50298064e-04 -1.53078127e-03
  5.33766986e-04  7.28578656e-04  1.08403410e-03 -4.00133152e-03
  8.07138422e-05 -1.17560402e-02  7.35567999e-04  8.36090068e-04
 -8.64185567e-04  5.06541599e-03 -2.57937470e-04 -6.59344252e-04
 -3.52019444e-03 -3.19655180e-01 -6.30365536e-02 -5.57457970e-04]
[ 1.3263042e-01  1.6722595e-02  2.5055127e-04 -1.4277765e-01
 -2.5906672e-03  4.2419024e-02  6.6121146e-03  3.5983248e-04
  1.2801738e-01 -5.8888448e-03 -1.2424932e-03 -2.5422672e-02
  6.2493728e-03  1.5809049e-01  2.0231223e-03 -8.0047973e-02
 -1.3117631e-03 -4.8565399e-03  5.1177363e-03 -5.1793887e-04
  1.6413826e-02 -4.7532851e-01 -6.0285600e-03 -5.9301020e-03
 -7.4376641e-03  2.2187071e-02  1.0511922e-03  3.3571851e-01
 -3.6393496e-01 -1.0486043e-01  1.0952602e-02  1.9749606e-02
  1.5595393e-01 -3.6756236e-03 -2.1737301e-01 -4.1183177e-04
  3.6233319e-03 -1.1205710e-03  2.0064458e-03  1.2514442e-01
 -3.3502288e-02 -5.4737186e-01 -1.6142582e-03 -2.9287234e-05
 -1.0044174e-01  1.1169274e-01  1.7197869e-03 -1.5561063e-03
 -2.7445960e-04 -4.2937421e-03 -5.8278642e-03  6.0957287e-02
  4.3658260e-03 -3.3621244e-02 -8.5420394e-04 -3.6020160e-03
 -1.5685408e-03  1.1675221e-01  6.8117492e-03  3.8915486e-03
 -6.5758056e-03  1.8650785e-01 -3.7645325e-03 -2.1559712e-03]
[ 3.2999281e-02 -2.4751888e-03 -1.6814141e-04  4.9315702e-02
 -5.0355462e-05 -4.1849720e-01 -2.4527560e-03 -1.7053485e-04
  3.7606549e-02  6.0116051e-04 -3.9053868e-04  1.7223352e-01
  1.9327451e-01  5.4265134e-02  3.9831097e-03  6.1800282e-02
 -1.5009608e-03 -9.9345972e-04 -4.6838645e-04  5.5513036e-04
 -1.9652443e-03  7.7190764e-02  2.2501299e-04  1.3044588e-01
 -9.9230919e-04 -3.9929855e-03 -3.4290163e-03  1.4201029e-01
  1.0147429e-01  4.7898393e-02 -4.4648792e-03 -9.5057301e-04
 -1.3620755e-01  1.1151362e-03  1.2601879e-01 -2.5709074e-03
 -5.5004214e-04  9.2235010e-04  3.3502289e-04  2.0646578e-01
 -1.9969365e-02 -1.0581948e-01  3.7971601e-01  1.0770302e-04
 -1.7466652e-01 -4.4581156e-02  2.2270505e-03 -1.5204293e-03
  1.7574269e-03  9.7819744e-04  2.1454345e-03 -3.2981776e-02
 -3.6957234e-04  7.6918937e-02  2.4628874e-03  1.7470296e-03
 -4.6794780e-04  3.1409153e-01  2.1483127e-03 -3.3765356e-04
  1.2231525e-03 -1.9350782e-02 -1.0402142e-01  9.8944479e-04]
[ 2.8418294e-01 -2.0865223e-03 -3.3629436e-05  2.4797387e-02
  4.2492003e-04 -5.4441262e-02 -1.0685869e-03 -9.9984370e-04
  1.5192290e-01 -2.4886564e-03 -2.3026728e-04 -2.1260789e-01
  1.1315284e-01  5.1500227e-02  6.6191755e-04  4.7086108e-02
  2.9804788e-03  6.1268383e-03 -2.2088347e-03 -1.3993683e-03
 -5.7442430e-03 -2.3017243e-01  2.0104267e-03 -1.9914994e-01
 -3.5613079e-03 -8.5149445e-03 -1.3429062e-03 -1.1470163e-01
 -2.8068292e-01 -4.1510489e-02 -2.5841231e-03 -3.2491114e-03
  1.6438410e-02  4.2361873e-03 -5.1437400e-02  2.1476196e-03
 -8.1853574e-04  3.8064006e-04 -5.4463424e-04 -4.3754998e-01
 -6.8166129e-02 -6.1222967e-02  9.6775070e-02 -1.1609114e-03
 -1.9692345e-01  4.5988254e-02 -6.8828231e-06  3.5451930e-03
  4.9583241e-04  9.1896200e-04  1.4378185e-03  4.6108472e-03
 -1.9290618e-03 -1.6477389e-02  1.8539014e-03  1.0187377e-03
  7.5102743e-04  6.7570992e-02 -1.1362336e-03 -7.8273675e-04
  1.0466000e-04 -3.6060500e-01  5.5164237e-02 -1.2586728e-03]
[-9.53969285e-02  4.79327422e-03 -4.62535303e-04 -1.34664122e-02
 -3.91815469e-04 -6.82162419e-02 -4.32356901e-04 -2.62625806e-04
 -5.03508039e-02 -1.37635600e-03  1.13906001e-03  9.65068862e-02
  8.53520036e-02 -5.96700273e-02  4.81175352e-03  2.06674021e-02
  2.00835941e-03 -7.86570017e-04  4.98762587e-04  8.24581075e-04
  2.05279607e-03 -1.46469683e-03 -6.06985297e-04  2.06912562e-01
  1.15862349e-03  8.04974139e-03 -5.95953362e-03  5.55427335e-02
 -4.00718115e-02 -6.45623505e-02 -5.89563232e-03  1.45964255e-03
  3.97188179e-02  1.21582812e-03  4.84204851e-02  3.08318646e-03
  1.14641432e-03 -1.28230918e-03  2.57984328e-04 -4.75514606e-02
 -5.74477389e-02  4.59830165e-02  1.43276036e-01 -5.01254050e-04
 -1.18561305e-01  6.71625556e-03  3.29610752e-03  8.50181386e-04
  1.91188091e-03 -1.62171118e-03 -1.18365721e-03 -1.89394012e-01
 -6.17503974e-05  8.49663168e-02  3.10299592e-03 -1.12742675e-03
 -9.93332826e-04  2.33407900e-01  3.59241385e-03  1.39335217e-03
  1.19271723e-03  6.30661398e-02 -3.69472295e-01 -8.96657410e-04]
[ 2.9954240e-01  3.8748626e-03 -1.4634992e-04  4.0885534e-02
 -3.8887138e-04  1.2582693e-01  2.8627610e-04 -3.7652013e-04
  7.0559368e-02 -1.7331640e-04  2.0189189e-04 -7.2676510e-02
 -1.2737446e-01  8.6894959e-02  7.0905453e-04  6.3707225e-02
 -7.0228742e-04 -4.7342135e-03  6.6182001e-05  2.9575180e-03
  1.6475192e-03 -4.4876307e-02 -1.1979743e-03 -2.7477864e-02
  1.7106585e-03  1.3126682e-03  3.4417567e-04 -2.5447336e-01
 -2.7076263e-02  8.4731216e-03  5.6257783e-03  2.9039897e-03
  2.6976561e-02  4.3073689e-04  8.5929088e-02 -2.9619019e-03
  3.9946305e-04  1.5457824e-04  3.8431794e-04  1.6734318e-01
  1.8547338e-01  1.5559095e-01  1.2796747e-02  5.7278515e-04
  8.0143675e-02  7.6268604e-03  9.0710260e-04 -4.4099917e-04
 -7.0861826e-04 -4.8760048e-04 -5.2155083e-04 -2.8637161e-02
 -2.3159462e-03  5.5630159e-02 -1.0468586e-03 -4.2127445e-04
 -6.8688823e-04  6.6952251e-02  3.9425897e-03  4.2114613e-04
  1.0296999e-03 -2.1415716e-01 -8.8938817e-02  4.1319220e-04]
[ 2.2826891e-01 -1.4707485e-02 -2.1884669e-04 -4.0729918e-02
  5.0876656e-04  9.2910305e-02 -1.2412396e-02  6.1846466e-04
 -1.2905727e-01 -4.7989684e-04  9.2309940e-04 -9.7067421e-03
 -2.4360731e-02  3.7029136e-02  4.6458142e-03  7.7111408e-02
 -1.0349160e-02  1.9041579e-03  2.0131262e-04 -1.8422439e-03
 -2.3866238e-03  4.0251400e-02 -2.8165116e-03 -1.3447617e-01
  9.6369348e-03  2.3072425e-03 -5.7116668e-03 -9.7899169e-02
  1.5368590e-01 -8.5720956e-02 -9.5080100e-03 -7.6841284e-03
  6.1921608e-03 -7.6117977e-03  1.9040923e-01 -1.1160050e-02
  2.4324092e-03 -1.4589998e-03  1.1294738e-03 -8.4450620e-04
  1.7630970e-01 -5.7592135e-02  2.9013643e-02  3.2345759e-04
 -7.5311966e-02  1.0516357e-01  2.6300601e-03 -1.0998578e-02
  1.8730179e-03 -2.4602802e-03 -2.2467640e-03 -3.9195932e-02
 -2.5204688e-03  2.2099851e-02  3.9311917e-03 -1.7187106e-03
 -7.5533695e-05 -6.2813707e-02  1.9848067e-03  2.7063088e-03
 -5.4595020e-04 -5.4009136e-02 -1.6462249e-01 -2.1403169e-03]
[ 1.99339703e-01 -1.15599530e-02 -2.83991365e-04  9.73723978e-02
  9.62538295e-04 -7.66122192e-02 -8.97618011e-03 -4.41401033e-04
  5.19715399e-02  8.32402322e-04 -1.03990147e-04  5.80946170e-02
  1.08192116e-01  8.84136185e-02 -6.64123474e-03 -3.10294002e-01
  9.67747066e-04  7.90784322e-03 -1.30416313e-03 -2.82139820e-03
 -6.52860105e-03 -4.72933017e-02  4.58367613e-05 -1.24696024e-01
  6.26368495e-03 -4.48826095e-03  4.71256860e-03 -5.24193980e-02
  3.41793559e-02 -2.19003737e-01  5.81243949e-04 -9.92425624e-03
 -8.34987611e-02  7.26686791e-04  1.64420791e-02  1.82171527e-03
 -9.47414228e-05 -1.34251823e-04 -3.91954003e-04 -6.75022826e-02
 -1.63967498e-02 -3.46478939e-01  9.46905315e-02 -6.65383704e-04
  1.30088836e-01  2.02113688e-01 -3.87701625e-03  9.84151731e-04
 -1.72119564e-03  1.39440181e-05 -8.90876923e-04 -1.04939580e-01
 -2.24147132e-03 -8.72791186e-02 -6.21247618e-03 -1.75502035e-04
  8.06329248e-04 -3.44484821e-02 -6.61073299e-03 -2.16364628e-04
  4.13238391e-04 -1.00815475e-01  1.26708016e-01 -1.47341168e-04]
[ 1.88367650e-01  1.02600558e-02  1.37836696e-06  1.33960634e-01
 -2.66850321e-03  1.88187882e-02  7.92878773e-03 -3.04760411e-04
 -5.45632876e-02 -5.23828261e-04  1.02457718e-03  1.82716638e-01
  2.10183784e-02  4.00072038e-02  5.25411079e-03  1.12616971e-01
 -1.00034231e-03 -3.40116210e-03 -7.18135503e-04  1.72814878e-04
  4.24484489e-03  8.96542668e-02 -3.63576255e-04  8.36217925e-02
 -1.49159115e-02  5.21824695e-05 -9.82079934e-03  1.36636123e-01
  3.61606181e-02  1.89276680e-01 -1.43169248e-02  1.42609691e-02
  1.45574473e-02 -1.28587091e-03  1.75540179e-01 -5.44309034e-04
 -1.76104659e-05  8.09758436e-04  5.08377707e-05  3.61076705e-02
  3.63151133e-02 -1.18843742e-01  7.38602057e-02  1.83798649e-04
  1.69856027e-01 -2.86617223e-02  3.01378430e-03 -1.16918120e-03
  2.38690269e-03  9.71166242e-04  1.43690873e-03 -2.31219996e-02
  3.34814540e-04  3.23602073e-02  7.14814616e-03  1.58522464e-03
 -1.12876564e-03  1.43568292e-01  9.53787472e-04  1.38720061e-05
  1.51264539e-05 -9.75434333e-02 -5.04535437e-02  1.19795048e-04]
[ 1.3865396e-01 -3.7669542e-03  3.1800900e-04 -5.4469991e-02
  4.3670479e-05  7.1751773e-02 -1.0240622e-03 -7.9151971e-04
  3.0141625e-01 -8.5300155e-05  1.1824096e-03  2.8612224e-02
 -1.7698853e-01  9.9325716e-02  2.0660306e-03 -5.3436387e-02
 -4.6769758e-03 -2.5630093e-03 -1.9274966e-03  1.9235151e-03
 -3.1836159e-03  1.4642119e-01  1.3619793e-03 -9.2045687e-02
 -4.6637729e-03 -6.8355240e-03 -6.4456491e-03 -9.8886341e-02
 -3.9433684e-02  2.3683749e-02 -5.7450845e-03 -7.8952545e-04
  1.0626279e-01 -2.0491756e-03 -1.3011162e-01 -7.8401761e-03
 -5.9564045e-04  2.3086177e-04 -3.6498782e-04 -7.0375867e-02
 -1.1520369e-01 -2.9690020e-02  1.7352247e-01 -1.5788277e-03
  9.3368731e-02 -5.1540935e-01  1.7558928e-03 -3.4195588e-03
  7.0550502e-04  6.8282260e-04  1.2690383e-03 -2.4071069e-02
 -2.4018795e-03 -5.6154929e-02  4.3851170e-03  5.9425528e-04
  2.2535238e-05  1.2913861e-02  1.5600462e-03 -5.9087493e-04
  1.1388700e-03 -2.6129955e-01 -3.5239808e-02  7.7696277e-05]
[-3.08140237e-02  1.31146656e-02  5.00137219e-04  1.19497189e-02
 -1.27941463e-03  9.68388095e-03  5.91544481e-03 -4.50092484e-05
 -4.41920199e-02 -5.09475125e-03 -9.38619487e-04  1.12201296e-01
 -1.84705362e-01  4.03395444e-02 -1.28725637e-03 -3.22438955e-01
 -4.49003652e-04 -6.92439917e-03  3.19554261e-03 -1.41854410e-03
  1.19029190e-02 -1.56030387e-01 -5.30532154e-04 -1.01087557e-03
 -4.81346971e-04  1.65497251e-02  3.69478762e-03 -1.33090138e-01
  5.24124056e-02 -3.06609392e-01  6.29890338e-03  1.39568234e-02
 -2.27928255e-02 -2.22712336e-03  2.70055920e-01 -4.13829664e-04
 -1.80702133e-04  3.15710349e-04 -2.27268683e-05 -1.22287251e-01
  4.27989215e-01  1.64419740e-01  1.23397157e-01 -8.99976527e-04
 -1.38686982e-03  3.11777778e-02 -6.81028003e-04 -1.50268723e-03
 -9.32040391e-04 -9.39197926e-05 -4.92199732e-04 -3.02694347e-02
  3.40876845e-03  1.18343852e-01 -4.31994535e-03 -1.13007380e-04
 -1.67654885e-03  5.93824983e-02  1.01846131e-03 -1.28447806e-04
 -3.92243546e-03 -2.16577142e-01 -1.40027151e-01 -3.91156925e-03]
[-2.9752043e-01 -1.2772071e+00 -1.2761620e+00 -3.2398778e-01
 -1.2777110e+00  2.0275342e-01 -1.2823064e+00 -1.2753322e+00
 -9.5583633e-02 -1.2731013e+00  8.5063686e-04 -7.4282885e-01
  1.5532371e-01 -1.5731343e+00 -4.2333826e-04 -3.0222631e-01
 -1.2727507e+00 -1.2801883e+00 -1.2800875e+00  3.3797186e-03
 -1.2776809e+00  2.4473965e-02 -1.7579509e-03  2.2760129e-01
 -1.2778296e+00 -1.2786322e+00 -8.9074072e-04  3.2893557e-03
 -9.2382896e-01  1.6774711e-01 -2.6337793e-03 -1.2810057e+00
  2.1508035e-01 -1.2785817e+00 -2.2540848e-01 -1.2729151e+00
 -4.3669221e-04  1.3343880e-03 -1.4328905e-03  2.0074870e-01
  1.8457754e-02 -5.2103269e-01  4.0194324e-01 -1.2764276e+00
  8.3959602e-02 -2.1901043e-01  1.2961291e-03 -1.2728616e+00
  3.6930447e-04  1.7842343e-03 -4.5411754e-04 -4.8036361e-01
 -1.2827324e+00 -5.0555861e-01 -4.4475208e-04 -9.0675405e-04
 -1.2746413e+00 -5.1458615e-01 -2.1038431e-04 -1.5977691e-03
 -1.2801522e+00 -3.2004923e-02 -2.9461071e-01 -1.2762451e+00]
layer 3 Activation
swish
layer 4 Dense
64 64
[ 5.85753471e-02  1.25010859e-03  8.69145588e-05 -6.39136997e-04
  3.06045295e-05 -7.57460366e-05  9.89819673e-05 -1.04470924e-03
  6.45666616e-04 -8.04535568e-01  3.95422212e-05 -4.86562476e-06
  1.12449285e-04 -3.08129461e-06  9.46798827e-05  1.32542584e-04
  7.81603230e-05  1.23427853e-05  8.46264375e-05 -9.84994476e-05
  5.39138891e-05 -1.68949598e-03 -3.63483578e-02 -4.83279489e-02
  9.04185144e-05 -1.22945115e-03  2.73335055e-02 -8.62337183e-05
  2.67459673e-05  7.85821758e-05 -1.14880015e-04 -1.02790422e-04
 -2.20193551e-03 -8.92569224e-05  2.40661413e-03  1.11489127e-04
  1.00233352e-04  3.58609803e-04  5.53157661e-05  7.49489118e-07
  1.63100747e-04 -7.77821697e-05  6.12279326e-02  1.61819029e-04
 -1.59368326e-04  3.83260749e-06 -5.32862768e-02 -1.10409157e-04
 -1.81065302e-03 -8.11806967e-05  1.34008384e-04 -9.82945785e-05
  4.26543673e-04 -1.29049629e-04 -2.87648698e-04 -2.22930394e-05
  8.23666051e-05  8.60779910e-05  4.78847302e-04  4.95292261e-06
  1.15553150e-03  9.33863048e-05  1.43986210e-04  9.68973764e-05]
[-1.19729880e-02  5.17503649e-04 -3.26139671e-05  7.41107971e-04
  7.05077691e-05  1.44979829e-04 -3.02185799e-05 -9.41895705e-04
 -8.83377157e-04 -2.80361742e-01 -1.62121694e-04 -5.52939764e-06
 -1.41704251e-04 -4.18626314e-06 -2.19411319e-04 -4.26350416e-05
 -6.65339539e-05 -1.15320156e-03 -1.20447578e-04  1.34119327e-04
 -1.63189878e-04 -1.82809017e-03 -1.37791699e-02 -3.68577205e-02
 -8.54712744e-06 -2.12075247e-04 -3.17335757e-03 -3.74708470e-05
  4.76656642e-05  3.61445360e-04  9.65557992e-05  7.51737243e-05
 -1.82973128e-03  1.44880309e-04  5.88809431e-04  2.27100158e-04
  1.03386512e-04  3.44068772e-04 -4.70006053e-05 -7.97250323e-07
  3.56134478e-05 -6.99051365e-04 -1.20147122e-02 -7.32392000e-05
 -3.51101771e-05  4.93697826e-06 -2.57464442e-02 -1.14287013e-05
 -1.75116106e-03  3.62648025e-05  7.10906636e-04 -8.50833112e-06
  1.80092989e-04 -2.42625410e-05 -2.08841608e-04 -8.79601612e-06
  9.17051693e-07 -1.06594496e-04 -1.13977178e-04  6.45097634e-06
  1.18240016e-03  2.43615417e-04  3.84312123e-04  1.59245283e-05]
[-1.19225895e-02  5.13370964e-04 -3.25110923e-05  7.48442835e-04
  7.06777500e-05  1.45101323e-04 -2.97702245e-05 -9.24338645e-04
 -8.67299095e-04 -2.49237984e-01 -1.62456417e-04 -5.63199137e-06
 -1.41718512e-04 -4.09956692e-06 -2.05606397e-04 -4.28016101e-05
 -6.64964464e-05 -1.16150221e-03 -1.20629578e-04  1.34293892e-04
 -1.63464472e-04 -1.83979026e-03 -1.37760723e-02 -3.68642621e-02
 -8.16882857e-06 -2.13086401e-04 -3.19047505e-03 -3.73250732e-05
  4.77885696e-05  3.70970578e-04  9.67494998e-05  5.85930757e-05
 -1.75338972e-03  1.45029859e-04  5.56518440e-04  2.07620280e-04
  1.05241772e-04  3.35577206e-04 -4.65455705e-05 -2.52632617e-07
  3.46742017e-05 -7.22558994e-04 -1.21066403e-02 -7.34325804e-05
 -3.41208979e-05  4.86145564e-06 -2.57389899e-02 -1.16544215e-05
 -1.69177365e-03  3.74621377e-05  7.17789750e-04 -8.55947292e-06
  1.76913454e-04 -2.42791339e-05 -2.06511686e-04 -8.40383109e-06
  8.85649570e-07 -1.06782383e-04 -1.15013681e-04  6.36562208e-06
  1.19022047e-03  2.49763834e-04  3.94694100e-04  1.60096006e-05]
[ 2.94075590e-02  1.09975191e-03  5.13041086e-05  1.98457521e-04
 -5.07361574e-06 -5.31551377e-05  7.57402449e-05 -1.41478470e-03
 -5.02737821e-04 -4.97156829e-01  6.55722979e-05 -1.69405916e-06
  2.65747531e-05 -3.35576487e-06  1.32904528e-03  3.38210084e-05
 -3.78387222e-06 -1.87163823e-03 -2.09399768e-05 -3.34719261e-05
  7.56871013e-05 -1.52302533e-03  8.54978636e-02  5.84053881e-02
  1.03597886e-04 -1.67369447e-03 -4.03964967e-02 -3.25676374e-05
 -2.63554393e-05  5.07137971e-04 -4.46892918e-05 -1.45648397e-03
 -4.61003557e-03 -3.92131114e-05 -3.67338979e-03 -1.54594274e-03
  3.91362591e-05  7.35626032e-04  5.78704748e-05  2.14729630e-06
  1.19101947e-04 -1.87787623e-03  8.20428208e-02  2.96006292e-05
  6.21827348e-05  3.83287988e-06 -1.08874902e-01 -5.54027756e-05
 -3.35884816e-03 -1.36730232e-04  4.29408130e-04 -6.52025046e-05
  1.46425038e-04 -1.39702606e-04 -4.43235243e-04 -3.93723385e-05
  2.74841605e-05 -1.34217098e-05 -8.93754826e-04  5.43379338e-06
  8.18946690e-04  2.31981394e-05  7.22232857e-04  5.04869058e-05]
[-1.19104618e-02  5.13348612e-04 -3.25100700e-05  7.48499238e-04
  7.06741339e-05  1.45102022e-04 -2.97678162e-05 -9.24440799e-04
 -8.67296942e-04 -2.36163676e-01 -1.62455661e-04 -5.63096955e-06
 -1.41721757e-04 -4.09951645e-06 -2.05625736e-04 -4.28024214e-05
 -6.64953695e-05 -1.16151327e-03 -1.20630619e-04  1.34297035e-04
 -1.63463556e-04 -1.84012961e-03 -1.37696797e-02 -3.67504358e-02
 -8.16658212e-06 -2.13026564e-04 -3.18702683e-03 -3.73259863e-05
  4.77869689e-05  3.71093513e-04  9.67513188e-05  5.86010610e-05
 -1.75360369e-03  1.45031008e-04  5.56540734e-04  2.07642297e-04
  1.05227875e-04  3.35616991e-04 -4.65433550e-05 -2.57310148e-07
  3.46825764e-05 -7.22702709e-04 -1.21066514e-02 -7.34356072e-05
 -3.41245359e-05  4.86082126e-06 -2.57196482e-02 -1.16720148e-05
 -1.69217330e-03  3.74655137e-05  7.17884628e-04 -8.56112001e-06
  1.76925183e-04 -2.42891383e-05 -2.06525932e-04 -8.40246685e-06
  8.96752681e-07 -1.06782798e-04 -1.15078816e-04  6.36443838e-06
  1.19011465e-03  2.49850302e-04  3.94842238e-04  1.60267846e-05]
[-1.5339014e-01 -3.2991795e-03 -1.8483042e-04 -1.0247623e-02
  1.3354780e-05  3.0047380e-04 -2.0589572e-04 -2.1308193e-03
  2.0202235e-03  6.1335377e-02 -2.6502128e-04  1.6944561e-05
 -3.5691870e-04  3.7692571e-06 -1.3823607e-03 -1.8049643e-04
 -7.4287447e-05  7.2553768e-03 -1.4596478e-04  2.5415324e-04
 -3.1710922e-04  5.7919027e-04 -2.2443429e-01  1.7543334e-01
 -2.1650089e-04  1.4912497e-03 -1.1209043e-01  2.0971894e-04
  6.3693096e-06 -6.2567675e-03  2.4501904e-04  2.5204448e-03
 -5.2502560e-03  2.7758852e-04  2.6503308e-03  3.7124066e-03
 -2.1577178e-04  3.7807919e-04 -1.8030350e-04 -3.8900602e-05
 -2.0483213e-04  1.0038637e-02  3.9027745e-01 -2.1066610e-04
 -3.7593694e-04 -1.3614663e-06 -8.1619281e-01  5.9126364e-04
 -1.8658640e-03 -4.1470191e-04 -1.0160070e-02  2.1915793e-04
  7.6624978e-04  5.8586599e-04  4.9072364e-04 -1.5983751e-04
 -5.3345709e-04 -1.3770029e-04  4.2542338e-04 -2.4114738e-06
 -4.8132124e-04 -4.7404608e-03 -7.1694362e-03 -7.5858773e-04]
[-1.20483320e-02  5.14400424e-04 -3.24879875e-05  7.49769795e-04
  7.04537233e-05  1.44862192e-04 -2.97428196e-05 -9.26395704e-04
 -8.61743989e-04 -2.81454384e-01 -1.62091295e-04 -5.61991737e-06
 -1.41563738e-04 -4.11583551e-06 -2.07740100e-04 -4.27803789e-05
 -6.65026164e-05 -1.16420945e-03 -1.20548466e-04  1.34105823e-04
 -1.63100616e-04 -1.83709734e-03 -1.38531383e-02 -3.69818360e-02
 -8.06258777e-06 -2.09859907e-04 -3.17896320e-03 -3.74349329e-05
  4.75406741e-05  3.71242932e-04  9.65937725e-05  6.08709925e-05
 -1.75767508e-03  1.44809426e-04  5.69180003e-04  2.08568570e-04
  1.04859399e-04  3.36295721e-04 -4.65123085e-05 -3.32576292e-07
  3.58837242e-05 -7.27575796e-04 -1.20153008e-02 -7.33435736e-05
 -3.45152730e-05  4.87778198e-06 -2.56455801e-02 -1.21978665e-05
 -1.69885822e-03  3.67934117e-05  7.23737408e-04 -8.67639937e-06
  1.78741131e-04 -2.52956906e-05 -2.08380050e-04 -8.53638358e-06
  1.37878487e-06 -1.06715052e-04 -1.10228451e-04  6.38236679e-06
  1.18897110e-03  2.49225675e-04  3.95895127e-04  1.67261951e-05]
[-1.19391419e-02  5.13405597e-04 -3.24553803e-05  7.48479448e-04
  7.08520965e-05  1.45786747e-04 -2.96765829e-05 -9.24337131e-04
 -8.67355557e-04 -2.66754061e-01 -1.63029894e-04 -5.63188951e-06
 -1.42383418e-04 -4.09914037e-06 -2.05583608e-04 -4.27568521e-05
 -6.63962637e-05 -1.16150547e-03 -1.20849283e-04  1.34880393e-04
 -1.64165234e-04 -1.83986779e-03 -1.37521075e-02 -3.69422585e-02
 -8.18014087e-06 -2.13114472e-04 -3.19419662e-03 -3.72845643e-05
  4.79005321e-05  3.71100032e-04  9.71653135e-05  5.85806665e-05
 -1.75334199e-03  1.45761238e-04  5.56558720e-04  2.07606441e-04
  1.05236075e-04  3.35571473e-04 -4.64986551e-05 -2.50009634e-07
  3.46666347e-05 -7.22642464e-04 -1.20438309e-02 -7.35859139e-05
 -3.41710183e-05  4.86087220e-06 -2.57194415e-02 -1.16530900e-05
 -1.69172511e-03  3.74673036e-05  7.17872055e-04 -8.49857679e-06
  1.76955713e-04 -2.42767237e-05 -2.06529046e-04 -8.40324537e-06
  8.74759280e-07 -1.06923857e-04 -1.15115035e-04  6.36422919e-06
  1.19057426e-03  2.49894743e-04  3.94834497e-04  1.60161871e-05]
[-3.49672139e-01  7.44289299e-03 -2.02940151e-04  1.07721882e-02
  9.29087400e-05  4.29051579e-04 -1.89701328e-04 -5.34468470e-03
 -8.34017154e-03  1.23698004e-01 -4.99901536e-04  3.33044554e-05
 -3.29169940e-04 -1.17423278e-05 -6.32600422e-05 -2.12080326e-04
 -1.61040225e-04 -9.10858251e-03 -2.15228385e-04  3.90088477e-04
 -5.07577905e-04  3.68950958e-03 -4.69202310e-01 -6.76352978e-01
 -1.38940028e-04 -5.09269815e-03  1.05987966e-01 -5.57443018e-05
  9.25157947e-05  4.61216364e-03  3.42696323e-04 -4.56687296e-04
 -1.44387037e-02  4.20085737e-04 -1.24837353e-03  1.03330228e-03
 -2.87546951e-04  2.34030071e-03 -1.81935800e-04 -1.34818096e-04
 -2.31307669e-04 -7.43546244e-03  1.42536834e-01 -2.82527617e-04
  1.54938083e-04 -1.82612052e-06  2.41916016e-01 -2.42324881e-04
 -1.21160652e-02  6.74325507e-04  8.24338943e-03  1.67998314e-06
 -7.42035161e-04 -6.01183092e-05  2.32092338e-04  1.50396198e-04
  1.69960025e-04 -2.11200371e-04 -1.35509716e-03 -4.49858180e-06
 -2.14670971e-03  3.63135897e-03  4.68729855e-03  2.58822954e-04]
[-1.20046381e-02  5.12538070e-04 -3.24118300e-05  7.49277009e-04
  7.06335486e-05  1.44960621e-04 -2.96800554e-05 -9.25074215e-04
 -8.65817652e-04 -2.83476204e-01 -1.62339289e-04 -5.62561354e-06
