layers 12
layer 0 Dense
15 64
[-3.5813150e-01  1.9172987e-01 -4.1855094e-01  4.6440862e-02
  3.3449227e-01 -1.9980888e-01  1.5211654e-01  2.9006532e-01
 -1.7913581e-01  7.8609504e-02 -2.3754980e-02  1.4938560e-01
 -4.7991860e-01  3.4831604e-01  2.3506206e-01  3.7014079e-01
  3.8266876e-01 -2.6888448e-01 -3.2357216e-01 -5.6751138e-03
 -1.8732859e-01  3.7622235e-03  1.0384090e+00 -1.1118690e-01
  3.1623125e-01  2.8705826e-01 -3.8142866e-01 -1.6568708e-01
 -4.5712000e-01  1.0434565e-02  2.5094025e-02  2.5584094e-02
 -2.7492800e-01  1.7749098e-01 -8.4990209e-01 -2.9126978e-01
 -4.1283181e-01  4.3870695e-02 -1.5166792e-01 -3.0114534e-01
 -2.2443822e-01  3.4794828e-01  2.3263389e-01 -3.3504218e-01
 -3.3637804e-01  8.1422133e-03 -4.5701709e-01  2.9960051e-01
  7.4447254e-03  8.6109444e-02 -2.1136440e-01 -2.0578644e-01
 -6.2578246e-03  1.9644447e-01  4.6523416e-01  3.0633649e-01
  2.1466170e-01 -2.6392600e-01  1.4646514e-01 -1.9727007e-01
  4.9099034e-01  1.9395871e-01 -1.4846030e-01 -2.5745816e-04]
[ 0.3854319  -0.1958193   0.43083614 -0.03899975 -0.42337927  0.293317
 -0.12368589 -0.37859398  0.15898643 -0.07216587  0.00346109 -0.12561108
  0.4046523  -0.32254505 -0.20086351 -0.5002407  -0.42144564  0.30695763
  0.30290765  0.05004998  0.22040708  0.0630919  -1.0099503   0.07466609
 -0.31631866 -0.30338743  0.26868096  0.1958755   0.57650054  0.06072374
 -0.00984157  0.03953917  0.24290332 -0.18602139  0.778681    0.23930895
  0.3488647   0.02554924  0.17529184  0.46822065  0.28223482 -0.37777284
 -0.2386033   0.32739237  0.3396962   0.01855885  0.43562698 -0.23845282
 -0.00709208 -0.18541668  0.10283727  0.19210008  0.05570258 -0.14399636
 -0.4644996  -0.3406373  -0.15233333  0.29930544 -0.19349836  0.13605665
 -0.40623546 -0.23884828  0.07004248 -0.01989434]
[ 9.20855068e-03 -1.93058193e-01  1.97499424e-01 -1.51007876e-01
 -7.76652247e-03 -1.97939560e-01 -1.67794198e-01 -1.16173606e-02
 -1.81642603e-02  1.84740615e-03  8.94243276e-05 -8.86166992e-04
 -7.20717981e-02  2.74752676e-01 -4.56388742e-02 -1.61802266e-02
 -1.38025135e-01  7.57948542e-03  1.66602097e-02  1.43811986e-01
  2.63166964e-01 -9.51262489e-02 -2.02499136e-01 -1.52543113e-01
  4.36185971e-02 -5.01728915e-02  3.15840930e-01 -9.99545753e-02
 -1.54938176e-01  8.30159411e-02  1.34658697e-03 -4.65967767e-02
 -1.15001500e-01 -6.68424606e-01 -2.21013561e-01  2.63676614e-01
 -1.80333689e-01  4.19229537e-01 -2.03166604e-01  4.16457318e-02
  2.29554191e-01  2.72991434e-02 -2.52748519e-01  3.79336178e-02
  1.07976295e-01  2.57556401e-02 -1.46215692e-01  4.39258255e-02
 -5.04794300e-01 -4.65390496e-02  2.50418097e-01  4.71458567e-04
  3.07245582e-01  4.22928452e-01  3.91592622e-01  1.67101756e-01
  3.64866376e-01 -3.01553428e-01  4.13367093e-01 -1.29283415e-02
  2.67502945e-02  9.87770408e-02  9.14022252e-02  5.78673840e-01]
[-0.0926244   0.07175619  0.02465698  0.00232346  0.01536303 -0.0067464
  0.00136406 -0.01271872  0.01631499 -0.02040082  0.11724667  0.09256289
 -0.03671007  0.0548635   0.01075829 -0.05922539  0.00357862  0.05001427
  0.08120087 -0.08460616  0.0173086   0.00393995 -0.0145738  -0.00163156
  0.00264629  0.06225624  0.0448825   0.05532596 -0.0311453   0.00411913
 -0.16937497  0.02101224 -0.0745777   0.04429987 -0.00743324  0.03712459
 -0.02093186 -0.01717601 -0.02824605 -0.01354231  0.03439688 -0.11584254
  0.04481285 -0.11817993  0.00379868 -0.13012816  0.07585126  0.00932675
 -0.11667281  0.01258295  0.02297783  0.07678416  0.07170837  0.00727409
  0.06779117  0.00373195  0.03254057  0.1106625  -0.00360862  0.10020152
  0.00693779  0.08666182  0.18702151 -0.11493742]
[ 0.059609   -0.05383248  0.01566377 -0.01969719  0.03553616  0.08922184
 -0.1792244   0.1048021  -0.03900202  0.00041494 -0.06061278 -0.05432091
  0.12547213  0.01786096  0.11723767  0.03208355  0.02797826  0.03536446
 -0.131376   -0.06066569 -0.01156168 -0.12117394 -0.07433709 -0.00557601
 -0.04074243  0.03569983 -0.01628531 -0.07883912 -0.01409304 -0.15698871
  0.02963653 -0.01661215  0.02988109 -0.00957359  0.03985834 -0.03547802
  0.01559076  0.02600336 -0.00785325 -0.00845846  0.02246164  0.07830939
 -0.12104377 -0.01687525  0.05596024  0.02485064  0.03898298  0.0297977
 -0.23304358  0.00414398 -0.07848411 -0.00381422  0.0489675  -0.04242921
  0.02793698 -0.09647741  0.04118321 -0.05573438 -0.04914305 -0.04778585
 -0.07462745 -0.03460435 -0.06077196 -0.04321134]
[-0.01275783  0.01050335  0.08606657 -0.22392249 -0.09741645  0.00396219
  0.00991107  0.03549246  0.01755807 -0.02740814  0.07855368  0.03021858
  0.16591048  0.05494565  0.21495196 -0.03570556  0.1047814  -0.00433767
  0.10470397 -0.08102535  0.08044418  0.01927379 -0.02908721  0.05441456
 -0.01046568  0.08907001  0.05148194  0.12962449 -0.17208944  0.00078078
  0.16649276  0.01483305 -0.0118522  -0.00154327  0.06238527  0.05985015
 -0.01680109  0.05228123  0.01461627 -0.08132157 -0.00252812  0.08764356
  0.00024819 -0.04589207 -0.13128603 -0.13147809  0.05818139 -0.04070753
 -0.09029858  0.01473064 -0.24223977  0.12170228  0.05446022 -0.05161297
  0.0333567  -0.04508666  0.07539336  0.06665923 -0.04135858  0.01208653
 -0.08896369 -0.02526524  0.0525979  -0.03722761]
[ 0.07039058 -0.02859099 -0.03484267  0.24363089  0.0731601  -0.01031508
 -0.12376589 -0.03870633 -0.00481859  0.29258183 -0.10547506  0.00995301
  0.07771517  0.0230227   0.09236328  0.11949019  0.09502111  0.19430129
  0.00225045  0.22892772  0.01880664  0.4584666   0.07047482 -0.10819615
  0.02628965 -0.00688667 -0.00466942 -0.03470231 -0.07215871  0.03072147
 -0.30556998  0.02700267 -0.11398904 -0.01192839  0.05244468 -0.03760818
  0.17870903 -0.01990786  0.10673467 -0.00378336  0.0558246  -0.08140156
 -0.08304279 -0.03354948  0.02166506  0.01689794  0.0649735   0.07342021
 -0.00588974 -0.00896789  0.01937563 -0.00826464  0.02496649 -0.01363395
  0.00646499 -0.07652285  0.05103507 -0.03433874  0.01290828 -0.00874489
  0.14670853  0.0125859   0.02781019 -0.0466325 ]
[ 1.13404699e-01  3.54104838e-03  9.47548077e-03 -7.79205337e-02
  6.56118840e-02 -4.22248989e-02 -7.26606697e-02 -3.23698878e-01
 -2.56761983e-02  6.98721707e-02 -2.39497751e-01 -4.00092788e-02
  1.00828847e-02 -6.16558492e-02 -2.31018243e-03  7.67299235e-02
 -4.84968424e-02  2.47181915e-02 -2.05498248e-01 -1.63271055e-02
 -2.56431266e-03 -1.66125536e-01  2.11335689e-01 -1.41671598e-01
 -1.01561353e-01 -1.07174434e-01 -6.55968562e-02 -1.08336627e-01
  1.07286014e-01 -9.55747347e-03  7.17025459e-01 -1.01234257e-01
  1.93368629e-01 -1.11939587e-01  1.42963622e-02 -1.11968338e-01
  6.70834333e-02 -3.36208642e-01 -3.91086712e-02 -1.92306302e-02
  1.55515177e-02  1.73663974e-01 -3.71489162e-03  2.94353198e-02
 -1.07305169e-01  2.37026587e-01 -1.09352246e-02 -8.73832777e-02
  3.29755902e-01 -1.11769419e-02  7.78937563e-02 -5.34796491e-02
 -7.77218211e-03  5.67850173e-02 -9.88623202e-02  5.22504933e-02
 -6.11369461e-02 -1.82248801e-01 -2.67523574e-04 -6.20803200e-02
 -9.64200646e-02 -2.13798136e-02 -2.56578643e-02  5.64948246e-02]
[ 7.01215441e-34 -3.06090647e-33 -1.95530555e-33  7.91204309e-34
 -4.28150858e-33  5.76484764e-33 -5.09991714e-33 -2.71568233e-33
 -4.21090435e-33  2.46044376e-34 -2.06884287e-33 -9.85266304e-35
 -4.40096783e-33 -9.63955694e-34  3.03292897e-33 -3.64123224e-33
 -4.15157936e-33  2.68608394e-33 -4.29562370e-33 -1.07352903e-33
 -2.48556885e-33  2.09968472e-33 -3.93030173e-33  2.99868976e-34
 -4.26654785e-33 -3.17652075e-33  5.09158068e-33 -2.65130326e-33
  8.13825779e-34  2.44215582e-33  5.47404797e-33  1.09028717e-33
  3.63694095e-33 -5.13367770e-34 -3.80321141e-34  3.82166438e-34
  5.23664072e-33  1.16842394e-33  2.61635655e-34 -1.33815338e-33
 -1.55038778e-33 -2.05135372e-33 -1.01827712e-33  5.05438473e-33
 -1.34031023e-33 -1.06237139e-34 -3.54975490e-33  3.30099385e-33
  4.70801944e-33  4.46261369e-33 -1.11645515e-33 -3.10656616e-34
 -2.02318227e-33  8.20058655e-34 -2.78690352e-33 -6.94401615e-34
 -5.72675795e-33  1.14775057e-33 -3.77962576e-33 -6.56161589e-34
 -2.99362375e-33  2.86534683e-33  2.25087332e-33  3.88888355e-33]
[-0.01645456 -0.05144493 -0.0456308  -0.17364326  0.00268746  0.00976175
 -0.04557553 -0.11645349  0.0256044   0.00404994  0.04811494  0.05660245
 -0.09237525 -0.10150304 -0.05551486 -0.05303068  0.02542167 -0.03570811
 -0.00178606  0.08037688 -0.19954991  0.1003274  -0.07393052 -0.21684504
  0.01798082 -0.03026064 -0.04709956  0.09857302 -0.00481899 -0.18758611
 -0.01010923  0.02475521  0.06834481 -0.15058668 -0.00835403  0.04167549
 -0.0171731   0.22102235  0.02543283 -0.05910924 -0.00829051 -0.03968472
 -0.20371884 -0.0337388  -0.0558331  -0.0548704  -0.06785411 -0.00081625
 -0.44873056  0.00799898  0.01197623 -0.04946916  0.072871   -0.09171873
 -0.0621606  -0.16355033 -0.15046528  0.04649435 -0.08567788  0.07092915
  0.09906636  0.00240859  0.01669899 -0.01223502]
[-0.20185934  0.4140264  -0.24436575  0.05418737  0.1988991   0.188076
  0.2730642   0.18249926  0.4334458  -0.09822219  0.79245317  0.52772003
  0.20855583  0.17588085 -0.07155073  0.08745268  0.2805427   0.08845501
  0.20563538 -0.20480557  0.05717867 -0.0151867   0.18485014  0.03548441
 -0.33490533  0.12255269  0.18445688  0.01341238  0.10548688  0.19604267
 -0.10829081  0.51337665 -0.07488736  0.08309378  0.2767734   0.14302887
 -0.00450038  0.16369306 -0.11395773  0.33836427  0.08414279 -0.34832785
 -0.04977212 -0.32931203 -0.23192127 -0.01919455  0.24582793 -0.01245151
 -0.27869964  0.42304265  0.2701135   0.0837597   0.24699484  0.26327038
  0.28621137  0.21581566 -0.00698475  0.29899362  0.19188705  0.5572193
 -0.32129633  0.4657398  -0.21191451 -0.364422  ]
[-2.60809034e-01  6.59972653e-02 -1.61013663e-01 -4.80953455e-01
 -1.67386711e-01 -3.23728547e-02  2.07981765e-02  1.45244047e-01
  1.13894619e-01 -3.44584346e-01  1.70798600e-01  1.48746327e-01
 -7.16115385e-02  3.69914621e-02  2.73168206e-01 -1.00830473e-01
 -1.29492894e-01 -2.49714047e-01  8.29693973e-02 -4.13220376e-01
  1.13535784e-02  7.23938867e-02 -2.11193368e-01  2.21785903e-01
 -1.14815775e-02  7.92940706e-02  3.00522763e-02  5.50701506e-02
 -1.76633522e-01  2.40807027e-01  2.32442260e-01 -1.81669369e-02
  9.47905406e-02  2.56939698e-02 -8.64269510e-02  6.65292665e-02
 -3.18317965e-04 -2.36507989e-02 -1.95340350e-01  1.23977534e-01
  1.13607004e-01 -1.40232514e-05  1.04585432e-01  1.18481226e-01
 -2.03020155e-01  1.47521973e-01 -1.26679227e-01 -8.79555494e-02
 -2.29761675e-02  3.02449204e-02  6.41539246e-02 -1.24490455e-01
 -5.97873377e-03 -1.39057264e-03  8.80452469e-02  2.01342329e-01
 -3.89845595e-02  1.73962697e-01 -4.18665400e-03  2.05754310e-01
 -5.70092082e-01  8.28241780e-02 -1.45321488e-01  9.26676616e-02]
[ 0.11862242 -0.05157672  0.00606655  0.02517703 -0.05159738  0.06086224
  0.190325    0.30986655 -0.18076268 -0.08911171 -0.01388292 -0.20624632
  0.08097638 -0.06820222 -0.06362543 -0.064267   -0.10993768 -0.14020714
  0.03636604  0.05496288  0.04979955  0.09016771 -0.05663553  0.20553043
  0.11182433 -0.0232622  -0.01293135  0.09785321  0.0451393   0.15231672
  0.16363777 -0.03797051  0.01017515  0.10446598 -0.06893392  0.08650256
 -0.05430173  0.23955312  0.09559029  0.03182957 -0.03984626 -0.02747227
 -0.08387462 -0.09793621  0.0983862  -0.32404038 -0.13603982  0.04542689
 -0.13875197 -0.12433133 -0.09943812  0.02273821 -0.06687003  0.01437534
 -0.02221613  0.12967674 -0.0351093  -0.06248724 -0.02670489 -0.21829529
  0.04218725 -0.10511243  0.08798242 -0.01088822]
[ 0.01369198  0.00384805  0.10818984 -0.02061051  0.10273163 -0.11940733
 -0.02748488 -0.002962   -0.0499649   0.24389845  0.04148997 -0.03145632
  0.04234361  0.05326775 -0.02543707 -0.02831765 -0.0313771  -0.14065968
 -0.02557105  0.13968337 -0.01616065 -0.03648406  0.12689279 -0.13827081
  0.02922627 -0.02407984  0.02581597 -0.06112577 -0.05236847 -0.08391986
  0.04381563  0.0598548   0.02301056 -0.02890901  0.10310661  0.00368051
  0.09348065  0.00947024 -0.03405898 -0.04939774 -0.09190369 -0.01337801
  0.00166982 -0.01542216  0.04372025  0.00173284  0.02517802 -0.04626464
 -0.01573644  0.02523318 -0.01540455 -0.00196897  0.04445332  0.01785355
 -0.05007336 -0.10784255  0.02038088 -0.01055516 -0.0160804  -0.02419357
  0.02425035  0.01051896  0.24151835  0.01499172]
[ 0.01905117 -0.0066293  -0.06696413  0.00963562 -0.11702899  0.10274236
 -0.08395857  0.07957907 -0.02155972 -0.29420772  0.01404187  0.04268689
  0.05181318  0.03727029  0.17060702 -0.01288404  0.07325377  0.09245232
  0.03652452 -0.1666561  -0.04053823 -0.02227343 -0.12557122  0.10397545
 -0.04431679  0.03665292  0.03652391  0.02636411 -0.01586739  0.03715567
  0.02625847  0.02960751 -0.00804793 -0.03286023 -0.08822668  0.0428421
 -0.10233725  0.02538059 -0.08849292  0.00303812  0.07347243  0.0273658
  0.00901866 -0.0076175  -0.12449955  0.01000835 -0.01614518  0.04641324
 -0.03693589  0.00179721 -0.03942028 -0.00270828 -0.0009151   0.01653178
  0.01528516  0.06933397  0.03131409  0.01275029 -0.03805473  0.08984329
 -0.1119777   0.01819891 -0.23402423  0.01049776]
[ 0.04865106  0.03856776  0.05274091  0.03800643  0.07864717  0.08975212
  0.15638562  0.11691418  0.20616776  0.16803479 -0.08003397 -0.0404831
  0.15589862  0.10946856 -0.0190767   0.048561    0.11664687  0.07106522
  0.04429464  0.2823465   0.16613938  0.14748326  0.08843808  0.20411646
  0.12686996  0.0378339   0.23145008  0.08749586  0.08359692  0.26794067
  0.24433549  0.26519382  0.04686952  0.19526938  0.04690039  0.08595044
  0.06267448  0.00476732  0.11622799  0.13489799  0.02578675 -0.02028483
  0.00984468  0.12743963  0.11094627  0.25024682  0.10572185  0.06385048
  0.01784581  0.12900157  0.05969609  0.06782757  0.15937147  0.07792807
  0.08375555  0.10811588  0.13280691 -0.04099947  0.12448238  0.07135958
  0.10616981  0.06303675 -0.09879966  0.30918184]
layer 1 Activation
relu
layer 2 Dense
64 64
[ 0.06386169  0.00262179 -0.00755784  0.09284544 -0.08370093 -0.05903359
 -0.04502986  0.05582545 -0.0103673  -0.00277901 -0.06144661 -0.04155882
  0.04795504  0.00621279 -0.020171   -0.03500766 -0.07139106 -0.04512888
 -0.0009181  -0.05268934  0.06320576 -0.00093892 -0.00888151 -0.03461204
 -0.04158144  0.09970187 -0.06349178 -0.06788604 -0.06332987 -0.03180495
  0.04422105 -0.06130507  0.03940829  0.05367125 -0.05049214  0.0233796
  0.06406833 -0.06301834 -0.02551735 -0.02045386 -0.01587404  0.04225157
 -0.05172471 -0.00898916 -0.32078746  0.0312438  -0.01298313  0.02379651
  0.01368967 -0.04565992  0.07146876 -0.04073001 -0.11851645 -0.07974612
 -0.01093275 -0.13539033  0.10221105 -0.0403741  -0.02086967 -0.02785027
 -0.05434393 -0.08343628  0.06550331 -0.06510196]
[-0.08319831  0.08225692 -0.05826977  0.01647189 -0.05718499 -0.09947471
  0.10799704  0.05897629 -0.01094351 -0.04186801 -0.03592165  0.09491111
  0.02629174 -0.02903837 -0.0739608  -0.09179794 -0.11896858  0.00423833
 -0.08422324 -0.09032174  0.05596926  0.07974079 -0.05770463 -0.04693085
 -0.04109225 -0.06613161 -0.06111592 -0.09468799 -0.05107116 -0.06007563
 -0.03878375 -0.10060549  0.10717829 -0.00631797  0.06665079 -0.00122606
 -0.11019084 -0.06287939 -0.04054962 -0.09707975  0.04967312  0.03971259
 -0.04256919 -0.011779   -0.27741635 -0.01717568 -0.09169388 -0.0555746
 -0.00234228 -0.05545849  0.06184958 -0.05486074 -0.16748388  0.10705163
  0.12112401 -0.0087656  -0.03613361 -0.05305007 -0.07270308  0.00078935
 -0.04031179  0.01294804  0.0456537   0.06570996]
[ 0.05744667  0.03950912  0.047062    0.06485175 -0.02082839 -0.08186028
  0.11365803  0.04196991 -0.04103781 -0.02497273 -0.06331395  0.06136309
  0.04898208  0.03263865  0.01739062  0.08873153  0.11149867  0.14529024
 -0.07843579 -0.08024951 -0.03728884  0.01611795 -0.09673238 -0.08485172
 -0.0904147   0.05494726 -0.02845712 -0.00792705 -0.11913881 -0.04027087
  0.05784295 -0.05259427  0.03187782  0.03106224 -0.05111551 -0.0769425
 -0.03398841 -0.09548831 -0.08385984 -0.04672486  0.03029085  0.10110367
 -0.04018493 -0.01833228 -0.1644652   0.01510255 -0.02117573 -0.01478169
 -0.030889   -0.00858846  0.01109329 -0.0519698   0.2612135   0.00970723
  0.05528649 -0.03506272  0.00833319 -0.05734951 -0.0738631  -0.09444034
 -0.0462066  -0.00969643  0.04811952  0.03686688]
[ 0.10455039  0.03690203  0.00319942  0.0745811   0.07110042 -0.12957273
  0.02482228 -0.03665758 -0.02668478 -0.10879064 -0.02993158  0.03588731
  0.14571664 -0.05182941 -0.16360186 -0.01173661  0.1072458   0.15728892
 -0.07947068 -0.02724665  0.06647823  0.03224266 -0.08469122 -0.04515979
 -0.05946933  0.10158093  0.00780505  0.03478482 -0.05312906 -0.06599144
  0.0313556  -0.06442639  0.03393427  0.07093585  0.06890778  0.05320617
 -0.00312585 -0.03329093 -0.05188097 -0.04524194  0.08656652 -0.0118179
 -0.02740002 -0.3876453  -0.18028189  0.10806175  0.09074442  0.12713729
  0.12043033  0.01682229  0.16549239 -0.01738947  0.13814746  0.05729854
  0.03731085 -0.01898827  0.04641692 -0.05927869 -0.01794531 -0.05400726
 -0.00902084  0.01903324  0.03929618  0.06136838]
[ 0.09307633 -0.00547267 -0.0407517   0.03709658  0.01499345 -0.01766376
  0.05506827 -0.07697603 -0.07694729 -0.05350362 -0.03373969  0.05814142
 -0.108046    0.0412946  -0.0495804  -0.01759882 -0.01283251 -0.13569276
  0.03101715  0.0160517   0.08661518  0.06716214 -0.03532417 -0.04131781
 -0.04039315  0.09271125 -0.03484808  0.05057991 -0.01715793 -0.06064552
  0.11649241  0.00790337  0.10157772  0.09216834  0.12359513  0.08616053
  0.08733681 -0.01831735 -0.04430174  0.03306093  0.09699374  0.03838998
 -0.02652208  0.01767652  0.18597284 -0.04280609 -0.02665508  0.07481337
  0.12587407 -0.01209364  0.05612925 -0.02952993 -0.0588213   0.02617132
  0.05133446  0.04078091  0.10803278 -0.043183   -0.00811188 -0.06790625
 -0.06315411 -0.00757558  0.0890675   0.07563158]
[ 0.12728895  0.07126756 -0.07886858  0.06373045 -0.05710068 -0.04029082
 -0.04633529  0.05601212 -0.02909068 -0.1076104  -0.08160449 -0.00596092
 -0.03550952 -0.10129674 -0.01388699 -0.05624535  0.03781562  0.02601442
 -0.08178215 -0.05060894 -0.01500271  0.03894514 -0.06501257 -0.04923927
 -0.03536413  0.05288329  0.01131272 -0.08973905 -0.04098223 -0.06622201
  0.02888398 -0.00435508 -0.02311867  0.11785709 -0.06094829 -0.01954477
 -0.03066367 -0.04853467 -0.046006   -0.0875335  -0.01953401 -0.12658252
 -0.05822755  0.05186581 -0.28603622 -0.01615878 -0.03929346  0.1754782
  0.05147627 -0.03111657  0.11449027 -0.00099609  0.02849794 -0.0402031
  0.02829374  0.08038438  0.01958365 -0.06330829 -0.05522607 -0.06104917
 -0.02188958 -0.02455685  0.02415369  0.00779294]
[-0.08882394  0.07107466  0.05610492  0.0976325  -0.01940727 -0.0372786
  0.08884855 -0.08269903  0.05544944 -0.02264627  0.00273309  0.05632776
 -0.03649205  0.03862821 -0.11044046 -0.00363152  0.02002128 -0.2820795
 -0.10426924 -0.05974156  0.05709844  0.10935699 -0.02622532 -0.01102447
 -0.03983975  0.08229748 -0.02065318  0.00982566 -0.00851706 -0.02015012
  0.1104691  -0.03509231  0.09936742  0.09572016  0.07844308  0.08536477
 -0.06156209 -0.05465893 -0.01637776 -0.07182603  0.03793854  0.13668722
 -0.02114833 -0.09156149 -0.15568362 -0.01754336  0.02944833 -0.09058199
  0.1445396   0.02535583  0.12095324 -0.03686512 -0.03652131  0.07074238
  0.09602632 -0.00858758  0.08321071 -0.03356589 -0.04047539  0.0615968
  0.00894574  0.06226072  0.10385692  0.12201341]
[ 1.3344403e-01 -3.7312940e-02  3.1118879e-02 -7.6969070e-03
  2.3730407e-02  5.4132730e-02  5.7265885e-02 -1.8508810e-01
  1.7546799e-02  6.7188539e-02  1.7410671e-04  7.3971696e-02
 -3.9904600e-04  9.9510431e-02 -3.2357924e-02  3.0901914e-02
  4.5147534e-02 -1.0932312e-01 -1.0112003e-02 -2.1871243e-01
  1.3061489e-02  6.9090053e-02 -1.4624611e-02  5.6773503e-03
 -3.5318181e-02 -4.7869314e-03  3.6185086e-02 -1.3775171e-03
 -3.0881822e-02  3.9397731e-02  1.2971342e-02 -1.3138613e-03
  9.1267958e-02  1.8549111e-02  9.3868829e-02  1.2134172e-01
 -4.2043027e-02  1.9704098e-02 -6.2424736e-03 -3.1367183e-02
  1.6450565e-01 -9.7000198e-03  2.0245831e-02  2.3656288e-01
 -1.2222772e-02 -4.0247166e-03  6.9404446e-02  1.2903655e-01
  6.0865052e-02  2.9563647e-02 -5.1287681e-02  7.9900969e-04
 -1.0419676e-01  1.0139432e-01  1.9103529e-02  1.4269924e-01
 -1.6631542e-03  1.3703565e-02 -2.9380552e-03  8.9877984e-03
 -3.8703366e-03  6.9424503e-02  4.8893061e-02  3.9439742e-02]
[-5.33276722e-02  7.89052024e-02 -5.02361879e-02 -1.31976244e-03
 -4.51030023e-02 -5.63274436e-02 -8.05407837e-02  2.31607869e-01
  8.57876334e-03 -5.20462729e-02 -8.36473033e-02 -3.33620831e-02
  3.74880200e-03 -1.08304061e-01 -5.29798530e-02 -8.59036893e-02
 -1.63749039e-01  2.68464208e-01 -4.28499691e-02  1.11254990e-01
 -6.20633997e-02 -1.05933808e-01 -2.24382780e-03 -3.77193093e-02
  4.08269241e-02 -2.57418621e-02 -5.21051660e-02 -2.20831241e-02
 -2.86089424e-02 -4.26036753e-02  4.92600091e-02 -1.11240549e-02
 -1.22483410e-02  9.58052743e-03  1.56331598e-03 -3.00941542e-02
 -3.84342186e-02 -5.89937977e-02 -2.85048061e-03 -1.03249356e-01
 -5.76016605e-02 -3.93366516e-02 -2.67747287e-02 -8.53119344e-02
 -5.76602936e-01 -1.33473441e-01 -8.48049447e-02 -1.95123591e-02
  6.59108758e-02 -5.81440441e-02 -1.21625112e-02  1.87670114e-04
 -2.36430824e-01 -2.72179842e-02  7.08620697e-02 -5.91692328e-02
 -8.87694117e-03 -5.56168668e-02 -3.87967415e-02 -3.17345187e-02
 -4.34859134e-02 -2.49328800e-02 -4.67870664e-03  2.49934420e-02]
[ 0.24752156 -0.04265849 -0.07550919 -0.04013179  0.06473581  0.00206011
 -0.11510953 -0.05768154  0.06534299 -0.1148504  -0.05934135 -0.03148209
 -0.13458318 -0.13650367 -0.08696111 -0.10783065 -0.01028984  0.13852334
 -0.20065756  0.10862099 -0.03819131  0.01242017 -0.1008735  -0.10599148
 -0.066853   -0.01870538 -0.00468424 -0.02977902 -0.01488936 -0.08609301
 -0.05073958  0.12113753 -0.07560254  0.00063768 -0.013436   -0.05772342
  0.12746248  0.04043083 -0.10123233 -0.01746397 -0.01690868 -0.19490643
 -0.07263664  0.05379749  0.03670041  0.0251825  -0.03034911  0.28418097
 -0.0013951  -0.09807704 -0.03141724 -0.07137862 -0.06666765 -0.06973878
 -0.0382521   0.06935592 -0.09024765 -0.03611811  0.00267193  0.00335876
 -0.0478005   0.12504944 -0.05868265 -0.00380687]
[-0.13555196 -0.0538053  -0.26368162  0.03580989 -0.06500276 -0.13810351
  0.07373114  0.18283096 -0.0850926  -0.12689479 -0.05324601  0.11695252
  0.07838835 -0.06975787 -0.0035502  -0.19331622 -0.19362575 -0.42228982
  0.08739701 -0.01510086 -0.0710166  -0.00195417 -0.04042482 -0.04759818
 -0.03911855 -0.03668823 -0.07366473 -0.05661922 -0.07172799 -0.13064739
 -0.07411455 -0.14772075  0.02766313 -0.06958563  0.19538718  0.09782376
 -0.066006   -0.04968188 -0.05142463  0.01915773  0.09789859 -0.06329679
 -0.0498674  -0.09647009  0.01001377 -0.07624444 -0.06254915 -0.02614872
  0.09120133 -0.04082722 -0.01860989 -0.06577336 -0.7681791   0.06888691
  0.06679289  0.01309229 -0.04007189 -0.10312161 -0.06192929 -0.03596302
 -0.02397582 -0.10169014  0.12199151  0.1293635 ]
[-0.06286544 -0.00284915 -0.18229844 -0.01227362 -0.05787315 -0.09909933
  0.10582512  0.18328199 -0.04879246 -0.05405314 -0.02679158  0.01893971
 -0.01163262 -0.15293677 -0.00657002 -0.16852543 -0.18304873 -0.08027054
  0.00571332 -0.02572748 -0.02049787 -0.06024871 -0.01672303 -0.01387503
 -0.03031943 -0.05518375 -0.08598498 -0.16004129 -0.03847509 -0.0814971
 -0.01399881 -0.11762493  0.00736164  0.01158183  0.3209427   0.039927
 -0.10822292 -0.03092987 -0.04797283 -0.01477231  0.0712587  -0.11295587
 -0.034351    0.09525716  0.2208757  -0.06742868 -0.07900684  0.02056218
  0.04771434 -0.05541893 -0.089997   -0.09483107 -0.5587089   0.04163908
  0.03157588 -0.02446013 -0.06693199 -0.03373509 -0.03984376 -0.02985653
 -0.02364724 -0.06448483  0.01152294  0.13396108]
[ 0.06327187  0.05297989 -0.05015107  0.12635738 -0.06273871 -0.0497913
  0.06160225  0.01615184  0.00590979 -0.11639217 -0.0408189   0.02408296
 -0.10638659  0.12300307 -0.038885   -0.06193069 -0.02113841 -0.11226945
 -0.08107254  0.02469319  0.05901776  0.1100005  -0.05790007 -0.06173452
 -0.00475308  0.11572582 -0.06240223 -0.12230802  0.00536886 -0.0701027
  0.008414   -0.00866353  0.0806799   0.06958498 -0.00869509  0.02809594
  0.00597126 -0.08539058 -0.05643586 -0.09008682  0.05607358  0.03535867
 -0.05324274  0.08927979 -0.12753215 -0.0074532  -0.02834763  0.05226072
  0.10231042 -0.07064464  0.08793907 -0.00860015 -0.29602075 -0.02634658
  0.05231746 -0.01383107  0.06526812 -0.08746728 -0.07660209 -0.08927972
 -0.05599573  0.01635391  0.08139171 -0.02760007]
[ 0.02420824  0.07328428 -0.05450359 -0.0106018  -0.03697379 -0.02615851
  0.10513208 -0.08698249 -0.12373365 -0.0136389  -0.06324585  0.11648922
  0.02765558  0.04138425  0.06773415 -0.00562235  0.03249986  0.05448892
  0.03386895 -0.05720983 -0.04133659 -0.00409738 -0.04030944 -0.03919649
 -0.04945998  0.01953606 -0.0404364  -0.00255768 -0.05517903 -0.02181927
  0.00650202 -0.06134146  0.01278696  0.03263885  0.21962677  0.14559324
 -0.01432593 -0.00985479 -0.0563661   0.01234052  0.1173193  -0.00090874
 -0.04003669  0.09442081  0.26408887  0.00882748 -0.05702494  0.07776807
  0.03992284 -0.03932016  0.04566953 -0.04241218 -0.00525649  0.11799948
 -0.03122346  0.05513627  0.01865679 -0.03700022 -0.03405598 -0.07422376
 -0.07006665 -0.09670451 -0.0203513   0.03870657]
[ 0.16688135  0.01540599  0.03192923  0.01722928 -0.04125497 -0.03798995
  0.00142801  0.02102512 -0.00175036  0.01167947 -0.03236734  0.11267899
  0.08128133  0.01797451 -0.1150004   0.00716619 -0.06894106  0.00807231
 -0.11665808 -0.12294152  0.13302365  0.03881126 -0.06574351 -0.02434554
 -0.02112598  0.18180265 -0.03169239 -0.21005546 -0.05044358 -0.00686707
  0.07111176 -0.04905527  0.08372851  0.12417449  0.03620239 -0.00744604
 -0.20248684 -0.04824707 -0.03827586 -0.14312613  0.02439289  0.01564063
 -0.02596222 -0.18804611 -0.06411341  0.06437757 -0.04692218  0.01030463
  0.09469619 -0.04720893  0.05622186 -0.02341615  0.10801366 -0.03774292
  0.05959952 -0.01299484  0.11618338  0.00447871 -0.03229084 -0.04879116
 -0.04681061 -0.01137256  0.07706976  0.04728805]
[ 1.20391034e-01  1.32044807e-01 -1.04792975e-01  1.37470029e-02
 -1.32965893e-02  2.17148778e-03 -2.33618040e-02 -8.45306665e-02
  4.08226810e-02 -8.69721454e-03 -1.90726239e-02  2.13982351e-03
 -9.34096053e-02  9.65879858e-02  3.02174240e-02 -9.45704505e-02
 -7.42237195e-02  2.23688576e-02 -5.29092252e-02 -4.00674082e-02
  3.63536812e-02  3.76049429e-02  2.14351006e-04  1.51513601e-02
 -5.45144305e-02  6.62523732e-02 -4.30271849e-02 -1.05541937e-01
 -4.47692350e-02 -1.02465330e-02  1.60368569e-02 -6.06242381e-03
  6.81765378e-02  1.99702121e-02  2.98132151e-02  9.33323707e-03
 -4.88726981e-02 -2.71771401e-02 -4.68053780e-02 -4.80438955e-03
  2.63944026e-02  7.71323442e-02 -3.16014104e-02  8.01585168e-02
 -9.78413820e-02  9.84554440e-02 -3.99371907e-02  6.31339476e-02
  5.10951839e-02 -5.24888039e-02  1.13327570e-01 -6.61597699e-02
 -2.85634726e-01  8.40161741e-02 -1.22322869e-02  1.06084317e-01
  4.16700095e-02  1.64219104e-02 -5.09536266e-02  1.26676215e-02
 -2.87016928e-02  4.63643745e-02  4.78117578e-02 -7.93988407e-02]
[ 0.16934833 -0.00458952 -0.22397223  0.07953087 -0.00138009 -0.04957402
  0.01763207  0.03563479  0.04437561 -0.05575543 -0.02636791  0.03537129
 -0.13218813  0.01760977 -0.06644823 -0.14571626 -0.05147312 -0.1655064
 -0.08931457 -0.01009743 -0.02759305  0.06210992 -0.0637466  -0.02654277
 -0.07346749  0.0556985  -0.06076472 -0.13430658 -0.02787747 -0.09450573
  0.08229502 -0.02171729  0.03014773  0.0257717  -0.02836307  0.01483671
 -0.08488571  0.00951725 -0.08421237 -0.05636178  0.0438568   0.02812496
 -0.04419556 -0.03512062  0.29649264  0.02337795 -0.04328109  0.07404269
  0.08938107 -0.07581983  0.06641953 -0.13797    -0.55935     0.06525247
  0.05001709  0.06592397  0.05401029 -0.02878777 -0.01659687  0.0342681
 -0.04469743  0.07492284  0.10306828  0.02338675]
[ 0.06372777  0.01766575 -0.0468048   0.03090378 -0.04524001 -0.08568735
 -0.03739355  0.02714381 -0.04245949 -0.1373131  -0.0510588  -0.01404091
  0.03277637  0.01039296 -0.09467082 -0.01548761  0.05808168 -0.01263917
 -0.10001323 -0.01346463  0.01245282 -0.00202669 -0.10466657 -0.05688404
 -0.06125054  0.04591563 -0.0127472  -0.01863471 -0.04887487 -0.05582212
  0.06491423 -0.0844456  -0.02410079  0.10943693  0.06859913 -0.00100769
 -0.01047551 -0.02775707 -0.05479534 -0.05594225  0.06459701 -0.00327535
 -0.05981037 -0.20311357 -0.00470439  0.03582411 -0.00022368  0.09477251
  0.10769611 -0.05579513  0.12233835 -0.00349166 -0.04112054 -0.00121165
  0.13382769  0.0682142   0.03223126 -0.04233297 -0.03469603 -0.068895
 -0.05295513  0.01330507  0.06194805  0.06439249]
[ 5.0869551e-03  3.3805710e-03 -9.1860719e-02  3.3395976e-02
  2.0107670e-02 -1.3133291e-02 -1.3692933e-02  2.2089289e-01
 -2.1572402e-04 -3.2198891e-02 -4.6246700e-02  9.8615728e-02
  4.3885171e-02  4.3526318e-02 -7.9307206e-02 -2.4622254e-02
  1.1359344e-02 -1.1002613e-02 -4.0496383e-02 -1.0260623e-02
 -2.2892883e-02 -5.4327022e-02 -5.6049477e-02 -2.4089905e-02
 -2.5695927e-02  7.7390611e-02 -9.3968222e-03 -4.0221050e-02
 -5.1661186e-02 -4.5106109e-02  5.4131526e-02 -1.5738383e-02
 -1.8774260e-02 -2.2919938e-02  6.7446139e-03 -1.6176753e-02
  1.8149641e-03 -3.0022373e-02 -5.0798506e-02 -2.3205472e-02
 -3.1589441e-02  1.1179794e-02 -4.1432802e-02 -7.2718184e-03
 -2.8809574e-01 -6.1769966e-02 -4.7580559e-02  1.1514003e-02
 -2.5705792e-02 -6.7857794e-02  1.1706003e-03 -7.4179865e-02
 -9.2284381e-02  3.8278513e-02 -7.9297528e-02  2.2220073e-02
  2.1171317e-02 -6.1774600e-02 -1.1696195e-02 -3.8736410e-02
 -4.1790344e-02 -2.9907541e-02  1.6538402e-04  6.6840611e-02]
[ 0.26657948 -0.14537255 -0.03111161  0.01403116  0.08720513  0.08155838
 -0.22772229 -0.03452138 -0.02233476 -0.01636862 -0.03875287 -0.05601042
 -0.00042806 -0.1635607  -0.01083484 -0.00643652  0.04171379 -0.03369753
 -0.09118772  0.06303351 -0.0327711   0.0275638  -0.07562207 -0.0439938
 -0.00312593 -0.01230288  0.02218471 -0.00265421  0.03255982 -0.04085435
  0.03232444  0.0918834   0.01224293  0.07275515  0.08859603 -0.0273646
  0.04424847 -0.01955383 -0.04964289 -0.05826184  0.0521772  -0.20504421
 -0.0069762  -0.23586565 -0.20618583  0.02728707 -0.03259106  0.27257344
  0.14758767 -0.03893696 -0.01193389 -0.01946389  0.02341183 -0.08797008
  0.03640452  0.08530091 -0.03573794 -0.01582976 -0.0098123  -0.03745833
 -0.0409417   0.03211907  0.05019929  0.01517897]
[-0.00077024  0.07468495 -0.04590035  0.08267874 -0.03404277 -0.00632736
  0.17316326 -0.09709377 -0.02272795  0.03572275 -0.03297363  0.04480015
  0.10223439  0.10366494 -0.02821577 -0.02054431  0.03627124  0.10507964
  0.0030102  -0.01015549  0.02075629  0.08478169 -0.03678594 -0.03258966
 -0.02657591  0.09197909 -0.04402052 -0.03552917 -0.04833348 -0.01422106
  0.01988951 -0.01663006  0.12292412 -0.06323411  0.13576262  0.13499701
 -0.04920943 -0.03196983 -0.0185398  -0.01673098  0.11183178  0.18126412
 -0.02051771  0.00245104  0.31743196  0.05689571 -0.03992775 -0.0052969
  0.0579018  -0.01883424  0.04745728 -0.04342103  0.00515456  0.09615798
  0.07867545  0.00398649  0.06925677 -0.05737837 -0.02617236 -0.02870765
 -0.04847256 -0.05299032  0.10405006  0.09706157]
[-0.32644916  0.04057875  0.24540862 -0.12638901 -0.04979234 -0.11873229
  0.12872307  0.05432653  0.21533668 -0.12860805 -0.04353428  0.08788206
 -0.01127873  0.1763565  -0.05748263  0.00127351 -0.21135448  0.07376847
 -0.16612537  0.0390655  -0.09930003 -0.05411148 -0.08260919 -0.02155883
 -0.08922636 -0.11269761 -0.09267351 -0.21868086  0.00735599 -0.09026549
 -0.04010592 -0.0271173   0.09530369 -0.15860632  0.00839967  0.11969715
 -0.14635168 -0.03321753 -0.0748606  -0.16748385 -0.07520876  0.20314676
 -0.05474382  0.4311001  -0.17071937  0.05227786 -0.08985464 -0.10519344
 -0.15903096 -0.0546233  -0.12062873 -0.09957658  0.08671632  0.04006581
 -0.03628065  0.05470245 -0.04674804  0.04889521 -0.05332688  0.06887652
 -0.03206494  0.08087543 -0.08541317 -0.00524876]
[ 0.14338857  0.12119567  0.01380091  0.07392243 -0.07458641 -0.02157495
  0.13130012 -0.07223407 -0.07246283 -0.09471466  0.00667972 -0.01885294
 -0.25326693  0.08183824 -0.15275745 -0.03722116  0.0410294  -0.14966829
 -0.07830159 -0.05811407  0.01545312  0.14452173 -0.05658524 -0.08898134
 -0.09408021  0.08615056 -0.0212983  -0.06910199 -0.07364952 -0.0418128
 -0.05599365  0.03083888  0.12620822  0.07747387  0.05552542 -0.0362721
  0.08536088 -0.01016178 -0.0905889   0.05517663  0.1397362   0.12728326
 -0.09567693  0.16619135  0.34095708  0.03307064 -0.04983046  0.11925474
  0.09009796 -0.09149519  0.10462237 -0.05859994 -0.19920026  0.09499914
  0.05297894  0.13331921  0.10371162 -0.07499903 -0.03127586  0.01125586
 -0.10086599  0.03498909  0.15474142 -0.03628034]
[ 0.11256305  0.03002047  0.05835001  0.16384874 -0.06472981  0.04975704
 -0.08459319  0.00031313  0.05428321 -0.00173114 -0.01189726  0.0540667
 -0.00169033  0.10303693  0.03294398  0.00459824  0.03650134 -0.26378754
 -0.16154195 -0.13434698  0.00745157 -0.01407569 -0.03961051 -0.03054564
 -0.04433785  0.14674047  0.01259    -0.09161855 -0.03055569 -0.04266978
  0.14118701 -0.03812685  0.02107283  0.13843465  0.057448   -0.01149729
 -0.29878    -0.05531418 -0.02090412 -0.14632855  0.03633097  0.03394962
 -0.01148055 -0.20511337 -0.08958117  0.06676696 -0.00393757  0.06055345
  0.09904112  0.00153032  0.0802484  -0.04720224  0.06095458 -0.05957111
  0.05074377  0.09459125  0.09833929 -0.00857651 -0.04112308  0.07557022
  0.00835306  0.09417662  0.06915209  0.0116054 ]
[ 0.13286962  0.0474294   0.06776845  0.12583475 -0.07423214 -0.02157283
 -0.00882079  0.32218072 -0.10495865 -0.02523342 -0.0747796  -0.05454584
  0.05780023  0.02935053 -0.02367765  0.07266749  0.13133395  0.10351308
  0.00310513 -0.08288471  0.05800608  0.03523501 -0.03892195 -0.0555544
 -0.0504102   0.17449073 -0.02252646 -0.01531418 -0.0613966  -0.00377141
 -0.01377275 -0.06156527  0.01392088  0.05069142 -0.15301326 -0.04327585
 -0.06672787 -0.03667362 -0.01330871  0.00302738 -0.04002701  0.03136721
 -0.04927511 -0.11324407 -0.3065513   0.13941543 -0.03420774  0.03248698
  0.01115133  0.0221321   0.14264685 -0.01235218  0.55532706 -0.01987962
 -0.02401492 -0.02944639  0.04845821  0.00982313 -0.05670439 -0.06459404
 -0.02470674 -0.13444716  0.0547139  -0.0575716 ]
[ 0.04200488  0.07731608 -0.09176902  0.002167   -0.03451558 -0.04705012
  0.04821691  0.07408196 -0.06571533 -0.03838721 -0.03182155  0.1381131
  0.10968485  0.0690323  -0.05259194 -0.01378012  0.03708635 -0.02173644
 -0.02519026 -0.0898926   0.03578348  0.04210727 -0.05833675 -0.01654952
 -0.03634448  0.06264868 -0.03101373 -0.10668553 -0.05148279 -0.0310073
  0.01176289 -0.0769424   0.00787945  0.10120889 -0.07380866 -0.02888686
 -0.06953052 -0.04562241 -0.05289472 -0.04070832 -0.02032643  0.04707727
 -0.03463415 -0.13437767 -0.23762834  0.06853542 -0.07585262  0.06385586
  0.02643208 -0.0486169   0.0375279  -0.04286432 -0.1650363   0.02019972
  0.03408954 -0.01053794 -0.00028795 -0.07428309 -0.04804394 -0.03608807
 -0.02840504 -0.0447368   0.07949513  0.02228609]
[ 7.78181525e-03  5.26626445e-02 -1.61836773e-01  7.86826685e-02
 -6.94717690e-02 -7.98982307e-02  1.80514470e-01 -1.84117496e-01
 -8.08665901e-02 -6.56410158e-02 -6.15176372e-02  1.14881665e-01
  8.46115053e-02  1.06229618e-01 -5.25725372e-02 -8.82735774e-02
  9.81713965e-05  4.75357957e-02 -5.19619286e-02 -2.09963955e-02
  5.19530624e-02  1.20556295e-01 -8.10694620e-02 -6.68554977e-02
 -6.01854622e-02  8.92618746e-02 -7.60881901e-02 -1.36703372e-01
 -8.62591714e-02 -6.36264086e-02  6.80848807e-02 -5.89180253e-02
  1.52196571e-01  4.69934344e-02  3.69531095e-01  2.24292591e-01
 -4.41954918e-02 -6.12753369e-02 -7.60957375e-02 -7.92243481e-02
  2.60984957e-01  8.81375447e-02 -7.03786016e-02  9.85364541e-02
  6.42201960e-01  1.05959408e-01 -1.28612474e-01  1.08452469e-01
  1.59356743e-01 -8.37330595e-02  1.67099997e-01 -8.51613060e-02
  7.71573186e-02  1.02789119e-01  1.08897477e-01  8.84270594e-02
  1.72206864e-01 -9.00515541e-02 -8.04093331e-02 -1.06921107e-01
 -8.93382058e-02 -9.77737680e-02  2.24133775e-01  1.05031535e-01]
[ 0.04930504  0.01634638  0.07504768 -0.03094985  0.0058489   0.01010706
  0.01591895  0.05170021 -0.03505174 -0.01307288 -0.01944838  0.02150387
  0.02595691  0.03271972 -0.00221949  0.00911477  0.07764183  0.02788745
 -0.04892711 -0.03715502  0.04379333  0.05630653 -0.03658948 -0.05461122
 -0.01061275 -0.0121639   0.00640126 -0.04406892 -0.04190879 -0.02474499
  0.04284576  0.00184865  0.07922357 -0.02267239 -0.05648448 -0.0342586
  0.03349644 -0.02749271 -0.038001   -0.02647276 -0.01958061 -0.04990647
 -0.03148561 -0.03994048 -0.31867582 -0.00059488 -0.01430538  0.02448323
  0.00053393  0.00041237  0.03400069 -0.02431832  0.07957791  0.03690148
  0.06718632  0.03325853  0.02897462 -0.04188832  0.00055169 -0.02805677
 -0.04404143 -0.01583517 -0.07238623  0.04939968]
[ 0.02791272  0.12748797  0.03818529 -0.06605756 -0.01117041 -0.02658039
  0.12710112 -0.11513434 -0.03594719  0.02860214 -0.04291802 -0.02685777
 -0.03615999  0.01220487  0.03045836 -0.04008868 -0.03099497 -0.17521085
 -0.05324972 -0.06295346  0.08290581  0.05741489 -0.00118731 -0.04798948
 -0.06354302 -0.00499468  0.01751174 -0.00451004 -0.04488396 -0.03669949
 -0.03754919 -0.02108708  0.11010955 -0.00445055  0.08604781 -0.00045281
  0.04491253 -0.06124802 -0.00810981 -0.03094919  0.01552727  0.01617341
 -0.01037163  0.00302717  0.04833143 -0.00216311 -0.00071292  0.01347657
  0.03498823  0.0277189   0.10319625 -0.05502907 -0.15507708  0.10376485
  0.08268268  0.05441362  0.09192557 -0.03337932 -0.04866408  0.01832778
  0.02555166  0.01107686  0.11797989  0.08904362]
[-0.00527501  0.0524848   0.0012627   0.11463398 -0.08882306  0.03993972
 -0.05101926 -0.0169744  -0.00613575  0.04221937 -0.00494023  0.00769334
 -0.06244443  0.06665909  0.02771429 -0.02125649  0.01672461 -0.10626706
 -0.02445755 -0.1309243   0.02750108  0.07799195 -0.02458261  0.00183277
 -0.08171669  0.15176825 -0.06605256 -0.06504622 -0.03176878 -0.0183128
  0.03719657 -0.06974422 -0.04173648  0.12762229 -0.02735294 -0.02645249
 -0.29908237 -0.00666907 -0.03576619 -0.05014486  0.07299072  0.07719694
 -0.0400508  -0.24447362 -0.14367183  0.02279773 -0.04036183 -0.05344754
  0.09558389 -0.04457706  0.12324005 -0.08852056  0.06832168 -0.00966045
  0.03722821 -0.11538308  0.09269703 -0.02545716 -0.04281448  0.02994898
 -0.01498459  0.02280114  0.07595161  0.12167433]
[-0.08863554  0.03571254  0.18268743 -0.06003533 -0.08298195 -0.20912683
  0.2487903   0.09991183  0.0365939  -0.12938096 -0.09430973 -0.03800791
 -0.41227448  0.12070727  0.09348249  0.02492009 -0.23478298  0.08141784
  0.0041114  -0.04357721  0.10472555  0.0045579  -0.00212177 -0.06147803
 -0.10071273  0.01199853 -0.15506901  0.06176169 -0.03132612 -0.05577238
  0.08146433 -0.13063642  0.08935476 -0.13209148 -0.01699337  0.12876593
  0.12796824 -0.05323438 -0.04272206  0.03053511 -0.12025675  0.11471719
 -0.08031119  0.5869338   0.01944339  0.01352916 -0.06757064 -0.29571292
 -0.10775229  0.00087737  0.02094954 -0.09281472  0.04879295  0.06124913
 -0.07369605 -0.05640825  0.15013541  0.0305824  -0.08248714  0.03859146
 -0.01046646 -0.14175448 -0.01783522 -0.07549655]
[-8.4108733e-02  8.6790575e-03  8.9648806e-02 -8.9795426e-02
 -7.0390724e-02 -1.9478315e-01 -6.4782701e-02  1.7397422e-01
  3.2481968e-02 -2.0288160e-01 -4.3540243e-02 -2.6028042e-03
  1.6471659e-01 -8.6398125e-02 -1.4516144e-01 -2.4991469e-02
  5.2472770e-02  9.9267796e-02 -3.6446527e-02 -2.5856497e-02
 -4.9931254e-02 -9.4919920e-02 -7.9228587e-02 -6.7141563e-02
 -7.4874334e-02 -7.2458848e-02 -2.4119884e-02  2.7212810e-02
 -6.8888396e-02 -9.9091649e-02  1.0804171e-02 -9.5974334e-02
 -6.7693755e-02 -6.3629486e-02 -9.5415160e-02 -2.9349161e-02
 -1.6188590e-02 -4.8887774e-02 -3.2616291e-02 -5.5581637e-02
 -4.3290325e-02 -5.2121583e-02 -6.9972739e-02  2.4771443e-04
 -7.2897410e-01 -1.7840679e-01 -3.4107085e-02  4.9344137e-02
  3.1274687e-03 -3.3452611e-02 -3.6231134e-02 -1.9115148e-02
  2.5727719e-03 -4.3996427e-02 -4.7595896e-02 -1.4408550e-02
 -4.7414459e-02 -6.2325321e-02 -7.4494004e-02  3.0309979e-02
  2.7868899e-03  8.0871955e-02 -8.1646897e-02 -7.5204581e-02]
[-0.01858926  0.04618713  0.01368173  0.03562529 -0.05581366 -0.02701367
  0.01687002  0.12000365 -0.00248217  0.0381119  -0.03004657  0.00345571
 -0.15012729  0.06868824  0.0805715  -0.01095065 -0.03531461  0.04604205
  0.012613    0.01537046  0.04710735  0.00818387  0.0085627  -0.03608646
  0.02402269  0.06691872 -0.03892911  0.02634384 -0.0011416  -0.01097979
  0.07273059 -0.01424393 -0.03368671  0.073685   -0.04005951 -0.03548347
  0.03410055 -0.08043089  0.01212368 -0.04143515 -0.09076168  0.02632772
 -0.01462323  0.10430031 -0.38255838  0.01670271 -0.03886953 -0.01538285
 -0.01456769 -0.0210676  -0.01090895 -0.0190368  -0.01199166 -0.02312978
 -0.01971439  0.03107814  0.08257872 -0.06420561 -0.04025387 -0.0007845
 -0.03254623 -0.06104287 -0.00109825  0.0017822 ]
[ 0.00397232  0.04871291 -0.04161852  0.07998241 -0.01159864 -0.07641456
  0.02623581  0.16825964  0.06123839 -0.06538187 -0.00661714  0.09843103
 -0.01636599 -0.05359831 -0.09309568 -0.00227375 -0.01051641 -0.08785702
 -0.17415486  0.02219032  0.03180858 -0.0283551  -0.0834279  -0.05361679
 -0.02880863  0.0615909  -0.02867313 -0.02171923 -0.02460357 -0.03080372
 -0.04411489 -0.00540556 -0.03511296 -0.00345221 -0.10505156 -0.07541554
  0.04134114 -0.04582507 -0.0058245  -0.14790292  0.05917927  0.01094598
 -0.03216287 -0.281196   -0.39444938 -0.05351145 -0.01170064  0.04742734
  0.06138597 -0.05065517  0.09568655 -0.02853975 -0.19933285  0.03664551
 -0.0174583  -0.06770054  0.02000458 -0.03719584 -0.07644919  0.03352317
 -0.02536047  0.04155662 -0.02543565  0.06530135]
[ 0.13687025  0.05219667 -0.08709938  0.1593223  -0.0121484  -0.08711784
  0.18313394 -0.03606826 -0.04388055 -0.12859993 -0.09174398 -0.01403852
 -0.05983958  0.14657429 -0.10275993 -0.13883969 -0.1005393  -0.1723352
 -0.12561323  0.06759027  0.04188002  0.08231379 -0.04654871 -0.06845602
 -0.06856638  0.10228874 -0.08786816 -0.14668491 -0.0484565  -0.09283946
  0.02295005  0.0138437   0.25216866  0.16562523  0.30107492  0.17882895
 -0.01752299 -0.05034349 -0.09278683 -0.09558855  0.28576997  0.00323641
 -0.06588435  0.17580633  0.766361    0.08391235 -0.03994991  0.16397113
  0.10854329 -0.08323406  0.13878085 -0.05584291 -0.3163925   0.07611459
  0.09600077  0.13271077  0.10027955 -0.0923793  -0.06551518 -0.06251685
 -0.07762622 -0.07335073  0.20077683  0.13392618]
[-0.06598094 -0.00391439 -0.10247552 -0.00961832 -0.04186421 -0.03684549
  0.09455283 -0.14828941 -0.03087656 -0.01695623 -0.04528575  0.10141806
  0.04097088 -0.03529263 -0.06990357 -0.02586211 -0.03907692 -0.00223352
 -0.06551269 -0.00836264  0.04035261  0.04668951 -0.05179363 -0.03711918
 -0.02368478 -0.00122404 -0.03267617 -0.07116044 -0.05186523 -0.03222814
 -0.01067295 -0.02736067  0.09197646  0.02165475  0.15237226  0.14177096
 -0.01631865 -0.06846601 -0.04739847 -0.09832452  0.03588635  0.12793872
 -0.04876374  0.12887311  0.23657075  0.02284168 -0.02798859 -0.0261575
  0.00285677 -0.05496208 -0.02379595 -0.04427294  0.06239929  0.0953313
  0.06051486  0.14695655  0.00332251 -0.04165908 -0.04824411 -0.04157509
 -0.04079236 -0.01707264  0.08722103  0.0421177 ]
[ 0.06275315  0.11534262  0.0867454   0.0946862   0.01450697 -0.03965844
 -0.00375198  0.0175649   0.05721538 -0.05197169 -0.00754314  0.05688263
 -0.11695526  0.07555524 -0.08304264 -0.03890725 -0.06802735 -0.02239071
 -0.0611078   0.06195885  0.0414352   0.04054631 -0.05333742 -0.02005983
 -0.04035106  0.13172705 -0.06191006 -0.01950669  0.01361086  0.00443042
  0.03924891 -0.04884349  0.02454728  0.05830742 -0.06558434 -0.06258596
 -0.06087948 -0.00392371 -0.04917895 -0.01757317  0.07127031  0.06358691
 -0.04469356 -0.01537904 -0.07286534  0.03570268 -0.01684508  0.1341278
  0.00996697 -0.02148863  0.10856822 -0.01220261 -0.13707286 -0.04024185
  0.02431718 -0.01256383  0.14144705 -0.01544424 -0.02906607 -0.00692317
 -0.07636797  0.02186573  0.08596853  0.02185971]
[ 3.67453545e-02  2.77062994e-04 -2.16864288e-01 -2.09546201e-02
  1.07853767e-02  5.64693995e-02  8.48485604e-02 -1.95225433e-01
 -2.49857619e-01  1.21776894e-01 -4.94695455e-02  7.05363601e-02
 -1.48468882e-01 -1.65587306e-01  2.87207030e-02  8.64783227e-02
 -1.86810791e-02  1.99159756e-01  4.92553860e-02  1.32684276e-01
 -2.07827445e-02  3.94642577e-02  4.27041315e-02 -1.80072021e-02
  9.03498381e-02 -9.10870284e-02  3.99179803e-03  7.41253644e-02
  2.11337022e-02  4.22631688e-02 -3.32084186e-02  7.00208023e-02
  6.40849918e-02 -6.56527728e-02  1.41759336e-01  1.22666404e-01
 -6.79966388e-03 -2.94317156e-02  3.38381194e-02  5.11534102e-02
  1.76167458e-01 -1.29846230e-01  6.58624806e-03  4.49438170e-02
  1.94589928e-01 -1.23853415e-01 -4.13560160e-02  3.28682214e-02
  8.21340457e-02 -1.38782309e-02  1.26152515e-01  5.94154559e-02
 -4.06040922e-02  1.20462768e-01  7.17197806e-02  1.12556763e-01
  3.97216156e-02 -2.11802553e-02  1.65883768e-02 -1.99095652e-01
 -4.21670228e-02 -2.85955727e-01  3.77203003e-02  1.68929890e-01]
[ 0.12566316  0.00124796  0.12693678  0.12817897  0.03888359 -0.03130198
  0.00099481 -0.1426807   0.0402697  -0.02050857 -0.0047429  -0.05364701
  0.00768993 -0.01610817 -0.05092718  0.08969552  0.08440512 -0.0629787
 -0.02541331 -0.02776732  0.04097247  0.02351761 -0.01262126 -0.00879103
 -0.02678879  0.07495652  0.02074449  0.01926666  0.00304037 -0.00123433
  0.00429626 -0.01108882  0.06346074  0.07762781  0.02537983 -0.00206255
  0.02466796 -0.00836004 -0.0091937   0.00548453  0.07043421 -0.0089484
 -0.0146049  -0.03404528  0.00288501  0.05560838  0.03429439  0.15811157
  0.1468229   0.03425341  0.07939471  0.02673349  0.01576609 -0.06340256
  0.0134912  -0.01296866  0.05275864  0.02624486 -0.01036097 -0.00341015
  0.00425375  0.0262069   0.14201653 -0.02043055]
[ 0.00196042 -0.02449285 -0.01938843 -0.05150235 -0.06373489 -0.01048625
  0.17141108 -0.0929206   0.07673492 -0.03869961 -0.0293717   0.06823284
 -0.12800486 -0.00482675  0.03194185 -0.01761368 -0.08766367 -0.04323618
 -0.0853365   0.01726612  0.06624956  0.05165455 -0.00286552 -0.0357712
 -0.03991478 -0.036902   -0.0512557  -0.11450015  0.03566993 -0.03040354
  0.03787994 -0.00901599  0.11139003 -0.08385171  0.1604712   0.12047458
  0.00900969 -0.05047582 -0.03833617 -0.08489352  0.14909269  0.06387544
 -0.04401094  0.2544316   0.23477747  0.00587546 -0.05736465  0.02243938
  0.04571926 -0.03116189 -0.01524749 -0.06167998 -0.30952     0.068152
  0.02474916  0.05866208  0.05567195 -0.04143137 -0.06264342  0.0690084
 -0.02178038 -0.00624246  0.03138919  0.03332628]
[-0.05979061  0.01033534 -0.11618345 -0.01675806 -0.09751723 -0.04168503
  0.07474709  0.00268297 -0.07000815 -0.03181145 -0.04439564  0.05470015
  0.05984504 -0.01731016 -0.011702   -0.0531546  -0.02149335 -0.05662342
 -0.08106679 -0.07154575  0.00709579 -0.06820468 -0.05453582 -0.04932417
 -0.05851718  0.07833921 -0.04016887 -0.06697731 -0.05523995 -0.03576674
  0.01795426 -0.03801066  0.03910557 -0.00667502  0.1523425   0.05304233
 -0.04643504 -0.06782923 -0.03326757 -0.08786404  0.08787476  0.02103262
 -0.05046708  0.0331682   0.10428084  0.02889825 -0.04566875  0.03012877
  0.04608583 -0.07489616  0.03149104 -0.04825974 -0.01376934  0.04679491
  0.05145167  0.10857549 -0.03403705 -0.05788294 -0.06743747 -0.03459689
 -0.06214479 -0.02055524  0.00044743  0.04554432]
[-8.07324145e-03 -7.61978154e-04 -5.39636314e-02  8.97248536e-02
 -4.32352833e-02  1.39922965e-02 -3.86961624e-02  2.72960663e-02
 -4.63507921e-02  5.82708530e-02 -2.04912219e-02 -5.63739166e-02
 -1.00384448e-02 -1.77870598e-02  4.30383012e-02 -5.01058027e-02
 -1.43354610e-01 -1.00017354e-01  1.86432544e-02 -7.01399818e-02
  3.09212226e-02  3.45860459e-02  3.28980153e-03  1.29108503e-02
  8.88285972e-03  7.54331797e-02 -4.06026803e-02 -8.56632425e-04
 -4.18411158e-02 -1.80444922e-02  6.43388629e-02 -5.00681475e-02
 -1.10537158e-02 -1.39031879e-04 -6.89677969e-02 -2.16781367e-02
  7.25707337e-02  2.69760285e-03 -1.56923756e-02 -4.02020849e-02
 -9.21607465e-02 -3.89824435e-02 -8.15045089e-03  1.75015062e-01
 -2.77879506e-01 -2.25224085e-02 -1.63260121e-02 -1.12898827e-01
 -3.61344554e-02 -3.22866328e-02  1.54414594e-01 -4.27763499e-02
 -2.13738069e-01 -1.76754370e-02 -8.65047723e-02 -2.21200641e-02
  2.54081897e-02 -1.98188871e-02 -3.93513255e-02  1.19181992e-02
 -2.41378993e-02 -3.27937864e-02 -6.00871965e-02 -2.10661963e-02]
[-0.03133502 -0.01437052  0.10621978  0.00994269 -0.01758516  0.04077083
  0.1037256  -0.06158604 -0.01538774  0.05994356 -0.01341628  0.10232683
  0.01390038 -0.04266369 -0.00771829  0.0725336   0.07679935  0.11759826
 -0.0773801  -0.05639468 -0.02842423 -0.01295062 -0.01879541 -0.01914268
 -0.00164735 -0.08664991 -0.01447238  0.07307522 -0.02383754  0.05311203
 -0.02822603  0.01833161  0.05523594  0.03015537  0.05237703  0.03471763
  0.07454854 -0.05814216 -0.01725037 -0.04197099  0.07444951 -0.020806
 -0.00905292  0.047564   -0.1814822   0.03406699  0.00276802  0.03602006
 -0.0363811   0.02235809 -0.05128121  0.01316568  0.07973641  0.09196795
  0.075335    0.0355087   0.01106717 -0.02274095 -0.01034488 -0.01880603
 -0.00882485  0.0057968   0.01267122  0.14744735]
[-0.02220942  0.02148534 -0.02090774  0.06020147  0.00781515  0.01688012
 -0.0087685   0.06207865 -0.07431147  0.03794878 -0.03116223 -0.05644984
  0.04769162  0.07327876 -0.00218516 -0.00431567 -0.00815458  0.09685291
  0.04427046  0.03755823  0.00378082  0.05303948  0.01918065 -0.01812564
  0.04287431  0.02553789 -0.01431726 -0.01687767 -0.0798168  -0.00270407
  0.12156361 -0.02447691 -0.01389833  0.06602343 -0.09512603  0.02111934
 -0.00340623 -0.07178586  0.00219236 -0.02433938 -0.0689657   0.06546787
 -0.02302054  0.08395274 -0.2860968   0.0758633  -0.05782536  0.07979954
  0.0277158  -0.02130899  0.05455127 -0.0456161  -0.01580013 -0.03093553
 -0.00620853 -0.06895299 -0.0015533  -0.09221274  0.00472201 -0.03116408
 -0.02640443 -0.0577566   0.05711543 -0.07209256]
[ 1.28000423e-01  1.03158072e-01  4.27678451e-02  5.43150082e-02
  4.51708920e-02 -9.22075436e-02  1.08177215e-02  2.06379801e-01
 -4.78986315e-02  5.11633372e-03 -4.18283045e-02  5.43433316e-02
  1.10171840e-01  1.03239469e-01 -2.70369370e-02  2.75767352e-02
  1.94256976e-01  1.28309220e-01 -6.34491369e-02 -1.39084175e-01
  9.25657433e-03  3.66231017e-02 -3.63625027e-02 -4.08587344e-02
 -4.43816558e-02  1.39357492e-01 -3.98827419e-02  1.90717205e-02
 -3.40150036e-02  2.28104254e-04  1.21747749e-02 -1.12924397e-01
 -7.26904953e-03  1.34250984e-01 -1.45114243e-01 -4.18141112e-02
 -2.53038667e-03 -5.98782822e-02 -8.74807499e-03 -3.11395954e-02
  5.08668497e-02  1.01843499e-01 -5.73646091e-03 -2.69393384e-01
 -3.23897332e-01  1.02348424e-01 -1.23802638e-02  1.48758709e-01
  8.37772712e-02  3.11869793e-02  8.49537626e-02 -2.42462065e-02
  3.72781843e-01 -4.83657978e-02 -1.45696104e-03 -8.34674537e-02
  1.50296614e-01 -8.05613250e-02 -1.75356381e-02  1.93420071e-02
 -1.63426772e-02 -2.01934073e-02  7.61965141e-02  3.01697478e-02]
[-0.01346633  0.049001   -0.1141692   0.00220712 -0.09820578  0.00337289
 -0.0987781   0.12952708 -0.05865989 -0.06108577 -0.03048271 -0.09483331
 -0.0722627  -0.07178316  0.02242265 -0.1761103  -0.3357288   0.09114677
 -0.11400152 -0.00914549  0.0632139  -0.06961704 -0.07738885 -0.04777733
 -0.02902556 -0.00378881 -0.11754942 -0.11923013 -0.01049866 -0.13405626
  0.04510887 -0.03361603 -0.00748559 -0.0284695  -0.1123423  -0.03670088
  0.140682    0.03553589 -0.0817856  -0.06267713 -0.15980564 -0.04564
 -0.07223767  0.10646936 -0.05451521 -0.08559594 -0.17110246  0.03062714
 -0.00791564 -0.16066518  0.00052421 -0.17448999  0.09301101  0.0514409
 -0.09587616 -0.06871232  0.06129384  0.02038316 -0.0510947  -0.0264631
 -0.10088135 -0.06931605 -0.06241479 -0.07471773]
[ 7.33179003e-02 -3.97294164e-02 -3.23035121e-02  1.10745709e-02
 -1.13439318e-02 -7.91594982e-02  6.28078878e-02 -1.04250193e-01
 -3.17719728e-02 -1.16451770e-01 -6.74376488e-02  6.50178567e-02
 -8.73089060e-02  6.29495084e-02 -8.22816119e-02 -9.44651440e-02
 -4.79859821e-02 -7.51958042e-02 -8.74087960e-02  3.22433077e-02
  9.75103676e-02  1.06572330e-01 -8.82523656e-02 -7.20184222e-02
 -2.65203323e-02  7.14280084e-02 -1.16552524e-02 -1.85688827e-02
 -1.50908660e-02 -5.32355942e-02  5.77718280e-02 -1.97264850e-02
  2.06840690e-02  3.78816053e-02  6.99666962e-02  7.03065544e-02
 -1.34674450e-02 -5.06525524e-02 -7.16451257e-02 -5.22087142e-02
  6.58372010e-05  8.77280440e-03 -4.16650772e-02 -7.46357590e-02
  1.38127711e-02  2.89838500e-02 -2.31795516e-02  1.77412294e-05
  1.05715089e-01 -5.88896163e-02  8.05229321e-02 -3.72005329e-02
 -1.53622106e-01  5.91145493e-02  2.74622291e-02  1.46766096e-01
  5.72055206e-02 -2.08438709e-02 -3.27571146e-02 -9.93588343e-02
 -5.18947095e-02 -2.31849812e-02  1.11442044e-01  2.16713995e-02]
[ 0.12883165  0.0117492  -0.02374073  0.05753811 -0.03985449  0.00269364
  0.01740082 -0.08344175 -0.03218033  0.01965689 -0.00439747  0.09031817
  0.01002572  0.05800039  0.04237881 -0.02891074  0.08976217 -0.03922172
  0.01060885 -0.09411096 -0.0201969   0.02856829  0.0084832   0.01705581
 -0.02778247  0.05135768 -0.01634754 -0.06225692 -0.04497103 -0.00253813
  0.02616425 -0.04316992  0.08078651  0.01454376  0.08080015  0.06114686
 -0.1024745  -0.01425863 -0.02783641 -0.00590465 -0.04429675  0.09257004
 -0.02291528 -0.09418448 -0.14297317  0.09293254 -0.00835368  0.00285036
  0.0941918  -0.02499884  0.05885892 -0.02732427 -0.00329585 -0.00382801
  0.02881549 -0.02790077  0.07014445 -0.02862687  0.02247659 -0.04313682
 -0.00840652 -0.0152735   0.02965444  0.01347046]
[-0.1622966   0.00136376  0.01871646  0.02920132 -0.08651213 -0.13820711
 -0.01181934  0.22580883  0.03675161 -0.07373276  0.00064524 -0.13973232
  0.02422212  0.09659097 -0.05826147 -0.02423982 -0.0511913  -0.37465703
  0.03310351 -0.19484954 -0.02999481 -0.02524736 -0.09220006 -0.02479214
 -0.15924561  0.07155545 -0.10314974 -0.04955683 -0.10658713 -0.08998239
 -0.02450088 -0.17045704 -0.01458499  0.00533313 -0.26550582 -0.05802506
  0.11208355 -0.03864378 -0.07289068 -0.02182823 -0.22434974  0.17467561
 -0.0766741   0.2341349   0.05646718  0.03437507 -0.09131812 -0.08744466
  0.02629462 -0.0159797  -0.01816364 -0.11737511 -0.05122206 -0.04088471
 -0.12208679 -0.07175438  0.08199972 -0.05134851 -0.07675383  0.08097399
 -0.00417977  0.03151252 -0.09549221 -0.04138429]
[-0.00727448  0.00267446  0.00958516 -0.01215207 -0.03058654 -0.07354601
  0.01815707  0.22364202  0.04376992 -0.05802072  0.01547035  0.00761984
 -0.03332238 -0.03930172 -0.11890827  0.01418908  0.06935975  0.2016082
 -0.00541754 -0.01022949 -0.02242767  0.03509824 -0.03750262 -0.03189929
 -0.05231525 -0.06750398 -0.01188957  0.03506063 -0.02753313 -0.01459177
 -0.01754444 -0.02339318  0.02368839 -0.04401827 -0.09539583 -0.00713482
 -0.07526636  0.04634234 -0.02148069  0.04610355 -0.04184501  0.01537696
 -0.0312787  -0.0922886  -0.43855613 -0.10941572  0.00787226 -0.00778578
  0.05241989 -0.0088423  -0.02854591 -0.04710698  0.05119691  0.03144387
  0.02734859  0.00320761 -0.03150081  0.01926839 -0.008299    0.02694376
  0.01080356  0.0826102   0.00603577  0.00466537]
[-0.17704408 -0.00802178 -0.07850131 -0.00117074 -0.06538679 -0.01119582
  0.2005942   0.00678955 -0.00730848  0.01001922 -0.01773679  0.11774267
  0.03338893 -0.03946654  0.02214944 -0.03943361 -0.06976619 -0.01227164
 -0.01932723 -0.05302073  0.01233552  0.04652798 -0.01959607 -0.01836682
 -0.04422583 -0.02248856 -0.0634598  -0.04797371 -0.03283772 -0.02610984
 -0.00329791 -0.04725909  0.01221396 -0.09655757  0.1318229   0.09034493
  0.00238107 -0.03889733 -0.02058926 -0.02762337  0.05542713  0.10624737
 -0.03036517  0.05700285  0.14762655  0.02930286 -0.05950767 -0.16507794
 -0.04703849 -0.061935   -0.0670036  -0.04158258 -0.04289027  0.07471729
 -0.00487618  0.01227562 -0.02184043 -0.02100033 -0.05225238  0.03290207
 -0.03690529 -0.0044923   0.0282013   0.05815769]
[-0.1147324  -0.00389758 -0.01376212  0.03782636 -0.02363901 -0.03790447
  0.04003597  0.07764851 -0.02503401 -0.02996835 -0.02976428  0.07473438
 -0.00369518  0.04404854 -0.01737073 -0.02921827  0.02940027  0.08659096
 -0.00132475 -0.07828172 -0.0259602   0.00939593 -0.06419196 -0.00146724
 -0.03848976  0.0135691  -0.02792718 -0.09194724 -0.0850947  -0.05966943
  0.04857345 -0.02519101  0.03849836  0.00677551 -0.01995312  0.02653295
  0.02458424 -0.01072248 -0.04272176 -0.0033526  -0.02924943  0.07423981
 -0.03927913 -0.05219179 -0.15982176  0.03635204 -0.01856905  0.008189
  0.07401411 -0.04357742 -0.07894    -0.01837615  0.0763761   0.10553189
  0.03835662 -0.02234613  0.03376362  0.00521871 -0.00758289 -0.06705569
 -0.04672369 -0.00712539  0.05263427 -0.0170072 ]
[-0.1443464  -0.01450426 -0.24135563 -0.01915738 -0.05367004 -0.08137187
  0.17710696  0.10469665 -0.1444249  -0.03925951 -0.05961929  0.12113895
  0.04824642  0.0280935  -0.01103034 -0.06797268 -0.07786312 -0.11442066
  0.03708899 -0.04677293  0.09669155  0.01786071 -0.04844038 -0.04103801
 -0.03860616 -0.02238783 -0.08665866 -0.09721187 -0.06140213 -0.07295719
  0.04402573 -0.08985502  0.0328892  -0.06310753  0.10496965  0.04918096
  0.04998244 -0.04933373 -0.07846508 -0.01428316  0.10155184  0.0605395
 -0.05388749 -0.07224035 -0.01315922 -0.01695661 -0.08517256 -0.03805627
 -0.03893251 -0.06951727  0.03120362 -0.07378173  0.03414425  0.09427232
  0.0798995  -0.00455984  0.04592695 -0.0806746  -0.04761975 -0.13406532
 -0.06675627 -0.18509054  0.07413224 -0.0310712 ]
[-0.00222723  0.12787153 -0.13600613  0.17287317 -0.08372579 -0.01972161
  0.09923867 -0.08248437 -0.10914706 -0.02024399 -0.05894857  0.04673637
  0.00455271  0.08561751  0.05603034 -0.06489054 -0.06682003  0.16634518
  0.06116097 -0.08807607  0.07957248  0.04715396 -0.05435078 -0.04148902
 -0.09363496  0.14177892 -0.09037022 -0.04627552 -0.0850131  -0.0681533
  0.08897243 -0.088356    0.10371916  0.04858769  0.08913545  0.07391413
 -0.10638511 -0.0102041  -0.06875693  0.00854719  0.00917812  0.20225449
 -0.06446709 -0.00568807  0.2381839   0.05106933 -0.08552595 -0.13498703
  0.12856284 -0.07465751  0.12964354 -0.07263362  0.01606675  0.06855663
  0.09083838 -0.0366763   0.19143784 -0.03872648 -0.03577928 -0.11437511
 -0.06510565 -0.19359997  0.16613612  0.07209796]
[ 0.00541923 -0.02447749 -0.06487288  0.0647983  -0.05735664 -0.02402307
  0.10684102 -0.15380928 -0.13249871  0.01915672 -0.04698994  0.01435096
  0.08908017  0.07548984  0.0425352  -0.02456422 -0.01175629  0.08636377
  0.03587373 -0.08760069  0.10802342  0.03478035 -0.04316778 -0.01527256
 -0.07255878  0.02383552 -0.04491596 -0.03687647 -0.08828059 -0.00047693
  0.03414181 -0.0732409   0.07505459  0.02969699  0.15145382  0.12061094
 -0.10444592 -0.00878561 -0.05517466  0.05083396  0.06576786  0.04491812
 -0.04551225  0.04738265  0.38629034  0.03140458 -0.06039536  0.01950748
  0.046418   -0.04341143  0.0099799  -0.05610014 -0.04076415  0.08282153
 -0.01014373  0.09250099  0.02977589 -0.04574727 -0.03217185 -0.09572496
 -0.0068285  -0.11533963  0.0656627   0.07199547]
[-0.01220777  0.05786509  0.05272999 -0.07186245 -0.05992202  0.04923725
  0.13708746  0.05705861  0.02313463  0.06511091 -0.01112282  0.07198195
  0.04790932  0.14733984  0.11338685 -0.07536767 -0.01095888 -0.07486622
 -0.00977392 -0.04365465 -0.01358626  0.02294831 -0.02263379  0.03541392
  0.02314955 -0.07546873 -0.02989028 -0.07039443 -0.03116732 -0.05571329
 -0.07754839 -0.06688086  0.11019126 -0.05229399  0.11478126  0.08625604
 -0.06641267 -0.03694518 -0.01198681 -0.07198184  0.06005913  0.13918915
 -0.01698194  0.1984778  -0.06225296 -0.01152056 -0.03173835  0.07913546
 -0.00542749 -0.01655516 -0.07293075  0.00305597 -0.11715706  0.02690215
  0.02439113  0.09599738 -0.04882343 -0.02093948 -0.0530119   0.01487897
 -0.01437163 -0.01731463  0.00913222 -0.02619405]
[ 0.0070151   0.03491427 -0.09103581 -0.01122508 -0.06375635 -0.00271327
  0.06085778 -0.04651523 -0.1234035   0.0201354  -0.04667171  0.06765081
  0.0270948  -0.05138175  0.08488701 -0.03326349 -0.00539659  0.03964231
  0.00911982 -0.06991406 -0.04470284 -0.00492137 -0.03114188 -0.01867056
 -0.04142169 -0.0684137  -0.04572506 -0.03501556 -0.0568864   0.00511461
 -0.01052333 -0.04735988  0.01116588  0.021628    0.16513208  0.12498109
  0.02675735 -0.00040094 -0.03805158 -0.04183578  0.1366062  -0.03975241
 -0.03838751  0.14792235  0.02522085  0.0173266  -0.02642895  0.11086478
  0.0112141  -0.02880901  0.00042724 -0.0300348   0.20391421 -0.01566072
  0.02604474  0.06949556 -0.06184014  0.01940155 -0.01927504 -0.06498466
 -0.02448213 -0.10839479  0.06889591 -0.06434724]
[-0.02222744 -0.01326883 -0.02178467  0.04650608  0.03224016 -0.01627615
 -0.0412024  -0.035765   -0.04267557 -0.06161946 -0.06073637  0.06361022
  0.02834115  0.02297649 -0.04869874 -0.04652387 -0.04138967  0.06454581
 -0.03762753 -0.05532661  0.07246099 -0.01317386 -0.06350949 -0.04715225
 -0.04992316  0.02781737 -0.01211365 -0.06730983 -0.06273405 -0.08068914
  0.08711568 -0.02667456  0.00229629 -0.01200183  0.0242585   0.03383686
  0.0159932  -0.0278037  -0.07222989 -0.02283625  0.05051226 -0.05632393
 -0.0389321   0.0305118  -0.3629682  -0.05294188 -0.05494124  0.07585119
  0.01134107 -0.03603755  0.07888381 -0.037573   -0.04748167  0.04640907
  0.03928706  0.04044419  0.02424338 -0.02300759 -0.01380668 -0.05152941
 -0.04817684 -0.03101929  0.0279006  -0.02775192]
[-0.00623172  0.06973757 -0.13520926  0.08785094 -0.04148176 -0.00735762
  0.03541337  0.2975034  -0.03956841 -0.04817303 -0.03408671  0.00422457
 -0.0389382   0.01395505  0.03933029 -0.11027998 -0.13918     0.1173286
  0.01332887  0.04612258  0.00648151  0.00644601 -0.05460492 -0.04069407
 -0.05182102  0.04075155 -0.07776276 -0.0600705  -0.0303319  -0.05463298
  0.00240718 -0.04137937  0.04127447  0.03812794 -0.05736032 -0.02274315
 -0.08689801 -0.04873225 -0.0582808   0.00277443 -0.04029074  0.13428675
 -0.04964738  0.01255335 -0.35541573  0.02405989 -0.07231594 -0.08010833
  0.06964193 -0.06209104  0.03842079 -0.07050139 -0.21623468  0.01696727
 -0.02963355 -0.0297009   0.06913584 -0.04926757 -0.01011477 -0.06862921
 -0.05963178 -0.13204141 -0.0199084   0.00723782]
[ 0.06495062 -0.02954829 -0.1879881   0.02960235 -0.06623833 -0.06922055
 -0.06172977  0.35736853 -0.05030874 -0.08094145 -0.04836472  0.07855259
  0.06747589 -0.22784166  0.06195088 -0.15081903 -0.24761285 -0.13140891
  0.06157172  0.00640871 -0.00206329  0.11445526 -0.01198943 -0.03292128
 -0.03246504 -0.03567199 -0.06930878 -0.10979117 -0.03673195 -0.08057114
 -0.02371101 -0.07504556 -0.02961378 -0.06123244  0.34701505  0.01047158
 -0.06177978 -0.01996827 -0.04813891  0.00960331  0.09308483 -0.19587012
 -0.04100494  0.19393009  0.35172665 -0.09563137 -0.05484464  0.11860576
  0.08661634 -0.05291997 -0.0400621  -0.06255148 -0.35210526 -0.02119835
  0.05188823  0.10183889 -0.06410886 -0.05249677 -0.04138047 -0.01631805
 -0.02552667 -0.11639516  0.10904768  0.09321721]
[ 0.13186659 -0.01514975  0.03340726  0.05092093 -0.06986374 -0.15123743
  0.02694762  0.11328591 -0.04452587 -0.11904249 -0.09442838  0.04187899
  0.20741664 -0.01506842 -0.02906984  0.00631861  0.09869611  0.10713175
 -0.00649005 -0.12438226 -0.07429758  0.07044146 -0.09826692 -0.09398643
 -0.12494536  0.16918957 -0.08907316  0.02006531 -0.0887046  -0.07059762
  0.05099134 -0.10565969  0.0287198   0.15616311 -0.02587683  0.07217628
 -0.08406051 -0.06878979 -0.05271903 -0.00233276  0.03656687  0.04632245
 -0.07886289 -0.14786826 -0.12812293  0.20107739  0.01664368  0.02591979
  0.09356629 -0.0135761   0.19958468 -0.08010928  0.46991673  0.09378152
  0.02780588  0.11304723  0.05354334 -0.04068469 -0.08441551 -0.05759875
 -0.03734737 -0.09003475  0.02500048  0.02224342]
[-0.08313296 -0.03443276 -0.13317686 -0.05088013 -0.0389483  -0.04015681
  0.13081019  0.06818303 -0.08059218 -0.01428986 -0.04759787  0.08946563
 -0.01872315 -0.09112815 -0.01318266 -0.11712602 -0.03190611 -0.11345406
  0.04478218 -0.04254084  0.01593832 -0.01768059 -0.02500257 -0.02337745
 -0.02836646 -0.06692635 -0.08225191 -0.05448696 -0.04627815 -0.06442972
 -0.04449828 -0.06291845  0.00208895 -0.0266022   0.21632114  0.07906222
  0.02907351  0.0178591  -0.057792   -0.01106299  0.06853303 -0.01097129
 -0.03711616 -0.05480215  0.17793699 -0.08300864 -0.07540528  0.01011039
  0.03651844 -0.06344079  0.00326023 -0.0750161  -0.24433291  0.08757172
  0.0760916   0.07364843 -0.03021242 -0.02868296 -0.02660033 -0.04106097
 -0.05593689 -0.08167206  0.09592298  0.15455085]
[ 0.00665197  0.01986597  0.10744809  0.00463695 -0.17115636 -0.0703144
  0.05374312  0.13941982 -0.09702192 -0.02126225 -0.08127842 -0.00038377
  0.00367963 -0.07228656 -0.05471013  0.05053503 -0.04710599  0.12580298
  0.00621851 -0.10349832  0.06514069  0.00776484 -0.016946   -0.05868491
 -0.05893365  0.00555874 -0.06569669  0.10575826 -0.0724251  -0.02118485
 -0.03441529 -0.10218029 -0.042289    0.03553265  0.09358695  0.00273249
  0.21393839 -0.08672201  0.02594661 -0.03557985  0.02162976  0.04531026
 -0.07652632 -0.1008266   0.06903172 -0.05075254 -0.05585839  0.04626756
  0.0357639  -0.03771988 -0.06848074 -0.02596207  0.22711642 -0.00379353
 -0.0200527   0.05783101 -0.00024757 -0.06443587 -0.10681676 -0.00533626
 -0.03584502 -0.12929133 -0.0273075   0.01245876]
[-0.0864412   0.01282624 -0.24901168  0.02906196 -0.01383589  0.05170707
  0.14927763  0.06555506 -0.1044498   0.10980289  0.01384069 -0.08922287
 -0.03257269 -0.03863209  0.09506968 -0.16182819 -0.17447366  0.14350066
 -0.01581425  0.01013253  0.0232889   0.04568413 -0.00294476  0.0096401
  0.00209069 -0.00102351 -0.02751784 -0.04457226 -0.01244458 -0.04365534
  0.08799912  0.02386325  0.0553553  -0.00394048 -0.10164854  0.03544782
  0.00648668  0.04948481 -0.03398704 -0.0123671  -0.04145721  0.08539445
 -0.01300756  0.10373364 -0.41044495  0.07307136 -0.06188428 -0.14917904
  0.03814435 -0.06783219  0.06772294 -0.07550406 -0.19106059 -0.00745279
 -0.03995065 -0.043661   -0.03588027 -0.02719961  0.01258948 -0.05369636
 -0.04083849 -0.06131263 -0.02239902 -0.06244991]
[ 0.09495535  0.04489615 -0.04587524  0.07229569 -0.05298556 -0.06311366
  0.07336667 -0.05660056 -0.04485727 -0.0465631  -0.05482993  0.03555039
 -0.05167856  0.07799236 -0.04600032 -0.04305742 -0.01451735 -0.05359668
 -0.07219499 -0.03870692  0.04156733  0.05188136 -0.07130576 -0.05788585
 -0.0744791   0.0721112  -0.06643942 -0.0644763  -0.0556606  -0.04818354
  0.03886293 -0.04913121  0.07454118  0.06219475  0.06897266  0.05689374
 -0.02000822 -0.0526224  -0.0705492  -0.05616106  0.06529576  0.06858355
 -0.0705532   0.03651693  0.04698699  0.07928886 -0.03923486  0.05562574
  0.0663396  -0.05334047  0.07158986 -0.06652624 -0.09630147  0.04831475
  0.05302555  0.05081038  0.0616027  -0.05572165 -0.06296789 -0.04792476
 -0.06500372 -0.04189316  0.07721343  0.04159971]
layer 3 Activation
swish
layer 4 Dense
64 64
[-0.00293181 -0.08632193 -0.0659813  -0.09625748 -0.04207002 -0.06929376
 -0.10402726 -0.10759392 -0.09453766 -0.07873181 -0.09757982 -0.12554957
 -0.08168217 -0.12229848  0.0108846  -0.13074502 -0.03061078 -0.07650722
 -0.04321092  0.06199851 -0.08206015 -0.02082009  0.01914411 -0.00316895
 -0.03544007 -0.09494844 -0.08784921 -0.10179679  0.12013955 -0.11175191
 -0.08430091 -0.07760343 -0.09876675  0.00459217 -0.09184022  0.04769471
 -0.08111129  0.09025347 -0.08460195 -0.02240246 -0.07524411  0.06835648
 -0.10503479  0.21324328 -0.08032447  0.03941076 -0.12412251 -0.08491389
 -0.09707     0.01461451 -0.08207056 -0.07959603 -0.07443428 -0.1127272
 -0.08894869  0.00667026 -0.07954812 -0.17268269  0.08507175 -0.10300641
 -0.09693065 -0.04727339 -0.02108179  0.11169912]
[ 0.06775546 -0.05271557 -0.02773211 -0.04636534 -0.04820717 -0.05156133
 -0.01743892 -0.02189527 -0.03273018 -0.06014642 -0.07033192 -0.04238591
 -0.01541071 -0.03760757 -0.03212615 -0.01786997 -0.09052666  0.05694386
 -0.04375692  0.0221329  -0.07001097  0.02935051  0.03906154  0.09422911
  0.04737223 -0.03762742 -0.0496131  -0.07061744  0.04282872 -0.05494421
 -0.06614736 -0.05496918 -0.05151686  0.02380006 -0.03203976  0.03350573
 -0.02582704  0.08326085 -0.01845188  0.06259598 -0.05424947  0.03794856
 -0.02584525  0.01130682 -0.0480344   0.01142581 -0.05593971 -0.06952918
  0.06602852 -0.05390674 -0.04749139 -0.05317758  0.02983168 -0.03342272
 -0.02493413 -0.03601622 -0.04488856 -0.01234324  0.01871895 -0.04641706
 -0.04951549  0.08067626 -0.00033616 -0.04421381]
[-0.04450986  0.02933462  0.05045382  0.03767812  0.03812997 -0.07383399
  0.04862513  0.07064909 -0.06632429  0.02666338  0.01653338  0.05258579
  0.04313457  0.05602848 -0.12010262  0.05016829 -0.00909725 -0.12155288
  0.02855501 -0.10469454 -0.07555438 -0.07677442 -0.05949884 -0.10362333
 -0.076804    0.0394348   0.02870225  0.04424738 -0.08287425  0.0526518
  0.03980205  0.02562898  0.0337144  -0.05131757  0.05544823 -0.1027986
  0.04018889 -0.17739762  0.04044899 -0.05601377  0.03638991 -0.04807843
  0.05099485 -0.16762012  0.02791137 -0.01979198  0.0369141   0.05566632
 -0.06889202 -0.0394447   0.04277405  0.03868093 -0.01649968  0.0511173
  0.05061458 -0.26412746  0.07947594  0.03500791 -0.08609337  0.04536014
  0.03246611 -0.06088038 -0.07760713 -0.14765936]
[ 0.06886929 -0.06397683 -0.07829523 -0.06424829 -0.07876623 -0.01502967
 -0.07213162 -0.09375896  0.00295447 -0.08803952 -0.12625995 -0.04882375
 -0.06573381 -0.06800154  0.02110417 -0.07416948 -0.10037788 -0.04138883
 -0.10255472  0.05947306 -0.05058144 -0.02683184 -0.02570526  0.11862156
  0.02136755 -0.07457973 -0.06852126 -0.10054495  0.0097905  -0.04175169
 -0.08703899 -0.10025811 -0.07667624  0.02326237 -0.06645034  0.09843949
 -0.07448436  0.158312   -0.08026274  0.04201153 -0.08297554 -0.02401732
 -0.07121436 -0.01634018 -0.07407869 -0.06744493 -0.11603749 -0.09399831
 -0.09711484 -0.13147067 -0.07550085 -0.07098554  0.01840506 -0.10516417
 -0.10302624 -0.07567383 -0.05870387 -0.04877021  0.0643921  -0.05433478
 -0.08869127  0.02602055  0.00195474  0.06290463]
[-0.05011506  0.01921795  0.01137561  0.01992191  0.02138276 -0.04637878
  0.01491662  0.01039004 -0.06873816  0.0198072   0.02192621  0.01837813
  0.01640784  0.01714262 -0.03724459  0.01699024  0.02338093 -0.1013501
  0.01096971 -0.049654   -0.03260893 -0.02295817 -0.05984209 -0.04371708
 -0.02889436  0.02146382  0.02115488  0.02651205 -0.01392489  0.01783463
  0.02171637  0.02735608  0.02171111 -0.07729493  0.01856898 -0.0704521
  0.01743025 -0.09049233  0.01967592 -0.13569239  0.01924854  0.02308317
  0.01293659 -0.09119433  0.01939187 -0.05146789  0.03349838  0.04376188
 -0.06809171 -0.0180449   0.0195669   0.021638   -0.07613907  0.0282719
  0.01579415 -0.08637699  0.01472861  0.04047975 -0.07427455  0.01989421
  0.01803455 -0.049151   -0.0688376  -0.03559456]
[-0.08860236  0.0273331   0.0136371   0.02663021  0.03674125  0.02457077
  0.02461908  0.02661868 -0.02368594  0.02756183  0.00145744  0.02289891
  0.02835448  0.0275175  -0.1006693   0.02584168  0.03442892 -0.0718531
  0.02367847 -0.09295557 -0.02989291 -0.07740301 -0.07269677 -0.11498904
 -0.08197498  0.02954316  0.02694724  0.0303195  -0.11180806  0.02423113
  0.02690923  0.03210015  0.0256081  -0.11985462  0.02528257 -0.03038696
  0.02559032 -0.13684106  0.02302988 -0.12552793  0.02774517 -0.05550702
  0.02458435 -0.10521407  0.02902962 -0.03446524  0.02371153  0.0386471
 -0.02764579  0.04883886  0.02843383  0.02902005 -0.0512821   0.04366553
  0.02690628 -0.17060433  0.02740101  0.03845442 -0.02263993  0.02672157
  0.02580252 -0.0904766  -0.07236875 -0.21618828]
[ 0.1368729  -0.05466909 -0.04306059 -0.08755534 -0.0494641   0.08799071
 -0.07434966 -0.04262757  0.06904911 -0.02857324 -0.26575536 -0.07325334
 -0.05114624 -0.05154843 -0.07839438 -0.02964001  0.01842634 -0.01838808
  0.01151476 -0.08045701 -0.01875594  0.07558074  0.03783698  0.05262039
  0.0854786  -0.04514867 -0.05615933 -0.0060511  -0.06664019 -0.12584542
 -0.05536045  0.0369318  -0.04930001  0.00953719 -0.02544771  0.01306485
 -0.05827379  0.04599817 -0.05405024  0.02654133 -0.04347802  0.00945984
 -0.03907869 -0.07813629 -0.05361645  0.02146385 -0.08869773 -0.14003538
  0.11661233  0.1781     -0.04953301 -0.06269795  0.15952949 -0.08833147
 -0.04851317 -0.0745499  -0.03232285  0.16414179 -0.01146804 -0.08053517
 -0.05635179  0.00286657  0.05387641 -0.12830065]
[-0.04464855  0.02887332  0.08126856  0.01997662 -0.01981795 -0.29801133
  0.07346081  0.08183321 -0.32187164  0.044316   -0.13134348  0.03781198
  0.03793963  0.05243716 -0.17684142  0.0579555   0.00988048 -0.25981894
  0.03590402 -0.24066584 -0.2144964  -0.3366316  -0.21680108 -0.10205857
 -0.21168503  0.02654251  0.00682535  0.02631827 -0.06473129 -0.0506112
  0.00783201  0.06543476  0.03008233 -0.08962754  0.04337241  0.03611066
  0.05784271 -0.08984708  0.05394058 -0.06746624  0.03899349 -0.25460365
  0.0656867  -0.29341438  0.00157796 -0.1631114  -0.06192826 -0.09069875
 -0.14158444 -0.27060774  0.02698065  0.03642033 -0.33220312  0.0374328
  0.08351257 -0.4395464   0.06088436  0.15066272 -0.20633155  0.01604005
  0.02474534 -0.19102213 -0.28910366 -0.2831725 ]
[-0.05052519  0.02886523  0.01616644  0.02956847  0.03367617 -0.03421815
  0.02540826  0.02481217 -0.01283559  0.03089886 -0.00435159  0.02287804
  0.02760071  0.03088333 -0.09141462  0.02621582  0.03065436 -0.04116957
  0.01869037 -0.11108136 -0.01872138  0.00965066  0.00701739 -0.05766691
 -0.0098745   0.03195068  0.0257267   0.02813924 -0.07445412  0.00900971
  0.02902486  0.0381963   0.02686987 -0.06895203  0.02903425 -0.10180324
  0.02733195 -0.12497799  0.02434506 -0.01379798  0.03164239 -0.07235363
  0.02507429 -0.15141277  0.02653857 -0.04916793  0.04310524  0.02091363
  0.01619877 -0.03626672  0.0282363   0.03217681 -0.06076097  0.03005064
  0.02292963 -0.1376063   0.02664361  0.06009054 -0.03838036  0.02779431
  0.02688344 -0.03891592  0.01116555 -0.21029282]
[ 0.00319732  0.03192881  0.02657739  0.03057375  0.03319096  0.00772848
  0.03133159  0.03064477  0.03766197  0.0295357   0.00256039  0.03180244
  0.03092238  0.03404347 -0.02194855  0.03182269  0.03840562 -0.02479126
  0.03205021 -0.10004434 -0.11326341 -0.08557298 -0.08031969 -0.08743843
 -0.09482625  0.03102159  0.03006579  0.03561568 -0.04276795  0.04811596
  0.03592853  0.0355383   0.03131756 -0.09165958  0.03633322 -0.04380073
  0.03135062 -0.13546987  0.03009813  0.02115972  0.03018018 -0.11202493
  0.02809542 -0.1297807   0.02848199 -0.00513701  0.01314038  0.01323624
 -0.07457618 -0.04792335  0.03143231  0.02869448 -0.05906902  0.04232055
  0.03226598 -0.14679426  0.03473974  0.07511513 -0.01051729  0.03052407
  0.02832549 -0.03757323 -0.01234093 -0.08854015]
[-0.06958033  0.02572324  0.02776338  0.02860065  0.0298425  -0.01794158
  0.02820281  0.03642957 -0.08023214  0.03009836 -0.00076856  0.02786791
  0.04008519  0.03453463 -0.09418602  0.02728316  0.01931127 -0.01528792
  0.02572514 -0.05673496 -0.01124337 -0.05714475  0.03620053 -0.01986731
 -0.04333268  0.03318111  0.03336355  0.02310217 -0.09286163  0.00962722
  0.03213121  0.02984718  0.02784261 -0.13658011  0.0288407  -0.04842443
  0.03140095 -0.071991    0.0336312  -0.06455245  0.02991283 -0.03224644
  0.02414757 -0.05314396  0.03229032 -0.02592177  0.02343031  0.02093233
 -0.01363424 -0.02715022  0.02707391  0.03018398 -0.06582645  0.03653397
  0.03198053 -0.11093218  0.04122857  0.03714783 -0.04876234  0.0297821
  0.03087613 -0.03223244 -0.00613891 -0.05785979]
[ 0.02087557 -0.04562486 -0.07544181  0.00088696 -0.05233389 -0.01033117
 -0.00133436 -0.0394615   0.05595892 -0.00864425 -0.19635004  0.010969
 -0.01398413 -0.06172924  0.03814662 -0.03166661 -0.12199734  0.07923549
 -0.04379835  0.01497607  0.07257389  0.04877688  0.00282313  0.05804833
  0.01426461 -0.04484536 -0.03222987  0.00647488  0.07832754 -0.08245966
 -0.02175228 -0.04609911 -0.03147997  0.01283591 -0.00698499  0.00979371
 -0.04867828 -0.03375311 -0.03974656  0.03881612 -0.00020379  0.04413825
 -0.0210274   0.07109364 -0.07008013  0.10212929 -0.08147613 -0.0680112
  0.10725842  0.0485053  -0.0420706  -0.02476525  0.09569116 -0.00305947
 -0.08660369  0.05686617  0.01163571 -0.00529253 -0.0060714  -0.00915524
 -0.03480528  0.02703756  0.10044686  0.029416  ]
[-0.08031785  0.00735301 -0.00846215  0.01207561  0.00305138 -0.06476656
  0.01052155  0.00076608 -0.06518058  0.00771023  0.03009549  0.00860531
  0.00677289  0.00716198 -0.14008278  0.00506946 -0.040853   -0.02424012
 -0.00463567 -0.16952352 -0.07391798 -0.0645972  -0.11714001 -0.05516358
 -0.0499078   0.00858757  0.00743487  0.01050514 -0.11640716 -0.01126658
  0.00564623  0.00312268  0.00883242 -0.09624153  0.0081572  -0.04419083
  0.00557629 -0.10653136  0.00500789 -0.07400151  0.0099637  -0.1101285
  0.0050491  -0.2087314   0.00480764  0.01017943 -0.00338404  0.00041779
 -0.04474474 -0.08977491  0.00590329  0.00843156 -0.04316256  0.00523947
  0.00862968 -0.17477418  0.00455492 -0.03847973 -0.06917681  0.00358855
  0.00986759 -0.08094567 -0.01251278 -0.25793716]
[-0.01549239 -0.07073133 -0.05519386 -0.06074439 -0.07349333  0.12015787
 -0.06126175 -0.02697625  0.06269901 -0.09791618 -0.06909379 -0.04065524
 -0.06383672 -0.06416081 -0.05649349 -0.06144023 -0.15441564  0.01820917
 -0.08071954 -0.08655272  0.02734659  0.03581427  0.06048736 -0.02674312
 -0.0425466  -0.0871639  -0.06038804 -0.0328721  -0.00926772 -0.0771069
 -0.05521148 -0.11885406 -0.06721058  0.05772535 -0.05628937  0.06991243
 -0.0753324   0.00802662 -0.07323112  0.09465904 -0.08782011 -0.06094959
 -0.04881885 -0.04757426 -0.08544824  0.00938463 -0.0723882  -0.12233824
  0.09371238 -0.06097717 -0.0682888  -0.07575128 -0.0018409  -0.08016763
 -0.07199454 -0.02578448 -0.05066772 -0.15678594 -0.0008471  -0.04713121
 -0.06431296  0.07555582 -0.04531997 -0.05162572]
[-0.09897737  0.02216454  0.02437565  0.01993691  0.02415259  0.0370447
  0.01896006  0.01525522 -0.01464625  0.02237111  0.0143021   0.01672408
  0.02184854  0.01845894 -0.08453966  0.01854482  0.07684154  0.03186491
  0.0216128  -0.06603646  0.00372805  0.0234885  -0.00787864 -0.06693539
 -0.01720036  0.02185924  0.020658    0.02239753 -0.01864369  0.01366642
  0.01981571  0.03516179  0.02136295 -0.07716513  0.01905926 -0.09513094
  0.02208863 -0.1588229   0.02008791  0.00826798  0.02225992 -0.07432985
  0.01782946 -0.08214622  0.0201082   0.00502555  0.00270366  0.00157315
 -0.05383026  0.03129143  0.0205542   0.0201681   0.01032509  0.0025807
  0.01868133  0.03315588  0.01335594  0.1712669  -0.05406783  0.01842998
  0.01912217  0.00708828 -0.00493002 -0.10556668]
[-0.07645798  0.02873055  0.03419445  0.0287828   0.03389352 -0.04803523
  0.03084135  0.04074859 -0.05388952  0.03017822  0.04733781  0.0368443
  0.02981473  0.0378752  -0.03816208  0.03478608  0.01626246 -0.12686557
  0.02653593 -0.05004618 -0.13114932 -0.04011638 -0.07590923 -0.01098476
 -0.06956645  0.0323768   0.02675384  0.03102556 -0.00836324  0.0337058
  0.03115268  0.03721373  0.02908082 -0.10166138  0.034529   -0.01616119
  0.03105817 -0.14105761  0.02980581 -0.08294079  0.03119533 -0.07000675
  0.03332309 -0.09150691  0.02820806 -0.09248985  0.06128529  0.00975961
 -0.01327269 -0.13539153  0.03271913  0.0304042  -0.09317052  0.05166424
  0.03537604 -0.18313451  0.04119973  0.04730918 -0.0858922   0.03017742
  0.02759923 -0.02829865 -0.08013333 -0.0930029 ]
[-0.0980061  -0.00519093 -0.00793135 -0.00773219 -0.00959321 -0.1359635
 -0.00056442  0.00275484 -0.14127855 -0.00136186  0.09280933 -0.00218929
 -0.00448961 -0.00256792 -0.10362522  0.00109803 -0.03121326 -0.10448126
 -0.01416811 -0.0399144  -0.12233877 -0.0910359  -0.10974022  0.00235763
 -0.08301181 -0.00566979 -0.00588216 -0.00409574 -0.04171031  0.02360024
 -0.00818396  0.0020718  -0.00394378 -0.09585044  0.00525721 -0.07629148
 -0.00603652 -0.049621   -0.00809682 -0.07046846 -0.00551494 -0.11092034
 -0.00449143 -0.10717653 -0.00499547 -0.0567857   0.05581922  0.07318036
 -0.08462379 -0.12935047 -0.00766196 -0.00341348 -0.09086227  0.00631698
  0.00037018 -0.21811357 -0.00839321 -0.02173587 -0.11431404 -0.00838848
 -0.00427692 -0.1023583  -0.10488157 -0.08669105]
[-0.14522961 -0.02419596 -0.03591598 -0.04090507 -0.04810643 -0.18925309
 -0.03963128 -0.06252584 -0.17521425 -0.02814965  0.20862797 -0.03912323
 -0.02948644 -0.0369282  -0.13330287 -0.02486081  0.02110533 -0.17960835
 -0.02249442 -0.09401993 -0.14770527 -0.11382401 -0.1162926  -0.14104253
 -0.18424012 -0.04398365 -0.02138945 -0.0155141  -0.03686747 -0.0068425
 -0.04595403  0.00096501 -0.014408   -0.02892846 -0.02347955  0.03412372
 -0.02910315 -0.12805235 -0.03545489 -0.11309285 -0.03753283 -0.12830274
 -0.03080071 -0.22047701 -0.03491407 -0.0308129   0.02287851  0.06920234
 -0.1615802  -0.2027113  -0.03608653 -0.04780662 -0.17759682 -0.05934771
 -0.05009348 -0.26069158 -0.07034523  0.28434557 -0.11686228 -0.04492645
 -0.03300108 -0.12353554 -0.11809243 -0.131317  ]
[-0.007549    0.04044049  0.0223848   0.03980174  0.04330648 -0.04966795
  0.02740085  0.02434018 -0.05101071  0.03858623  0.00123699  0.02646831
  0.02393398  0.03498995 -0.05629218  0.02866092  0.03650554 -0.007506
  0.01885468 -0.0327909  -0.02386824  0.0185237  -0.0815645  -0.05451449
  0.00301764  0.0430202   0.03844238  0.03271415 -0.10032372  0.01453451
  0.04196901  0.04425953  0.03038688 -0.07939645  0.03008359 -0.11220691
  0.03117663 -0.14742664  0.01659608 -0.12940054  0.03907365 -0.02806067
  0.02283408 -0.09671806  0.03706505 -0.05311744  0.02368715  0.04320438
 -0.10624114 -0.01530829  0.03744889  0.04596266  0.00676634  0.03236577
  0.0250945  -0.02010544  0.03372682  0.04874609 -0.11825075  0.03567223
  0.03054918 -0.08275092 -0.04364806 -0.08396059]
[-0.06996936  0.0228608   0.03510284  0.02096235  0.03066691 -0.13120583
  0.01736592  0.00926143 -0.05898201  0.03447548 -0.03504291  0.01535807
  0.03937444  0.03680552 -0.08024521  0.02282306  0.04865386 -0.00492939
  0.02050118 -0.06202431 -0.06615133 -0.00382652 -0.05845839 -0.15876189
 -0.08219875  0.0322607   0.02703424  0.03122287 -0.04571603 -0.00924778
  0.01535332  0.04224688  0.01972776 -0.06980219  0.02470928 -0.10765328
  0.02792274 -0.04553001  0.02246565 -0.0543958   0.03876176 -0.05473453
  0.02389274 -0.03532931  0.03444012  0.00124334  0.00299486 -0.01903916
 -0.05898554 -0.11442047  0.01405924  0.03167022 -0.03450064 -0.00342376
  0.01876909 -0.04727654  0.01621336  0.05877744 -0.05633228  0.02393723
  0.03070783 -0.05552354 -0.0572768  -0.12346549]
[ 0.08134366 -0.01998162  0.01338548 -0.02436782 -0.03199919  0.05717257
 -0.01406567 -0.00442511  0.0868694  -0.02462571 -0.01277808 -0.02380244
 -0.03112793 -0.02912372  0.00983626 -0.02156171 -0.03236299  0.02586945
 -0.02353652  0.05057143  0.01886988 -0.01698148 -0.03113126  0.09151898
  0.02641577 -0.03571326 -0.02410639 -0.01343522  0.03831454 -0.03329619
 -0.01753504 -0.04447087 -0.02295933  0.05668438 -0.00631085  0.06930376
 -0.01603256  0.03667928 -0.02525654  0.04756448 -0.03394724  0.00560086
 -0.00591708 -0.00101303 -0.0445943   0.02310614 -0.07767047 -0.02610628
  0.02704721 -0.00244039 -0.02164915 -0.03221804  0.01866713  0.00781939
 -0.02489988 -0.04631926 -0.02170501  0.02854016  0.08904047 -0.02167469
 -0.02711345 -0.05044506  0.01864159  0.01216913]
[ 0.11288997 -0.05982433 -0.04006572 -0.07319317 -0.05992156  0.12121186
 -0.06639807 -0.07776445  0.0379075  -0.05205403 -0.07650276 -0.08983677
 -0.06649273 -0.06477822 -0.00215735 -0.07204163 -0.01249554  0.00043989
 -0.01863697  0.06306385 -0.01302369 -0.02081317  0.14320026  0.06473029
 -0.0127362  -0.0661929  -0.05858989 -0.0574814   0.03976484 -0.12814672
 -0.0655482  -0.06241714 -0.06511413  0.0222259  -0.08412914  0.01315315
 -0.06149612  0.06774386 -0.05622194  0.04487958 -0.05138107  0.01506318
 -0.08259206  0.02605245 -0.05534398  0.01988902 -0.1237917  -0.18567696
  0.03964397  0.08181766 -0.06897291 -0.06387683 -0.04993699 -0.05341217
 -0.0950797  -0.05470888 -0.07967722 -0.04910952  0.04319973 -0.074891
 -0.06074768  0.04988338  0.04122622  0.07553478]
[-0.06553893  0.0236933   0.01988209  0.03411213  0.04872978  0.00514073
  0.03245776  0.04061151 -0.1057272   0.03426006  0.02247866  0.03337371
  0.03028401  0.0348337  -0.11559922  0.03380889  0.05594276 -0.06479992
  0.03499113 -0.06171146 -0.01570358  0.01686878  0.0137967  -0.12556578
 -0.04255932  0.0411277   0.03373766  0.02878664 -0.02079751  0.04601471
  0.06142358  0.04376689  0.03901769 -0.10411908  0.03750422 -0.12996788
  0.02995723 -0.08313712  0.03398712 -0.03634119  0.03185816 -0.10952054
  0.03283136 -0.07729509  0.01035581 -0.03514     0.02174776 -0.0129577
  0.01537208 -0.12036743  0.03796337  0.03721939 -0.00546186  0.033374
  0.03700682 -0.07129379  0.04467521  0.05632529 -0.01321141  0.03748937
  0.03524401 -0.00730113 -0.04651546 -0.0325746 ]
[ 0.0193483   0.02602159  0.02692784  0.02975198  0.03263326 -0.09476681
  0.02511893  0.03325009 -0.01868033  0.02690705  0.0455679   0.02953398
  0.01954954  0.03787038 -0.01859241  0.02574422  0.03571982  0.01752242
  0.02656646 -0.07298961 -0.06577425 -0.07313609 -0.0749644  -0.11951911
  0.06496818  0.0272914   0.02964635  0.04573704 -0.0521709   0.01180074
  0.04118701  0.02896296  0.02656073  0.00522979  0.03873342 -0.03802749
  0.02578905 -0.08072951  0.0260471  -0.0826412   0.02959482 -0.06222076
  0.02838467 -0.1172062   0.03350062 -0.04393342  0.04638773  0.03777322
 -0.06954025 -0.02799576  0.03153969  0.02694848 -0.04700966  0.03174104
  0.02625754 -0.02396488  0.03839156  0.04278988 -0.03076255  0.03048843
  0.02553505 -0.0169821  -0.05480835 -0.09968118]
[-0.07468297  0.03234342  0.01686272  0.03326451  0.03966033 -0.04908959
  0.03041703  0.03741985 -0.05368492  0.03235771 -0.00320663  0.03058169
  0.03356402  0.03394146 -0.11323741  0.032768    0.03110179 -0.05732956
  0.03112481 -0.05264101 -0.04831768  0.02040212 -0.09337718 -0.02912007
 -0.04525512  0.03542299  0.03130981  0.03314113 -0.08788323  0.03071314
  0.03362433  0.0361057   0.03092232 -0.08097129  0.03169228 -0.10669763
  0.03215844 -0.10797121  0.03117454 -0.02335952  0.03368667 -0.08718638
  0.03098632 -0.0285067   0.03306018 -0.09888605  0.03902655  0.03242383
 -0.11320909 -0.04359092  0.03357294  0.03451242 -0.11516909  0.05120958
  0.03387604 -0.10726329  0.04165444  0.03274231 -0.08092505  0.0336014
  0.03117418 -0.01098482 -0.0071827  -0.08137333]
[-0.0077598  -0.12228318 -0.11442796 -0.08404537 -0.06378146 -0.04581422
 -0.09062159 -0.07162283  0.03301059 -0.11307257  0.02692186 -0.07812717
 -0.09273935 -0.09856863  0.01934179 -0.07650707 -0.10431291 -0.08018085
 -0.10282121 -0.01823349  0.00205902 -0.05621121 -0.0046319   0.10903919
  0.02618247 -0.098399   -0.10047793 -0.10303656  0.0787836  -0.09981386
 -0.07681356 -0.11315383 -0.08225729  0.12130608 -0.05115992  0.08124932
 -0.08984102  0.1203579  -0.09072552  0.03826166 -0.11332052  0.01843284
 -0.08861774  0.05608432 -0.09951863  0.02670624 -0.05320088 -0.07254845
  0.09004123 -0.07133483 -0.11138893 -0.11302091 -0.06714956 -0.01292855
 -0.11237629 -0.10979062 -0.07976598 -0.1355245  -0.04546556 -0.09397517
 -0.1120273  -0.03095232 -0.0975606   0.02080384]
[-0.06567913  0.02458347  0.02261814  0.02779698  0.0341302  -0.0034105
  0.02577752  0.02139127 -0.07565334  0.02871613  0.02224599  0.02302939
  0.02572544  0.02891247 -0.0506168   0.02755919  0.02419221 -0.03831488
  0.02059883 -0.04400633 -0.06396139 -0.01281449 -0.0841265  -0.14526477
 -0.04967109  0.03180219  0.02646328  0.02615329 -0.05740588  0.05182146
  0.02923894  0.033718    0.02576649 -0.08849512  0.03320759 -0.06887651
  0.02627551 -0.03757485  0.02235206 -0.10652275  0.0284371  -0.05213793
  0.02516828 -0.08673762  0.02891973 -0.03100479  0.02206577  0.02565034
 -0.03025862 -0.07963147  0.02885921  0.02933682 -0.05322015  0.03187823
  0.02503617 -0.13514017  0.03165069  0.05038743 -0.01616351  0.02745058
  0.02643888 -0.02990159 -0.07613326 -0.04113975]
[-0.04456016  0.04045108  0.04041669  0.03596139  0.03800651 -0.00425185
  0.04271735  0.04384816 -0.05692355  0.04185602 -0.01184723  0.03697642
  0.04366244  0.04342513 -0.04667916  0.04101245  0.04542489 -0.041854
  0.03058357 -0.06254792 -0.05497989 -0.00027905 -0.09320847 -0.03861304
 -0.0848906   0.04086138  0.0342798   0.04284554 -0.09100254  0.03269074
  0.0287388   0.05179576  0.03713868 -0.12361662  0.04079289 -0.12110613
  0.03983608 -0.14539522  0.03911753 -0.06097026  0.04096848 -0.07710694
  0.03844534 -0.03012842  0.03533216 -0.07209561  0.00068714  0.01998277
 -0.12413697 -0.04175611  0.03892035  0.03788519 -0.09936509  0.04913124
  0.0424513  -0.08688384  0.03943951  0.08871548 -0.07671747  0.03437377
  0.03536134 -0.03895959 -0.02572803 -0.0805441 ]
[-0.03904867  0.03306232  0.03167442  0.03314804  0.03891966 -0.08000314
  0.03487762  0.02585254 -0.05161137  0.03411487 -0.02044917  0.02544142
  0.04516845  0.02618834 -0.00998618  0.03244721  0.04932789 -0.0071015
  0.02050315 -0.03969959 -0.09292399 -0.02014515 -0.07645629 -0.11262443
 -0.07089236  0.03334765  0.03305049  0.03874038 -0.02452929  0.0316582
  0.02989917  0.03618101  0.03864824 -0.01668813  0.03882228 -0.14690499
  0.02688739 -0.05995503  0.03497931 -0.0550993   0.03948234 -0.03756126
  0.02582277 -0.15930104  0.04208252 -0.0504976   0.00225733  0.02465
 -0.03476242 -0.07215461  0.03698808  0.03409    -0.06250171  0.03485762
  0.02473024 -0.05233616  0.02673352  0.06749404 -0.03467206  0.0331143
  0.03617023 -0.04334797 -0.06847514 -0.10723901]
[-0.02816047  0.03126106  0.02818311  0.03205759  0.03700902 -0.04881091
  0.03064975  0.03701246 -0.09045361  0.03119     0.0565648   0.03170234
  0.03403224  0.03443563 -0.06545383  0.03004209  0.02072386 -0.08538212
  0.02937125 -0.06789843 -0.10859019 -0.04933444 -0.04141388  0.01330196
 -0.0118248   0.03367265  0.02988829  0.02352773 -0.03198808  0.03232422
  0.02944449  0.03775693  0.02835382 -0.10641205  0.03101619  0.01639595
  0.0295775  -0.07779673  0.0290487  -0.07952372  0.03111926 -0.10071271
  0.02563824 -0.06589451  0.0314145  -0.05237881  0.05802164  0.00859621
 -0.07402477 -0.160116    0.03312366  0.03390452 -0.06937843  0.03847913
  0.03116194 -0.10316616  0.03454447  0.02157531 -0.015981    0.03178363
  0.03044518 -0.00804922 -0.03451686 -0.03896552]
[ 0.11816853 -0.02671813 -0.0241316  -0.02336175 -0.05032245  0.01388318
 -0.03678852  0.00261915 -0.02158153 -0.03154709 -0.03669871 -0.01929316
 -0.07108192 -0.05078832  0.05589974 -0.03291541 -0.07653461  0.06164779
  0.00578504  0.00664626 -0.00910538 -0.03434856  0.01602577  0.05563547
 -0.00724663 -0.01560088 -0.02822016 -0.04721583  0.06533115 -0.03688286
 -0.03048831 -0.06429219 -0.04220944 -0.03795553 -0.03208603  0.07451445
 -0.04853659 -0.0101828  -0.04794518  0.07280879 -0.03625754  0.00448359
 -0.02576921 -0.08060531 -0.04236589  0.08031093 -0.03230128 -0.00092653
  0.02751107 -0.01874107 -0.05274081 -0.04738073  0.03574085 -0.01693166
 -0.03888995 -0.03873432 -0.0251464  -0.04762661  0.03487371 -0.02410289
 -0.0283901  -0.05574784  0.06152604  0.01672279]
[ 0.01423634  0.02968612  0.0213987   0.02752893  0.03196831 -0.06354451
  0.02249399  0.01588611 -0.11063775  0.03322595  0.00725492  0.02242381
  0.02737105  0.02253647 -0.04954227  0.02620266  0.04678183 -0.01955479
  0.02132907 -0.05806323 -0.07023624 -0.07291803 -0.04515094 -0.00923641
 -0.05961435  0.02904508  0.02352828  0.03173826 -0.11254082  0.0415098
  0.02519987  0.03998584  0.02936344 -0.05282218  0.01803291 -0.06929273
  0.03072043 -0.2405369   0.02422622  0.0148782   0.02935819 -0.1151434
  0.01882399  0.01509714  0.02646008  0.00673903  0.01377418  0.01786096
 -0.08537799 -0.07872254  0.02653542  0.02931439 -0.05540716  0.0107822
  0.0262055  -0.12991554  0.02710236  0.06917911 -0.06993733  0.01957052
  0.0280026  -0.08075593 -0.10742449 -0.04030417]
[ 0.04608133 -0.05256477 -0.0424789  -0.07381847 -0.0859552   0.01431333
 -0.06238262 -0.14055277  0.08267885 -0.07108841 -0.25234908 -0.06680618
 -0.05392579 -0.06284286 -0.00980639 -0.07613488 -0.02807482  0.03213322
 -0.03069388 -0.00389576 -0.01752763  0.0151648   0.04238912  0.16719037
  0.00524511 -0.07778508 -0.06897531 -0.03832364  0.05391791 -0.13508065
 -0.07485508 -0.07464574 -0.05193818  0.00455065 -0.08281182  0.05400101
 -0.05124104  0.00227098 -0.06988411  0.07621313 -0.07067355 -0.04941358
 -0.05071751  0.04552705 -0.07544059 -0.04846858 -0.1203512  -0.14520025
  0.10760632 -0.09751829 -0.07989024 -0.06922765  0.01729684 -0.05994604
 -0.08112015  0.02779489 -0.02219907 -0.01819665  0.00848061 -0.08414111
 -0.05855445 -0.02260667  0.11631763  0.03958758]
[-0.01778932 -0.0926318  -0.0813961  -0.06192443 -0.04290135 -0.0026115
 -0.0696539  -0.07574897 -0.07340277 -0.09204015 -0.00025082 -0.04563265
 -0.0863346  -0.05534671  0.06229317 -0.08398975 -0.1385917  -0.03201636
 -0.08888712  0.04897587 -0.01671053  0.02013045  0.05702436  0.052543
 -0.0065756  -0.06699252 -0.07164852 -0.08829329  0.02944035 -0.02292316
 -0.04602164 -0.12187948 -0.06947772  0.00895212 -0.0604071   0.09003254
 -0.06893288  0.12339635 -0.07171009  0.00448862 -0.07844     0.06470582
 -0.05597708  0.10833096 -0.07939532  0.0309884  -0.09341027 -0.08312522
 -0.01430239 -0.01762806 -0.07974242 -0.071649   -0.02763664 -0.10137385
 -0.05725662 -0.13069661 -0.07682132 -0.13760293  0.04409195 -0.05319961
 -0.07385819 -0.00521563 -0.03088897  0.04507011]
[ 3.66155356e-02  1.21445339e-02 -1.82025041e-02 -1.11865988e-02
  7.56636786e-04  9.67825726e-02  1.45611484e-02  8.03459994e-03
  9.94827226e-02  1.85182970e-02 -5.49426854e-01 -3.09181008e-02
 -2.39651650e-02 -2.67884023e-02  1.89572684e-02 -2.01678835e-02
  7.22534209e-02  1.44123137e-01 -4.80084680e-02  6.94712922e-02
  1.50748864e-01  1.06834464e-01  4.44623344e-02  3.09730098e-02
  1.06793955e-01  2.22872756e-02 -9.53819789e-03 -3.47596891e-02
  5.45482710e-02 -1.28881812e-01 -1.29863406e-02  5.03792167e-02
  7.74420681e-04  4.96926643e-02  5.40927518e-04 -3.77514996e-02
  1.33252218e-02  3.58587243e-02 -4.25786003e-02 -1.93389580e-02
 -8.88402981e-04  1.87685676e-02 -5.92288785e-02  1.34116560e-01
  1.20788021e-02  1.56865921e-02 -1.41267851e-01 -2.09395409e-01
  5.09526245e-02  1.90088823e-01 -3.86533178e-02  1.63079482e-02
  1.30336240e-01 -1.04914837e-01 -2.44844873e-02  2.75246888e-01
 -7.83342049e-02  7.94935226e-02  1.29503861e-01 -3.48008536e-02
  1.36680948e-03  9.27534029e-02  1.07268646e-01  1.57972455e-01]
[ 0.04194526 -0.01042992 -0.08337225 -0.02012134 -0.05149209  0.04292161
 -0.02973118 -0.0669868   0.08897741  0.00470614 -0.2241656  -0.0434795
 -0.03445965 -0.02476888 -0.04638674 -0.0616922   0.01629419  0.08508478
 -0.04013344 -0.02121509  0.07134473  0.07737327 -0.02991216  0.08588948
  0.08008563 -0.01973607 -0.02451773 -0.05948118 -0.0382379  -0.05733409
 -0.04200021  0.03257231 -0.04193568  0.02117667 -0.07401764  0.07890877
 -0.02397414  0.02239851 -0.05368208  0.02803115 -0.02248577 -0.08871781
 -0.04626169 -0.00183107 -0.00681139 -0.0325745  -0.12912102 -0.14331666
  0.07207593  0.00094393 -0.05281787 -0.01900462  0.09442721 -0.05100418
 -0.04428049  0.10314509 -0.04572074  0.08374289  0.05437613 -0.03091293
 -0.02876231  0.05046249  0.06249346 -0.0854151 ]
[-0.06249589  0.0360209   0.06989316  0.01029441  0.01080808 -0.02406186
  0.04297709  0.04391589 -0.00967223  0.03856268 -0.02052433  0.02232613
  0.0425484   0.02585866  0.15151842  0.03809776  0.15492244 -0.0169355
  0.05070275  0.13180085  0.05971533  0.04557347  0.01960275 -0.08128022
  0.00856562  0.01787829  0.01486943  0.04033834  0.07615925  0.01712506
  0.01219676  0.0559371   0.03274654  0.00469204  0.03750389 -0.07204816
  0.03985303 -0.06704527  0.04847527 -0.11046799  0.02925095  0.04966698
  0.04643735  0.20289487  0.01600691 -0.00377106  0.0061159  -0.01619493
 -0.10875738  0.08978881  0.02701758  0.00704036 -0.00847809  0.04517613
  0.05914825  0.16812512  0.02160682  0.23109517  0.0828153   0.00372339
  0.019624   -0.00708606  0.0384894   0.12112256]
[-0.0710227   0.02272009  0.04005413  0.02396264  0.0308871  -0.07503811
  0.02098287  0.01972521 -0.07057358  0.02534049  0.00561554  0.021396
  0.01967431  0.02434218 -0.0522432   0.02268174  0.04197619 -0.04736356
  0.02328712 -0.03971845 -0.03927086 -0.08458872 -0.0534372  -0.08107956
 -0.10535985  0.03029047  0.02676858  0.0297467  -0.02335285  0.01581059
  0.0239171   0.03617074  0.02235269  0.01258308  0.02697948 -0.09107879
  0.02507353 -0.05834047  0.01847217 -0.08902431  0.02429169 -0.03099115
  0.0196868  -0.00171225  0.03591276 -0.02732366  0.02375145  0.03636602
 -0.05331714  0.02756363  0.02299335  0.02588007 -0.03045144  0.04257195
  0.02612732 -0.05203522  0.02210189  0.03892725 -0.02866813  0.02353146
  0.02250685 -0.01689221 -0.00226356 -0.036406  ]
[-0.08442026  0.03020277  0.02914387  0.03491048  0.03823213 -0.07007229
  0.03450935  0.03368809 -0.03385575  0.03437525  0.06993107  0.04060874
  0.03991807  0.03319119 -0.04574663  0.03390162  0.0360572  -0.09272093
  0.02765737 -0.0670305  -0.04038587 -0.01902429 -0.03845904 -0.02902842
 -0.03303454  0.04030609  0.03128903  0.0342628  -0.03037928  0.04990763
  0.03867799  0.03798454  0.03410573 -0.1083109   0.02947468 -0.02039967
  0.03143844 -0.09986731  0.03160727 -0.0760695   0.03385745 -0.04170937
  0.03785278 -0.09243217  0.03297185 -0.05641678  0.04504412  0.04588412
  0.01738608  0.01725498  0.03472543  0.03606319 -0.04042655  0.0475077
  0.03556461 -0.08297808  0.04996095  0.06554893 -0.06917315  0.03558434
  0.03344249 -0.02614464 -0.00817908 -0.10239888]
[-0.0942421   0.02965599  0.01874941  0.02994388  0.03381932 -0.02999713
  0.02077938  0.01095456 -0.08123001  0.03473732  0.07549762  0.01683407
  0.02507445  0.02617982 -0.0817541   0.02147804  0.05133717 -0.07876975
  0.02244313  0.01254848 -0.03640283  0.05079393 -0.05784599 -0.08620185
 -0.06087565  0.03662714  0.02852939  0.02320574 -0.1106591  -0.00054273
  0.02606793  0.04713539  0.02508968 -0.08026641  0.02489369 -0.08396937
  0.02591021 -0.05047217  0.02111754 -0.03442933  0.03466128 -0.07452679
  0.01762848  0.01341094  0.03186271 -0.08177669  0.0437876   0.03916749
 -0.10944982 -0.07129861  0.03081357  0.03948694  0.04669603  0.00865025
  0.01834701 -0.06513348  0.01835593  0.04600724 -0.07918393  0.02559144
  0.02618533 -0.02646907 -0.01394909 -0.12801902]
[ 0.04891664 -0.04916532 -0.0992639  -0.04992008 -0.04388086  0.05603336
 -0.07269233 -0.06248536  0.063054   -0.0656522  -0.25138357 -0.06097943
 -0.07588424 -0.08314392  0.09975471 -0.03187384 -0.07993996  0.04940594
 -0.05090199  0.04385112  0.03711127  0.08309735  0.05409514 -0.10006545
  0.04528827 -0.05337935 -0.05651417 -0.0787808   0.11761653 -0.10857929
 -0.05275672 -0.09723874 -0.04798874  0.15706687 -0.04486551  0.06227162
 -0.07228565  0.02065891 -0.0696696   0.01547823 -0.05595384  0.11146081
 -0.08687641  0.10447388 -0.04076918  0.01141603 -0.12706581 -0.10089472
  0.01417474 -0.0009222  -0.04871732 -0.04043971  0.04017905 -0.05899475
 -0.08651404  0.12763883 -0.0760017  -0.09551176 -0.02605572 -0.0244065
 -0.08074656  0.00583819 -0.11109589  0.19110748]
[ 0.01296545 -0.05396432 -0.04092878 -0.09320661 -0.09740195  0.09364565
 -0.04775923 -0.03505199  0.03847443 -0.10624826 -0.14965145 -0.04661801
 -0.07819948 -0.04977528 -0.0735364  -0.04485968 -0.09531899  0.04925255
 -0.08035366 -0.10298803 -0.02292982 -0.03373599  0.01210243  0.12853858
  0.12428366 -0.10248376 -0.07899136 -0.06967141 -0.05521976 -0.06725174
 -0.09836218 -0.10759898 -0.05254156  0.03130366 -0.0642354   0.07944161
 -0.06929607  0.04054237 -0.05913923  0.0177748  -0.09940115 -0.02379801
 -0.03321802 -0.20085472 -0.10201009  0.01525009 -0.00246664 -0.14447002
  0.0499596  -0.02654805 -0.07759142 -0.11025763  0.08551988 -0.05457686
 -0.06410852 -0.09620377 -0.11453845  0.07107702 -0.07274755 -0.07890517
 -0.07957426 -0.01689357  0.00854212 -0.06804542]
[-0.04598953  0.03095107  0.02982757  0.03285652  0.04109264 -0.02957477
