layers 12
layer 0 Dense
26 64
[ 0.02926649 -0.04469892  0.08671602  0.01185808  0.21468042  0.00133769
 -0.00556598 -0.0927932   0.06844746 -0.1894675   0.06748002  0.08432128
  0.00694705  0.15099022  0.13839507 -0.05228761 -0.14346637  0.00186507
 -0.25034356 -0.03353415 -0.04537865  0.22756918 -0.00140918 -0.02306403
  0.17567575  0.0193598   0.00590075  0.04059545  0.03845722  0.20843022
 -0.10311027 -0.01909509  0.2449651   0.25821793  0.07434163 -0.14549212
 -0.05718306  0.02504397  0.01576194 -0.01719449 -0.10314985 -0.02006924
 -0.01003816  0.20516385  0.08753866 -0.00182595 -0.02195627  0.13552305
 -0.18059649  0.08367072 -0.00906701 -0.17401554  0.01515189 -0.01582751
  0.05748135 -0.15855396 -0.03139712 -0.00706286 -0.1587779  -0.00823273
  0.22404721  0.18408118  0.06886054 -0.17489685]
[-0.02926649  0.04469892 -0.08671602 -0.01185808 -0.21468042 -0.00133778
  0.00556598  0.0927932  -0.06844746  0.1894675  -0.06748002 -0.08432128
 -0.00694705 -0.15099022 -0.13839507  0.05228761  0.14346637 -0.00186507
  0.25034356  0.03353415  0.04537865 -0.22756918  0.00140918  0.02306403
 -0.17567575 -0.0193598  -0.00590075 -0.04059545 -0.03845722 -0.20843022
  0.10311027  0.01909509 -0.2449651  -0.25821793 -0.07434163  0.14549212
  0.05718306 -0.02504397 -0.01576194  0.01719449  0.10314985  0.02006924
  0.01003816 -0.20516385 -0.08753866  0.00182595  0.02195627 -0.13552305
  0.18059649 -0.08367072  0.00906701  0.17401554 -0.01515189  0.01582751
 -0.05748135  0.15855396  0.03139712  0.00706286  0.1587779   0.00823273
 -0.22404721 -0.18408118 -0.06886054  0.17489685]
[ 0.0587204  -0.00274883  0.09103081  0.06339627 -0.46011844 -0.04296716
 -0.19426268 -0.6412109  -0.01976231 -0.27323616  0.4410339  -0.20487207
 -0.01653987 -0.8075154   0.2991888   0.02979411  0.03193151 -0.00370972
 -0.39404196  0.16060786 -0.19463916 -0.08857238  0.06648646 -0.0575131
  0.1419273   0.5959563   0.12666227  0.02585211  0.33103067 -0.111997
  0.00158314 -0.00487829  0.45790854 -0.12833607  0.99745107  0.02897382
  0.12860626 -0.10546091  0.13228741 -0.03229553  0.15447417  0.04362295
 -0.08984926 -0.10322409 -0.51610225 -0.0165218   0.03199249  0.10288548
 -0.03426182  0.07015973  0.03380477 -0.12245822  0.1373529   0.08814083
  0.09900644 -0.12440726 -1.0486331   0.05278281  0.1977076   0.02720235
  0.05057927 -0.20760067 -0.00624443  0.14797413]
[ 1.64943323e-01 -3.01388581e-03 -4.40334575e-03  1.63954005e-01
  7.32806860e-04  2.18876339e-02 -7.67458623e-05 -3.16972891e-03
  1.19499816e-03 -1.98595156e-03 -2.36778446e-02 -1.42480731e-02
 -2.12893616e-02 -3.46198026e-03 -4.12533293e-03  1.62998942e-04
  7.12656882e-04 -4.99802604e-02 -1.30357360e-03 -4.90802224e-04
 -3.94363841e-03  9.26460954e-04 -6.72144964e-02 -1.27060339e-01
  5.17014042e-03  2.94484710e-03  1.01257558e-03  8.99787352e-04
 -6.18773280e-03 -5.39361266e-03  1.05588569e-03  1.72067564e-02
  8.39694752e-04 -2.19282508e-03  4.54364391e-03 -1.55966810e-03
  2.23375438e-03  5.53590478e-03  4.76220576e-03  5.73072694e-02
 -4.19479143e-03 -2.24604249e-01 -1.18949644e-01 -3.52162542e-03
  2.23255926e-03 -6.08236231e-02  2.72970404e-02 -1.48831215e-03
 -6.20730408e-03 -7.59449671e-04 -6.55372394e-03 -4.84266458e-03
 -1.56812684e-03  2.40506977e-03  1.83825288e-03  5.81787433e-04
  6.55979365e-02 -3.32543044e-03  4.86666337e-03  2.58548302e-03
 -4.76953480e-03 -5.71647147e-03  6.61131693e-03  1.98755832e-03]
[-4.05568890e-02  5.52114733e-02 -6.12243600e-02  7.45131224e-02
  9.08188298e-02  4.69773225e-02  8.57013613e-02 -1.89859588e-02
 -8.16121250e-02  4.84749041e-02 -1.35266528e-01 -9.53862146e-02
 -2.18481734e-01 -2.40889043e-02  4.78222743e-02  2.10182760e-02
  2.99226135e-01 -1.17964767e-01  6.32805079e-02  3.42224427e-02
  1.21512763e-01  1.66693643e-01 -4.18677134e-03 -1.18759377e-02
  1.54333547e-01 -1.83984816e-01  8.52914080e-02  1.13208313e-02
 -5.78856356e-02  6.09800518e-02 -1.20129660e-02  1.81415062e-02
 -3.08646180e-04  2.24429891e-01 -8.27123597e-02  2.53938008e-02
 -2.01041512e-02 -7.39931784e-06  1.49133457e-02 -1.26049712e-01
  1.94451496e-01 -5.15767001e-02 -1.86865143e-02 -3.47054973e-02
  1.00077957e-01 -2.90111989e-01  8.89240503e-02  1.33564129e-01
  1.12739094e-02  3.08982115e-02  4.77893390e-02  4.84812148e-02
 -2.27132067e-01  5.22334203e-02  1.46909773e-01 -1.99517787e-01
 -1.12183332e-01  3.97870131e-02  1.01238884e-01 -2.74384618e-02
 -5.89209870e-02  1.28188267e-01 -6.91608563e-02  6.67156577e-02]
[ 2.26144958e-02 -5.21335244e-01  1.81928441e-01 -4.30930033e-02
 -4.01901789e-02  1.66041330e-02 -5.22990711e-02 -9.88662988e-02
 -5.37878694e-03  3.03237177e-02  5.43756559e-02  8.85683298e-03
  2.32480187e-02  2.77723111e-02 -2.10894849e-02 -6.55919388e-02
  3.59071270e-02  1.02066854e-02  1.35662034e-01  2.60512102e-02
 -5.86607540e-03 -1.42045721e-01  1.95331015e-02  1.30695011e-02
 -3.43112767e-01  1.82533756e-01 -1.99346468e-01 -2.85670668e-01
 -8.89883786e-02  1.12673804e-01 -8.22808072e-02 -2.50687804e-02
  5.45636676e-02 -2.11815368e-02 -4.76700105e-02 -1.52713403e-01
 -1.22692488e-01 -4.05687913e-02 -8.03274214e-02 -2.97697615e-02
 -1.78477541e-01  9.04078856e-02 -3.01708840e-02 -7.71122650e-05
 -2.97182739e-01 -2.43320391e-02 -1.71274588e-01 -1.49928965e-03
  2.02554446e-02  2.92709866e-03  1.86458584e-02 -7.27946609e-02
  1.52765334e-01  8.15841407e-02 -2.50440955e-01  1.71971351e-01
  4.27919626e-02  9.28913802e-02 -1.74030274e-01  1.56541560e-02
  1.06843494e-01 -8.64288062e-02 -1.99602073e-04 -1.14533730e-01]
[ 1.78360820e-01 -2.95224547e-01 -4.99735922e-02  1.69594839e-01
 -3.86392185e-03 -7.47978315e-02 -4.73062247e-02  2.83595826e-02
  7.25336298e-02 -4.28851396e-02 -1.40780836e-01  1.42321661e-01
 -6.82429522e-02 -6.34414032e-02 -5.25092743e-02  2.79115457e-02
  1.60035029e-01 -1.23966366e-01 -2.22286806e-02 -1.20856784e-01
 -3.21872276e-03 -5.14761880e-02  3.34182195e-02 -8.22919537e-05
 -1.83119982e-01  2.15511136e-02 -2.40021963e-02 -5.92428967e-02
 -2.95941494e-02  6.23336360e-02 -1.74529031e-01  7.33115897e-03
  1.02150708e-01  1.79592460e-01  9.70207900e-02  4.42871414e-02
  1.28009006e-01 -5.87755442e-02  5.94163388e-02  8.13429337e-03
  1.11259378e-01 -1.47054613e-01  3.79360430e-02 -4.16104570e-02
  2.51977555e-02 -9.44370124e-03  6.39094934e-02 -3.97099406e-02
  6.42698407e-02  7.41198659e-02 -7.81251341e-02 -2.73134783e-02
  7.05217756e-03 -1.90868691e-01 -1.01526469e-01  9.65322629e-02
  1.21195003e-01 -5.20056896e-02  2.78444346e-02  6.01230338e-02
 -4.30122241e-02  1.37180984e-01  1.89480353e-02  3.23904306e-02]
[-0.08424735  0.09258393 -0.07950941 -0.15617213 -0.04204173  0.00474356
 -0.00996401  0.05694922 -0.10792309 -0.04567899 -0.01645527  0.05128929
 -0.4290018   0.02263368 -0.01151477 -0.00663694 -0.17019115  0.13398641
 -0.10911222  0.05546738  0.0212083  -0.07695787  0.03372545 -0.00729786
  0.07212543 -0.02950219 -0.0411819   0.04155175  0.04359312 -0.00728867
 -0.2099089   0.10622287  0.00828633 -0.03190494  0.05131841  0.00623758
  0.04109029  0.07807104  0.08199261 -0.38906872 -0.08437502  0.13921337
  0.02965578  0.03428014  0.05351976  0.3576985  -0.05653309 -0.09574173
 -0.05324372 -0.03124075 -0.03144352 -0.00150625  0.06190944 -0.043022
 -0.01249916  0.06806851  0.02027769 -0.03652641 -0.01142769  0.0303649
  0.02285285  0.1550108  -0.09167439  0.04329428]
[ 4.8151995e-34 -3.5864829e-34  9.4648748e-34 -5.7629668e-33
  3.4854172e-33  5.4841275e-33 -4.4228647e-33  4.9872927e-33
 -1.9652429e-34  8.5767007e-36 -4.7714256e-33 -2.6798582e-33
 -4.1823167e-33 -2.0003689e-33  2.8201571e-33 -3.0768506e-33
  2.5707128e-33  2.0066096e-33  1.8206497e-33 -3.0981917e-33
 -4.1662051e-33  9.3331570e-34 -5.0873485e-33  2.6247808e-33
  1.5732106e-33  5.5313886e-33  2.8931678e-33 -4.0966030e-33
  2.5748574e-33  3.6878270e-33  4.4069092e-33 -3.6997377e-33
  3.3019012e-33  4.3562792e-34  3.8652433e-33  3.7198442e-33
 -5.7554143e-33 -4.2378437e-33 -3.4294269e-33  3.2200603e-33
  4.2611494e-33  5.0460380e-33 -2.4676499e-33  1.7547486e-33
  8.4207511e-34  1.0390757e-33  5.4177297e-33  1.8950916e-33
 -1.4333599e-33  2.3854553e-33  1.9363004e-33  5.6937030e-33
 -3.3733621e-33 -5.6485442e-35  3.3776273e-33  4.0150516e-33
 -6.8098693e-34  2.2879065e-33 -2.5976300e-33  4.0765005e-33
  2.7428623e-33  2.4155454e-34  3.6014891e-33  3.3037372e-33]
[ 9.90489356e-34 -3.97108734e-33  9.04021186e-34  6.16905313e-34
  3.92748679e-33 -1.37162026e-33  3.86035430e-33  1.55295734e-33
 -3.88475096e-33  3.65558172e-33  2.90702618e-33 -5.10423157e-33
 -4.68038982e-33  3.79055602e-33  1.62459197e-33 -3.10274967e-33
  1.98856947e-33  1.41888633e-33 -1.11769300e-33  3.38224218e-33
 -2.55051564e-33 -1.79781282e-33 -1.81245819e-33 -5.75102970e-33
 -1.72555665e-33 -2.49244181e-33  4.56027891e-33 -1.25641685e-33
  3.50702862e-33 -5.34634520e-33  3.14829419e-33 -2.94856852e-33
 -5.60379059e-33  2.60234980e-33  3.84833341e-34 -4.13359062e-33
  5.44523954e-33 -1.77245428e-33  4.13047115e-33  5.85603294e-33
  3.52413427e-33  3.73303945e-34 -5.31295014e-33 -5.48935291e-34
 -5.17967627e-34 -3.42859964e-33 -3.71139272e-33 -5.79852996e-35
 -4.93669093e-33 -3.66931590e-33  5.18476652e-33  5.07446291e-33
  2.43014355e-33  5.62632445e-33  1.48119635e-35 -3.06632403e-33
  4.64316705e-33  2.16686221e-34  1.96307557e-33 -3.56980112e-33
  3.10642088e-33  4.58851575e-33 -5.39629122e-33  5.59275894e-33]
[-1.19834155e-33 -1.36598395e-33 -1.58158357e-33 -1.40910034e-33
  4.94431805e-33 -4.68390969e-33  2.52462575e-33 -3.94398926e-33
  2.01764238e-33 -5.10520723e-33  4.32613513e-34 -2.99283819e-33
 -5.79801201e-34  3.05104261e-33  8.41566252e-34  1.00838754e-33
  2.92443213e-33  4.06151776e-33 -6.39905329e-34  3.43742172e-33
  1.82200155e-34  1.71268792e-33 -2.56874536e-33  1.19706688e-33
  3.21444073e-34  8.57648760e-34  5.56123365e-33 -7.13432501e-34
 -4.66186476e-33 -3.18482378e-33 -4.97005256e-33 -3.76900811e-33
 -4.58812159e-34  4.43992445e-33  4.74897881e-33  4.17702624e-33
  3.28376110e-33 -9.03210370e-34 -4.12697846e-33 -3.59508013e-33
 -4.48311046e-35  1.60464971e-33  3.35688383e-33 -4.61630003e-33
  3.97009736e-33  3.49675480e-33  6.25909967e-34 -2.07182312e-33
 -3.40659144e-33 -9.55077405e-34 -1.17371210e-33  4.46695457e-33
  1.80210631e-34  2.14997917e-34  2.55806066e-33  3.83905214e-33
 -3.45965657e-33  3.04702829e-33  2.62336029e-33  4.19846579e-33
  1.30931648e-33 -5.25896042e-33 -2.75386808e-33  4.23096563e-33]
[ 0.06079774  0.05584441  0.09957695 -0.05071691 -0.05243943  0.10784232
  0.00850257 -0.02015212  0.07751912  0.03097904  0.02285248 -0.03006687
  0.05808954  0.04856738 -0.09764075  0.01688757  0.03002009 -0.07043212
 -0.07092854  0.03807354 -0.06835133 -0.01062374  0.07815254  0.043006
  0.02599298  0.10020486  0.07333283  0.13476332  0.12932006 -0.17132676
 -0.06598211 -0.6575975  -0.02372107  0.03629911  0.05470075  0.00871867
 -0.06166128 -0.01408751 -0.04706643 -0.02844925  0.13311937 -0.28520077
  0.15386507  0.1161852  -0.10598747  0.06868472  0.03271497  0.03262721
  0.02959956  0.01126483  0.01955831  0.04159961 -0.0261283   0.0598375
  0.06196801 -0.08088588 -0.00296353 -0.08820678 -0.02661884  0.07145142
 -0.00336955  0.04714994  0.03955684 -0.07753463]
[ 2.99044311e-01  4.03684527e-01  1.73622966e-01  1.11290865e-01
  2.26865485e-01  1.78010345e-01  2.42802456e-01 -8.16414952e-02
  1.02706872e-01  4.67187822e-01 -1.62359998e-01  6.97742775e-02
  8.95697623e-02 -3.85183334e-01  7.43188262e-02  6.19417951e-02
  7.38210604e-02  3.19597265e-03 -3.46782267e-01  1.85686767e-01
  2.47566298e-01 -7.85451055e-01 -1.58220599e-03 -1.62674621e-01
  8.98556337e-02 -3.24110657e-01  2.82075435e-01  3.65169287e-01
 -3.05594921e-01  3.14014107e-01  2.04066768e-01  5.04860580e-02
 -2.37471893e-01  1.98071152e-01 -3.02972645e-01 -1.31165624e-01
  2.87708521e-01 -1.92725375e-01 -9.58558470e-02  1.30397588e-01
  8.68487507e-02  1.79357216e-01  1.22293040e-01  2.32201189e-01
 -2.91645020e-01  1.32430971e-01 -2.38384843e-01  2.46994853e-01
 -4.30797786e-01 -2.58031767e-02  3.78755033e-02 -2.92308778e-01
  2.34486967e-01 -1.27826199e-01 -2.79502660e-01 -1.13779232e-01
 -1.83703829e-04  1.58054367e-01 -1.08958939e-02 -2.39564061e-01
 -2.08431363e-01  4.24326986e-01  3.89203914e-02  4.56140675e-02]
[ 0.41551876 -0.00421465  0.3133782   0.22823538  0.00840913 -0.3087776
  0.12009581  0.05151385  0.11270852 -0.12277476 -0.16963835  0.47060597
  0.22996965  0.00673442 -0.20266718 -0.01239825 -0.01063653 -0.63233644
 -0.12452284  0.28889284  0.03576967 -0.37129402  0.48091882 -0.65217394
  0.04800014 -0.38974494  0.28707835  0.22067785  0.00378886  0.26116407
  0.0057837   0.14072819 -0.08406407  0.3761629   0.08384801  0.15139867
  0.29916155 -0.27167585  0.4384197  -0.13995825 -0.02619703 -0.08060598
 -0.38054624 -0.5689302  -0.08094456 -0.05652418 -0.49895394  0.19911441
 -0.07131188  0.0071134  -0.5272476  -0.10654832  0.17362338  0.00138943
 -0.01507833 -0.16023842  0.24188292 -0.02182336  0.09566171 -0.85441107
 -0.25163823  0.1966171   0.01502678  0.382199  ]
[-2.09220722e-01 -3.35826725e-02  3.98994796e-02 -6.45956919e-02
  6.90355804e-03  5.72422981e-01 -2.53938008e-02  7.23323599e-02
 -7.38856867e-02 -4.96801250e-02 -5.39681353e-02  2.67549455e-01
 -5.17649531e-01 -1.24163210e-01 -1.49378702e-01 -7.93913379e-02
 -1.38660505e-01  9.95702669e-02  1.66880935e-01 -3.10468525e-01
  1.45043982e-02 -1.16295725e-01 -6.95118085e-02  1.60825223e-01
  3.45835947e-02  3.98356691e-02  3.99036711e-04  3.04993361e-01
  8.76378193e-02  1.62952580e-02 -1.32531792e-01 -5.43752946e-02
 -2.37876341e-01  5.07854633e-02  5.10748215e-02  4.04103339e-01
  7.09225163e-02  1.31222770e-01  1.96629554e-01 -3.71305346e-01
 -2.40379781e-01  5.41498289e-02  5.54398537e-01 -1.14056714e-01
  1.02704875e-02  4.54450369e-01  1.27222940e-01 -6.68523982e-02
  1.81221336e-01 -1.05170600e-01  6.57555088e-02 -1.93862393e-01
  1.01620778e-01 -3.18819135e-01 -1.85691595e-01  9.14218500e-02
 -1.29240483e-01  1.31349042e-02  1.06243178e-01  2.30944417e-02
  1.44135222e-01 -5.19635007e-02  8.76721814e-02 -2.20836163e-01]
[-0.06525603 -0.14222611 -0.31127256 -0.0761146  -0.11273873  0.01761553
 -0.6328575   0.17832357  0.032343   -0.00897928  0.07695925 -0.04932112
  0.08198909  0.1242947   0.02776105 -0.06356043 -0.06062938  0.02364262
 -0.01763351  0.05692133  0.22596177  0.01535916 -0.01364829  0.10119103
  0.01525272 -0.00255657  0.02641292  0.04200331 -0.13956487  0.18095282
 -0.2874129  -0.0439206  -0.04845129 -0.23121673 -0.03818123 -0.15975311
 -0.08119369  0.16612044  0.15712619 -0.01055077  0.04754505 -0.02301593
  0.02808186  0.14547141  0.00997303  0.01731308 -0.00107728  0.07914906
  0.12535825 -0.03124879 -0.0420735   0.29214078  0.12732299  0.10730168
  0.00628679 -0.1019247  -0.03888569 -0.04521514  0.02955372 -0.01595508
  0.06427152  0.00393427  0.13783291  0.03771483]
[ 0.07513237  0.00849474 -0.03428801  0.05861332 -0.01951904 -0.01033334
 -0.02966211 -0.02451984 -0.09054202 -0.06438255 -0.05522597  0.04011311
 -0.1574792   0.1125471   0.04155492  0.06001329 -0.03406829 -0.10838241
 -0.17287213 -0.06345826  0.3085697   0.03159539 -0.0324551  -0.13319206
  0.22012468  0.03062706  0.03489325  0.00701261  0.20534848  0.07540064
 -0.08939744 -0.03011241  0.00788961 -0.16714944  0.04855738 -0.15278226
  0.10448524  0.08148193 -0.264539    0.0538427  -0.01719166 -0.10389473
 -0.01780684  0.02018294 -0.22376314 -0.0167298  -0.11094885 -0.06166654
 -0.09891934  0.31561273  0.14195816 -0.07155304 -0.3809151   0.14790222
 -0.00865243  0.16333565  0.02739669 -0.19539759  0.10453162  0.0053238
  0.10400412 -0.09640718 -0.2200222  -0.1028828 ]
[ 0.09189472 -0.00251067 -0.02722024 -0.03512418 -0.03128853 -0.0245721
 -0.03639534 -0.02622162 -0.00961304 -0.02418793  0.04106784 -0.03347837
  0.00226825 -0.0043829  -0.00791491  0.00688264  0.06300513  0.00390718
 -0.00042443 -0.01077988 -0.00803505 -0.02058223  0.0253066  -0.01909441
 -0.00960182  0.00547395  0.01404921 -0.03003397 -0.07019778 -0.05788298
  0.0821861   0.00067974 -0.05108017 -0.02378849 -0.00331877  0.03057873
  0.00705877  0.01427837 -0.00651932  0.03698222  0.01007117  0.13395196
  0.01014549 -0.02923593  0.08004083 -0.00681465 -0.04112793  0.00973056
  0.03404271  0.24644296 -0.01217851 -0.0568919  -0.0096636  -0.00663709
 -0.00257732 -0.07864733 -0.0121591  -0.00093814 -0.11405617 -0.00038925
  0.00127062 -0.03854008 -0.33536384  0.07004608]
[-0.25700992 -0.15606305  0.15802619  0.05697259  0.01471505  0.40087306
  0.05405329 -0.08660604  0.03333436  0.10811266  0.11268552 -0.03779857
  0.06088942  0.2942404  -0.17763004 -0.00900194  0.17704955 -0.06521239
 -0.08589517  0.15723978  0.01507218 -0.0740962   0.07652061  0.17982954
  0.12637077  0.23665845  0.07235441 -0.04864015  0.21144508 -0.18406741
  0.0184931   0.01087001 -0.05361464  0.03370659  0.13586625 -0.00167969
 -0.04809432  0.00053459  0.09294752  0.11109719  0.07996216 -0.2529359
  0.47401646  0.16678454  0.05727595  0.1376413   0.02464063  0.08943521
  0.11201318  0.03543939  0.09170727  0.20541638 -0.13196947  0.25046536
  0.12370422 -0.09330431 -0.00623069  0.05391911 -0.03886299  0.17295133
  0.04106541 -0.02110055 -0.00888325  0.0670393 ]
[ 0.09554524  0.13923307  0.10662162  0.04248005  0.29604164 -0.07098769
  0.20115018 -0.25412858  0.35759747  0.8121228   0.08033904  0.01656954
 -0.02202675  0.3254348   0.36131182  0.03368927 -0.21353394 -0.05224825
 -0.34428194 -0.05566778  0.27008063  0.50367486  0.14305754  0.0167861
  0.1077048  -0.33135325 -0.28656894 -0.01156425  0.07989764 -0.09840035
 -0.06681276  0.06637444  0.18107207 -0.04021756  0.32295734 -0.0966048
  0.09739195  0.08192819 -0.07588822  0.04627206  0.03435526  0.24300714
 -0.0904515  -0.11625655 -0.17632493 -0.03179327 -0.00337641 -0.01580716
  0.08900177  0.02089504 -0.00135741 -0.22603735 -0.28356314  0.2472114
  0.6762773   0.31029293  0.13613474 -0.10756643 -0.11541537  0.09674737
 -0.67188805  0.08483389 -0.02119951 -0.14309858]
[ 0.408104    0.087349   -0.16784476  0.13793188  0.4147205  -0.12081642
  0.02358104 -0.07368407  0.07244006 -0.03060112 -0.09496918  0.57531196
 -0.10728634  0.1012167   0.2944142   0.72713095  0.12787595  0.07071479
  0.1675396   0.08311398 -0.02545258  0.17660882  0.23683266 -0.30776164
  0.11948412  0.27724484 -0.4180704  -0.05521565 -0.11952812 -0.09802679
  0.07495679 -0.10254823 -0.01822956 -0.2349045  -0.07842601  0.19027269
  0.02581095  0.3465998   0.47354838 -0.04053811 -0.05706362 -0.05706269
 -0.19840853 -0.10402036  0.06799667 -0.032549   -0.73085815 -0.637859
  0.0944017  -0.0996903   0.7971064  -0.29786935  0.47242984 -0.38081542
 -0.11518016  0.17535204  0.15566191 -0.30494064 -0.12292118 -0.63405514
  0.2696069  -0.22643988  0.10617878  0.03311116]
[-4.10637930e-02 -1.36351213e-01 -2.16640934e-01 -3.67852271e-01
  4.94074166e-01 -8.65785360e-01 -3.88929173e-02 -1.24744564e-01
 -7.65876099e-02 -1.82487875e-01  1.10852033e-01  1.51931450e-01
 -1.83962584e-01 -1.01479329e-01  4.00644243e-01  1.54918417e-01
 -1.67028662e-02  2.31137976e-01  1.70954943e-01  1.47275671e-01
 -2.05790866e-02  3.92085984e-02 -4.65116531e-01  1.98740333e-01
  1.46042541e-01  9.80683640e-02 -7.71699101e-02 -1.44326374e-01
 -7.75960013e-02 -5.10467566e-04  2.05172002e-02 -2.99886707e-02
  1.02644809e-01 -1.93902534e-02 -2.27778286e-01  2.85183936e-01
  1.44532412e-01  1.15138367e-01 -1.21180201e-02 -2.29370877e-01
 -2.26726815e-01  2.85029143e-01 -5.86370707e-01 -9.91757363e-02
  4.92887162e-02 -7.55726874e-01  8.48867819e-02 -1.30035654e-01
  7.74981007e-02  8.13865215e-02 -1.16249375e-01 -2.25603372e-01
  9.62713435e-02 -3.11602622e-01 -1.62080556e-01  4.36406843e-02
 -1.30188599e-01  7.78434649e-02  1.77596271e-01  1.28726382e-02
  1.45991489e-01 -1.14380345e-01  1.01547308e-01  4.08679724e-01]
[ 5.2295174e-02  1.4087957e-01  6.2120140e-02  5.2362081e-02
  9.4303042e-02  3.8372371e-03  7.9261288e-02  1.7758116e-01
 -1.5718140e-01 -3.8892690e-02  6.4936116e-02 -2.1629654e-02
  5.6975674e-02  1.3955323e-01  6.5669231e-02  3.5617281e-02
  2.6133189e-02 -6.0844753e-02  9.6667558e-02  2.8847334e-01
  9.6795499e-02  1.9208876e-02 -2.6865307e-02  2.3366839e-02
  1.4278927e-01  1.9573739e-01 -9.3254611e-02  3.1567786e-02
 -4.1033742e-01  6.4073182e-03 -1.4289665e-02  4.3171551e-03
  1.4654320e-01 -2.1302663e-01 -1.3254888e-04 -1.7043114e-02
 -2.2440210e-01  3.0064577e-01 -2.3288934e-02 -4.0956430e-02
 -1.7225115e-01  1.0742314e-02  4.4809016e-03 -8.9051299e-02
  3.5094809e-02  9.9172518e-03 -7.5989641e-02 -8.5202359e-02
 -4.2323983e-01 -1.6170849e-01  7.6370753e-02  1.2439582e-03
 -7.4386731e-02  1.1092238e-01 -5.1350538e-02 -3.0787125e-01
 -2.9317511e-04  1.0992095e-01 -1.0676251e-02  3.5576113e-02
  1.6602341e-02 -2.9555714e-02  6.7672238e-02 -2.5498573e-02]
[ 0.02988164  0.0122636  -0.62824404  0.01740049 -0.12676616  0.0265568
 -0.13997391 -0.1638437  -0.23195438  0.18737382  0.30076733 -0.11441902
 -0.05298449 -0.3322378  -0.00766197 -0.4166644  -0.0364782   0.05771258
  0.11132636 -0.3428719  -0.22928092  0.09791945 -0.00178155  0.08014995
  0.2150272  -0.02804691 -0.03427054  0.08043805  0.01450246 -0.06610662
 -0.01607504  0.06492028  0.05176638  0.17170426 -0.05655808  0.03572558
 -0.35750446  0.277489   -0.09299903  0.00849607 -0.29945672 -0.04535488
  0.03608183 -0.02071723  0.1292749   0.00690158 -0.2360429   0.24805833
  0.06251261  0.05153169 -0.35229912  0.11451011 -0.41439933 -0.11962339
  0.04588944  0.10921527 -0.04536464  0.5171126   0.21792226 -0.10688059
 -0.0127158   0.11832053  0.0660307  -0.06316577]
[ 7.04348786e-04  4.93203700e-02 -2.30907332e-02  3.37914098e-03
 -6.44202158e-02 -4.94463854e-02 -7.62622943e-03 -1.03620449e-02
 -1.10574216e-01 -3.97375636e-02  3.60184498e-02  3.18576247e-02
 -2.47592553e-02 -2.40635425e-02  4.77268081e-03  3.76028232e-02
 -4.30826917e-02 -6.43147016e-03 -6.30113203e-03 -1.28153637e-02
 -7.53650740e-02 -2.45145280e-02  1.07347883e-01  6.52900315e-04
 -2.11595697e-03  1.28666023e-02  1.56804975e-02 -1.56424362e-02
 -5.28917834e-02 -1.95830055e-02  1.98957529e-02 -2.87929326e-02
  1.49410656e-02 -3.24445479e-02 -9.46768932e-03  4.28725220e-02
 -2.87280581e-03  4.32525761e-02  3.88798490e-02  1.15378425e-02
  6.14665262e-03  4.81081009e-02  7.01064663e-03 -6.70946464e-02
 -2.21888758e-02 -2.10627336e-02  1.35904411e-02 -2.78014573e-03
  1.01367272e-02  4.86783758e-02  5.38292574e-03 -1.12944795e-03
 -8.88678059e-02 -1.21440813e-02 -2.44637392e-02 -1.73042536e-01
  3.44489403e-02 -3.94613342e-03 -1.24451049e-01 -3.02386656e-02
  2.61679068e-02  1.59198607e-05  1.39779830e-02  1.39574617e-01]
[-0.04812323 -0.02767767  0.04062929  0.00922044  0.00182941  0.09348296
  0.01253851 -0.02197327  0.00951527  0.02620702  0.02738441 -0.0130769
  0.00941304  0.06272704 -0.045278   -0.00172882  0.04040899 -0.01631304
 -0.02153027  0.03988361 -0.00142439 -0.01444225  0.01296052  0.04239017
  0.03698887  0.05768391  0.02078209 -0.00146899  0.05503559 -0.05227912
 -0.00303762 -0.04281251 -0.00804135  0.01041875  0.03322525  0.0021128
 -0.01502979 -0.00436299  0.02561102  0.02175691  0.02999119 -0.079981
  0.10804946  0.04251608  0.00250156  0.03479514  0.00075873  0.02662711
  0.02493805 -0.03668001  0.0217578   0.04165774 -0.03284143  0.05334605
  0.03258038 -0.03054043 -0.00452284  0.00520843 -0.01134257  0.04012262
  0.00824832  0.00093445 -0.00155141  0.01357424]
[-4.29506898e-01  2.12812871e-01 -4.34244335e-01 -1.99636161e-01
  3.89166355e-01  1.31917357e-01 -1.11538336e-01  4.31951769e-02
  2.20339656e-01  7.18742430e-01  2.56296962e-01  9.67232227e-01
  2.79698253e-01  5.00522889e-02  3.26520622e-01  5.03950477e-01
  2.68832082e-03 -1.02600873e-01  1.62351906e-01  1.99260011e-01
 -1.60485476e-01  3.71464103e-01 -1.04729736e+00  3.69361788e-01
  4.75226194e-01 -2.61727184e-01 -1.32178396e-01  9.41736996e-02
 -3.62173587e-01  4.71474677e-01  6.88835919e-01  1.40984073e-01
  6.82652444e-02  6.93205714e-01  3.98940563e-01 -8.32360685e-02
  2.15530813e-01  4.29345578e-01  7.07864046e-01  4.03974473e-01
  9.41936392e-03 -9.63059187e-01  3.49037111e-01  1.84142604e-01
  5.28410196e-01  2.89956499e-02 -8.86884153e-01  5.19612618e-03
  9.44558065e-03  1.06372245e-01  7.72283524e-02  5.58023229e-02
  2.04779252e-01  1.13148153e-01 -4.32497449e-02 -3.76808405e-01
  2.94061393e-01 -2.68012304e-02  1.23042591e-01 -1.99181354e+00
  1.34768158e-01 -2.79038155e-04 -4.78117056e-02  2.17426494e-01]
layer 1 Activation
relu
layer 2 Dense
64 64
[-3.63269180e-01 -2.88258167e-03 -2.38434458e-03 -2.88800389e-01
 -3.37403244e-03 -1.30189806e-01 -2.12003645e-02 -3.42691713e-03
 -3.15736562e-01 -3.86464945e-03 -4.98891622e-03  9.37653705e-04
  1.38647199e-04  8.54944112e-04 -3.92465433e-03 -7.41258846e-05
  2.67525029e-05 -7.41873751e-04  5.53537672e-03 -1.46584392e-01
  3.82371508e-02  3.39396000e-02 -3.51697416e-03 -7.05718398e-02
 -1.21468119e-03 -7.24009275e-02 -3.44018475e-03  5.13332896e-04
  3.19936825e-03  4.64475751e-02  1.27953822e-02  3.48385976e-04
 -1.93285778e-01 -8.41604604e-04 -2.18314538e-03 -1.04220446e-04
 -3.52428295e-03 -5.05600777e-03 -3.77497792e-01  9.58770455e-04
  7.25824386e-03 -4.25455952e-03 -8.87175202e-02 -2.31755339e-03
  3.90626956e-03 -8.20639655e-02 -1.50140608e-03  1.65595138e-03
 -2.16250401e-03 -1.21263764e-03  2.59386629e-01 -9.95952520e-04
  6.43368985e-05 -1.66628124e-05 -1.34835299e-03 -1.26130774e-03
 -7.99308717e-03 -7.04937731e-04 -4.53517959e-02  7.80017144e-05
 -3.01602436e-03 -1.31932823e-02  3.55207885e-04 -3.35109723e-03]
[-1.23400941e-01 -1.70258572e-05 -2.18113093e-03  1.69890329e-01
 -3.20477964e-04 -2.38038078e-02  6.12262525e-02 -1.19897746e-03
 -8.08147043e-02 -1.49889698e-03 -6.40159589e-04 -7.29620515e-04
  4.18523938e-04 -7.53204862e-04 -8.94815603e-04 -1.99349539e-04
  4.24882746e-05  2.39615282e-03  3.85879903e-05 -1.03068098e-01
  6.79652095e-02 -1.99683588e-02 -2.69771636e-01 -2.07545519e-01
 -2.76344689e-03  6.79944009e-02  4.46890044e-06  2.27293349e-04
 -3.85500514e-03 -8.51454139e-02  1.07979484e-01  3.68056586e-04
 -1.86604083e-01  1.03232844e-04 -1.34900666e-03 -1.20058496e-04
 -2.10074289e-03  2.67497823e-03  4.12960202e-01  2.14729505e-03
 -1.56781593e-04 -1.09326886e-03 -6.07390590e-02 -9.78440512e-05
 -3.77926696e-03  8.98830071e-02 -4.74654953e-04  1.10212353e-03
  1.58339308e-03 -1.47974503e-03 -5.14460951e-02  1.26435561e-03
  2.17465349e-05  2.14962565e-05 -6.30045892e-04 -1.67863036e-04
 -3.36871250e-04 -3.67537781e-04 -1.91049743e-02  3.54656164e-04
  4.05024883e-04 -1.89173266e-01 -3.52281295e-02 -4.28950181e-04]
[ 1.24003708e-01  1.40698184e-03 -2.22561485e-03 -1.63077302e-02
  1.40975730e-03 -1.02912582e-01  2.74242252e-01  2.05284543e-03
 -1.08503358e-04  1.06375711e-03  3.35836271e-03  9.50242393e-04
  5.30682155e-04  7.87616475e-04  2.50491383e-03 -5.21834882e-05
  2.10868475e-05  1.11884438e-03 -4.82186116e-03 -1.03517964e-01
  2.30097175e-01  3.08038503e-01 -6.81657344e-02  3.72393131e-02
 -2.40664673e-03  8.92426223e-02  1.92925893e-03 -3.60035832e-04
 -8.29578494e-04 -3.30774993e-01 -7.90859833e-02  5.58794301e-04
 -5.02116792e-02 -3.62673891e-04  1.42992358e-03 -4.16589319e-04
  1.52643921e-03  1.64631475e-03  4.62983437e-02  8.42654612e-04
 -5.10345865e-03  2.35167029e-03  1.20753348e-01  7.70309183e-04
 -8.39867571e-04 -3.24895233e-01  1.17587578e-03  3.31687799e-04
 -9.65490937e-04 -8.27299955e-04 -1.04269817e-01 -1.05612958e-03
  1.07475673e-04 -6.42203122e-06 -3.84907384e-04 -3.09729832e-04
  5.08664828e-03 -1.21199386e-03  1.02972038e-01  3.43097257e-04
  1.26498425e-03  2.25952566e-01 -3.52983147e-01  1.36092643e-03]
[ 1.3691512e-01  2.4518236e-03 -2.2550675e-03 -4.5229957e-01
 -5.5363507e-04  7.3968068e-02 -3.5378441e-02 -4.0058941e-03
  2.6309842e-02 -2.8745348e-03 -3.5196762e-03  3.2486048e-04
  5.0774921e-04 -3.3232861e-04 -3.9196219e-03  1.8184133e-04
 -2.6935539e-05  2.5451260e-03 -3.1105571e-03 -6.6938163e-03
 -1.0154725e-01 -5.7063062e-02 -1.4732234e-02 -3.0831420e-03
 -2.6979786e-03 -1.8078022e-02 -1.9199622e-04  1.3621636e-03
  1.0121120e-03  1.3837319e-02 -5.0660400e-03  6.9159508e-04
  2.3321614e-01 -6.8305229e-04 -3.9312802e-03 -2.6807922e-04
 -4.1418439e-03 -3.2882071e-03  6.4132385e-02  1.5414115e-03
  1.5207189e-03 -3.9925030e-03 -3.0592218e-04  1.6213682e-03
  1.9190351e-03 -6.2626109e-02 -2.6684166e-03  8.6420012e-04
 -2.5926123e-04 -1.7660212e-03  3.2145165e-02  1.3451130e-04
  1.5722986e-04 -1.0762509e-05 -1.1956342e-03 -5.4549426e-04
 -2.8543992e-03  9.8647480e-04 -2.5402708e-03  4.5183688e-04
 -3.9642572e-04  1.7164085e-02  7.5425450e-03 -1.8499276e-03]
[-7.8037352e-04 -4.5988229e-03 -2.6302163e-03 -1.8408452e-01
 -3.2714796e-03  2.5679160e-02  5.4402935e-04  2.0743166e-03
  1.1408899e-01  1.0909648e-03 -8.8218738e-05 -1.3398444e-03
  2.6371013e-04 -8.1938639e-04  8.3445839e-04 -5.1665098e-05
  8.6087697e-05  1.1913002e-03  4.8601758e-03  2.2460742e-01
  1.1805860e-01  1.0022289e-01 -4.0100017e-03 -2.3810953e-01
 -1.4563726e-03 -4.2995033e-01 -3.2905915e-03  7.5137964e-04
  2.8356472e-03 -5.8126503e-01  3.7671921e-03  2.6458499e-04
 -1.3303818e-01 -4.1676921e-04  3.0614377e-03 -8.1238999e-05
  2.1190003e-03 -5.4355441e-03 -1.7608012e-01  1.0065127e-03
  2.9028794e-03  1.3882867e-03  1.6420813e-01 -3.3920866e-03
  3.2636398e-03  1.1635167e-01  5.8138021e-04  1.1382917e-03
 -7.0033950e-04 -1.0655232e-03  2.2553737e-01  2.8566705e-04
  3.7615384e-05 -4.9149917e-06 -9.3308894e-04 -8.0686482e-04
 -3.1195013e-03 -2.0736363e-03  2.4913077e-01  1.2351194e-04
 -3.0192868e-03  1.7023127e-01  5.2106376e-03 -1.4055285e-03]
[ 2.6124108e-01  3.3783522e-03  1.3366048e-03 -6.0315198e-01
 -4.5386775e-04 -4.9479371e-01  3.5353344e-02  4.9561600e-04
 -2.3506561e-01  1.3928534e-03  3.4416973e-04  1.4292590e-03
  8.3982886e-05  8.7164884e-04  1.9942946e-04  7.8577687e-05
 -2.5536754e-05  6.7414939e-03 -3.1345494e-03 -5.0642453e-02
 -1.2714617e-01  1.0221453e-01 -2.4761626e-01  1.4242479e-01
 -5.6881661e-04  7.5372495e-02 -1.0213568e-03  1.2752259e-03
  8.8589204e-06 -1.1359204e-01  1.5673570e-01  3.9544695e-05
  1.9329330e-01  1.7921200e-05 -3.4706620e-04 -2.5734354e-05
  1.9242073e-03  6.9688860e-04  1.0015729e-01 -2.5702280e-04
 -4.9215462e-04  6.0019200e-04 -4.8398845e-02  2.9257017e-03
 -2.0582130e-04 -1.4833555e-01 -3.4119922e-04 -1.0241045e-03
 -2.4510562e-04  2.5161350e-04  1.7198908e-01 -7.8364252e-04
  7.6078388e-05 -1.3956487e-05  5.3115410e-04  8.0781529e-04
  1.0288499e-03  2.6053132e-03  6.9219239e-02  3.5701340e-04
 -2.7092069e-04 -1.6471615e-01 -1.9498487e-01  2.3091217e-03]
[ 3.0622931e-02 -6.0529425e-04 -1.2278545e-03  3.6948942e-02
 -7.8777235e-04  6.5596476e-02  8.0235690e-02  2.0408765e-03
  9.2571944e-02  8.2687818e-04  1.7324247e-03  9.6918351e-04
  8.7911042e-04  1.0120727e-03  1.8129444e-03 -1.7413728e-04
  4.1553933e-05  3.7054211e-04  1.0585552e-03 -1.5402775e-01
 -1.1414927e-01  3.3091974e-01  1.1197680e-01  8.2468010e-02
 -1.7125015e-03  1.0962992e-01 -1.5491488e-03 -1.6395886e-04
  1.2702047e-04  1.3089214e-01 -2.7071688e-01  6.1387435e-04
  1.1149133e-01 -3.7535938e-04  1.7608282e-03 -5.1777432e-04
  2.2473820e-03 -3.9242947e-04 -8.9827292e-02  1.4316523e-03
 -5.8958575e-04  2.0129066e-03  1.7132242e-01 -4.4089771e-04
  1.8140759e-04 -9.8780282e-02  1.4590702e-03  5.0811720e-04
  7.9918740e-04 -1.2294132e-03 -6.1126087e-02 -4.6862938e-04
  1.1768115e-04 -5.9358072e-06 -5.7993736e-04 -3.0395985e-04
  9.3112147e-04 -3.1638189e-04  8.6613772e-03  6.0042995e-04
 -5.3981767e-04  2.5068575e-01  1.5732804e-01  9.9683926e-04]
[-1.62374824e-01  5.26088232e-04  1.40492339e-04  1.96942449e-01
 -2.85415840e-03  8.72961953e-02 -1.96389809e-01 -2.78258638e-04
  1.96188271e-01 -2.87080969e-04  1.17937569e-04  5.19455643e-04
  2.85074115e-04  3.28245980e-04 -2.16588553e-04 -5.98451952e-05
 -9.69256052e-06 -6.14203932e-03 -4.60663810e-04 -8.01805034e-02
 -6.38538972e-02 -1.85015813e-01 -2.82853037e-01  2.10296258e-01
 -1.34147017e-03  9.89250392e-02 -5.01294737e-04  3.15500452e-04
 -3.78576433e-03 -1.10277925e-02 -1.38291746e-01  7.94436492e-05
  9.99782011e-02  1.71649110e-04 -6.81690464e-04 -1.01863567e-04
 -3.09062132e-04  6.03294605e-03 -1.09284833e-01  2.00208029e-04
 -1.12229038e-03 -3.04790563e-04 -1.60639316e-01 -6.96037954e-04
 -4.28728713e-03  1.70774907e-01  5.30650839e-04 -7.43822136e-04
  1.41731370e-03 -2.87477393e-04  2.26202905e-01 -3.39587132e-04
  4.31800545e-05 -4.66678011e-06  3.03075969e-04  6.33460470e-04
  5.33552433e-04 -8.37597589e-04  6.37080986e-03  2.49889097e-04
 -1.91517163e-03  2.90218532e-01 -2.68466249e-02  1.59031921e-03]
[-4.05947827e-02  2.24731793e-03  3.63026193e-04 -2.92426012e-02
  1.16463297e-03 -1.21269420e-01  6.87416818e-04  5.37446653e-03
  7.48181716e-02  4.53918288e-03  5.34951314e-03  1.64460085e-04
  1.02879433e-03  3.01996915e-04  4.82352218e-03 -3.67279281e-04
  1.81449523e-05  1.38826005e-03 -1.86498719e-03 -3.56115922e-02
  6.31114319e-02 -7.92715400e-02  1.36639759e-01  1.12471946e-01
 -1.45237439e-03 -3.26217830e-01 -1.07279862e-03  8.94220866e-05
 -1.70877937e-03  1.71440601e-01  1.15637198e-01  3.28445225e-04
  8.16467777e-02  3.29221162e-04  4.22042282e-03 -5.14355313e-04
  7.21051265e-03  5.80995576e-04  5.62875792e-02  3.85949505e-04
 -5.73628210e-03  5.82849188e-03 -3.14641334e-02  1.27627584e-03
 -9.05921566e-04  2.01696642e-02  1.95028668e-03 -9.56601347e-04
  3.85466591e-03 -6.79133518e-05  4.41582277e-02  4.32984467e-04
  9.58171149e-05 -3.19458263e-06  8.32117745e-04  1.28452969e-03
  6.58581033e-03  3.60937876e-04 -3.76673080e-02  7.61654577e-04
  1.53333344e-03 -6.49742335e-02 -4.57398780e-02  3.44123575e-03]
[ 1.7333445e-01  4.6231938e-03 -5.0020986e-05  2.2305293e-02
  3.6337483e-03  9.7001143e-02  1.8254323e-02  1.1970930e-03
  7.6359965e-02  9.7217970e-04  1.2118401e-03 -1.5719384e-03
 -3.9340570e-04 -1.6891086e-03  9.2709169e-04 -6.3839725e-05
 -2.5244936e-04  2.1933794e-03 -4.3922383e-03 -1.4224654e-01
  1.6450867e-01 -7.7100557e-01 -2.7932087e-01 -2.0933342e-01
 -1.3711490e-03  2.7694327e-01 -1.6629677e-03  7.4900460e-04
 -3.8481955e-03  5.3042751e-02  1.9705638e-01 -5.8484799e-05
  4.7692568e-03  7.2122063e-04 -3.9154245e-04  2.1210987e-04
  3.7643611e-03  3.4653861e-03 -2.7088159e-01  6.5648521e-04
 -1.8338769e-03  1.4875038e-03 -3.1608707e-01  4.1100741e-03
 -4.1839429e-03  1.6625503e-01 -9.7183010e-04 -5.1048415e-04
 -2.7117066e-04 -2.1619118e-04  4.0611602e-02  1.3851528e-03
 -6.9951158e-05  3.4083967e-06  5.2060839e-04  1.0122103e-03
  2.9825943e-03  3.6733677e-03  5.0253101e-02  7.0888593e-05
  4.3068826e-03 -1.9344945e-01  3.4035228e-02  3.7369607e-03]
[ 1.5589054e-01 -5.1205647e-03 -1.0175031e-03 -7.8891851e-02
  8.8621578e-05  2.4605935e-02  1.8786643e-02 -1.0290184e-03
 -1.9577464e-01 -2.4843897e-04  2.5457557e-04 -1.4885894e-03
  3.9412262e-05 -1.0898387e-03  3.9836501e-05  3.7752277e-05
  6.2645922e-05  1.8969821e-03  1.3000194e-03 -1.5334374e-01
  3.3604056e-02  3.9231628e-02  2.0250333e-02  1.0875181e-01
 -9.2887302e-04 -1.4852373e-01  6.8811066e-03  1.2961452e-04
  1.8865224e-03  3.8098473e-02 -2.2677377e-01 -1.8577768e-05
 -6.5904716e-03  6.4600626e-04 -2.0950264e-04  1.9362729e-04
 -4.5902235e-03 -2.1332366e-05 -1.7549142e-01  8.7791355e-05
 -2.2159710e-03 -1.1048315e-03  1.0083865e-02 -5.0487490e-03
  1.6498237e-03 -4.5445740e-01  1.2682935e-03 -2.4788766e-04
  1.8398806e-03 -1.0542857e-04  7.1094505e-02  1.5477403e-03
 -1.1338427e-05  2.7378856e-05  2.8893439e-04  4.4946498e-04
  6.4995111e-04 -5.4308111e-03 -5.4035399e-02 -5.1233458e-04
  5.0718465e-04 -3.3379700e-02  5.7082283e-03 -6.2467977e-03]
[-3.87982354e-02 -2.26449524e-03 -1.74212956e-03  1.87380210e-01
 -2.08355486e-03 -8.95402431e-02 -8.28348100e-02  4.21604462e-04
 -2.56620139e-01 -1.35595328e-05 -2.92460114e-04  7.15265691e-04
 -3.25506116e-04  3.50013055e-04  7.08616935e-05  3.44872038e-04
 -1.20595541e-04 -6.92880806e-03  2.91413022e-03 -1.28679420e-03
  1.26797944e-01 -4.58929837e-01 -3.00366571e-03 -3.41892421e-01
 -1.52079831e-03 -1.71714783e-01  2.00783397e-04 -1.10990368e-03
  2.99738115e-03  1.18398048e-01 -1.66555285e-01  1.46456296e-04
  1.54545426e-01 -3.15650657e-04  1.08398928e-03  3.12806573e-04
 -8.01460352e-04 -3.69812199e-03  3.28766286e-01  1.01779925e-03
  1.51864230e-03  3.82655890e-05 -2.93163836e-01 -1.73044251e-03
  3.26990429e-03 -1.33254990e-01  3.78906552e-05  6.55388401e-04
 -4.00097948e-03 -9.50948452e-04  1.35761276e-01 -1.08657498e-03
  9.88008105e-05 -4.27092564e-05 -8.01719551e-04 -6.59676793e-04
 -1.58441148e-03 -1.30017276e-03  1.76145360e-01  1.10233166e-04
 -2.09999108e-03  6.75331950e-02 -1.23576373e-01 -1.77112222e-03]
[ 1.60583511e-01 -1.49246654e-03  1.43600116e-03 -1.32394910e-01
 -2.84165773e-03 -3.66736770e-01 -2.24705696e-01 -9.48305242e-04
  2.94834316e-01 -1.74983148e-03 -2.43422226e-04  1.21419155e-03
  2.75195664e-04  1.14279764e-03 -3.30735667e-04 -2.44665687e-04
 -5.76664024e-05  3.72379879e-03  5.94809139e-03 -3.09815612e-02
  1.59518808e-01  1.15150958e-01 -7.12806433e-02 -7.09825754e-02
 -6.11299532e-04 -9.58193839e-02 -2.11379738e-04  6.18408783e-04
  2.44756695e-03  1.83225889e-02 -8.03150758e-02  1.20740195e-04
 -1.84944972e-01  5.39601388e-05 -9.42186860e-04 -1.90500621e-04
 -2.39299540e-03  6.53848401e-04  1.37562066e-01 -1.05832936e-04
  5.14791231e-04 -8.66093440e-04 -4.06717584e-02 -1.23527017e-03
  1.91241060e-03 -2.04333421e-02  8.49098084e-04 -7.93063431e-04
 -1.88972824e-03  3.33860546e-04  6.16653785e-02 -1.47837494e-03
  3.66420827e-05 -1.44032110e-05  6.65780099e-04  8.29158351e-04
 -6.34348311e-04 -9.53110924e-04 -3.47786605e-01  5.91059797e-04
 -1.28530967e-03 -1.40081778e-01 -5.32671288e-02 -9.92514542e-04]
[ 2.3648775e-01  3.6179330e-03  4.2131948e-03  1.4655738e-01
 -1.8941009e-03 -2.7428187e-02 -4.6286698e-02  1.0186442e-03
  4.7263928e-02  1.1932353e-03 -1.2820859e-03  1.1855956e-04
  6.4421765e-05  1.3385538e-04 -5.7576038e-04 -4.8205862e-04
 -3.5254443e-06  6.2427082e-04 -2.3318646e-03 -3.2322133e-01
  1.3621145e-02 -5.2563556e-02  1.9256780e-01  1.5560915e-01
  3.9063636e-03 -3.5993737e-01 -6.6857915e-03  1.7126125e-03
 -8.9696271e-04 -5.7273412e-01  1.5011388e-01 -3.5850072e-04
 -1.1741033e-01 -5.0044165e-04  4.0648531e-04 -1.8308891e-04
  5.6140870e-03  3.5520183e-04 -4.4457629e-02 -2.8976020e-03
  3.4569358e-03  7.1139942e-04  1.3506266e-01  3.6111735e-03
 -6.2244921e-04  2.8605703e-01 -1.2004504e-03 -1.5908162e-03
  1.4597153e-03  2.0389510e-03 -1.5705419e-01 -1.7029729e-04
  3.1529238e-05 -1.5213429e-05  9.0055453e-04  6.5195514e-04
 -2.6231804e-03  4.4631707e-03 -2.7783790e-01  1.0955740e-04
 -2.2075798e-03 -4.2896826e-02 -3.8668168e-01  4.0820879e-03]
[-2.7540128e-03  1.3046263e-03  5.8238261e-04 -9.8763645e-02
  4.1916815e-04  8.4273003e-02  7.3353045e-02  1.5012812e-03
  3.8773935e-02  3.1509488e-03  2.8544327e-03 -4.7697968e-04
 -2.8563471e-04 -6.0992455e-04  2.2195857e-03  7.3777213e-05
  2.7861208e-05 -1.8974184e-03 -3.7689940e-03  8.9924894e-02
 -3.5957150e-02 -2.3424588e-01 -2.2349638e-01 -7.5443216e-02
  4.8880384e-04 -3.1081685e-01  2.7205325e-03 -1.6202043e-04
  8.1497373e-04 -1.4791399e-01  8.3696591e-03 -2.2796589e-04
  2.8441179e-01  5.4906908e-04  7.2617689e-04  1.7432362e-04
  1.3873465e-03  8.8187598e-04  5.2578285e-02 -4.6873500e-04
 -4.6120137e-03  2.3080930e-03  8.0479719e-02  9.5044437e-04
  7.7008549e-04 -1.7083992e-01  8.9005346e-04 -8.8049250e-04
 -1.1763332e-04  4.4185985e-04  1.0391998e-03  4.6254942e-04
 -4.0626976e-05  2.8281456e-06  5.6815118e-04  5.8556942e-04
  4.9024634e-03 -2.8486285e-04 -3.4791744e-01 -2.0565957e-04
  2.9880099e-04 -1.3149953e-02 -1.5624698e-01  1.6770852e-04]
[ 8.8501155e-02  1.0722720e-03  8.2694984e-04  3.8715292e-02
  1.3373552e-03  1.2930490e-02  2.3034580e-02  1.5102290e-03
 -7.2751001e-02  1.4198220e-03  1.3441968e-03 -8.5976010e-04
 -3.9975319e-05 -2.2628868e-04  1.1681383e-03 -1.8884840e-04
  7.0927264e-05  3.2984742e-03 -1.5801985e-03  1.6003442e-01
  6.2828578e-02 -2.2808690e-01  5.2406952e-02 -3.2544443e-01
 -2.0356041e-04  2.0289950e-01 -4.7306583e-04  1.0935789e-03
 -7.1242440e-04 -4.9558092e-02 -8.7187007e-02 -9.1216956e-05
 -6.7287572e-02  3.5023567e-04  8.0530380e-04  3.3489767e-05
  2.9722229e-03  2.0798796e-04 -1.6184331e-01 -4.2822503e-04
 -1.7412109e-03  1.5782936e-03  1.6756713e-01  4.8682178e-04
 -5.3010817e-04  2.3170803e-02  1.9397393e-04 -8.0549397e-04
 -9.7200180e-05  3.9951855e-04 -3.9667714e-02  2.8399436e-04
 -2.8524857e-05  2.3709301e-05  6.2136393e-04  7.4048812e-04
  2.1105318e-03  4.0092622e-04  4.0664807e-02  6.2942148e-05
  1.4780486e-03 -1.0494401e-01 -5.1178920e-01  1.3835649e-03]
[ 9.96465534e-02  3.20707704e-03  9.52553761e-04 -1.26626879e-01
  8.28956603e-04 -2.17434824e-01 -8.98778513e-02 -2.91925436e-03
  1.24533094e-01 -2.65063043e-03 -2.56408192e-03 -3.48137604e-04
  2.94764250e-05 -8.62651912e-04 -2.87625310e-03  2.83206580e-04
 -1.13256821e-04  5.39589347e-03 -8.72321194e-04 -1.37319863e-02
  1.34158462e-01 -8.58258530e-02 -1.44619495e-01 -5.26068807e-02
 -2.70203396e-04  1.82246059e-01  8.98858591e-04  1.00432371e-03
 -2.56433291e-03  4.25067842e-02 -3.62190567e-02  5.89761621e-05
 -5.10294456e-04  3.59163096e-04 -2.85010808e-03  1.21173463e-04
 -2.87206960e-03  3.59280501e-03 -8.39385092e-02 -3.08215123e-04
  6.36459852e-04 -3.18521122e-03  1.69254057e-02  1.93941116e-03
 -2.29286728e-03 -5.40158972e-02 -1.85133726e-03 -1.00209436e-03
  6.04472472e-04  4.27776540e-04 -3.76629308e-02  3.08165851e-04
  1.78279788e-06  9.00494979e-06  6.74686860e-04  7.67486985e-04
 -1.36764103e-03  1.43766589e-03 -1.60799593e-01  2.37853688e-04
  5.75383892e-04 -1.16838194e-01 -9.18741152e-02  8.34294944e-04]
[-2.8732052e-01 -6.3260440e-03  4.7438974e-03 -1.0107795e-01
 -4.8858691e-03  2.7434906e-01 -4.8507053e-02  7.0661954e-03
 -5.7121310e-02  4.6263635e-03  6.2923217e-03  5.7087798e-04
 -1.7897625e-03  3.8859068e-04  6.4748256e-03  3.6388141e-04
 -1.6278836e-05 -2.7200517e-03  8.6146900e-03  1.1508453e-01
  7.1908228e-02  1.8223417e-01 -8.4121980e-02 -1.1295062e-01
  4.2065098e-03  9.5228031e-02 -9.4965723e-04  8.9389832e-05
  2.7201893e-03 -4.9753733e-02  9.9941455e-02 -1.0180037e-03
 -1.5994149e-01  7.0222578e-04  7.0377113e-03  8.3972298e-04
  6.5239482e-03 -2.3192465e-03  2.0389932e-01 -2.8726934e-03
 -4.0333844e-03  6.9242162e-03  8.0507681e-02 -7.5945137e-03
  3.1601484e-03 -3.3988770e-02  3.8697890e-03 -2.2144949e-03
 -3.6985073e-03  2.5757456e-03  8.4372863e-02 -1.0766432e-03
 -1.5520076e-04 -2.2640579e-05  1.3898999e-03  9.0008252e-04
  4.8502795e-03 -6.8928157e-03 -2.0522563e-01 -8.7727996e-04
 -2.7606196e-03  1.1494711e-02  1.2665659e-01 -8.9022215e-06]
[ 9.5566958e-02  1.2551867e-03 -5.1346375e-04  4.6817940e-02
 -1.2318519e-03 -2.0573691e-01  1.4559203e-01 -2.8426544e-04
 -6.0648747e-02  5.8695854e-04  4.8068195e-04  2.0839320e-03
  1.3984926e-03  2.6472667e-03 -1.2499312e-04 -1.0944916e-03
  2.7831693e-04 -2.0929049e-03 -2.3702173e-03  4.1947118e-04
  4.6362378e-02  6.6449001e-02  2.8231347e-01  5.6753326e-02
 -2.2120848e-03  6.3875183e-02  2.1132056e-03  4.6921300e-04
  2.0140277e-03  6.8288565e-02  6.8859302e-02  5.3219602e-04
 -2.1688737e-01 -5.6623993e-04 -5.0053559e-04 -7.6577737e-04
 -1.1745760e-03 -3.1601245e-04  3.1479914e-02  1.3588849e-03
 -2.5698114e-03 -5.2136602e-05 -2.8956884e-01  1.0949281e-03
  2.3002615e-03 -2.4432188e-02  1.4697907e-04  3.9945971e-04
  9.1819034e-04 -8.1781007e-04 -1.7977951e-02 -1.6804944e-03
  8.5692591e-05  4.2424283e-05 -1.7388920e-05  4.1668641e-04
  1.4089920e-03 -1.1396153e-04  1.2040029e-01  1.2710521e-03
 -1.5928240e-03 -5.6244695e-01 -2.1209370e-01 -6.2682928e-04]
[ 7.67320469e-02 -4.79703769e-03 -1.25471887e-03 -1.18623756e-01
 -6.96224254e-03  6.43474236e-02  1.54689765e-02 -6.04428467e-04
  1.52846098e-01 -2.05701636e-03 -4.43383498e-04  8.92132171e-04
  3.38609476e-04  1.44020794e-03 -3.81375168e-04 -1.83955417e-04
  7.01190584e-05  4.57818678e-04  6.09032763e-03  1.85603738e-01
  1.78941879e-02  1.75268173e-01 -5.46566062e-02 -1.00574180e-01
 -9.59211320e-04  1.77128473e-03 -7.88820209e-04  5.67478710e-04
  8.76526290e-04 -2.75290519e-01  1.54683515e-01  2.38310691e-04
  6.86489046e-02 -3.73319781e-04  6.37195990e-05 -2.51703837e-04
 -2.53363908e-03  1.52449252e-03 -2.84211099e-01  6.29567250e-04
  1.02224364e-03 -1.04195892e-03  5.68299331e-02 -5.08512696e-03
  6.83950493e-04 -4.18284573e-02  1.78864866e-03  6.94607734e-04
 -1.31905219e-03 -5.62803703e-04  1.57857053e-02 -1.07726222e-03
  4.49630461e-05 -5.93710865e-06 -4.69368097e-04 -3.68706824e-04
 -2.19872058e-03 -4.51270584e-03  1.26787186e-01  1.85011115e-04
 -5.42286225e-03 -2.75608599e-01 -1.78666059e-02 -2.57291412e-03]
[-2.5919005e-02  4.4758022e-03  3.7849750e-03 -7.2851114e-02
  2.9508495e-03  9.0552839e-03 -2.5294569e-01  3.4699992e-03
  1.5544644e-01  3.3367823e-03  2.3945067e-03 -9.4032701e-05
 -4.7199361e-04 -6.7892135e-05  2.2423079e-03  2.5973457e-04
 -2.2961287e-05 -2.9023304e-03 -1.0360583e-03  1.3958687e-01
  9.3332775e-02 -2.3227574e-01  7.8426749e-02 -2.4542342e-01
  2.0909128e-03  2.1928872e-01 -5.2318540e-03 -6.7289267e-04
 -4.6224040e-03  1.4607538e-01  1.2263619e-01 -3.0520884e-04
  1.0928329e-02  4.8437269e-04  2.0926986e-03  3.7803996e-04
  9.3815848e-03  4.6535316e-03  1.9062585e-01 -1.6900785e-03
 -1.3481458e-03  3.7847776e-03 -1.2414551e-01  3.4319358e-03
 -4.3014786e-03 -1.6144451e-01 -2.2696301e-04 -1.2810747e-03
  1.3260386e-03  1.6324322e-03  2.8639534e-03  1.9296272e-04
 -3.4154949e-05 -3.3828026e-06  1.2384158e-03  1.0311854e-03
  3.5346323e-03  4.1198386e-03 -5.2640550e-02 -1.0400220e-04
  2.3618278e-03  4.5389831e-02  1.4458290e-01  7.4852826e-03]
[ 1.3296277e-02  9.8196126e-04  3.6606457e-04  2.9156396e-02
  3.2782443e-03 -1.6233350e-01 -2.9803684e-02  1.2839760e-03
  8.0231115e-02  3.1519821e-03  1.1091222e-03 -7.0892565e-04
 -1.0257943e-03 -2.4663087e-04  9.6076657e-04  1.3182808e-04
 -4.3238866e-05  4.0592970e-03 -3.5978819e-03 -3.0206716e-01
  7.4280173e-02  9.0717904e-02  3.7995943e-01 -3.2681935e-03
  3.4707977e-04  8.3035566e-02  4.7334447e-04  6.4171030e-04
 -2.6938543e-03 -6.3505179e-01  1.5265059e-01 -5.1076675e-04
  1.6388936e-01  9.5749460e-04  5.1850110e-04  5.7223486e-04
  2.4808703e-03  3.2936558e-04  5.9354484e-02 -4.2957018e-04
 -2.2089498e-03  1.7116645e-03  4.1247112e-01  1.2916959e-03
 -2.0935326e-03 -6.9003798e-02 -1.3625189e-03 -5.6922855e-04
  4.9067930e-05  2.5243196e-04 -1.6488101e-01  8.9451473e-04
 -9.2207658e-05 -7.9110596e-06  5.4168887e-04  8.1322854e-04
  2.5696892e-03  1.3576213e-03 -3.0317321e-01 -6.7359291e-04
  3.6485619e-03 -2.1666293e-01 -2.2089359e-01 -4.7841767e-04]
[ 6.5252282e-02  1.6498599e-03  3.6712731e-03  3.2276312e-01
 -2.9910007e-06  1.2112762e-01  1.8543754e-02 -4.4607874e-03
 -2.1335623e-01 -2.7323237e-03 -4.0213377e-03 -9.4940007e-04
 -4.6356738e-04 -1.0067093e-03 -4.0354864e-03  1.9491396e-04
 -5.6079203e-05  3.7334773e-03 -4.4940864e-03 -5.8534410e-02
 -4.0732112e-02  1.2533511e-02 -1.3536650e-01  1.6441865e-02
  1.6149281e-03 -1.1467433e-02 -3.7383352e-04  6.5756938e-04
  8.4191852e-04 -8.6414046e-04 -1.2198813e-01 -4.5593258e-04
 -4.8260990e-01  4.2903461e-04 -4.6852594e-03  2.8511914e-04
 -4.6147588e-03 -2.1545233e-03 -1.2083815e-01 -1.8544709e-03
  2.5788206e-03 -4.2216773e-03  6.7825049e-02  2.4776421e-03
  1.3229935e-03 -1.0895550e-01 -2.4451497e-03 -2.1487954e-03
 -5.4614164e-04  1.5126988e-03  8.8958954e-03 -2.3234137e-05
 -7.0531882e-05 -5.2798384e-07  1.3799006e-03  1.1444153e-03
 -3.4548233e-03  2.1917266e-03 -3.6540318e-02 -1.4871273e-04
 -8.3425909e-04 -4.2679276e-02 -1.0347159e-01 -1.5317647e-03]
[-4.16800439e-01 -3.41539085e-03  1.87379168e-03 -3.72131646e-01
 -2.40580551e-03  1.39280647e-01  9.66673270e-02  2.98060384e-03
  2.46876419e-01  1.75983412e-03  1.66666612e-03  1.78775156e-03
 -8.67737341e-04  1.86246366e-03  2.04331800e-03  6.99318480e-05
 -4.57024180e-05 -1.33099174e-03  5.84646827e-03  2.03462839e-02
  1.15267776e-01  8.51436332e-02  8.48269165e-02  5.26684988e-03
  1.93045568e-03  1.20068237e-01 -1.40652154e-03  1.89566897e-04
  2.94396275e-04 -1.12785809e-02 -3.77191696e-03 -3.19871557e-04
 -1.62922844e-01 -2.21267663e-04  3.25351162e-03  3.77979188e-04
  2.75163841e-03 -1.33381225e-03  2.26232067e-01 -1.45821704e-03
  4.79480659e-04  2.42871582e-03  4.93892170e-02 -3.67512763e-03
  3.35737714e-04  1.49680391e-01  1.32757367e-03 -5.50100347e-04
 -3.78206675e-03  9.08145332e-04  1.69053953e-02 -2.25306582e-03
  1.42217386e-05 -5.61813213e-05  9.33266710e-05 -3.25606161e-05
 -3.39420454e-04 -2.90367543e-03 -1.50332615e-01 -3.01739492e-04
 -1.37253269e-03  1.30050257e-01  1.98444232e-01  1.04833656e-04]
[ 1.6267300e-01 -2.0034341e-03 -5.1938253e-04  3.4496170e-02
  4.0660519e-04  4.6231214e-02 -1.4154334e-01  1.4907270e-03
 -9.9668451e-02  1.1477959e-03  1.0781848e-03 -3.4125851e-04
  1.1382163e-04 -1.6892975e-04  1.2217739e-03 -5.0587353e-04
  2.6126692e-04 -5.1555579e-04  4.0529040e-03 -1.4498827e-01
  2.1675561e-02 -2.1221793e-01 -1.0512239e-01  9.4481461e-02
  4.2269542e-04 -3.4310368e-01  5.4828258e-04  1.3198648e-04
 -2.3623798e-03 -1.3504790e-02  1.6136177e-02  5.0065435e-05
  1.3350657e-01 -5.5365451e-04  1.9577949e-03 -1.8741879e-04
  9.1289368e-04  3.2597990e-03 -2.8862712e-01  4.4378557e-04
 -7.2748639e-04  1.2270468e-03  5.0659783e-02 -2.8165043e-03
 -2.0198841e-03  1.8846898e-01  5.5814441e-04  5.0186156e-04
 -1.1067793e-03 -2.7887477e-04  7.4176177e-02  3.1086273e-04
 -3.9359362e-05  6.5635963e-05 -5.3966360e-04 -6.4366410e-04
  8.0574257e-04 -2.3456230e-03 -1.4741412e-01  8.2785380e-05
  5.8330805e-04 -8.2245849e-02 -3.0382020e-02 -2.8015854e-04]
[ 1.47106841e-01 -3.27982497e-03 -3.03523266e-03  1.10511845e-02
 -3.59984743e-03 -1.97830126e-01 -8.20039809e-02 -4.07656701e-03
  1.36384219e-02 -3.33958655e-03 -3.66845005e-03 -6.60836231e-04
  1.34370581e-03  4.29730891e-04 -3.28446878e-03 -6.77705277e-04
  2.47672815e-05 -1.44789566e-03 -2.86373426e-04 -4.98743504e-01
 -1.03006609e-01 -1.49830177e-01 -1.99154273e-01  1.30476490e-01
 -2.25519482e-03  1.99590683e-01  3.42838373e-03  5.07960620e-04
 -9.04047411e-05 -1.00241661e-01  3.01707178e-01  7.83252413e-04
 -2.25366667e-01 -7.75246590e-04 -2.77231983e-03 -7.37387163e-04
 -7.72920204e-03 -2.31906452e-04  2.27686375e-01  1.51166704e-03
  2.04066397e-03 -4.62517887e-03 -2.02558234e-01 -2.64708255e-03
  6.79793244e-04 -7.75045231e-02 -5.59008986e-05  1.56024552e-03
  4.15218994e-03 -1.19208591e-03  1.79458320e-01  7.71756633e-04
  1.46125065e-04  3.02879234e-05 -7.74088840e-04 -5.57075487e-04
 -4.69392259e-03 -3.33564985e-03 -1.45661548e-01  6.65843545e-04
 -3.12047289e-03 -3.54276866e-01  1.14350452e-03 -5.76115027e-03]
[-2.35920429e-01 -8.20079353e-04 -3.35390377e-03  8.01002383e-02
 -1.28840271e-03  1.17745213e-01 -1.79803252e-01 -5.41208265e-03
 -4.21422124e-02 -5.55897132e-03 -5.82135329e-03 -5.35018509e-04
  7.29200838e-04  4.65796656e-05 -5.23087475e-03 -3.35970661e-04
  8.31435100e-05  1.62553112e-03 -3.97095020e-04 -1.37471393e-01
 -7.96810351e-03 -4.79006320e-02  7.24856034e-02  1.97997354e-02
 -1.25430373e-03 -9.70857218e-02 -1.22125342e-03  2.75758444e-04
  4.17971890e-03 -1.86976820e-01 -1.47585288e-01  4.89726430e-04
  3.66542116e-02 -8.23368202e-04 -4.61682491e-03 -4.67351842e-04
 -5.97578520e-03 -3.55397374e-03  3.02003920e-01  7.51493615e-04
  5.69922337e-03 -6.13989448e-03  1.55631468e-01  1.85969780e-04
  4.13660193e-03  7.18243718e-02 -1.89092569e-03  1.46051007e-03
 -1.95417175e-04 -9.52766859e-04 -1.46571904e-01  3.52862786e-04
  8.42955196e-05  1.15469611e-05 -1.12771196e-03 -1.32256723e-03
 -7.24494923e-03  8.79427185e-04  4.17317003e-02  3.25304834e-04
 -1.72049715e-03 -1.58877168e-02  1.09420754e-01 -4.70421975e-03]
[-2.07968637e-01  1.77622924e-03 -1.25324144e-03  1.97531626e-01
  9.30264941e-04  1.41964510e-01  1.84368454e-02 -2.68416433e-03
 -2.84833442e-02 -1.40504492e-03 -1.77926756e-03 -6.22519001e-04
  8.69395852e-04 -3.89399676e-04 -2.11668387e-03 -3.06044501e-04
  4.81795323e-05 -4.58681583e-03 -9.78806987e-04  1.22000106e-01
 -1.66978046e-01  2.56325733e-02 -9.38355848e-02 -1.58161670e-01
 -1.51013327e-03  6.50505349e-02  2.03937627e-04 -3.73181538e-04
 -5.96948958e-04  6.46116659e-02 -2.75762558e-01  4.46152117e-04
  2.73381621e-02 -2.23635187e-04 -2.78400350e-03 -3.36190453e-04
 -2.87348428e-03  2.83882138e-03  5.75503670e-02  1.31466368e-03
  4.92651016e-04 -2.37669144e-03 -4.83658798e-02  1.76996889e-03
 -1.31660223e-03 -6.09349050e-02 -1.30857353e-03  9.04921500e-04
  3.18917888e-03 -8.72224919e-04  9.36618168e-03  1.19648257e-03
  5.42733615e-05  1.87923488e-05 -4.09850298e-04 -8.97632635e-05
 -6.84477098e-04  1.44152518e-03  3.97082791e-02  5.53812308e-04
  2.46308657e-04  1.45531416e-01 -3.17897648e-02 -3.93778057e-04]
[ 1.03741616e-01 -2.85287900e-03 -6.40657265e-04  7.28423744e-02
 -1.19404882e-04 -8.36995542e-02  7.59485364e-02 -1.65194843e-03
 -1.63556915e-02 -2.29541655e-03 -2.29588989e-03  1.73370572e-05
 -5.14278654e-04 -1.84084347e-04 -1.74539234e-03  6.04365603e-04
  3.43108968e-06 -1.68093806e-03  2.71982886e-03 -8.73836800e-02
  2.30000064e-01 -1.30119517e-01 -2.18598470e-02 -3.03353164e-02
  1.79591589e-04  6.06195703e-02  5.12215891e-04 -9.65874642e-05
 -2.61016357e-05 -3.14374082e-02  2.77215332e-01 -1.56534879e-05
 -2.98352875e-02  4.65753037e-05 -6.87452964e-04  2.26375952e-04
 -3.25511256e-03 -1.40504068e-04 -2.83332586e-01 -1.82443153e-04
  2.45728577e-03 -2.29227496e-03 -2.44287670e-01 -2.18373188e-03
  1.86998848e-04 -2.54487127e-01 -4.83685697e-04 -4.84169868e-06
 -1.45238545e-03 -3.39960388e-06  6.51666075e-02 -2.26376666e-04
 -4.62460230e-06 -2.27895202e-06 -1.72874599e-04 -3.01151100e-04
 -3.63061205e-03 -1.83011603e-03 -1.13484047e-01 -4.72169806e-04
 -7.11868597e-06 -7.80995712e-02 -8.18470567e-02 -3.01710865e-03]
[-7.62716122e-03 -8.77136947e-04  5.68441581e-04 -7.80581236e-02
  9.09564493e-04  4.18961532e-02  2.81400010e-02 -5.91678254e-04
 -1.79507002e-01  6.03006571e-04 -1.18344021e-03 -2.66876450e-04
  7.89358601e-05  1.60288502e-04 -7.70257320e-04 -1.39742158e-04
  2.99405401e-05 -5.32146730e-03  4.16425552e-04 -1.42101496e-01
  2.41279625e-03  4.34387010e-03 -3.66752237e-01 -4.39454652e-02
  5.88954194e-04 -2.73557216e-01 -2.51720659e-04 -1.48401086e-04
  1.00490288e-03 -1.39584422e-01  6.76748827e-02 -1.38665055e-05
  1.46226451e-01 -2.13160092e-06 -5.72124438e-04  3.00860120e-06
  2.74163962e-04 -9.98809352e-04 -1.42207623e-01 -3.42775078e-04
  2.04041414e-03 -6.78682351e-04 -3.21903378e-02 -5.65232243e-04
  1.08122756e-03  8.67594630e-02 -7.88573583e-04 -2.95087520e-05
  1.68475381e-04  1.59253745e-04  1.28340587e-01  7.70347469e-05
 -1.87495061e-05  6.58343606e-06  5.26150980e-05  8.01354763e-05
 -1.59708213e-03  2.59730674e-04  7.55558461e-02 -1.59956297e-04
  3.23992746e-04  1.13696299e-01  1.06713586e-02  1.31117835e-04]
[ 8.16820264e-02 -7.51825515e-04 -3.01284972e-03 -1.07246220e-01
  2.44091335e-03 -1.45306915e-01  1.93345621e-01 -1.88679167e-03
 -2.97567360e-02 -1.37038634e-03 -1.62908190e-03  1.45082042e-04
 -8.19314737e-05  5.00224938e-04 -1.72709289e-03 -1.72337634e-04
  1.42409437e-04  4.56268433e-04  1.81561941e-03  4.46266904e-02
  5.25385421e-03  5.66823222e-03 -9.83898938e-02  1.19347006e-01
 -4.02629888e-03  1.51147449e-03  3.58384498e-03  3.95219336e-04
  1.72630498e-05  5.42856194e-02 -5.53642847e-02  4.19223885e-04
  3.20074372e-02  2.43821138e-04 -1.47230492e-03 -5.17241715e-05
 -3.55634885e-03 -5.91217940e-05 -2.86915213e-01  2.58807302e-03
  4.44324513e-04 -2.07863236e-03  1.56978205e-01 -1.29153219e-03
  5.06281795e-04  1.02137379e-01 -1.34983007e-03  1.51945686e-03
 -1.72390253e-03 -2.00999109e-03  8.45223144e-02 -2.30204809e-04
  6.27157788e-05  3.45480039e-05 -8.96581390e-04 -1.38798685e-04
 -1.37832260e-03 -9.92758782e-04 -6.31053001e-02 -8.64664325e-05
  2.65275710e-03  4.01631892e-02  4.35604155e-02 -1.87484373e-03]
[ 1.69994697e-01 -5.59876021e-03 -5.38835628e-03  7.29480237e-02
 -8.85414949e-04  2.34287545e-01 -2.16237381e-01 -2.01808405e-03
 -1.78384453e-01 -2.44716229e-03 -2.63870531e-03 -1.67839738e-04
  1.24247291e-03 -1.32023662e-04 -1.84813188e-03 -2.96836573e-04
 -4.79655682e-05  3.77148332e-04  4.70219459e-03 -1.44773200e-02
 -6.42199889e-02 -1.08551644e-01 -1.11046046e-01 -1.33594438e-01
 -5.74280508e-03  2.90489998e-02  1.46275433e-03  1.38955147e-04
  1.88500457e-03  7.23838061e-02  3.19352709e-02  1.04645872e-03
  3.25098336e-01 -4.40936623e-04 -7.53792759e-04 -6.13670156e-04
 -4.53200564e-03 -2.02465523e-03  6.15710132e-02  3.73062701e-03
  3.99642717e-03 -2.77781626e-03 -3.59390453e-02 -4.44271229e-03
  2.08904524e-03 -1.91893384e-01  3.80243990e-04  2.60229851e-03
  3.14552360e-03 -3.30256764e-03  2.79529899e-01  1.06399239e-03
  1.35511335e-04  1.93863798e-05 -1.44413474e-03 -6.72695634e-04
 -4.93889814e-03 -3.39003070e-03 -8.83477703e-02  8.70193413e-04
 -4.53611603e-04  3.77626531e-02  4.10798863e-02 -4.85414919e-03]
[ 5.8620211e-02  3.4300010e-03  9.6505857e-05 -1.0292136e-01
 -1.1621700e-03 -3.2463994e-02 -7.8560717e-02 -1.9072846e-03
  7.0149846e-02 -2.3221978e-04 -9.0137910e-05  1.5597969e-03
  2.8198294e-04  9.8850718e-04 -1.1809563e-03 -5.2171113e-04
  2.2501838e-05 -2.4872941e-03 -2.1507260e-03 -1.2508343e-01
 -6.7596003e-02 -3.1178093e-02  2.7386449e-02  8.1174903e-02
  2.7235327e-04  9.3512140e-02  1.0276323e-04  4.6576941e-04
  1.1262118e-03  1.3387582e-02 -4.7864151e-01  1.5368056e-04
 -2.2397593e-02 -5.5073219e-04 -2.8018598e-03 -2.6387293e-04
 -1.7771679e-03  3.4407084e-03 -2.4586412e-01  2.3300247e-04
 -2.8526203e-03 -1.0433393e-03 -1.4712757e-02  1.9855318e-03
  3.4097093e-07 -2.2583511e-01 -9.5864106e-04  4.0355860e-04
 -6.4776384e-04 -2.6264682e-04  1.1779229e-01 -1.5496327e-04
  5.2872412e-05 -1.2156339e-06 -5.1167747e-04 -4.7183188e-04
  1.9190942e-03  4.4865801e-04  7.0219412e-02  3.3496867e-04
 -1.3041840e-03 -1.3896526e-01  6.5463497e-03  2.4680854e-03]
[ 9.99042168e-02 -3.76971276e-03 -5.05808275e-04 -6.78937659e-02
 -5.90932230e-03 -1.40900188e-03 -2.95206159e-02  4.33992920e-03
  5.59117123e-02  2.60472530e-03  3.65756382e-03  3.56859784e-03
  5.78426057e-04  3.52263916e-03  3.90427443e-03 -1.60978336e-04
 -3.70604066e-05  2.27833469e-03  7.96408765e-03 -1.32637948e-01
  3.64672616e-02 -1.68309256e-01 -1.45485997e-01 -1.16648965e-01
 -7.71404069e-04 -4.44208741e-01  3.67186789e-04  1.76217302e-03
  3.24867642e-03 -1.07260741e-01 -1.91311110e-02  4.23104066e-04
 -1.12574354e-01 -8.90537864e-04  4.33199480e-03 -3.71085189e-04
  2.99456343e-03 -1.54059078e-03 -2.89596111e-01  5.01375005e-04
 -2.10678321e-03  3.88318580e-03 -1.14436597e-01 -5.27162664e-03
  3.79571482e-03  6.32855892e-02  3.74431908e-03  7.61622097e-04
 -2.78877141e-03 -6.43771433e-04  7.47207850e-02 -3.26266466e-03
  1.16221941e-04 -2.50401299e-05 -5.92957600e-04 -3.18526407e-04
  1.89546600e-03 -4.93860990e-03 -3.55956703e-01  6.33254997e-04
 -4.06564772e-03  1.31235123e-01 -1.97434112e-01 -1.90369065e-06]
[-1.88091978e-01  1.85695232e-03 -3.28522874e-04  2.35577360e-01
  2.34075310e-03  1.28892720e-01 -5.19126952e-02 -5.24790725e-03
 -7.51587301e-02 -3.39423120e-03 -4.43336274e-03 -1.35131064e-03
 -5.09559934e-04 -1.47701858e-03 -4.72792517e-03 -1.04842075e-04
 -2.44879247e-05 -3.05596832e-03 -2.50758743e-03 -7.59514451e-01
 -9.75280814e-03 -1.44099295e-01  7.06133172e-02 -1.01098970e-01
 -5.00989321e-04 -2.82557355e-03  2.55560782e-03  2.85101502e-04
 -3.25210323e-03 -3.11894923e-01 -3.85176212e-01 -3.45302251e-05
  1.05589330e-01  4.59939125e-04 -4.82080365e-03  3.06750386e-04
 -6.47937180e-03  3.74040473e-03  3.26458782e-01 -5.81686472e-05
  1.56131759e-03 -5.36719058e-03 -7.98073635e-02  1.56361889e-03
 -3.40330671e-03 -1.24616720e-01 -3.27138766e-03  5.76166349e-05
  6.34894823e-04  8.52701487e-06 -7.33972862e-02  1.15416176e-03
 -3.84212544e-05 -5.26316217e-06  1.41068303e-04  3.61047772e-04
 -3.08296643e-03  9.28358233e-04  2.28675053e-01  3.22691543e-04
  1.46974076e-03  2.97223896e-01 -1.89932510e-02 -1.52701954e-03]
[-9.17294808e-03 -5.58437267e-03 -4.18613013e-03 -2.80384533e-02
 -3.19433189e-03  2.16764450e-01  1.85619488e-01 -1.41363894e-03
 -5.25217131e-02 -1.75586506e-03 -9.94425965e-04  1.34116563e-03
  2.47471558e-04  1.31059752e-03 -7.86346034e-04 -8.38716878e-05
 -1.54276750e-05 -5.84673835e-04  5.54451300e-03 -1.97823183e-03
 -2.81056613e-01 -5.90693392e-02 -1.57081172e-01 -1.06710587e-02
 -5.41469734e-03  1.36227652e-01  4.57591657e-03  6.10573799e-04
  7.48446444e-04 -5.99951157e-03  6.24875724e-02  4.92198509e-04
  1.02542385e-01 -7.90902704e-05  6.05801615e-05 -1.56144684e-04
 -6.61021285e-03 -1.63308505e-04  8.31044465e-02  3.31751956e-03
  1.21706561e-03 -1.92467123e-03 -3.11337318e-02 -5.66668529e-03
  1.44148001e-03 -2.48873811e-02  9.93713038e-04  1.50918472e-03
 -2.15767464e-03 -2.58166040e-03 -4.09849696e-02 -1.15493499e-03
  7.89820042e-05 -1.95241773e-05 -1.12802954e-03 -3.21844593e-04
 -2.83882790e-03 -5.37037430e-03  2.28921711e-01  2.14258573e-04
 -2.07349518e-03  3.07383090e-01  9.31093544e-02 -4.48495476e-03]
[-2.0048913e-02 -1.9091136e-03 -2.2392049e-03 -6.5792516e-02
  1.7495168e-03  1.3845578e-01  2.0793229e-01  1.6228830e-03
 -4.5017544e-02 -2.7849674e-06  7.7526411e-04  4.4892108e-04
  6.3366198e-04  1.0138439e-03  1.0948228e-03 -1.7823130e-04
  8.9574780e-05  7.8705820e-04  3.3751444e-03  6.3552685e-02
 -9.8300010e-02 -1.6479455e-01  2.2490366e-01 -1.6536866e-01
 -2.2595443e-03  1.0389597e-01  4.2214256e-04 -1.6166367e-04
 -1.5009533e-03 -3.4183651e-02 -1.6009006e-01  4.5400986e-04
 -1.3921527e-02 -1.9331918e-04  2.0569211e-03 -3.9321696e-04
  8.4763084e-04 -2.6191189e-04 -3.4072392e-02  8.8337669e-04
 -2.7765066e-04  1.0935209e-03  2.3979534e-01 -2.0000921e-03
 -5.4741441e-04 -6.0491487e-02  2.2913230e-04  5.3200492e-04
 -7.4869714e-04 -8.9601794e-04  1.0650170e-01 -7.7752513e-04
  8.7820474e-05 -5.6565191e-06 -2.9422887e-04 -5.6998113e-05
  3.3761750e-04 -1.3270685e-03  2.7093017e-01  4.3386334e-04
  2.4875302e-03  5.5444345e-02  1.3155884e-01 -1.0132024e-03]
[-3.2152936e-02 -3.7086799e-03  9.2481636e-04 -5.1156081e-02
 -3.2084417e-03  1.3936548e-01 -2.9235125e-02  3.1823583e-03
 -1.2563711e-01  2.1581482e-03  2.9305390e-03  2.8195800e-03
  8.0087828e-04  2.9975523e-03  2.9215494e-03 -5.6031195e-04
 -4.6473579e-05  7.2173490e-03 -9.2965335e-04 -6.7702266e-03
  2.0878972e-02  8.9666538e-02  8.9117132e-02  5.6229331e-02
  4.0803017e-04  1.5563232e-01  3.5473454e-04  1.5306517e-03
  2.0997648e-03 -2.9091200e-01 -2.3959634e-01  6.4384891e-05
 -1.5236525e-01 -4.5271619e-04  3.1009177e-03 -7.5470161e-04
  2.4560953e-03 -3.0499029e-03  1.9552921e-01 -6.2824052e-04
 -2.0755937e-03  3.0730884e-03  4.4451121e-02 -3.6911410e-03
  2.6788660e-03 -1.4327109e-01  2.3922143e-03 -5.3900469e-04
  1.4876359e-03  5.4418313e-04  4.9372390e-02 -1.8599253e-03
  1.1063754e-04 -6.0147893e-05  4.1652989e-04  2.9598858e-04
  2.0099336e-03 -3.8607439e-03  3.4071395e-01  5.5380719e-04
 -2.2148462e-03  1.0665910e-01 -8.3958782e-02 -1.5058726e-03]
[ 7.8543454e-02 -2.9935567e-03 -7.1002950e-04  9.8063290e-02
 -3.1299449e-03 -3.6666933e-02  9.9619441e-02  3.7276675e-04
 -2.6180699e-01 -7.3361350e-04  3.2409342e-04  1.7448517e-03
  2.8857417e-04  7.8578369e-04  2.6572513e-04  1.5132502e-05
 -3.0519492e-05 -2.9608023e-03  4.9383943e-03 -1.7631899e-01
  3.4764543e-02 -2.4122597e-01  2.7418677e-02 -2.1298079e-02
 -1.4318614e-03 -1.5711156e-01  5.6150323e-04  3.9040705e-04
  8.5063610e-04  6.4440608e-02  1.3252048e-01  2.2409487e-04
  9.4366260e-02 -5.1704526e-04  1.0384429e-03 -2.9053216e-04
 -1.8901215e-03  2.2012286e-03 -5.3096503e-01  7.1423932e-04
  2.7717695e-05 -5.7358302e-05 -1.0016723e-02 -3.2899585e-03
  7.2308013e-04 -6.4585730e-02  9.2158880e-04 -8.5103056e-05
 -3.4635274e-03 -5.9678697e-04 -3.8481954e-02 -8.1109093e-04
  7.0796879e-05 -3.5853020e-05 -3.0513346e-04 -6.3580505e-05
 -8.7046361e-04 -3.2133444e-03  1.3477466e-01  3.1436482e-04
 -2.3768267e-03  6.0562152e-02 -1.4817120e-01 -7.4500253e-04]
[ 3.9129809e-02  3.2305848e-03 -1.3304022e-03 -1.6340490e-01
  6.3760672e-03 -3.6981073e-01 -1.4472088e-01 -1.8267070e-03
 -4.5015208e-02 -4.0303636e-04 -1.5847941e-03 -9.6752535e-04
  1.4929121e-04 -1.4972604e-03 -1.8245268e-03  9.5616742e-05
  2.0113976e-06  5.4960800e-03 -5.3728237e-03 -6.0025230e-02
 -3.0969091e-02  7.4723661e-02 -1.9716682e-01  4.0769894e-02
 -2.6685693e-03 -6.7182928e-02  2.6172986e-03  6.9446361e-04
 -2.1102205e-03 -8.2268067e-02 -4.5725212e-02  3.0262055e-04
 -6.6563204e-02  4.4381456e-04 -2.3502766e-03  2.9402792e-05
 -1.0412647e-03  2.3088879e-03  2.8359588e-02  8.5781980e-04
  2.2037196e-04 -1.8313134e-03  1.1350137e-01  3.0929744e-03
 -2.3438043e-03 -1.5335418e-01 -2.3190391e-03 -3.7390733e-04
  6.2908744e-04 -8.4234972e-04 -7.1963124e-02  1.6953509e-03
  6.2924861e-05  1.7568278e-05  2.4835332e-05  5.8513513e-04
  1.9198444e-04  2.7900243e-03 -2.9002365e-02  1.8788414e-04
  5.8530918e-03 -1.7191564e-01 -1.8646099e-01  2.5941624e-04]
[ 1.3170856e-01 -1.5090524e-03 -1.7272880e-03  5.1251866e-02
 -1.3740447e-03 -1.3893621e-01 -2.4980294e-02 -3.1895535e-03
 -1.0613377e-02 -3.6203172e-03 -3.3454292e-03  9.4884506e-04
  1.1536186e-03  8.5918157e-04 -3.3159114e-03 -3.8795784e-04
 -4.0286111e-05  3.9694882e-03  2.1213789e-03  5.6039594e-02
  1.9436783e-01 -3.4539182e-02 -9.7483732e-02 -7.2514772e-02
 -1.5915097e-03  7.9665840e-02 -3.4645793e-04  8.9793850e-04
 -2.8751651e-04 -3.3623027e-03 -7.1226656e-02  6.0539524e-04
 -7.9468362e-02 -7.6735846e-04 -2.2520197e-03 -6.7612436e-04
 -4.2984961e-03 -1.1159509e-03 -3.2675143e-02  9.7405154e-04
  2.4247684e-03 -3.7428117e-03 -1.8354514e-01 -2.0268331e-03
  9.9474724e-05 -8.5325502e-02 -1.9223699e-03  7.8637217e-04
  1.7071870e-03 -7.1768038e-04 -5.0815772e-02 -2.1390946e-04
  1.2572316e-04  4.3754544e-06 -4.8920204e-04 -3.5326101e-04
 -3.4075070e-03 -1.7459333e-03 -4.4651040e-01  7.8465021e-04
 -1.0387963e-03 -1.5477470e-01  5.2302100e-02 -3.2922428e-03]
[-3.4216285e-01  2.4548075e-03  2.0580648e-03 -1.8185085e-01
  1.2087408e-03  5.3946123e-02 -1.4797737e-01  1.0639657e-03
  5.7078063e-02  6.5304351e-04 -1.0126445e-03  1.0797478e-03
 -9.4428891e-04  8.6204195e-04 -1.8435041e-04  2.9302330e-04
 -2.7875271e-06  2.0795383e-03 -3.0597991e-03 -2.4279077e-02
  4.3745060e-02 -6.8908788e-02  4.0422108e-02 -6.5051593e-02
  1.0930046e-03 -5.1397800e-02 -5.3728689e-03 -3.6410362e-04
  8.8620262e-04 -6.2031310e-02 -3.8410775e-02 -3.9066363e-04
  4.8755941e-01  2.3629358e-04  6.2792876e-04  3.5173498e-04
  5.0486247e-03 -3.7329281e-03 -2.3884859e-02 -1.7499292e-03
  4.4921953e-03  9.8220934e-04 -5.2155059e-02  4.5086448e-03
  1.1942086e-03  2.7154930e-02 -9.2938018e-04 -1.4687533e-03
 -5.0553055e-03  1.1612939e-03  9.3732879e-02 -1.9749464e-03
 -3.9984465e-05 -2.6059179e-05  7.0140749e-04  4.2564940e-04
 -2.3577034e-03  5.8936509e-03 -4.0495977e-02 -4.5890003e-04
  1.9864889e-04 -5.9870008e-02 -1.3559811e-02  2.8806524e-03]
[-4.0030548e-01  1.2306412e-04  3.1496570e-03  5.1706558e-01
  1.6352354e-03  3.0347082e-01  5.3083971e-02  3.8330688e-04
  2.1376796e-01  8.7597693e-04  5.2312826e-04 -1.7197926e-03
 -1.9775026e-03 -2.0794319e-03  3.7816388e-04  5.9013459e-04
 -5.0211387e-05  1.9018223e-03  1.4769697e-03  2.1989636e-01
  7.0992954e-02 -7.3795602e-02  6.0184229e-02  4.8112661e-02
  2.3917761e-03 -1.1538251e-01  1.1039812e-03  4.7693611e-04
 -1.4153134e-05  9.1833510e-02 -2.5596842e-03 -8.5486594e-04
 -3.2345757e-01  1.4005747e-03  7.0474576e-05  1.1320405e-03
  4.4888712e-04 -2.9360647e-03 -3.6045864e-01 -2.2136045e-03
 -1.2119533e-03  5.2455219e-04 -4.3391436e-02 -6.9943903e-04
  3.3000912e-04  1.4261404e-01 -8.6606556e-04 -2.2325430e-03
 -2.7991103e-03  1.5973730e-03 -5.9297374e-03  1.1024546e-03
 -1.7356616e-04  2.3053535e-06  1.2778452e-03  1.2614646e-03
  1.2705965e-03 -3.0721450e-04  2.9010044e-02 -1.1932013e-03
  2.1237987e-03  9.0166844e-02 -9.9825159e-02 -3.6167278e-04]
[-7.2769016e-02  3.2168834e-03  1.1443462e-03  2.1005893e-01
  3.1070865e-04  2.0533493e-01 -2.1352227e-01  5.5911499e-03
  1.4278580e-01  4.8247622e-03  4.8882519e-03  1.5139722e-03
 -8.6450047e-04  9.1415655e-04  4.4757142e-03 -8.3455656e-05
 -1.5807396e-05 -2.5337222e-03 -1.6119581e-03  9.1814905e-02
  8.8331632e-02  1.6416354e-01 -2.6627165e-01  1.7501667e-01
  1.3620176e-03  8.1559554e-02 -4.0257978e-03 -7.4641277e-05
 -4.2073103e-03 -2.8099439e-01 -3.1013856e-02 -6.0205028e-04
 -1.4949924e-01  3.1984417e-04  4.4698385e-03  2.8022847e-04
  8.3190808e-03  6.1363364e-03  8.9289606e-02 -1.2669944e-03
 -3.8658315e-03  5.9565962e-03  1.6502649e-01  2.2874787e-03
 -4.9854922e-03  7.7097639e-02  1.0874132e-03 -1.2829225e-03
 -2.6105111e-03  7.3694944e-04  1.1009451e-02 -8.0255984e-04
 -1.9576762e-05 -3.9000159e-05  5.5298064e-04  5.0750864e-04
  5.5449931e-03  1.7463246e-03 -2.7685013e-01 -4.6938381e-04
  5.2000344e-04 -4.5453073e-03 -1.6303867e-02  6.7756651e-03]
[-2.57496703e-02 -1.83183467e-04 -2.18372536e-03  7.14969710e-02
  1.97197165e-04 -2.88141016e-02 -4.32763010e-01 -5.06517768e-04
  1.61084719e-02  1.46874634e-04 -5.06104436e-04 -2.33543757e-03
 -1.38164891e-04 -1.36086636e-03 -6.35985984e-04 -2.74602557e-04
  1.08462584e-04  2.26099836e-03 -1.08952168e-03  1.72698319e-01
 -5.69293797e-02  1.01988815e-01  1.33239731e-01  1.08641841e-01
 -2.53562280e-03  1.15754887e-01  1.28940423e-03  9.87923704e-04
 -9.12965741e-04 -1.38171688e-01  7.53530115e-02 -2.81662305e-05
 -3.63602370e-01  6.89314795e-04 -5.29408106e-04  1.57575123e-04
 -1.82496721e-03 -3.42961343e-04  2.58916974e-01  1.04570296e-03
 -9.06730362e-04 -7.10255117e-04  7.93502852e-02 -5.76138962e-04
 -3.40822240e-04 -1.58265412e-01 -1.19989284e-03 -2.56760941e-05
  7.68826692e-04 -1.05497241e-03  3.69490497e-03  1.64109026e-03
  1.64544781e-05 -7.51654670e-06 -5.98745100e-05  5.91911899e-04
  8.84695619e-05 -5.47443982e-04  5.72043285e-02 -1.14982522e-05
  5.65596973e-04  1.89775392e-01  1.18137658e-01 -8.75229831e-04]
[-5.3138667e-01  1.3196315e-03  3.2223270e-03  4.1573605e-01
  1.8176620e-03  3.6944807e-01  6.1003510e-02  7.2052510e-04
 -1.5727139e-01  5.7470577e-04  1.0234260e-03 -2.7537436e-04
 -1.0541044e-03 -5.8399688e-04  8.9071767e-04  3.0782237e-04
 -4.3968088e-05  5.1407778e-04  2.0531677e-03  3.9490469e-02
 -4.6032086e-02 -1.4157338e-02 -6.5749139e-02 -7.9830334e-02
  1.6551868e-03 -1.5829509e-02 -2.3813234e-04 -2.2153772e-04
 -1.0935261e-03  2.1672977e-02  4.4250734e-02 -5.3783931e-04
 -2.4352279e-01  7.2443695e-04  2.4118350e-04  5.7109952e-04
  1.1559365e-03  4.5128996e-04 -1.5198734e-01 -1.5793240e-03
 -9.2180929e-04  1.1498400e-03  4.9597397e-02  1.3293385e-03
 -1.0270564e-03  1.1017296e-02 -2.5805453e-04 -1.6036191e-03
 -2.4243037e-03  1.2596759e-03  9.9678993e-02 -3.3126591e-04
 -1.0325253e-04 -8.9714486e-06  1.0884501e-03  9.4761845e-04
  1.6878428e-03  1.4343706e-03 -4.3417010e-02 -5.9904798e-04
  2.1123518e-03 -4.3635260e-02  8.9613132e-02  1.1680954e-03]
[ 2.80142426e-01 -8.03624280e-03 -5.62147330e-03 -9.18961987e-02
 -6.90855645e-03 -7.37631842e-02 -3.05287708e-02  3.99460038e-03
  9.37976465e-02  2.49335216e-03  3.97406425e-03  8.08631186e-04
  4.64640878e-04  8.47123913e-04  4.10007033e-03 -4.00527439e-04
 -1.57556969e-05  2.05052970e-03  8.51413421e-03 -1.69003263e-01
  2.03285709e-01  2.57597208e-01 -1.70785785e-01  3.59238118e-01
 -4.78172116e-03  2.07446814e-01  1.70932792e-03  1.24038791e-03
  4.20094375e-03 -1.99580312e-01 -2.85485148e-01  5.05899894e-04
 -1.32946640e-01 -4.76136280e-04  4.40317206e-03 -3.91281035e-04
  4.53021523e-04 -3.55659099e-03  4.97019798e-01  3.41978762e-03
 -2.95993220e-03  3.83608160e-03  9.40268785e-02 -8.88496172e-03
  4.77854162e-03  1.04459770e-01  3.91747197e-03  2.22198502e-03
  6.61434373e-04 -2.86076567e-03 -1.54292002e-01  1.20823592e-04
  1.11775800e-04 -1.75261357e-05 -1.73561892e-03 -1.14326295e-03
  2.03551631e-03 -8.68617743e-03 -2.53074646e-01  1.00597805e-04
 -5.20111574e-03 -1.24150775e-01  2.37645596e-01 -3.56953195e-03]
[ 9.3465827e-02  4.3013981e-03  2.3914648e-03  7.2440207e-03
  8.0549996e-04 -1.2774064e-01 -5.2096564e-02  5.9447193e-04
 -7.6934278e-02  1.0350861e-03  1.0421334e-03 -3.0774678e-04
  4.2336913e-05 -6.6333509e-05  4.7459092e-04 -1.5921560e-06
  2.9696028e-05  2.3209216e-04 -5.3195697e-03  7.0969708e-02
  2.6469299e-01  1.1664254e-03 -2.0399423e-01  1.3867360e-01
  2.2620673e-03 -2.0408496e-01 -2.3107945e-03 -1.2436621e-04
  3.2554828e-03 -3.6862284e-01 -7.7135496e-02 -1.2399101e-04
 -8.2856648e-02 -2.4790640e-04 -7.9985074e-04  1.1503435e-06
  3.3741090e-03 -8.3273475e-04  1.8505438e-01 -1.7060360e-03
 -2.3279758e-03  1.1755560e-03 -6.7514136e-02  4.1643465e-03
  2.0251055e-03 -3.0951270e-01 -4.1271429e-04 -1.1894294e-03
 -1.9446544e-03  1.2977172e-03 -1.0785811e-01 -4.8247469e-04
  1.7471211e-05 -4.3203945e-06  5.9475674e-04  1.7739239e-04
  2.7018148e-03  3.4361596e-03  8.1654653e-02  1.3120340e-04
 -4.5533892e-05  1.4419247e-01  5.1586274e-02  2.0929689e-03]
[ 7.89891034e-02  1.40992471e-03 -5.41907793e-04 -4.22407240e-02
  1.15624245e-03 -3.55507910e-01  3.58480066e-02 -5.94909594e-04
  1.17465034e-01  2.71304336e-04 -5.99411505e-05 -3.48437723e-04
  5.39463130e-04  9.18389705e-05 -4.43865953e-04 -3.74680967e-04
  2.25477979e-05  2.04784051e-03 -2.67254538e-03 -2.64573634e-01
  8.57818499e-02  1.19882245e-02  1.79013118e-01 -1.14087991e-01
 -1.68542867e-03  1.97417438e-01  2.35474948e-03  7.28967716e-04
  2.45957496e-03 -7.82795846e-02  2.13743508e-01  1.85203506e-04
 -2.01974716e-02 -4.89704325e-05 -8.58118758e-04 -2.35848507e-04
 -6.18099875e-04  2.55418476e-04  7.08336011e-02  6.57604891e-04
 -1.17206876e-03 -4.32994624e-04 -2.57805139e-01  6.54482457e-04
  2.16954807e-03 -8.30321535e-02 -6.12498261e-04 -4.82588744e-04
  4.50431544e-05 -4.33642475e-04  7.89211169e-02 -1.82182790e-04
  8.12143480e-05 -1.30734852e-05  1.11960035e-04  3.85452760e-04
  1.35961885e-03  1.67518083e-04 -1.23836771e-01  4.21392004e-04
  5.25205280e-04  3.98256438e-04  5.72280921e-02 -7.56928494e-05]
[ 1.3373159e-01 -3.7224995e-04  2.2284617e-03 -6.9143392e-02
 -1.7221144e-05 -7.5059399e-02 -6.3337088e-02 -2.0118689e-03
 -1.9015789e-01 -1.8294181e-03 -3.7862090e-03 -1.9404240e-03
 -1.6955575e-03 -1.8500938e-03 -2.8899321e-03  1.8044752e-04
  7.2147291e-06  2.4779935e-03  1.7008574e-03 -1.4670821e-01
 -7.4687019e-02 -3.1809952e-02 -7.7368520e-02  1.1475106e-01
  4.3936567e-03 -3.9409447e-02 -4.0837540e-03  2.9945676e-04
  1.4131125e-03 -1.7939681e-01 -1.8551040e-02 -7.3298160e-04
  1.3449458e-02  2.5691785e-04 -1.8855711e-03  7.8895775e-04
  5.9924449e-04 -4.0315338e-03  2.8407559e-02 -1.2301542e-03
  5.1636063e-03 -2.6450148e-03  6.1787374e-02 -3.9373204e-05
  2.1531044e-03  1.2478798e-02 -1.9346952e-03 -4.3316395e-05
 -6.0994383e-03  8.7650283e-04 -1.5457915e-01  2.5480968e-04
 -1.9228441e-04  7.6987590e-08 -3.2364161e-04 -9.2469284e-04
 -5.0888211e-03  2.2310710e-03 -1.0057218e-01 -1.0605427e-03
 -1.6812828e-05 -1.2154680e-01 -7.9102673e-02 -7.4312638e-04]
[-1.01602055e-01  4.63035330e-03  2.65018409e-03 -1.29277200e-01
  1.46533141e-03  1.05779223e-01 -2.63811052e-01  2.47731805e-03
 -6.67855442e-02  2.64274143e-03  1.64639705e-03 -1.52617425e-03
 -3.15903104e-04 -1.35415804e-03  1.73069083e-03  2.36597225e-05
 -4.82467076e-05 -4.06286912e-03 -6.70015393e-03 -1.44195050e-01
 -1.20487817e-01  8.20795745e-02  4.76341695e-03 -2.11833820e-01
  1.64339715e-03  2.21038796e-03 -3.57097574e-03  1.52938199e-04
  4.33850801e-03 -5.78370877e-02  2.61315465e-01 -4.19443066e-04
  9.35196877e-02  5.50959376e-04  7.92416104e-04  1.90803519e-04
  7.30220601e-03 -5.09315124e-03 -1.83966517e-01 -1.89184886e-03
 -1.49729941e-03  2.83617107e-03  4.93513085e-02  4.79678996e-03
  4.72399965e-03  1.88085635e-03  4.88705991e-05 -1.96568319e-03
  1.35328213e-03  1.54102349e-03  2.14493811e-01  1.09789008e-03
 -4.53968678e-05  7.65817458e-06  1.40652526e-03  1.23415794e-03
  2.48551276e-03  4.72563924e-03 -2.13181883e-01 -1.34348535e-04
  8.80079111e-04 -7.27690235e-02  7.32572854e-01  1.93906587e-03]
[-5.3918220e-02 -5.4635905e-04 -1.2417033e-05  6.5924334e-03
  2.3633734e-04 -1.1632331e-01  5.4219931e-02 -1.3336443e-03
  9.6363112e-02 -1.6336875e-03 -1.4123666e-03  5.7233986e-04
  3.4803306e-04  9.6289485e-05 -1.5250889e-03  9.1132351e-05
 -7.4359043e-05 -4.3014338e-04 -6.0290901e-04 -2.9284969e-01
  2.9739007e-02 -1.6972382e-01 -3.1062900e-04  2.1202911e-01
 -8.6637278e-04  7.1656309e-02  2.7500873e-04 -1.4346570e-04
 -1.3951438e-03 -2.0223729e-01 -7.0738867e-02  1.7837818e-04
 -5.3137694e-02  7.7777338e-05 -8.3298329e-04 -6.9447182e-05
 -2.0854520e-03 -6.4253091e-04  5.0941199e-02 -4.0135870e-05
  1.1171900e-03 -1.6058285e-03  7.9995185e-02 -7.7393794e-05
 -6.6553208e-04 -2.0611984e-01 -1.4445925e-03 -8.4775034e-04
 -4.2877439e-04  9.8763761e-05 -8.7464415e-02 -7.1912516e-05
  7.1971379e-05 -3.3310022e-05  4.3070561e-04  5.7279610e-04
 -1.4422687e-03  1.4014828e-05 -3.5613051e-01  6.2522566e-04
  9.4621384e-05 -3.7816700e-01 -7.2397374e-02 -1.4565407e-03]
[-4.28270958e-02  1.72947627e-03 -6.67741173e-04  2.73920340e-03
 -1.09682535e-03  1.03988856e-01  3.07374030e-01  2.45411880e-03
 -2.91332463e-03  2.02225079e-03  3.36224330e-03  1.09339843e-03
  6.80462457e-04  9.35281627e-04  2.62856437e-03 -1.92373584e-04
 -2.26031843e-05 -6.97548443e-04 -2.62760697e-03 -3.79641615e-02
 -3.41141105e-01  2.09441975e-01 -3.38058323e-02 -1.83260888e-01
 -2.10347818e-03  2.53479958e-01  3.04221001e-04  3.15796322e-04
  2.64673005e-03  1.92747265e-01 -9.53026637e-02  2.69147189e-04
  6.17838651e-02  2.78453343e-04  1.75855472e-03 -4.35066147e-04
  2.55558593e-03 -8.61776876e-04 -3.14352065e-01  2.12243875e-04
 -4.90251416e-03  2.90507288e-03  2.72568047e-01  3.44989123e-04
  2.66083167e-03 -2.10257679e-01  1.61638239e-03 -7.92437873e-04
  3.10055399e-03 -1.08416367e-04  2.03297380e-02 -4.79564915e-05
  9.63875718e-05 -1.76149078e-05  5.98183775e-04  1.04967889e-03
  4.51718457e-03 -1.11375062e-03  9.56153348e-02  3.49494745e-04
 -1.00763352e-03  1.19403899e-01  1.26291320e-01  2.38172896e-03]
[ 6.1814640e-02 -1.3039691e-03  7.0415554e-05  6.0367971e-03
 -9.2230656e-04 -1.2235105e-01 -2.6098332e-01  7.5744442e-04
 -9.8911002e-02 -1.0354617e-03 -2.5033491e-04 -1.3372293e-04
  1.9739167e-04 -1.1207367e-04  1.4033889e-04 -2.9113107e-05
  2.2877435e-05  2.5673932e-03  3.3882188e-03 -1.4035961e-01
  4.1298825e-02 -4.6054143e-02 -1.4290904e-02  1.7042187e-01
  5.0289370e-04  7.0561357e-02 -2.5737332e-03  3.7518836e-04
 -1.6662501e-03 -6.7454919e-02 -5.1788211e-01  2.2768218e-06
 -2.8999906e-02 -3.0886673e-04  1.0464352e-03 -9.0629619e-05
  1.3916831e-03  1.0474666e-03  1.6691360e-01 -1.5642610e-04
  1.5678518e-03  1.9244691e-04  4.0671203e-02 -1.6381466e-03
 -1.7920948e-03 -5.8253601e-02  7.1743998e-04 -3.4303026e-05
 -9.3063252e-04  2.3187758e-04 -1.5812142e-01 -1.4652680e-05
 -9.9030785e-06  1.2858434e-05  4.5712513e-06 -2.2200626e-04
 -1.4734002e-03 -6.9828739e-04  3.4872863e-02  2.3657957e-04
 -6.9637701e-04  3.7819877e-02 -1.5817894e-01  1.5374689e-04]
[-1.35498121e-01  1.22912170e-03 -1.35346537e-03 -3.98418354e-03
  1.35894888e-03  1.10178590e-01 -1.23610131e-01  2.74911709e-03
 -1.60669103e-01  2.72236159e-03  3.81535571e-03  6.50997972e-04
  2.54751300e-04  6.86693878e-04  3.10607022e-03 -8.89651074e-06
  2.72582001e-05 -6.23979489e-04 -2.36878451e-03 -7.58538619e-02
 -1.56487137e-01 -2.67947257e-01  1.80194616e-01  5.45638315e-02
 -1.47287606e-03  8.91939849e-02  1.78201322e-03 -3.14775127e-04
 -1.38189923e-03  1.98590636e-01 -3.64756554e-01  1.56089998e-04
 -1.14156246e-01  2.42842943e-05  2.03190558e-03 -1.47939791e-04
  2.47574272e-03  2.56450335e-03  2.24459022e-01  5.90503798e-04
 -5.21623250e-03  3.35556990e-03 -1.23897763e-02  4.60945914e-04
 -1.41946308e-03 -1.96770906e-01  1.36569876e-03  2.12313578e-04
 -2.93994613e-04 -5.27383236e-04 -1.39505807e-02 -6.04582252e-04
  2.73965379e-05  1.53306632e-06 -1.19218574e-04 -2.07710891e-05
  5.58221387e-03 -7.19906413e-04  1.14703134e-01  8.92729004e-05
  1.20179239e-03  1.97026715e-01  3.97946760e-02  1.23595376e-03]
[-5.71821965e-02  7.87810143e-03  6.72932831e-04  1.11384630e-01
  2.77525908e-03  2.09999338e-01  6.82688728e-02  2.86079175e-03
 -1.28527030e-01  2.42796005e-03  1.16487697e-03  1.99248607e-04
 -5.30657067e-04  1.61365344e-04  1.34169054e-03  1.91867817e-04
 -1.81393789e-05 -5.92056313e-04 -7.02831103e-03  4.66275215e-02
 -9.54328328e-02 -1.74171239e-01 -1.59892514e-01  1.01814523e-01
  5.89649833e-04  9.17416587e-02 -7.23190047e-03  5.06854209e-04
 -2.64059659e-03 -5.53125925e-02 -3.02269250e-01 -2.13867810e-04
 -1.17274694e-01 -2.97048857e-04  1.08094525e-03  2.10164348e-04
  9.50370543e-03  3.43361567e-03  9.04370174e-02 -4.40660020e-04
  1.92630454e-04  3.14903585e-03 -2.72833146e-02  8.20486713e-03
 -2.92823068e-03  1.47953972e-01 -1.02577044e-03 -2.44225317e-04
 -4.81955661e-03  3.62057530e-04 -9.53839626e-03 -1.36043783e-03
 -3.73340845e-05 -1.60360869e-05 -1.07921398e-04 -4.31966269e-04
  1.69797719e-03  7.82558881e-03  2.68910855e-01 -1.88231817e-04
  1.45671703e-03 -8.85684043e-02 -1.19318224e-01  7.27083581e-03]
[-3.05401683e-01  3.96697130e-03  1.21471751e-03  1.65885627e-01
  3.65784974e-04  1.67444870e-02 -3.20844688e-02 -1.95486192e-03
 -4.97406013e-02 -1.01207418e-03 -3.45720886e-03 -3.67777044e-04
  7.56316760e-04 -8.30624369e-04 -3.10848258e-03 -4.38578631e-04
 -2.06585537e-04  1.57732761e-03 -3.26176407e-03 -1.05046935e-01
  1.32011160e-01 -2.83204615e-01 -6.58333674e-02 -6.97695166e-02
 -2.83794798e-04 -3.07921767e-02 -3.33742541e-03  1.30866363e-03
 -1.74743345e-03 -2.01359347e-01 -3.54678631e-01  4.54687892e-04
 -7.61432767e-01 -5.00834896e-04 -2.11546710e-03 -3.15667305e-04
  1.02330046e-03  8.96287209e-04  4.79058735e-02 -3.07556533e-04
  2.99993856e-03 -2.36834772e-03 -1.55028611e-01  3.96110723e-03
 -1.76233391e-03  1.99688599e-01 -2.83430889e-03 -7.23183097e-04
  1.14304118e-03  1.26436382e-04  1.72012538e-01  4.87417128e-04
  1.63954610e-04 -5.75249251e-05  1.62382115e-04  3.28502385e-04
 -3.71663459e-03  4.63051535e-03 -1.52054831e-01  1.08932098e-03
  1.25777267e-04 -1.41408622e-01 -1.12234823e-01  1.69957674e-03]
[-1.7025171e-01 -1.3806548e-03  8.9207431e-04 -6.5721005e-02
  6.4257730e-04 -2.5679903e-02 -1.2214755e-01 -8.3899120e-04
  4.4052411e-02 -8.3250535e-04  9.6134929e-04 -5.0820009e-04
  1.3703844e-05 -1.3307126e-03  2.3023014e-04  3.0449239e-04
 -2.3226648e-05 -1.4792355e-03  2.5429511e-03 -2.2274801e-01
  1.1712533e-01 -1.3474943e-01 -4.3392695e-02 -1.6549405e-01
 -1.0317485e-03 -4.2783771e-02  4.9141566e-03 -5.3679157e-04
  2.1362628e-03 -3.1545933e-02 -2.7509365e-02  2.1518240e-04
  2.5899306e-01  8.0965197e-05 -5.3473975e-04  2.2262575e-06
 -4.1809157e-03 -6.0763542e-04  2.3773804e-01  3.0647000e-04
 -2.4635661e-03 -4.2115265e-04 -1.5228419e-01 -1.7799201e-03
  1.8769719e-03  8.1268363e-02  2.9306186e-04 -3.4510749e-04
  1.3150020e-03 -3.1238378e-05  2.9807432e-02  4.7612996e-04
  2.7928127e-05  4.7400908e-06  1.8218033e-04  4.7392570e-04
  2.1872958e-03 -2.4910697e-03 -3.8152281e-02  1.5000071e-04
  8.3579955e-04  1.2763569e-01  2.0871802e-01 -1.9592461e-03]
[-2.1436982e-02 -6.1849266e-04 -2.6369302e-03 -1.1010040e-01
  2.5849363e-03 -3.8105801e-02  1.8244524e-01 -3.3658363e-03
 -2.3041323e-01 -2.2050100e-03 -3.3352119e-03 -3.4758163e-04
  4.2371728e-05 -3.9777224e-04 -3.0612566e-03  7.1776501e-04
 -6.9748625e-05 -4.0669022e-03 -1.5755103e-03 -8.7136567e-02
 -1.2946320e-01 -7.9300180e-02 -4.0917945e-04  4.2701602e-02
 -2.7886727e-03 -1.6298616e-02  3.9978535e-03 -2.4592370e-04
  4.0241989e-04  6.9987647e-02  1.0709541e-02  4.8271340e-04
  6.5805525e-02 -2.6922306e-04 -2.3804107e-03  1.2953255e-04
 -5.2919779e-03 -1.4944406e-03 -1.9545975e-01  1.2555681e-03
  2.8912826e-03 -3.7872032e-03  1.0069931e-01  2.5390770e-04
  9.8224904e-04 -6.0668555e-03 -1.9880633e-03  1.0763272e-03
 -5.9256732e-04 -1.1949210e-03  1.8586224e-01 -2.4387085e-04
  9.7563920e-05 -9.4901197e-06 -8.6602051e-04 -5.0271273e-04
 -3.7562717e-03  4.3227462e-04  1.8257827e-02  2.1762447e-05
  1.9252789e-03 -7.4886724e-02  1.3135938e-01 -3.5686865e-03]
[-3.51846695e-01  7.58002396e-04 -9.75364412e-04 -3.86935323e-02
 -1.06171981e-04  3.99252400e-02 -3.38221267e-02  1.51173689e-03
  2.16325685e-01  1.14283734e-03  5.55326755e-04 -1.53987770e-04
  3.17558239e-04 -1.24643353e-04  9.07641079e-04 -1.15791054e-05
  6.12964232e-06 -1.29470497e-03  1.37047973e-04  7.38356337e-02
  9.08358842e-02  1.15369679e-02  4.96442057e-02 -1.91356421e-01
 -9.16942488e-04 -8.47890601e-02 -3.25724785e-03 -1.47641567e-05
 -4.13785820e-05 -9.10068378e-02 -3.10893327e-01  2.83716276e-04
 -1.15247913e-01 -2.61250243e-04  1.30251306e-03 -1.80594521e-04
  3.85409431e-03  1.14251212e-04  8.05924237e-01  6.30317139e-04
  7.87339872e-04  1.36474892e-03  3.80571596e-02  7.83963944e-04
 -1.40341626e-05  1.26409633e-02  4.70800878e-05  5.97146456e-04
  8.53048405e-04 -4.37491806e-04 -3.01933326e-02  2.78330408e-04
  3.52171701e-05  9.59787485e-06 -3.52460396e-04 -3.33180709e-04
  2.65369832e-04  1.24726444e-03  1.24354418e-02  7.93425861e-05
 -1.11539746e-04  5.29765934e-02  1.67503715e-01  1.70277804e-03]
[-5.39764836e-02  6.26835099e-04  3.75525746e-03 -7.38644749e-02
  2.02035811e-03 -1.55607596e-01 -1.23475604e-01 -1.32041983e-04
  6.72034100e-02  8.83612549e-04 -9.69730609e-04  1.36035262e-04
 -1.53622194e-03 -5.99725463e-05 -8.03487492e-04  5.58199768e-04
 -3.95005336e-05 -4.54677967e-04  9.54254414e-04  8.70513618e-02
  5.27280718e-02  2.22738385e-01 -8.21293741e-02 -1.51322158e-02
  3.22633563e-03  3.89994085e-01 -2.84668803e-03 -4.30891196e-05
 -2.22082413e-03  4.02464792e-02  1.31449044e-01 -6.42933534e-04
 -1.25732690e-01  3.54319636e-04 -5.41601214e-04  8.10894649e-04
  1.96015043e-03 -1.89618405e-03  2.36267727e-02 -2.50026374e-03
  1.57637615e-03  8.45813338e-05  1.51293308e-01  9.80809913e-04
 -1.36496290e-03 -5.21659613e-01 -2.02291599e-03 -1.34861039e-03
 -2.30751676e-03  1.50297233e-03  1.04699902e-01 -2.97854654e-04
 -7.13996560e-05 -2.15254786e-05  6.45264052e-04  5.45391289e-04
 -1.17887126e-03  1.98127911e-03  9.26940516e-02 -1.03722920e-03
  2.31354567e-03  1.62130177e-01 -1.75499976e-01  1.19482586e-03]
[-6.47489028e-03 -2.25126231e-03  9.35957360e-05  9.65350941e-02
  5.38619817e-04 -6.23341613e-02 -6.15164563e-02  6.74798037e-04
 -6.42096549e-02  7.79035501e-04  5.86987589e-04  9.89048640e-05
  5.32649981e-04  9.99605036e-05  7.31946318e-04 -2.73258847e-05
  2.79274154e-05  3.45749245e-03  3.35206423e-04  5.43109141e-04
 -8.80045593e-02 -8.90948325e-02 -4.51732844e-01  3.48738395e-02
 -1.79166324e-04 -3.54895764e-03  7.75757013e-04 -1.98608715e-04
  2.22513336e-03  1.75962210e-01 -2.12750837e-01  3.97768221e-04
 -1.41981468e-01 -1.78286078e-04  8.60227388e-04 -2.56786705e-04
  3.97604366e-04 -2.82374141e-03  1.34359747e-01 -6.18436025e-06
  7.81469862e-06  5.97182137e-04  7.80043900e-02 -1.58350356e-03
  1.71497010e-03 -1.62404031e-02  2.07124875e-04 -2.11082486e-04
 -1.64554658e-04 -7.63641146e-05 -5.47988228e-02 -3.15768877e-04
  5.55766055e-05  3.20941263e-06  6.07650582e-05  1.00965604e-04
  5.54938684e-04 -1.12270971e-03  4.89859469e-02  4.04565479e-04
  6.00099622e-04 -2.66287178e-01  1.12843648e-01 -1.68635533e-03]
[-4.06116107e-03  4.39850288e-03 -2.08269013e-03 -3.51306647e-01
  1.63280976e-03 -6.42473698e-02  9.66849923e-02 -9.38114244e-04
  3.10577396e-02  5.46518539e-04 -2.10797851e-04  3.38019396e-04
  8.29250668e-04  2.03998323e-04 -7.78889167e-04 -2.72962177e-04
 -8.21266985e-06 -4.28124855e-04 -4.23726952e-03  2.98065953e-02
  2.87470426e-02  7.07152262e-02  8.09342191e-02  4.12656926e-03
 -2.70906440e-03  2.72862148e-02  2.36878390e-04  4.55621193e-04
 -4.87469090e-03  3.32120061e-02  3.62278111e-02  5.21379523e-04
 -6.92802742e-02 -6.06838003e-05 -1.64999929e-03 -4.98125039e-04
 -5.71687822e-04  5.54060098e-03 -1.91649050e-01  1.78110669e-03
 -2.17385427e-03 -5.50585217e-04  1.13446815e-02  3.17367446e-03
 -4.89685312e-03  2.30398625e-02 -1.01845490e-03  7.61212781e-04
  3.90984630e-03 -1.37682736e-03  1.94833707e-02  9.35837394e-04
  1.02704238e-04 -1.64449636e-06 -3.70650232e-04  1.73509732e-04
  1.53820892e-03  2.13253847e-03  9.98462271e-03  4.49783343e-04
  1.32849056e-03  7.48804584e-02  1.14297405e-01  2.89436150e-03]
[ 1.27626911e-01 -2.61325156e-03 -3.63737857e-03 -3.07207704e-01
 -1.25527580e-03  1.17646404e-01 -4.58828807e-02 -3.80035653e-03
 -9.91227254e-02 -4.49733390e-03 -3.87413660e-03 -7.48429680e-04
  3.57607438e-04 -4.85022465e-04 -3.72494617e-03 -5.26718759e-05
  7.35274662e-05  5.41547034e-03  3.45735950e-03  2.35733204e-03
 -1.21225543e-01 -2.19990522e-01 -1.72905046e-02  1.01489149e-01
 -3.22310859e-03  5.46653047e-02  1.60814472e-03  8.64653848e-04
 -2.85508274e-03  7.31548592e-02  1.58770055e-01  3.17505153e-04
  1.24220684e-01 -2.89822347e-04 -2.50918325e-03 -1.77387818e-04
 -6.81106886e-03  3.44390678e-03 -2.36679450e-01  1.73499295e-03
  3.50848958e-03 -4.57462436e-03 -1.38622433e-01 -2.52828468e-03
 -3.26949847e-03 -6.22927696e-02 -1.28074875e-03  1.00374059e-03
 -2.60219723e-03 -1.52700930e-03  8.40437785e-02 -4.06923427e-05
  4.60868687e-05  1.54194731e-06 -9.67791188e-04 -7.25882943e-04
 -4.82319202e-03 -2.03712680e-03  7.81024843e-02  1.87886311e-04
 -8.97458871e-04 -2.59022176e-01 -1.24187404e-02 -2.35010800e-03]
[ 6.1922181e-01  6.7877572e-04 -1.2776867e+00 -2.3118356e-01
  5.6623868e-03  9.1869152e-01  1.8027985e-01 -2.8551752e-03
  3.2663473e-01 -2.0407948e-03  1.7148403e-03 -1.2791432e+00
 -1.2810346e+00 -1.2786698e+00  1.8310013e-03 -1.2761241e+00
 -1.2785617e+00 -1.4660008e-02 -4.8138462e-03  9.6380460e-01
  1.3123001e-01 -4.5440724e-01 -3.2551382e-02 -4.9160191e-01
 -1.2782161e+00 -3.4886885e-01 -2.3221355e-03 -1.0778870e-02
  2.4863412e-03  4.8864591e-01  5.0865930e-01 -1.2803690e+00
  4.1823842e-02 -1.2766746e+00 -1.9251469e-03 -1.2775300e+00
 -4.0350864e-03  9.7095635e-04 -3.7405372e-01 -1.2793921e+00
  6.9106190e-04 -4.7371333e-04 -2.4308397e-02  5.1067956e-03
 -1.3826732e-03 -2.9980215e-01  4.8559182e-03 -1.2778854e+00
 -1.2777432e+00 -1.2771477e+00  4.7594383e-01 -1.2813166e+00
 -1.2791961e+00 -1.2784421e+00 -1.2773013e+00 -1.2796634e+00
  3.3379060e-03  3.7705421e-03 -8.8685846e-01 -1.2824577e+00
  7.9458469e-04 -7.1685307e-02  3.2007092e-01  1.4807108e-03]
layer 3 Activation
swish
layer 4 Dense
64 64
[ 2.2430879e-33 -4.0385365e-33  3.7819881e-09  8.4166948e-34
  2.5314670e-03  5.5155548e-04 -4.8587788e-33  2.1024447e-33
 -1.0533878e-05 -8.7842271e-02  5.1669813e-05  2.5105865e-33
  8.7912273e-01  1.5105968e-07  2.9658177e-04  3.5249681e-33
  3.5928770e-05 -2.0434472e-34 -1.3176826e-07  1.8421859e-03
  1.6064137e-33  2.2446334e-04  5.7778324e-33  3.5692737e-01
  1.8905426e-04 -2.0519221e-06 -4.0123823e-01 -4.8251949e-34
 -7.9917302e-04 -1.0370873e-01 -5.7309080e-05  4.7722683e-35
 -1.0693906e-01 -1.5353331e-07  1.3075452e-03 -8.7780363e-06
 -1.4272857e-03 -1.0113277e-04 -5.4029375e-33  9.4619568e-04
  3.9263111e-02  4.8430893e-33 -2.7871214e-33 -1.2000444e-05
  1.7501113e-33  1.8412920e-06 -3.4494386e-33  1.0357203e-33
  2.4478007e-04  4.1911619e-33  3.8898119e-03 -6.2687680e-02
 -4.5241846e-33 -3.8918605e-04 -1.1716184e-05  1.2822889e-03
 -1.7645682e-05 -1.8812435e-33 -2.2070367e-33 -7.5620947e-34
  1.6500535e-33  4.7295482e-05  2.1552392e-03  6.5977860e-04]
[-3.06789920e-33  5.87984625e-33 -1.62330700e-08  2.14581204e-33
 -1.79287337e-04  5.85706548e-05 -1.78333660e-33 -1.42798466e-33
 -1.25615441e-06 -3.11071926e-04  9.24153937e-07  4.73687195e-33
  2.32418533e-03 -8.27141289e-09 -1.38910953e-04 -1.47125461e-33
  1.80893505e-06 -5.24440927e-33  1.05988178e-07 -1.09012166e-04
  2.69252271e-33 -9.46835062e-05  4.57153867e-33 -1.61581032e-03
 -2.25632451e-04 -2.03631998e-07 -1.04413787e-03 -3.52497842e-33
 -6.85981868e-05  5.29379293e-04 -3.17676058e-05 -5.53757756e-33
  2.65394163e-04 -6.02565908e-09  4.07013751e-04  1.97167651e-06
  2.33944840e-04 -6.68962366e-06  5.16756721e-33 -7.13413101e-05
 -8.92614771e-04  5.72629143e-33 -2.48499506e-35  4.93802236e-06
  1.19437279e-33 -1.32866699e-05  1.50882341e-33  5.08652275e-33
  1.39711119e-04  4.62224950e-34  3.53198498e-04  2.27831479e-04
 -3.26989615e-33 -1.47077517e-04  1.58512648e-06 -8.40054490e-05
 -5.86101050e-05 -5.24198188e-33 -3.24338258e-32 -2.20671440e-33
 -1.74699032e-33  2.16203398e-06 -1.52694556e-04 -1.70801242e-04]
[ 4.72742612e-33 -3.03065237e-33 -2.38850731e-07  4.24002355e-33
  2.31488404e-04  8.91738164e-05  4.45333463e-33  4.47631702e-33
  2.57361298e-05 -3.73905860e-02 -2.62243502e-05  2.60529166e-33
  5.09421248e-03 -1.05061076e-07  2.60636880e-04  3.92763997e-33
 -1.27216927e-05 -2.74465827e-33 -1.62627441e-06  3.28921713e-04
  3.55598061e-33  1.07181681e-04  1.79690787e-33 -4.45715226e-02
 -1.19942101e-03  2.50999733e-07 -2.63915583e-03 -5.55655225e-33
 -1.18135009e-04 -3.34753729e-02 -4.72821484e-05 -1.38484898e-33
 -4.40195650e-02  7.44983453e-08 -7.74107175e-05  2.75892580e-05
  2.52821890e-04 -5.11013932e-05 -3.57977629e-33  4.50303429e-04
 -6.42476529e-02  3.88479320e-33 -3.01450751e-34  2.01981238e-05
  1.25371358e-33 -3.70489579e-05  5.02435820e-33  3.80126771e-33
  1.84923236e-04 -1.20979381e-33 -2.42834678e-03 -1.08909989e-02
  1.91492695e-33 -2.69116659e-04  1.52301291e-05  6.59292200e-05
 -4.41179327e-05  4.95719743e-34 -8.70803827e-34  1.34290330e-33
 -7.05142143e-34 -3.57105932e-06  1.28865053e-04 -8.23501148e-04]
[ 1.2511760e-34 -3.4462717e-33  2.5352143e-08 -4.4745868e-33
 -7.8476721e-04  3.0733546e-04 -1.2623063e-33 -2.4767027e-33
  6.9084290e-06  1.0679730e-01  1.1277332e-05 -2.6953759e-33
 -2.1619891e-01  3.3816207e-08 -5.3634658e-04 -5.1553645e-33
  1.0475412e-05  5.6987437e-33  5.4364205e-07 -1.0463208e-03
  3.3300638e-33 -3.1377311e-04 -3.9622395e-33 -6.7606962e-01
 -1.1462162e-03  1.0448862e-06  3.8401881e-01  4.5959107e-33
 -5.6776678e-04 -3.9626468e-02 -1.0212967e-04 -2.4129872e-33
  2.7483794e-01 -6.5886443e-09  6.7921454e-04  2.6276641e-05
  1.0746134e-03 -1.3850562e-04  6.4023888e-34 -1.2281794e-03
 -2.4327744e-02  3.2244710e-34  4.7788198e-34  1.3115112e-05
 -8.0080865e-34 -3.4394630e-05  9.0329816e-34  9.0137642e-34
  5.0436007e-04  4.9284875e-33 -2.0015414e-03  2.6279859e-02
 -4.6923046e-33 -2.7937652e-04  5.4436537e-06 -8.6745672e-04
 -6.0012691e-05 -2.4898901e-33  2.7148588e-33 -3.9858857e-33
  9.2762924e-34 -4.4944081e-06 -8.8952505e-04 -9.9556241e-04]
[-3.3888621e-33 -4.8327423e-33 -6.6214936e-09 -3.8140677e-34
 -9.6755801e-05  2.5644867e-05  5.4455128e-33 -1.7197717e-33
  1.5535599e-07  8.4127569e-05 -2.1557723e-06  1.8400189e-33
  1.7843316e-03  5.8210983e-09 -3.5145538e-05 -1.5424661e-33
  9.5444352e-07  5.1492648e-33 -2.9387628e-08 -2.2833092e-05
 -5.2212520e-33 -3.7017228e-06  2.0688230e-33 -8.9858857e-04
 -3.6023819e-05 -1.3819999e-07 -4.0064778e-04  3.5338769e-33
  8.9083223e-06  1.7603590e-04 -1.0821263e-05 -2.7988168e-33
  3.3598830e-04  4.7734137e-09  3.2947201e-04  5.9550291e-07
  3.0753945e-05 -1.9423103e-05 -4.9974555e-33 -4.6261339e-05
 -2.3445628e-04  5.0709533e-33 -3.9161065e-33  2.2838524e-06
  5.4419952e-33 -6.0512002e-06  3.6969180e-33  4.3638259e-33
  4.5434273e-05  1.9408117e-33 -7.7499007e-04  1.9011850e-04
 -4.5641213e-33 -7.7623605e-05  2.1881399e-07 -1.5302753e-04
  8.3990453e-06  5.8469912e-33 -2.5327927e-32 -4.4881388e-33
 -2.8482640e-33  3.6864353e-06 -1.9870156e-04 -9.8569122e-05]
[-3.47952205e-33  8.11825970e-34  3.73532174e-07 -5.62266205e-33
  1.12484873e-03  5.67119132e-05 -4.28192184e-33  3.02311158e-33
 -1.34886195e-05  8.63999650e-02  6.14554956e-05  3.26552845e-33
 -1.58198148e-01  1.52763789e-07 -4.33793641e-04  7.22965209e-34
  1.68108782e-05  3.23352415e-33  2.89209243e-06  3.79539968e-04
 -3.53536391e-33 -5.43944712e-04  8.47869749e-34 -3.37078832e-02
  1.40344584e-03  2.13360454e-06  9.94391441e-01  4.50223887e-33
  1.86022633e-04  1.88055903e-01 -4.91397805e-05 -1.70831729e-33
  1.14404142e-01 -4.51148452e-08  8.98902188e-04 -3.43526262e-05
  5.98030165e-04 -1.34565606e-04 -3.18721261e-33  3.76115131e-05
 -9.27322172e-03 -2.56410454e-33 -2.72026529e-33  3.03091815e-06
  4.49850668e-33  1.05122945e-05  2.04175599e-33  1.38059773e-33
  2.11843260e-04  1.24926691e-33  5.00704767e-03  8.84158462e-02
 -4.75364773e-34  4.08292952e-04 -7.39441839e-06  1.25952438e-03
  2.09756268e-04  1.02994942e-33 -1.23409385e-33 -5.18577001e-34
 -5.87812342e-33 -1.05554418e-05  1.34819979e-03  4.97584697e-04]
[-1.4127356e-33  4.4968279e-34 -4.2071150e-07 -2.2649704e-33
  1.3005923e-03  4.1935091e-05 -2.6763949e-33 -4.9333893e-33
  8.7622211e-06  2.0591362e-01 -5.9768179e-05  5.7700610e-34
 -5.7270266e-02 -3.2831430e-08  8.8216434e-04  1.5228445e-33
  4.4172725e-06 -1.0544037e-33 -2.7658539e-06  1.2168940e-03
  3.3592176e-33  3.4937783e-04  4.8640994e-33  6.3273452e-02
 -9.3284075e-04 -1.2349893e-06 -2.8309092e-01  2.6000444e-33
 -8.6823537e-05 -5.0834984e-02  8.4457017e-05  3.2306765e-33
  2.8822157e-01  1.2189140e-08  1.8866447e-03  1.9556077e-05
 -1.0637138e-03 -1.2126623e-04  4.4964936e-33  1.2818796e-03
  3.3971068e-01  4.9781293e-33 -4.5241361e-34 -1.4591136e-05
 -2.8771429e-33  1.3322637e-05  3.2795602e-33 -5.5397287e-33
 -2.6233043e-04  1.5629983e-33  3.7979626e-05  5.2975804e-02
 -2.1540978e-33 -4.0995749e-04 -2.5371702e-07  1.2216646e-03
 -1.9025785e-04 -3.9478372e-33 -2.1205599e-33 -4.1933674e-33
 -5.3898818e-33 -1.8598157e-06  1.3205393e-03 -6.0224917e-04]
[-5.26985285e-33  3.17961230e-33 -3.82909882e-08 -5.69568155e-33
 -4.78925998e-04  1.73375265e-05 -6.52516914e-34  1.65396757e-33
  7.95116375e-06 -8.79137951e-04 -2.77702729e-05 -3.51452240e-33
 -7.07991770e-04  2.03080042e-09 -2.20250004e-04  3.19405325e-34
 -1.04910669e-06  3.97971253e-33 -2.13333507e-07 -4.88278049e-04
 -5.58310446e-33 -2.03050877e-04  5.36895878e-33  5.43307164e-04
 -8.82418899e-05  9.64697477e-08  2.79139937e-03  3.98551360e-34
 -1.34858608e-04  1.07998273e-03  4.45440710e-05 -9.54254559e-34
 -1.22919248e-03 -9.42049283e-09 -1.05981785e-03  3.23949280e-06
  2.66434916e-04  2.06544992e-05  5.46834095e-34 -4.61808493e-04
 -9.92217334e-04 -1.86575051e-33 -3.36551673e-33 -6.58418412e-06
  4.26961148e-33  6.66928736e-06  3.66333998e-33  7.49894866e-34
 -1.34995746e-04  3.41047939e-33 -2.03724904e-03  1.15472358e-06
 -1.53698825e-33 -1.21936813e-04  2.96115786e-06 -2.31246377e-05
 -1.68148588e-04  3.51957996e-33  3.75999794e-33 -5.29858193e-33
 -1.58694088e-33 -1.05988138e-05 -2.36805296e-04 -8.82326785e-05]
[ 3.2498202e-33 -2.4839922e-34  5.9488804e-07 -1.2918677e-33
  7.4791507e-04  9.0758105e-05  3.5734463e-33 -4.6390752e-33
 -6.8745983e-05  9.7205140e-02  7.7354729e-05  2.6018010e-33
 -1.1921201e-02  1.5601945e-07  5.7726755e-04  3.2133585e-33
  1.9434798e-05  1.2669891e-33  4.6732393e-06  1.0361135e-03
  5.7617678e-33  5.3886586e-04  1.3509305e-33 -6.2798977e-01
  1.8413281e-03  1.5429853e-06  1.3632339e-01  4.6908859e-33
  8.1509155e-05 -3.9992183e-03 -3.3989298e-05 -1.0643012e-33
  2.5183657e-01 -8.2150926e-08  1.9631622e-04 -3.4184079e-05
  1.4219186e-03  1.5223172e-04 -2.6595580e-33  1.0756629e-03
  2.9729260e-03 -3.8210583e-33  4.5630553e-33 -1.4458883e-05
 -3.3015809e-33  1.9398947e-05  3.0152501e-33 -3.0845078e-33
  1.4989350e-04  3.6000668e-33  3.1425480e-03  4.0246479e-02
  2.2587152e-33  3.8404440e-04 -1.7726063e-05 -1.0520247e-04
  3.3389890e-04  1.6519395e-33 -3.2305222e-33 -5.4036300e-33
  3.6895766e-33  3.8693411e-06  5.8977550e-04  3.0076475e-04]
[-2.84518122e-33  3.93064740e-34 -6.84075729e-09 -2.75218786e-33
 -1.05556937e-04  3.90525493e-05  5.71829219e-33 -6.72741294e-34
  7.10176437e-06 -2.17659981e-04 -2.94272650e-05  2.67011779e-33
 -3.39699647e-04  1.32055487e-08 -4.32180750e-05  4.05604913e-33
 -6.08092932e-07  1.93769664e-33 -1.04648052e-07 -1.65709411e-04
 -4.65707940e-33 -5.77975443e-05  4.09783208e-34  2.13903753e-04
 -1.32463218e-04  3.41793253e-07  1.79347117e-03  2.09987960e-33
 -1.95820481e-04  1.16963941e-03  4.34299327e-05  4.64103978e-33
 -1.83284021e-04  8.19014301e-10 -1.24962081e-03  4.15643399e-06
  3.12189921e-04 -9.01425210e-06 -1.85122728e-34 -2.42046299e-04
 -5.17173379e-04  4.49273941e-33  2.63433574e-33 -6.36275672e-07
  3.64722542e-33  6.41689712e-06 -8.27506881e-34  3.88724815e-33
 -1.20726254e-04  5.68258655e-33 -1.47014484e-03  5.29163517e-04
  5.30390692e-33 -1.78974937e-04  1.90156481e-06  5.30533762e-05
