layers 12
layer 0 Dense
16 64
[-3.8429190e-34 -1.1002194e-33  4.6231311e-33  8.9374661e-02
 -4.5870023e-33  5.5131809e-33  3.5111572e-33  2.3198390e-34
 -3.0259273e-34  5.1679581e-34 -5.6355139e-33  3.2803812e-33
 -5.1386706e-33  2.8109909e-33  2.8357571e-33 -4.1282618e-34
 -1.3849255e-01 -3.6637463e-33 -6.1112262e-34  5.6692596e-34
  1.1425526e-33 -3.4404258e-33 -1.4023949e-33 -1.3059507e-33
  2.7097088e-33  4.1128740e-33 -5.9687232e-34 -7.5403547e-01
  5.3574803e-34  2.9795604e-33  4.0643680e-33 -2.3972876e-35
  2.9750397e-33 -5.6170307e-33  3.1677413e-33  5.3996943e-33
 -6.8073842e-35  3.6978125e-33  5.3109434e-33 -3.8738040e-34
 -1.1411655e-33  2.3928034e-33 -8.0265739e-34  4.2880079e-01
  3.4462695e-33 -3.7171931e-33  8.5238062e-34  1.8889467e-33
  5.4333579e-33  3.2733106e-33 -1.0272339e-01  4.4569992e-33
 -4.1312793e-33 -1.1622860e-33 -3.0309764e-34 -1.9404848e-33
  5.7283401e-33 -5.9848330e-34  3.2913871e-33 -1.8206398e-33
  1.4378428e-33  6.1173851e-34  1.1967199e-33  2.3130019e-33]
[ 3.84291901e-34 -3.49386308e-34 -4.62313112e-33 -8.93746614e-02
  4.58728662e-33  7.07522519e-34 -2.50168396e-33 -2.31983902e-34
  3.02592725e-34  4.98880978e-33  2.75156338e-33 -3.28038119e-33
  5.13867062e-33 -2.81099087e-33 -2.83575706e-33  4.12826177e-34
  1.38492554e-01 -6.60852271e-34  1.28067024e-33 -5.74414039e-34
 -1.53367372e-33  3.44042585e-33  1.40239488e-33 -5.37577003e-33
 -2.70970880e-33 -4.11338718e-33  5.96872318e-34  7.54035473e-01
 -5.35748035e-34 -2.97956043e-33 -4.06436796e-33  2.39728757e-35
 -2.97503973e-33  2.51197669e-33  2.21006162e-33 -5.39969428e-33
  6.80738421e-35 -3.69781246e-33  2.56940657e-34  3.87380398e-34
  5.07575448e-33 -2.39280342e-33  8.02657389e-34 -4.28800792e-01
 -3.44626952e-33 -4.78913884e-33 -3.42698407e-33 -3.15638233e-34
  1.43594276e-33 -3.27331059e-33  1.02723315e-01  2.54014484e-33
  4.13127930e-33  1.16228602e-33  5.02161048e-33  1.94938216e-33
 -5.72834009e-33  5.98483296e-34 -3.29138712e-33  1.82266313e-33
 -1.71204048e-33 -6.11738510e-34  4.83492581e-33 -2.31309499e-33]
[-2.16796515e-33  3.46524604e-33 -1.64881303e-33 -3.32233042e-01
  3.76195147e-33 -1.11723538e-33  2.12017763e-34  4.97684196e-34
  2.20550401e-33  5.22943494e-33  4.06637842e-33 -3.76492887e-34
  1.77156990e-33 -6.07358646e-36 -1.87735044e-33  2.06749106e-33
 -2.82538438e+00 -3.47849974e-33  1.12892393e-33 -3.02789216e-33
  4.24327306e-33 -3.07154525e-33 -2.84756619e-34 -5.50127462e-33
 -1.15268315e-33  3.46539261e-33  5.03569336e-34  7.16858745e-01
 -3.62896228e-34 -2.07249480e-33 -2.41037826e-34  5.34252632e-34
  1.67033615e-34  1.99882970e-33 -1.26844657e-34 -1.98214264e-33
  4.50598245e-33 -5.58829463e-33  4.91062398e-33  2.23023715e-33
 -1.33823117e-33 -7.61954795e-34  6.48977941e-34  5.27515888e+00
  1.16559889e-33 -2.76849601e-33  1.55326995e-33  1.22732539e-33
  2.18432417e-33  1.42749270e-33  1.90311408e+00  5.72048632e-33
 -1.72321282e-33 -6.59914263e-34 -5.50231971e-33 -2.88727218e-33
  4.11278795e-34  5.62825318e-34  1.41010337e-33  1.66551037e-33
  2.50592253e-33  1.13489755e-33  4.31921257e-33 -9.69332845e-34]
[-1.3115471e-33 -1.7135626e-33  8.5724450e-34 -1.9510413e+00
 -1.3551499e-33 -2.7306697e-33 -1.7226697e-33 -1.2759622e-33
 -5.8714198e-34 -3.4234142e-33  2.2904118e-33  2.5342222e-33
  1.3608328e-33  8.9747185e-34  2.7310617e-33  1.1674566e-33
 -1.1623147e+00 -5.6588485e-33 -2.7669668e-33 -1.9094694e-33
 -5.5764894e-33  1.9825660e-33  2.1022881e-33  4.5287294e-33
 -1.1098579e-33  1.0473490e-33  1.1709677e-33  8.1025684e-01
  1.1316183e-33 -1.5059160e-33  1.7231790e-33  9.0428925e-34
 -1.6258707e-33 -3.2194425e-33 -9.6741752e-34 -1.3661537e-33
 -1.7018394e-33  1.8847827e-33 -5.0719238e-33 -2.7936144e-34
  2.9809435e-35  1.1351684e-33  1.1614446e-33 -3.0595642e-01
  1.5612732e-33 -4.6237923e-33 -3.5264507e-33 -2.7459087e-33
 -5.3450988e-33  1.0534158e-33  1.1253450e+00 -5.2031083e-33
 -2.3606691e-33  1.5378003e-35 -4.0727015e-33  1.4975434e-33
 -1.9181217e-33  9.8148195e-34  1.8095053e-33 -1.4528531e-33
 -3.4492099e-34  2.0002757e-33 -3.0115409e-33 -1.2820435e-33]
[-1.78642209e-33  5.09539038e-33 -1.65526649e-33  5.25401115e-01
  3.30718944e-33 -7.68225231e-34  2.65343366e-33  2.01108404e-33
 -1.28064287e-33 -5.68235732e-33  2.13289042e-33  1.73330003e-33
  3.92407785e-33  2.13356908e-33 -4.63114909e-33 -1.02035573e-33
  9.05148610e-02 -3.23562902e-33  5.12564283e-33 -1.96598951e-34
 -3.00985255e-33 -4.02698798e-33  1.37373146e-33 -6.35164781e-34
  1.06455165e-33  1.27830851e-33 -1.51339241e-33 -3.47151428e-01
 -7.63156738e-34 -8.78286584e-34  1.46313194e-33  5.38254271e-34
 -2.07089723e-33 -3.09502630e-33  7.75720477e-34 -2.43319470e-33
  3.10081377e-33 -5.80964206e-33 -4.34311514e-33 -1.22307138e-33
  3.46436993e-33 -1.03693773e-33 -4.06410044e-34  4.18711931e-01
 -2.00421860e-33 -6.43446506e-34 -9.75871533e-34 -3.32853899e-33
 -5.88076387e-33 -1.61938802e-33 -8.75305682e-02  2.34803197e-33
  5.58507047e-33 -9.82244365e-34 -5.54127853e-34 -5.53912187e-33
  1.87258436e-33  1.41954569e-34 -1.14191755e-33 -4.57907102e-33
  5.35280454e-34 -2.58366725e-34 -4.54070252e-33  5.61559916e-33]
[ 4.78864578e-34  3.18801121e-33 -2.09943360e-34 -6.38339460e-01
  3.12669449e-33  3.20369708e-33 -8.50681476e-34 -8.13254563e-34
 -1.77894411e-33  1.53923198e-33  4.17948339e-33 -3.91416798e-34
 -5.69502254e-33 -1.46637805e-33  3.90903189e-33 -9.70091958e-34
 -2.94518203e-01 -3.23743588e-34 -5.16980505e-33 -4.14264744e-33
  2.61108666e-33  1.31908907e-33 -1.59284627e-33  2.98185007e-33
  9.19894400e-34 -3.54436820e-33 -1.19038125e-33 -8.93109679e-01
 -2.27696507e-33 -1.52251709e-33  7.83150887e-34  1.86789065e-33
  2.84890239e-34  2.47930089e-33 -4.75396364e-33  8.19623263e-34
  4.18593538e-33 -1.28941720e-33 -2.08093798e-33 -1.15262254e-33
  4.75792212e-33  9.13271591e-34 -1.49134527e-33  2.52309859e-01
 -3.65925101e-34  4.51755336e-33  5.19566115e-33  3.63755037e-33
 -5.60938153e-33 -9.43596958e-34  6.81432307e-01 -9.66447374e-35
 -1.40323169e-33  1.41104110e-33  2.32023189e-33  1.30999818e-33
 -1.80364455e-35  2.36865441e-34 -9.32960938e-34  1.15715866e-33
 -2.57138397e-33  1.76664532e-33  2.30501163e-33  8.53993523e-34]
[ 3.9520657e-34 -1.5758758e-33  1.7155357e-33 -4.0472892e-01
  2.3516732e-33  4.3047015e-33 -4.8872111e-33 -1.3763397e-34
  8.3499836e-34  4.2307691e-33  4.9902894e-34  4.4711195e-34
 -2.1821600e-33 -1.2063709e-33  3.9729766e-33  4.8605773e-36
 -5.2525210e-01  5.4647318e-34  2.0462535e-33 -1.8330257e-33
 -5.5826012e-33  2.3146747e-33 -1.0439809e-33  3.0440363e-33
  4.5198794e-33  2.1620441e-33 -3.2540094e-34 -8.5692024e-01
  8.5527656e-34 -2.4006359e-33  6.2357900e-34 -1.2153841e-33
  5.1072245e-34 -4.0477751e-33  5.2853055e-33  2.7119959e-34
  3.0415621e-33 -1.1723058e-34 -4.4396732e-34 -8.3795096e-34
 -1.0397044e-33  7.0882057e-35 -1.7077655e-33  2.9264876e-01
  1.2959091e-33  1.1225453e-33  1.1448695e-34 -4.6057940e-33
  2.5079172e-33  5.2823142e-33 -2.4191329e-01  5.9150049e-35
 -1.9837545e-33 -1.3381316e-33 -5.7048736e-33 -2.6382026e-33
  5.4454822e-34  1.1875787e-33  3.0992114e-33  2.8597827e-33
  4.6233299e-33  3.5575319e-33  3.3813213e-33  3.8484726e-33]
[ 1.4220060e-34 -3.7079342e-33  4.7007087e-34 -1.0640801e+00
  1.8086549e-33  2.6426843e-33  2.8538960e-33  9.6963397e-34
 -2.6310764e-34 -3.6113949e-33 -1.8463802e-33  1.2100462e-33
 -1.9450270e-33 -1.3660052e-33  4.6934819e-33  1.1569473e-33
  1.4119284e+00 -3.6094259e-33 -4.7976318e-33 -8.7106037e-35
  1.0636064e-33  5.1084674e-33  4.0195575e-34 -3.1020348e-33
  4.9778670e-33  4.0728267e-33  1.5446680e-34  6.5243942e-01
  1.7682490e-34  3.9693524e-33 -1.8543513e-33  1.0582746e-33
 -4.7078802e-33 -2.5761995e-33 -2.8914176e-33 -3.6280990e-33
  2.4693399e-33 -1.2646967e-33  8.5627564e-34 -1.0278486e-33
  1.9626355e-33  9.3469580e-34 -1.7114373e-33  5.9577101e-01
  2.9874080e-33 -2.1054746e-33 -2.5940688e-33 -3.2054453e-33
 -3.0414425e-33  1.8233423e-33 -1.4358152e+00 -3.5205604e-33
  8.7695855e-34  5.3270621e-34 -2.2135800e-33 -5.2107648e-33
  6.1553357e-34 -7.9576183e-34  8.6131318e-34  4.1609352e-33
  3.9736595e-33  3.1298514e-33 -4.5165197e-33 -2.7244998e-33]
[-3.6614441e-33  1.6338049e-34 -3.4457993e-33 -4.7253257e-34
  2.1850611e-33 -3.9656367e-33 -3.7095678e-33 -3.1390695e-34
 -5.7806514e-34 -4.2082007e-33  3.2617371e-33 -4.2415267e-33
 -2.0730346e-33 -4.2796803e-33 -5.5340808e-33 -3.9152389e-33
  4.8151694e-33  1.7145628e-33  2.9482589e-33 -5.3814737e-33
  3.7756665e-33  4.5289887e-33  1.2815651e-33 -8.9936274e-34
 -5.6515689e-33  1.6019222e-33 -1.5750669e-33 -3.0618101e-34
 -3.5522543e-33  3.0418267e-34  4.0008024e-33 -3.1258162e-33
  8.6138628e-34 -5.6727991e-33 -1.7372866e-33  1.3139896e-33
 -2.5676735e-33 -1.0522144e-35 -3.8958880e-33 -1.4588217e-33
 -3.5936427e-33  2.6338490e-33 -4.5969305e-33 -2.7410089e-33
 -2.5696703e-33 -1.7597459e-33 -4.6659702e-33 -4.3241280e-33
 -1.2708727e-33 -1.6873141e-33 -3.2677641e-33  3.0174198e-33
  9.3977908e-34 -6.7929614e-34 -5.4752242e-33 -3.1585386e-33
 -3.7696436e-33  4.7661425e-33  4.1222658e-34 -2.1941454e-33
 -5.6911034e-33  3.4222211e-33 -5.1479453e-33 -3.4356026e-35]
[-2.7430643e-11 -1.2010895e-33 -2.9707323e-33  5.5001313e-03
 -3.0374342e-33  2.7034884e-33 -2.9029727e-33 -2.8768233e-33
 -2.7880046e-33  8.7664971e-34  3.1174643e-33 -2.8442140e-33
 -3.0072933e-33 -2.9005779e-33 -2.8265687e-33 -3.0445067e-33
  3.7267089e-03 -2.5661898e-33 -2.4236133e-33 -2.8584177e-33
  4.4945938e-33 -2.9471265e-33 -2.8073613e-33 -2.8181443e-33
 -2.9791841e-33 -2.9231181e-33 -2.6595137e-33  1.6790653e-02
 -2.8666549e-33 -3.1322487e-33 -2.9966093e-33 -3.0403965e-33
 -3.0490942e-33 -2.5442367e-33 -5.5844930e-33 -2.9657609e-33
 -2.8533441e-33 -3.1015440e-33 -2.7865404e-33 -2.8033211e-33
 -2.7036038e-33 -2.8982037e-33 -2.7905538e-33  1.9656781e-03
 -2.9452309e-33 -2.3290999e-33 -2.6526543e-33 -2.6073339e-33
  3.0370641e-33 -2.9767677e-33  2.2441656e-03  5.6713841e-33
 -3.0426424e-33 -2.8723289e-33 -2.7776384e-33 -3.0023988e-33
 -2.9517225e-33 -2.7225123e-33 -2.9128302e-33 -3.1288188e-33
 -2.6028428e-33 -3.0678481e-33 -2.7940709e-33 -2.9998304e-33]
[-1.99853894e-33  5.14627349e-33 -1.19306294e-33  2.68464893e-01
  3.13129618e-33  4.65575843e-33 -3.02790961e-33  1.67327690e-33
 -8.69920278e-34  4.88820473e-33  2.21024621e-35  1.52787266e-33
  4.25100634e-33  1.52249891e-33 -5.66424810e-33 -1.21050572e-33
 -5.66383779e-01 -1.21081538e-33  1.43570325e-33 -1.80756042e-33
 -1.42141879e-33 -4.02997263e-33  1.13750697e-33  5.14655965e-33
 -1.46501530e-33  1.58905696e-33 -3.61437697e-34 -6.44576550e-02
 -7.80749205e-34  1.28374985e-33  2.09739122e-33  7.93110171e-34
  1.96301257e-33  1.06107669e-33 -5.55759035e-35 -1.16816404e-33
  3.03791987e-33 -4.80161120e-33  3.33412038e-33 -1.17487795e-33
  3.35567491e-33 -9.54073459e-34  1.72757939e-34  1.70602834e+00
 -2.24280832e-33  2.18887370e-33 -5.01094581e-33 -4.32808498e-33
 -2.76542393e-33 -1.72468201e-33 -1.36806324e-01  2.18002333e-33
  3.22229487e-33 -7.43497560e-34  4.03742526e-33 -5.05408755e-33
  1.66509914e-33  2.28256529e-34 -1.51489190e-33 -2.87374518e-33
  3.24324402e-33 -2.65468731e-34 -9.02329025e-34  4.52549970e-33]
[ 1.32948356e-33 -2.21840873e-33 -1.51185563e-33  3.75152647e-01
 -1.86336867e-33  5.14100985e-33 -1.29049875e-33 -1.49816470e-33
  1.03847818e-33  9.43942810e-34  4.63626249e-33 -7.09429713e-34
 -4.19689136e-33 -5.82369013e-34  3.88283710e-33 -2.03175842e-33
  2.13260436e+00 -2.37796666e-33 -5.05862863e-33  2.14848611e-33
  2.29566204e-33  1.30768466e-33 -3.23488102e-34 -2.43384324e-33
 -8.83932263e-35 -4.24635579e-33  7.29589671e-34 -5.07720232e-01
  1.71552435e-33 -3.69776658e-35 -2.50891141e-33  1.10927177e-33
 -2.20066557e-33 -2.02447586e-33 -3.53617721e-33 -9.44742698e-34
 -5.66616195e-33 -1.77442675e-34 -3.42696129e-33 -8.83462157e-34
 -6.53104661e-35 -2.16738732e-33  1.06531701e-34  9.78664935e-01
 -1.12728127e-33 -5.11516367e-35 -9.30764325e-34 -3.36832617e-33
 -2.36545904e-33 -1.49822706e-33  7.01312923e+00 -4.04098517e-33
 -6.26198238e-34  2.17884453e-33  5.16742321e-33 -4.02787878e-33
 -1.00748664e-33 -4.89848355e-35 -1.55552194e-33  1.89730353e-33
 -4.06000394e-33 -7.56225362e-35 -4.36447167e-33 -2.80817629e-33]
[-4.66512382e-34 -4.71889607e-33 -3.73205865e-34 -1.12683654e+00
 -2.93003961e-33 -3.68758088e-33  3.91303666e-33 -5.67082214e-34
 -5.96265101e-34 -4.10306817e-33 -2.28742017e-33  7.22385727e-34
 -1.95441438e-33  5.04079069e-34  4.42456661e-33  4.76408942e-34
  2.17669153e+00 -3.32118994e-33  2.29642207e-33 -3.17284329e-33
  5.67279909e-33  4.10714457e-33  4.11250142e-34 -5.19766500e-33
  4.06411045e-33  4.74608158e-33  4.54801473e-34 -9.98791516e-01
 -1.75316511e-34 -2.80085039e-34  6.14265777e-34 -5.42596942e-35
  6.92559946e-34 -2.55329826e-33  4.78875754e-33  2.02440074e-33
  2.90201894e-33  3.78658101e-33  7.55916336e-36  4.71580507e-34
 -5.11593509e-33 -2.98605940e-34 -2.60645668e-33  1.15847635e+00
  1.37512415e-33  2.10685689e-34 -1.78319022e-33 -9.10844104e-34
 -2.45384372e-33  4.19385895e-33  3.53657991e-01 -8.53996646e-36
 -2.45070993e-33  6.48072535e-34 -6.29753282e-34 -2.82684443e-33
  1.01337164e-34  1.34069925e-33 -1.10367863e-33  3.25840899e-33
  2.10396885e-33  3.34247190e-33 -1.37946732e-33 -4.34896433e-33]
[-9.5212781e-35  3.1299598e-33  3.6906413e-35 -1.7845422e+00
  1.0703226e-33 -1.8289355e-33 -5.0060535e-33  4.9467236e-34
 -3.2520262e-34 -1.1144695e-33  4.4423103e-33  3.8709511e-34
 -1.6846719e-33 -1.5234588e-33  4.5576296e-33  3.6156856e-34
  7.8114176e-01 -3.5219478e-33  2.9923085e-33 -1.5853720e-33
 -6.9570935e-34  3.9579541e-33  7.1249987e-34 -1.1873343e-33
  3.7580235e-33  4.1842923e-33  1.5076840e-35  1.3563094e+00
 -1.6511184e-35 -3.0681499e-33 -3.8686346e-33  5.2132541e-34
 -4.8741117e-33 -5.1478369e-33  2.7709824e-33 -3.6129528e-33
  2.3565701e-33 -5.5553578e-34 -3.6182083e-33  2.0411425e-33
 -3.0360374e-33  5.4786146e-34 -2.3448820e-33  2.1869738e-01
  1.1483310e-33  3.2007223e-33  3.7038986e-33  2.6842048e-33
  4.4416895e-33  1.0868040e-33  3.9105299e-01  3.7586641e-33
  1.6632057e-33  2.4964988e-34 -4.4386369e-33  1.8381005e-34
  6.0793377e-35 -1.4214665e-33  3.7694593e-34  3.6197317e-33
  1.6120173e-33  2.7478297e-33 -1.6243943e-33 -4.3372259e-33]
[-5.3869403e-34 -2.1557979e-33  2.6503366e-34 -5.9517581e-02
 -2.6554983e-33  5.1062946e-33  1.9118084e-33 -7.8386105e-34
  2.9687668e-34 -1.1145086e-33 -3.2823872e-33 -4.6459408e-34
  3.9667064e-33  2.3359088e-33 -4.9621643e-33 -2.4744861e-33
 -4.5088220e-01  5.4931531e-34 -3.2600499e-34  7.0291054e-34
 -2.6664855e-33 -3.8758958e-33  1.3811793e-33  2.3986888e-33
  3.1114428e-33  5.1942792e-33 -1.9220051e-33 -5.3012419e-01
 -6.2216216e-34  4.5915680e-33  2.7223345e-33  1.5790979e-33
  1.1445457e-33  3.6668900e-33 -1.2307198e-33  5.4518682e-33
  8.7265349e-34 -9.8817776e-34  4.2025374e-33 -2.6925635e-33
 -3.0895400e-33  1.4480365e-33 -9.8957816e-34 -4.9154632e-02
 -9.2019461e-34  5.2463687e-33 -5.7201127e-33 -3.3546901e-33
 -2.1289926e-33 -7.6249727e-34 -9.7155221e-02 -5.3368369e-33
 -2.7328223e-33  1.2930508e-33  2.1980062e-33  1.3931145e-33
 -1.2229615e-33  7.0233611e-34 -3.4179886e-34 -2.5100208e-33
  4.2495069e-33 -1.3486680e-33 -1.6437558e-33  3.0445225e-33]
[ 5.3869403e-34  1.3395776e-33 -2.6495131e-34  5.9512503e-02
  2.6554869e-33 -3.4582721e-33 -3.5000025e-33  7.8386105e-34
 -2.9688382e-34 -9.5479529e-35  2.6185059e-33  4.6444640e-34
 -3.9667064e-33 -2.3358230e-33  4.9621643e-33  2.4747444e-33
  4.5087358e-01 -6.4774808e-34 -2.8089846e-33 -6.9526524e-34
  7.7679605e-35  3.8758778e-33 -1.3811538e-33 -5.3602818e-33
 -3.1115435e-33 -5.1926600e-33  1.9220121e-33  5.3012788e-01
  6.2232104e-34 -4.5915423e-33 -2.7223255e-33 -1.5791174e-33
 -1.1446779e-33 -5.1581932e-35  4.8450233e-33 -5.4518682e-33
 -8.7266276e-34  9.8819641e-34 -5.8533153e-34  2.6932921e-33
  3.0218951e-33 -1.4480282e-33  9.8974815e-34  4.9164686e-02
  9.2017836e-34  1.7073177e-33  1.2908486e-33 -1.4678446e-33
 -5.2232621e-33  7.6251596e-34  9.7211629e-02  2.9288852e-33
  2.7328743e-33 -1.2930541e-33  3.2143346e-33 -1.5115763e-33
  1.2229590e-33 -7.0219101e-34  3.4223026e-34  2.5090181e-33
  8.0124294e-34  1.3487615e-33  2.1425609e-33 -3.0444510e-33]
[-0.16077851 -0.01114919 -0.0030454  -0.02349008 -0.027112   -0.0016341
 -0.00517864 -0.03043784 -0.01848867 -0.00107528 -0.00386527 -0.06567592
 -0.02503673 -0.01400904 -0.01328801 -0.13368566 -0.01619556 -0.01568418
 -0.00711813 -0.04516337 -0.009194   -0.02180395 -0.03733113 -0.00567347
 -0.0516889  -0.01871718 -0.01200993 -0.01958506 -0.00439582 -0.03997998
 -0.00147949 -0.02609197 -0.04691624 -0.02177755 -0.00447871 -0.04380796
 -0.01963072 -0.03105431 -0.00598862 -0.00466778 -0.00603858 -0.01262163
 -0.00847634  0.00154198 -0.00175863 -0.01377594 -0.02068195 -0.0227626
 -0.00352263 -0.07331163 -0.00425297 -0.00158813 -0.03813764 -0.00788864
 -0.00761645 -0.00704666 -0.05935889 -0.04011021 -0.00147604 -0.01388792
 -0.00641354 -0.06347614 -0.00634336 -0.02177098]
layer 1 Activation
relu
layer 2 Dense
64 64
[ 2.4318274e-33  4.4952373e-33 -4.0533102e-33  3.6957131e-33
  2.5045538e-33  2.5338633e-33  9.5015208e-34  2.4160036e-33
 -5.7706722e-33 -2.8886971e-33  2.8983753e-33  1.7437342e-33
  4.7705616e-33 -2.3026465e-33  5.2194888e-33  2.3111751e-33
  4.6563094e-33  8.1518770e-34  4.3798802e-33 -5.6306179e-36
 -3.9445888e-33  1.1842812e-33 -7.4632136e-34  2.1893230e-33
  1.4993607e-33 -2.8175424e-34 -1.4413559e-33 -2.9474639e-33
  5.1697654e-34 -3.0773267e-33 -5.5600765e-33  5.2109665e-35
  2.3776811e-33  3.4230395e-34 -4.7630914e-33 -4.3505281e-33
  3.6186947e-33 -5.8749680e-33 -3.1616214e-33  3.2480084e-33
 -8.4419890e-34  5.6501429e-33  1.0147455e-33  3.9714312e-33
  6.6918542e-34 -5.1297809e-33 -4.4041189e-33  1.8380617e-33
 -5.8457334e-34 -5.5304599e-33 -2.4587687e-33 -2.1865958e-34
  4.3406539e-33 -3.4079462e-33  4.2715701e-34  5.1701827e-33
 -1.5026344e-34  2.2443851e-33 -4.3806501e-33  6.2518079e-34
 -5.7865355e-33  3.9726243e-33  3.4106498e-33  3.1263507e-33]
[-4.02835706e-33  1.02323551e-33  5.21701438e-33  1.48908245e-33
  4.26390813e-33 -9.70592461e-34 -1.95539279e-33 -5.45321656e-34
  3.97213574e-33 -3.63043753e-33  2.77506372e-33 -1.89647683e-33
  3.52285555e-33  7.56728254e-34 -3.35674387e-33  4.62281778e-33
  1.67175739e-33  3.05237973e-33  2.52349048e-33  2.41857908e-33
 -1.14659996e-33  2.61106315e-33 -5.41130412e-33  1.58292179e-33
 -2.49545990e-33 -3.25681363e-33  4.87482062e-33  3.10712636e-34
 -3.43714401e-33 -2.00447868e-34 -3.18296246e-33  2.45061185e-35
  2.24379721e-33  3.26626240e-33  3.06851633e-33  4.60195826e-33
  3.01221089e-33  2.58403431e-33  5.64163600e-33  4.07910352e-33
  2.06009058e-33  3.44587353e-34 -1.08887254e-33  8.57027217e-34
  1.05467107e-33  4.98850094e-34  5.31729580e-33  2.91157388e-33
 -5.37340912e-33 -2.03875775e-33 -3.01515770e-33  3.28799949e-33
  1.16172454e-33  1.06174103e-33 -1.64253626e-33 -3.33940827e-33
  6.68232034e-34 -2.44749109e-33  3.30508530e-33 -4.42176820e-33
  1.31339159e-33  1.45168226e-33  3.71183390e-33  3.06960881e-34]
[-4.4095548e-33 -2.7950978e-33 -1.7995819e-33  7.7556619e-34
  2.1312568e-33 -2.3702475e-33  2.7663037e-33  2.4013122e-33
 -3.4321180e-33  2.1717530e-33 -5.4233033e-33  1.7620135e-33
 -5.2853135e-33 -3.5338692e-33 -5.1076758e-33  2.1842845e-33
 -2.4438739e-33  3.1992901e-33  2.8463641e-34 -3.5029497e-33
 -3.9035816e-34  1.0166995e-34  2.9032060e-33  3.3178710e-33
  3.5040241e-33  2.6934730e-33  6.2039065e-34 -2.6438161e-33
 -2.4505163e-33  2.5581343e-33 -1.4408222e-33 -1.0619122e-33
  2.4662948e-33  4.0299532e-33  2.8581675e-33  3.4391357e-33
  2.2373243e-33 -5.3005994e-33 -1.8343913e-33  1.4968099e-33
 -1.7389117e-33  4.7868404e-33 -3.6892288e-33 -1.8843424e-33
  2.4616867e-33  2.7778967e-33  2.3599790e-33 -3.1405830e-33
  4.4654621e-33 -5.2980559e-33  2.2418139e-33  2.0563453e-33
  9.1681213e-34 -2.0638235e-33  2.6605438e-33  4.6601709e-33
  2.2646878e-33 -2.5364700e-33 -4.8634668e-33  2.9711984e-33
  2.2999620e-33  1.2536456e-33 -1.4385112e-33 -9.9865959e-34]
[ 2.31531812e-05  2.63170950e-05  1.29666441e-05  2.92871118e-06
 -3.20631415e-01 -8.02971795e-02  8.10439815e-06 -2.07503557e-01
  2.00275390e-05  1.07130736e-01  2.20825314e-05  9.08244692e-06
  1.57643371e-05 -1.57428032e-04  1.95405592e-05  5.08904338e-01
 -1.95488392e-05 -3.72792420e-06  1.68548431e-05  1.31609413e-05
 -1.55226298e-05 -2.00764407e-05  9.66591324e-06  1.62305369e-05
  1.45585363e-05  1.02874183e-05  2.07752091e-05  1.98275302e-05
  2.72038815e-05  2.26029733e-05  9.23232437e-06  2.88846204e-05
 -3.15438598e-01  2.27977216e-05  2.31762897e-05 -3.52839561e-06
  2.88991141e-05 -1.85074532e-05  1.33397625e-05  4.01162833e-06
  2.29842044e-05  1.97833215e-05  2.92575132e-05  1.72767541e-05
 -9.89246473e-06  9.49608511e-06 -2.04546086e-05  2.42677997e-05
 -1.52030116e-05  1.83941447e-05 -9.28086974e-03 -4.76147579e-05
  1.33936483e-05  2.03273448e-05 -2.51722158e-05  2.12389932e-05
 -8.15569365e-06  1.83574811e-01  2.12909799e-05 -1.75645473e-05
 -1.58695475e-05  2.65675408e-05  2.76625506e-05  2.17737324e-05]
[ 4.63710114e-33  7.06229659e-35  4.26100833e-33  2.86991068e-33
 -2.54982302e-33  2.36146217e-33 -2.60674799e-33 -2.73586006e-33
  4.31469610e-34  2.90416771e-33 -2.18845493e-33 -2.43905270e-33
 -7.20278929e-34  2.48065583e-33  4.33500386e-33  2.70851200e-33
 -2.36953415e-33  4.71655133e-33 -1.69494439e-33  2.37714161e-33
 -2.82775397e-33 -2.61873583e-33 -2.16754013e-33 -1.74019082e-33
  1.12951195e-33  1.63872876e-33 -1.97118280e-33 -2.31470927e-33
  4.73424252e-33 -3.41117146e-33  2.10558626e-33 -1.95465315e-33
  2.54444899e-33 -2.43644843e-33 -2.38969369e-33 -2.69006005e-33
  2.92452709e-33  2.35671758e-33 -2.54287420e-33  2.32115061e-33
 -2.26603683e-33  1.35802217e-33 -3.81440350e-33  2.60073864e-33
  3.88744210e-33 -2.77779527e-33 -2.02408556e-33 -2.55227650e-33
 -6.66533215e-34 -2.15607043e-33 -2.99073240e-33  2.62178697e-33
 -2.21408034e-33  4.72237223e-34  2.50864472e-33  3.12852348e-33
 -2.60977654e-33 -2.87526579e-33  3.00745620e-33  2.19234049e-33
  2.77226310e-33  5.70101977e-33  2.29060209e-33 -2.23204043e-33]
[ 2.5608143e-33  4.6337091e-33 -5.4836811e-35  5.6471851e-35
  2.4646697e-33  1.0078689e-34 -5.2965380e-33 -3.4392687e-33
  4.0462793e-33 -2.6537145e-33 -3.2776283e-33 -3.3264668e-33
  4.3532369e-33  7.6836730e-34 -3.1465221e-33  4.4967060e-33
  1.6341023e-33  8.5563793e-34  3.5637947e-33 -1.5096756e-33
 -5.7234320e-33 -1.5664221e-33 -4.5485427e-33 -4.7632780e-33
 -1.7809087e-33  4.9842555e-33 -1.5543059e-33 -3.9309685e-33
  5.0523195e-33  2.8453474e-33 -5.1953427e-33 -1.5139964e-33
 -2.3702797e-33  4.6424416e-33 -5.9443280e-36  4.8094146e-33
 -4.4804952e-33 -5.2272177e-33  4.6737942e-33  5.5222965e-33
  4.8459747e-33  2.3114847e-33 -3.2721751e-33 -4.7521060e-33
  4.8667751e-33 -3.1559805e-33  1.3613400e-34  5.7534071e-33
  3.9584218e-33 -9.5550628e-34  4.0585412e-33  1.8854597e-33
  3.7000786e-33  1.3087572e-33  1.4097777e-33  6.0835139e-34
  3.1262566e-33  5.2839132e-33  1.1686706e-33  1.1328202e-33
  4.4355457e-33 -1.6734451e-33  3.0453246e-33  4.5481463e-33]
[ 4.7242934e-33 -3.9165510e-33  2.0264986e-33  2.5557650e-33
  2.3959769e-33 -4.1881247e-33 -4.0125459e-33 -2.3460452e-33
  2.5460021e-33  1.9099406e-33 -4.9699255e-33  2.3361453e-33
 -5.7313523e-35 -2.2087976e-33 -1.5963742e-33 -2.7880421e-33
  2.8129049e-33 -5.7079427e-33  7.5787133e-34  2.4453739e-33
  1.9104017e-33 -2.4532922e-33 -2.1068811e-33  1.7290526e-33
  1.4760330e-33 -4.0256167e-33 -2.3272151e-33 -2.4450352e-33
  2.5085623e-33  3.5623716e-33  2.5170354e-33  4.9719198e-33
 -2.3936749e-33  8.7196481e-34 -5.4990000e-33  2.0424754e-33
  2.9177842e-33  2.2619782e-33  1.9338403e-33  2.1939304e-33
  1.5168285e-33  1.8589580e-33 -7.9606241e-34  2.2206969e-33
 -1.9246281e-33 -2.3311263e-33 -2.6725005e-33  2.8557136e-33
  3.6758979e-33 -2.3859911e-33  2.4069066e-33 -2.1724074e-33
 -7.0509678e-34 -1.6125975e-33  2.6734424e-33 -2.3256935e-34
  2.4230443e-33 -2.0354074e-33  2.5461538e-33  2.4882773e-33
  2.4352935e-33 -1.1683103e-33  2.3793839e-33  1.6475097e-33]
[ 5.4976901e-33  1.7789461e-33 -7.9296241e-34 -3.6064181e-33
  2.1845279e-33 -2.7285064e-33 -2.7878972e-33  1.9730059e-33
  4.4856233e-33 -2.5442093e-33 -5.5277916e-33 -1.5836113e-34
 -3.6532307e-33 -2.3478634e-33  1.9854100e-35  2.0122081e-33
  2.6057327e-33  4.4891953e-33 -3.7737711e-33 -4.8241847e-33
  3.4517334e-33  3.0295970e-34 -2.7983565e-33  1.5142741e-33
  1.5314596e-33 -2.9624610e-33 -1.2704456e-33  1.5418548e-33
 -3.8021953e-34  5.7544386e-33 -2.1652951e-33 -3.5305444e-33
  2.3321057e-33 -7.2608817e-35 -2.6025739e-33 -5.4591442e-33
 -1.9799219e-33 -2.5326241e-33  5.2928323e-34 -8.3427773e-34
 -4.3879000e-34  5.1503286e-33 -2.9435569e-33 -1.7854993e-33
  2.8551395e-33  2.7734661e-33 -2.2871013e-33  2.4960932e-33
  4.3916704e-33  1.2418099e-33  2.5678538e-33  2.5695208e-33
 -4.3974597e-33 -4.1605109e-33 -2.1318384e-33 -1.1520080e-33
 -1.9921061e-33  2.5318032e-33 -1.7724985e-33 -2.7702438e-33
 -2.2462567e-33  5.5272905e-33 -5.6194904e-33  5.4917597e-33]
[-2.7062402e-33 -4.1975904e-33  2.9328525e-33  2.0982804e-33
 -1.7092006e-33  2.3985134e-33 -2.3469489e-33  2.2463427e-33
  1.3488122e-33 -1.8453011e-33 -2.1421987e-33 -2.4149132e-33
  2.8300438e-33 -2.1539079e-33  3.9978622e-33 -2.6657543e-33
 -2.1033539e-33  4.4013800e-33  4.6869957e-33 -2.5386419e-33
 -3.5727241e-33 -1.9763111e-33 -2.1943324e-33 -5.3265058e-33
 -7.0191706e-34  4.8920519e-33 -2.1275494e-33 -2.5577194e-33
  4.6647730e-34 -3.7047027e-33  2.5827622e-33 -4.9747597e-33
  2.3451417e-33 -2.4772759e-33 -2.1781967e-33  2.2617889e-33
  3.2068191e-33 -2.1997505e-33 -2.5282121e-33  2.2485802e-33
 -2.2142098e-33  5.6643928e-33 -3.6321012e-33  5.5369046e-33
  3.7352068e-35 -2.0141359e-33 -2.0934680e-33 -2.2041610e-33
 -3.5019329e-33  2.2110242e-33  2.1843927e-33  1.7323132e-33
 -3.5310322e-33 -2.9708856e-33 -2.2719907e-33 -2.5057912e-33
 -2.2004400e-33  2.2511207e-33  2.5455101e-33  2.4122294e-33
  2.7536604e-33  4.6204392e-33 -4.3799390e-33  5.4763314e-33]
[ 5.7179539e-33  1.4679456e-33 -1.8846561e-33  4.1348748e-34
  4.9747288e-34 -5.5632643e-33  2.6927681e-33  5.2731031e-33
  3.1099235e-33 -9.7742383e-34 -5.5917792e-33  2.4939883e-33
 -5.6837319e-33 -1.7056658e-33 -5.0483423e-33 -7.1863719e-34
  1.0799324e-33 -2.6004966e-34 -5.7339233e-33 -2.5837190e-33
  4.1662896e-33 -3.7112979e-33 -4.9104510e-33  5.0472671e-33
  5.3160557e-33  1.4488243e-34 -4.9532503e-33 -4.4470531e-33
 -2.0768928e-34 -5.0084288e-33  1.8952683e-33  5.1771721e-33
  2.8305364e-33  5.4062785e-34 -1.5414156e-33 -2.3469749e-33
  4.5671364e-33 -1.9519877e-33  1.5832506e-33  4.2520309e-33
 -3.9431201e-33  4.5458042e-33  5.0439059e-33  2.3931155e-34
 -7.9131267e-34 -6.5126979e-35  2.8897519e-33  2.0349051e-33
 -3.0123295e-33 -5.1413471e-33 -7.2156251e-34  4.3856420e-33
 -2.7972548e-33  3.9791365e-33  5.6381756e-33 -1.0625940e-33
 -1.5438223e-33  2.4544175e-34  6.5489325e-34 -4.5057580e-33
 -9.3608766e-34  6.2897029e-35 -3.4902326e-33  4.6620315e-33]
[ 4.1229524e-33  1.1343895e-33  1.0964484e-33 -3.5323778e-33
  4.3828513e-33 -1.7676834e-33  4.2610010e-33 -2.3778311e-33
  4.4150098e-33  7.1038466e-34  2.5473198e-33 -1.6078735e-33
 -2.9682592e-33 -1.3508278e-33 -4.3350145e-33 -1.4105436e-34
 -1.1242637e-33 -3.8547516e-33  2.5608537e-33 -5.7642500e-33
  8.3162919e-34  1.2359045e-33  2.0968814e-33 -3.0312403e-33
  3.0728892e-33 -3.2720032e-33  4.2806251e-33 -2.9221621e-33
  6.3821849e-34 -4.3238723e-33  2.3581761e-33 -2.4731248e-33
 -5.6208268e-33  5.0781525e-33 -3.1973891e-33 -3.4492244e-33
 -4.2802181e-33 -5.5671530e-33  1.9662435e-33  3.8235742e-33
  2.8986273e-33  2.8914625e-33  2.0483364e-33 -2.2570309e-34
  4.9003358e-33  2.0122208e-33  3.8796824e-33  2.2128387e-34
 -9.5835116e-34  1.8725414e-33  5.4163782e-33  1.1444679e-33
 -5.0304800e-33  5.8317215e-33  5.0689748e-33  8.3190966e-34
 -4.0467378e-33 -4.4140529e-33 -2.0142121e-33  4.2188610e-33
  3.6883942e-33  2.6300143e-33 -1.7085810e-35 -3.5369151e-34]
[ 2.6610533e-33 -3.6585572e-33  2.3265384e-33 -1.7572507e-33
  2.4360168e-33  2.6853974e-33  1.3945457e-33  2.3403573e-33
 -2.6276068e-33  2.6377342e-33  2.4908413e-34  2.3509196e-33
  2.3173916e-33 -2.0817421e-33 -2.5292976e-33  2.0245850e-33
 -3.1528129e-33  4.6669389e-33 -2.2048099e-33 -2.2758348e-33
 -2.4240521e-33 -2.3783050e-33  1.2517718e-33  2.6164910e-33
 -6.5593173e-34 -4.5979862e-33 -4.1496163e-33  5.5957843e-34
  3.3224466e-33 -1.9763638e-33 -2.9766933e-33  3.1207156e-33
  2.6302193e-33  4.3120005e-33  4.1806552e-33 -2.3754052e-33
  4.4770906e-34  2.1757319e-33 -2.1501162e-33  4.8118760e-34
 -1.0024524e-33 -2.8214575e-33  1.4439185e-33 -1.9203280e-33
 -1.8112663e-33  2.2150184e-33  2.3810173e-33  9.9061517e-34
  8.6378264e-34  2.2701018e-33  2.7044430e-33 -2.1555262e-33
 -3.8794194e-33 -2.5308226e-33  2.3747175e-33  2.9168572e-34
  2.1806983e-33  2.3187897e-33 -1.6634725e-33  2.2942316e-33
  2.2849693e-33  1.5260885e-33  5.4010556e-33 -2.5357048e-33]
[-3.3264066e-33  5.4767865e-33  5.7865149e-33 -2.4746329e-33
 -2.3610706e-33  2.3407443e-33 -2.4225319e-33 -1.9997146e-33
 -4.7954388e-33  2.3493728e-33 -1.3105719e-33  2.6036539e-33
 -1.5693292e-33  2.4307372e-33  6.1733878e-34 -2.3534646e-33
  2.3583624e-33 -1.0197700e-33  5.8236690e-33  2.5158955e-33
 -2.5693502e-33  2.7811232e-33 -1.9596360e-33 -1.1671190e-34
 -2.6722205e-33  6.6339024e-34  2.6680842e-33  2.4032245e-33
  3.1555797e-33 -5.5378803e-33 -2.6734345e-33  1.7955088e-33
  2.5399617e-33 -2.0388202e-33 -2.0735447e-33  2.2369534e-33
 -2.9305662e-33  1.9652287e-33 -2.5602901e-33  2.6421083e-33
 -1.9234741e-33 -3.2992923e-33 -3.2960373e-33  2.3804249e-33
 -1.5683108e-33  2.6318687e-33  2.6307002e-33 -2.5093441e-33
 -2.4174107e-33  2.3226815e-33  2.7576748e-33  2.4015906e-33
  4.0973869e-33  2.5397907e-33  2.7533826e-33  2.7696243e-33
  2.8361303e-33 -2.2628990e-33 -2.2254595e-33 -2.3697478e-33
  2.8891486e-33 -1.0372489e-33 -4.7219674e-33  4.2344444e-33]
[-7.4842550e-34  5.8582524e-34 -5.3387133e-33  3.0927789e-33
  2.1837458e-33  2.7717189e-33 -2.0825954e-33  2.4710230e-33
  1.9448852e-33  2.2426460e-33 -4.3356052e-33  2.1451675e-33
  2.5130041e-33  2.4173564e-33  1.4468024e-33  1.8380876e-33
  2.7268574e-33  2.1927789e-33 -3.4002438e-33  2.4491116e-33
 -1.6494478e-33  2.4269082e-33  3.5220749e-33  3.1620967e-33
  6.8134591e-34 -4.3388084e-33  4.5375515e-33 -4.1861540e-33
 -2.6920584e-34 -1.3151868e-33 -2.1890228e-33 -3.5421935e-33
  2.4162872e-33  5.4270400e-33 -3.8720196e-34 -2.2664604e-33
 -1.2254852e-33  1.9200264e-33 -3.5066429e-33  1.3620914e-33
 -1.3947123e-33 -2.4641690e-33 -1.3302276e-33  5.3481878e-33
 -4.2379745e-33  2.1114040e-33 -2.5263510e-33  3.8573524e-33
  1.7262781e-33 -2.4746661e-33  2.7388495e-33 -1.8772222e-33
  4.8077719e-36 -2.3263334e-33  2.4938533e-33 -1.5728564e-33
  2.8143546e-33 -2.6829984e-33  4.5899675e-34  2.6471301e-33
  2.1269283e-33 -2.2433839e-33  4.3580748e-33 -4.3297803e-33]
[ 1.4473946e-33 -3.9382837e-33  3.2264969e-33 -2.4572372e-33
  2.4597930e-33  2.5312621e-33 -2.5944519e-33 -2.4620898e-33
 -4.9423895e-33  2.4117386e-33 -2.3019513e-33 -2.4694506e-33
 -4.6650008e-33 -2.3446827e-33 -3.5149941e-33  1.9564123e-33
  1.8960803e-33  1.5178953e-33  2.6555815e-33  2.1829217e-33
  1.8346859e-33  2.4058779e-33 -2.3541150e-33  1.3750830e-33
 -3.3955212e-33  4.3362885e-33 -2.3616587e-33 -2.4759078e-33
 -1.0766353e-33  4.3175614e-33 -2.3399708e-33 -4.0483849e-33
  2.4627433e-33 -2.3470539e-33 -2.4040266e-33 -2.2018071e-33
 -4.2109146e-34  2.3959976e-33 -2.6253746e-33 -2.5595146e-33
 -2.3489516e-33  4.3114194e-33  3.1987376e-33 -4.4466688e-33
 -5.3013263e-33 -2.6501990e-33  2.4362627e-33 -2.8095186e-33
  2.6136588e-33  2.2492460e-33 -2.8933278e-33 -2.4784009e-33
  6.6096284e-34  2.5794225e-33  2.3058130e-33 -2.9002256e-33
 -2.2007925e-33  2.1720015e-33 -2.5961219e-33  2.2654145e-33
  1.9909684e-33  3.4443630e-33  5.5221962e-33  1.3390739e-33]
[ 1.67491194e-33  1.98607999e-33 -5.84042164e-33  2.58654822e-33
  2.28348245e-33  2.93448940e-33  2.67755352e-33  2.50214974e-33
  3.23165658e-33  2.34037178e-33  5.81598311e-33  1.83766060e-33
  9.94444711e-34 -2.50082750e-33  4.15726214e-33  2.59145425e-33
 -3.50644455e-33  2.68099184e-33  3.40334561e-33  4.24303502e-33
  4.28641884e-33 -3.39376313e-33 -5.25577483e-33  3.98203928e-33
  2.53005690e-33  2.57807878e-33  1.58209344e-33  4.41466969e-33
  4.87411092e-33 -4.97417267e-33  1.15515463e-33  1.97865821e-33
  2.42627893e-33  4.17204031e-33  2.63397354e-33 -3.54426240e-35
  2.70052342e-33 -4.28508282e-33  4.51438467e-33 -1.16069267e-33
 -5.08093474e-33 -3.63701185e-33  1.80901234e-33 -4.49027822e-33
 -5.02463187e-33 -4.16585794e-33 -1.19895354e-33 -3.98255282e-33
  4.13754772e-34  1.25304686e-33 -2.84461753e-33 -2.44930503e-33
 -1.09948615e-33  2.35898059e-33  8.69656894e-34 -3.17056761e-33
 -6.55676055e-34  2.48331888e-33  1.31764247e-33  2.21422728e-33
  7.88925687e-35 -9.24317657e-34 -3.76766364e-33 -8.60104808e-34]
[ 6.3470266e-05  6.2119667e-05  6.7140623e-05  7.0076028e-05
 -4.5620748e-01  3.8713247e-01  6.8626920e-05 -8.8491231e-02
  6.4669686e-05 -5.8198380e-01  6.3900326e-05  6.8368681e-05
  6.6220215e-05 -2.3283668e-05  6.4820175e-05 -8.8437557e-01
  7.3254851e-05  7.1513146e-05  6.5836968e-05  6.7096305e-05
  7.3135474e-05  7.3301417e-05  6.8183377e-05  6.6049455e-05
  6.6636319e-05  6.8004032e-05  6.4351720e-05  6.4719978e-05
  6.1769468e-05  6.3676176e-05  6.8270718e-05  6.1060746e-05
  2.1771689e-01  6.3602478e-05  6.3450381e-05  7.1490373e-05
  6.1062368e-05  7.3260999e-05  6.7044632e-05  6.9819740e-05
  6.3543433e-05  6.4772925e-05  6.0937044e-05  6.5666340e-05
  7.2522089e-05  6.8252222e-05  7.3278105e-05  6.3023574e-05
  7.3107265e-05  6.5272339e-05 -6.0691899e-03  4.7660884e-05
  6.6989567e-05  6.4526335e-05  7.3072457e-05  6.4250402e-05
  7.2294890e-05  2.3916076e-01  6.4207052e-05  7.3206393e-05
  7.3110561e-05  6.2053834e-05  6.1600789e-05  6.4019972e-05]
[ 2.41870948e-33  4.09569856e-33  1.97253279e-33  2.04027469e-33
 -2.49323582e-33 -2.50902822e-33 -2.14741108e-33  2.58298684e-33
 -8.47560171e-34  2.09677409e-33  2.29593553e-33  2.57981355e-33
  3.34533350e-33  2.25368697e-33 -1.83704861e-33  2.21319211e-33
  2.26308358e-33  2.92499251e-33  3.99796502e-33  2.29982017e-33
 -1.98252026e-33  2.45272241e-33  1.27510060e-33 -1.65705049e-33
 -1.86358246e-33 -2.50308720e-33 -1.40795571e-33  2.26450813e-33
 -1.09520919e-33 -2.16226841e-33 -1.57905754e-33 -3.01808689e-33
  2.40458482e-33  2.38379124e-33  1.48349077e-33  2.07208246e-33
  6.82580687e-34  1.93131187e-33  5.58612254e-33 -2.04467563e-33
  2.48099819e-33  4.37855189e-33  1.71034299e-33 -2.80945923e-33
 -1.31387795e-33  2.08578322e-33  2.21416189e-33  3.91913710e-33
 -2.99259538e-33  2.62472166e-33  2.31695410e-33  2.93934089e-33
  2.91245642e-33 -3.39036081e-33  2.45777153e-33  1.42138784e-33
  2.24856714e-33  2.20814153e-33  2.54310029e-33  2.97301641e-33
  2.42958427e-33 -1.91911446e-33  2.71146855e-33  5.07266293e-33]
[-2.60597694e-33  3.46959280e-33 -1.39960823e-33 -4.88925569e-33
  2.39264822e-33 -5.43172430e-34  1.16249687e-34 -1.78193483e-33
  1.65089696e-33  5.05217444e-33 -3.96822024e-33  5.11830958e-33
  9.29092551e-34 -6.06710103e-34  6.56812749e-34 -5.20454238e-33
 -1.91918261e-33 -1.87797859e-33  4.10359568e-34  1.76547239e-33
 -5.44631218e-33 -1.86796448e-33 -3.55882200e-33 -1.34554742e-33
  6.85607080e-35  5.20125651e-33  2.15152090e-33  2.22543654e-33
  3.83530452e-33  3.85245572e-33 -4.19210085e-33 -2.25482151e-33
  8.02065785e-34 -3.93761881e-33 -5.04279326e-33 -4.93633865e-33
 -3.62527343e-33  2.80279877e-33 -5.39159880e-33 -2.17116158e-33
 -1.84887262e-33 -5.33771854e-33  3.83509073e-33  5.06356828e-33
 -3.55444421e-34 -1.82494322e-33  7.48791187e-34  3.21758408e-33
 -7.20167349e-34 -5.99768075e-34  5.40060602e-33  3.72011416e-33
  1.94066587e-33  2.89805183e-33 -4.35353186e-33  1.47940005e-33
  8.65085966e-34 -3.98945297e-33 -5.05948344e-33  3.04059797e-33
  4.08056058e-34  1.30260221e-33 -3.95213617e-33  1.35653545e-33]
[ 4.9299025e-33  5.8338616e-33  3.1654575e-34  2.9726388e-33
 -2.3727093e-33  2.3087545e-33 -1.9444651e-33  2.6458576e-33
 -4.6063127e-33  2.5569831e-33  4.8815206e-33  2.3699829e-33
 -2.1687086e-33  2.5667534e-33  2.8984829e-33  2.5138656e-33
  2.2829763e-33  8.3007671e-34 -8.1526043e-35  2.2140980e-33
 -5.1686476e-33  2.6729597e-33  4.0645278e-33 -2.0582572e-33
  1.3463029e-34  4.7219288e-33 -2.4391188e-33 -2.0103798e-33
 -5.0663744e-33 -2.7060554e-33  2.5024106e-33 -3.4487572e-33
 -2.2109151e-33  3.0561656e-33 -3.4672914e-33  2.5236699e-33
 -2.9030451e-33  2.3987580e-33 -2.5860159e-33 -2.3348312e-33
  7.2193234e-34  2.7182853e-33 -5.3719207e-33  1.7536815e-33
  4.7809706e-33 -2.1518807e-33 -2.4981529e-33 -2.4486220e-33
 -4.3094642e-34 -2.8062657e-33 -2.4478188e-33  2.4819909e-33
  3.8056215e-33  5.5949439e-33 -2.2106819e-33  4.0034649e-33
 -2.6718807e-33  2.6601678e-33 -1.9796585e-33 -2.6446771e-33
  2.5121712e-33  4.2546320e-33 -6.6856893e-34 -5.1277786e-33]
[ 9.7694546e-34  1.2833500e-33 -3.9487559e-33 -4.2270384e-33
  2.4847364e-33  1.3180394e-33  1.0972296e-33  1.2676994e-33
 -2.1780215e-33 -3.5741159e-33  1.6103450e-33 -7.3214435e-34
 -5.1218666e-33  3.3557664e-34 -3.4299397e-33 -9.6912713e-35
 -3.9889872e-33  3.4199421e-33  4.4748895e-33  1.9754835e-33
  5.6080249e-33  3.9636520e-33  2.8021324e-33 -4.2865915e-33
  4.4138546e-34  4.7419560e-33 -8.5587817e-34 -3.1299396e-33
  3.4793321e-33 -2.2613517e-33  5.7642775e-33  3.8555638e-33
  3.4478043e-33  9.3528759e-35  1.1280874e-33  5.7124374e-34
 -3.6591508e-33 -4.8689975e-33 -5.8167575e-33  4.0781290e-33
 -3.8661668e-33 -1.9101831e-33 -5.7743699e-33  1.5282389e-33
  3.1534473e-35  4.2359251e-33 -3.9644414e-33  3.0571206e-33
 -2.8898375e-33 -5.3172238e-33  2.0078026e-33  2.4611729e-33
  4.4065022e-33 -3.0300417e-33 -1.0056216e-33 -4.4386645e-33
 -1.8971250e-33 -1.1267764e-33  6.4795820e-35 -2.4163789e-33
  3.9497400e-33 -5.2953122e-33  2.8012350e-33  3.7912176e-33]
[-1.9582217e-33 -3.3253501e-33  5.4286912e-33 -2.6891672e-33
  2.5326533e-33  2.2839135e-33 -9.4506605e-34 -2.8652065e-33
 -5.3964301e-33 -2.7295873e-33 -2.3970157e-33  2.3245204e-33
 -4.2227166e-33  2.3178888e-33 -2.8745216e-33  2.4368099e-33
  2.2045197e-33 -4.2814068e-33 -3.6782985e-33 -2.5999643e-33
 -3.2480948e-33  2.4486530e-33  2.9883557e-33 -5.4426564e-33
 -1.0857424e-33 -1.5270612e-33  2.5593644e-33  2.2540440e-33
  5.7576007e-34  5.6593764e-33 -2.1318407e-33  4.5017172e-33
 -2.4989552e-33 -1.2787529e-33 -9.2867700e-34 -2.2526274e-33
 -4.6091133e-34  2.4975381e-33  1.6798613e-33 -2.1372638e-33
 -6.4377771e-34 -3.4836980e-33 -3.4812089e-33 -2.4175393e-33
 -1.1653748e-33 -2.2467174e-33  2.0661719e-33 -1.5407270e-33
 -3.4633825e-33 -2.2758941e-33 -2.2950710e-33 -1.8656232e-33
 -1.0111896e-33 -5.2588443e-33 -2.5486646e-33  2.8386221e-33
  2.5179346e-33 -2.8360118e-33  2.2282250e-33  2.3268042e-33
  2.0638250e-33  3.5550946e-33 -2.9758345e-33  5.0441932e-33]
[ 6.61779810e-34  6.96180652e-34 -3.61463925e-33 -2.30120945e-33
  2.25189343e-33  2.48135231e-33 -2.70001612e-33 -2.97864042e-33
 -2.43693258e-33  2.28657731e-33 -4.18653746e-33 -2.07849350e-33
 -2.27614351e-33  2.32812717e-33 -2.34483481e-33  1.57960121e-33
  1.47050495e-33  1.08086412e-33  2.74903019e-33  2.18593644e-33
  2.35341316e-34  2.05693420e-33 -2.77218523e-33  3.12708864e-33
 -4.56085931e-34 -5.70488273e-33  1.53977261e-33 -3.88180818e-33
  3.45244160e-33 -1.72759576e-33 -3.84493402e-33 -1.38708921e-33
  2.40786812e-33 -1.93981437e-33  2.41758340e-33 -2.21731773e-33
 -2.00106754e-33 -2.34375537e-33  3.49166528e-33 -2.39169607e-33
 -2.21632737e-33 -2.56776768e-33 -4.69191517e-33 -5.15601210e-36
  4.58394748e-33 -2.06306495e-33 -2.59632503e-33  1.53443155e-34
 -4.61892579e-33 -2.51768721e-33 -2.31000381e-33 -1.85509612e-33
 -3.69688271e-33 -2.47852231e-33  2.19955509e-33  2.52548808e-33
  2.03528912e-33  2.54202894e-33 -5.89990166e-34  1.92944835e-33
  1.68743739e-33  2.18064782e-33 -4.95847909e-33 -5.02195284e-33]
[ 3.83136404e-34 -5.34914031e-33  3.08109320e-33  1.40275580e-33
 -3.99707752e-33 -3.31256953e-33  2.09729939e-33 -3.73066495e-33
  5.81944054e-33  2.44475770e-33 -9.50121594e-34  1.08522538e-33
 -2.80329321e-34  5.40615876e-33 -3.47731139e-33 -4.19071156e-33
 -2.54011656e-33  7.92360151e-34 -6.29987463e-34  5.19408158e-34
  1.44228088e-33  2.79007331e-33 -3.22444713e-33 -3.19983080e-33
 -1.19906871e-33 -1.30493685e-33 -2.76179597e-34  1.74646594e-33
 -4.21088011e-33  8.66741852e-34  6.44392962e-34 -3.90128722e-33
  1.99838007e-33 -2.58417005e-33  2.12449298e-33  5.56563955e-33
 -1.18279711e-34 -5.34959067e-33  4.08681770e-33 -1.04689711e-34
 -5.63331423e-33 -4.97044562e-33 -5.78103714e-33  3.66906207e-33
 -3.57854423e-33  1.19089902e-33  1.06380586e-34  4.29562480e-33
  2.79889907e-33  4.48362969e-33  1.04252996e-33 -5.19728738e-33
 -3.24440812e-33 -3.30608521e-33  2.70561753e-33 -5.51528064e-33
 -5.26020498e-33 -5.88467349e-34  3.48815606e-33  3.70606479e-33
  1.52705018e-33 -3.68856719e-33  3.35035506e-33 -1.70506374e-33]
[-2.0874227e-33  1.4868652e-33 -9.4437269e-34  2.3701246e-33
 -2.5413194e-33  2.6545171e-33  3.8645538e-33  2.7839119e-33
 -7.3602403e-34  2.3265819e-33 -2.9680711e-33  2.5232247e-33
 -1.8604634e-33 -2.7476683e-33 -2.5597120e-33  2.2494657e-33
 -2.3488454e-33 -1.8942849e-33 -3.8043497e-33  2.3799854e-33
 -3.2119380e-33 -2.8412069e-33 -5.7228689e-33 -2.2856691e-33
 -3.1941502e-33  6.3615403e-34 -1.2376572e-33  2.6991091e-33
  1.0763414e-33 -2.1163916e-33 -2.4335574e-33  3.9063896e-33
 -2.5982754e-33  2.1652999e-33 -2.7004375e-34  2.5686506e-33
  2.8001980e-33  2.3988319e-33  4.1512256e-33  2.5191575e-33
  2.2116717e-33 -6.1101021e-34  4.1282421e-33 -4.0846743e-33
  2.5291929e-33 -2.2070505e-33 -2.1166925e-33  5.3073886e-33
  3.2459763e-33  2.4208871e-33 -2.4595518e-33 -2.4974097e-33
  1.9252834e-34  2.1757401e-33  2.3814167e-33 -2.8789958e-33
 -2.4839393e-33  2.0776383e-33  2.5612960e-33  2.6375522e-33
  2.2787941e-33  1.9143028e-33 -3.4614106e-33 -3.2756179e-34]
[ 1.9910185e-33  2.6608608e-33  4.2501042e-33  2.3811625e-33
 -2.2902906e-33  2.2397480e-33 -3.1339458e-33 -1.9723645e-33
 -1.8361148e-33  2.0176492e-33 -4.0997309e-33  2.1843837e-33
  4.1707983e-33  2.4275729e-33 -1.7504196e-33 -2.8045932e-33
  2.1302694e-33 -4.2868383e-33  1.6720636e-34 -2.3588214e-33
 -3.6148082e-33  2.5021362e-33 -3.9278769e-33  4.0900026e-33
 -1.1888063e-33 -3.7993410e-33  3.1823721e-33  2.4965902e-33
 -2.7516126e-33  2.5209646e-33 -2.4000199e-33 -3.9674110e-34
  2.3468365e-33  1.2886952e-33 -1.2666719e-33  2.3468223e-33
 -5.1757795e-33 -2.3023640e-33  5.9828548e-34 -2.3593665e-33
  1.7902636e-33 -2.0602867e-33  7.8961409e-34 -2.7148667e-33
 -1.2574456e-33  3.0709140e-33  2.3635204e-33 -3.2844469e-33
 -1.2404955e-33 -2.3712658e-33 -2.0726408e-33 -2.5220926e-33
  1.8094693e-33 -5.3980310e-33 -2.3551623e-33  1.2819357e-33
  2.6728229e-33  2.3702743e-33  2.6891977e-33 -2.2819699e-33
  2.7090727e-33 -5.8328544e-34 -2.8433039e-33  2.5698740e-33]
[ 9.9080656e-34 -4.0301589e-33 -5.8510452e-33  3.5821596e-33
 -1.7725066e-33  2.0870888e-33  2.4647369e-33 -1.7276602e-33
 -1.3139757e-33  1.5424675e-33 -1.8399499e-33  3.4617295e-33
 -4.6751776e-33 -2.2003148e-33  4.5416128e-33  1.3914629e-33
 -5.7985946e-33  4.1290826e-33  4.2169934e-33 -5.3046813e-33
  3.5420584e-33 -1.4869396e-33 -7.8179558e-34 -2.6595604e-33
 -2.7039500e-33  3.8583663e-33  2.4378188e-33 -4.1499138e-34
  6.8322083e-34 -5.1397278e-33  7.7300068e-34 -9.7853586e-34
 -1.7988548e-33 -2.5970344e-34  2.6338406e-33 -2.0178940e-34
 -1.9149611e-33 -3.0289194e-33  2.6781942e-33  5.7540882e-33
  2.6012213e-33  3.3697794e-33  8.4463089e-34 -9.4637728e-34
 -1.9710689e-33 -7.9058828e-34  4.5696590e-33 -8.2748043e-34
  2.4982098e-33 -3.0947548e-33  1.8577324e-33  1.2093439e-33
  1.3132797e-33 -4.2700699e-33 -3.7877808e-34 -4.5379504e-33
  2.0233792e-33  2.1084736e-33 -3.5898077e-33  3.1630525e-33
 -2.2028029e-34  4.2296079e-33 -4.0742120e-34 -1.7763571e-33]
[-2.4290103e-04 -2.3963007e-04 -2.5201414e-04 -2.5868288e-04
  3.4825328e-01  9.1242693e-02 -2.5539950e-04  1.7734879e-01
 -2.4589521e-04  1.5490004e-01 -2.4399416e-04 -2.5483061e-04
 -2.4967565e-04 -4.4969242e-04 -2.4638610e-04  1.9879897e-01
 -2.6361813e-04 -2.6147111e-04 -2.4875341e-04 -2.5186752e-04
 -2.6382075e-04 -2.6351976e-04 -2.5437595e-04 -2.4926566e-04
 -2.5068235e-04 -2.5395190e-04 -2.4522495e-04 -2.4610231e-04
 -2.3865809e-04 -2.4343911e-04 -2.5464434e-04 -2.3683456e-04
  8.3954118e-02 -2.4323043e-04 -2.4284696e-04 -2.6147443e-04
 -2.3683866e-04 -2.6369825e-04 -2.5167843e-04 -2.5801262e-04
 -2.4308130e-04 -2.4611931e-04 -2.3640919e-04 -2.4835076e-04
 -2.6328090e-04 -2.5459687e-04 -2.6338204e-04 -2.4181051e-04
 -2.6376088e-04 -2.4743169e-04 -3.6959335e-02 -2.2120791e-04
 -2.5162686e-04 -2.4560749e-04 -2.6235904e-04 -2.4484974e-04
 -2.6287299e-04  9.6346766e-02 -2.4470667e-04 -2.6372823e-04
 -2.6382433e-04 -2.3933242e-04 -2.3818374e-04 -2.4422444e-04]
[ 7.9257707e-35  2.7687418e-33 -4.6175376e-33 -5.2663440e-33
  2.1582040e-33 -2.3313892e-33  7.6843609e-34  2.1750541e-33
  4.5952660e-33 -2.9539071e-33  1.7032913e-33 -3.5571781e-33
  5.6297121e-33 -2.0281069e-33  1.6972610e-33 -1.7920724e-33
 -3.4334728e-33  4.5468239e-33 -5.8551256e-33 -5.5686224e-33
  1.2089695e-33  2.2478453e-33  4.5681668e-33  2.5961968e-34
  2.2971511e-34 -3.9319625e-34 -4.5255768e-33  5.5008081e-33
 -4.6308835e-33 -1.9839994e-34  3.6396538e-33 -1.1609711e-33
  2.2470320e-33 -3.7809893e-33  4.1490719e-33  3.6019472e-33
  3.1141490e-33 -1.5665721e-33  3.1061615e-33 -2.4145712e-33
  3.0822050e-34 -5.6369832e-33  8.2696028e-36  4.2072177e-33
  4.7568730e-33  7.5084114e-34  1.9874838e-33 -2.7627761e-33
  2.3120387e-33 -1.2563831e-33  2.3201716e-33  2.0783236e-33
 -4.3938631e-33  5.8169338e-33 -2.1996761e-33 -1.6825086e-33
  3.0008762e-33 -2.1908140e-33  2.6148989e-33 -3.0858343e-34
  1.8856691e-33 -7.2374599e-34 -3.3190847e-33  1.4775935e-33]
[-3.0111294e-33  5.3450610e-33 -3.2258798e-34  2.1848629e-33
  2.5092014e-33  2.4771811e-33  2.9778077e-33  2.3738096e-33
 -4.3730315e-33  2.4240431e-33  9.3697332e-34  2.3099586e-33
  1.1819908e-33 -2.2348201e-33 -2.6080153e-33  2.5499632e-33
  2.7767456e-33  4.5392096e-33 -3.8061897e-33  2.8004265e-33
  2.6483041e-33 -2.3340140e-33 -3.1116360e-33 -2.0461369e-33
  3.2148713e-33  1.9650563e-33  8.1935409e-34  2.4728456e-33
  2.7312023e-34 -1.9737254e-33 -2.1074292e-33  4.4894363e-33
  2.4996841e-33  4.9669489e-33 -2.7879339e-33 -2.7193392e-33
  5.5495030e-33  2.2666159e-33  4.7293435e-34 -2.3441672e-33
  4.1571956e-33 -1.3990289e-33  4.6073207e-33  4.3329442e-33
  1.3843121e-33 -1.9775176e-33 -2.6455466e-33  9.8757587e-34
  1.1603716e-33 -2.6145648e-33 -2.3668452e-33  2.6837866e-33
  5.6480858e-33 -7.5927494e-34 -2.1351007e-33 -2.8723599e-33
 -2.4514279e-33  2.4353896e-33 -1.9087661e-33  2.3341589e-33
  2.3531389e-33  2.6574107e-33 -4.3083690e-33  2.7336768e-33]
[ 1.0728032e-33  5.0821617e-33  1.5351897e-33 -4.0953165e-33
  2.4284631e-33 -2.8047112e-33  3.1187996e-33  2.3061034e-33
  4.8361248e-33 -2.3470367e-33  1.8036166e-33  1.8312013e-33
  3.8083424e-33  3.0476370e-33 -1.5328632e-33  2.0879309e-33
 -2.1996067e-33 -1.6374842e-33 -1.3537500e-33  2.3671876e-33
  6.6025672e-34  2.4059423e-33 -3.6497998e-33  4.3624627e-33
 -1.7446364e-33  3.6798674e-33 -3.0951192e-33  2.5056309e-33
  4.2173270e-33  3.4191733e-33  3.6598624e-33  5.0313509e-33
  2.6037154e-33 -2.3393822e-33  4.5753664e-33 -2.6016037e-33
  3.7621697e-33  2.3425874e-33 -2.8906501e-33  2.8313310e-33
  2.1146838e-33  9.8384175e-34  4.3901070e-33  2.5759710e-33
  2.6369218e-33  2.6645265e-33  2.5236925e-33 -5.3760235e-33
  1.8009338e-33  2.2872271e-33  2.1108600e-33 -2.4657686e-33
 -8.8930262e-34  4.8316932e-33  2.3852347e-33 -1.7736345e-33
 -2.5385673e-33  2.3016334e-33  2.9999040e-33  1.9848106e-33
  1.9611224e-33 -3.4341891e-33  3.9294660e-33 -3.3574176e-33]
[ 1.5308698e-33  1.3838228e-33  3.5743609e-33  6.5588599e-34
  2.5954840e-33  2.6334504e-33  5.4129987e-33 -2.0858462e-33
 -2.7435708e-33  1.8964236e-33 -4.5649765e-33  2.2633066e-33
 -4.5734253e-33 -2.6806151e-33 -1.2118427e-33  2.7451773e-33
 -2.1598138e-33 -1.7211882e-33 -4.6276035e-34  2.4198536e-33
  5.2132763e-33  2.2522426e-33  4.1714856e-33  7.1565235e-34
 -3.6306465e-33  2.7827573e-33  1.0847409e-33  2.9613821e-33
 -4.5919746e-33  2.2559603e-33  7.0296564e-34 -3.3961266e-33
 -2.6739475e-33  3.7230551e-33 -1.4041207e-33  2.3325887e-33
  4.3463257e-33  2.2574904e-33 -9.9792583e-36 -4.2155354e-33
 -2.2272738e-33 -2.7112801e-33 -1.2515488e-34 -4.4380730e-33
 -5.2082158e-33  2.3497460e-33 -2.1525247e-33 -1.8215534e-33
 -4.3743906e-33 -1.4217967e-33  2.4442759e-33 -2.2850769e-33
 -4.4841965e-33 -2.3234305e-33 -3.2128788e-33 -1.4015948e-33
  2.6557035e-33  2.4113955e-33  3.2787109e-33  2.0816236e-33
  2.2463923e-33 -3.3597392e-34 -5.4501208e-34 -3.5605235e-33]
[ 2.2966416e-33  3.4435637e-33  3.0334675e-33 -2.4200007e-33
  2.5143005e-33  2.5541637e-33  1.6847765e-33  2.1919979e-33
  2.9998425e-33  2.2339280e-33 -2.4252921e-33 -2.6309435e-33
 -1.7186076e-33 -1.9574574e-33  4.6390730e-33 -2.3097907e-33
  2.4136762e-33 -1.0652025e-33  2.0955962e-33  2.3971814e-33
  1.3168311e-34 -1.9051863e-33  3.2835885e-33  1.7695646e-33
  2.0285374e-33  3.1508421e-33 -2.7767318e-33 -2.4364991e-33
 -1.9587409e-34  5.1076306e-33  2.8359446e-33 -2.5709751e-33
  2.7900803e-33 -3.2895453e-33 -3.3181539e-33  2.0193154e-33
  5.0341030e-33  2.4351837e-33  1.7722445e-33 -2.5477477e-33
  2.6401980e-33  5.1818260e-33 -3.1462576e-33  4.0528239e-33
 -8.3609166e-34 -2.8182321e-33 -2.2436183e-33  4.8342514e-33
  5.2178931e-33  2.4461565e-33  2.7510598e-33  2.1812616e-33
 -4.1836006e-33 -1.9698765e-33 -2.3836952e-33 -2.8905937e-33
 -2.3642459e-33  2.6661589e-33  2.9115098e-33 -2.4059403e-33
  2.7207015e-33  5.4444255e-33 -4.7749418e-33  1.9008243e-33]
[ 1.7577424e-33 -5.4089961e-33  2.9532512e-33 -5.6276851e-33
 -2.9939832e-33 -3.3727045e-33 -1.8330738e-33  2.0621378e-33
 -4.4092738e-33  2.1962712e-33 -2.6959529e-33  2.6611969e-33
  2.8762044e-33  2.2408677e-33  9.1451174e-34  1.9257780e-33
  2.5562873e-33  6.8217996e-34  5.2610741e-33  2.1726539e-33
  2.7542751e-33 -2.2041245e-33  3.6792062e-33  1.7535994e-33
 -7.9212946e-34  4.8631127e-33  5.4146679e-33 -2.0232319e-33
  1.6777096e-33  3.4992639e-34  2.1189075e-33 -2.4826321e-34
  1.8798970e-33 -3.6793998e-33 -2.4134062e-33  2.0068996e-33
  1.6160540e-33  2.0781781e-33  2.3580957e-33 -7.7352157e-34
  1.8370611e-33  2.4726402e-33 -2.2040159e-33 -1.8748797e-33
  3.2246944e-34  2.1500330e-33  3.0535446e-33  2.3623706e-33
 -2.6187154e-33  2.2608547e-33  2.1730225e-33  1.7219956e-33
 -2.9170559e-33 -3.6922505e-33  2.1718334e-33 -3.0572931e-33
  2.2168248e-33  2.2650125e-33 -2.1476447e-33  2.1706952e-33
 -1.9941026e-33 -1.0335948e-33  2.3513377e-33  2.6097910e-33]
[ 4.72781624e-33 -1.87367481e-33 -4.92317605e-33  9.70333118e-34
 -1.74305535e-33  5.63083798e-33 -5.02402612e-35  5.72401097e-33
  2.97273889e-33  3.74395685e-34  9.76139509e-34  2.75408445e-33
  3.81944526e-33 -3.51445921e-33 -5.61311777e-34 -4.57306682e-33
 -5.24557301e-33  3.93682903e-33 -2.11146005e-33 -3.11304442e-33
 -3.41310074e-33  1.30477889e-33  1.24370278e-33  5.71717106e-34
 -1.04078270e-34  1.83041074e-33 -1.33943495e-33 -4.55069422e-33
  1.22526772e-33  2.41338982e-33  5.50457189e-33  4.52893876e-33
  4.48553363e-33  4.36048050e-33  1.87680897e-33  2.81512824e-33
 -8.65451838e-34  2.22975850e-33 -5.29456357e-33 -3.02671796e-34
  8.24864590e-35 -4.82486707e-34 -1.95238665e-33 -4.99930988e-33
  2.02652893e-33  1.17006430e-33  2.09573580e-33 -3.74946607e-34
  5.26691999e-34  1.48004437e-33 -2.33885172e-34  1.54078216e-33
 -5.22272728e-33 -1.71318898e-33  4.76384918e-33  7.96320281e-34
 -4.45599419e-33  4.35776694e-33 -5.64384225e-35 -2.41931211e-33
 -3.14664373e-33 -3.02347139e-33 -5.19983195e-33  5.01273476e-33]
[-2.0948977e-33 -1.4137729e-33  5.5176089e-34 -2.2113091e-33
 -2.9888176e-33  2.8025053e-33 -3.4383937e-33  2.2589861e-33
 -2.7280234e-33 -2.5362642e-33  3.1894743e-33  2.8825010e-33
  4.4117603e-33 -2.6865657e-33 -2.5509517e-33  2.6691438e-33
 -2.1666005e-33  1.8970488e-33  5.6156157e-34  2.2268567e-33
  5.4078651e-33 -2.2256198e-33 -8.7862050e-34 -2.3302546e-33
 -1.1634411e-33  4.6117468e-33 -4.5630027e-33  3.6607796e-33
  3.8746233e-33 -2.4340093e-33 -9.7158043e-34  4.7146904e-33
 -2.7475096e-33  2.9540871e-33  3.3705192e-33  2.8484267e-33
 -1.7673558e-35 -2.5578393e-33 -6.0396799e-34  2.3847636e-33
 -2.5994579e-33 -2.8952641e-33 -9.7171065e-34 -4.4301021e-33
 -4.2676190e-33  2.6099270e-33 -2.1802272e-33  2.3949020e-33
  1.1220079e-33  2.2743617e-33  2.2675773e-33  2.2921952e-33
 -2.6004521e-33 -2.6143769e-33 -2.8390095e-33 -1.2248199e-33
 -2.3375311e-33  2.4856397e-33 -2.0107384e-33  2.4321101e-33
  2.5296225e-33 -3.9367423e-33  4.5672658e-34  2.0696106e-33]
[ 1.1359033e-33  2.6441063e-33 -4.7441718e-33 -2.4959266e-33
 -2.5535506e-33  2.5530698e-33 -2.5692725e-33  3.1159387e-33
 -1.9887689e-33  2.1023301e-33 -2.1485197e-33  2.1665296e-33
 -1.0842944e-33 -2.1472928e-33  3.5353624e-33  2.0161440e-33
  2.5911843e-33  4.0008229e-33 -2.0873244e-35  2.4449041e-33
  2.6732942e-33 -2.3212037e-33 -2.0304106e-33 -4.8748926e-33
  5.0439875e-33  2.3248839e-33 -2.2046492e-33 -2.3018237e-33
 -5.7255905e-33  3.2196790e-35  2.5139552e-33  4.3115252e-33
 -2.3236860e-33 -2.2374056e-33 -2.2178032e-33  2.5640898e-33
 -1.0712633e-33  2.3493432e-33 -2.4867432e-33  2.3852948e-33
 -2.1413295e-33 -1.3886996e-33  4.8813608e-33  5.7624761e-33
  6.4480567e-34 -2.1946536e-33 -2.4429509e-33 -2.4830683e-33
 -3.1210022e-33  2.0717805e-33  2.0285721e-33 -2.2856501e-33
 -1.1707733e-33  1.4303180e-33 -2.4401749e-33 -2.7942373e-33
 -2.2824614e-33 -2.3219391e-33 -2.0520862e-33 -2.3841994e-33
  2.9714405e-33 -2.4852595e-33  1.1307198e-33  4.3699267e-33]
[ 4.8605883e-33 -2.0517482e-33  8.0296256e-34 -2.4299129e-33
  2.3071396e-33  2.1824303e-33 -2.4621330e-33  2.2646602e-33
 -5.6351686e-33 -2.7481096e-33 -2.3350442e-33  2.5234986e-33
 -5.9642182e-34  2.1789975e-33 -2.6032939e-34  2.2165463e-33
 -2.6696131e-33  3.5437569e-33  1.3885262e-33  2.2941519e-33
 -1.0618358e-33  2.5109702e-33 -2.4402133e-33  4.9533686e-33
 -2.4117853e-33 -3.4107674e-33 -2.6489495e-33  2.5584493e-33
 -3.2369162e-33 -1.2614230e-33 -2.5996910e-33 -4.3706055e-33
 -2.6263124e-33 -2.5290820e-33 -2.4134078e-33  2.4133524e-33
 -3.4481716e-33  2.3972005e-33 -2.6308004e-33 -2.6028226e-33
  2.0980289e-33 -1.6410489e-34 -2.6305213e-33 -1.6516651e-34
 -1.9686592e-35  2.7475088e-33  2.4647747e-33  1.0683755e-33
 -5.4031245e-33  2.3194757e-33 -2.1965607e-33 -2.2701944e-33
  6.7435760e-34 -4.4224860e-33 -2.3011209e-33  2.9311712e-33
  2.5911944e-33  2.3833152e-33 -2.3629657e-33 -2.5306081e-33
  2.2550046e-33  1.1343403e-33  3.4030503e-33 -3.1883852e-33]
[ 3.88220381e-33  2.17710884e-33 -8.16511600e-34  3.01182261e-33
  3.93539052e-33  5.85980848e-33 -4.37567193e-33 -3.14802943e-34
  2.68913196e-33 -1.83926901e-33  5.20752520e-33 -2.48483049e-33
 -2.98200472e-33  3.37747261e-33 -3.60260366e-33  3.59000456e-33
  6.23427240e-34 -5.22736938e-33 -3.83894121e-33  6.81654021e-34
  1.76951573e-33 -1.30410124e-33  3.33030113e-33  2.79813004e-33
  4.80516964e-33  3.16268739e-33 -5.68669380e-33  2.70777805e-33
 -1.41257907e-33 -4.88891407e-33  3.37989523e-34 -4.99971543e-34
 -1.43013283e-34  5.52709693e-33 -2.03077743e-33  1.23996755e-33
 -7.61790869e-34  2.66429450e-33  1.03375324e-33  2.44865869e-33
 -4.51090667e-33 -4.86357629e-33  3.65833219e-34  1.98237902e-33
 -9.81405540e-34  2.96392525e-33  3.39523764e-33 -5.14537387e-34
  2.89460819e-33 -1.27489571e-34  2.27714543e-33 -2.97423672e-33
 -1.73943777e-35 -2.08413330e-33 -8.11615575e-34  2.46547597e-33
 -1.16010456e-34  4.62849661e-34 -4.12502420e-33 -9.96131362e-34
  3.99019610e-33  7.33814103e-34 -5.34856983e-33 -1.53366748e-34]
[ 2.3879698e-33  4.8272542e-33  2.4288365e-33  5.8739174e-33
  1.7554258e-33  3.0611733e-33 -2.9924281e-33  2.6264662e-33
  3.5479028e-33  1.6294510e-33 -5.5890326e-33 -4.3621199e-33
  2.0594940e-33  2.2169901e-33 -5.5209737e-34  1.7955711e-33
 -2.8561662e-33  6.8375274e-34  1.1713867e-33  3.3601146e-33
 -3.0216479e-33 -1.7148727e-33  7.7135866e-34 -3.1985231e-33
  2.1576596e-33  4.8824893e-34  3.4291977e-33  1.1851929e-33
 -5.6626612e-33  4.3436302e-33 -2.5496855e-33 -3.4525445e-33
  2.3366629e-33  5.1851629e-33  6.4526264e-34  1.1224281e-33
 -4.8363063e-33 -5.0841104e-33  3.4058575e-33  5.0259282e-33
  4.1742532e-33 -2.2963870e-33  1.5302578e-33 -1.7006229e-33
 -9.3718785e-34  2.6931604e-33 -6.4185142e-34  3.4737180e-33
  9.7073646e-34  1.1822476e-33  1.8570651e-33  2.1838000e-33
 -5.2016047e-33 -2.9129940e-33  4.7651404e-33 -3.8100123e-33
 -2.8202196e-33  2.4845588e-33  3.0947497e-33  2.8534942e-33
  4.4916153e-34  3.3414448e-33 -3.4953920e-33 -9.6818711e-34]
[ 2.5313918e-33 -1.1940554e-33 -5.3199142e-33  3.9335244e-33
 -1.3811244e-33 -5.6045727e-33 -2.5436934e-33  4.2502570e-33
  2.5942753e-33  7.7309031e-34 -4.0043443e-33 -1.2257806e-33
 -4.2920627e-33 -1.5588780e-33  8.0662863e-34  2.6779271e-33
 -2.9616422e-33 -2.4800628e-33  3.4987803e-33  9.7985168e-34
  2.5236865e-33 -5.0438835e-33  5.0842746e-33  5.4278856e-33
 -4.9929696e-33 -5.2899611e-33  5.5984590e-34 -4.9313237e-33
  2.2843058e-33 -1.2056557e-33 -2.8395315e-33 -6.0505633e-34
  4.2015919e-33 -3.8374628e-34  4.8397689e-33 -3.8623365e-34
  7.1889185e-34  3.9070549e-33  2.7846793e-33 -1.8338454e-33
  6.5718289e-34  4.9428362e-34 -3.3646502e-33 -3.5003812e-33
  3.3991373e-33 -1.8893732e-33 -1.7032858e-33  5.4503155e-33
  2.7213962e-33  2.6062541e-33 -5.8071702e-33 -1.5155723e-33
  4.3607196e-33 -1.7616074e-33 -2.1567805e-33  1.6110108e-33
  1.4667590e-33  4.7064601e-33 -4.9053500e-33  5.8657029e-33
 -1.6130018e-33 -2.7230957e-33 -3.5353084e-34  1.6378486e-33]
[ 1.73859141e-33 -3.91116946e-33 -1.08081416e-33 -2.88940038e-33
  2.50872186e-33  2.23682598e-33  1.94148173e-33  2.41955235e-33
  9.19177808e-34 -2.58906267e-33 -2.10182504e-33 -4.37084652e-33
  2.06456187e-33  2.65904536e-33  4.29690793e-33 -1.91609840e-33
  3.30235154e-33 -2.95290058e-33  4.50273699e-33  2.45601912e-33
 -1.15479977e-33  5.38077837e-33  7.21065867e-34 -4.44965754e-34
 -1.82030002e-33 -1.56873835e-33  1.42321215e-33 -3.10302884e-33
 -3.74761117e-33  2.43004070e-33  3.61332858e-33 -2.14372554e-33
 -2.94303066e-33  2.52766550e-33 -4.87671464e-34 -5.42021621e-33
  2.64697230e-33  3.64688306e-33 -8.45450802e-34  4.16903177e-33
 -6.96110122e-34 -8.18379167e-34  4.91162094e-33  2.40014788e-33
  3.03027750e-33  4.28224364e-33 -3.35151660e-33  4.62521762e-34
  5.41327785e-33  3.20038329e-33 -1.78764350e-33  3.47901659e-33
  7.69778353e-34 -4.84035072e-33 -1.50486787e-33  3.47171677e-33
 -4.98886268e-33 -2.19032801e-33 -4.55347132e-33 -5.67048483e-33
  3.43614631e-33  2.50373832e-33 -3.78627906e-33 -1.93705600e-33]
[-1.1713331e-33  5.4749590e-33 -4.9834319e-33  4.5308783e-33
 -1.9456654e-33  2.1808021e-33  2.3801505e-33 -1.5964754e-33
 -2.0314071e-33  1.4092000e-33  5.3549351e-33 -4.9599808e-33
  5.5748584e-33 -2.0563446e-33 -5.6993021e-33  2.3342974e-33
 -1.4299793e-33 -3.2393744e-33  9.4942915e-34  2.7208639e-33
 -4.8176225e-33  1.3027930e-34 -2.9768453e-35  5.2650756e-33
  7.4483271e-35 -5.6822616e-34 -2.4051085e-33 -6.4297778e-34
 -2.8907728e-33  4.4338942e-33 -1.7286232e-33  5.3624289e-34
 -1.9199816e-33 -4.0206961e-33  2.8958891e-34  1.5799908e-33
 -1.7405545e-33  2.7104931e-33 -3.0618689e-34  3.1597876e-33
 -7.3047570e-34 -2.9360910e-34 -1.7441926e-33 -3.5727197e-33
  3.8666263e-33 -2.6156277e-33  2.1635523e-33  3.0631678e-33
  3.4321673e-33 -3.5541659e-33  1.9132906e-33  1.2162147e-33
 -1.2780386e-33  4.3979064e-33 -4.7728421e-33 -5.7993954e-33
  2.1142539e-33  2.2563520e-33 -1.6651935e-33 -2.1387796e-33
  1.6401895e-33 -2.7339001e-33 -4.8324867e-33 -1.0182132e-34]
[ 2.5266094e-05  2.6408194e-05  2.2162752e-05  2.0316027e-05
  1.7719881e-01 -9.3560177e-01  2.1086231e-05  7.5727683e-01
  2.4221439e-05 -2.2319636e-01  2.4884497e-05  2.1306592e-05
  2.2923472e-05  2.3083703e-06  2.4052759e-05  9.0908140e-01
  2.1654301e-05  1.9764237e-05  2.3220095e-05  2.2229957e-05
  2.0722395e-05  2.1838592e-05  2.1420554e-05  2.3034516e-05
  2.2596094e-05  2.1549638e-05  2.4448578e-05  2.4152561e-05
  2.6730455e-05  2.5058120e-05  2.1302973e-05  2.7370445e-05
  4.4212887e-01  2.5150468e-05  2.5259804e-05  1.9760180e-05
  2.7374233e-05  2.1383172e-05  2.2282264e-05  2.0435689e-05
  2.5198769e-05  2.4117520e-05  2.7516489e-05  2.3365343e-05
  1.9924591e-05  2.1385882e-05  2.1929653e-05  2.5651780e-05
  2.0640196e-05  2.3686240e-05 -2.6172835e-03  4.1554504e-05
  2.2289038e-05  2.4330220e-05  2.3658504e-05  2.4610976e-05
  1.9824478e-05 -6.5909243e-01  2.4628567e-05  2.1141024e-05
  2.0763397e-05  2.6469565e-05  2.6897445e-05  2.4773984e-05]
[ 2.8187532e-33 -3.1532048e-34 -2.6070499e-33  4.3649808e-33
  2.1965537e-33 -2.4677768e-33  5.5763145e-33  2.3974286e-33
 -5.5935906e-33  2.2039698e-33  3.3902624e-33 -5.7647786e-33
  1.5543472e-33 -2.3754489e-33  2.0539824e-33  1.6080131e-33
  2.5405061e-33 -5.8075548e-33  3.2077639e-33  5.7130333e-33
 -1.0322295e-33  2.6582971e-33  1.3488522e-33  1.8179343e-33
  1.7845474e-35 -1.3342597e-33 -5.0560642e-33  4.0938993e-33
 -3.5859454e-33 -1.5424176e-34  3.1869812e-33 -2.5534441e-33
  2.0910849e-33 -2.1897946e-33  3.8492591e-34  1.9051377e-33
 -6.5378645e-34 -3.1079986e-33 -5.8299818e-33  4.7526111e-33
 -5.0054959e-33 -2.4778569e-33 -3.3276482e-33 -4.2448379e-33
  3.9234086e-33  4.0541140e-33 -3.2022824e-33 -1.0265181e-33
  4.2549406e-34  2.9810507e-33  2.6366177e-33  2.2967376e-33
  3.8482159e-34  4.2209916e-33 -5.2120376e-33  3.2837934e-33
 -3.2813554e-33  2.3018789e-33  1.3046929e-33  3.8465062e-33
 -1.2019136e-33 -4.1633027e-33  5.5505271e-33 -5.1489577e-33]
[ 3.18518304e-33  4.46551533e-33  3.40004100e-33 -3.40013357e-33
 -4.26549100e-33  4.26046393e-33 -2.64395055e-33  4.78622802e-33
 -6.79447490e-34  3.79203641e-34 -9.47366530e-34  2.74592652e-33
  3.22240030e-33  1.18219908e-33 -4.91420850e-33  4.00268454e-35
  4.68480380e-33 -5.58053160e-33  4.59237137e-33 -5.05703327e-33
  3.07585142e-33  1.11120987e-33 -6.21487078e-34  1.70023099e-33
  1.47148162e-33 -6.72904762e-34  3.61913993e-33 -7.28174577e-34
 -3.63527359e-33 -4.94147446e-33 -4.68475788e-33 -3.39173283e-35
 -1.61526038e-33 -7.17617261e-34 -1.05341779e-33  1.68582108e-33
 -5.46137798e-33  1.36614760e-33 -3.41738469e-33 -3.03150956e-33
 -5.62974514e-33 -3.40103356e-33 -2.95204835e-33 -9.43624417e-34
 -3.55156810e-33  1.08992047e-33 -5.47829224e-34  2.65329499e-33
  8.55076631e-35  1.15777928e-33  3.12539263e-33  3.28001164e-33
 -9.95056703e-34 -1.76121288e-33  3.34340164e-33 -2.46850875e-34
  3.13596399e-33 -2.68055618e-33 -1.13078461e-33  3.85082252e-33
 -1.39890835e-33 -1.04963417e-33 -5.54048361e-33  3.09096240e-35]
[ 2.0139357e-33 -1.5140046e-33  3.0290486e-33  1.3101801e-33
 -2.6119446e-33 -3.2920491e-33 -2.0427924e-33  2.1501048e-33
 -1.7306355e-33  2.1515240e-33 -3.0224388e-33  2.7010799e-33
  3.0870502e-33  2.2145790e-33  1.9587726e-34  1.9647512e-33
  2.2304629e-33  8.7686405e-34 -4.8083993e-33  2.1948349e-33
  3.1905429e-33 -2.6792029e-33  3.3382001e-33  4.6194728e-33
 -1.5627141e-33  5.3332935e-33  4.3131533e-33 -2.1162822e-33
  3.9057266e-33 -6.3939812e-34  2.7944761e-33  2.0538757e-33
  2.1059373e-33 -2.3555349e-33 -2.5435365e-33  1.8368502e-33
 -4.7744158e-33  2.0648618e-33  2.3430435e-33 -1.1597802e-33
  1.8841540e-33  2.6735864e-33 -5.8792276e-34 -2.7498187e-33
  1.4765290e-34  2.1881829e-33  2.3407020e-33  2.5967796e-33
  2.9325047e-33  2.2741422e-33  2.1547893e-33  1.8892885e-33
 -2.4952740e-33 -3.9058915e-33  2.1355913e-33 -3.3562237e-33
  2.2107397e-33  2.2129757e-33 -2.0626291e-33  2.1949255e-33
 -1.9861208e-33 -1.1439742e-33  2.2450243e-33  2.8681563e-33]
[ 1.5878513e-33  2.4049108e-34  2.0380179e-33  1.1002970e-33
 -2.7992284e-33 -2.0062089e-33  1.6141513e-34  2.1289621e-33
 -2.9683672e-33  2.1751028e-33  5.7783034e-33  2.6328368e-33
  1.9953297e-33  2.1652279e-33 -2.7334246e-33  1.9511572e-33
  2.3498795e-33 -5.3615796e-33  3.7409994e-33  2.1871230e-33
 -2.5740079e-33 -2.1911758e-33  2.8725601e-33  3.8833440e-33
 -5.7169066e-33 -6.5256595e-34  6.6228601e-34 -2.3318662e-33
  5.7620419e-33  2.9615476e-33 -5.8560399e-33 -2.3792808e-33
  2.1838351e-33 -2.7323025e-33  4.9256178e-33  1.8612059e-33
 -4.7053154e-33  2.0946316e-33 -5.2015547e-34 -4.8340339e-33
  1.6160105e-33  1.4007127e-33  3.7649795e-33 -2.2592737e-33
  3.5713388e-33  2.1315529e-33  2.3964454e-33  9.9046337e-34
  2.2018436e-33  2.0370535e-33  2.2971411e-33  1.0669872e-33
 -2.2740434e-33  8.2065921e-35  2.2684648e-33 -7.5521903e-34
  2.0571597e-33  2.2641292e-33 -2.0785253e-33  2.0432650e-33
 -1.7621549e-33  3.1382182e-34  1.9954382e-33  1.9180516e-33]
[-3.6580113e-33 -5.4730392e-33  3.6976714e-33 -1.2334345e-33
  1.7918663e-33  9.0857338e-34  2.1784709e-33  1.6709733e-33
 -3.0026493e-33 -1.3960994e-33 -5.0896025e-33 -2.6756103e-33
 -3.5763317e-33  3.1685762e-33 -2.4011786e-33  1.8284227e-33
  5.2192985e-33 -5.1405143e-33 -5.8631590e-33 -2.2065215e-33
 -4.0132633e-33 -1.4894474e-33 -1.4379053e-33 -4.0699655e-34
  7.3084010e-34  5.4342160e-33  9.8329019e-34 -2.7772922e-33
  1.1650617e-33  4.9329062e-33  4.5607899e-33 -6.4793267e-34
 -1.4886169e-33  2.8359507e-33  8.5203504e-34  2.8645526e-33
 -2.5939996e-33  2.4334935e-33  3.0985296e-33  3.2761792e-33
  4.4618136e-33 -1.0721065e-33 -1.2605507e-33  3.9819901e-33
  6.2064265e-34  4.3881931e-33  2.3306231e-33  3.6984953e-33
  1.9993150e-33 -1.5706785e-33 -4.6511072e-33  4.4872476e-33
  5.2311277e-33 -3.0259392e-34  5.2724595e-35 -3.4472121e-33
 -4.7049389e-33  1.9034016e-33 -5.8380482e-33  3.4194594e-33
  3.1132601e-34 -2.8643798e-33  9.5292386e-34 -2.4876814e-33]
[ 7.0099118e-34 -4.5830144e-33  3.9978680e-33  3.5307567e-33
  2.2699329e-33  2.4946126e-33 -2.9500449e-33  2.6656046e-33
  4.1864802e-33  2.1484123e-33  7.8276977e-34 -2.5265185e-34
  8.5346767e-35  2.4651384e-33 -2.3635187e-33  2.1807665e-33
 -2.7473986e-33 -5.1158315e-33 -3.7228567e-33  1.8311458e-33
  2.0654523e-33  3.8165521e-33 -2.9563317e-33  3.5398554e-33
  3.6425367e-33  3.0546554e-33 -3.4200207e-33  5.2098747e-33
 -2.7779764e-33  3.2245735e-33  4.9575578e-33  2.3335862e-33
  2.6283457e-33 -2.2209276e-34  1.6057907e-33 -3.2163704e-33
  2.5660968e-33 -6.5501319e-34 -7.4148365e-34  4.9474221e-33
 -5.6101842e-33 -3.4539536e-33 -1.5174023e-33 -2.1911062e-33
 -2.7329941e-33  2.9819125e-33 -2.1857399e-33  9.0134556e-34
  3.6270113e-33 -3.0043975e-33  2.1974530e-33  2.5371490e-33
 -9.3306040e-34  2.2439061e-33  1.8824227e-33  4.9861708e-33
 -2.5499946e-33 -2.2603384e-33  5.0143004e-33  2.3438724e-33
  2.0536474e-33 -3.7018903e-33  2.7917748e-33  3.4270546e-33]
[ 3.0046700e-05  3.0402702e-05  2.9833709e-05  3.1417425e-05
 -1.1746919e+00 -3.5187393e-02  3.0346431e-05  5.3839773e-01
  2.9824649e-05  8.5372025e-01  2.9941782e-05  3.0237121e-05
  2.9749117e-05 -3.0526229e-05  2.9778761e-05 -2.3075239e-01
  4.2155705e-05  3.3428318e-05  2.9729077e-05  2.9838331e-05
  3.9475453e-05  4.2602682e-05  3.0160918e-05  2.9729530e-05
  2.9802022e-05  3.0086405e-05  2.9842387e-05  2.9803801e-05
  3.0516885e-05  2.9982330e-05  3.0181251e-05  3.0800569e-05
  4.7669116e-01  3.0010593e-05  3.0036736e-05  3.3354387e-05
  3.0802017e-05  4.1442207e-05  2.9856983e-05  3.1149539e-05
  3.0025976e-05  2.9781144e-05  3.0871201e-05  2.9736328e-05
  3.6169946e-05  3.0184081e-05  4.2871867e-05  3.0143263e-05
  3.9241277e-05  2.9742007e-05 -4.5355316e-03  7.2481380e-05
  2.9827210e-05  2.9830582e-05  4.6655125e-05  2.9895466e-05
  3.5331312e-05 -7.7988155e-02  2.9891702e-05  4.0758547e-05
  3.9616225e-05  3.0421428e-05  3.0600775e-05  2.9924215e-05]
[ 5.2729738e-33 -3.4266131e-33 -5.4208466e-33 -2.0254427e-33
 -3.8735077e-33 -1.6635655e-33  3.6221139e-33 -5.8317296e-33
  4.7677346e-33  5.0994142e-33 -5.4900402e-33  3.7345639e-33
  1.5178501e-33 -4.1746771e-33  3.4911848e-33 -5.7241649e-33
  3.1274854e-33  1.9823831e-34 -5.5431215e-33  5.0686089e-33
  4.4348816e-33  1.0921518e-33  2.1183547e-33 -4.9662686e-33
  7.2143027e-35  2.3973678e-33  1.1793595e-33  1.9541302e-33
 -2.2187256e-33 -9.2439480e-34  3.6984208e-33 -5.7427829e-33
  8.4268839e-34 -9.3019531e-34 -1.8792029e-33 -1.6256911e-33
  3.9420791e-33 -4.9502910e-33  1.2308998e-33 -3.3622702e-33
  2.9359393e-33  1.2586815e-33 -5.0408283e-33 -4.3147064e-33
 -4.8210844e-33  5.6244811e-33 -8.2126794e-34  5.3048822e-33
  3.1534517e-33 -3.7385264e-33  2.4200664e-33  1.4227851e-33
  2.4380827e-33 -3.4669545e-33  1.1123657e-33 -1.9521389e-33
 -2.6377157e-33 -1.3219121e-33 -4.6188810e-33  3.2968859e-33
 -5.5102605e-33  1.6739774e-33 -8.2991738e-34 -9.4741281e-34]
[ 1.44356474e-33 -7.50667019e-34  1.66848199e-34  2.30699619e-33
  2.81556097e-33  2.57216549e-33 -2.59676510e-33  2.44101632e-33
 -2.91374009e-33  2.92012541e-33 -2.05374310e-33  2.24341132e-33
 -1.89144425e-33  2.47246410e-33 -1.43138845e-33  2.29784772e-33
  2.61351920e-33  2.05504184e-33 -1.39612830e-33  2.90975076e-33
 -2.67937389e-33  2.26367372e-33 -2.18295913e-33 -1.14204199e-33
  5.08334450e-33 -3.57859272e-33  2.15258619e-33 -2.57674955e-33
  5.14337921e-33  2.00672902e-33  2.47750220e-33  1.03708724e-33
 -2.49306207e-33 -2.35423656e-33 -2.24058021e-33  2.33728905e-33
  5.71140967e-33 -2.81753084e-33 -2.61456980e-33  2.39766979e-33
 -2.28815137e-33  5.83650725e-33 -5.62551923e-34 -3.03225600e-33
  4.47227699e-33 -2.59290452e-33  3.14843231e-33 -2.42426645e-33
 -2.02578966e-33  2.09131116e-33  2.58589490e-33 -2.24354044e-33
 -5.51711955e-33  4.57741908e-33 -2.11063427e-33 -2.72668166e-33
 -2.46509192e-33  2.57828541e-33 -2.27334105e-33  3.10761070e-33
 -2.25954130e-33 -4.53645604e-33 -1.74430284e-33  3.82574665e-33]
[ 3.06375852e-33 -3.89245852e-34 -3.44364009e-33 -9.16506497e-34
  2.11364996e-33  2.29716098e-33 -2.17433431e-33 -1.79258480e-33
 -2.12220517e-33  1.32099585e-33 -3.42209915e-33 -9.74346696e-34
 -1.95173058e-33  1.75678751e-33 -2.19165485e-33  1.76058858e-33
 -1.93360666e-33  5.86574032e-33  3.87142011e-33  1.54406032e-33
 -5.08695768e-33 -4.03371658e-33 -2.34229904e-33 -2.34359466e-33
 -1.95032494e-33  2.52309595e-33 -4.20426134e-33 -1.51469500e-33
  5.86924623e-33  3.95160058e-33  4.54731320e-33  4.66847581e-33
 -2.19903457e-33  3.21411159e-33 -3.19940469e-33 -4.31833866e-33
 -3.39067084e-33 -2.34675049e-33 -1.55515111e-33  4.26894439e-33
 -2.94771665e-33  4.14435815e-33 -2.80457230e-33 -3.44226035e-33
  4.13858794e-33  4.98741682e-33 -2.46244522e-33  4.12179013e-33
  8.03497409e-34 -4.53420644e-33  1.91255080e-33 -1.44881846e-33
  4.54934681e-33 -5.04932129e-33  2.19472436e-33 -2.17416056e-33
  1.96921936e-33  2.30967705e-33 -1.67911286e-33  2.03211363e-33
  1.25245470e-33  2.43632518e-33  7.16709191e-34  1.24617536e-33]
[ 2.3876573e-33 -5.0639569e-33  5.0780577e-33 -2.4861647e-33
  2.7135512e-33 -3.1677302e-34 -1.8596300e-33  2.5739601e-33
 -3.6008007e-33  2.1596074e-33  6.7730850e-34  2.8602968e-33
  4.1109205e-33  2.0230739e-33 -1.1727460e-33  2.1454936e-33
  2.0759195e-33  2.5129582e-33  3.4697067e-33  2.2136840e-33
  3.2241147e-33  2.4522697e-33  3.7693652e-33 -8.1944271e-34
 -2.3033040e-33  2.3315526e-34  1.8421181e-33 -2.3636958e-33
 -4.8730844e-34 -5.2273058e-34 -1.5749516e-33  3.7957469e-33
  2.2055046e-33  1.9681638e-33 -1.0671786e-33  1.9651935e-33
  3.0894412e-33  2.2974380e-33  3.5528285e-33  1.9360311e-33
  2.2628709e-33  3.6213653e-33 -3.6789965e-33 -7.4804557e-34
 -1.0121473e-33  2.1723104e-33  2.3690825e-33  3.3684364e-33
  2.7528206e-33  2.5042039e-33  2.2303356e-33 -2.8405138e-33
 -2.5572248e-33 -1.7859993e-33  2.1901087e-33 -1.0787025e-34
  2.2560214e-33  2.2498099e-33 -2.3373568e-33  2.2122760e-33
 -2.1775550e-33 -1.5208193e-33  2.4571044e-33  3.6452690e-33]
[-4.5044738e-33 -8.8410326e-34  5.0061241e-33  2.5323469e-33
 -2.4429743e-33  2.1532267e-33 -3.6692450e-33 -2.2521904e-33
 -3.6522213e-33 -2.3195481e-33  5.3836253e-33  2.8209056e-33
  4.2251095e-33 -2.5164485e-33 -2.4882005e-33  2.4514297e-33
  2.6996214e-33  4.8901087e-33  1.4246889e-33  2.3533432e-33
  1.4166364e-33  2.1691331e-33 -2.0218088e-33 -5.1347966e-33
 -5.4038739e-33  3.0723084e-33  2.4948479e-33  2.1167751e-33
  1.4418714e-33 -2.1684087e-33 -2.2756491e-33 -1.5523248e-33
  2.1853239e-33  2.5549443e-33 -5.4626894e-33  2.3891972e-33
  2.0316348e-33 -2.2180359e-33 -1.5964760e-33  2.6424470e-33
  5.0925229e-33  4.6788679e-33  5.2730752e-33  1.6853779e-33
  3.4919893e-33 -2.4317430e-33 -2.1145397e-33  2.1702245e-33
 -4.0650637e-33 -2.2728262e-33 -2.4631513e-33 -2.7413189e-33
 -5.2301601e-33  4.1315262e-33  2.3819082e-33  5.7003137e-34
 -3.3207767e-33 -2.2558157e-33  2.9770853e-33 -2.3074633e-33
  2.7447035e-33  5.3624711e-33 -9.8286223e-34 -1.1032450e-33]
[ 2.2391749e-33  5.6008456e-33  3.6372940e-33  1.3733581e-33
  2.4011281e-33  2.6904931e-33 -7.1727049e-34  2.4156102e-33
 -3.2994661e-33 -2.3840664e-33 -2.2006081e-33 -2.3755800e-33
 -1.4250981e-33 -2.4086908e-33 -2.2779189e-33  2.3324633e-33
  2.6785600e-33 -3.4341289e-33 -3.7022577e-33 -4.0443585e-33
 -4.7770180e-34  2.7319956e-33 -2.0956566e-34 -1.7235921e-33
 -4.5560993e-33 -1.3637182e-33  9.5322086e-34 -3.9490791e-33
 -2.3193642e-33  2.8746913e-33  1.0150026e-33 -1.8531793e-33
  2.1423478e-33 -4.0137365e-33  6.0057255e-34 -2.6770549e-33
 -3.7127034e-34 -2.4832866e-33 -2.3660824e-33 -1.1838710e-33
  4.3720955e-33  1.1344232e-33  1.3530763e-33  2.3732695e-33
 -3.2021495e-34 -2.4107751e-33 -2.2790920e-33  2.7759145e-33
 -1.4485720e-33  4.8262213e-33  2.2799793e-33  2.8054400e-33
 -1.3640297e-33  2.7132522e-33  2.3632170e-33 -2.6590950e-33
  2.0203864e-33 -2.5218927e-33  3.1763870e-33  2.3888655e-33
  2.2537904e-33  1.9756894e-33  2.1823104e-33  1.2471068e-33]
[-4.0805523e-34 -4.1189792e-33  3.1185336e-33  8.3944347e-34
 -2.5366151e-33  2.6044729e-33  9.2033861e-36 -1.7647107e-33
 -3.9814188e-33  2.0935868e-33 -2.7133422e-34  2.1668071e-33
 -5.5683285e-33  2.7960028e-33  3.3433734e-33 -2.8569163e-33
 -1.7272121e-33 -1.9601310e-33  2.1531060e-33 -2.1144324e-33
  4.1877368e-33  2.7286789e-33 -2.0296321e-33 -1.4625341e-33
  2.6801683e-33  3.6167610e-33  1.7721468e-33 -3.0717993e-33
 -1.1315661e-33  1.2111269e-33 -3.2574242e-33  1.0574159e-33
  2.2459333e-33  3.5685422e-33 -2.4986925e-33  2.2044619e-33
  3.7235312e-33  2.1918029e-33  2.1239410e-33  1.8331708e-33
  4.6276862e-33 -2.6755115e-33  3.7013731e-33 -2.0062045e-33
  4.9574358e-33  2.2892108e-33  2.1792538e-33  5.8423891e-33
 -1.2374840e-33 -3.3736269e-33  2.4389779e-33 -2.2837699e-33
  5.4645088e-33 -2.3284310e-33 -2.3006801e-33 -3.3394755e-33
 -2.2926677e-33 -2.3065616e-33 -3.4514568e-33  2.3153248e-33
 -2.5256545e-33  4.7164184e-33  8.2262270e-34 -4.7408183e-33]
[ 3.7637265e-33 -4.1805138e-33 -3.7905623e-33  4.0825969e-33
  2.1318477e-33 -2.5846795e-33  2.0801533e-33  2.0239320e-33
  2.5235256e-33  2.2598728e-33  2.6331294e-34 -2.1203530e-33
  5.1900390e-34 -1.8272437e-33  4.4366760e-33  2.1653770e-33
 -1.7143964e-33 -3.4202198e-33  3.9991728e-33  2.8200976e-33
 -2.6135317e-33 -3.0511890e-33 -3.0672174e-34  1.9344964e-34
  4.2630688e-33  3.6388871e-33 -4.2162573e-33  6.1411498e-34
 -5.8318398e-33 -4.3584759e-34  9.6256714e-34  7.5257720e-34
  2.4301592e-33  7.2202977e-34 -2.1955266e-33  2.0688835e-33
  2.4491948e-33 -1.7994603e-33  1.5956917e-33  3.1750642e-33
 -4.5336944e-33 -4.9857432e-33  4.3457732e-34  2.3798610e-33
 -5.2470394e-35  3.9744044e-33 -2.2545960e-33  1.3037658e-33
 -5.4315898e-33  2.7330692e-33  2.5315323e-33  2.2638394e-33
 -2.5075741e-33 -2.6309422e-33 -3.5412649e-34  7.6280179e-34
 -2.5090519e-33 -2.7587510e-33  1.7666027e-33 -6.4132804e-34
 -3.8088412e-33 -3.5958402e-33  5.4975814e-33  7.3383467e-34]
[-3.8597555e-33 -3.4262802e-33 -2.9924604e-33 -2.6721516e-33
 -2.7082459e-33  2.5126104e-33 -2.5284571e-33 -2.0188269e-33
 -4.6769893e-33 -2.4529770e-33 -2.1076880e-33 -2.7618717e-33
 -2.1471629e-33  2.9935742e-33 -1.0218572e-34 -2.3328306e-33
 -2.0012242e-33 -8.1294398e-34 -1.1527460e-33  2.1286225e-33
 -2.7398441e-33 -2.1187314e-33 -2.1931990e-33  2.8257099e-33
 -2.5004205e-33  3.2631819e-33 -2.7165515e-33  2.3109319e-33
 -5.0099973e-34 -1.6660575e-33 -2.5549638e-33  1.2191052e-33
  1.8760837e-33 -2.3534457e-33 -2.1765391e-33  2.5655741e-33
  2.0546113e-33 -2.5596658e-33 -2.5267473e-33 -1.9967814e-33
 -2.1815900e-33 -5.7300060e-34  3.5049160e-33  4.6718087e-33
  1.1845765e-33  2.8780275e-33 -2.3039353e-33 -2.5109125e-33
 -3.8221566e-33  2.1420413e-33 -2.4182931e-33  2.1968068e-33
 -2.2900533e-33 -1.4627146e-33 -2.6724682e-33 -2.6736782e-33
  2.2092794e-33 -2.5131634e-33 -2.3696958e-33  2.5925274e-33
 -2.9515179e-33  3.0025388e-33  1.6197240e-33 -3.2532350e-33]
[-2.13317290e-33  5.37226596e-33  3.63604978e-33 -1.36798274e-33
  2.01595077e-34  3.23229502e-33 -5.37023529e-33  3.51329952e-33
  4.43362380e-33 -6.87945763e-34  3.02984036e-33 -1.94349110e-33
 -4.10185962e-33  3.15488725e-33 -4.64882743e-33  1.20839791e-33
 -5.23336697e-34 -3.50936198e-33 -6.84104651e-34  1.63024150e-33
 -5.13657383e-33  5.21078499e-33 -4.85284439e-33  5.48034495e-33
 -3.74691653e-33  1.91516168e-33  2.82538296e-33  2.08901436e-33
 -4.96194092e-33  3.34027887e-33  1.73643952e-33 -3.75586020e-33
 -1.87863668e-33 -3.82748712e-33  2.16188435e-33 -6.72405544e-34
 -1.28677546e-33 -1.04320651e-33  4.42840019e-33  3.41118506e-33
 -1.07915120e-33 -8.54279499e-34 -5.35157762e-34 -4.69787236e-33
  1.03782045e-33  9.37307604e-34 -1.18643949e-33 -3.20978724e-33
  3.52226009e-33  1.11988171e-33 -1.91070435e-33  2.44816976e-33
  9.50362203e-34 -1.65693092e-34 -2.63391954e-33 -1.22857233e-33
 -1.30865802e-33 -4.71425471e-33  5.11432466e-33 -2.27218025e-33
  1.47540034e-33  1.65371006e-33 -2.55048479e-34 -2.90198992e-33]
[-6.74910082e-34  3.53033280e-34  1.29160895e-33  2.68921902e-33
  2.51609129e-33  2.37175840e-33 -3.44567957e-33  2.34219398e-33
 -2.54864973e-33  2.19210540e-33 -4.16416119e-34  2.56611427e-33
 -4.28422067e-33  2.73926000e-33 -2.60960738e-33  2.24935399e-33
 -2.38077793e-33 -5.36885739e-33  3.76258146e-33  2.32393947e-33
 -3.85327856e-33 -2.43970675e-33 -4.59325299e-33 -2.32805297e-33
 -3.09293429e-33  4.76430175e-33  3.24797465e-33  3.01429867e-33
  4.93641506e-34 -2.33188049e-33  4.65518171e-33  1.00358418e-33
 -2.53091079e-33 -4.98838660e-34 -5.03626669e-33  2.20091958e-33
  2.74548901e-33 -2.64817920e-33 -2.73056703e-33  2.40111160e-33
 -4.11880657e-33 -2.81567337e-33  3.02285793e-33 -2.02280060e-33
  9.05650072e-34 -2.72138513e-33 -2.47139128e-33  2.67783674e-33
  2.27720439e-33 -2.58803944e-33  2.53596045e-33  2.50229448e-33
 -1.53465636e-33 -2.59928011e-33  2.30362638e-33 -2.47406884e-33
 -1.99259480e-33 -2.47847400e-33  1.53578833e-33  2.78355226e-33
  2.07468380e-33  5.30104753e-33 -3.65666905e-33  1.74568846e-33]
[ 3.6680655e-33 -5.0085570e-33  5.6073986e-33 -3.7753690e-33
 -3.7933959e-33 -5.1944375e-33  1.9910964e-33  3.2756697e-33
  2.6266965e-33 -3.5036950e-33 -5.3954078e-33  5.1759448e-33
 -1.7176147e-33  5.1831187e-34 -1.6754077e-33 -2.1031679e-33
  4.8637890e-33  4.4618166e-33 -1.1119251e-33 -1.8660181e-33
 -2.0936675e-33  2.0505153e-33  2.0462771e-33 -3.0691981e-33
 -9.5265442e-34 -5.3112927e-33  4.2304159e-34 -1.8853140e-33
  1.7476721e-33 -4.5058998e-33 -3.8203482e-33  7.3433573e-34
  2.8106088e-33 -1.9377084e-33  3.7658615e-33  3.0822843e-33
 -4.3954515e-33 -2.2413711e-34  3.0078788e-33 -5.9756402e-34
  1.8604588e-33  1.8816138e-34 -3.4086603e-33 -3.0941068e-33
 -1.7806256e-33  2.3946488e-33 -4.3166342e-33  5.1735615e-33
 -2.6142289e-33 -5.6467450e-33 -5.6910479e-33 -5.0795675e-33
 -3.3831521e-33  2.1291839e-33 -3.7847542e-33 -1.1272019e-33
  3.2965090e-33  1.0830541e-34  3.5623940e-33  1.9647525e-34
 -3.2530093e-34  3.1194204e-33  4.6420940e-33 -2.7839890e-33]
[ 7.8105924e-34 -1.4524482e-34 -8.4322471e-34  2.3860713e-33
 -2.4018871e-33  2.4175558e-33 -2.5632389e-33  2.2292767e-33
 -4.1804950e-34 -2.4624889e-33 -2.3438009e-33  2.3749750e-33
 -4.8978873e-34 -2.3517388e-33 -2.2458911e-33  3.1671972e-33
 -2.6722862e-33 -3.7019513e-33 -2.0267537e-33  2.1913940e-33
 -2.8163930e-33  2.5761185e-33 -2.3671268e-33 -1.7515652e-33
 -5.1368045e-33  2.8204473e-33  2.3696473e-33  2.3486497e-33
  2.1675866e-33  3.6419195e-33 -2.4553526e-33  3.7469500e-33
 -2.2235350e-33 -2.5144428e-33 -2.3587361e-33 -2.2370883e-33
  4.3174130e-33  2.5978947e-33 -2.4951972e-33 -2.1975544e-33
 -2.4523415e-33 -1.0728414e-33  3.2811574e-34 -1.6992395e-33
  5.1298030e-33  2.7950065e-33 -2.8458711e-33 -2.4751049e-33
  4.4516529e-33 -2.5040010e-33  2.3361644e-33  2.6007530e-33
  4.7029516e-33  2.2972495e-33  2.3477344e-33 -2.9017513e-33
 -2.4938910e-33 -2.5789231e-33  2.4171521e-33  2.5844312e-33
  2.1379316e-33 -4.9347223e-33 -3.3858932e-33  2.4856486e-33]
[-1.28496103e+01 -1.28604698e+01 -1.28150673e+01 -1.27800951e+01
  1.44192755e-01  1.28898993e-01 -1.27983036e+01  1.96582470e-02
 -1.28389616e+01  8.81671906e-03 -1.28459883e+01 -1.28017120e+01
 -1.28244381e+01 -1.17949448e+01 -1.28375025e+01  1.39258970e-02
 -1.26956835e+01 -1.27562647e+01 -1.28281927e+01 -1.28156891e+01
 -1.27116556e+01 -1.26933317e+01 -1.28037338e+01 -1.28260841e+01
 -1.28204079e+01 -1.28057833e+01 -1.28416491e+01 -1.28384647e+01
 -1.28633070e+01 -1.28476973e+01 -1.28022537e+01 -1.28689623e+01
  1.95089541e-02 -1.28485031e+01 -1.28496733e+01 -1.27569523e+01
 -1.28689566e+01 -1.26998320e+01 -1.28162336e+01 -1.27838964e+01
 -1.28489523e+01 -1.28381271e+01 -1.28701754e+01 -1.28297796e+01
 -1.27335615e+01 -1.28030806e+01 -1.26917582e+01 -1.28532887e+01
 -1.27129002e+01 -1.28335028e+01 -6.55558884e-01 -1.24850359e+01
 -1.28165703e+01 -1.28401823e+01 -1.26717052e+01 -1.28430195e+01
 -1.27399483e+01  4.56781723e-02 -1.28432169e+01 -1.27036877e+01
 -1.27105131e+01 -1.28610649e+01 -1.28647757e+01 -1.28448105e+01]
layer 3 Activation
swish
layer 4 Dense
64 64
[-1.2711586e-10 -1.2924176e-10  2.8945284e-04 -1.0686506e-05
 -1.2930176e-10 -1.2918601e-10  1.1698808e-05 -2.7231054e-05
 -1.2940957e-10 -1.2005236e-10 -1.2522250e-10 -1.1875634e-10
 -1.2898613e-10  3.2932570e-05 -1.2424978e-10 -1.2487957e-10
  5.1431998e-05  1.1277749e-05 -3.9983242e-05 -1.2513277e-10
  5.9621256e-05 -1.2509020e-10 -1.0915045e-10 -1.2518148e-10
 -1.2941520e-10  3.5023372e-04 -3.6524679e-04 -1.1848250e-10
 -1.2325317e-10  1.7696054e-04 -1.2936364e-10 -3.0761337e-05
  7.4484674e-06 -1.2278534e-10 -1.2646725e-10 -1.2917389e-10
 -1.2906518e-10 -1.2905887e-10 -1.9106097e-04 -1.0501676e-10
 -1.2923709e-10  1.2175599e-04 -1.2102933e-10 -1.2877971e-10
 -1.2485367e-10 -2.2785878e-04 -1.2929544e-10  6.3951506e-05
 -1.2925830e-10 -1.2932451e-10  1.3516692e-06 -1.2333268e-10
 -1.2919087e-10 -1.2932538e-10 -1.2926066e-10 -1.2512839e-10
 -1.2112544e-10 -1.2930161e-10 -1.2515208e-10 -1.2940651e-10
  3.6764977e-06 -1.2939816e-10 -1.2526478e-10 -9.3959895e-11]
[-1.25812638e-10 -1.27933136e-10  2.91894190e-04 -1.05309118e-05
 -1.27992505e-10 -1.27879457e-10  1.14975383e-05 -2.92811055e-05
 -1.28100058e-10 -1.18800234e-10 -1.23931698e-10 -1.17514581e-10
 -1.27681490e-10  3.30559415e-05 -1.22965832e-10 -1.23591665e-10
  5.13032028e-05  1.13508031e-05 -3.92688744e-05 -1.23842769e-10
  6.03402696e-05 -1.23800664e-10 -1.07987216e-10 -1.23891231e-10
 -1.28105679e-10  3.55639786e-04 -3.70356400e-04 -1.17243049e-10
 -1.21976582e-10  1.69627383e-04 -1.28054484e-10 -3.22469277e-05
  7.17040211e-06 -1.21512356e-10 -1.25168320e-10 -1.27864622e-10
 -1.27756666e-10 -1.27752892e-10 -1.97491347e-04 -1.03888106e-10
 -1.27928057e-10  1.23167760e-04 -1.19769666e-10 -1.27470146e-10
 -1.23565796e-10 -2.24023519e-04 -1.27985816e-10  5.95304227e-05
 -1.27950275e-10 -1.28015820e-10  2.59002263e-07 -1.22055616e-10
 -1.27883870e-10 -1.28015293e-10 -1.27953148e-10 -1.23838190e-10
 -1.19865395e-10 -1.27992283e-10 -1.23861962e-10 -1.28096672e-10
  3.65754272e-06 -1.28089428e-10 -1.23973637e-10 -9.29230026e-11]
[-1.31325756e-10 -1.33469319e-10  2.80969951e-04 -1.11844993e-05
 -1.33530770e-10 -1.33406744e-10  1.23301606e-05 -1.98373491e-05
 -1.33640113e-10 -1.24097746e-10 -1.29392524e-10 -1.22768296e-10
 -1.33200728e-10  3.28334136e-05 -1.28397473e-10 -1.29040889e-10
  5.09409256e-05  1.13617534e-05 -4.21807417e-05 -1.29301014e-10
  5.69707336e-05 -1.29256383e-10 -1.12908724e-10 -1.29350017e-10
 -1.33645775e-10  3.31002579e-04 -3.46093118e-04 -1.22487645e-10
 -1.27376942e-10  1.99377857e-04 -1.33592762e-10 -2.75660568e-05
  8.39670611e-06 -1.26898131e-10 -1.30663799e-10 -1.33403261e-10
 -1.33291947e-10 -1.33278000e-10 -1.72182205e-04 -1.08663384e-10
 -1.33465683e-10  1.17383905e-04 -1.25099375e-10 -1.33010158e-10
 -1.29014022e-10 -2.38654378e-04 -1.33525330e-10  7.82701172e-05
 -1.33484362e-10 -1.33552502e-10  4.50520020e-06 -1.27458183e-10
 -1.33413364e-10 -1.33557693e-10 -1.33484584e-10 -1.29296435e-10
 -1.25197325e-10 -1.33530687e-10 -1.29319819e-10 -1.33637990e-10
  3.73496118e-06 -1.33626332e-10 -1.29436170e-10 -9.73087166e-11]
[-1.35699424e-10 -1.37861972e-10  2.71338533e-04 -1.17064292e-05
 -1.37925088e-10 -1.37792430e-10  1.29480168e-05 -1.17663367e-05
 -1.38035736e-10 -1.28298691e-10 -1.33723810e-10 -1.26933658e-10
 -1.37579836e-10  3.27069938e-05 -1.32705638e-10 -1.33362765e-10
  4.90861094e-05  1.18810021e-05 -4.41085358e-05 -1.33630357e-10
  5.42356829e-05 -1.33583561e-10 -1.16809465e-10 -1.33679692e-10
 -1.38041675e-10  3.08865623e-04 -3.22452397e-04 -1.26645805e-10
 -1.31659711e-10  2.19891022e-04 -1.37987177e-10 -2.71335884e-05
  9.44446583e-06 -1.31169367e-10 -1.35022854e-10 -1.37798037e-10
 -1.37683989e-10 -1.37661937e-10 -1.55339629e-04 -1.12447746e-10
 -1.37859127e-10  1.13597809e-04 -1.29325509e-10 -1.37405559e-10
 -1.33335010e-10 -2.48444296e-04 -1.37920425e-10  9.22636682e-05
 -1.37875281e-10 -1.37945391e-10  7.92121136e-06 -1.31742728e-10
 -1.37800354e-10 -1.37955258e-10 -1.37873601e-10 -1.33625652e-10
 -1.29425609e-10 -1.37924949e-10 -1.33648814e-10 -1.38034723e-10
  3.79286894e-06 -1.38019596e-10 -1.33769010e-10 -1.00782993e-10]
[-6.9419420e-06 -6.3031839e-06 -1.8853238e-01 -8.8044833e-03
 -6.2874460e-06 -6.1612009e-06 -1.4102107e-02  5.2578950e-01
 -6.2401868e-06 -6.0130956e-06 -6.8561653e-06 -5.7398101e-06
 -6.1717237e-06 -8.2211375e-01 -6.7454321e-06 -6.8293029e-06
 -4.7372047e-02 -9.5365085e-02  6.4707607e-02 -6.8424038e-06
  6.4625010e-02 -6.8442973e-06 -2.7639876e-06 -6.8579520e-06
 -6.2416220e-06  2.3140557e-01  1.1262511e-02 -5.6740801e-06
 -6.6222642e-06 -4.3422487e-01 -6.2432728e-06 -1.4521953e-01
  1.4118788e-02 -6.5410786e-06 -6.9288158e-06 -6.3909770e-06
 -6.3933248e-06 -6.2286272e-06  8.6340509e-02 -1.0202193e-06
 -6.3189482e-06  3.8052452e-01 -6.2212403e-06 -6.6493117e-06
 -6.8289464e-06  1.7759475e-01 -6.3267653e-06 -9.4818242e-02
 -6.2460567e-06 -6.2341023e-06 -4.7998071e-01 -6.6338052e-06
 -6.2089002e-06 -6.3383650e-06 -6.1883447e-06 -6.8457821e-06
 -6.2511899e-06 -6.2874669e-06 -6.8562645e-06 -6.2683685e-06
 -4.5538293e-03 -6.1926139e-06 -6.8547070e-06  5.5930673e-06]
[-1.4825166e-05 -6.4286396e-06  1.5224133e-02  8.6411066e-02
 -6.3771404e-06 -5.8041078e-06 -6.8965286e-04 -5.7272289e-02
 -6.1398277e-06 -2.9305877e-05 -1.9299121e-05 -3.1294054e-05
 -5.8190453e-06  6.1935067e-02 -2.1414480e-05 -1.9819130e-05
  3.1005813e-02 -7.8644261e-02  1.0511539e-01 -1.9474581e-05
  1.6096145e-01 -1.9368084e-05 -4.2938434e-05 -1.9297740e-05
 -6.1388946e-06  4.3935317e-01  3.4643942e-01 -3.1720607e-05
 -2.3251254e-05 -1.5630123e-01 -6.1719293e-06  8.3388969e-02
 -1.9094359e-02 -2.4332039e-05 -1.6293745e-05 -6.9353046e-06
 -6.9909329e-06 -6.0792554e-06  1.4616869e-01 -4.5638946e-05
 -6.5419936e-06  1.5308306e-01 -2.7616536e-05 -8.8276993e-06
 -1.9816731e-05  2.3718686e-01 -6.5501899e-06  4.0968788e-01
 -6.1759038e-06 -6.1295104e-06  8.7995995e-03 -2.3070710e-05
 -5.9860704e-06 -6.6536031e-06 -5.9269132e-06 -1.9511201e-05
 -2.7316113e-05 -6.3771258e-06 -1.9296369e-05 -6.2823910e-06
 -1.5923036e-02 -5.9189206e-06 -1.9285517e-05 -4.4130302e-05]
[-1.33407396e-10 -1.35559952e-10  2.76496750e-04 -1.14311715e-05
 -1.35622263e-10 -1.35494033e-10  1.26290270e-05 -1.60352429e-05
 -1.35732203e-10 -1.26097466e-10 -1.31454264e-10 -1.24751209e-10
 -1.35284922e-10  3.28373208e-05 -1.30448097e-10 -1.31097966e-10
  5.02147086e-05  1.15658695e-05 -4.31503468e-05 -1.31361630e-10
  5.55531878e-05 -1.31316069e-10 -1.14765975e-10 -1.31410854e-10
 -1.35737949e-10  3.20683816e-04 -3.35204182e-04 -1.24466742e-10
 -1.29415659e-10  2.09492879e-04 -1.35684269e-10 -2.69148150e-05
  8.88883642e-06 -1.28931338e-10 -1.32738570e-10 -1.35494907e-10
 -1.35382344e-10 -1.35364470e-10 -1.63900666e-04 -1.10465054e-10
 -1.35556594e-10  1.15457617e-04 -1.27111321e-10 -1.35102152e-10
 -1.31070765e-10 -2.43391158e-04 -1.35617087e-10  8.51445657e-05
 -1.35574121e-10 -1.35643274e-10  6.00830390e-06 -1.29497774e-10
 -1.35501430e-10 -1.35650546e-10 -1.35573608e-10 -1.31357175e-10
 -1.27210159e-10 -1.35622041e-10 -1.31380573e-10 -1.35730621e-10
  3.76282628e-06 -1.35717382e-10 -1.31498548e-10 -9.89626714e-11]
[ 5.9066762e-05  3.3181364e-05  4.1206557e-02 -7.7794708e-02
  3.2855278e-05  3.0386873e-05 -8.7248519e-02 -2.1827867e-02
  3.1804841e-05  8.5861087e-05  6.8762653e-05  8.8747562e-05
  3.0554205e-05  5.8903569e-01  7.2839553e-05  6.9819391e-05
 -1.6469312e-01  3.1876046e-02 -8.5485145e-02  6.9055503e-05
  9.2492886e-02  6.8906971e-05  1.0078404e-04  6.8788737e-05
  3.1803138e-05 -4.6678036e-02 -1.3588807e-01  8.9304653e-05
  7.6155979e-05  9.7415112e-02  3.1937518e-05  2.1213607e-01
 -1.0226115e-02  7.8021621e-05  6.2408973e-05  3.5309764e-05
  3.5520148e-05  3.1693657e-05 -1.0284144e-01  1.0078802e-04
  3.3663600e-05  1.8831950e-01  8.3327614e-05  4.2383806e-05
  6.9814480e-05 -1.6477002e-01  3.3658071e-05 -6.6939771e-02
  3.2062497e-05  3.1775984e-05  4.2710029e-02  7.5829885e-05
  3.1197116e-05  3.4094242e-05  3.0865674e-05  6.9175439e-05
  8.2886239e-05  3.2855052e-05  6.8782072e-05  3.2421478e-05
 -5.7429865e-02  3.0773437e-05  6.8718960e-05  7.8761434e-05]
[-1.28390770e-10 -1.30522926e-10  2.86958646e-04 -1.08387303e-05
 -1.30583239e-10 -1.30465014e-10  1.18942253e-05 -2.50387093e-05
 -1.30691541e-10 -1.21276544e-10 -1.26485378e-10 -1.19970339e-10
 -1.30263272e-10  3.28467868e-05 -1.25505537e-10 -1.26139460e-10
  5.14279855e-05  1.12437301e-05 -4.06803301e-05 -1.26395006e-10
  5.88510957e-05 -1.26351901e-10 -1.10286336e-10 -1.26443883e-10
 -1.30697148e-10  3.44569475e-04 -3.59772646e-04 -1.19694352e-10
 -1.24501659e-10  1.84096352e-04 -1.30645272e-10 -2.95391219e-05
  7.73141801e-06 -1.24030217e-10 -1.27738112e-10 -1.30455494e-10
 -1.30346012e-10 -1.30337435e-10 -1.84999182e-04 -1.06118198e-10
 -1.30518402e-10  1.20428347e-04 -1.22261090e-10 -1.30061281e-10
 -1.26113231e-10 -2.31422397e-04 -1.30577049e-10  6.85117775e-05
 -1.30538969e-10 -1.30605665e-10  2.36721826e-06 -1.24581748e-10
 -1.30470301e-10 -1.30607913e-10 -1.30540745e-10 -1.26390634e-10
 -1.22358013e-10 -1.30583086e-10 -1.26414226e-10 -1.30688835e-10
  3.69458735e-06 -1.30679370e-10 -1.26528010e-10 -9.49694073e-11]
[ 1.58565508e-05  3.16403020e-05 -7.57490993e-02  2.19917647e-03
  3.16753612e-05  3.25912151e-05 -5.73970042e-02  2.03900784e-01
  3.20860563e-05 -1.07654168e-05  7.32452554e-06 -1.42361769e-05
  3.25455621e-05 -7.55658671e-02  3.35884306e-06  6.36955974e-06
 -2.25055171e-03 -3.32386434e-01 -7.28446469e-02  7.00980036e-06
 -3.56870592e-01  7.20448952e-06 -3.26255577e-05  7.31090859e-06
  3.20896834e-05  6.01950325e-02  4.96587865e-02 -1.49417028e-05
 -5.93172444e-09 -6.36336673e-03  3.20451873e-05 -3.23998034e-01
 -6.96727857e-02 -1.97437930e-06  1.30239923e-05  3.07419687e-05
  3.05613721e-05  3.21330808e-05  1.11580759e-01 -3.60741724e-05
  3.14068238e-05 -6.65520489e-01 -7.82028383e-06  2.72522666e-05
  6.36353434e-06  1.02625094e-01  3.14426252e-05  8.25922564e-03
  3.20401050e-05  3.20722684e-05 -2.46515423e-02  3.10368705e-07
  3.23068380e-05  3.11982440e-05  3.24111534e-05  6.92505000e-06
 -7.30272222e-06  3.16753903e-05  7.30408919e-06  3.18574457e-05
 -2.97527686e-02  3.24595530e-05  7.36177572e-06 -2.68030162e-05]
[-1.27544336e-10 -1.29673050e-10  2.88630661e-04 -1.07381620e-05
 -1.29733099e-10 -1.29616540e-10  1.17660520e-05 -2.65367853e-05
 -1.29841013e-10 -1.20463306e-10 -1.25646812e-10 -1.19163707e-10
 -1.29416228e-10  3.28646274e-05 -1.24671565e-10 -1.25302962e-10
  5.14460698e-05  1.12565322e-05 -4.02191508e-05 -1.25556829e-10
  5.93947589e-05 -1.25514141e-10 -1.09530746e-10 -1.25605498e-10
 -1.29846842e-10  3.48337198e-04 -3.63387284e-04 -1.18888954e-10
 -1.23672350e-10  1.79386174e-04 -1.29795133e-10 -3.03436536e-05
  7.54391658e-06 -1.23203392e-10 -1.26894523e-10 -1.29605243e-10
 -1.29496164e-10 -1.29489308e-10 -1.88933074e-04 -1.05384729e-10
 -1.29668415e-10  1.21298683e-04 -1.21442911e-10 -1.29210975e-10
 -1.25276858e-10 -2.29130033e-04 -1.29726715e-10  6.55110562e-05
 -1.29689454e-10 -1.29755928e-10  1.72730506e-06 -1.23752147e-10
 -1.29621702e-10 -1.29757094e-10 -1.29691466e-10 -1.25552430e-10
 -1.21539265e-10 -1.29732836e-10 -1.25576230e-10 -1.29838335e-10
  3.68274186e-06 -1.29829564e-10 -1.25689265e-10 -9.42961820e-11]
[-1.32972688e-10 -1.35122927e-10  2.77440413e-04 -1.13804526e-05
 -1.35185058e-10 -1.35057632e-10  1.25694924e-05 -1.68781480e-05
 -1.35294789e-10 -1.25679911e-10 -1.31023636e-10 -1.24336957e-10
 -1.34849007e-10  3.27411653e-05 -1.30019856e-10 -1.30668476e-10
  5.03865740e-05  1.15084549e-05 -4.29646243e-05 -1.30931294e-10
  5.59170876e-05 -1.30885941e-10 -1.14377979e-10 -1.30980560e-10
 -1.35300521e-10  3.22841806e-04 -3.37517908e-04 -1.24053698e-10
 -1.28990027e-10  2.07423785e-04 -1.35247133e-10 -2.70034798e-05
  8.78858464e-06 -1.28506858e-10 -1.32305278e-10 -1.35057660e-10
 -1.34945263e-10 -1.34928263e-10 -1.65594189e-04 -1.10088771e-10
 -1.35119471e-10  1.15876515e-04 -1.26690936e-10 -1.34664974e-10
 -1.30641109e-10 -2.42430877e-04 -1.35179784e-10  8.37102925e-05
 -1.35137346e-10 -1.35206069e-10  5.84001828e-06 -1.29071670e-10
 -1.35064862e-10 -1.35213091e-10 -1.35136707e-10 -1.30926769e-10
 -1.26789843e-10 -1.35184794e-10 -1.30949904e-10 -1.35293124e-10
  3.75709169e-06 -1.35280065e-10 -1.31067740e-10 -9.86170590e-11]
[-1.30157218e-10 -1.32296729e-10  2.83386617e-04 -1.10482360e-05
 -1.32357875e-10 -1.32236180e-10  1.21604180e-05 -2.19547001e-05
 -1.32466774e-10 -1.22973270e-10 -1.28234756e-10 -1.21652688e-10
 -1.32031830e-10  3.27634298e-05 -1.27245409e-10 -1.27885175e-10
  5.12122569e-05  1.12996640e-05 -4.16071598e-05 -1.28143607e-10
  5.76656093e-05 -1.28099531e-10 -1.11861576e-10 -1.28192623e-10
 -1.32472325e-10  3.36496334e-04 -3.51655297e-04 -1.21373772e-10
 -1.26231400e-10  1.93477288e-04 -1.32419825e-10 -2.81677640e-05
  8.13096267e-06 -1.25755475e-10 -1.29498773e-10 -1.32230393e-10
 -1.32119649e-10 -1.32107825e-10 -1.77015594e-04 -1.07645948e-10
 -1.32292857e-10  1.18470838e-04 -1.23968114e-10 -1.31836556e-10
 -1.27858613e-10 -2.35940402e-04 -1.32352129e-10  7.45535290e-05
 -1.32312231e-10 -1.32379760e-10  3.77383549e-06 -1.26312405e-10
 -1.32242106e-10 -1.32383798e-10 -1.32313105e-10 -1.28139194e-10
 -1.24065855e-10 -1.32357680e-10 -1.28162619e-10 -1.32464456e-10
  3.71930378e-06 -1.32453742e-10 -1.28277985e-10 -9.63714664e-11]
[-3.1644812e-10 -3.2347491e-10  1.5611481e-04 -1.0536390e-05
 -3.2362474e-10 -3.2348951e-10 -1.4533000e-05  1.1542793e-04
 -3.2397005e-10 -2.9655250e-10 -3.1098146e-10 -2.9302150e-10
 -3.2297487e-10  2.7035429e-05 -3.0822531e-10 -3.1004618e-10
  5.8474132e-05  4.7682397e-06 -3.3392316e-05 -3.1072137e-10
  5.8041398e-05 -3.1063835e-10 -2.6699226e-10 -3.1088110e-10
 -3.2398501e-10 -2.0814259e-05  1.9718354e-06 -2.9226410e-10
 -3.0544045e-10  2.3430504e-04 -3.2384623e-10 -8.7037019e-04
  2.3438904e-05 -3.0412262e-10 -3.1457265e-10 -3.2316594e-10
 -3.2285843e-10 -3.2308289e-10  3.0628472e-04 -2.5591140e-10
 -3.2342617e-10  1.0010290e-04 -2.9924818e-10 -3.2173586e-10
 -3.0997740e-10 -1.9196817e-04 -3.2357919e-10  3.1618390e-04
 -3.2358188e-10 -3.2374675e-10  1.1777341e-04 -3.0567129e-10
 -3.2344943e-10 -3.2361383e-10 -3.2364522e-10 -3.1070815e-10
 -2.9953318e-10 -3.2362391e-10 -3.1080219e-10 -3.2392061e-10
  1.2578132e-05 -3.2400360e-10 -3.1108716e-10 -2.2646671e-10]
[-1.28575955e-10 -1.30708028e-10  2.86667491e-04 -1.08599907e-05
 -1.30768618e-10 -1.30650019e-10  1.19220094e-05 -2.46885793e-05
 -1.30876920e-10 -1.21455512e-10 -1.26669009e-10 -1.20147725e-10
 -1.30447944e-10  3.28715505e-05 -1.25688168e-10 -1.26322883e-10
  5.14161875e-05  1.12490779e-05 -4.07708139e-05 -1.26578609e-10
  5.86285241e-05 -1.26535324e-10 -1.10453868e-10 -1.26627403e-10
 -1.30882624e-10  3.43850959e-04 -3.58966936e-04 -1.19871682e-10
 -1.24683389e-10  1.85053650e-04 -1.30830513e-10 -2.94208585e-05
  7.77135574e-06 -1.24211752e-10 -1.27922839e-10 -1.30640970e-10
 -1.30531225e-10 -1.30522315e-10 -1.84107266e-04 -1.06281095e-10
 -1.30703781e-10  1.20120050e-04 -1.22440905e-10 -1.30247091e-10
 -1.26296584e-10 -2.31871716e-04 -1.30762623e-10  6.90746165e-05
 -1.30724154e-10 -1.30790961e-10  2.45292904e-06 -1.24763755e-10
 -1.30655431e-10 -1.30793432e-10 -1.30725625e-10 -1.26574029e-10
 -1.22538008e-10 -1.30768479e-10 -1.26597746e-10 -1.30874256e-10
  3.69714417e-06 -1.30864597e-10 -1.26711738e-10 -9.51207169e-11]
[-1.97481131e-06 -2.01885123e-05  1.06677681e-01 -2.29104087e-01
 -2.03782656e-05 -2.17603920e-05 -9.13862959e-02  3.69021684e-01
 -2.09756618e-05  2.44347393e-05  6.48843707e-06  2.81750763e-05
 -2.16541666e-05  8.14453140e-02  1.03668572e-05  7.47395097e-06
 -4.82864380e-02 -4.89753783e-02 -1.85862154e-01  6.76831405e-06
  1.72277182e-01  6.63894025e-06  5.30504985e-05  6.51559094e-06
 -2.09785321e-05 -8.70791916e-03 -2.08497286e-01  2.89146628e-05
  1.36589806e-05  1.00931965e-01 -2.09084174e-05 -1.21016679e-02
 -1.02168448e-01  1.55934977e-05  8.37681000e-07 -1.89390703e-05
 -1.88108170e-05 -2.10304279e-05  2.98403203e-01  6.26843030e-05
 -1.99091846e-05  1.86877027e-01  2.14205720e-05 -1.44301157e-05
  7.47083686e-06 -1.68076769e-01 -1.99044480e-05 -2.92771429e-01
 -2.08299061e-05 -2.10008511e-05  2.75568403e-02  1.33473222e-05
 -2.13100211e-05 -1.96634574e-05 -2.15003201e-05  6.87244028e-06
  2.09189311e-05 -2.03784002e-05  6.50520815e-06 -2.06324439e-05
 -4.47876118e-02 -2.15497275e-05  6.44609827e-06  8.29421624e-05]
[-1.46716597e-10 -1.48939291e-10  2.45236122e-04 -1.30844446e-05
 -1.49006557e-10 -1.48853374e-10  1.42689842e-05  9.07047070e-06
 -1.49121562e-10 -1.38865475e-10 -1.44629503e-10 -1.37409334e-10
 -1.48624502e-10  3.31040792e-05 -1.43550782e-10 -1.44244602e-10
  4.04759339e-05  1.43193793e-05 -4.67986756e-05 -1.44530943e-10
  4.78615584e-05 -1.44479040e-10 -1.26603533e-10 -1.44581791e-10
 -1.49127738e-10  2.48700380e-04 -2.52105994e-04 -1.37102635e-10
 -1.42439380e-10  2.60083587e-04 -1.49069659e-10 -4.32057277e-05
  1.22087122e-05 -1.41919143e-10 -1.46002099e-10 -1.48879367e-10
 -1.48758256e-10 -1.48717871e-10 -1.18480646e-04 -1.21942664e-10
 -1.48938584e-10  1.07223459e-04 -1.39958461e-10 -1.48485876e-10
 -1.44214710e-10 -2.74677615e-04 -1.49004059e-10  1.21534729e-04
 -1.48949159e-10 -1.49024404e-10  1.56586284e-05 -1.42527129e-10
 -1.48865170e-10 -1.49044416e-10 -1.48942664e-10 -1.44526030e-10
 -1.40063849e-10 -1.49006391e-10 -1.44548623e-10 -1.49122700e-10
  3.92885340e-06 -1.49099483e-10 -1.44678214e-10 -1.09480758e-10]
[-1.38743517e-10 -1.40920609e-10  2.64258706e-04 -1.20771174e-05
 -1.40985112e-10 -1.40846473e-10  1.33499680e-05 -6.00324711e-06
 -1.41096759e-10 -1.31221561e-10 -1.36738482e-10 -1.29831784e-10
 -1.40629397e-10  3.28262504e-05 -1.35703657e-10 -1.36370901e-10
  4.71276217e-05  1.24267353e-05 -4.51704582e-05 -1.36643696e-10
  5.23575727e-05 -1.36595263e-10 -1.19522101e-10 -1.36693365e-10
 -1.41102852e-10  2.92572950e-04 -3.04271787e-04 -1.29538713e-10
 -1.34640327e-10  2.32602382e-04 -1.41047368e-10 -2.89146701e-05
  1.01984115e-05 -1.34141767e-10 -1.38057149e-10 -1.40857853e-10
 -1.40741863e-10 -1.40714690e-10 -1.44639809e-04 -1.15078697e-10
 -1.40918333e-10  1.11426241e-04 -1.32266365e-10 -1.40465889e-10
 -1.36342451e-10 -2.55202031e-04 -1.40980783e-10  1.01224454e-04
 -1.40933182e-10 -1.41004569e-10  9.97191091e-06 -1.34724690e-10
 -1.40855716e-10 -1.41017253e-10 -1.40929851e-10 -1.36638756e-10
 -1.32367867e-10 -1.40984613e-10 -1.36661613e-10 -1.41096412e-10
  3.83125735e-06 -1.41078871e-10 -1.36784417e-10 -1.03196174e-10]
