layers 12
layer 0 Dense
26 64
[-0.01846464  0.02368509  0.11439615 -0.15326811 -0.00960225  0.09567254
  0.02073155  0.02238462 -0.00080506 -0.05589631 -0.12236302  0.20434804
  0.31548965  0.05551687 -0.13924192 -0.01178313  0.00409911  0.06939714
 -0.22037888 -0.20372894  0.03605579  0.00688078 -0.018264    0.09963923
 -0.00515155 -0.24636556 -0.19374609 -0.00490877 -0.13853852  0.13877608
  0.02397733  0.03258435  0.11044174 -0.0416839  -0.00950947 -0.00092367
 -0.03222542 -0.07575262  0.0587647  -0.13648511 -0.17277977  0.10070603
  0.04319697  0.19843827  0.02027036 -0.0330464  -0.36392942 -0.00120302
 -0.01582088  0.00481226 -0.01118508  0.25518787 -0.19981596 -0.11601006
  0.03690103  0.07292444 -0.00529282 -0.10665882 -0.01644073  0.01136489
 -0.00283962  0.00315733  0.17413828  0.02758591]
[ 0.01846457 -0.02368486 -0.11439565  0.15326808  0.00960225 -0.0956694
 -0.02073155 -0.02264313  0.00080505  0.0558891   0.12236302 -0.20435502
 -0.31548214 -0.05551687  0.1392295   0.01178328 -0.0041001  -0.06941381
  0.22037145  0.20363903 -0.036055   -0.00688705  0.01828359 -0.09964109
  0.00519433  0.24646662  0.19373827  0.00490876  0.1385388  -0.13877608
 -0.02397733 -0.03258455 -0.11044017  0.0416839   0.0095095   0.00078369
  0.03222524  0.07569879 -0.0587647   0.13686669  0.17303877 -0.10070446
 -0.04326162 -0.19844455 -0.0202704   0.03300634  0.36397406  0.00122908
  0.01569626 -0.00481226  0.01118508 -0.2551845   0.19981621  0.11601006
 -0.03686944 -0.07291459  0.00550565  0.10667162  0.01644002 -0.01136489
  0.00283961 -0.00315733 -0.1741329  -0.02796424]
[ 0.30192524  0.02792135 -0.09787202  0.20293169 -0.13693886 -0.18462731
 -0.04055692 -0.01439474 -0.01722439  0.32305002  0.18805376  0.05678913
  0.07596409  0.07775806  0.15071847 -0.34902304 -0.7851383   0.10127723
  0.09451959 -0.10069165  0.0489727   1.0772938  -0.02618813 -0.0981794
  0.06999147  0.05874126 -0.17258568 -0.01162509  0.06619676 -0.0521957
 -0.4711539  -0.05774405  0.35711843  0.03596739 -0.04754949 -0.12463078
 -0.05829208  0.1588277  -0.05964692 -0.18700095 -0.09416103 -0.10834608
 -0.04353037  0.06044659 -0.02676004 -0.08259     0.35563254  0.05301774
 -0.09251389  0.03737691 -0.69405925  0.53526986  0.08670084  0.04947326
 -0.3937096   0.00634185 -0.13101994 -0.0747064  -0.05546528 -0.42617005
  0.03561129 -0.2878995  -0.30460635  0.04554258]
[ 1.82961812e-03  3.93506465e-03  5.27621014e-04 -2.18990608e-03
  6.16144463e-02  1.70419039e-03 -1.24320230e-02  2.88342038e-04
 -7.02357665e-02  3.52881895e-03  4.28870879e-03 -1.65290141e-03
  1.92347600e-03  1.39928848e-01  2.17359723e-03  1.39091052e-02
 -4.10460196e-02 -1.26507378e-03 -3.32068466e-02 -9.66141408e-04
 -2.05412041e-02  1.71673251e-03 -1.15099020e-01  9.82034579e-03
  4.68381681e-03  1.33234041e-03 -8.92595761e-03 -4.35861200e-02
 -3.53205111e-03 -9.22123509e-05  1.04304799e-03  1.08163775e-04
  6.04391214e-04 -6.48517907e-03  7.32956640e-03  1.60501841e-02
  7.04631349e-03 -2.63990904e-03 -1.35125434e-02  1.81525783e-03
 -3.07365670e-04  4.58141469e-04 -3.30712385e-02 -1.27875945e-04
  7.45053887e-02  1.46314711e-03  6.05874695e-03 -2.07247864e-03
 -1.56633049e-01  1.48241103e-01  6.05047047e-02  8.28722783e-04
  6.08025002e-04 -4.73547541e-03 -5.10090450e-03 -2.75077927e-03
  4.58620349e-03  8.81633139e-04  5.37865832e-02  2.42937077e-02
 -9.53362212e-02  8.26000795e-02 -2.46475521e-03 -5.70509292e-04]
[ 4.59898822e-02  6.07901365e-02  5.71761355e-02  2.48435855e-01
 -2.67057251e-02  8.11676458e-02  4.47652638e-02 -1.34182423e-01
 -7.59624541e-02 -1.46021768e-01  5.70488609e-02  7.30862934e-03
 -3.02170403e-02  9.19640623e-03  1.68832138e-01  5.14226779e-02
 -1.27212137e-01 -4.10541408e-02  2.44045988e-01 -2.22581002e-05
 -1.73261553e-01 -1.14867706e-02 -1.25665322e-01  1.32599995e-01
 -1.32479608e-01 -2.20429301e-02 -1.72155187e-01 -2.77753502e-01
  1.02230996e-01  1.03093684e-01 -1.01295687e-01 -1.33001311e-02
 -7.36681279e-03  4.00313474e-02 -1.31829277e-01 -1.98552758e-01
 -2.65366957e-02  1.67684689e-01  7.16552064e-02  1.08003400e-01
  1.57015845e-01  1.32803470e-01 -1.14301272e-01 -1.98544130e-01
  1.75116118e-02  2.38633957e-02 -1.91072514e-03 -1.29234001e-01
 -1.69196166e-02  5.12926318e-02 -7.39086792e-02 -2.47298460e-02
 -1.68908074e-01 -1.45706199e-02 -7.50127584e-02 -5.60327694e-02
 -2.54385769e-01 -1.36417612e-01  6.11271709e-03  1.98367000e-01
 -4.28116500e-01  1.32149056e-01 -3.27235013e-02 -3.32855999e-01]
[-0.08295131 -0.04002249 -0.17306463 -0.12047043 -0.02827004  0.02647232
 -0.13971068 -0.04248637  0.18127927 -0.08173717 -0.01880431  0.05038841
 -0.00845192  0.12819484 -0.09886132 -0.3464227  -0.04861925  0.0934826
  0.25335044  0.0865059   0.12388211  0.00480682  0.00726632 -0.24659604
  0.3660758   0.02187653 -0.21994896  0.09718835  0.28518     0.05486679
  0.09531513 -0.0446908  -0.43422827  0.04240485  0.1509558  -0.02544884
  0.02229317  0.14985904 -0.17370293  0.07727533 -0.23525521  0.10855178
 -0.34390202  0.00260688 -0.25808236 -0.21917576 -0.04996383 -0.02447794
 -0.01047593  0.00932988 -0.01617504  0.04612011  0.30902252  0.10726824
 -0.03890836 -0.16356373  0.00047094 -0.05725284  0.00074525  0.01220546
 -0.02555467  0.00630632 -0.06087142 -0.05104713]
[ 1.11411057e-01 -8.21851492e-02 -6.46550581e-02  8.92689303e-02
 -7.52970809e-04 -1.81269303e-01 -2.75981501e-02 -8.13072994e-02
 -4.86436561e-02 -6.85633123e-02 -1.51146948e-01  1.21584438e-01
  6.15356723e-03  2.40631253e-01 -2.17098761e-02  7.25940764e-02
 -1.75917640e-01 -9.35318507e-03  5.48973233e-02  9.06103253e-02
 -1.95095837e-01  8.21904372e-03 -9.72909406e-02  6.20862767e-02
  2.82703310e-01  1.08415894e-01 -2.52772093e-01 -2.74380654e-01
  7.29178190e-02 -8.07711631e-02 -1.93409219e-01  9.27626938e-02
 -2.40688026e-01  5.30627556e-02 -5.99776469e-02 -1.24016777e-01
 -3.97886470e-05  1.52307674e-01 -3.85899618e-02 -4.20856103e-02
  1.96545571e-02 -5.74987382e-02 -3.71429250e-02 -8.89540985e-02
  8.44373461e-03 -1.26590371e-01 -3.22629623e-02 -1.03504686e-02
 -7.02774227e-02 -4.26553413e-02  3.13942023e-02  5.98841859e-03
  1.52617320e-01  7.63281509e-02 -1.18844934e-01 -1.49224624e-01
 -9.55820754e-02 -5.35626113e-02 -1.42402658e-02  2.12521061e-01
 -4.21473943e-02 -7.41633028e-02  7.95603096e-02 -9.24458876e-02]
[-0.0809592  -0.0097013   0.00980342  0.21925542  0.02832239 -0.00333009
  0.00961456  0.13096923  0.06109497 -0.20660676 -0.01117644 -0.19732058
  0.03260512 -0.16941437 -0.02517033  0.02934759  0.14738826 -0.05280888
 -0.11922458 -0.12306403  0.11288387  0.00542651  0.11979049 -0.06150151
  0.0609309   0.15567498 -0.10474611  0.12004367  0.09150156  0.02865898
 -0.08237626  0.06058503 -0.0161217  -0.07900184  0.09562074 -0.28100055
  0.01554534  0.03300691  0.10747191  0.11584309  0.09233397  0.12643707
 -0.17755838 -0.22596507 -0.17802887  0.01561427  0.05269058 -0.16589075
  0.06036747 -0.00271371  0.12158908  0.12775534  0.1078456   0.03748358
 -0.21230738 -0.00656049 -0.32597196 -0.1973456   0.00514704 -0.10827721
  0.6341435  -0.04514685  0.0610451  -0.22689624]
[ 5.0342426e-33 -2.8652228e-33  2.1445416e-33  5.5736829e-33
  4.8185791e-33 -5.1581309e-33  3.0435587e-34  3.1769278e-33
 -2.1365007e-33  7.6196462e-34  3.5272383e-33 -3.5737232e-34
  1.6012711e-33  3.3392529e-33  3.1893057e-33 -3.3311655e-34
  5.0047792e-34  1.6948649e-33  1.3590962e-33 -2.6750056e-33
 -1.5283498e-33  1.7445387e-33 -2.4533182e-33 -1.1284209e-33
 -3.5289810e-33 -1.3325312e-33  3.8225871e-33 -4.4798027e-33
  1.6838516e-34 -2.6583812e-33 -3.4149029e-33  5.5837962e-33
  5.1029962e-33  1.8877514e-33 -5.5717455e-33 -2.3832979e-33
  3.7223803e-33  2.1084956e-33 -6.1216807e-34 -3.3106748e-33
 -2.2238965e-33  4.7293095e-33  5.3650444e-34  3.5811924e-33
  2.7450754e-33  5.0352565e-33 -4.3248494e-34 -2.5758079e-33
 -1.7665695e-33 -2.6175884e-33  3.9778611e-33 -2.7424680e-33
 -1.3249070e-33  4.6687770e-33  2.0300725e-33 -3.3214239e-33
 -2.3813165e-34  8.8741411e-34  9.3791409e-34  2.9544471e-33
  1.8415103e-33  5.5564780e-33  4.9405319e-33 -5.3501916e-33]
[-3.8767693e-33 -2.0091711e-33  5.0962485e-33  5.1854601e-33
  2.0545349e-33  1.3491758e-33 -5.7406887e-33 -2.0018551e-33
  1.7948873e-33 -4.8198865e-33  1.7815645e-34  8.3193905e-34
  3.8911148e-33 -1.3595004e-33  4.7691804e-33 -4.6365347e-33
  3.5817243e-33  2.4914485e-33  3.7758539e-33 -9.7517469e-34
  1.2940479e-33  3.9918025e-34  4.8616896e-33  5.3432845e-33
 -5.4507857e-33 -2.0771749e-33  1.5945656e-33 -5.2417857e-33
  5.5610066e-33  4.7189368e-33  3.0236876e-33 -5.1722097e-33
 -1.1212273e-33  2.2502042e-33  5.2576622e-33 -5.3959716e-33
 -9.8006052e-34 -2.0377299e-33  3.9321634e-33  1.0216094e-33
  3.0612106e-33 -1.4387880e-33 -4.3246114e-33 -3.9595135e-33
 -4.2336054e-33 -3.3337159e-33  1.3410337e-33 -2.7596710e-33
  4.5498442e-33 -4.3077827e-35 -4.5714505e-33 -2.9688708e-33
  3.7302903e-33 -2.0033686e-33  6.5931889e-34  2.3578389e-33
  1.9776047e-33  1.7910023e-33 -5.5576932e-34 -4.2625820e-33
  3.5684247e-33  2.1978319e-33 -3.6132048e-33 -3.7048526e-33]
[-3.1991949e-33 -5.7769075e-33 -2.3914430e-33 -5.1089005e-35
 -1.5069320e-33 -3.9956680e-33 -3.1024161e-33 -1.6947881e-33
 -1.5233073e-33  3.4254725e-33  3.2326616e-33  1.1021931e-33
 -9.2826107e-34  5.5312776e-33  5.8726956e-33 -4.2079392e-33
  2.6227983e-33 -3.7314062e-33 -5.2872781e-33  3.7280407e-33
  4.6547299e-33 -4.3718090e-33  2.6222553e-33 -4.5925734e-33
 -3.7391006e-33 -1.0476693e-33  4.6218601e-34  3.8660624e-33
  2.8820627e-33  1.6945339e-33 -4.6761320e-33  1.3714493e-33
  3.7862085e-33 -2.5238822e-33  1.3259040e-33 -1.3997258e-33
  5.5624804e-33 -4.2998661e-33 -5.2802053e-33 -5.2127099e-33
  2.7395190e-33 -3.8180894e-33 -3.4968845e-35  5.7643326e-33
 -2.2133383e-34 -1.5495131e-33 -8.1778159e-34 -3.4609165e-33
  3.8933122e-33  4.5334350e-33 -2.9637111e-33 -1.6253950e-33
  2.4360379e-33 -3.1957945e-33  1.7692740e-33  3.5895773e-33
  3.9134113e-33  2.5143001e-33  3.8970114e-33 -2.1784140e-33
 -8.6030023e-34  2.3009824e-34  1.5474953e-33 -2.7301672e-33]
[-0.01127968 -0.01070099  0.12693846 -0.05660073  0.05579921 -0.00832997
  0.11974835  0.03047862 -0.16694658 -0.06355115 -0.00325141 -0.0693214
  0.21765612 -0.25937867  0.01681229 -0.11670463 -0.14252017 -0.12263056
 -0.07280096  0.17167717  0.17551431  0.03065097 -0.10170053  0.03390022
  0.19142522  0.15546139 -0.03737843  0.06187675  0.17153586 -0.01008109
  0.10147025  0.00104745 -0.14526537  0.1503483  -0.07205987  0.2995668
  0.14773141 -0.0797293  -0.05717783 -0.05892297 -0.00114259  0.01572338
  0.00696458  0.00226248  0.23448889  0.00062264  0.04208509  0.0041652
  0.4434924   0.17135467 -0.15667647 -0.14078881 -0.11088407  0.01355533
  0.04379987  0.18860431  0.2087611   0.01598154  0.3736989  -0.01464541
  0.14526416 -0.01127446  0.11232983  0.02012319]
[-0.21899994 -0.2814776  -0.20201778  0.5188832  -0.01601865 -0.23243523
 -0.08649273 -0.05000087 -0.08641022 -0.23812711  0.14690144  0.36002737
 -0.30984488  0.24497557 -0.05176038 -0.3029079  -0.05067804  0.7068918
 -0.05105938 -0.38101467  0.15744098 -0.02897089 -0.19186044  0.51596004
  0.5421022   0.07568534  0.30537724 -0.00359831  0.24331549 -0.322741
 -0.12104615 -0.10510483 -0.10054383  0.17156687 -0.79889506  0.05526063
 -0.26891318  0.5307974   0.01325346  0.25451666 -0.64407915  0.18943128
  0.35386655  0.24859235 -0.10383788  0.16568698  0.1341429  -0.26067972
 -0.04012683  0.05738043  0.09910997 -0.23025955  0.15121637 -0.01808563
 -0.01390533  0.508102   -0.03709764  0.5763662  -0.06632919 -0.01593136
  0.0772827  -0.0920371   0.05627501 -0.0345866 ]
[ 0.16843648  0.01385076  0.01409003 -0.01285212 -0.6274037   0.4698445
 -0.2604686   0.8055236  -0.00334374  0.35407686  0.38158038  0.05033309
 -0.41807047  0.66431785  0.5941062   0.00776176 -0.15175056  0.10853228
  0.3330398  -0.14263844  0.3091725   0.02538172 -0.7605394  -0.120141
 -0.11858967  0.11957721  0.1619503  -0.13215543  0.07724315  0.39688662
 -0.33768097 -0.11791188  0.05978044 -0.15295292 -0.25932392 -0.6593039
 -0.49600756  0.1281226   0.05439198 -0.01718149 -0.083428    0.23757763
  0.08586916  0.23831323 -0.27739865  0.26396513 -0.27145615  0.06465962
 -0.72801536  0.24037616  0.2530513   0.00464344 -0.0129869   0.43172115
  0.0557655  -0.28077686 -0.7496778   0.3689466  -0.42272168 -0.12139636
  0.13311662  0.42306784  0.15730794  0.5705376 ]
[ 3.20244223e-01  2.69387633e-01  2.06886772e-02 -1.49837583e-01
 -1.55402824e-01  6.10521078e-01  1.25081658e-01 -2.96259075e-02
  5.16772926e-01  2.59998560e-01  5.35576761e-01 -3.91796976e-01
 -1.26993746e-01 -1.40534759e-01  3.70436877e-01  1.07261352e-01
  1.48976862e-01  7.25638820e-03  1.06849093e-02 -1.24805532e-02
 -7.43372217e-02  1.00198819e-03  5.35275042e-01  7.15930108e-03
 -2.61277527e-01  1.53376043e-01  3.50213088e-02 -1.25054225e-01
  6.92035481e-02  7.94213545e-03 -1.60854280e-01  3.57600570e-01
 -1.12819970e-02 -6.98365718e-02 -1.32033631e-01 -4.08298641e-01
 -1.73688233e-01 -1.78899063e-05 -1.64543346e-01 -4.32924569e-01
  7.49859540e-03  4.52473611e-02  2.33939737e-01  2.67795056e-01
 -3.58984441e-01  4.93016809e-01 -6.07532226e-02  7.53654301e-01
  1.08354159e-01 -1.95407122e-01 -1.14286385e-01  4.92330119e-02
  9.26830471e-02  2.67368317e-01 -3.67907315e-01 -4.37561214e-01
 -6.48934767e-02  7.07559064e-02  2.11471245e-01  6.46294327e-03
 -4.42143977e-01 -2.70367134e-03 -2.69066781e-01 -1.86830722e-02]
[ 2.8205621e-01  3.7286228e-01  3.6235696e-01  2.6608464e-01
  6.0138099e-02  1.4721182e-01 -2.2231860e-01 -5.2122582e-02
 -5.0520413e-02  3.6479598e-01 -3.6669727e-02 -1.8968707e-01
  2.8125420e-01 -6.2401947e-02 -4.0593157e-03 -3.9443254e-02
 -4.7644526e-03 -1.4897403e-01  1.4719443e-01  4.0744999e-01
  1.2629040e-01 -1.9087102e-02 -4.3578935e-03  1.8482804e-01
  1.1895701e-01 -2.3067863e-01 -2.9885885e-01 -1.2416816e-01
 -3.9924528e-02  2.9475166e-02 -9.5568322e-02 -4.4860855e-01
  8.8579424e-02 -6.1599535e-01  4.6875555e-02  7.3541537e-02
 -8.0977477e-02  2.4312288e-01  4.5787171e-02 -1.9024794e-01
  4.3838624e-02 -1.7404391e-01  2.2819547e-01 -6.2543504e-02
 -1.3674510e-01  5.8403727e-02  1.6021062e-01 -3.6730230e-02
  4.4155676e-02  6.2512800e-02  2.5824931e-02 -2.0381199e-02
  2.4985347e-03 -5.9576802e-02  2.0100337e-01 -1.2525998e-01
  2.3701265e-02  4.2662896e-02  3.0127436e-02  2.4344745e-01
  3.4492608e-04 -1.3082547e-01 -1.8548742e-01 -2.4572073e-02]
[-2.9984939e-01  1.0985842e-01  9.8592751e-02 -1.0077414e-02
 -3.5952337e-02 -1.7178461e-01 -4.0730935e-01  4.3905929e-02
  3.7646436e-03 -2.0723684e-01  4.2710721e-01  6.7804158e-02
  2.5410941e-01  9.2453733e-02 -1.1869225e-01 -6.0233492e-02
  1.0056538e-02 -1.0860352e-02 -1.7041840e-01  7.5896502e-02
  6.3003041e-02  1.9705176e-04  2.8129835e-02  2.7913418e-01
 -1.9436367e-03  1.4071850e-01 -2.0393101e-02  1.3232478e-01
  9.1969401e-02 -1.2649304e-01  4.7025028e-01  5.4551101e-01
 -9.5387496e-02  3.9587507e-01  6.4051025e-02 -3.4431595e-02
  1.6281688e-01 -2.2254882e-02 -3.1283572e-02 -1.7828842e-01
  7.5818606e-02  1.8666355e-01 -3.7374415e-02  6.4687736e-02
  3.4974962e-02 -4.2483755e-03  5.7410885e-02  1.6835144e-02
  2.5955105e-04 -3.6897171e-02  2.7891409e-02  4.3639983e-03
  3.4185407e-01 -3.4885654e-01  8.5919842e-02  6.3688390e-02
 -1.4185783e-02 -9.1588974e-02  1.7425226e-02 -2.0628683e-01
  4.0419184e-02  4.3116763e-02 -5.0114810e-01 -3.9588180e-01]
[-0.19333701  0.19159058 -0.11793216  0.09817406 -0.12404945 -0.06377167
 -0.5030299  -0.01371182 -0.00558876 -0.0387583   0.08290369 -0.096693
 -0.0083249   0.08940315  0.02317955 -0.18954585 -0.00469535 -0.00301353
  0.12715289 -0.16927834 -0.45675126 -0.00086355  0.01181687  0.03823935
 -0.07372152 -0.15575626  0.2405919  -0.11542209  0.08841404 -0.07484084
 -0.10242183 -0.1431739  -0.05843677 -0.0225844   0.08217006 -0.14335972
 -0.14052086 -0.15227193  0.3703103   0.08394323 -0.07275036 -0.08123481
  0.02713486 -0.00562695  0.09447145 -0.09497207  0.09858706 -0.03996602
 -0.00851449 -0.10537396  0.03831982 -0.00128782 -0.17336112  0.22599284
 -0.05439181  0.03239696 -0.15186206 -0.09942847 -0.10044696  0.13849965
 -0.07015211 -0.09293944 -0.2030494   0.01951701]
[-4.40919115e-33 -2.83312322e-34 -5.55439558e-33  8.27984058e-34
  4.04367853e-33 -2.04652336e-33 -2.85802643e-33  3.29949601e-34
 -2.36658916e-33 -2.25341202e-33  4.99464905e-33 -5.02570267e-33
 -1.98478823e-34  5.51822158e-33  5.84971980e-33  5.15153934e-33
  1.11310866e-33  3.72193507e-33  2.28236371e-33 -3.43960447e-33
  2.05118474e-33  1.17125605e-33  2.16287067e-33 -6.08735260e-35
 -5.39999109e-33 -2.62088441e-33  3.70639834e-33 -7.27661125e-34
  4.13410931e-33  3.73175228e-33 -2.29660372e-33  4.41241274e-33
 -2.04482312e-33  2.71939506e-33  8.19304134e-34  1.15716793e-33
 -4.54867567e-33  4.31321203e-33  3.01793922e-33  4.68452719e-33
  4.14124162e-33 -5.19119538e-33  2.73970815e-33 -5.03352889e-33
 -5.42069706e-33 -3.81332131e-33  2.21288795e-33 -4.71873628e-33
 -1.86968621e-34 -5.02688698e-33 -2.87190572e-33  3.30719458e-33
  1.50776124e-33  4.25695875e-33  2.93070725e-33  1.23754870e-33
  2.06676078e-33  1.12394158e-34 -4.69200260e-33 -1.83527582e-33
  2.26987573e-33  4.10526121e-33 -5.43458956e-33 -7.85192023e-34]
[-4.5436883e-33  2.9446077e-33 -5.3531912e-34 -2.7734819e-33
  4.6242754e-35  2.1472697e-33  5.5473187e-33  7.7076384e-34
  1.3938498e-34 -2.4406870e-33 -2.3211025e-33  2.0497330e-33
 -3.6477529e-33 -2.6216103e-33  8.6334917e-34  2.6738511e-33
 -5.0857620e-33 -2.5902554e-33  3.5516621e-33 -4.4039675e-33
 -4.4387853e-33  1.3046444e-33  3.4848617e-33  5.6409865e-33
 -2.6888078e-33 -5.6903661e-34 -2.4421858e-33  2.4771110e-34
 -4.2305876e-34 -4.8177034e-33  2.9333492e-33 -1.3428223e-33
 -4.5821258e-33  3.9410656e-33 -5.2346292e-33 -1.2098239e-33
 -3.2554188e-33 -4.2513131e-33  2.8298238e-33  2.1744045e-33
  3.0709895e-33 -2.3601686e-34  4.1528474e-33 -1.8709809e-33
  1.8746843e-33 -2.6039597e-34 -4.5222517e-33 -3.5937364e-33
  1.9029512e-33  3.1911557e-33  2.0274543e-33 -8.6059117e-34
  5.9233146e-33 -8.9764826e-34  1.0837555e-33  2.8580602e-33
 -1.7816670e-33 -1.5236567e-33  2.9708324e-35  3.5866504e-33
 -1.8719744e-33  3.0948772e-33 -4.7027687e-33 -6.1963834e-34]
[ 2.3587694e-33  2.9552222e-33  5.1991234e-33  2.3765968e-33
 -5.3613901e-33 -3.8130120e-33 -2.5638764e-33  1.6692069e-33
  3.3338485e-33  3.5239253e-33  3.4422368e-34 -6.5771554e-34
 -2.3673417e-33  5.0277157e-33  4.2629082e-33 -4.0941260e-33
 -5.0600381e-33  1.2941391e-33 -1.5025051e-33  3.2158822e-33
 -1.7575512e-33 -4.8541451e-34  5.2906914e-33  5.1245448e-33
  2.2489484e-33  4.4850693e-33  1.4217692e-33 -5.6257988e-33
  5.7114699e-33 -5.7653663e-34  5.8058518e-33 -3.5116226e-33
  1.7486525e-34 -1.7081961e-33  2.4575473e-33 -2.3581996e-33
  7.5892597e-34  1.8890003e-33  1.3435798e-33  5.0810001e-33
  8.4366993e-34 -1.6527113e-33 -2.5703576e-33  5.6390587e-33
 -3.5611014e-33  1.3968906e-33  4.8767470e-33 -2.4777096e-33
 -2.2215352e-33  3.0043130e-33  2.1502460e-33 -1.8134421e-33
 -1.8022914e-33  2.9808518e-33 -2.2433817e-33  1.4348947e-33
  3.7858562e-33  2.9025123e-34 -1.3206525e-33 -1.0357894e-33
  1.0919027e-33 -5.5618453e-33 -1.7871520e-33 -4.5598701e-33]
[ 3.94839369e-33  5.08838076e-33  5.56849600e-33 -7.60830545e-34
  3.87820125e-33  4.65960083e-34  3.24354597e-33 -1.63584659e-33
  5.40228257e-33 -1.08690809e-33 -5.94031846e-34  5.74122369e-34
 -2.62853173e-33 -5.09705187e-33 -9.38742534e-34 -3.35763504e-33
  2.45183510e-33 -1.42502829e-33 -2.62568924e-33 -5.54421176e-33
 -1.57543279e-33  2.16104498e-33  2.88754971e-33 -4.64278024e-33
 -3.78871417e-33 -5.72296735e-33  4.49313026e-33 -4.09198987e-33
  3.52050934e-33 -2.84824485e-33  4.79539247e-33  2.92956702e-33
 -4.19370063e-33  3.96459421e-33  2.17898118e-33  2.02719511e-34
 -5.67872211e-33 -1.20997307e-33 -5.50901783e-33 -9.92647582e-34
  2.15681357e-33  4.75372891e-33 -2.62565765e-33  3.47263072e-33
 -3.87740485e-33 -5.27915101e-33 -4.74381766e-33  3.47127155e-35
 -3.42748145e-33 -2.79285335e-33  5.67479522e-33  2.54260181e-33
  5.63561967e-33  5.15778489e-33  5.45735007e-34 -3.71250090e-34
  5.51206089e-33  3.41860132e-33  3.25210283e-33  1.88368139e-33
 -5.17912819e-33  1.40689041e-33  5.03922820e-33  1.04666935e-33]
[-3.35158529e-33 -5.38430045e-34  2.35163173e-33  4.33488705e-33
  4.90340277e-33 -5.16714476e-33 -5.75272829e-33  3.39587461e-33
  3.03869000e-33 -5.26720211e-33  1.86264721e-33 -5.66452434e-33
  2.63949910e-33  2.84621621e-33  1.34875046e-33  4.44522005e-33
  2.33658302e-33  6.28385484e-34  1.07866190e-33 -5.46921081e-33
 -5.10196287e-33  1.04957227e-34  1.88067929e-33 -4.13304218e-33
 -7.25280014e-34  4.60591196e-34 -7.47932525e-34  9.11125671e-34
 -4.40308629e-33 -2.79202279e-33 -1.22235470e-33  1.21378608e-33
 -1.00506604e-35  3.84039698e-33 -2.15862346e-33  5.17175711e-33
  2.16884769e-34 -2.90496466e-33 -3.82165979e-34 -5.18164522e-34
 -5.07647080e-33  2.63155349e-33  1.77163198e-33  1.57406040e-35
 -4.18139798e-33  1.60082421e-33  1.44650384e-33  3.47359683e-33
 -4.50583589e-33  1.55167311e-33  9.59384857e-34  1.34831700e-33
 -5.53491654e-33  8.30387577e-34 -1.21446787e-33 -3.69867323e-34
 -1.40317218e-33 -5.82648652e-33 -4.03755347e-33  4.06117245e-33
  3.95936472e-33 -1.58741108e-33  1.07568597e-33 -5.73737634e-33]
[ 5.75426231e-33 -1.47470395e-33  1.73981099e-33  1.68038166e-33
  5.28609855e-33 -6.27728677e-35 -4.23678139e-33 -3.65833972e-33
 -3.53989912e-33  4.45071034e-33  1.68095619e-33 -2.21512194e-33
  5.63931219e-33 -3.96718764e-33 -2.21583624e-33  8.41210941e-34
  1.13995916e-33 -5.27447364e-33 -4.04575952e-33  7.14691749e-34
 -1.63972756e-33  1.63119567e-33 -3.77077392e-33 -3.55801716e-33
  2.58434306e-33  4.29341487e-33 -5.59728680e-33  3.40141045e-33
 -4.20452583e-33 -3.14414617e-34 -1.69659100e-33  2.38839146e-33
 -5.09857634e-33  1.57862444e-33 -2.46749782e-33 -4.33787684e-33
  2.68706548e-33  3.75364146e-33  2.82845430e-34 -1.15907416e-34
  2.27590400e-33  9.77967219e-34  3.98152647e-33 -3.02967285e-33
 -4.31593294e-33  1.45790540e-33  1.52829363e-33  3.60367262e-33
 -1.78987309e-33  6.05814156e-34  9.27288902e-34 -2.73210675e-33
 -4.01605882e-33  5.39247197e-33  2.62135222e-33  1.61382187e-33
 -5.06071330e-33  1.99325638e-33 -5.91190419e-33 -1.84724070e-33
 -5.76029113e-33  7.91542631e-34  1.91553931e-33  6.84901784e-34]
[-2.5182840e-33  1.6676931e-33 -7.8143375e-35 -4.6491602e-33
 -5.8242806e-33  4.0301875e-33 -1.7946199e-33  3.4665328e-33
 -9.9112394e-34  2.2885053e-33  9.5067444e-34  1.7382601e-33
  7.3370794e-34  2.3732494e-33 -2.3197913e-33 -1.6685286e-33
  4.7407941e-33 -4.8728120e-33 -2.6360057e-33 -5.4610940e-33
 -2.8244095e-33 -2.3262798e-33  4.4374295e-33 -3.3587235e-33
  3.3434351e-33 -1.0892131e-33  3.5961024e-33  1.2924834e-33
  2.4762674e-33 -1.1492759e-33 -3.2006772e-33  1.7547126e-33
  5.0212053e-33 -5.9208357e-33 -1.3338063e-33 -3.9969982e-33
 -2.2249757e-33 -1.1794984e-33  4.5786225e-33  3.7294468e-33
  2.5584831e-33 -5.2334603e-33  3.0765861e-33  1.0406828e-33
  3.1471125e-33 -9.6766475e-34 -4.8290010e-33 -2.0802415e-33
  2.8714263e-33 -1.7981309e-33 -3.6157082e-33  3.1064892e-33
 -7.7525781e-34  5.9058893e-34  1.8279995e-33  4.1236397e-33
  5.0174742e-33  3.4865971e-33 -2.3859009e-33  2.9872522e-33
 -3.4558726e-33 -5.0526439e-33  5.3214431e-33 -8.3393904e-34]
[-0.00229036 -0.02648802  0.04131474 -0.02212339  0.07123251 -0.01297305
  0.02936757  0.11257046 -0.03561964  0.01087923 -0.00659341 -0.01736037
  0.04868135 -0.075951    0.04968625 -0.01494672 -0.03272786  0.07854401
 -0.02341609  0.03110062  0.10489678  0.0259486  -0.02063265  0.05678659
  0.0623402   0.03442556  0.03197543  0.00640397  0.03565212  0.01369702
  0.00698357 -0.00488183 -0.04560846  0.00510532 -0.00349004  0.07946665
  0.02778573 -0.00656193 -0.02796539 -0.00098669 -0.01263121 -0.03612975
  0.02178784 -0.01073951  0.07022163  0.00789591 -0.00636283 -0.00248555
  0.16409405  0.03326086 -0.041322   -0.04201966 -0.03863309  0.00265923
  0.02697532  0.03828152  0.08248794  0.05505107  0.10892851 -0.00386968
  0.02750751  0.00030496  0.02592465  0.04240113]
[ 0.00886512  0.24943395  0.02335388 -0.2249685   0.49598864  0.08760362
 -0.34273142  0.79859453  0.15420091  0.35660774  0.13416304  0.20948678
  0.12852977 -0.04244169  0.4374013   0.03021042 -0.30831528  0.594483
  0.33773345  0.00237763  0.89822984  0.37492472  0.1822728   0.7167806
  0.16944815  0.0406708   0.7209329   0.16893926 -0.00396682  0.15862432
  0.48998314  0.02931792 -0.13980485 -0.2743966  -0.3336261   0.13211364
  0.1920948   0.22459975 -0.16421492  0.22269882 -0.12426294  0.14887509
  0.39988813  0.29245868  0.52357215  0.2241592  -0.19041267  0.12009274
  0.37393647 -0.1612069  -0.26828256  0.02341032 -0.101122    0.1381474
  0.25405535 -0.02397715  0.3979042   0.5729499   0.4382057   0.00942712
 -0.41530418  0.4246578   0.04451639  0.34621522]
layer 1 Activation
relu
layer 2 Dense
64 64
[ 8.98489030e-04  1.19009176e-02 -3.36015075e-02 -9.33287200e-04
  8.62806886e-02 -2.48195766e-03  1.90317107e-04  3.47163412e-04
 -2.72124469e-01  5.26942371e-04  1.04959100e-03 -4.54119872e-04
  1.68182852e-03 -6.83942288e-02 -7.33553469e-02  2.73331255e-02
  6.75831139e-02  5.63664688e-03 -6.19758964e-02  1.02892402e-03
 -6.85639214e-04 -4.37113494e-01  3.73070948e-02  3.80153861e-03
  4.00290533e-04  1.17882155e-04 -4.47989267e-04  6.02736697e-02
 -1.08802097e-03 -4.35260183e-04  7.45468889e-04  3.78900877e-04
 -6.11432036e-03  2.79414307e-05  3.13795218e-03 -5.93143224e-04
  2.12311791e-03  2.60222564e-03 -7.75335648e-04  1.73501506e-01
 -3.90484493e-04  7.74690649e-04 -7.01340963e-04 -9.48754547e-04
  7.90192410e-02  1.63087749e-03 -4.17642901e-03 -3.67394532e-05
  2.45793432e-04 -3.92699614e-04  4.47667688e-02  1.08891822e-01
 -2.37796754e-02  7.44074234e-04 -2.37135240e-03 -1.04699032e-02
 -1.30418211e-01  1.60171717e-01  1.37912238e-03 -4.68461290e-02
  7.00044632e-02 -2.44295418e-01 -3.07434646e-04  1.07337476e-03]
[-9.26490175e-04 -9.39011388e-03 -1.31451543e-02 -1.86837315e-05
 -5.55507466e-02 -2.31633312e-03 -3.07332346e-04  2.66657071e-03
 -1.48670375e-01 -9.72849433e-04 -7.96741922e-04 -2.26130383e-03
  1.24653196e-03 -2.81050266e-03  6.15177676e-02  1.17568955e-01
  7.00092763e-02  2.64908304e-03  2.40690839e-02 -4.12574634e-02
  1.78074511e-03  1.24640845e-01 -5.36363982e-02  1.71795976e-03
 -3.05234850e-03 -9.93283931e-04  1.88583287e-03  1.40462726e-01
 -3.59205558e-04  4.56433918e-04  4.13330970e-03 -1.09731057e-03
 -1.86927873e-03 -2.79190624e-03  5.89712569e-03 -3.69579939e-04
 -2.42977822e-03 -1.88580097e-03 -9.48983361e-04 -1.91980094e-01
  1.68657512e-03  2.72485748e-04 -1.01394067e-03  1.69153349e-03
 -2.46802494e-02 -2.60231155e-03 -1.42419850e-03 -1.26946892e-04
 -2.53663957e-03  1.53367454e-03 -2.72682160e-02 -1.04188278e-01
 -3.25186141e-02 -1.00170192e-03 -1.97719387e-03 -3.96491677e-01
  3.66194770e-02 -1.31859601e-01 -3.07983160e-03  1.04926907e-01
  3.44410986e-02 -1.06215172e-01  1.34798698e-03  4.87261685e-04]
[ 8.86715483e-04  1.53219834e-01 -3.58255208e-03  1.32645524e-04
  1.24438800e-01 -5.39421476e-03  1.69277424e-04 -6.49376714e-04
 -1.94003761e-01  7.38252886e-04  1.64154393e-03 -8.93224424e-05
  5.64236194e-04  6.05753958e-02  1.19595908e-01 -5.23625948e-02
 -6.68161269e-03  2.05799937e-03  1.19271196e-01 -1.57007594e-02
 -6.95756520e-04 -2.75968630e-02  1.75137818e-02  2.21285125e-04
 -7.58912589e-04  7.48807681e-04 -8.78649473e-04 -1.70844346e-01
  9.81561490e-04 -2.12548941e-04  3.69384140e-03  6.16391655e-04
 -1.63348881e-03 -7.49750587e-04  7.11782835e-03  2.65842420e-04
  5.41513728e-05  2.34744686e-04 -1.39033352e-03 -1.35324121e-01
 -9.11456475e-04  5.00410271e-04  3.91946669e-04 -1.23111217e-03
  1.14432164e-01  7.22184428e-04 -4.23649180e-04  1.69959516e-04
 -4.97856352e-04 -6.05251349e-04  1.00090308e-02 -4.31747176e-02
  2.32915990e-02  1.86660490e-03 -3.13085387e-04 -8.40970203e-02
 -1.11611545e-01 -5.18234856e-02  1.14276994e-03  2.37113261e-03
  9.49155614e-02 -2.15474814e-01 -2.29102006e-04 -2.49303877e-04]
[ 8.0818740e-05 -1.3381729e-01  4.4550903e-02 -4.0642830e-04
 -1.9912915e-02 -1.8829900e-03 -8.2969561e-04  2.7297335e-04
 -4.0832579e-01 -3.1546073e-04  4.7443819e-04 -2.0188373e-03
  2.3478274e-03  1.5430190e-02 -3.4618923e-03 -1.8750246e-01
 -5.4717936e-02  9.3004620e-03 -1.2687479e-01  2.4822202e-01
  1.4546950e-03 -1.6678305e-01  2.4704436e-02  6.2631420e-03
 -3.1895379e-03 -4.7058426e-04  1.7667023e-03 -1.0791752e-01
 -1.0893710e-03 -2.2043871e-04 -6.3193648e-04 -4.4278667e-04
 -1.0557341e-02 -3.1554613e-03  2.9431530e-03 -1.3214009e-03
  4.0539564e-03  3.8612888e-03 -8.8197336e-04  1.8802264e-01
  1.5334750e-03  1.7749292e-03 -1.0026520e-03  1.4982413e-03
  2.4454893e-01  3.4993084e-03 -7.2364607e-03 -8.3391118e-04
 -2.6466385e-03  1.5416018e-03 -1.1705449e-02  3.4034155e-02
  4.4366639e-02  1.3367054e-03 -3.9845128e-03  1.9986889e-01
 -9.6931785e-02  4.9937673e-02  3.5243004e-03  1.7837784e-01
 -1.1371525e-01 -4.5015711e-02  1.3190957e-03  1.5357512e-03]
[-1.88885198e-04  5.76175116e-02  1.24304242e-01 -9.77609961e-05
 -3.89137268e-01 -2.05989621e-04  6.11804484e-04  1.68717687e-03
 -2.93793697e-02 -5.60545770e-04 -4.80823044e-04 -1.53386407e-03
  4.33467329e-04 -7.86255300e-02 -7.36282719e-03  6.88453540e-02
 -2.66399711e-01  3.54966236e-04  1.24135569e-01 -1.81779340e-01
  2.23323605e-05  2.55128443e-01  1.02172680e-01  4.40057251e-04
 -2.61543831e-03 -1.27169176e-03  3.57446144e-04  3.12016737e-02
 -2.26951321e-03  4.67313774e-04  3.59664176e-04 -4.00861638e-04
  1.40392163e-04 -1.23772922e-03  1.14449620e-04 -7.30698870e-04
  2.76998355e-04  7.09366694e-04  3.94948758e-04 -2.62332093e-02
  8.15951440e-04  7.74949731e-04 -2.07673060e-03  7.03596685e-04
 -2.51048263e-02 -1.92873398e-04 -4.09768632e-04  1.30301007e-04
 -2.11843383e-03  5.30012876e-05  5.33444360e-02  7.61709586e-02
 -3.00209923e-03 -1.77816066e-04  1.17187577e-04  1.76274180e-02
 -3.92562807e-01 -2.18300205e-02 -4.78111215e-05  1.64795250e-01
 -1.03773415e-01 -3.73122580e-02 -1.49773477e-04  1.26568973e-03]
[-1.7621332e-03 -1.5094285e-01 -4.7506921e-02  1.2773525e-03
 -2.4877923e-02  3.4073991e-04  2.1740765e-04  1.4213081e-03
 -2.1765618e-02 -2.6162740e-04 -3.8864496e-04 -1.2677161e-03
 -2.7474903e-03  1.1937819e-01  3.6720914e-01  1.5839545e-01
 -1.6854618e-01 -1.7179692e-03 -2.4969685e-01 -2.2675492e-01
  4.6986897e-05 -9.5336162e-02 -1.1871616e-01 -1.8345095e-03
  7.7397731e-04 -7.2492351e-04  4.4616126e-04  1.6493019e-01
 -1.9941723e-03 -4.2078475e-04  2.9283890e-04 -2.6464954e-04
  3.0577146e-03  3.7198167e-04  2.2117482e-03  2.7165327e-03
 -2.8035694e-03 -2.5975150e-03 -1.1090620e-03 -2.9025573e-01
  6.7396718e-04  1.8940666e-03 -1.3726637e-03  2.4942582e-04
 -2.9166885e-02 -1.5292747e-03  3.9519197e-03 -5.9981307e-04
  7.8201503e-04  4.1602849e-04 -1.7873302e-02  4.4661071e-02
 -1.8614432e-01  2.9686196e-03  9.0415077e-04 -3.2887965e-01
 -2.8577313e-02 -5.6253280e-02 -1.5843669e-03 -1.6808835e-01
 -1.5191744e-01  8.6756311e-02  5.0476089e-04 -3.0020378e-03]
[-1.9125302e-03 -6.1427910e-02  3.6625483e-03 -6.7058561e-04
  4.4081140e-02  3.0180679e-03  2.4076342e-03 -2.2877604e-03
  3.6129063e-01 -7.7688642e-04 -8.5422763e-04  1.2411678e-04
  4.1037262e-04 -8.7688245e-02 -1.0684254e-01 -9.0169586e-02
  1.8435162e-01  2.8863407e-03 -1.6440241e-01 -1.4274815e-01
 -1.6534890e-03  2.7322093e-01  1.1162861e-01  4.3513784e-03
  7.9692196e-04 -1.2273587e-03 -1.9898675e-03  1.9670734e-02
 -3.4283209e-04 -2.2910582e-03 -5.7154028e-03 -7.6225330e-04
 -2.1699443e-03  1.1477474e-03 -4.4322838e-03 -9.4240869e-04
  2.8839130e-03  2.5003874e-03  1.0008478e-03  1.6680537e-01
 -2.4474734e-03  1.5041492e-03 -6.2280905e-04 -1.7776586e-03
  3.1893441e-01  1.4682272e-03 -1.1551044e-03  1.0081455e-03
  9.9423737e-04 -2.4344402e-03 -1.3837638e-01 -3.2369446e-02
 -9.7969472e-02  1.7709808e-03 -1.8716095e-03 -1.4886858e-01
 -1.7298996e-01  2.0588806e-01  1.6737734e-03  1.5693808e-01
  5.5814371e-02 -8.2310513e-02 -2.4807346e-03  1.1380115e-03]
[-4.85637691e-04 -1.31699601e-02  1.95190229e-03  5.39070053e-04
 -1.11079104e-01  2.19309703e-04  1.22305844e-03 -2.21691458e-04
  1.08896330e-01  1.10892334e-03  5.67275740e-04  1.70408079e-04
 -9.42722720e-04 -1.54866204e-01 -3.93616036e-02 -6.71452209e-02
 -6.05268218e-02 -2.54220399e-03  2.38168985e-02 -8.54032636e-02
 -2.20429152e-04  5.84084511e-01 -1.38308138e-01 -9.53276758e-04
  1.54454436e-03  7.22909055e-04 -5.26932999e-04 -8.57066810e-02
  1.23436726e-03 -4.71929176e-04 -2.94903060e-03  1.33125694e-03
  3.12264683e-03  1.36322295e-03 -1.86502910e-03  6.00459345e-04
 -4.70017665e-04 -1.01947773e-03 -9.16079211e-04  1.60971459e-03
 -4.17204355e-05 -4.01681697e-04  9.65962943e-04  3.50249684e-05
  1.16282776e-01 -5.90300420e-04  1.68596720e-03 -6.22904452e-04
  1.52919791e-03 -2.17711742e-04 -1.21076301e-01 -7.27792755e-02
  4.89126407e-02  1.83387063e-04  6.99249736e-04  1.08770400e-01
  1.20005004e-01 -1.78415626e-01 -3.80180456e-04 -5.10525525e-01
 -4.64997347e-03 -9.75173637e-02 -3.57124809e-04 -1.19751101e-04]
[-1.0727928e-03  1.8116523e-02 -9.1502905e-02  3.4746516e-04
  1.7840776e-01 -2.0185129e-03  1.1052950e-03  7.8159949e-04
 -2.6542652e-02  4.7472329e-04  3.5658511e-04  1.6640427e-03
  1.2288416e-04 -1.3434820e-02  1.7176425e-01  6.2183421e-02
 -5.3562630e-02  3.3107083e-03  5.3030327e-02 -2.6092485e-01
 -2.1873992e-03 -4.7115453e-02  7.5306065e-02  2.8568541e-03
 -6.5481081e-04  8.6239126e-04 -1.8033779e-03 -1.0549727e-02
  1.8971512e-04 -1.3144620e-03 -2.0608774e-03  4.5152017e-04
 -2.7240580e-03 -3.5956822e-04  1.3212018e-03  5.7473697e-04
 -2.3706639e-04 -1.2297013e-04 -4.3597267e-04  3.7284143e-02
 -1.9192104e-03  3.8356171e-04  7.8588683e-04 -2.0262855e-03
  1.0495359e-01 -5.5683835e-04 -1.3450388e-03  2.3876260e-04
 -1.7461623e-04 -1.9192284e-03  6.3587390e-02  1.0546977e-01
 -9.5072307e-02  4.0141712e-03 -2.1909289e-03  8.5036032e-02
  2.0895644e-01 -5.4225035e-02 -9.5577381e-04  1.8562730e-01
 -1.9616727e-02  6.6210136e-02 -1.5552482e-03 -4.0822692e-04]
[ 7.08504405e-04  2.04628363e-01 -2.61111766e-01  1.42050697e-03
 -1.68275014e-02 -5.93513018e-03  1.37012766e-03 -1.43324502e-03
 -4.69102919e-01  2.03161361e-03  2.51693674e-03  2.21371208e-03
  4.69292194e-04  1.07473619e-02  4.95863706e-02  8.70751590e-02
 -3.29068154e-02  4.78744181e-03 -2.02489104e-02 -1.76409800e-02
 -3.31528415e-03 -3.09554100e-01 -1.44078936e-02  3.23721045e-03
  2.74113775e-03  2.16910988e-03 -4.19058511e-03 -7.94742778e-02
  2.52646976e-03 -2.09918618e-03  1.51792832e-03  1.96001842e-03
 -2.40330049e-03  1.90295500e-03  4.90810862e-03  7.21310789e-04
 -1.71851239e-03 -2.02723639e-03 -1.86061847e-03 -2.18941391e-01
 -3.85562982e-03 -8.68760340e-04  2.10905029e-03 -4.43036994e-03
  1.90062478e-01 -2.71439319e-03 -1.51971914e-03  4.96403605e-04
  2.75210594e-03 -3.28790769e-03 -2.81348880e-02  3.78149822e-02
  4.89556231e-02  1.52283942e-03 -3.83601547e-03 -1.12025812e-01
 -3.90857384e-02  5.21373227e-02 -3.07264482e-03  8.69930536e-02
 -1.02199666e-01  3.25588845e-02 -2.74004601e-03 -2.88860843e-04]
[-1.2190565e-03 -3.0111298e-01  1.4534669e-02 -8.8187802e-04
 -3.1749137e-02  6.6774042e-04  2.2871257e-04  1.5533270e-03
  5.0993219e-02 -5.6326156e-04 -6.5093650e-04 -3.3935765e-03
 -2.5869900e-04 -1.3682120e-02  7.0082814e-02 -9.1432579e-02
  7.1073966e-03  7.4650021e-04 -3.0538556e-01 -1.4023930e-01
  2.2068529e-03  7.4823529e-02  7.1730465e-02  2.1813919e-03
 -3.1916045e-03 -1.6285919e-03  1.6143539e-03 -1.0268063e-01
 -2.5726215e-03 -1.9087574e-04 -2.7210151e-03 -6.2611833e-04
  2.8539984e-04 -2.8284374e-03  1.3391173e-03 -1.1493668e-03
  3.3421749e-03  3.0402369e-03 -7.7436032e-04 -2.8207579e-01
  2.3214594e-03  1.3242973e-03 -2.2640654e-03  1.7172635e-03
  1.5775505e-02  2.3236086e-03  3.3673260e-04 -1.7631610e-03
 -2.3068301e-03  1.8094244e-03  1.9871463e-01 -1.2894671e-01
  9.3856871e-02 -2.1334982e-03  6.7175963e-05  1.1748526e-01
 -1.4454007e-01 -4.5165285e-01  2.5601741e-03  2.2623891e-01
 -1.3044706e-02 -3.0119559e-01  1.0715090e-03  1.0715418e-03]
[ 1.54738210e-03 -7.37900883e-02 -1.69250578e-01  1.17038866e-03
 -1.11334622e-01  1.26837043e-03 -2.70949065e-04  7.01570010e-04
  9.72039551e-02  3.96476040e-04 -6.98343676e-04  1.63135026e-03
  1.18924065e-04  9.82201621e-02 -1.97469473e-01  1.73641577e-01
 -7.82051757e-02  5.36099193e-04  1.73646137e-01 -4.84982133e-02
  8.60923610e-05 -1.76455185e-01  8.12353492e-02 -8.51792982e-04
 -6.95982715e-04  1.35417131e-03 -7.10780325e-04  1.48128510e-01
  4.07380983e-03 -6.18137128e-04 -1.09520648e-02  5.53685066e-04
 -5.18686429e-04 -7.43503624e-04 -3.56751098e-03  4.89183731e-05
 -2.22874014e-03 -1.80747476e-03  1.10646628e-03 -1.21780232e-01
 -3.32750176e-04 -2.29133270e-03  2.37055775e-03  6.37982739e-05
 -4.05744351e-02 -1.93320564e-03 -6.35518576e-04 -4.82716889e-04
 -6.96521602e-04 -3.76280368e-05 -8.07325542e-02 -6.87594488e-02
 -4.35227789e-02  4.51758387e-05 -1.35798252e-03 -3.23150694e-01
 -4.78326119e-02 -1.45187765e-01 -2.17697909e-03  5.64896222e-03
  1.41085669e-01 -9.54555944e-02  1.66657410e-04  3.14508245e-04]
[ 4.4154036e-03  9.2429295e-02  1.9175792e-02 -2.5966410e-03
 -1.0323670e-01 -3.3547864e-03 -2.5260730e-03 -9.0711599e-04
  2.4338786e-01 -7.2212577e-05  3.8432569e-04 -1.6005746e-03
  1.8835396e-03 -1.1624425e-01 -3.3044517e-02  1.7349012e-01
 -1.2317564e-02 -2.7424010e-04 -1.2680517e-01 -4.9809795e-02
 -8.9879555e-04  1.7395385e-01 -1.3482516e-01 -5.4768194e-04
 -1.4754005e-03 -1.3680694e-03 -8.0286077e-04  1.5537018e-01
 -2.0009780e-03  2.7769343e-03  3.0232980e-03 -1.7567257e-04
  6.6317234e-04 -1.1827432e-03  5.6513124e-03 -2.5289403e-03
  4.3435004e-03  4.8289495e-03 -1.0771452e-03 -1.8891388e-01
 -8.1284740e-04  2.1727319e-04 -2.0453073e-03 -9.0165768e-04
 -5.6107312e-02  3.5394768e-03 -6.0955877e-04 -9.0327370e-04
 -7.3650200e-04 -9.3795534e-04  2.4532139e-01  6.8305112e-02
 -6.4827010e-02 -7.1444493e-03  2.2234842e-03 -3.5030931e-01
  1.6092731e-01 -2.6234660e-02  4.1972972e-03  1.3291155e-01
 -2.3413906e-01 -1.7119658e-01 -1.0108481e-03  2.3761336e-03]
[ 1.72235607e-03 -4.99655604e-02 -1.12956986e-01 -1.75426633e-03
  4.50742804e-02 -2.17505777e-03  5.20084694e-04 -1.03171705e-03
 -4.58862334e-02  4.67740872e-04  1.69593340e-03 -2.51863967e-04
  1.87861640e-03 -2.51266081e-02  7.73860328e-03  2.00424921e-02
 -8.93028006e-02 -1.23686041e-04 -2.53399778e-02 -4.96244431e-01
  1.77486881e-03 -3.81043881e-01  8.06786120e-02  1.10483496e-03
 -5.61586814e-04  8.45703937e-04  7.17285264e-04  1.92008670e-02
  7.48056918e-04  6.23183805e-05 -2.94504687e-03  6.33388583e-04
 -7.08101550e-04 -3.88457906e-04 -6.57617347e-04 -1.61574990e-03
  1.36637257e-03  1.70042692e-03 -1.98316341e-03  1.65508091e-02
  1.53327791e-03 -1.43324025e-03  2.16967834e-04  8.67680588e-04
 -8.52520019e-02  6.09688344e-04 -2.17319373e-03  1.27369328e-03
 -7.92644860e-04  1.83377892e-03 -3.62376720e-02 -3.77642363e-01
  3.74357477e-02 -3.10591585e-03 -2.42763039e-04 -2.35142978e-03
 -3.51982981e-01 -4.27142158e-02  6.04279747e-04 -3.09355289e-01
 -2.33197678e-02 -6.51916210e-03  1.74136437e-03  2.03666696e-03]
[-9.2762621e-04  5.3293332e-02 -2.3934270e-01 -3.7268584e-04
  6.7477124e-03 -1.2145691e-03 -1.7660546e-04  5.2542845e-04
 -2.5282037e-01  1.3246032e-03  6.7800068e-04  5.7446619e-04
 -1.4634538e-03  1.6991161e-01  1.4244246e-01  2.0028201e-01
  1.0341941e-02 -2.0661312e-03 -2.9653448e-01 -2.6733229e-01
 -8.1316283e-04 -2.1692149e-01  6.9990538e-02 -6.8651739e-04
  1.2513074e-03  7.9023838e-04 -8.6498790e-04  3.3275861e-02
  3.1713780e-04  1.1004142e-03 -7.7737699e-04  1.2777024e-03
  2.6879613e-03  9.5617113e-04  6.2102143e-04  1.4822988e-04
  3.5068762e-04  4.2833193e-04 -6.2846797e-05 -1.1436448e-01
 -3.6037067e-04  1.0526861e-04  5.5649906e-04 -8.7945571e-04
  1.4866103e-01  8.2525908e-04  1.7375746e-03 -7.5594423e-04
  1.2855851e-03 -4.6813834e-04 -5.9948768e-02  1.0337188e-01
  1.0301603e-01  8.3791587e-04  1.7660742e-03 -6.7794368e-02
  3.2117952e-02  4.0597852e-02  6.8067800e-04  1.3349997e-01
 -1.9477871e-01  4.7505781e-02 -3.5014175e-04 -1.2147435e-04]
[ 1.6991602e-04 -8.6240567e-02 -6.1220121e-02  3.1052571e-04
  2.6808986e-02  1.4391736e-03 -7.4471696e-04 -2.4538576e-03
 -8.6600311e-02  4.6567264e-04 -5.3844400e-05  1.0006981e-03
  1.7936788e-04  1.9783378e-02  2.5398931e-02 -5.7832584e-02
 -1.2367617e-01  1.7834094e-03 -2.2075637e-01  2.2330418e-01
 -1.1276540e-03  1.8741578e-01  4.4397251e-03  1.7885492e-03
  2.4934183e-03  3.7589777e-04 -1.4714709e-03 -4.1139878e-02
  9.8647596e-04  5.0562609e-04 -5.9304340e-03  4.2565176e-04
 -1.3632687e-03  2.2475473e-03 -2.0115909e-03 -2.4094264e-04
  3.3694708e-03  2.8816720e-03  2.1725218e-04 -7.1541488e-02
 -1.4846533e-03 -2.2236908e-04  6.5969065e-04 -1.2724291e-03
 -5.7438411e-02  2.6213934e-03 -8.0373063e-04  7.5073959e-04
  2.3874554e-03 -1.4320945e-03  1.4784892e-01 -2.6847109e-01
 -8.7414354e-02 -9.6208061e-04  1.3834007e-04 -1.1590508e-02
  1.0081539e-01 -1.5431990e-01  3.1213739e-03 -1.4863828e-01
  8.9239359e-02 -7.0521891e-02 -1.5068834e-03  1.8048780e-05]
[ 1.3212166e-03  1.3349856e-02  1.8417472e-01 -9.4084811e-05
  6.2435005e-02  1.6879255e-03 -3.3493817e-04  7.3344575e-04
  1.0944858e-01  2.9147448e-04  4.6616499e-04  5.0466310e-04
  2.4163057e-03 -9.4946094e-02  2.9010585e-02 -2.8900689e-01
 -6.5964557e-02  5.2522067e-03  1.4373451e-01  6.0152940e-02
  3.0757135e-04  4.5326304e-02 -4.5554760e-01  2.6891122e-03
  4.6640591e-04  2.8453590e-04  9.0499227e-05  7.5586624e-02
  1.3255217e-04  8.5125168e-05 -9.3515972e-03  3.4981908e-04
 -5.2801287e-03  4.4108165e-04 -2.7525639e-03 -1.3543882e-03
  5.2129349e-04  4.7479480e-04  4.8634937e-04 -1.5340707e-01
  1.7381144e-04 -1.8855686e-04  4.2671335e-04  2.1273473e-04
  1.0119800e-01 -4.9033854e-04 -4.0052505e-03  4.0821495e-05
  2.6886826e-04  2.4785419e-04 -1.4043771e-01 -1.8461102e-01
 -2.2716363e-01 -3.0647526e-03 -3.2178881e-03  6.2786117e-02
  1.1941216e-01  3.9012577e-02 -4.6027527e-04 -1.3861649e-01
 -1.4737106e-02 -1.5080801e-01  2.0057599e-04  1.7191378e-03]
[-4.8007790e-04 -1.9732334e-01 -1.2429648e-01  1.3786202e-03
  9.9294782e-02  1.0542008e-03  8.0121878e-05  6.1668130e-04
 -1.1730022e-02 -3.8585594e-04 -3.0659555e-04 -8.2936685e-04
 -1.1317141e-03 -1.2679836e-01  4.5726366e-02  2.4154580e-01
  1.8478170e-02 -1.0812389e-03 -8.7224595e-02 -2.0165004e-01
  1.5964153e-03  1.0371703e-01 -1.0278927e-01 -5.6744571e-04
 -9.0253068e-04 -3.1984673e-04  8.1749534e-04  1.9650923e-01
 -1.0534024e-03 -4.6136399e-04 -4.4220383e-03 -3.3631572e-04
  7.6440163e-04 -1.2560725e-03 -8.7086589e-04  1.1607339e-03
 -4.6450630e-04 -8.8469440e-04  1.0214537e-05 -1.7966262e-01
  1.3849332e-03 -5.2131375e-04 -6.4293446e-04  8.3253975e-04
  1.3192369e-01 -8.1610982e-05  7.6950382e-04  5.4309672e-05
 -7.7544560e-04  1.5017565e-03 -1.5701243e-01  2.2788818e-01
 -3.0423620e-01  1.8509766e-03  3.7575950e-04  3.9114855e-02
  4.3301694e-02 -8.5571431e-02 -4.5575965e-05 -8.0329254e-02
  1.7798375e-01  1.7657708e-01  1.5602097e-03 -1.0820079e-03]
[ 3.26743640e-04  1.07867584e-01  2.23947503e-02  1.26121246e-04
 -1.25484988e-01  2.44095281e-04 -1.32426008e-04 -2.24069855e-03
  1.85671281e-02  1.55700685e-03  1.17006572e-03  1.39872136e-03
 -3.70965310e-04  1.64338015e-02  4.05890457e-02  3.32684480e-02
 -2.58512914e-01  4.71206673e-04  1.40484353e-03 -9.89177302e-02
 -1.46429683e-03 -3.42062056e-01  1.03807546e-01 -4.87043799e-05
  3.50040174e-03  1.13880401e-03 -1.88308442e-03  8.34072232e-02
  1.69000262e-03 -6.38134952e-04 -4.46565170e-03  1.63434900e-03
 -1.31927809e-04  3.19130882e-03 -3.20450938e-03  5.70778153e-04
 -6.66927197e-04 -2.93970050e-04 -2.18853806e-04  1.98418438e-01
 -1.63774751e-03  1.54829712e-03  1.53983745e-03 -1.45308347e-03
 -1.04369856e-02 -1.97776899e-04 -5.80477572e-05 -1.49868603e-04
  3.00887809e-03 -1.55594270e-03  9.40234307e-03  1.39550790e-01
  9.44579393e-02  1.17679115e-03 -6.81741076e-05 -5.38904667e-02
  1.55171111e-01 -3.26479189e-02 -3.44031869e-04  1.62279800e-01
 -1.17308527e-01 -5.02840094e-02 -1.41805783e-03 -2.90879398e-04]
[-5.01047529e-04 -4.57468033e-02  2.89362017e-02  4.77509951e-04
 -6.61168294e-03 -1.34134293e-03  1.66497295e-04  1.36910786e-03
  3.26715052e-01 -1.69774843e-03 -1.27703615e-03 -8.75664060e-04
  5.79270592e-04 -3.28142457e-02  8.05290639e-02 -3.51012908e-02
 -8.99060220e-02  1.92016875e-03 -2.16247246e-01  4.79394756e-02
 -3.20563180e-04  1.92532301e-01 -2.54493598e-02  8.94847908e-04
 -1.95551198e-03 -1.34507264e-03  7.13668764e-04 -1.07770614e-01
 -1.50997983e-03 -6.26574561e-04 -3.26642301e-04 -1.69467856e-03
 -2.28366931e-03 -1.77364948e-03  1.22451538e-03  4.55239293e-04
 -1.98986591e-03 -1.52933912e-03  2.91270058e-04 -7.27409944e-02
  1.64372512e-04 -3.53039766e-04 -1.37454562e-03  5.25145559e-04
 -3.31191450e-01 -1.80706347e-03 -1.53268885e-03  6.19369792e-04
 -1.74029358e-03 -9.75154398e-05 -6.78362846e-02 -1.51440687e-02
  1.30723476e-01  1.10069744e-03 -1.48365495e-03 -2.16967314e-01
 -1.22865520e-01 -1.30576804e-01 -2.13961164e-03 -8.40799883e-02
 -5.00644557e-02 -6.92995712e-02  1.66220983e-04 -3.74267926e-04]
[ 5.8663514e-04  2.0088808e-01 -1.1942760e-02  8.2631159e-04
  6.1184894e-02 -3.0700355e-03  2.5935904e-03 -4.3390198e-03
  3.1211089e-02  1.0726417e-03  1.0505597e-03  1.9292835e-03
 -7.7306235e-04 -1.8427727e-01  1.6033020e-02  1.1873228e-01
 -7.3517390e-02 -1.4060783e-03  9.7258575e-02  2.4890955e-01
 -3.2134484e-03 -5.5537581e-01 -5.8675531e-02 -1.1193786e-03
  1.6838498e-03  1.2072519e-03 -3.6521538e-03 -4.5631319e-02
  1.7539441e-03 -1.5918602e-03 -1.6537865e-03  1.1272687e-03
  2.5845086e-03  2.4456123e-03  3.4294405e-04  1.4178116e-03
  1.2289436e-04 -3.6745536e-04 -1.2154621e-03  6.0937755e-02
 -3.5092840e-03 -7.9222448e-04  1.0212538e-03 -3.2821300e-03
  7.0295282e-02 -4.5722682e-04  2.4229272e-03  2.1978263e-03
  1.4138343e-03 -3.4835483e-03  1.9557122e-02  1.3228248e-01
  1.6445652e-01  4.2969949e-04  4.7397270e-04  9.2944950e-02
  3.1932112e-02 -5.7616167e-02  2.3690356e-04  1.5804766e-01
 -7.2230928e-04 -1.4407749e-02 -3.0994054e-03 -1.0335038e-03]
[ 6.20071020e-04  1.70462787e-01 -1.02353707e-01 -9.91971348e-04
 -5.60613386e-02 -9.39502788e-04  7.53163535e-04  1.39665953e-03
  2.65960038e-01 -9.18728067e-04 -5.13632316e-04 -9.48020490e-04
  8.73992103e-04 -2.46663556e-01  7.57895485e-02  2.21037164e-01
  3.39516073e-01 -2.26674310e-05  3.66747528e-02  2.25984603e-01
  2.09495134e-04  2.49517292e-01  3.25178921e-01  1.07918531e-04
 -2.19719275e-03 -1.11275096e-03  1.09270611e-03 -2.54830003e-01
 -3.30619165e-03  1.58800540e-04 -5.68781339e-04 -8.52074008e-04
 -1.19936652e-04 -1.11095677e-03  3.57446028e-04 -6.97547570e-04
  8.46992771e-04  1.00956485e-03 -8.17764027e-04 -1.15188189e-01
  9.26744193e-04  2.39693123e-04 -1.87567249e-03  1.00251660e-03
 -2.71036476e-01  3.40217637e-04 -5.02393697e-04  4.43462690e-04
 -1.86290231e-03  4.83346346e-04  1.24043286e-01  5.99358268e-02
  1.78137124e-02 -2.59798439e-03  3.56548873e-04 -2.46550292e-02
  1.85382426e-01 -1.05237804e-01  6.64437190e-04  2.48368755e-01
  2.24219963e-01 -6.43694699e-01  5.43384522e-04  5.98684244e-04]
[ 2.5965660e-04  1.0131263e-01  2.0653658e-01 -1.4096324e-03
  2.0347200e-01 -2.5578802e-03  5.7042157e-04  1.2599024e-05
  5.2313618e-02  1.9406448e-03  1.6467375e-03  9.2336041e-04
  2.3316811e-03  1.5745319e-01 -1.9631925e-01 -1.9895436e-01
  1.4795141e-01  4.5077051e-03 -4.3005332e-02 -4.1341010e-01
 -1.2548456e-03  3.0368575e-01 -4.6727768e-01  3.8516230e-03
  2.5776308e-03  1.1041574e-03 -1.1477016e-03  1.0154020e-01
 -1.0389852e-04  9.0309035e-04 -2.3468623e-03  1.7433214e-03
 -4.6653938e-03  1.9574845e-03  3.0943183e-03 -2.0603531e-03
  2.5195894e-03  2.8612213e-03 -7.5664581e-04 -1.0756196e-02
 -7.9518755e-04  1.1153495e-03  4.4774011e-04 -1.4815147e-03
  1.0850928e-01  1.3924707e-03 -3.4827082e-03 -7.3765224e-04
  2.0502179e-03 -6.8533886e-04 -1.1683968e-01 -8.7937983e-03
 -7.6044828e-02 -1.8238167e-03 -1.6904924e-03 -5.6547788e-03
 -2.8170967e-01  6.4032555e-02  1.6456374e-03 -1.5732636e-01
  1.0769390e-01 -1.6194694e-02 -1.6923531e-04  2.3322795e-03]
[-1.1932192e-03 -1.4324020e-01  1.0831559e-01  7.7703956e-04
  3.2065444e-02  6.9061480e-04 -5.0553604e-04  3.9918488e-03
 -4.2633769e-01 -2.4116500e-03 -1.8075306e-03 -3.6665336e-03
 -1.7206195e-03 -1.6894542e-01 -6.5760463e-02  5.4052897e-02
 -5.1032118e-02 -2.9408350e-03  8.2860149e-02 -9.3727015e-02
  2.3454037e-03 -1.8876965e-01  4.6786230e-02 -2.9287678e-03
 -5.2545825e-03 -3.0984201e-03  3.4958778e-03  2.1416416e-02
 -6.7271017e-03  9.7132073e-04  9.3836323e-05 -2.3395913e-03
  2.7899342e-03 -4.3389425e-03  1.6085717e-03  1.2294152e-03
 -3.9099404e-03 -3.5497830e-03  2.9445096e-04 -5.6629088e-02
  3.1257565e-03 -7.8412017e-04 -4.3107802e-03  3.4329656e-03
  1.8996404e-01 -2.3097789e-03  2.0435168e-03 -4.4575441e-04
 -4.3102023e-03  2.5017504e-03 -1.5060523e-01  6.8791628e-02
 -1.8624498e-01  1.8585196e-03  1.0383533e-03 -3.7459822e-03
  2.4881894e-02  6.1277036e-02 -2.7518435e-03  2.9124305e-01
  1.3245420e-01 -2.3409378e-02  2.1250723e-03 -1.5068314e-03]
[-8.4983488e-04  1.2490206e-01 -4.3052804e-02  2.5157062e-03
  8.4594391e-02  6.4154965e-04  3.3613199e-03  1.1615461e-03
 -9.9538878e-02 -8.3549804e-04 -7.8231649e-04 -1.7362885e-03
  6.4824347e-04 -1.3642010e-01  3.1186047e-01 -1.8001039e-01
 -1.7967811e-02  6.8211737e-03  2.4959372e-02  1.3406110e-01
  1.4220888e-03  4.3312758e-01 -1.1591688e-01  4.5169815e-03
 -1.5053406e-03 -1.0039920e-03  1.1073449e-03 -8.6020201e-02
 -1.5293100e-03 -4.6701077e-03 -6.1188629e-03 -8.0424501e-04
 -5.7236403e-03 -1.6077764e-03 -5.8526627e-04  2.3136933e-03
 -5.9095337e-03 -5.4871491e-03  3.1481592e-05 -5.5750813e-02
  1.2838144e-03 -3.2982469e-04 -1.1249884e-03  1.1515889e-03
 -7.4036997e-03 -6.3905241e-03 -2.5662028e-03  1.0176208e-05
 -1.4304968e-03  1.3177582e-03 -2.0955123e-02 -1.8416397e-01
 -8.8558257e-02  4.8968852e-03 -6.6719856e-03  3.2233447e-02
  3.3236578e-02 -8.7217554e-02 -7.2603277e-03 -2.2908019e-01
  5.9793010e-02  2.2757003e-02  1.3059604e-03 -2.0402011e-03]
[ 3.5049167e-04  1.6122015e-01  7.0201494e-03 -8.0480159e-04
 -6.5509900e-03 -2.0542622e-03  8.7049091e-04 -8.6906023e-04
 -2.0235828e-01  1.0171072e-03  1.0935041e-03  7.8222214e-04
 -6.5964596e-05  7.0695050e-02 -1.8746595e-01  1.3214290e-01
  1.3944501e-01 -9.4569061e-04 -7.2899334e-02 -8.7871589e-02
 -2.3960718e-03 -2.5343287e-01 -1.2705642e-01 -2.7045200e-04
 -1.7767888e-08  3.8246057e-04 -2.2160879e-03  1.0268368e-02
 -1.9630636e-03  2.1849673e-04  2.1756397e-04  9.7761455e-04
  8.7852264e-04  7.1925408e-04  4.7891689e-04 -2.4849686e-04
  6.5557566e-04  5.7320204e-04 -4.1077481e-05 -7.8603737e-02
 -2.3089612e-03  1.6060509e-04 -4.9961545e-04 -2.4162279e-03
 -3.1477235e-02  2.9105810e-04  5.9817801e-04  7.4572844e-04
  2.6221594e-04 -2.4474387e-03 -4.3284435e-02  2.1147056e-02
 -6.9352701e-02  4.3882901e-04  6.1610737e-04  1.3629724e-01
 -1.4128030e-02  1.9080694e-01  2.9561744e-04 -1.1837797e-01
 -9.8043151e-02 -6.4644054e-02 -2.3185147e-03  2.7214861e-04]
[-1.21799600e-03 -8.27738345e-02  1.62015408e-02  3.15981917e-04
 -4.98210825e-02  4.33831103e-03 -1.38726819e-03  1.28458778e-03
 -1.30732983e-01 -1.71309686e-03 -2.64505926e-03 -1.25049287e-03
 -1.04815199e-03 -2.59481128e-02 -5.60075883e-03  1.35640934e-01
 -1.10378474e-01 -1.48638478e-03  8.95038471e-02 -5.64181805e-02
  1.45587244e-03 -6.82513833e-01  6.24908730e-02  3.80703859e-05
 -2.46708351e-03 -1.63267867e-03  2.00792775e-03 -4.17448729e-02
 -9.35568532e-04  1.75249088e-03 -2.92849680e-03 -1.64434209e-03
  2.81987758e-03 -1.79185369e-03 -4.43370454e-03  1.25943345e-03
 -9.75185481e-04 -8.54325248e-04  6.14500488e-04  1.90215275e-01
  1.17424817e-03  1.16582552e-03 -1.01839076e-03  2.51650694e-03
 -1.12243399e-01 -1.10470410e-03  1.77024526e-03 -4.13300033e-04
 -2.58234260e-03  9.83908074e-04  3.92913781e-02 -5.77815287e-02
 -1.37693109e-02 -2.14040698e-03  8.28673597e-04  6.42928481e-02
 -2.05436461e-02  3.82594280e-02 -1.22523052e-03 -3.07491422e-02
  1.32828131e-01  8.43320265e-02  6.04744069e-04 -1.77279685e-03]
[-5.7353417e-04  8.0553763e-02 -5.6429770e-02  1.4433765e-03
 -1.1323729e-01 -5.0148868e-04 -8.1884739e-04 -5.4292928e-04
  7.1452782e-02  3.3478701e-04  5.9844228e-04  5.9096253e-04
 -1.6318624e-03  6.3915595e-02  2.4634728e-02  1.8007876e-01
 -7.5104788e-02 -1.8071372e-03 -2.6460996e-02  1.0053434e-01
 -4.9977833e-05 -1.1787185e-01 -2.2405265e-02 -2.0783215e-03
 -8.8181172e-04  8.2043005e-04 -4.0935705e-04 -7.3198095e-02
  6.4672937e-04  3.3502167e-04 -2.2322410e-03  4.0512456e-04
  2.9861312e-03 -5.8073248e-04 -1.2274600e-03  1.6250620e-03
 -1.5434636e-03 -1.8834019e-03 -8.0037577e-04  6.3643083e-02
 -3.7469022e-04  1.0382861e-03  9.7080547e-04 -2.6887824e-04
 -3.7734264e-03 -1.2576549e-03  2.7443839e-03  6.8309746e-04
 -7.2167185e-04 -1.7375541e-04 -7.2396630e-03  2.2091998e-01
  2.5164896e-01 -9.5006335e-04  1.1840798e-03 -3.3390176e-02
  2.4942165e-02  1.1199459e-01 -1.0247212e-03  1.6918827e-02
 -2.4427988e-02  3.5658594e-02 -2.0657472e-04 -1.5289214e-03]
[-1.98174827e-03  4.76117954e-02  5.83491549e-02  4.73405060e-04
 -1.97954848e-01 -1.36003713e-04  8.29396420e-04  3.74356704e-03
  1.60466075e-01 -1.58486445e-03 -1.44623907e-03 -3.03623662e-03
 -2.89507618e-04  1.01497434e-01 -1.99308559e-01 -1.67506132e-02
 -1.60751045e-02  2.53443373e-03 -5.38529791e-02  9.58259329e-02
  1.78328122e-03  2.31632367e-01 -3.84491608e-02  2.75427243e-03
 -2.56047258e-03 -2.29980005e-03  2.57030549e-03  7.32475445e-02
 -4.81900061e-03 -9.07672395e-04 -1.65246369e-03 -1.53211749e-03
 -2.22762139e-03 -2.55128392e-03  1.47897145e-03  8.16388463e-04
 -1.49475364e-03 -1.34392339e-03 -8.51509569e-04 -1.90971382e-02
  2.70382222e-03  6.38325582e-05 -3.16413958e-03  2.30124709e-03
 -4.12815064e-02 -1.24488177e-03 -1.07883569e-03 -1.12570333e-03
 -2.07069400e-03  2.13369401e-03  4.43508774e-02 -8.37983638e-02
 -2.40379386e-02  3.99187766e-03 -1.83125539e-03 -1.57407746e-02
  7.16976002e-02 -1.51758641e-01 -1.76351517e-03 -4.85138819e-02
  3.34824324e-02 -4.52369422e-04  1.96058373e-03 -8.34323349e-04]
[-2.38677487e-03  1.29042178e-01 -3.66976708e-02  2.93808407e-04
 -1.86541602e-01 -2.64655123e-03  2.94461352e-04  1.28286029e-03
  5.28595001e-02  4.05482744e-04  5.48628741e-04 -1.03544549e-03
 -1.21897343e-03 -6.62423149e-02 -1.19049408e-01  7.99028501e-02
 -6.92576244e-02 -2.10586097e-03 -1.08944334e-01  9.20039341e-02
  5.34847379e-04 -7.65740126e-02  2.00806614e-02 -1.74151524e-03
 -6.76404452e-04  9.85986044e-05  6.15806901e-04  5.96139655e-02
 -1.15991477e-03  1.48427105e-04  4.09489870e-03  4.91630170e-04
  3.09792999e-03 -5.04975847e-04  3.28344386e-03  1.22990063e-03
 -3.99953732e-03 -3.64616862e-03 -1.84568309e-03 -1.85075656e-01
  1.14936277e-03 -3.62864288e-04 -6.89769455e-04  5.86788519e-04
 -2.08166271e-01 -2.92520598e-03  2.50659790e-03 -2.33061961e-04
 -3.75064381e-04  8.57964449e-04 -7.48257909e-04 -1.38208300e-01
  4.24914919e-02  3.07065574e-03  3.20756662e-04 -8.13238323e-02
 -1.47847561e-02  9.99066830e-02 -3.49070644e-03 -1.58521920e-01
  8.54350105e-02  1.61097333e-01  6.38050667e-04 -1.14447938e-03]
[-2.00062612e-04 -2.96214521e-01  4.10989448e-02 -6.97894196e-04
  5.23354448e-02  1.60914788e-03  5.37831918e-04  7.30893109e-04
 -3.83452594e-01 -1.99211016e-03 -1.19194807e-03 -3.53241153e-03
  4.62824508e-04 -1.00026205e-01  5.48955835e-02  6.74304664e-02
 -1.06245436e-01 -7.48756574e-04 -9.24173219e-04  2.54998878e-02
  3.37476935e-03 -3.79992910e-02 -1.26791224e-01 -1.44713980e-04
 -3.23331985e-03 -2.32730480e-03  2.87331874e-03 -9.06224847e-02
 -4.85369749e-03  9.64429579e-04 -2.21944414e-03 -1.83919165e-03
  7.76781410e-04 -2.87681655e-03 -5.65577822e-04  1.76999820e-04
  2.44594150e-04  2.91391043e-04 -3.50046146e-04  1.69859491e-02
  3.50476778e-03 -9.38525947e-04 -3.44982813e-03  3.03968298e-03
 -1.30729675e-01  5.25708892e-04  1.81155745e-04 -5.72369434e-04
 -2.66116648e-03  3.30377021e-03  1.19078113e-02  1.50479395e-02
 -1.97716087e-01 -9.86388884e-04  8.05061776e-04  5.87650761e-02
 -2.04517562e-02  1.20293722e-01  5.09503589e-04 -3.96369666e-01
 -2.07199857e-01 -3.76092106e-01  2.87424400e-03 -1.69816602e-04]
[ 4.18727752e-04 -1.38631731e-03 -1.00209206e-01  1.03830313e-03
  2.58620292e-01  2.64397589e-04 -2.33081344e-04 -1.44912675e-03
  2.71278560e-01  1.64971373e-03  1.03155011e-03  1.59032736e-03
 -2.66216858e-03 -1.63879804e-02  1.61046743e-01 -1.31137505e-01
 -9.46561620e-02 -4.14342713e-03  1.11440532e-01  4.89121713e-02
 -9.44937521e-04 -7.10155442e-02  2.55970675e-02 -3.26550030e-03
  1.60354932e-04  1.71009137e-03 -1.54283235e-03 -2.16971207e-02
  1.28052686e-03  1.28258107e-04 -4.19516629e-03  1.71999191e-03
  5.86941419e-03  8.59939842e-04 -5.75589424e-04  1.41028361e-03
 -8.75845959e-04 -6.71190908e-04 -6.21848274e-04 -3.51447552e-01
 -1.24968064e-03 -2.12987681e-04  1.52846554e-03 -1.01580913e-03
 -1.90135837e-01  1.15650015e-04  4.94138710e-03  1.08366476e-04
  8.41365079e-04 -1.09761336e-03  1.34977698e-01  9.72901098e-03
  1.47270024e-01  2.01631174e-03  3.02313874e-03  1.09805562e-01
  5.78750819e-02  1.22619467e-02  2.55766092e-04 -4.45897356e-02
  7.17248321e-02 -3.60007197e-01 -1.04685791e-03 -1.77657488e-03]
[ 3.42017913e-04  4.31162454e-02  8.05239528e-02 -3.56343022e-04
  5.81506900e-02 -4.56987473e-04  8.83712550e-04  9.49244131e-04
 -1.24539450e-01 -2.16539993e-04  1.77670663e-04 -5.97749895e-04
  3.39148473e-03 -8.84322450e-02  3.68188694e-02 -1.52577892e-01
  1.16511799e-01  7.16919778e-03  9.42125469e-02  5.82392812e-02
 -6.03537483e-04  2.85471737e-01 -3.29546742e-02  4.05586604e-03
 -7.32345798e-04 -6.89114328e-04 -3.12666118e-04 -4.12742198e-02
 -2.16881791e-03 -1.13554264e-03 -1.41831872e-03 -3.04029963e-04
 -6.91260491e-03 -9.08546499e-04  4.31619264e-04 -1.42257195e-03
 -1.63017935e-03 -1.78883085e-03  4.49150160e-04 -1.09129064e-01
 -4.85731667e-04  1.76293572e-04 -1.26523618e-03 -6.74373237e-04
  1.26081556e-01 -3.06080235e-03 -5.40393917e-03  1.01306550e-05
 -6.15500321e-04 -5.92742872e-04 -3.30945179e-02  4.90198173e-02
 -8.37315917e-02 -2.25006067e-03 -5.19763352e-03  1.28894076e-01
 -9.54428390e-02  1.60819292e-02 -3.39410570e-03 -3.13321978e-01
  8.88543203e-02 -1.09170683e-01 -6.40359125e-04  2.12820549e-03]
[-1.1749752e-03 -8.4468879e-02 -1.3171431e-01  9.1284036e-04
 -2.9507255e-02 -1.1404678e-03  1.5210404e-04 -4.8987230e-04
 -2.3891070e-01  5.3513225e-04  2.7435672e-04 -3.9279659e-04
 -1.8207392e-03 -9.4025850e-02 -1.4554355e-01  1.5722616e-01
  1.7235559e-01 -1.8179008e-03  8.5927524e-02 -6.9592260e-02
  3.3358083e-04 -3.5056460e-01  6.9873683e-02 -1.3832522e-03
 -2.0039576e-04  3.6367119e-04  1.2879894e-04  3.8633276e-02
 -7.8353484e-04 -1.2938741e-04 -2.0411883e-03  5.8190234e-04
  2.3234277e-03  1.2187454e-04  8.5287099e-04  1.5995640e-03
 -1.3468491e-03 -1.2330232e-03 -1.2653552e-03 -7.1139887e-02
  4.5876479e-04  3.9365416e-04  2.6012240e-05  3.3859312e-04
  1.0626628e-01 -6.2243064e-04  2.6376811e-03 -1.1304741e-04
  1.8428762e-04  3.6386613e-04 -8.4587328e-02  3.6159247e-02
  2.1334814e-01  2.5561687e-03  1.1281614e-03 -3.1687540e-01
  2.2158657e-01  3.2352637e-02 -6.5369485e-04 -3.8959637e-02
 -8.8032417e-02 -1.9198467e-01  2.8533090e-04 -1.7656765e-03]
[ 4.61650640e-03  2.40249828e-01 -2.56112128e-01 -3.58904689e-03
 -2.87498832e-01 -3.60268023e-05 -2.15083105e-03 -2.67520227e-05
 -3.67282331e-01  1.27598562e-03  1.77313108e-03 -5.42208669e-04
  4.40967688e-03 -3.96729410e-02 -5.19765075e-03  2.58291215e-01
  3.08719706e-02  3.51134059e-03  1.70091428e-02  1.20615914e-01
  8.86155525e-04  2.19983071e-01 -1.23691335e-01  3.55344824e-03
  1.29062228e-03  4.86582721e-04  1.64807789e-04  9.46517810e-02
 -1.38390600e-03  2.55733402e-03  6.66207867e-04  1.34348695e-03
 -3.92657984e-03  9.64554958e-04  2.38786847e-03 -4.26232908e-03
  1.03427656e-02  9.69446264e-03 -1.69552898e-03 -1.59305751e-01
  8.35378014e-04  7.33824563e-05 -1.25827879e-04  1.19518794e-04
  1.07401945e-01  7.93361943e-03 -5.12479944e-03 -7.28350366e-04
  1.16986723e-03  8.41404428e-04 -7.96547458e-02  1.91583097e-01
 -8.02859738e-02 -9.70601756e-03  4.39642201e-04 -1.75008506e-01
 -1.56957850e-01 -5.85298985e-02  8.88301525e-03  2.63981670e-01
 -1.13481820e-01  5.27426936e-02  5.21621143e-04  4.17708885e-03]
[-5.26567106e-04 -1.13115340e-01  7.43952580e-03 -2.37232729e-04
 -3.43436599e-01  7.38396484e-04  2.12166482e-03 -1.21440424e-03
  1.22465134e-01  5.30113641e-04  1.68156548e-04 -1.01694197e-03
  3.12436110e-04 -1.13786310e-01 -1.75549060e-01  1.28865808e-01
 -1.98649973e-01  3.95279640e-04  1.14042364e-01 -3.30666900e-01
  7.37183029e-04  1.48998752e-01 -7.04365000e-02  2.98430561e-04
  6.59983023e-04  1.44205143e-04  7.44231511e-04 -4.95363437e-02
 -8.91734788e-04 -2.32116273e-03 -3.37168085e-03  5.79543936e-04
 -9.76487296e-04  4.50462394e-04 -1.34153012e-03  5.32535487e-04
 -1.61407306e-03 -1.50095089e-03 -1.72913668e-03  5.93832172e-02
  1.00066350e-03 -7.73958454e-04 -6.88486616e-05  9.67916858e-04
 -1.08440734e-01 -1.41594408e-03 -6.21355372e-04 -7.30421452e-04
  7.69122213e-04  6.14117540e-04  3.04970634e-03  2.84028709e-01
  5.93793690e-02  1.75152661e-03 -1.65513996e-03 -8.73762593e-02
 -4.42408502e-01  3.88781540e-02 -1.72947859e-03  3.33825588e-01
  4.64973418e-04  1.37086799e-02  9.20783787e-05 -2.27782642e-04]
[ 2.27403850e-03  6.71276450e-02 -9.17649940e-02 -3.66606779e-04
 -2.91324228e-01  2.70508783e-04  2.65452836e-04 -3.02282540e-04
 -1.95048272e-03 -6.87037973e-05 -8.34836042e-04  2.49995035e-04
 -5.04709838e-04  5.43641578e-03 -8.34480748e-02 -4.47692126e-02
 -3.08888056e-03 -3.58957332e-04 -1.14930466e-01 -1.25845879e-01
 -1.36252318e-03  1.51939392e-01 -7.41618723e-02 -7.12078530e-04
 -4.75886773e-04 -1.20568475e-04 -1.35887309e-03  2.52986588e-02
  5.89328629e-05  2.90526659e-04 -2.76909024e-03 -6.41728839e-05
  1.02692528e-03 -4.13989241e-04 -7.20875571e-04 -1.47101295e-04
 -9.82854399e-04 -4.73209569e-04 -2.23671886e-04 -2.21235916e-01
 -1.47525338e-03 -1.83278462e-03  1.33992900e-04 -1.07446418e-03
 -1.73432007e-02 -5.43083239e-04  5.78265754e-04  3.28181399e-04
 -4.07771207e-04 -1.48837699e-03  4.33264263e-02 -1.80399686e-01
  1.26334369e-01  3.91855283e-04  1.03792321e-04 -2.53123432e-01
 -2.55051434e-01  9.42598730e-02 -7.89394020e-04  1.83719397e-01
 -1.09114438e-01 -3.38111967e-02 -1.37942436e-03  5.40203328e-05]
[-1.90717052e-04 -7.61321336e-02  4.25348915e-02  1.39235781e-04
  2.19339766e-02 -1.36000337e-03  1.40036619e-03 -2.97764083e-04
  4.48302925e-02  6.39298349e-04  6.38573081e-04 -4.97195870e-04
  1.16677932e-03 -1.49902061e-01 -1.87835172e-01  8.29645172e-02
  6.59584552e-02  4.96830558e-03 -8.53067040e-02  7.03588157e-05
 -4.50802094e-04 -4.42858860e-02  1.69353150e-02  3.02609894e-03
 -4.37163573e-04  1.05186686e-04  1.70278043e-04  1.60584152e-01
 -9.19579586e-04 -2.20088242e-03 -2.64845556e-03  5.72214776e-04
 -5.73476544e-03 -6.44795247e-04  1.70137908e-03 -2.94520578e-04
  3.56612436e-04  2.33067258e-04 -1.05317892e-03 -2.15564325e-01
  4.64068580e-06  2.51260644e-05 -3.87946959e-04  8.34942693e-05
 -2.64504820e-01  2.75903090e-04 -3.58017231e-03 -1.82790204e-03
 -1.00395700e-04 -3.12123098e-04  1.70653716e-01  1.27879649e-01
 -5.37952967e-02  3.13392142e-03 -3.02245794e-03 -1.44861236e-01
 -1.40320957e-01 -3.19558293e-01  2.05836463e-04 -5.28819486e-02
  1.77339927e-04  3.39361664e-04 -5.62397123e-04  1.24904138e-04]
[-2.87756440e-04  1.70348421e-01  6.10127635e-02 -1.99067942e-03
 -1.62028611e-01 -1.82872615e-03 -4.04873863e-04  2.35140533e-03
 -8.26514140e-03 -1.48290780e-03 -2.48290162e-04 -4.31443099e-03
  1.00695074e-03 -3.50897871e-02  3.58175747e-02  2.73966826e-02
  4.46602106e-02  2.37152621e-04  7.54930973e-02  1.03802316e-01
  3.01117310e-03  1.42267808e-01 -1.18843041e-01  7.74343964e-04
 -4.91117779e-03 -1.98417436e-03  3.23822815e-03 -2.31098142e-02
 -4.92937537e-03  1.96877262e-03  7.85905495e-03 -1.47372368e-03
  2.84817489e-03 -4.55851853e-03  6.11090194e-03 -1.41772418e-03
 -1.65574747e-04  9.53312701e-05 -6.88686850e-04 -1.16054276e-02
  3.49968695e-03  4.66666737e-04 -3.48717137e-03  2.96637020e-03
  1.01358179e-04 -7.62947544e-04  1.13844068e-03 -2.06398516e-04
 -3.69262905e-03  3.14617599e-03 -9.60118696e-03  1.25205547e-01
  2.85489187e-02 -3.23462323e-03  1.25581981e-03  2.86855157e-02
 -5.84132746e-02 -2.38803364e-02 -1.44955551e-03 -9.89801735e-02
  2.76805192e-01 -3.69589217e-02  2.79330905e-03  1.14507251e-03]
[-8.9825306e-04  2.8041553e-01  2.9125717e-02 -5.9686136e-04
 -2.5087068e-02  6.8169204e-04  1.3406336e-03 -2.0966106e-03
 -5.0143092e-03  4.1900109e-04  2.8736738e-04  1.8126814e-03
  1.4933494e-03 -6.3376255e-02 -3.5264310e-01  7.1399085e-02
 -5.2677199e-02  1.3685641e-03 -4.4141889e-02  6.8731979e-02
 -1.5254846e-03 -9.0612970e-02  2.7063793e-02  3.2482913e-04
 -6.2911341e-04  8.1661640e-04 -1.7428797e-03  2.4328886e-01
  5.0518534e-04 -4.8003011e-04 -6.8330839e-03  5.9547467e-04
 -2.2829173e-03  4.5724778e-04 -4.9677691e-03 -8.2024024e-04
 -1.6879198e-03 -1.8590575e-03  7.3443685e-04 -1.0691930e-02
 -1.9891777e-03  4.8896996e-04  9.6170307e-04 -1.1220622e-03
 -1.3916083e-01 -2.3373945e-03 -2.3865290e-03  1.4462220e-03
 -3.4925013e-04 -1.8621670e-03 -3.7040070e-02 -9.9222057e-02
 -3.2531596e-03  7.7985518e-05 -1.8160627e-03 -2.7120081e-01
 -1.3592803e-02  3.9779332e-02 -2.3816456e-03 -2.8082738e-02
 -1.3350844e-01 -1.7994374e-02 -1.6198320e-03  1.6922174e-03]
[ 1.0333047e-03 -1.7652534e-02 -1.8124694e-01  8.8042842e-04
 -2.1508409e-01  6.3129002e-04 -1.5216350e-03  1.4272439e-03
 -6.3962273e-02 -6.7045592e-04  3.2418087e-05 -1.1543699e-04
 -1.1313531e-03  8.0858700e-02 -8.7824784e-02  1.9202960e-01
  2.3828905e-02 -1.6710864e-03 -1.5713054e-01  5.8080532e-02
  2.2133389e-04  1.8618567e-01 -1.6132784e-01 -1.3587349e-03
 -1.0596552e-03 -4.0695423e-04 -7.6979675e-05  1.5739575e-01
 -1.3100875e-03  1.2678945e-03 -3.3841259e-04 -5.1502045e-04
  1.5444600e-03 -1.0830862e-03 -4.8385770e-04  2.4616590e-04
  2.4412114e-03  1.8490888e-03  1.3598945e-03 -3.3883190e-01
  2.2557893e-04 -5.9995323e-04 -6.9101481e-04 -3.0662294e-04
 -2.6823148e-01  2.8041801e-03  8.6843746e-04  1.7306344e-03
 -9.7166799e-04  4.4823805e-04  5.2610911e-02  2.7661147e-03
  4.6144079e-02 -7.0073712e-04  2.4684586e-03 -1.4423031e-01
 -1.2763169e-01 -2.1932963e-02  3.3430017e-03 -8.4783241e-02
 -3.6635514e-02  3.8539387e-02  9.7445870e-04 -1.4074276e-04]
[-1.83337776e-03  6.42278865e-02  3.75526189e-03  1.98392686e-03
 -7.61798173e-02 -4.18063439e-03 -1.49427251e-06  2.37500737e-03
  5.08520417e-02  4.61956981e-04  7.89252008e-05 -3.94681148e-04
 -3.60318320e-03 -9.25662741e-02  1.24998838e-01  4.67823558e-02
 -2.40778904e-02 -6.43565832e-03  1.81982309e-01  1.19337998e-02
 -7.98270747e-04  2.03993535e-04  3.73059027e-02 -4.14223783e-03
 -1.12092006e-03  1.63588047e-04 -3.46993533e-04  2.22737119e-02
 -9.54079500e-04  8.93234217e-04  5.21989493e-03  4.59982373e-04
  8.57190229e-03 -1.02792634e-03  5.90603612e-03  2.99858535e-03
 -5.24933264e-03 -5.82619011e-03 -1.92601711e-03  1.80323824e-01
  1.26333354e-04 -2.17317324e-03 -4.14581184e-04 -4.77352471e-04
  1.39753208e-01 -3.45032522e-03  6.74341060e-03 -1.02777092e-03
 -4.59520088e-04 -2.85184185e-04 -2.43753448e-01  5.01931682e-02
 -1.61748603e-01  2.13857344e-03  2.56224722e-03  1.18544176e-01
 -6.95727253e-03  1.15127549e-01 -3.22127994e-03  3.13291997e-02
  5.29747941e-02  4.17536981e-02 -1.94740045e-04 -3.52634117e-03]
[-1.1138992e-03 -1.2660873e-02  2.8868111e-02  1.4885336e-03
  6.7182869e-02 -9.7229588e-04  2.3842778e-04  3.2491293e-03
 -1.8348131e-01 -5.5688951e-04  5.2952004e-04 -2.5101914e-03
 -8.8988437e-04 -6.1922871e-02 -2.4785347e-02 -8.9972474e-02
 -6.8400227e-02  9.2648545e-05 -1.6164783e-02  1.7893083e-01
  1.6557812e-03  4.0890744e-01 -1.2678209e-01 -1.2348165e-03
 -3.1462566e-03 -1.1971263e-03  2.1244381e-03  5.5797741e-02
 -4.6997215e-03 -1.2039312e-03 -8.5397362e-04 -5.0930324e-04
 -3.1532676e-04 -2.7312010e-03  2.4224145e-03  6.8386889e-04
 -2.8119083e-03 -2.6885062e-03  4.2068079e-04  1.7980199e-02
  2.1219219e-03  4.8127639e-04 -2.4682952e-03  1.8447473e-03
 -2.2572789e-02 -2.2291760e-03  4.6115412e-04 -6.7291426e-04
 -2.2758788e-03  1.8884252e-03 -6.7927942e-02 -1.7602636e-01
 -1.3539337e-01  3.9376579e-03 -9.4482990e-04  3.3683389e-02
  1.3866527e-01 -1.6723554e-01 -2.6276947e-03 -1.6592336e-01
 -5.9813038e-02  5.2974373e-02  1.7128200e-03 -5.5460248e-04]
[ 2.12102823e-04 -6.23072349e-02 -1.04762919e-01  1.23253651e-03
 -4.31548133e-02  1.95239054e-03  1.65225181e-03 -6.58558158e-04
  9.03319754e-03  2.68160715e-04  4.80524322e-04 -1.31764775e-03
 -9.50353453e-04 -1.19192377e-01 -7.13104568e-03  8.44213590e-02
 -8.61644298e-02 -1.72428240e-03  1.72391608e-01 -1.94233790e-01
  1.82801508e-03 -2.86917239e-01  7.85227641e-02 -1.70947926e-03
 -5.09252277e-05 -1.89861952e-04  1.27292739e-03 -8.02647024e-02
 -1.00309728e-03 -1.95966009e-03 -7.25993514e-03  3.50773946e-04
  4.98970679e-04 -1.09116459e-04 -2.81028450e-03  6.93635142e-04
 -1.69384037e-03 -1.99948112e-03  2.66065123e-04  1.91045091e-01
  1.47981895e-03 -1.12957472e-03 -6.03143824e-04  1.43836834e-03
  1.41660422e-02 -4.50229127e-04  3.37003818e-04 -1.04559382e-04
 -3.79670309e-05  1.54814986e-03 -5.69444597e-02 -2.55046301e-02
 -9.56142172e-02  1.65610120e-03 -4.39768075e-04 -1.02591075e-01
  6.79524466e-02 -2.14222863e-01 -2.21166963e-04  2.00110599e-01
  1.14360988e-01 -1.25700757e-01  1.11680070e-03 -4.41201701e-04]
[ 1.5316571e-03 -8.0550320e-02 -6.5660737e-02 -5.5081653e-04
 -3.7870628e-01  4.2348594e-04 -8.6782762e-04 -8.7609363e-04
 -5.1191570e-03  1.2223456e-03 -1.8724913e-04  2.1962777e-03
  5.9900101e-04  6.8505056e-02  5.9420992e-02 -3.9925039e-02
 -1.0226620e-01 -1.1546109e-03 -7.5059533e-02 -7.6538287e-02
 -2.4092486e-03  1.6814050e-01 -7.7492863e-02 -2.9323777e-04
  1.3136007e-03  1.2971068e-03 -1.6761231e-03  1.5762549e-02
  2.6487869e-03  7.2629796e-04 -1.9653782e-03  1.2622738e-03
  4.6013171e-05  1.1491183e-03 -1.7359281e-03 -1.2976447e-03
  9.0362626e-04  5.8378751e-04 -8.2514505e-04  7.3474541e-02
 -2.0457334e-03 -1.2086872e-03  2.3889479e-03 -1.0679554e-03
 -7.9825088e-02  1.2545278e-03 -9.4364514e-04 -8.9428690e-04
  1.2211121e-03 -2.2646885e-03 -9.3868986e-02 -5.7360012e-04
  9.1246977e-02 -7.7481777e-04  5.2107248e-04 -4.5584846e-02
 -4.3445238e-01  2.2690753e-02  1.3172431e-03  2.3073512e-01
 -1.5204387e-03 -1.1866018e-01 -1.9424926e-03  1.0311228e-03]
[ 2.9036710e-05  1.6083662e-01  5.7271168e-02 -5.6518998e-04
  8.3691321e-02  1.1292880e-03 -1.4226771e-03  1.3558103e-03
 -3.2193831e-01  1.1271129e-04  8.3316198e-05 -1.2118508e-03
 -6.5877254e-04 -4.7790829e-02  2.0576395e-01 -1.0839814e-01
  1.4172544e-03 -7.3561608e-04 -9.4804674e-02  1.6604556e-02
  1.6210511e-04  1.6250619e-01  2.7415879e-02 -8.3169801e-04
 -5.9601199e-04 -6.6830171e-04  7.6221448e-04 -2.1209903e-02
 -2.6660420e-03  1.3594364e-03 -3.0535366e-03  9.6794800e-05
  7.5091474e-04 -6.3768995e-04  1.1093568e-03 -1.2934493e-04
  1.9799310e-03  2.1819768e-03  4.9550148e-05 -4.2826280e-02
  9.4108924e-04  1.4514504e-03 -1.4710121e-03  6.8945653e-04
  1.8331483e-01  2.0135599e-03  9.2153199e-04 -1.3053203e-03
 -7.8603756e-05  5.3695252e-04 -4.8020963e-02 -1.4342937e-01
  1.2617405e-01 -6.3308381e-04  1.7607451e-03  1.4335960e-01
 -5.5526789e-02 -1.5662833e-01  2.0939636e-03 -1.0546798e-02
 -3.0654468e-02  9.7377859e-02  5.8320770e-04 -2.9806957e-05]
[ 1.0761794e-03 -3.2011086e-01 -3.6928374e-02  3.6644217e-04
  5.4590024e-02 -3.5441807e-03  1.9192771e-03  2.8295090e-04
 -7.9743817e-02  3.5409440e-04  8.9529832e-04 -2.2496721e-04
  1.4421288e-03  8.0853119e-02 -3.1592607e-01  8.0702618e-02
  3.6854330e-02  3.0806903e-03 -2.7560303e-01  2.8623030e-02
  9.0104883e-04  2.6498708e-01 -1.8687877e-01  1.8826299e-03
 -1.9825969e-03  7.5550104e-04  6.7484268e-04  2.7816407e-02
 -4.2071458e-04 -1.5331886e-03  1.1751492e-03  3.7950391e-04
 -2.9875690e-03 -2.4757115e-03  3.2992610e-03 -3.0855960e-04
 -1.0487859e-03 -1.1004043e-03 -1.2060041e-03  3.6816739e-02
  8.3731237e-04 -2.0172896e-03  3.4767317e-04  7.0490339e-04
 -1.2174842e-01 -1.7722618e-03 -2.3490421e-03 -1.0216839e-03
 -1.5189556e-03  1.0105867e-03  2.2632100e-02 -8.6390615e-02
  1.4474477e-01  4.1131699e-04 -3.1386071e-03  5.2661121e-02
 -2.0836072e-01 -9.9155831e-04 -2.0637424e-03 -1.6766760e-01
  1.0288511e-01 -1.6249761e-02  9.1198843e-04  5.5614620e-04]
[-1.2199148e-03 -1.6163965e-01  4.6331227e-02  1.4974752e-03
  2.2993388e-02  1.5596320e-03 -1.7573661e-03  2.7854365e-04
  6.8657994e-02 -7.1162131e-06 -6.5926666e-04  4.2604271e-04
 -1.5593675e-04  1.3793093e-01  1.6830888e-01  6.9975153e-02
 -6.5992914e-02  3.4688651e-03 -2.2492042e-01 -3.2199749e-01
 -1.3509591e-03  7.6315165e-02 -1.6044451e-01  1.9077652e-03
  4.5533688e-04 -2.0639044e-04 -1.1119306e-03 -8.3274925e-03
  7.8418816e-07  9.9465298e-04 -4.8011187e-03 -4.4581568e-05
 -1.2665432e-03  2.1292496e-04 -9.4671542e-04  1.2645751e-03
 -1.3871416e-03 -1.0346676e-03  1.3590746e-03 -2.2037527e-01
 -1.1621773e-03  2.2971353e-03 -1.5667864e-04 -1.0657661e-03
 -1.5479313e-01 -2.2322370e-03 -3.2342290e-05 -7.3886360e-04
  6.6557893e-04 -1.1447349e-03  2.4353361e-01  1.9005881e-01
 -2.7775889e-02 -6.1116094e-04 -1.7049371e-03 -2.3908615e-01
 -2.3655894e-01 -6.3912675e-02 -2.6326082e-03 -1.9357893e-01
 -3.2626554e-02  4.6553691e-03 -7.8480487e-04 -7.9806114e-04]
[ 1.25824707e-03 -1.26830414e-01  1.13456108e-01  2.08726517e-04
  1.99387595e-01 -1.36013457e-03 -1.43274560e-03  1.40712375e-03
  1.69584155e-01 -3.18577513e-05  3.76279117e-04  9.67562490e-04
 -5.12259256e-04  4.27900739e-02 -3.35873179e-02 -1.12698324e-01
  3.18082958e-01 -3.17256287e-04  2.70436760e-02  3.12640667e-01
 -2.46314681e-04 -3.08009684e-01 -5.25143385e-01 -1.68145099e-03
 -1.02113583e-03  8.97674588e-04 -9.14692588e-04 -1.09530846e-02
  1.10148254e-03  1.11111638e-03 -1.13609922e-03  1.47455328e-04
 -1.45141617e-04 -6.54392294e-04  1.05395739e-03 -2.01762101e-04
  8.65557755e-04  8.36044434e-04  4.88434162e-04  2.52328627e-03
 -4.85024822e-04  5.82096807e-04  1.00059540e-03 -7.73825333e-04
  2.82823652e-01  7.83785130e-04 -5.12849598e-04  1.54360093e-03
 -1.10709947e-03 -2.95845937e-04 -1.46302044e-01  2.79567465e-02
 -4.97003309e-02 -9.42134007e-04  1.05489185e-03  1.43045578e-02
  2.69599836e-02 -2.60174572e-02  9.03011009e-04 -7.29640201e-02
  9.00674239e-02  4.93497141e-02  6.97925425e-05  4.02975042e-04]
[ 2.6279574e-03 -2.3777483e-02  6.6139489e-02 -2.8550257e-03
  6.1034806e-02 -3.7409025e-03 -2.4744149e-03  7.5260492e-04
  1.4000052e-02 -1.9754787e-04  7.2393235e-04 -1.7001396e-03
  6.9551828e-04 -7.6248720e-02  9.7432053e-03  7.3848958e-03
  1.4396990e-02 -1.9326153e-03 -3.9901953e-02 -3.6991900e-01
  2.9548898e-03  1.0084259e-02  8.4962085e-02 -1.9414031e-03
 -3.7755920e-03  1.9954631e-04  1.4587083e-03 -9.6090138e-03
 -5.9809175e-04  1.8375370e-03  3.2853582e-03 -1.6791046e-04
  5.3816597e-04 -3.7702851e-03  3.9667180e-03 -1.7205875e-03
  7.1327691e-03  6.5369066e-03 -9.2008850e-04  3.9168829e-03
  2.3346494e-03  2.5531352e-03 -5.8276346e-04  1.1402379e-03
  9.8986261e-02  6.1835973e-03 -6.4715161e-04  9.2143688e-04
 -3.3714094e-03  2.8546154e-03 -7.7675290e-02  1.2521337e-01
  2.7640564e-02 -3.8068118e-03  3.8915947e-03  3.7178341e-02
 -2.2877513e-01 -6.5207325e-02  6.8559218e-03 -2.2495106e-02
 -3.5301410e-02  3.6292411e-02  2.8022446e-03  2.2043462e-03]
[-5.93392760e-04  6.72838390e-02 -2.03213185e-01 -2.08920636e-03
 -2.17840988e-02 -2.14826874e-03 -1.99420983e-03  1.45248347e-03
  1.60326019e-01 -2.13359323e-04 -5.49574615e-05 -2.00610980e-03
  1.31009100e-03 -9.63236615e-02 -5.78547232e-02 -1.97829735e-02
  7.43065625e-02  3.21086001e-04  7.44854733e-02  2.49656200e-01
  9.62942955e-04 -7.24119842e-02  1.16441492e-02  8.81389249e-04
 -1.02889177e-03 -7.54857261e-04  1.26127515e-03 -7.05435425e-02
 -2.45272135e-03  3.01381503e-03  3.16424482e-03 -2.33162937e-04
  3.42024607e-04 -1.19053794e-03  4.88869054e-03 -1.02211209e-03
  3.61654744e-03  3.19941947e-03 -1.40338682e-03 -5.65142110e-02
  1.69604574e-03  1.64485921e-03 -1.61517784e-03  9.71077941e-04
  1.37066767e-02  2.61258683e-03 -1.72774657e-04 -1.19016762e-03
 -8.48753436e-04  1.35136081e-03 -1.06132209e-01 -3.61714423e-01
 -1.28475688e-02 -3.63441464e-03  2.35197763e-03 -1.16828345e-02
  8.93541873e-02 -5.31219617e-02  2.86525604e-03 -4.30111200e-01
 -5.20166978e-02 -1.49458125e-01  1.17326260e-03  7.95345230e-04]
[-8.01147718e-04 -1.55443083e-02 -6.38647377e-02 -1.12984527e-03
 -2.80432999e-02  4.73443768e-04 -6.56320015e-04  2.19594012e-03
 -2.86285818e-01 -7.53750966e-04 -1.47780939e-03 -2.13382789e-03
  1.28380617e-03  1.88091546e-02  8.47608037e-03 -2.27736998e-02
  6.86219335e-02  1.77498418e-03  5.10938540e-02 -2.49694020e-01
  1.51953322e-03  2.72699259e-02 -1.27814040e-01  1.94088719e-03
 -1.28493854e-03 -8.32089048e-04  1.39517698e-03 -2.48337254e-01
 -1.32404524e-03  1.52014289e-03 -1.34716544e-03 -7.24021986e-04
 -4.76537651e-04 -1.44671719e-03  6.02328801e-04 -9.79688135e-04
  2.01656832e-03  2.03807652e-03  8.69837531e-05  8.84215385e-02
  1.86145864e-03  9.96405142e-04 -1.05658546e-03  1.38974306e-03
  1.79098174e-01  7.42660428e-04 -9.13448865e-04 -3.85650783e-04
 -1.09174405e-03  1.52577239e-03  5.58353774e-02  1.79091379e-01
 -1.72950864e-01 -4.51326696e-03 -2.40907932e-04 -4.16051522e-02
 -1.29405007e-01  1.04529455e-01  7.72342493e-04  4.62535210e-02
  1.54959440e-01 -2.79482692e-01  1.43396237e-03  1.13202189e-03]
[-7.1982702e-04  3.9170284e-02  9.4069488e-02  1.0113374e-03
  8.6804070e-02  2.0068614e-03  1.3202858e-03 -5.3669361e-04
 -2.7956554e-01  7.1845287e-05 -3.0276095e-04  5.0453666e-05
  1.8083717e-03  5.4597344e-02 -1.5968899e-01  1.2294514e-01
 -1.7864456e-02  7.7118622e-03 -4.0596493e-02 -4.3242972e-02
  1.0639038e-04 -2.2381999e-01  3.8532656e-02  4.2200815e-03
 -1.0967198e-03 -6.2236562e-05 -6.4617954e-04 -2.9256124e-02
  8.1174559e-04 -2.9102715e-03 -9.6627781e-03  5.1771745e-05
 -7.6159271e-03 -6.1491906e-04 -3.0075223e-03 -1.6553291e-05
 -3.6458026e-03 -2.6960983e-03  1.6480369e-03 -2.4192423e-01
 -6.6912803e-04  1.7917239e-03  2.6520816e-04 -3.4037334e-04
  1.1578078e-01 -4.5930776e-03 -4.5835627e-03  1.0285258e-04
 -5.4387446e-04 -5.3590396e-04 -5.4348748e-02 -6.4043470e-02
 -9.5580012e-02  3.8661445e-03 -6.0473401e-03  7.6272570e-02
  1.0379266e-03  2.4372539e-01 -5.4029957e-03  1.5307350e-01
  4.7963403e-02 -1.6152292e-01 -7.4647373e-04  5.4848334e-04]
[ 1.53205777e-03 -8.43624920e-02 -1.33827806e-01 -1.16610364e-03
  1.28710106e-01  2.27585598e-03  4.25199483e-04 -4.94976761e-04
  1.36929840e-01 -2.95782142e-04 -7.08656153e-04 -8.33533821e-04
  6.96612522e-04  7.58312419e-02  3.40560049e-01 -4.38452139e-02
  6.03677891e-02 -5.75605431e-04 -1.83431402e-01 -4.79534306e-02
 -2.97582737e-04  3.30402851e-02 -4.41291220e-02 -4.76122834e-04
 -8.15913008e-05 -1.05017144e-03  1.52733963e-04 -3.39042023e-02
 -2.93283863e-03 -7.27193983e-05 -8.38509994e-04 -3.19131417e-04
  2.64017232e-04  6.12061340e-05 -3.89968947e-04 -8.42949492e-04
 -1.29000912e-03 -1.07375858e-03  1.42236822e-03  1.25343949e-02
  1.09155444e-04 -1.14029052e-03 -1.61201949e-03  1.67416089e-04
  4.60361354e-02 -1.51235447e-03 -4.32700966e-04 -9.30243463e-04
  3.32733383e-04 -2.34429055e-04 -1.48136497e-01  2.21092924e-01
 -2.44753271e-01 -6.95338007e-04 -1.98066249e-04 -1.06000721e-01
  5.33928946e-02 -1.32907912e-01 -1.66339625e-03  2.89527215e-02
 -2.85039514e-01 -6.52250368e-03 -3.08659830e-04  9.49628418e-04]
[ 8.42919631e-04 -3.96305211e-02  2.02011727e-02 -4.63856122e-04
 -2.32716292e-01 -2.88715772e-03  1.26195920e-03 -2.09775826e-04
  8.21344852e-02  1.12992059e-03  1.23618508e-03  5.08445839e-04
  1.22065272e-03  3.51260118e-02 -1.62213892e-01  1.46942332e-01
 -1.02693886e-01  1.04368012e-03  5.04950956e-02 -5.49542010e-02
  4.77840978e-04 -1.84489042e-01  5.64285703e-02  5.71522221e-04
  5.20587491e-04  1.25352305e-03  1.84920355e-04 -3.66937108e-02
  1.05094560e-03 -9.36108758e-04 -7.58749607e-04  1.12961838e-03
 -2.25252798e-03  2.82628345e-04  1.95544655e-03 -6.14691700e-04
  3.35448189e-04  3.04439454e-04 -1.33355835e-03 -2.48296792e-03
  5.33751154e-04 -1.43936824e-03  1.02857663e-03 -1.02811580e-04
 -2.23027006e-01  5.03445161e-04 -2.17361725e-03 -7.14188209e-04
  3.97692289e-04  7.87826197e-04 -1.05194867e-01 -7.70121515e-02
  2.66203526e-02  3.94081726e-04 -9.60925885e-04 -3.62532705e-01
  2.47993693e-02 -3.89339998e-02  5.82682842e-04 -1.46438807e-01
 -7.62231201e-02 -2.02598050e-02  8.46629729e-04  8.46159994e-04]
[-1.0701771e-03 -1.1463432e-01  4.6844732e-02  3.4789587e-04
 -1.2464300e-01  1.4049435e-04 -2.4442910e-04 -2.1138845e-04
  1.5148622e-01 -2.1071543e-04  7.6529010e-05 -6.6787493e-04
  3.8571417e-04 -1.8000837e-01 -2.7020942e-02  7.6717779e-02
  1.0940990e-01  1.0622256e-03  1.2113498e-01  1.4544895e-01
  3.0660030e-04  2.6063868e-01 -9.1937378e-02  9.6379791e-04
 -2.2035008e-03 -4.9630983e-04  1.2133038e-04  1.8639763e-01
 -1.9104769e-04  4.5183400e-04 -5.5986736e-03 -1.9663680e-04
 -1.0533016e-03 -1.7075301e-03 -1.1657141e-03 -3.8445444e-04
 -2.3412448e-04 -4.6826917e-04  2.8586853e-04 -2.2094977e-01
  2.6095501e-04 -1.1767510e-04 -6.8805297e-04  1.9894577e-04
 -1.5369987e-01 -7.0086378e-04 -1.2097663e-03 -2.8037134e-04
 -1.6268353e-03  1.6637426e-04 -1.7287695e-01  2.4046150e-01
 -8.2036637e-02 -1.7270515e-03 -1.1228326e-03 -2.5091690e-01
 -8.9106880e-02 -1.3684402e-01 -8.6890691e-04  3.0591458e-02
  3.9625194e-02 -6.8811685e-02  1.8752876e-04  5.0153409e-04]
[-9.29355505e-04 -5.88487051e-02  1.20654479e-01  5.53798222e-04
  3.65382820e-01  7.39844691e-04  8.85255635e-04 -3.20969993e-04
  1.09423157e-02  6.11709431e-04  1.36168295e-04 -1.02272653e-03
 -3.38880607e-04 -6.68387339e-02 -1.36694089e-01 -1.25395820e-01
  1.54223517e-01  6.74946816e-04 -4.77782860e-02  2.92096198e-01
  9.64399253e-04  1.08472638e-01  6.52572736e-02  5.75329585e-04
  5.26577409e-04  1.87594196e-04  6.82783138e-04  7.12869242e-02
 -6.02943706e-04 -9.02800530e-04 -2.54909112e-03  6.25896035e-04
 -1.03515740e-04  3.94046336e-04 -1.22267799e-03  1.62247999e-03
 -2.68029119e-03 -2.35125213e-03 -6.71227870e-04  5.08891493e-02
  1.29101053e-03 -9.36603319e-05 -1.51988905e-04  9.84966638e-04
  2.62983769e-01 -2.62149447e-03  1.43912548e-04 -1.26810651e-03
  8.59424414e-04  9.51105496e-04  3.39601934e-02 -5.98451018e-01
 -7.19700679e-02  1.02842890e-03 -1.84970244e-03  1.55225486e-01
  2.31014401e-01  3.61141190e-02 -3.05955019e-03 -1.00048035e-01
 -1.58680584e-02  1.63740627e-02  4.97220084e-04 -9.80395591e-04]
[ 6.16032281e-04  4.54550423e-02 -1.77551247e-02 -1.07218698e-03
 -1.66359648e-01  1.01737154e-03 -4.82607604e-04  2.80850043e-04
  4.15690392e-01 -9.03896580e-04 -4.61812800e-04 -1.59155577e-03
 -8.10486323e-04 -4.18990880e-01  1.53869763e-01  9.68014225e-02
  8.72684177e-03 -1.89188623e-03  9.03896466e-02 -1.02802806e-01
  1.33716560e-03  4.77746241e-02 -4.59857378e-03 -9.28215799e-04
 -1.26729405e-03 -8.35459505e-04  6.45619526e-04  1.13112792e-01
 -2.01800093e-03  7.80997565e-04 -4.22387524e-03 -8.76552716e-04
  1.19278813e-03 -1.27060642e-03 -1.27165241e-03  2.10881961e-04
  1.57923577e-03  1.99570809e-03  1.32301240e-04  1.69184163e-01
  9.69827350e-04  3.71714821e-04 -1.32880500e-03  6.79994351e-04
 -5.11262566e-02  1.77784194e-03  1.14487309e-03  8.61825421e-04
 -1.25233596e-03  9.58153978e-04  6.02072058e-03 -7.49385953e-02
 -7.54204467e-02  1.82569295e-03  1.74798700e-03  2.22220659e-01
  1.13169774e-01 -2.50655055e-01  1.75672420e-03 -4.33921218e-02
 -1.55884907e-01  3.60546298e-02  6.90037850e-04 -2.55781575e-04]
[-3.8508736e-04 -6.4240918e-02  7.3552959e-02 -6.8926279e-06
  1.0144453e-01 -2.1916658e-03 -3.1762951e-04  2.4836368e-03
  7.5002164e-02 -3.5056422e-04  3.0473669e-04 -1.2741967e-03
 -4.6456527e-04  4.8087884e-02 -2.6260810e-02 -3.8630057e-02
  1.1187315e-01 -8.8660751e-04 -8.0245338e-02 -1.2528428e-01
  7.2317233e-04  9.1442190e-02  6.6792995e-02 -5.7365600e-04
 -1.6984753e-03 -8.7113457e-04  7.0389174e-04 -1.2566249e-02
 -2.7797527e-03  9.3303024e-05  1.0387447e-03 -2.4921270e-04
  1.1057836e-03 -1.4735673e-03  2.8898721e-03 -3.7007267e-04
  4.8450116e-04  1.9213132e-04 -2.2262246e-04 -2.1248062e-01
  1.0657196e-03  7.0445362e-04 -1.9480586e-03  3.8652617e-04
  8.4684208e-02  6.2553398e-04  5.1577331e-04  4.1856771e-04
 -1.5518008e-03  1.0630288e-03  8.9432277e-02 -5.2331287e-01
 -8.5142046e-02 -4.3590533e-04  1.2911104e-03 -1.3124362e-03
  9.2130393e-02  2.9623965e-02  7.4101653e-04 -1.8428931e-01
  2.5883298e-02 -1.6084453e-02  1.2464602e-03 -7.8873134e-05]
[-8.9868292e-04 -2.1982023e-02  1.5095922e-01  1.7789935e-03
 -8.1114247e-02  1.4737973e-03  9.2645152e-04  1.1811795e-03
 -9.4171269e-03 -1.2028050e-03 -1.4022789e-03 -2.2017236e-03
  7.1907089e-06 -8.0413818e-02 -1.4448456e-01  6.6333200e-04
 -1.2057820e-01  2.9390634e-03  1.6124482e-01 -1.4982517e-01
  1.2010223e-03 -3.5582075e-01  1.5110600e-01 -2.3953431e-05
 -1.9912287e-03 -1.2525148e-03  1.1951881e-03 -5.1547084e-02
 -2.5456781e-03 -1.4917827e-03 -4.7309278e-04 -1.1742625e-03
 -8.9713669e-04 -1.4128421e-03  1.8024578e-03  1.6466124e-03
 -6.6403188e-03 -6.2072286e-03 -2.5994366e-04 -6.9765672e-05
  9.6648134e-04  1.1029857e-03 -1.5173203e-03  1.4145663e-03
  4.2423651e-02 -6.5121399e-03  7.7257509e-04 -4.8058759e-05
 -1.7005750e-03  6.7507126e-04 -3.1248473e-02  1.3060647e-01
 -1.6329286e-01  1.7836543e-03 -3.0612643e-03  1.0431994e-01
  1.5979931e-03 -1.5053880e-01 -7.2920653e-03 -2.0437007e-01
  2.1491993e-02 -9.1132700e-02  2.3523328e-04 -1.7225767e-03]
[ 5.91965625e-04  3.41578037e-01  1.09075144e-01 -2.55261338e-03
 -1.60538867e-01  1.08036667e-03 -3.00320913e-03  2.97260634e-03
  8.62312689e-02  1.50098480e-04  4.22035635e-04 -2.09195749e-03
  2.02787487e-04  6.05910532e-02  2.93405214e-03 -1.39605492e-01
 -2.02467248e-01  2.00771785e-04 -2.53629927e-02 -9.94665921e-02
  2.04937370e-03  6.29390683e-03 -6.11088932e-01  3.22527601e-04
 -2.78423820e-03 -6.69521105e-04  2.34788004e-03  1.29342545e-04
 -3.53666628e-03  3.42278089e-03  6.70109177e-04  1.36415358e-04
  9.90177505e-04 -2.75105005e-03  3.25950235e-03 -1.55472232e-03
  6.87118853e-03  7.66965095e-03  1.42744539e-04 -1.13701232e-01
  2.59894622e-03  4.71701147e-03 -1.75664702e-03  2.15047365e-03
  1.32263556e-01  6.73078373e-03  1.15635828e-03 -1.27050630e-03
 -1.93423266e-03  2.24383571e-03 -1.12161942e-01 -1.03787385e-01
 -7.90626109e-02 -4.15709149e-03  4.06817021e-03 -1.92889944e-02
  1.96968511e-01  9.13546607e-02  7.38404784e-03 -1.25450581e-01
 -9.13380459e-02 -1.10440135e-01  1.85641611e-03  1.11804018e-03]
[-1.21493393e-03 -7.38737732e-02 -8.84228125e-02 -1.09802012e-03
  2.05194205e-02 -1.54548022e-03 -6.45978202e-04 -2.59761955e-03
 -9.38774347e-02  2.10334850e-03  1.60083501e-03  2.27305666e-03
 -5.78597421e-04 -4.10458669e-02 -1.06749507e-02 -3.55066778e-03
 -3.28805864e-01 -2.27118516e-03  7.42294490e-02 -1.42669320e-01
 -2.37483787e-03 -2.80894667e-01  2.05944106e-02 -3.97980039e-04
  2.50454596e-03  2.07962142e-03 -2.99399905e-03 -9.09105968e-03
  2.42168643e-03  2.28994456e-03  9.26740991e-04  2.06987886e-03
  3.04238382e-03  2.96163117e-03  1.33480015e-03 -1.17995252e-03
  3.87037522e-03  3.62474774e-03  1.21115816e-04  1.24323852e-02
 -2.70465482e-03  1.77320978e-03  2.22399388e-03 -2.71135918e-03
 -1.61006287e-01  3.39676323e-03  1.73989893e-03 -3.48887188e-05
  2.44152173e-03 -2.44080578e-03  1.29264265e-01 -1.50795847e-01
 -7.89297596e-02 -1.46567333e-03  3.60987568e-03 -5.33046573e-02
 -2.32590824e-01 -7.12531619e-06  3.77303502e-03  1.61940791e-03
 -9.37911719e-02  2.44057458e-02 -1.96762127e-03  1.05529744e-03]
[-1.2938420e-03 -1.6283056e-01 -2.9672495e-01  1.2724331e-03
  4.0419906e-02  4.6094200e-03  2.0183068e-04 -1.0298024e-03
  2.0986283e-01 -3.5631753e-04 -1.2330805e-03  5.4784236e-04
 -1.3724435e-03  2.4362212e-02 -8.1279509e-02 -4.5513224e-02
  1.4222607e-01  1.5554093e-03 -1.9046326e-01 -3.3477791e-02
  9.0656517e-04 -1.1383638e-01 -1.3390371e-02  1.2459280e-03
  9.7548509e-06  2.6526058e-04  2.7313220e-04 -2.2376104e-01
  2.3540994e-03 -1.1110883e-03 -1.0925895e-02 -2.4515064e-04
 -8.4829098e-04 -1.0970647e-04 -7.2676395e-03  2.1172238e-03
 -2.2468898e-03 -2.1701804e-03  9.0341974e-04  1.0549973e-01
  1.9734984e-04 -2.1626784e-04  1.3578469e-03  1.0263962e-03
  3.7946838e-01 -2.3632916e-03  6.8879686e-04  2.4177509e-04
 -9.2955968e-05  2.9453306e-04 -4.8961677e-02 -1.7465906e-01
  1.0960656e-01  3.3552372e-03 -1.6397811e-03  1.7363830e-01
 -7.4247643e-02  6.6911705e-02 -3.2183735e-03 -1.9132759e-01
  6.0718462e-02 -1.5854992e-01  5.7708712e-06 -2.2936948e-03]
[ 2.0762554e-03 -3.1186575e-02 -1.2557030e-01 -1.4165877e-03
 -1.2386032e-01  4.5587188e-03  3.8907496e-04 -6.2564044e-04
 -1.8397400e-02 -1.5354555e-03 -1.9043592e-03 -5.6226942e-04
  1.3222801e-03 -2.4995595e-01  5.9691135e-02  1.9771673e-01
  2.1623969e-02 -2.6411557e-04  8.1181668e-02 -2.4477588e-02
  3.9170854e-04 -3.8117802e-01  1.6595591e-03  7.2197098e-04
 -1.9307919e-03 -1.8237522e-03  5.0291664e-04  2.2051613e-01
  2.0212086e-04 -6.0961070e-04 -6.4628543e-03 -1.4474223e-03
 -1.6714021e-03 -1.2741521e-03 -4.7654328e-03 -2.2711344e-03
  3.8443350e-03  3.6149437e-03  2.2011052e-03  2.2499579e-01
  2.5553344e-04 -3.0580923e-04 -9.7840175e-04  1.2129856e-03
 -6.6317923e-02  2.9473307e-03 -1.8108255e-03 -3.1153220e-04
 -1.7086257e-03 -1.4897813e-04 -1.5386608e-01  7.1888104e-02
 -2.9353905e-01 -1.0022146e-03  8.7560422e-04 -1.1110170e-01
  2.7095666e-02  1.0161892e-01  3.4531809e-03 -3.4066677e-01
 -1.2584361e-01  7.7989332e-02 -4.8089545e-04  1.9516046e-03]
[-2.4755213e-03 -6.9071913e-01 -2.0820929e-01  1.6523078e-03
 -2.8401023e-01 -1.2747279e+00 -4.5996835e-03 -1.2711887e+00
  2.6543462e-01 -1.2807306e+00 -1.2781779e+00 -1.2739431e+00
  2.4487992e-04 -1.3322183e-02 -6.8777347e-01  5.1220590e-01
  9.8909542e-02 -3.0296817e-03 -4.2025632e-01  4.1134715e-01
 -1.2789236e+00 -7.8941453e-01  4.7985733e-01 -4.0597999e-03
 -1.2795461e+00 -1.2779549e+00 -1.2761520e+00  4.5018712e-01
 -1.2806360e+00  8.1049907e-04 -1.2825536e+00 -1.2819228e+00
  3.6017195e-04 -1.2819494e+00 -1.2758976e+00 -4.1376398e-04
 -1.7903472e-03 -1.6765565e-03 -1.2731178e+00 -1.3302317e-01
 -1.2796094e+00 -1.2137017e-03 -1.2770599e+00 -1.2802176e+00
 -3.3825453e-02  3.7338474e-04  3.0225965e-03 -1.2784489e+00
 -1.2788206e+00 -1.2781209e+00  4.1993311e-01  1.7486779e-01
 -1.6448271e-01 -1.3649937e-03  9.4114611e-04 -2.5647524e-01
 -2.7653459e-01  3.3203015e-01  3.1569941e-04 -8.6019732e-02
 -4.3156388e-01  2.4248740e-01 -1.2773714e+00 -1.6392664e-03]
layer 3 Activation
swish
layer 4 Dense
64 64
[-5.36144569e-07 -3.88492699e-05  1.41153328e-06 -4.85220480e-05
 -1.85311795e-03  3.36049736e-04  2.49020377e-06  4.93442021e-05
  1.11412419e-06  1.64696656e-04  2.47931985e-06  5.32632461e-04
 -1.81088581e-06  3.30614857e-04 -1.26876912e-04  3.88731278e-05
  2.81809509e-04 -2.29025136e-05  7.15261558e-06 -3.99343207e-07
  1.58567575e-03 -1.46041217e-04  1.28400243e-05 -2.73669843e-06
 -9.21238796e-04  4.17859083e-05  1.55736998e-05 -1.09419023e-04
 -2.09195641e-04 -1.14596973e-03 -6.30485692e-06  2.77900544e-04
  2.10202707e-04  6.72226597e-05 -1.82782882e-04  1.22323772e-05
  8.13984661e-04  2.22137055e-06  3.80324309e-06 -2.09135451e-05
 -1.45134327e-05  3.30553274e-04  3.43111897e-04 -6.22611014e-06
  1.12622138e-06  9.42769286e-04  8.43186281e-04  4.98991085e-07
  1.63282893e-05  7.74324235e-07  6.87559805e-06 -5.71066130e-06
 -6.79385732e-04 -3.65716187e-06 -4.81077732e-04 -1.08697204e-04
  5.24115050e-04  9.20258171e-05  1.28100783e-05 -5.52347274e-07
 -5.36604057e-06  9.47571334e-06 -3.62405331e-07  1.35302893e-03]
[ 2.61811983e-05  4.58214781e-05 -4.89001150e-06  2.95995647e-04
 -1.95251033e-03  5.18544693e-05 -6.52934887e-06 -2.19540729e-04
 -1.50815436e-06  2.18668878e-01 -5.50749792e-06  2.45906762e-04
 -6.42920622e-06 -7.56670546e-04  5.01978793e-04 -1.79078688e-05
 -5.88815601e-05  1.44760245e-02 -1.87554251e-05 -3.67701541e-05
  2.24515097e-03  8.47757270e-04  3.48290487e-05 -4.23217898e-06
 -2.20002040e-01 -1.93917920e-04 -1.09061092e-01  4.18850861e-04
  3.65316286e-04 -1.87928346e-03 -1.69376071e-05  1.08472072e-04
  3.77891585e-04  1.19043374e-03 -2.95445591e-01 -3.01572960e-04
  1.79663867e-01 -8.41157162e-05  1.04419305e-04 -1.09251647e-04
 -2.55966443e-04 -4.90687671e-05  5.43120950e-02  1.57485018e-04
 -2.31222589e-06 -3.39664076e-03 -3.84803559e-03 -7.54201119e-06
 -4.60125666e-05 -1.20862842e-06 -2.94541627e-01  1.71693227e-05
 -1.33674662e-03  3.10619432e-03 -3.78381133e-01  2.91863922e-04
 -1.20994588e-03  4.95868810e-02 -9.19932063e-05  9.14822249e-06
  9.66885727e-06 -1.33998747e-05 -2.80795803e-06  1.30460458e-03]
[ 3.1557549e-05  2.5970026e-04 -3.5268451e-06  5.2743801e-04
  3.3740350e-03 -2.9484769e-03 -4.8621368e-05 -5.1354617e-04
 -3.0157876e-06 -2.1188650e-01 -1.1243940e-05 -4.9889940e-03
  1.8720727e-06  1.2535000e-03 -1.0299295e-03  4.5210298e-05
 -2.6335546e-03 -4.9803305e-02 -9.3179879e-05  6.2435109e-05
 -4.6289740e-03 -9.9654462e-05  1.8166364e-04 -2.1470903e-05
 -9.1129959e-02  3.7737488e-04 -3.8242269e-01  1.0733907e-03
 -1.3658736e-03  3.6808683e-03  2.2703824e-05 -3.5033703e-03
  1.3768201e-03 -4.0155854e-03  2.1916512e-01 -8.7499549e-04
 -1.2231723e-01 -4.2640288e-05  1.2420605e-04 -2.6397541e-04
 -1.6687795e-03 -1.6762550e-03 -4.1620724e-02  3.1277089e-04
 -3.8340036e-06  3.9024269e-03  3.8192668e-03 -2.5812151e-05
 -6.7511872e-05 -2.3725738e-06 -5.7579450e-02  5.3019634e-05
  3.2941555e-03 -1.0198005e-02  9.8838374e-02  7.4262894e-04
 -3.3695027e-03 -4.8465035e-03 -2.6390026e-04  1.9343042e-05
  1.9914796e-05 -2.4012195e-05  2.7037258e-06 -5.2896268e-03]
[ 5.62727428e-06  3.13602832e-05  1.62623707e-07 -1.81795749e-05
  7.06950668e-04 -3.16566671e-04 -1.88524393e-06 -4.78787333e-05
 -5.63769618e-08 -7.01265875e-04  2.40416369e-07 -5.75132552e-04
  3.98638889e-07 -9.66737935e-05  8.22513102e-05  9.20905150e-05
 -2.49066128e-04 -3.13796452e-04 -7.14278576e-06 -6.05191133e-07
 -6.08095550e-04  3.26639347e-05 -1.19602810e-05 -3.83326892e-07
  4.97977890e-05 -2.57715656e-05 -5.69821335e-04 -3.66436143e-06
  1.13923070e-05  7.53691711e-04  2.75488810e-06 -4.21248144e-04
  4.04697785e-05  1.81075113e-04 -1.10157300e-04 -1.96455821e-05
 -6.97472598e-04  5.60019362e-06 -6.31177681e-06  1.90315077e-05
 -1.04791114e-04 -6.88630898e-05 -5.17679611e-04  7.94237349e-06
 -1.37578496e-07 -3.22188425e-05 -2.29966448e-04 -6.58504689e-07
 -1.53330147e-05  2.30285906e-08  3.82558501e-04 -2.21024948e-06
 -2.74584716e-04 -3.45832581e-04  1.86196776e-05  6.41493243e-05
 -1.53904693e-07 -2.84783571e-04 -1.82919648e-05  6.09225538e-07
 -1.55091539e-06  2.48204685e-07  4.55177087e-07 -8.55297316e-04]
[ 9.0514422e-06  8.8839741e-05 -3.0332633e-06  1.6125795e-04
 -1.2307285e-03  7.8096811e-05 -1.9618392e-05 -3.9060265e-05
 -9.3656934e-07 -1.8847831e-01 -6.0332582e-06 -2.7761568e-04
 -1.0478846e-05  4.2074744e-04 -3.6712273e-04 -4.3071155e-05
  2.2266846e-05  1.3335172e-02 -3.6637506e-05 -1.2982594e-05
  5.9877033e-04 -2.4756693e-04  4.9080518e-05 -8.0650689e-06
 -2.5540501e-01  1.2315359e-04 -1.1264490e-01  1.2717728e-04
 -4.8713578e-04 -1.0721222e-03 -2.1794543e-05  1.6371458e-05
 -1.6245275e-04  6.2808825e-04 -3.0346823e-01 -2.6067914e-04
 -1.5130495e-01 -8.3638020e-05  8.3351588e-06 -7.5959877e-05
  8.7886874e-05  7.4668514e-04 -1.0507567e-01  1.2351766e-04
 -1.2626854e-06  1.8116303e-03  1.2541973e-03 -9.5214809e-06
 -2.4835423e-05 -4.4056594e-07 -1.1472572e-01  1.5391155e-05
 -9.4932347e-04 -5.9695211e-03 -6.1843246e-01 -9.1946597e-05
 -1.0108220e-03  1.1165165e-02 -4.5126631e-05  9.6712010e-06
  5.2770174e-06 -8.5812953e-06  1.7834906e-06  2.4006481e-04]
[ 3.21753805e-06  3.67958710e-05 -2.84422345e-06  1.77342663e-04
 -2.94148200e-03  8.54468613e-04 -1.91696799e-05  9.54245697e-05
 -1.59866744e-07 -1.01031281e-01 -4.42608143e-06  9.11851646e-04
 -1.29168984e-05  6.43993408e-05 -7.81215640e-05 -2.82352645e-04
  7.05817074e-04  5.85547742e-03 -4.77389913e-05 -3.75883101e-05
  2.35608243e-03  1.03087288e-04 -1.11126219e-05 -7.54383927e-06
 -7.74118528e-02  2.88246156e-07 -6.36101887e-02 -1.68055078e-04
 -2.53820006e-04 -2.58352514e-03 -3.33041680e-05  9.68651148e-04
 -6.17481535e-04  2.05895863e-03 -8.16269442e-02 -1.21434772e-04
 -8.06406289e-02 -1.06818661e-04 -7.23072480e-06 -4.16024341e-05
  5.33543469e-04  1.56626664e-03 -3.62308510e-02  6.90117522e-05
 -2.09828698e-07 -2.27283439e-04 -1.58786046e-04 -7.97668145e-06
 -2.29730231e-05  2.02843211e-07 -4.35577892e-02  1.08158474e-05
 -2.14070501e-03 -1.53033136e-04 -1.86315015e-01 -3.47119756e-04
 -4.91242157e-04  1.27101745e-02  2.55331797e-05  6.33236550e-06
  5.74172873e-07 -3.67162465e-06  1.15134725e-07  1.82503252e-03]
[ 9.68760560e-06  9.26548601e-05 -9.43964551e-09 -5.83170804e-05
  5.35525731e-04 -7.67393794e-05  1.92664720e-06 -4.93832122e-05
 -1.96172010e-07 -7.54696026e-04  3.63203654e-08  5.50255936e-05
 -3.50164925e-07 -1.10305431e-04 -1.16382551e-04  1.13762479e-04
 -1.63578661e-05  6.20201608e-05  1.63414188e-05  3.98431757e-06
 -6.47662440e-04 -6.42259984e-05  3.27042176e-06  2.16688204e-06
 -3.40402301e-04  4.31327207e-05  3.52958625e-04 -3.43168431e-05
 -3.02883072e-05  4.47016500e-04  1.35892390e-06 -2.19148351e-05
  1.24449914e-04 -5.75657119e-04 -5.10473386e-04  2.30870719e-05
 -7.73248204e-04  2.12009127e-07  2.04303687e-05  4.57761871e-06
 -3.13774945e-06 -5.12848026e-04 -5.62159286e-04 -1.71391730e-06
 -5.32867318e-07  1.19176446e-04 -3.71920207e-04  2.63483207e-06
  7.67172969e-06 -1.29845958e-07 -1.85281679e-04 -1.90010428e-06
  6.59261423e-04 -1.33347104e-03 -1.79094088e-04  1.45234604e-04
  2.40442620e-04 -3.01759865e-04 -1.18437456e-05  3.30200919e-07
 -1.38564360e-06  5.38797110e-07  5.99160273e-07  2.06763390e-04]
[ 3.27362295e-06  3.66472304e-05 -2.84929092e-06  1.77719616e-04
 -2.93090986e-03  8.50275042e-04 -1.91894414e-05  9.45510401e-05
 -1.63883669e-07 -1.01000518e-01 -4.43899489e-06  9.05678316e-04
 -1.29142163e-05  6.42016239e-05 -7.76806992e-05 -2.78650143e-04
  7.02269026e-04  5.84990112e-03 -4.77796821e-05 -3.75826603e-05
  2.34591938e-03  1.03651982e-04 -1.10622350e-05 -7.55359497e-06
 -7.78895319e-02  1.17184754e-07 -6.34225160e-02 -1.67016522e-04
 -2.53418752e-04 -2.57459353e-03 -3.33026401e-05  9.64075094e-04
 -6.14985242e-04  2.05087475e-03 -8.16602781e-02 -1.21874175e-04
 -8.06371346e-02 -1.07104956e-04 -6.83140752e-06 -4.17111696e-05
  5.30950259e-04  1.56251981e-03 -3.61524262e-02  6.92937465e-05
 -2.17041759e-07 -2.28899982e-04 -1.59842020e-04 -7.99185182e-06
 -2.32359671e-05  2.00684525e-07 -4.35385741e-02  1.08318927e-05
 -2.13317340e-03 -1.45821003e-04 -1.94763094e-01 -3.46349989e-04
 -4.92868712e-04  1.27346190e-02  2.52319624e-05  6.35387278e-06
  5.86067472e-07 -3.68675524e-06  1.09313135e-07  1.81550335e-03]
[ 1.83366690e-04  1.34261965e-04 -1.19700962e-05  3.19952582e-04
  1.18598677e-02 -9.44355875e-03 -7.42776392e-05 -2.32944847e-03
 -1.13208007e-05 -5.97046912e-01 -2.71935569e-05 -1.24887954e-02
  5.35374465e-06  1.35104719e-03 -8.71948083e-04 -1.01537618e-03
 -8.33119638e-03  3.10042761e-02 -1.67394566e-04  3.72968971e-05
 -1.14863161e-02  1.74967005e-04  1.47975617e-04 -3.11979747e-05
  1.65654361e-01  3.04213958e-04 -4.10382263e-03  4.08061268e-03
 -8.21010617e-04  1.17353015e-02  2.57937754e-05 -1.01364441e-02
  5.21958619e-03 -1.23004140e-02  5.40907800e-01 -2.00590817e-03
 -4.64215904e-01 -9.14658012e-05  6.09530893e-04 -7.09344051e-04
 -5.61191468e-03 -9.83738620e-03 -1.61759093e-01  8.37345491e-04
 -1.69717168e-05  2.13094568e-03  2.20435765e-03 -3.82749931e-05
 -3.47139983e-04 -1.02148178e-05  3.96898866e-01  8.91281961e-05
  1.06718065e-02  9.18090809e-03  3.49914342e-01  3.50119267e-03
 -6.74189301e-03 -6.24954216e-02 -1.02480233e-03  5.75246268e-05
  7.68383325e-05 -7.41108597e-05  7.25541440e-07 -1.50654791e-02]
[ 3.2872285e-06  3.6588808e-05 -2.8485338e-06  1.7771214e-04
 -2.9335739e-03  8.5114175e-04 -1.9186489e-05  9.4711861e-05
 -1.6269323e-07 -1.0111726e-01 -4.4379440e-06  9.0702501e-04
 -1.2914888e-05  6.4158128e-05 -7.7540251e-05 -2.7902983e-04
  7.0295727e-04  5.8386619e-03 -4.7759600e-05 -3.7625876e-05
