layers 12
layer 0 Dense
26 64
[ 0.23502836  0.02308994 -0.0215752   0.05941376 -0.10835911  0.13008903
  0.03984079 -0.03390258 -0.00796882  0.01688069 -0.02500743 -0.06594004
  0.01970401  0.00809535  0.2450435  -0.30817357  0.03916963 -0.07798052
 -0.03111693  0.04285328 -0.00273194 -0.04915335 -0.11545985  0.00073849
 -0.02561807  0.27956995  0.01010143 -0.0580746  -0.00978574  0.0143112
 -0.04140125  0.00783648 -0.0640178  -0.3539421   0.09173153  0.09044527
  0.03140801 -0.08136825  0.00196866 -0.09268925  0.10188054 -0.06023816
 -0.06481238  0.01882319  0.07372518 -0.05490026  0.03465068 -0.02277739
  0.12143598 -0.01337525 -0.02194645  0.26737484  0.01995082 -0.02210405
  0.01689284  0.00523723 -0.27632985  0.09411297  0.01031793  0.1502004
  0.01107171  0.3211606  -0.2668845  -0.19785187]
[-0.24996221 -0.03690214  0.02134853 -0.05835925  0.10377669 -0.10919918
 -0.05083453  0.03185978  0.00250243  0.00353466  0.0257441   0.06059955
 -0.04945493 -0.01616394 -0.2430255   0.30168122 -0.04600173  0.0930646
  0.03111147 -0.04493213  0.00736772  0.0157523   0.11572831  0.01248617
  0.03257647 -0.2817558  -0.00421111  0.05803384  0.0058738   0.00195682
  0.03408372 -0.00953242  0.05890937  0.3745439  -0.1195563  -0.0856748
 -0.04209202  0.08065205  0.00250687  0.09641448 -0.10209043  0.06008431
  0.10187608 -0.01736543 -0.08020082 -0.00891879 -0.02591055  0.04651882
 -0.12335506  0.01208353  0.02873231 -0.26940206  0.0048809   0.01781069
 -0.01161738 -0.00817885  0.26041865 -0.0978031   0.01469279 -0.14270212
 -0.04372637 -0.32670474  0.28809825  0.1998327 ]
[ 2.49855191e-01 -7.74066299e-02  5.02090678e-02  1.49250016e-01
  4.17648479e-02 -8.36499855e-02  6.37426227e-03  1.13338590e-01
  7.14701414e-02  9.06004086e-02  3.16274852e-01  3.05221587e-01
 -7.24706147e-03  4.32449728e-01  1.60884604e-01 -1.59365550e-01
  5.23319393e-02 -5.56274205e-02 -6.69372082e-03  4.33566988e-01
 -8.31990719e-01  9.65948254e-02 -1.92937687e-01  7.42041990e-02
 -5.33547550e-02 -1.02095149e-01  5.87048493e-02  2.28911310e-01
 -2.31923163e-02 -3.01681086e-02  1.37549952e-01  1.31024003e-01
 -3.84375453e-01  1.40981659e-01 -2.69085765e-01 -1.33840233e-01
 -1.18478863e-02  1.76798720e-02 -7.31320865e-03  7.07259327e-02
  1.57171045e-04  1.10838644e-01  6.36129618e-01 -2.52516210e-01
 -1.18161929e+00  3.62712629e-02 -5.82278483e-02 -2.70950258e-01
  1.12205416e-01  3.38360891e-02  1.34900317e-01  1.15352143e-02
  7.99611732e-02  9.69234109e-03  7.69730210e-02  9.03991535e-02
  4.61967327e-02  1.63700342e-01  9.86305811e-03  1.73965424e-01
 -9.76095617e-01 -1.64674550e-01  1.86742008e-01 -5.62441945e-01]
[ 5.05137164e-03  4.49427578e-04 -8.96955878e-02 -1.09978602e-03
 -6.27005398e-02  6.28430070e-03  4.85012820e-03 -4.06826474e-03
 -4.22082841e-02 -4.12028516e-03 -1.42134607e-01 -1.56171189e-03
  9.12731700e-03  9.38208867e-03 -3.14585026e-03 -1.07078557e-03
  1.65042728e-02  5.85249998e-02  2.32089743e-01 -1.96181261e-03
 -1.04993731e-01  1.32831158e-02 -2.32389197e-03 -7.12303594e-02
  9.78058856e-03  1.62459929e-02 -1.16187744e-01  3.33054690e-03
  5.83334304e-02 -2.95071979e-03 -3.50007578e-03  2.28229538e-03
  3.10201347e-02 -1.92415412e-03 -3.13653261e-03 -1.67931635e-02
  1.26248866e-01  4.81463969e-03  1.98268089e-02  1.06400147e-03
 -6.30266964e-03 -2.86408775e-02  9.33389645e-03  7.27607962e-03
  7.34790191e-02  1.51522097e-03 -1.22121517e-02 -1.65001163e-03
  2.30682679e-02 -7.04894587e-02 -1.99061749e-03  8.50796991e-04
 -3.34069575e-03  8.15378735e-05 -2.68872026e-02 -1.04717061e-01
  1.19027589e-03 -3.31522850e-03  9.43166092e-02  1.33569632e-03
 -2.02179756e-02  4.63593705e-03  1.13106165e-02  1.42274909e-02]
[ 0.09300169 -0.23532103 -0.2786476  -0.14115031  0.03119784 -0.16342925
  0.02865029  0.01892896 -0.15328607 -0.03170231 -0.09612457 -0.19628283
 -0.05326988 -0.15126655 -0.05244473 -0.02423953  0.17283411 -0.07535936
  0.14129503 -0.02309795 -0.01689178 -0.08845852 -0.13982952  0.01935486
 -0.19132468  0.08801823 -0.12345165 -0.06356011 -0.03348983  0.02354885
  0.05251327 -0.06980204 -0.01585667  0.08084151  0.26997077  0.01761404
  0.01056341 -0.13025554 -0.11235623 -0.02740578 -0.02961378  0.04085418
  0.26176718  0.12993233 -0.10205636 -0.02514455 -0.1674356  -0.14508411
  0.01702619  0.0159679  -0.14833683 -0.01290736 -0.03326659  0.06002076
  0.0662028  -0.10609437 -0.09220584 -0.18693219  0.04479703  0.06114493
 -0.03757645  0.03265744 -0.17063598  0.10416079]
[-0.16715348 -0.142268   -0.06407324 -0.13887936  0.09781539 -0.13595103
  0.00721602 -0.04614525  0.02035991  0.15748286  0.06862534 -0.02143993
 -0.01387153  0.09101907  0.0116628  -0.07511574  0.01281121  0.05460685
 -0.07809988 -0.00364117 -0.00515638 -0.07461148 -0.06778178  0.05639495
 -0.13387065 -0.28263247 -0.03028822 -0.05334209 -0.04548287  0.02283801
 -0.10820086  0.02822621  0.14318326  0.05561486 -0.0502733   0.02169315
 -0.02271951 -0.03359644 -0.17339478 -0.03535543 -0.02501635  0.03497396
 -0.12988892 -0.11092309  0.02131081  0.05342234 -0.05945554 -0.17597349
  0.08700237  0.08675323 -0.19164579 -0.15098538 -0.19315487 -0.31568173
  0.0625236  -0.08929996 -0.03477192 -0.03470927  0.2004505  -0.20145226
 -0.05808109 -0.04322612  0.13453105  0.06288916]
[-2.08751023e-01 -8.95228162e-02 -1.24881864e-01 -1.20739169e-01
 -6.69155121e-02 -1.50793761e-01 -4.38906997e-02  7.00815469e-02
  1.21479832e-01 -2.43858352e-01 -1.68900818e-01 -3.22730504e-02
  2.46154770e-01  3.38167325e-02 -4.85011898e-02 -5.79919554e-02
  9.52028856e-02 -1.86062381e-02  3.36079188e-02  1.96817055e-01
 -8.98316950e-02 -3.25595327e-02 -4.27716412e-02  8.43045041e-02
 -1.80575013e-01  1.25577929e-03  1.08130369e-02 -1.07519776e-01
  3.65967659e-04 -3.79793681e-02  5.62517457e-02  1.22370049e-01
  2.63201654e-01 -1.17172889e-01 -1.17792651e-01 -9.46843182e-04
  2.39043131e-01  3.69531624e-02 -2.31557526e-02  5.33493329e-03
 -2.74846107e-01  4.77527035e-03 -2.16422919e-02  3.52240987e-02
  1.90161318e-01 -4.58368286e-02 -9.17466730e-02 -2.67948091e-01
 -7.03190640e-02 -2.51702033e-02 -1.62110925e-01  2.53673736e-02
 -4.03172076e-02 -4.04958308e-01 -9.04441252e-02 -1.39890298e-01
  2.38440111e-02 -1.38493761e-01 -1.76891744e-01 -1.30189419e-01
 -6.80515263e-03  4.43977490e-02  1.02274254e-01 -6.67314306e-02]
[ 0.00642542 -0.21757402 -0.17796709 -0.13301043 -0.03611163 -0.15346257
 -0.01442123 -0.01101235  0.04474359  0.05928619  0.18837248 -0.17194034
  0.02132877  0.04845537  0.04531753 -0.2210771   0.00393509 -0.12138863
 -0.04505704  0.11628932  0.06371608 -0.10568309 -0.16056137 -0.04504436
 -0.19560002  0.20190324  0.18311174  0.02420849  0.13522433  0.3411724
 -0.06704233  0.04493362  0.06352838  0.06347691 -0.1828973  -0.04066368
 -0.00795471 -0.12589316 -0.23519237  0.0561313   0.12858365  0.00564894
 -0.16380358 -0.09916043 -0.06883242  0.03516954 -0.07043786 -0.14412095
  0.0458766   0.40233997 -0.08510812  0.02993961 -0.09610879  0.0581375
  0.17877309 -0.0200013   0.12088764 -0.13197844  0.11251841  0.01206517
  0.03382352 -0.03506164  0.03424159 -0.14177972]
[-4.3356555e-33  1.0374076e-33 -4.7230246e-33  4.6627038e-33
  9.3205406e-34  3.7772336e-33 -5.6363848e-33  2.1676564e-33
  5.7988356e-33 -1.5217792e-33 -2.3086415e-33 -5.0524896e-33
 -9.2513058e-34 -4.2671870e-33 -5.5805654e-33 -8.4818732e-34
  5.3414801e-33 -4.8755017e-33 -4.4732813e-33 -3.3069720e-33
  5.3927199e-34  3.4194194e-34  2.8689354e-33 -2.0734879e-33
 -2.5146263e-33 -2.8514797e-33  3.4530543e-33  5.2739906e-33
  3.3106160e-33 -1.1748464e-33  5.5382770e-33 -2.0950450e-33
 -1.0235911e-33 -3.8335898e-33  4.7901454e-33  1.2652204e-33
  9.2767443e-35 -2.2712777e-33 -4.8691797e-33 -2.7089919e-34
 -1.7664705e-33 -3.5035356e-33  4.3132613e-33  3.9326208e-33
  2.9529524e-33  5.2990088e-33  3.9309354e-33 -1.8873914e-33
 -3.3526355e-33 -4.1125967e-33  4.4211900e-33 -5.4657999e-34
 -1.0429133e-33  3.3868123e-33 -2.7132406e-33 -4.0222926e-33
 -1.3574583e-33  1.1956841e-33  5.3668671e-33 -1.2135929e-33
 -1.9850726e-33 -3.8599355e-33  4.5526375e-33  2.9348246e-33]
[ 2.7339517e-33  2.1847400e-33  1.6234231e-33 -1.9575417e-33
  1.5352397e-34 -3.9865965e-33 -2.2567030e-34  1.6505344e-33
 -3.6698530e-33  8.3613198e-34 -2.9474716e-33 -3.1985238e-33
  2.3598163e-33 -1.9805500e-33  2.6743385e-33 -2.2424109e-33
  1.8475041e-33  7.9177874e-34 -1.6104666e-33  3.5417557e-33
  5.0634493e-33  1.3798516e-33  2.6893658e-35 -2.9483206e-33
  3.8413862e-33 -2.5800577e-33  3.0391966e-33  8.5532202e-34
  1.8087826e-33 -4.5782607e-33 -2.8739522e-33  3.9936109e-33
 -1.6722054e-33  1.1767889e-33  1.1401983e-33 -2.0210820e-33
 -4.0346919e-33  4.3799875e-33  1.2992644e-33  2.5341849e-33
  4.9693555e-34  5.5482136e-33 -2.8135942e-33 -4.4377369e-33
  4.1256575e-33 -4.0689660e-33  1.2497665e-33  3.6370980e-34
  1.9676556e-33 -1.4681013e-33 -8.4581484e-34 -1.2280773e-33
 -4.3903700e-33 -5.6404656e-33  7.4385811e-34 -3.0697247e-33
 -4.2996549e-33 -2.6381561e-33  8.5820675e-34  4.1985995e-35
 -2.9900671e-33  3.6113299e-33  1.9670370e-33  4.8592938e-33]
[ 4.91319904e-36 -3.42426353e-33 -4.78891623e-33 -3.01043920e-33
 -8.79536281e-34 -1.75813290e-33 -4.41815429e-33 -3.10863742e-33
  3.30492882e-33 -1.96642572e-33 -4.28851453e-33 -4.68671141e-33
  4.38351394e-34 -2.55305049e-33  4.20823598e-33 -4.90480895e-34
  3.36046027e-33  1.50959905e-33  3.54498313e-33  6.14044453e-34
  7.58319120e-34  9.22557354e-34 -2.17121594e-33  3.68262544e-33
  7.08276672e-34 -2.09988915e-33  5.67697356e-33 -1.69649732e-33
 -3.39091623e-33  1.32409153e-34 -1.53163167e-33 -2.57937550e-33
  2.53446794e-33  2.58134078e-33  5.28023871e-33  2.57324952e-33
  9.60847980e-34 -4.36985066e-33  3.14028908e-33 -5.67990054e-33
  4.62704515e-34 -4.38664957e-33 -1.57471427e-33  3.75094627e-33
 -4.40951441e-33  2.88245247e-33  3.66365002e-33 -5.37642170e-33
 -3.10705859e-33  4.16842456e-33  1.37631287e-33 -4.04235316e-33
 -3.43491388e-33 -2.46569087e-33 -2.63489483e-33  3.52076721e-33
 -5.13621383e-33  3.25109411e-34 -2.84562791e-33  3.92712716e-33
 -3.06118565e-34 -1.85087500e-33 -1.73630746e-33  5.67191673e-33]
[-0.03079714  0.08970556  0.02775903 -0.03736961  0.27861878  0.05581956
 -0.05928895 -0.00714124  0.05296721 -0.04284592  0.03615103  0.02671455
 -0.02938779  0.0764863   0.13937187 -0.09825145 -0.11512046 -0.02023952
  0.02716492 -0.07555829 -0.08418998  0.03372298  0.14445098  0.02610457
  0.02259541  0.11856953 -0.17833008  0.15086757  0.1757457   0.3248496
  0.02293301  0.09013142  0.04968412 -0.15092905 -0.00905377 -0.139818
 -0.0329758   0.01477749  0.014638   -0.00432076  0.06263064  0.14311154
 -0.12844399 -0.02442374  0.06393591 -0.8321109   0.22900318  0.00375197
  0.20017014 -0.08371822  0.03473363  0.20822221 -0.21434033  0.10767914
  0.0154167  -0.00278355 -0.21363741  0.1530917   0.25289005  0.17535657
  0.05927752  0.07540797  0.00897256  0.07378897]
[ 0.09236928 -0.07855502  0.09036183  0.00463849 -0.02578603 -0.0416382
  0.26627678  0.1773025  -0.11623011 -0.10962305 -0.07313044  0.08224651
  0.07683053 -0.13350825  0.01896917 -0.20434697  0.10267981 -0.06453098
  0.03855726  0.0530977   0.01913993  0.04404528  0.09941875  0.02868974
  0.40771705 -0.17278881  0.01473251  0.1386142   0.20578113  0.05226916
 -0.27945235  0.10347594  0.24116024 -0.17201309 -0.12018653 -0.1557254
  0.08913058 -0.07037912  0.1394613  -0.11409712 -0.08846643  0.15408476
 -0.01406179 -0.21254708  0.21233271  0.05356776 -0.02091144  0.05717169
 -0.04174605  0.02377496 -0.16267443 -0.5260788   0.31036675  0.02133725
  0.03688776 -0.11987845  0.01812975 -0.25559402 -0.09713097  0.44806466
 -0.05414524 -0.02976786  0.04423094  0.14029574]
[-0.08924329 -0.0587545  -0.4332964   0.2442609  -0.07238028  0.21165296
  0.28636158  0.31250608 -0.06770132 -0.8597458  -0.29691043  0.04712864
  0.671316   -0.09374017 -0.14676127 -0.24757111  0.18397833  0.09664591
  0.00582391 -0.06763748 -0.21403967  0.04356628  0.24762462 -0.6504488
  0.17224148 -0.25258404 -0.3133435   0.15738174  0.19174853  0.0503674
 -0.00224157 -0.49387658 -0.12735227 -0.17033468 -0.4617902   0.24558747
  0.4618595   0.03054511 -0.19680214  0.5947821  -0.21485078  0.16745217
 -0.47693095 -0.07709303  0.13271618  0.06760707 -0.23459803 -0.0411437
  0.35853502 -0.04070532 -0.29835182 -0.12202535 -0.12553136 -0.5360797
 -0.24364856 -0.13766563  0.06965458 -0.20632485  0.5645528  -0.08331186
 -0.1827119  -0.19194977 -0.15453292 -0.23467082]
[ 0.00961412  0.02845917 -0.12482728  0.00509624  0.17492417 -0.10588218
 -0.00587081  0.10149577  0.08702293  0.10091103  0.18267341  0.23489308
  0.12249541 -0.04292179  0.0797585  -0.076722   -0.14217894  0.14976099
 -0.03465035 -0.14193167  0.26110914  0.13368009  0.21184456  0.07204674
  0.12112185 -0.00085845  0.29302925  0.18157482  0.04580769 -0.14188465
  0.31646925  0.1753167   0.05637751 -0.02954058  0.06575773  0.36876443
 -0.06329519  0.15010448  0.39759815  0.10427234  0.00666007  0.47377878
 -0.0252087   0.48606664 -0.00329036 -0.23787087  0.09346756 -0.13292678
  0.129277    0.5888988  -0.02968527 -0.00182564 -0.07999934  0.01870275
 -0.12655489  0.49722973  0.12118832 -0.33142436 -0.18489422 -0.1019621
  0.01549793  0.00560322  0.049659    0.04907982]
[ 0.0766964  -0.12094542  0.05181549  0.1499038  -0.06613476 -0.14821346
 -0.14785837 -0.20829946 -0.02397985  0.03448779 -0.08394371 -0.02261975
 -0.00607585  0.34069887  0.31550077  0.2835626  -0.05602778  0.18162462
  0.08256648 -0.16294605 -0.01312187 -0.28738517  0.01822689  0.03542659
  0.25150844 -0.15563163  0.07988373  0.14941636 -0.05394441  0.10340328
  0.12747869 -0.00786249 -0.11606327 -0.1678098   0.22631891 -0.20530741
  0.08522198 -0.14932533  0.01756244  0.10609165  0.0643515   0.37303492
  0.07211432  0.27692488  0.03677817 -0.00662227  0.02720845  0.16123138
 -0.04298324 -0.02116679  0.00445756  0.04334054  0.33626303  0.03379472
  0.0613787   0.11511067  0.01134698  0.08050618 -0.07827991 -0.107601
  0.04665993 -0.10426474  0.08602833  0.12046058]
[-0.03038207 -0.12637359 -0.03975334 -0.1336088   0.01055742  0.03369405
 -0.22183594 -0.07575621  0.00724785  0.11183627  0.0817817   0.10481773
  0.07227983  0.20199712 -0.01837208 -0.10992714 -0.04383067 -0.02862386
 -0.11733016 -0.04188054 -0.02240382  0.14365998 -0.37142974 -0.01297967
 -0.07333494 -0.06457485 -0.03887607 -0.00535378  0.07287582  0.03275764
 -0.24878459 -0.21031353 -0.05328598  0.01635917 -0.11994501  0.05329267
 -0.10751069  0.14188191 -0.00519188 -0.12414325 -0.5022749  -0.05783884
  0.04594635  0.19716968 -0.02579404 -0.00806595  0.07154643  0.04826824
  0.37105972  0.08121542  0.2232554  -0.05336303  0.07717572 -0.10068482
  0.01863494  0.03119605  0.05226303  0.00762165 -0.10024949  0.159871
  0.10508252  0.08817325  0.21361038 -0.10546426]
[-0.05506194  0.18378903  0.01243256 -0.12889057  0.04438125 -0.00334372
  0.02338541  0.00198023 -0.00832468 -0.00882063  0.00359717  0.02898363
  0.03788816  0.14424658  0.02318667  0.0020393   0.01558038  0.07837568
 -0.1552081  -0.00381398 -0.01564993 -0.02338304 -0.04665601 -0.00269455
 -0.04516631  0.04461969  0.00219433 -0.09941734 -0.00336335  0.02666389
  0.00033747 -0.00198256 -0.05952331 -0.01713814  0.01854921  0.00782708
 -0.02679033  0.04310867  0.03178431  0.01617897 -0.07528061  0.06326447
  0.02876693  0.05053043 -0.03055072  0.0356425  -0.06031547 -0.01764723
  0.03292056  0.05828405  0.02773219 -0.04101586 -0.02600441  0.0177404
 -0.01395776  0.05695681 -0.04912125 -0.02402017  0.01281431 -0.05507726
  0.01428824 -0.04452692 -0.05919733  0.02009967]
[ 0.37608242  0.07051582  0.12260284  0.03986184  0.35007894  0.03764872
  0.06929383  0.03360492  0.2796396   0.02284466 -0.01442173  0.01931775
 -0.07403812 -0.01105522  0.148125    0.27362272 -0.18334974  0.03951238
 -0.06719754 -0.12430245 -0.06882078  0.04902171 -0.00358263  0.17576443
  0.02082536 -0.13345553  0.06661647 -0.03347331  0.11414372 -0.25022116
  0.03173303  0.08715618  0.04623901 -0.04924808  0.0546217   0.08989521
 -0.24614358  0.07287722  0.10039831  0.03190181 -0.08594355 -0.12654518
  0.16769828  0.02407495 -0.20096853  0.36061242 -0.06199181  0.10527368
 -0.13539004 -0.1441561   0.00863022  0.10111747  0.15377694 -0.23235196
  0.10735206  0.0795172   0.20437086  0.06513418  0.06876408 -0.04645511
  0.04059004 -0.18431604 -0.07106372 -0.06519111]
[ 0.32787183 -0.08533686 -0.12142108  0.26323286  0.07375138  0.04662929
 -0.25390813  0.10697734  0.04469113  0.10068163 -0.12923911 -0.19163401
 -0.07629531 -0.02302508 -0.33481184 -0.40399972 -0.09624796 -0.25319767
  0.05662469  0.08293093 -0.1014147  -0.02415124  0.15545349 -0.0621784
  0.3059102   0.32115552  0.10632904 -0.02026525  0.28731537 -0.01240314
 -0.42875388 -0.12283895 -0.20448142 -0.3449443  -0.19895688  0.13462679
  0.05207538  0.09600243 -0.09078367  0.11006179  0.07715165 -0.14603344
  0.14593944 -0.28718844 -0.00316843  0.04474905 -0.07436094 -0.09440872
 -0.08854715 -0.02246873  0.13618797 -0.05492042  0.11229393  0.11300531
  0.14067477 -0.04215461 -0.04506043  0.12422209  0.24092974  0.41067794
  0.00057912  0.08901519 -0.08993206  0.11216699]
[ 1.8923116e-01  3.1015477e-01 -3.6430553e-01 -8.0850385e-03
 -4.4205487e-02 -2.0933579e-01 -5.9327501e-01 -5.2863687e-01
  3.6228534e-02 -3.6908165e-01 -1.6619444e-01  2.5444381e-02
  3.8052672e-01  1.0465560e-03 -1.8250989e-02 -3.3337798e-02
  1.2447229e-01 -1.3778742e-01  8.7787367e-02  2.7001172e-01
 -1.5508585e-01  9.5428444e-02  2.4509740e-01 -3.9744312e-01
  5.6825813e-02  1.9579853e-01 -1.4726046e-01  1.8564196e-02
 -1.0228622e-01  4.2582810e-01 -1.5830420e-01 -5.8776349e-01
 -1.5213459e-03  2.7372703e-01  8.7228445e-03  2.1432289e-01
  4.2266297e-01  1.4503734e-01  1.9770615e-02  1.8602736e-01
  6.8054579e-02  1.5898055e-04 -4.1688487e-02  3.8244936e-01
  2.5430310e-01 -6.3844956e-02  2.5160742e-01 -2.7004638e-01
 -2.2351362e-02  4.8150055e-02  2.4334459e-01  2.6891939e-02
  1.5333539e-01  3.8284951e-01 -3.9527524e-01 -6.9474630e-02
  1.9605796e-01 -1.0204559e-01  2.4750663e-01  1.7961705e-01
  1.5198530e-01 -5.1215153e-02 -9.9997960e-02  7.4408099e-02]
[ 2.45220028e-03  9.49239079e-03  3.22678596e-01  3.01064312e-01
 -5.41540384e-01 -2.57828981e-01  1.56053202e-03  2.03853637e-01
  4.06653844e-02 -1.76838785e-01  1.20910823e-01  6.16562702e-02
 -1.23571716e-01  1.51337594e-01  2.20319927e-01  1.01512291e-01
  6.60106773e-03  2.12644652e-01  4.13831733e-02 -1.98452711e-01
  6.49282383e-03 -4.76407632e-03  3.74093913e-02  2.46738940e-01
 -1.75410792e-01 -2.62756803e-04 -4.88598675e-01  8.07074457e-02
 -3.59923065e-01  4.75381583e-01  4.91823077e-01  2.23085314e-01
  1.03123456e-01  1.33912608e-01  5.86586967e-02  4.61089343e-01
 -1.39394715e-01  3.96583855e-01 -7.14933932e-01  1.66158125e-01
 -4.91843782e-02  2.66498246e-04 -3.00043702e-01  4.19592597e-02
 -9.44161713e-02  1.55057654e-01  5.92087284e-02 -6.92716390e-02
  9.00304914e-02 -5.57270683e-02  1.20729282e-01  1.24349974e-01
  4.59747314e-02  4.33351006e-03 -6.28886372e-02  8.16547647e-02
  1.40239134e-01 -1.55030653e-01 -1.35370847e-02 -9.87683460e-02
  8.55704844e-02 -1.13098703e-01 -9.60923433e-02 -1.76621825e-02]
[ 0.01991867  0.11139761 -0.02185821 -0.20200756  0.1117417   0.288452
  0.02152733  0.4588161   0.04505651 -0.369585    0.0192897  -0.24428518
 -0.04500605 -0.05890214  0.21481664 -0.14472237  0.032439   -0.06842626
  0.1682291   0.07851472 -0.02469396  0.15217806  0.03069442 -0.08933444
  0.12213275  0.02614666 -0.05202102  0.09609088  0.08024408 -0.07606728
  0.02543666 -0.06169407  0.19185472 -0.05165674  0.04997696  0.06428979
  0.00635099 -0.02947868  0.03731655 -0.07222544  0.44633543 -0.00200356
 -0.1519419   0.29349563 -0.11061863 -0.03882143 -0.11566525 -0.19798322
 -0.04012631  0.00210312  0.11509722 -0.01548493 -0.08634132 -0.11268192
  0.14411621  0.02979229 -0.15955956  0.31726876  0.00222547 -0.10054576
 -0.01832641 -0.1925052   0.08204569 -0.0511036 ]
[ 0.02268287 -0.01959604  0.0548228  -0.01925686 -0.05333467 -0.14636163
  0.6080837  -0.12534672  0.03127273 -0.33624053  0.02839331  0.06570797
 -0.22121315  0.03581139  0.34893     0.12743454 -0.02579401 -0.07428222
  0.04604955 -0.06706242  0.00678822  0.180481   -0.23056819  0.15525727
 -0.06762907  0.02015556  0.08977518  0.1908004  -0.05814158 -0.22459495
  0.32714427  0.03042844  0.13129498 -0.18308121  0.00127347  0.04075783
 -0.02780656  0.02746945 -0.01041958 -0.40798998 -0.1166112   0.2458758
  0.23389071 -0.05443196  0.04214692 -0.0344005  -0.2616756  -0.00886074
 -0.10021446 -0.01929224  0.18661213 -0.03957854 -0.1459679   0.28298682
 -0.22260356 -0.08031811 -0.14321753  0.3558098  -0.00435655 -0.42020258
  0.08180421  0.02761473  0.14291878  0.02662634]
[ 0.02237012  0.10658895 -0.00654106 -0.00762663  0.02727166 -0.07764798
  0.00630887 -0.05691385 -0.40800378 -0.05632725 -0.104849    0.27253342
 -0.06521922  0.08964896 -0.01733626 -0.03847879 -0.01219766  0.13028964
  0.0679362  -0.0147383   0.07068912  0.1653058   0.05196783  0.04924444
  0.02805617  0.13635726 -0.02578672 -0.2255662  -0.05219281  0.04266359
  0.04809094 -0.04548075 -0.07242443 -0.00943732 -0.00947385 -0.13472295
  0.01469253 -0.04086082 -0.26201767  0.06076023 -0.05479446  0.05797783
  0.05742388 -0.03416492 -0.00365208 -0.0030857   0.0588873   0.12707978
 -0.17252713  0.05316333  0.05858177 -0.11660934  0.11019248 -0.01041885
 -0.02420922 -0.07657093 -0.03132862  0.00563449  0.00287074 -0.03889184
  0.03990851 -0.13329504 -0.20960005 -0.08691985]
[ 0.08871683  0.17999212  0.13638467  0.06082432  0.13617676  0.0555755
  0.00958044  0.01905663  0.17995952 -0.57179916  0.11783542  0.08043047
  0.29424402 -0.0104427   0.16533388  0.09424714  0.6391119   0.01210304
 -0.11996574  0.00978386  0.14604352  0.1493789   0.13174213  0.07103084
  0.00856434  0.06427408  0.25909856  0.05521124  0.04495156  0.03195966
  0.09057289 -0.07975839  0.14534785  0.07467855  0.16087504  0.05853124
 -0.18329103  0.0962363   0.09369387  0.08711476 -0.0883702  -0.08045492
 -0.01628972  0.01439574  0.0983702  -0.08125772  0.13573785  0.09255006
  0.0241763  -0.05550222  0.04040417  0.03437841  0.09556243 -0.08924701
 -0.04818948  0.10731719  0.09191201  0.05344858 -0.03231248 -0.03595518
  0.03091657  0.06033036 -0.05425049 -0.03765697]
[ 0.0443021   0.22584258  0.2191415   0.07689496  0.18643649  0.11378787
  0.02903481  0.07637319  0.3089102  -1.0357145   0.382487    0.15113536
  0.48280442  0.02005303  0.23294853  0.19645707  0.8722991   0.09312787
 -0.5510899   0.08827829  0.2973993   0.20879161  0.15223628  0.06227852
  0.10470616  0.24319693  0.5164028   0.13637926  0.04919668  0.10156337
  0.20045462 -0.32124862  0.38415796  0.15352845  0.3550584   0.17954603
 -0.3010152   0.20816801  0.16173804  0.14935604 -0.29787037 -0.54415953
 -0.05171359  0.08393401  0.23118466 -0.02200205  0.17243984  0.12646541
  0.1339862  -0.02946861  0.0776186  -0.00923602  0.17766303 -0.09011949
 -0.15393092  0.2035662   0.14248586  0.13181488 -0.11698751 -0.01908085
  0.04165853  0.1968425  -0.06963662 -0.12256527]
layer 1 Activation
relu
layer 2 Dense
64 64
[ 9.19269696e-02 -2.91333278e-03 -4.41380925e-02  9.34706181e-02
 -6.35928428e-03 -1.29604042e-01 -2.67172247e-01 -5.96318569e-04
 -4.70781513e-02  2.09847721e-03 -9.36370865e-02 -2.01871246e-03
 -2.60047521e-02  5.60897402e-02 -1.66716799e-03 -4.02257172e-03
  1.65493563e-01  2.00658828e-01 -8.45687464e-03 -2.02581426e-03
 -1.34391248e-01 -3.06003750e-03  1.05133979e-03  1.35067292e-03
 -1.19100569e-03  8.33327621e-02  1.66402676e-03 -4.79841493e-02
 -5.27152009e-02  2.25510180e-01 -5.27343189e-04 -1.46114361e-03
  1.73113689e-01  5.58472332e-03 -2.24089180e-03 -1.49227783e-01
 -6.91892626e-03  1.00246496e-01 -6.47298119e-04  1.75936118e-01
  1.41501034e-04  4.63722683e-02 -3.29568307e-03  5.58711682e-03
 -1.08705729e-03 -7.98913836e-02 -4.64155292e-03 -2.70526763e-02
 -1.12413464e-03  8.84505361e-02  1.13552004e-01 -3.25478576e-02
  6.30880066e-04 -1.85233951e-01  1.88253727e-02 -4.56795096e-03
 -2.36159503e-01 -1.55405290e-02  1.66125715e-01  1.40900373e-01
  8.75613012e-04 -1.84662398e-02 -3.44666233e-03 -7.06249848e-02]
[-4.65267859e-02 -3.67795280e-03 -6.54251426e-02  2.19521504e-02
 -6.14976184e-03 -2.86553856e-02 -3.31113726e-01 -1.44906482e-03
 -2.01615766e-02  3.56131210e-03  4.81763594e-02 -5.67401806e-03
  6.28935546e-02 -1.59161359e-01 -3.82446777e-03 -6.34837849e-03
  1.20892346e-01  7.15273097e-02 -7.94230588e-03  4.03923274e-04
 -1.87762100e-02 -2.71467085e-04 -4.62742901e-04  2.80154706e-03
  3.46476299e-04  1.14367098e-01  3.08908266e-03 -1.80920124e-01
  2.19073482e-02  6.75370321e-02  1.45445706e-03 -1.05020276e-03
 -1.32518589e-01 -7.38999695e-02 -1.75177993e-03 -2.11182330e-03
 -6.61142450e-03 -9.95980948e-03 -4.61373929e-05  2.70775501e-02
  1.14327654e-01 -1.74824551e-01 -4.78397496e-03  3.25927325e-02
 -8.43248446e-04 -9.81701463e-02 -6.29473152e-03 -3.10552656e-03
 -1.94044900e-04 -8.29126593e-03 -7.01641813e-02 -5.98969832e-02
  1.90685771e-03  8.37984532e-02 -2.20390782e-01 -5.18868119e-03
 -2.02239752e-01 -1.96205769e-02  1.77142695e-01 -6.14121370e-02
 -1.04144705e-03 -2.04067174e-02 -4.89616022e-03 -5.88483624e-02]
[-4.9314991e-02 -1.5542625e-03  1.7668402e-02 -4.3525410e-01
 -3.5436373e-04 -4.2831991e-02 -9.1795754e-03  4.6170328e-04
 -6.1094873e-03 -1.5652527e-03  4.9939632e-02  4.7863417e-04
  1.4832620e-01  8.2817127e-04  7.6324516e-04  1.0289426e-04
  1.4991307e-01 -3.1956604e-01 -4.7284435e-04  1.2309530e-03
 -1.3064003e-02 -2.3350188e-04  9.0191944e-04 -2.5797666e-03
  2.4217954e-04 -2.9434416e-01 -1.0820064e-03  4.6814580e-02
  5.5117778e-02 -2.3975266e-02  1.4844899e-03 -3.5622821e-04
  1.0267646e-01  2.0305619e-03 -5.0881458e-04  4.8725847e-03
 -4.6595884e-04 -9.8121084e-02  1.5948291e-03 -2.7832780e-02
  5.9438376e-03  1.3996437e-01 -2.3967766e-03  1.3153075e-01
 -2.2594626e-03 -4.6466101e-02 -1.3171086e-03  6.3747317e-03
  4.6085560e-04  1.1540242e-01 -1.6441324e-01 -4.0170752e-02
 -1.2787033e-04  1.2477808e-01  1.0137806e-01 -7.6226355e-04
  9.3861207e-02 -1.6559738e-03  2.0326343e-01 -1.9035628e-02
 -8.6455990e-04 -9.4817020e-04 -2.0088218e-03 -2.7751148e-02]
[ 6.09075464e-02 -2.84005376e-03  6.53018290e-03  3.49149033e-02
 -1.13863042e-02 -8.52164179e-02 -1.82891756e-01  7.52915003e-05
 -1.41648561e-01 -1.66933611e-03  7.78997988e-02  4.26310115e-04
  9.15781129e-03  8.32586437e-02  1.79536315e-03 -3.01461527e-03
  6.96165413e-02 -1.76646616e-02 -1.43503668e-02  8.60766333e-04
 -2.84409165e-01  1.58518821e-03 -1.75760733e-03 -1.78731827e-03
  5.56585437e-04  1.69227883e-01 -1.32308039e-03 -1.73821136e-01
  9.82688367e-03 -3.12533341e-02 -2.29715035e-04  5.11047605e-04
 -4.81217951e-02  1.18574984e-01 -1.18222390e-03 -5.27675375e-02
 -1.21941082e-02 -8.03325772e-02  1.08312839e-03  1.14949137e-01
 -2.17961073e-02  1.15846314e-01 -3.91960051e-03  1.68367147e-01
 -1.56402821e-03 -9.66586024e-02 -5.42128971e-03 -3.78441326e-02
 -2.92794523e-03  8.81692171e-02  4.66786735e-02 -4.11225371e-02
 -5.46660391e-04 -2.22823322e-02  9.91274267e-02 -7.98832998e-03
  1.07781820e-01 -2.23855395e-02  7.88252726e-02 -7.36098439e-02
  2.45788309e-04 -2.94408165e-02 -3.58543172e-03 -7.54879862e-02]
[-1.1216886e-01  8.0141600e-04 -7.3141485e-02 -2.8062245e-02
 -2.7346381e-03 -2.1026323e-02 -2.4927957e-02  1.3661482e-03
  5.0071124e-02 -1.6252761e-03  1.8353204e-03 -6.8344947e-05
 -1.5398653e-01 -9.0328209e-02  1.4851505e-03 -1.1517219e-03
 -1.5171333e-01  9.6718535e-02 -3.4396828e-03 -1.9481129e-04
  1.0468174e-01  3.6427681e-04 -5.9143355e-04 -1.7995914e-03
 -2.0628680e-04 -1.7594904e-01 -1.4785578e-03 -3.4879327e-01
  1.1762487e-01  2.1293020e-01 -1.2352719e-03  5.3225172e-04
 -2.3782901e-01 -9.9963555e-03  5.5457023e-04 -6.4857207e-02
 -2.7763832e-03  3.2142788e-02  1.4733538e-04  1.7525829e-02
 -1.3115397e-01  5.3850267e-02  5.0682854e-04 -8.9105383e-02
  2.6272889e-04  2.0995019e-01  1.0647879e-04 -3.6812626e-02
 -4.8211834e-04 -1.7245358e-02  6.6191360e-02 -5.0816908e-02
 -9.9188648e-04  3.6074951e-02 -7.0558071e-02 -1.9854533e-03
  2.1548085e-02 -1.0962085e-02 -8.1919037e-02 -1.3396055e-01
  6.2402425e-04 -1.2385469e-02  4.9677771e-04  1.3966343e-01]
[-2.83049848e-02 -2.54850835e-03  5.71954325e-02  8.89190584e-02
 -1.16249844e-02  5.04808165e-02  1.43033487e-03  3.01678735e-03
 -6.78340942e-02 -3.92817613e-03  1.60509825e-01 -3.11646471e-03
  6.62528677e-03 -1.98294044e-01 -4.93085419e-04 -6.66646194e-03
  1.39467949e-02  8.89847893e-03 -1.53386286e-02  8.92947719e-04
  1.45959675e-01  1.81409775e-03 -1.34160754e-03 -1.65094750e-03
 -4.04486246e-03  7.57830516e-02 -6.42847081e-05 -5.26926145e-02
  1.33539751e-01  1.11571383e-02 -3.72833316e-03 -1.32992995e-04
 -1.11337356e-01  1.84879638e-02  1.54730037e-03  4.77176644e-02
 -1.25453779e-02 -1.42201349e-01  3.23382951e-03 -7.23781586e-02
 -8.18661973e-03 -9.87823457e-02 -3.90438992e-03 -2.12652385e-01
 -2.52228347e-03 -2.37940010e-02 -6.72942353e-03 -1.80169847e-03
 -4.75334178e-04 -7.66861811e-02 -7.78315216e-02 -1.22206852e-01
 -3.30429547e-03 -1.08870871e-01 -1.00127250e-01 -8.53407476e-03
  2.07479388e-01 -2.91997120e-02 -5.11200503e-02 -8.76233261e-03
  3.18019022e-03 -3.33118066e-02 -3.80373653e-03 -8.23643729e-02]
[ 6.90767765e-02 -3.85475997e-03 -9.62316841e-02 -1.11828804e-01
 -1.41969230e-02  1.39910132e-01  7.20603317e-02 -8.58208747e-04
 -7.51382858e-02  8.27764045e-04 -6.32066205e-02  6.98614051e-04
  1.10305294e-01  1.42028183e-01  2.44717533e-03 -4.02063783e-03
 -1.74751058e-01  4.12380621e-02 -1.93141513e-02 -2.51177861e-03
 -1.66712716e-01 -2.70310411e-04 -2.41939374e-03 -4.37618524e-04
  2.45007640e-03 -6.97030574e-02 -1.24386593e-03 -9.24532264e-02
 -7.09318146e-02 -3.36864620e-01  2.97533814e-03  5.38617081e-04
  1.67398602e-01  1.85662985e-01 -2.84240139e-03  8.75965282e-02
 -1.57164279e-02 -1.94594994e-01 -1.66064559e-03  1.01106137e-01
 -4.46151607e-02  3.70227471e-02 -5.22723095e-03  4.51986372e-01
 -2.47116247e-03  4.55835834e-05 -7.62453116e-03 -3.34864631e-02
 -3.93427256e-03 -6.12912476e-02 -1.69546083e-01  1.08076587e-01
  2.93857115e-03  3.76265086e-02 -9.64287221e-02 -9.88519937e-03
 -5.27980141e-02 -3.35108303e-02 -5.08734167e-01 -1.83053628e-01
 -1.95089472e-03 -3.76603194e-02 -4.61261161e-03 -1.77850962e-01]
[-2.4883559e-03  1.8753245e-03  1.3094461e-01  2.4098782e-02
  1.0196566e-02 -7.7751838e-02  1.8778159e-01  1.1335571e-03
  5.9760656e-02 -6.8739563e-04  1.3694165e-02  1.2683391e-03
 -1.9712542e-01 -5.3510338e-02 -2.9326158e-03  4.0349304e-03
  1.2658715e-01 -1.6953734e-01  1.1960040e-02 -5.7232915e-03
  4.1661035e-02 -6.0700104e-03  2.5018153e-03  9.4006222e-04
 -1.9129126e-03 -7.9387343e-03  1.9388092e-03  2.1746948e-01
  8.5534528e-02  7.2191760e-02 -8.6584951e-05 -2.9061323e-03
 -1.2914088e-01 -2.2967292e-01  5.3541450e-04 -1.5633045e-01
  1.0658875e-02 -2.1067621e-02 -2.0417823e-03  9.3373396e-03
 -1.0722928e-01  2.6128227e-01  2.6700941e-03  1.2636033e-01
  9.3402941e-04 -1.0756331e-01  5.2932287e-03  3.4329116e-02
  6.1980489e-04  1.5578187e-01 -4.8938632e-01 -1.9959928e-01
  2.4154210e-03  4.7610186e-02  1.3623790e-01  7.4301325e-03
  2.2631076e-01  1.7083874e-02  8.2219474e-04 -4.9905308e-02
 -7.0124224e-07  2.4380343e-02  2.8106954e-03 -7.0415981e-02]
[-9.40701866e-05 -1.26534898e-03 -2.18160860e-02 -4.24909871e-03
 -6.80691050e-03  1.52349863e-02 -7.84393549e-02  2.90199270e-04
 -4.89452444e-02 -1.20966334e-03  2.48147827e-02 -4.98237059e-05
 -1.28320038e-01 -1.44215729e-02  5.22215036e-04 -2.38604494e-03
  1.65987372e-01  1.80514961e-01 -9.75183025e-03  7.20251235e-04
  6.72591245e-03  2.46567256e-03 -8.79105501e-05 -1.54739479e-03
  8.48246913e-04 -1.81168139e-01 -2.01548194e-03  1.40429812e-03
  1.99009222e-03 -1.29400969e-01  5.78802079e-04 -8.40866705e-04
  1.97748512e-01  1.45246118e-01  1.84027955e-03  1.03873210e-02
 -7.66959693e-03  6.30537868e-02  4.63888369e-04 -4.20414237e-03
 -2.39301324e-02 -3.63183990e-02 -1.80151290e-03  8.54732916e-02
 -1.81561813e-03 -5.22344522e-02 -4.11041686e-03 -2.61076372e-02
 -2.68033997e-04 -1.70505628e-01  1.76705798e-05  3.12817246e-02
  2.42073700e-04  5.49463853e-02  1.14679355e-02 -5.27021568e-03
  2.60087829e-02 -1.86536796e-02 -6.13007583e-02  1.71132028e-01
  3.28003836e-04 -2.32598074e-02 -1.30444346e-03  9.67542231e-02]
[-1.08131714e-01  9.76509997e-04 -1.26143396e-01 -6.90636873e-01
 -3.51355615e-04  2.26619206e-02  7.59871304e-01  9.85386199e-04
 -3.40370163e-02 -3.14416434e-03  1.21794775e-01  4.41444456e-04
  2.98497230e-01  4.42498475e-02 -1.79041037e-03 -6.28772250e-05
 -1.09637558e-01 -7.71976560e-02 -1.43327680e-03 -1.35378435e-03
 -6.26757666e-02 -3.80136725e-03  1.90389378e-03 -1.24647934e-03
 -4.16251691e-03 -5.66015661e-01  3.99671088e-04  4.83366009e-03
  1.49600953e-01 -9.74231288e-02 -2.38933740e-03 -1.67019409e-03
  1.82608008e-01 -2.43864022e-02  1.77617907e-03  8.08554236e-03
 -5.85106085e-04 -9.92699862e-02 -2.91579927e-04  9.85278860e-02
  3.93712334e-02  2.69534498e-01  8.83333792e-04 -9.91926715e-03
 -5.99236286e-04 -4.33604866e-02  6.13767013e-04 -1.35264080e-02
  6.46449742e-04  1.04284875e-01 -1.33365132e-02 -4.27027568e-02
 -8.91154283e-04 -2.87150722e-02 -6.03716038e-02  4.54463414e-04
 -3.07415016e-02 -5.23017114e-03  2.64207393e-01 -3.83794419e-02
  2.11637560e-03 -8.01790785e-03  9.99164768e-04 -1.06439851e-01]
[-1.18129425e-01  3.27832159e-03 -7.88805857e-02 -4.69961643e-01
  6.21574977e-03 -1.51823983e-02 -3.17568839e-01 -1.42490331e-04
 -9.40627977e-03 -1.05149602e-03  2.93240021e-03  3.73846246e-03
  6.62390655e-03 -1.24251775e-01  1.45103841e-03  5.37239620e-03
 -4.39641019e-03 -2.05215931e-01  6.48972299e-03 -2.35903962e-03
  2.97699738e-02 -9.51662427e-04  3.00519331e-03 -1.83972577e-03
  4.54647641e-04 -6.16175421e-02 -9.36787517e-04 -1.31889448e-01
 -3.08683254e-02  1.30484551e-01 -5.08184748e-05  5.88905765e-04
  1.31959498e-01 -2.82382295e-02 -2.31847400e-04 -2.62380810e-03
  6.31475216e-03 -2.09156144e-03 -9.78662982e-04 -1.77747533e-01
 -4.58074510e-02 -4.12852690e-02  3.67258978e-03 -4.23267260e-02
 -6.00526168e-04  6.86767623e-02  5.13504166e-03  2.39500776e-02
 -6.44897635e-04  4.00903001e-02 -3.63971032e-02 -4.60897684e-02
  3.45167617e-04 -6.88240584e-03 -2.44842097e-02  5.94328903e-03
  1.40864000e-01  2.17760983e-03 -1.00110188e-01  2.66373158e-03
 -1.54780073e-03  6.59507094e-03  3.64081422e-03 -2.14708578e-02]
[-0.13740256 -0.0034722  -0.05375654  0.01576304 -0.008642   -0.17742328
 -0.08973796  0.00173909 -0.05158694 -0.00131897  0.11000212 -0.00352966
  0.09204867 -0.01944748  0.00182875 -0.00553015 -0.01617294  0.10404251
 -0.00959257  0.00386104 -0.38352156  0.00248628 -0.00421618 -0.00185061
 -0.00294869  0.01515916 -0.00130332 -0.04043267  0.0718017  -0.25889066
 -0.0032777   0.0006007  -0.0166793   0.04184101 -0.00243986  0.03987431
 -0.00878721  0.08194142  0.0033879  -0.01542217  0.07964628 -0.04822697
 -0.00419605 -0.10888401  0.00116763  0.08473509 -0.00561679 -0.03666329
 -0.00337579 -0.06287917 -0.14033675 -0.07648598 -0.00349005 -0.06900741
  0.08358822 -0.00570285 -0.05877505 -0.01704677 -0.06127137 -0.11836489
  0.00228566 -0.01967988 -0.00448508 -0.04117445]
[-8.15668255e-02 -3.78616783e-03 -5.55739664e-02 -4.21556890e-01
 -1.20216236e-02 -5.53596467e-02  1.25370994e-02  1.73041248e-03
 -8.52539316e-02 -3.51856067e-03  2.51402091e-02 -2.05772999e-03
  4.53846790e-02  4.83628735e-02  1.00661803e-03 -5.69959870e-03
 -1.71816990e-01  2.05902100e-01 -1.52353048e-02 -2.21077553e-05
 -7.92514440e-03 -3.60937585e-04 -7.78751913e-04 -1.51544868e-03
 -2.28872662e-03 -4.05653089e-01 -7.23754289e-04 -8.44410062e-02
  7.08263814e-02 -3.42490643e-01 -4.99974750e-03  2.12912331e-04
 -9.18747559e-02  1.68438792e-01  5.27838944e-04 -4.12378693e-03
 -1.29229315e-02 -7.07465410e-02  1.92762120e-03  5.18894382e-02
 -1.20102659e-01 -4.70699295e-02 -4.63762740e-03 -2.82349914e-01
 -2.20104703e-03 -3.32192183e-02 -7.65510788e-03 -4.67908420e-02
  1.09789136e-03 -1.22661784e-01 -6.67779744e-02 -3.64448354e-02
 -3.02617368e-03 -2.29670450e-01 -5.20450249e-02 -1.00305034e-02
 -1.33350402e-01 -3.20400894e-02 -2.27004260e-01 -6.71718121e-02
  3.00443498e-03 -3.92461419e-02 -4.08263225e-03 -1.57321081e-01]
[-4.8702288e-02  4.3236529e-03  6.5731086e-02  1.1842196e-01
  8.3506024e-03 -3.0333069e-01  7.3987611e-02  3.0008954e-04
  2.0920407e-02  2.0787644e-03 -1.1393830e-01  3.2258898e-03
  6.0456511e-02 -2.8477002e-02  1.1684644e-04  5.4725525e-03
  4.4342965e-02 -9.0605974e-02  9.4968844e-03  1.7063214e-03
 -6.9363728e-02  2.5760739e-03  2.2667975e-03  2.4374232e-03
 -2.0249689e-03  1.1788644e-01  1.0410039e-03  7.3629551e-02
 -8.5427109e-03 -8.8455744e-02 -1.9153148e-03 -4.8829935e-04
  6.2111571e-02 -1.4458074e-01 -2.0569498e-03 -6.6931501e-02
  8.7202033e-03 -2.1867648e-02  3.4576724e-04 -9.1752216e-02
 -6.0697567e-02 -5.1386736e-02  3.9832140e-03  2.0730971e-01
  4.6307768e-04  6.9915958e-02  6.0048020e-03  6.0250863e-02
 -1.1686129e-04 -5.6564741e-02  1.1585713e-01  8.1594564e-02
 -6.6880125e-04 -1.3140386e-01  1.4983474e-01  7.0420094e-03
 -3.8044724e-01  1.1857619e-02 -5.7489991e-02  8.6478226e-02
  2.7944148e-03  1.5912680e-02  4.1440534e-03  1.2639673e-01]
[ 1.71488933e-02 -5.82285225e-03  1.10935867e-01  1.90849230e-02
 -1.28341354e-02 -6.58074394e-02 -9.22223926e-02 -3.66452755e-03
 -8.77797380e-02  1.95258856e-03  1.62621453e-01 -4.88855038e-03
  1.73956864e-02 -1.48050562e-01 -1.24839379e-03 -8.05336516e-03
  7.06224665e-02 -1.53121635e-01 -1.48212202e-02 -2.85384012e-03
 -4.49433066e-02 -3.09998682e-03 -7.20274914e-03  1.92397623e-03
  1.41434825e-03  1.79764614e-01  1.66412361e-03  8.59947130e-02
  1.13184474e-01 -2.91897178e-01  1.90972595e-03  1.40823497e-04
 -3.18387806e-01 -5.97162992e-02 -1.72818778e-03  6.68239221e-02
 -1.32732010e-02  5.57574034e-02 -2.26690457e-03  1.21207498e-01
 -7.70991147e-02 -1.67263463e-01 -7.17872800e-03 -4.39759940e-02
  3.99722107e-04  8.57175365e-02 -8.67669564e-03 -3.93605717e-02
  1.01730775e-03  3.28657739e-02 -5.88458367e-02  1.80477500e-01
  2.68674828e-03  1.30144477e-01  6.02748320e-02 -9.79427435e-03
  2.59456020e-02 -1.92720238e-02  1.43304035e-01 -1.36495546e-01
 -9.80968005e-04 -2.64378265e-02 -7.16613838e-03 -4.04457211e-01]
[-3.14710848e-02 -6.91706734e-03  4.83524054e-02  9.74958763e-02
 -1.14426687e-02 -5.05952120e-01  1.30591998e-02  5.04416588e-04
  2.40527764e-02 -5.88407973e-04  9.76885259e-02 -6.70932140e-03
 -1.48510963e-01  4.09534127e-02 -2.16802233e-03 -9.64570418e-03
 -2.25373823e-02 -9.33542028e-02 -1.18464855e-02  3.92616232e-04
  9.62995440e-02 -2.13672244e-03 -6.11588638e-03  2.95882870e-04
 -1.17965078e-03  9.52825043e-03  2.64649210e-03  7.91223422e-02
  2.19976921e-02  7.29748234e-02 -3.04605899e-04 -1.93679181e-04
 -6.66061118e-02  1.49257898e-01  7.36835413e-04  7.47868419e-02
 -1.15767615e-02 -1.52674969e-02 -5.26442833e-04 -1.71657637e-01
  8.48453790e-02  4.94777262e-02 -8.04704521e-03 -1.86810791e-02
  7.04332779e-05 -1.45524099e-01 -1.04063340e-02 -3.23483087e-02
  1.25825370e-03 -1.08929947e-01 -2.64495760e-01 -7.40036443e-02
  3.67902569e-04 -4.44316566e-01 -2.08826214e-01 -1.02561992e-02
  9.82200261e-03 -1.69832576e-02 -1.78307354e-01 -3.81811596e-02
 -9.30698181e-04 -1.75075866e-02 -7.78739480e-03  1.21556237e-01]
[ 1.8199002e-02 -1.6266529e-02 -1.1435725e-01  4.3779281e-01
 -3.8411938e-02 -1.5881516e-01 -1.0252307e-01 -3.9895313e-04
 -6.1694264e-02 -9.1837329e-04  6.2908423e-01 -1.1071598e-02
  7.1054935e-02 -2.7792884e-02 -7.5435208e-04 -2.3096133e-02
 -5.7650357e-02 -1.7562941e-01 -4.4485621e-02  1.1440408e-03
 -8.8469855e-02 -1.1912293e-03 -1.0976864e-02 -2.2171161e-03
 -7.7308458e-04  9.1837454e-01 -1.7713022e-04  2.0982174e-02
  3.8335839e-01 -2.4139814e-01 -1.6468859e-03  3.1073304e-04
 -2.3102370e-01  2.2524722e-02 -1.4844805e-03  3.3232316e-01
 -4.0190130e-02 -1.5027158e-01  2.8501886e-03  8.0173276e-02
 -1.0410508e-01 -1.7741528e-01 -2.1059461e-02 -1.9924197e-01
 -5.0629098e-03  1.3441972e-03 -2.8296893e-02 -9.1988176e-02
 -1.8888250e-03  1.5779305e-01 -1.4028202e-01 -5.8103248e-02
 -9.6410816e-04 -3.8366923e-01 -7.5260177e-02 -3.3340376e-02
  1.0265532e-01 -6.7991748e-02  5.6624819e-02  1.1671029e-01
  7.2224066e-04 -7.8709245e-02 -1.9647494e-02  5.7032961e-02]
[-5.17448261e-02 -1.08832621e-03  1.23953797e-01 -1.31141797e-01
 -2.22477945e-03  2.77663097e-02 -3.28945443e-02  9.74077033e-04
 -3.36708464e-02 -3.15775746e-04  3.37227695e-02  9.43662191e-04
 -1.37290344e-01  7.25261588e-03  7.17899413e-04  5.91709802e-04
 -6.74577579e-02 -2.09047541e-01 -3.54425656e-03  2.94079818e-03
 -1.39346957e-01  2.29057996e-03  1.12895877e-03 -1.20905368e-03
 -2.19372887e-04 -8.49915072e-02 -1.53559819e-03  7.12603778e-02
  7.82297924e-02  8.28521177e-02 -9.99491196e-04  1.02007505e-03
 -6.35975823e-02 -1.46932095e-01 -6.55347249e-05 -1.68975014e-02
 -2.60394206e-03 -6.59692809e-02  2.54078466e-03 -4.70109060e-02
  1.02850325e-01  2.44234838e-02 -1.21389492e-03  4.37048788e-04
 -2.25580134e-03 -3.02421171e-02 -1.43320230e-03  2.12640557e-02
 -4.36027593e-04 -1.65688336e-01 -9.83723179e-02 -7.88769722e-02
 -1.63670036e-03 -2.40664929e-02 -2.66310237e-02 -1.15958392e-03
 -1.95164710e-01 -7.43729062e-03  1.04146689e-01  3.12706977e-02
  3.02516797e-04 -6.95356075e-03 -1.03674724e-03 -7.13226870e-02]
[-0.01600102 -0.00526797 -0.04366268  0.11990224 -0.01308106  0.12419876
  0.13610166  0.00206081 -0.09046873 -0.00202263 -0.00850195 -0.00289902
 -0.19354753 -0.09040138  0.00102201 -0.00640772 -0.00453406  0.18649095
 -0.01583828  0.0043037  -0.14906608  0.00428535 -0.00106724 -0.00204144
 -0.00077542 -0.07592272 -0.00184414 -0.28705776  0.08257632 -0.13348985
 -0.00230976  0.00034638 -0.07143587 -0.02211069  0.00224704 -0.03964271
 -0.01391805 -0.06058996  0.00258495  0.0325175  -0.16190313 -0.00991851
 -0.00659385  0.0395653  -0.00270545  0.10497258 -0.00859107 -0.02723721
  0.00091449 -0.04178053 -0.03294341  0.11493294 -0.00336768 -0.13227427
 -0.13278957 -0.01023268 -0.18538418 -0.02927004 -0.10573855  0.00699386
  0.00083219 -0.03351923 -0.00624032  0.02790632]
[ 4.17765006e-02 -5.01504960e-03 -9.67778116e-02  2.98880130e-01
 -4.63594915e-03 -9.22565465e-04 -1.36466548e-01 -1.03957590e-03
  2.20889486e-02  1.21123344e-03 -1.47475883e-01 -2.36828905e-03
  9.70995426e-02 -8.54769722e-02  1.53407722e-03 -3.01500526e-03
  2.35921666e-02  1.10262811e-01 -5.45156188e-03 -5.72501682e-03
  3.10052261e-02 -5.72839426e-03  1.85995174e-04 -1.01314299e-03
  2.44923448e-03 -2.40829289e-02 -1.43708091e-03 -6.76734522e-02
 -1.06638946e-01  1.63814813e-01  2.78513273e-03 -2.12511932e-03
  2.66146421e-01 -4.28343378e-02 -3.38669331e-03 -9.70090702e-02
 -4.90549579e-03 -7.31446221e-02 -2.46221060e-03  2.29182132e-02
 -1.04997590e-01 -2.43920870e-02 -3.77760315e-03 -2.91177183e-02
 -1.61813479e-03 -3.86159457e-02 -3.93598108e-03 -2.18536779e-02
 -3.14861070e-03  2.01226726e-01  3.66136357e-02 -1.32207602e-01
  3.25571094e-03  2.30535772e-02 -1.05889648e-01 -3.86587111e-03
 -8.96004122e-03 -1.02113429e-02  2.32993960e-02  1.01023637e-01
 -1.27112679e-03 -1.35378782e-02 -3.99761880e-03  6.59023896e-02]
[-1.3388599e-01 -5.9490958e-03  8.9944592e-03 -1.9750865e-01
 -8.8670505e-03  1.3592698e-01 -8.5981926e-03  6.2905898e-04
 -6.2369719e-02  1.5826592e-03  2.2126509e-02 -4.2133988e-03
  4.6057537e-02 -8.0672935e-02 -1.8504013e-03 -6.5356423e-03
 -1.8781127e-01  1.8517019e-01 -1.1657986e-02 -2.9941024e-03
  9.2229173e-02 -1.0945825e-03 -1.5317491e-03  2.0291975e-03
 -1.3742151e-03 -3.0429158e-01  1.2543942e-03  2.2920761e-01
  1.2159942e-01 -1.6907732e-01 -7.0643073e-05 -2.6596980e-03
  8.9541197e-02  1.5659292e-01 -8.3254703e-04 -2.1113651e-02
 -9.5825568e-03  6.5663882e-02 -6.8626198e-04 -7.1059423e-03
 -1.5470615e-01  3.3579268e-02 -7.5841695e-03  1.3301741e-01
 -2.6860235e-03 -5.9575200e-02 -7.8132180e-03 -4.1199334e-02
 -2.2564038e-04  2.2378011e-01  6.0899787e-02 -7.6584861e-02
  1.1727519e-03  2.5173467e-01 -9.8928824e-02 -7.6151923e-03
 -5.1866066e-02 -2.9809969e-02  5.3454336e-02 -2.1568975e-01
  1.5042314e-03 -3.4860604e-02 -7.2044199e-03  1.4515758e-01]
[-0.10834787 -0.00453599 -0.15357083  0.06188081 -0.0108843  -0.02076606
 -0.07411967  0.00180554 -0.01453955 -0.00088338  0.05341414 -0.00449954
 -0.08174811 -0.1647226   0.00025483 -0.00715611 -0.05436113  0.03433813
 -0.01303511  0.00122009 -0.05965722  0.00196703 -0.00266569 -0.00092341
 -0.00294495  0.04377661 -0.00034271  0.06777532 -0.03717382 -0.23508868
 -0.00140015 -0.00027232 -0.03492537 -0.06903764 -0.0018537  -0.05286701
 -0.01149046  0.11237417  0.00296197 -0.03645357  0.06304557 -0.10994261
 -0.00535987 -0.23141663 -0.00196442 -0.00670578 -0.00720053 -0.03479819
 -0.00198411 -0.01439428 -0.0562671  -0.04574499 -0.0012936  -0.23052606
 -0.10513407 -0.00809459 -0.13294932 -0.02533246 -0.06555698 -0.04939418
  0.00220276 -0.02676729 -0.00552937  0.05626135]
[-1.07046887e-01 -2.84773251e-03 -6.86214194e-02  8.56354833e-02
 -1.03665786e-02  1.96904585e-01 -3.36987585e-01 -1.32406212e-03
 -7.92970732e-02  2.31703138e-03  9.93539989e-02 -1.63503655e-03
 -4.37578186e-02  7.17086345e-03 -8.94672412e-04 -4.84275166e-03
 -3.39711122e-02  1.03221968e-01 -1.31262895e-02 -3.36108543e-03
 -9.38162208e-02 -4.33502439e-03 -2.02133972e-03  1.78817136e-03
  1.21180795e-03  1.51163712e-01  1.79160293e-03 -7.33973533e-02
 -1.08985212e-02 -1.49724215e-01  1.64692209e-03  6.23704342e-04
  6.75551817e-02 -9.64731276e-02  1.37835159e-04  1.24355266e-02
 -1.11165866e-02  4.23556454e-02 -2.68467423e-03 -1.70126125e-01
  9.32730362e-02 -1.77717358e-01 -4.62684501e-03 -2.90698837e-02
 -1.55438029e-03 -2.05172271e-01 -6.28893450e-03 -6.45793155e-02
  6.19445229e-04 -3.49665470e-02  3.43611389e-01  9.02266055e-02
  1.47814595e-03  5.97608425e-02 -1.43491998e-01 -8.74811970e-03
 -1.49935633e-02 -2.53116991e-02 -1.08083338e-01 -1.40659735e-01
 -1.51130883e-03 -3.58890705e-02 -4.15729126e-03  5.07354736e-02]
[ 2.8753990e-02 -3.7820204e-03 -7.0648484e-02 -2.7409118e-01
 -4.5924834e-03  6.5348111e-02  3.4899771e-01 -1.6530099e-03
 -5.5408202e-02  1.0191161e-03  2.6172323e-02 -4.0236888e-03
  1.4193420e-01 -7.5471699e-02 -1.1078222e-03 -4.0666056e-03
  8.3603755e-02 -7.3354185e-02 -5.0489586e-03 -1.0601104e-03
 -4.4856541e-02 -1.5389454e-03  4.6530782e-04  1.1766644e-03
  1.0823137e-03 -2.4618782e-01  1.7952441e-03 -2.4425526e-01
  8.5759237e-02  1.4087769e-01  1.6020738e-04 -8.4616285e-04
  4.8417449e-02 -4.5017183e-02 -1.9416832e-03  8.2354201e-03
 -4.8087402e-03 -4.7218923e-02 -1.3334395e-03 -1.6905214e-01
 -1.1688156e-01  1.9506719e-02 -4.4223014e-03 -1.1803460e-02
 -1.6870230e-03  4.1496456e-02 -4.4905706e-03  7.4506067e-03
  6.2150601e-04 -1.6343929e-01 -1.4719255e-01  3.2709822e-02
  9.1533019e-04  6.4147830e-02  2.0099163e-02 -3.7186386e-03
  4.1894786e-02 -7.6783895e-03 -2.1991184e-02  8.4025733e-02
 -8.4878120e-04 -7.5283847e-03 -4.3632789e-03  1.1572325e-01]
[-6.8845846e-02  4.9681813e-03 -1.1178154e-02 -1.2180429e-01
  1.2302340e-02  2.0440115e-01 -6.6556439e-02 -1.5474559e-04
  6.1392695e-02 -1.7873588e-03 -6.8724222e-02  3.2514399e-03
 -2.4744241e-01  7.1961209e-02  9.7699824e-04  7.4196584e-03
 -2.4716018e-03  1.2270122e-01  1.5112332e-02 -1.1300285e-03
 -2.9969666e-02 -2.7632732e-03  3.2962649e-03 -1.1005489e-03
 -1.9820116e-05 -9.0501770e-02  1.1808378e-04 -1.2859383e-01
  8.3779231e-02  7.1229851e-03 -1.1006040e-04  2.4400183e-03
 -1.8618922e-01 -4.8555940e-01  5.8429228e-04 -2.0228569e-01
  1.3033356e-02  4.0368170e-02 -1.7987366e-04  7.2331838e-02
 -1.4409517e-01 -3.0346328e-02  5.8618621e-03 -8.3965756e-02
  1.0112799e-03  7.7456608e-02  8.1556374e-03  1.8564079e-02
  1.4241257e-03 -1.6164318e-02 -1.7539547e-01  2.4914451e-02
  1.2886061e-04  1.5755659e-01  3.5919335e-02  1.0004323e-02
 -1.1307331e-01  2.5053706e-02  9.2086792e-02 -2.1381291e-02
 -5.8151351e-04  3.0501336e-02  5.7808706e-03  1.9854757e-01]
[-1.94706712e-02 -4.03075200e-03 -8.52013230e-02 -2.79615223e-01
 -1.54043902e-02  4.00266089e-02  8.85080025e-02 -1.22851145e-03
  4.13405802e-03  4.28585918e-04  5.89914247e-02 -4.46733460e-03
 -2.23661125e-01 -9.69489813e-02  9.45531414e-04 -8.02506320e-03
 -3.92783480e-03 -2.25581244e-01 -1.79541931e-02  3.79716657e-04
 -1.39724776e-01 -2.49105762e-03 -8.64251517e-03  1.63034347e-05
 -1.89854437e-03 -8.14619064e-02  5.96236205e-04 -7.39422366e-02
  4.55543306e-03  2.28796020e-01 -2.72033177e-03  3.09171691e-03
 -9.49627385e-02 -6.67860061e-02 -2.27193371e-03 -1.18916649e-02
 -1.60117317e-02  6.79997280e-02  5.16665634e-04  1.03922158e-01
  1.22771196e-01 -8.08478612e-03 -5.53611899e-03  4.15518321e-02
  8.02237424e-04  1.52588680e-01 -8.48608278e-03 -4.87417169e-02
 -1.85657502e-03 -1.53543025e-01 -8.64519253e-02 -9.17098075e-02
 -1.63440057e-03 -9.22460854e-02 -1.16385184e-01 -1.11020794e-02
  3.40616889e-02 -2.72778980e-02 -3.47467773e-02  6.22407533e-03
  6.44975342e-04 -3.07580978e-02 -5.60212694e-03 -3.56241912e-01]
[-5.90889342e-02 -5.63362334e-03 -1.06860146e-01 -3.84572446e-01
 -1.30864177e-02  2.13457704e-01 -3.47713739e-01  6.43536623e-04
 -6.18468449e-02 -8.64925794e-04 -3.67427245e-02 -5.03648864e-03
 -1.94787204e-01 -2.17198003e-02 -1.78943924e-03 -8.40415061e-03
 -5.23977950e-02  2.06440479e-01 -1.43661164e-02 -4.55539004e-04
 -2.64644753e-02  4.60883835e-04 -5.59744751e-03 -2.79049491e-05
 -3.03593162e-03 -2.29264006e-01  1.83030919e-04  1.77948959e-02
  1.31447107e-01 -1.19612925e-01 -3.39321070e-03 -3.41013190e-03
  1.05668738e-01  1.24110594e-01 -3.76163539e-03 -7.56362304e-02
 -1.34667037e-02  4.67113480e-02  2.35684961e-03  1.33444697e-01
 -5.92940487e-02 -7.87699744e-02 -7.34099792e-03 -9.80391633e-03
  1.32797824e-04  2.06131533e-01 -9.32976790e-03 -4.97076288e-02
 -1.64451159e-03  9.84903648e-02  1.04957800e-02  6.55724630e-02
 -1.42991822e-03 -1.69967517e-01 -4.29654829e-02 -1.16797118e-02
  1.94184873e-02 -2.35251337e-02 -1.67065695e-01  5.97491674e-02
  3.69846285e-03 -3.13107818e-02 -6.75916020e-03  9.76353288e-02]
[-1.16374664e-01 -4.69182094e-04 -5.50465425e-03  8.20282623e-02
  1.43566472e-03 -1.39180526e-01 -1.16071448e-01  1.67005885e-04
 -5.31715788e-02 -1.97854801e-03  2.37014610e-02  8.78567924e-04
  4.37049419e-02 -3.54365557e-02  3.63328436e-04  7.89311831e-04
 -1.16663679e-01 -1.64029617e-02  1.54284574e-03 -4.51111409e-04
  3.03554405e-02  1.95031031e-03  2.05712114e-03 -1.03598356e-03
  7.02640042e-04  1.30914360e-01 -1.89828046e-03 -6.39188811e-02
  8.52928404e-03 -1.00054704e-01 -8.03310541e-04 -1.32123812e-03
  1.55938625e-01 -2.13692471e-01  1.03841000e-03 -1.32015049e-02
  1.44018780e-03 -1.41986549e-01 -3.28535418e-04 -1.44075498e-01
  2.28635576e-02  7.70676509e-02  3.71302420e-04 -1.15062043e-01
 -7.45822617e-04  2.96096392e-02  2.86863127e-04 -4.95598130e-02
 -1.58368217e-04  3.00172009e-02 -1.77564293e-01  1.17538385e-01
 -8.05227784e-04  1.02115525e-02  5.34000136e-02 -4.80764516e-04
  1.01742297e-01 -1.79221795e-04 -1.25378191e-01 -8.65076706e-02
 -4.08134438e-05 -5.29580144e-03  5.49276534e-04  5.63664064e-02]
[-3.9478280e-03  1.7040508e-03 -7.2667778e-02  8.3032086e-02
  9.2476490e-04 -2.4451976e-01  2.2840485e-02  4.6351538e-03
  3.9433196e-02 -5.0339554e-03  8.1096468e-03  2.4510128e-04
  1.0360399e-01  6.8846126e-03  2.0321875e-03 -7.8689773e-06
  4.7002293e-02 -9.5920332e-02  2.0380758e-03  3.8295900e-03
 -1.0789191e-01  5.2727396e-03  3.2740337e-04 -4.1850884e-03
 -3.2983199e-03  1.7638698e-01 -2.4221030e-03  2.5689042e-01
  1.6740659e-02 -1.2400496e-01 -3.0812465e-03  4.5803879e-04
  4.2864930e-02 -7.1752571e-02  1.4442189e-03 -1.8264756e-02
  1.2331746e-03 -3.6778279e-02  4.7231149e-03 -7.2309054e-03
  8.8928500e-03 -3.5673101e-02  8.2081737e-04 -2.6419936e-02
 -3.4490722e-04  3.1189105e-02  5.8364449e-04  1.9032357e-02
 -1.8286145e-03  1.2738873e-01 -1.1995660e-01 -8.1880756e-02
 -3.6593282e-03  1.0731957e-01 -3.2456711e-02  5.9937919e-04
 -1.0899778e-01  2.6800944e-03 -1.4136472e-01  2.6110290e-02
  3.3485517e-03  7.9342145e-03  1.1053683e-03  1.1608409e-01]
[-1.19696259e-01  3.51575378e-04 -3.73159605e-03  1.11228034e-01
 -2.88440101e-03  1.30673721e-01 -1.95371926e-01 -3.18879960e-03
 -9.00589302e-03  1.72669766e-03  1.79940745e-01  6.14878023e-04
  1.15820929e-01 -9.46534351e-02 -1.00670510e-03  2.74726015e-04
 -1.34117454e-01 -1.17962323e-01 -4.33499366e-03 -3.43361957e-04
  1.29714400e-01 -3.99526116e-03 -8.86914437e-04  2.02320982e-03
 -2.60169996e-04  1.77812681e-01  2.06654682e-03 -3.22851270e-01
  1.63860116e-02  7.89281428e-02  1.55228318e-03 -1.43512280e-03
 -1.84344247e-01 -2.03799054e-01  4.94919484e-04  5.64384386e-02
 -3.17719998e-03 -5.06378077e-02 -2.76178820e-03 -1.42098621e-01
  5.89559525e-02 -3.34379748e-02  5.45320334e-04 -1.85681716e-01
  5.81797387e-04  9.00800060e-03 -2.49501085e-04 -4.06652763e-02
  1.44709647e-03  1.17843449e-01 -2.49448791e-01 -4.52496037e-02
  2.42581987e-03  6.36297837e-02 -1.67403355e-01 -1.40413397e-03
  8.16425979e-02 -8.99227709e-03 -6.40429929e-03 -3.90429571e-02
  7.93699757e-04 -1.35909840e-02  4.13866015e-04 -2.65707523e-01]
[-6.64000288e-02 -8.54180381e-03  1.23611286e-01  2.11119466e-02
 -1.88606661e-02 -2.57285535e-01  1.23312421e-01 -3.03920358e-04
 -6.00511096e-02  5.91573538e-04  6.85347095e-02 -5.80187608e-03
 -1.21680506e-01  1.12716101e-01 -1.78519334e-03 -1.10469069e-02
 -4.47085612e-02 -1.49988160e-01 -2.29915567e-02 -3.52573721e-03
 -9.15968046e-03 -4.52149613e-03 -3.71741620e-03  1.03552855e-04
  1.70964177e-03  8.93530548e-02  1.49483385e-03  1.74671069e-01
  4.02185246e-02 -1.15518197e-01  1.76524743e-03 -7.24757381e-04
  1.13035887e-01 -2.91915685e-01  1.97271677e-03  5.95688298e-02
 -2.00349670e-02  1.81174558e-02 -2.56430497e-03 -3.52730453e-02
  1.60560638e-01  3.56820896e-02 -1.05984211e-02 -1.79986373e-01
 -2.05836119e-03 -5.03929108e-02 -1.42370639e-02 -6.79949299e-02
 -4.00207355e-04  2.44400978e-01 -5.26913643e-01 -6.93018287e-02
  1.56216789e-03 -2.44553044e-01  9.90933105e-02 -1.51629420e-02
 -1.12350397e-01 -3.79270501e-02 -7.35423807e-03 -8.10781121e-02
 -2.78430223e-03 -4.73825894e-02 -1.01444423e-02 -5.08684553e-02]
[ 1.2092451e-01 -6.1582578e-03  2.2131433e-01  2.0575342e-01
 -1.0073399e-02 -2.3033172e-01  4.0489444e-01  3.8087880e-04
 -1.2667176e-01 -2.0865742e-03  2.6350599e-02 -6.7361803e-03
 -8.9906320e-02 -2.8209955e-02  3.9971466e-04 -8.1408890e-03
 -1.2780404e-01 -3.5738569e-02 -1.2892875e-02  1.8182396e-03
 -6.8475939e-02  2.1255070e-03 -9.8873058e-04 -2.9844430e-04
 -2.9602486e-03  2.3323955e-02 -1.0348322e-03 -1.8030220e-01
  1.9413315e-02 -1.4346515e-02 -4.0245177e-03 -7.0922228e-04
 -1.3803522e-01  3.9909145e-01  6.4407483e-05 -1.2251668e-02
 -1.0907455e-02 -1.3025746e-01  1.4631478e-03 -8.2763225e-02
 -1.7013900e-01  1.8262793e-01 -7.2424840e-03  2.1874596e-01
 -1.2077056e-03 -9.5901921e-02 -9.2629800e-03 -2.1583682e-02
  7.5893116e-04 -6.5095380e-02 -2.1021463e-02 -8.0278456e-02
 -2.8852597e-03 -2.1540638e-02  1.8340431e-01 -7.4520214e-03
  6.5916702e-02 -2.5676958e-02  1.7294188e-01 -1.8229870e-02
  3.5062279e-03 -3.0874578e-02 -7.2568562e-03 -5.8143780e-02]
[-3.0145950e-03 -7.0293392e-03 -3.1569356e-03 -3.4896320e-01
 -9.3144095e-03 -1.5502876e-02 -3.4630500e-02 -2.0521702e-03
 -3.3031855e-02  3.2273349e-03  7.2111540e-02 -7.2539840e-03
 -1.2703437e-01 -2.5397292e-01 -1.8070503e-03 -8.7130694e-03
 -1.2378253e-01 -1.8073186e-01 -1.0674622e-02 -1.6908431e-03
 -6.5042809e-02 -2.5578919e-03 -3.8948078e-03  1.2305222e-03
  2.4583121e-03 -3.9581776e-02  1.6544827e-03 -9.9457316e-02
  6.1792176e-02  1.3564213e-02  3.4461138e-03 -6.0401781e-04
 -1.3033412e-01 -1.6459160e-01 -1.7923162e-03  7.0343129e-02
 -9.6434476e-03 -1.4213295e-01 -1.1522666e-03 -9.9832535e-02
 -1.6586075e-02 -1.5216132e-01 -7.4876631e-03  6.3999131e-02
  7.2419549e-05 -1.3834256e-01 -8.7461509e-03 -4.6922285e-02
 -3.0500445e-05 -2.3503308e-01  5.5527449e-02  6.4392246e-02
  3.0717799e-03  1.4886179e-02 -2.4727905e-02 -9.1019170e-03
 -9.4306834e-02 -2.2573858e-02 -3.2402411e-02  1.4306526e-01
 -2.1562940e-03 -3.0639784e-02 -7.3696319e-03 -6.4871967e-02]
[-7.81495646e-02 -4.71419655e-03 -1.82728972e-02 -1.12016380e-01
 -1.62231456e-02 -4.66722667e-01 -1.88287906e-02 -3.12700588e-03
  4.06698510e-02  2.99364515e-03  1.51052281e-01 -5.36114816e-03
  4.55379263e-02 -8.42020437e-02 -2.84105749e-03 -1.00436956e-02
 -3.34011853e-01 -1.47351250e-01 -1.93238128e-02 -2.04913435e-03
  1.17019281e-01 -2.52995081e-03 -5.06975269e-03  2.37120385e-03
  2.01118854e-03 -9.30780545e-03  2.77200388e-03  9.66643095e-02
  7.52620995e-02 -1.17433734e-01  2.71776109e-03  2.17780398e-04
 -8.22747722e-02 -1.59116257e-02  1.22749654e-03  1.17476448e-01
 -1.69269778e-02 -2.72649765e-01 -2.64129229e-03 -1.77632630e-01
 -1.83134485e-04  9.47787892e-03 -6.88346708e-03  4.46645953e-02
 -5.51123696e-04 -2.03668445e-01 -1.09563088e-02 -5.68534061e-02
  1.12627260e-03 -5.14214374e-02  3.25036496e-02 -1.20950058e-01
  2.75866687e-03 -2.21116677e-01 -1.67074502e-02 -1.27609260e-02
 -1.97938010e-02 -3.14162783e-02  5.69405332e-02  1.13157468e-04
 -2.61160731e-03 -3.58246937e-02 -6.62909169e-03  2.18137383e-01]
[ 5.95906340e-02 -2.61050323e-03  2.35715304e-02  2.29849815e-01
 -1.38217965e-02 -5.17570861e-02  3.82417291e-02 -1.28514820e-03
 -2.21398827e-02  1.70832104e-03  1.23671405e-01 -1.69856322e-03
 -1.65225208e-01  6.37089135e-04  7.28471437e-04 -5.86104020e-03
 -1.05180189e-01 -5.77007607e-03 -1.61710437e-02  1.56919676e-04
  7.83972293e-02 -2.17298861e-03 -4.07962082e-03  5.25860174e-04
  2.12866138e-03 -2.19545402e-02  5.20366128e-04 -1.26995489e-01
  4.60461751e-02  5.29459044e-02  4.66601981e-04  3.66186583e-03
 -4.13809121e-01  9.78836268e-02  1.43118773e-03  8.61677006e-02
 -1.43715255e-02  9.78848785e-02 -1.10258127e-03 -1.90949868e-02
 -1.37324214e-01 -2.18162730e-01 -3.52798868e-03 -1.24797307e-01
 -4.54008434e-04 -1.02064319e-01 -6.43956242e-03 -7.43686482e-02
 -5.49303440e-05 -2.47101516e-01  2.37037212e-01 -8.67706165e-02
  6.08859227e-05 -7.08034402e-03 -2.65805125e-01 -1.08747352e-02
  6.98065087e-02 -2.32895501e-02 -8.94806832e-02  4.32509184e-02
 -2.14925827e-03 -3.01445518e-02 -3.63577483e-03 -1.18554890e-01]
[-2.1292923e-02 -2.3872124e-03 -7.3806278e-02  5.9390802e-02
 -6.3358536e-03  3.0413893e-01  9.8277973e-03  1.4204053e-04
 -3.0558402e-02 -1.5587899e-05 -4.3107484e-02 -2.1351629e-03
 -4.4817965e-02 -1.3606630e-01 -8.0055447e-04 -4.1089510e-03
 -1.4659694e-03 -3.7158422e-02 -8.4611578e-03 -3.2113465e-03
  1.5620505e-02 -9.2468050e-04 -1.2021284e-03 -7.7772251e-04
 -1.7910525e-04  4.5920234e-02 -1.7360053e-05  1.0053324e-01
 -4.0982649e-02  2.0414498e-01  1.2891962e-03 -1.2718047e-03
  2.6209855e-01  4.3169376e-03 -1.9291503e-04 -1.3204698e-01
 -6.9259950e-03  8.3269253e-02 -9.4251161e-05  8.3710797e-02
  6.5559752e-02 -1.6096528e-01 -3.2760473e-03  6.6970162e-02
 -2.2721540e-03 -5.0508346e-02 -5.3607770e-03 -2.1040039e-02
 -8.8804343e-04  9.8496899e-02 -1.2666926e-01  7.1244732e-02
  1.2886219e-03  2.4115278e-01 -1.5665269e-01 -4.9055894e-03
 -2.6956797e-01 -2.4297722e-02  2.7400658e-01 -1.3145313e-01
  7.0491072e-04 -2.7116245e-02 -3.3130455e-03 -8.7890103e-02]
[ 2.87127644e-02  1.19140302e-03  3.35095217e-03  1.77683346e-02
  1.16476007e-02 -7.01177791e-02 -4.24942285e-01 -2.36090412e-03
  9.21869278e-03  1.29762886e-03 -4.67845239e-03  1.68771879e-03
  5.54272868e-02  2.16748733e-02 -1.20417646e-03  5.38156461e-03
 -2.97992267e-02  4.30225581e-02  1.43313594e-02 -2.54812045e-03
  6.22865111e-02 -4.34426730e-03  1.08281733e-03 -4.95522632e-04
  3.64999287e-03  2.15982810e-01 -7.62044292e-05 -1.24880113e-01
  3.27052316e-03 -9.95052159e-02  6.16123667e-03 -1.50700135e-03
 -1.04387313e-01 -2.01162606e-01  1.26720173e-03 -8.10640529e-02
  1.22919995e-02  6.09022304e-02 -3.96974245e-03  8.97913277e-02
 -5.53168766e-02 -3.32326852e-02  2.25830148e-03 -1.04072295e-01
  9.98139731e-04  1.17587164e-01  4.80416557e-03  5.74255027e-02
  1.19520002e-03 -1.58922687e-01  7.15070367e-02  9.52574164e-02
  4.58874833e-03 -1.17130473e-01 -1.54711306e-01  9.33697633e-03
 -1.14531226e-01  2.12113317e-02 -1.68813542e-01 -5.42060174e-02
 -4.46772017e-03  2.88443603e-02  1.97395938e-03 -6.18914254e-02]
[-7.1980312e-02 -4.6322830e-03 -1.0548810e-01 -1.3653152e-01
 -9.5654922e-03  1.3814842e-02 -2.1317890e-02  6.6988252e-04
 -4.7361810e-02  9.0845911e-05  1.0522449e-01 -3.5267160e-03
 -1.0628631e-01 -9.9393733e-02  6.5706880e-04 -6.7590554e-03
  1.1191435e-01 -2.7829531e-01 -1.1121344e-02  1.3667415e-03
 -1.3813795e-01  3.3559548e-03 -1.5228741e-03 -7.1362877e-04
  3.7391734e-04  1.1676960e-01 -1.4779576e-03  1.2281698e-01
  4.9863491e-02  3.0493906e-02  3.6585476e-05  3.1740364e-04
  2.3373863e-01 -1.9173680e-01 -1.2745599e-03  7.5911749e-03
 -1.0099918e-02 -2.1386072e-02  1.8164946e-03 -1.2112352e-02
  7.4246079e-02 -6.4701997e-02 -6.1190459e-03  3.3396915e-02
 -2.9062468e-03  4.4925664e-02 -8.2522016e-03 -2.6567388e-02
 -1.3154754e-03  2.1190370e-02  2.5727311e-02  2.5730804e-02
 -3.8850456e-04  4.4995621e-02 -7.6589905e-02 -8.6449692e-03
 -5.8470845e-02 -2.2969024e-02  1.7537664e-01 -6.0458764e-02
  8.3488179e-05 -2.5381440e-02 -5.8029979e-03 -4.9175333e-02]
[-1.04107708e-02 -3.16470163e-03 -1.41905859e-01  1.04475394e-01
 -1.64096151e-02  5.41116633e-02  7.13780671e-02  2.05182540e-03
 -7.06641451e-02 -2.85602943e-03  1.64580762e-01 -9.83258942e-04
  1.14356942e-01  9.34562162e-02  1.48449757e-03 -6.89010182e-03
 -1.43996969e-01 -3.69293205e-02 -2.06035040e-02  5.50661236e-03
 -8.93005170e-03  7.75421504e-03 -1.35346048e-03 -3.55710811e-03
 -1.27029303e-03  3.21458429e-01 -3.53878061e-03 -2.60683000e-01
 -8.71114060e-03  1.18335919e-03 -1.15890219e-03  4.06031671e-04
 -4.38745558e-01  1.06546536e-01  1.72038213e-03  7.65040815e-02
 -1.75769981e-02 -2.91335225e-01  4.25134227e-03  7.68983318e-03
 -1.90993249e-01  1.45171192e-02 -5.36836265e-03 -2.22081780e-01
 -4.34357347e-03 -4.68506776e-02 -9.19172727e-03 -4.50593904e-02
 -1.42527057e-03  2.83348054e-01  1.62470862e-01  3.27609107e-02
 -2.11439305e-03 -2.44456768e-01  3.67487408e-02 -1.37054892e-02
 -5.59506528e-02 -3.45799513e-02  6.53258830e-05  9.90475640e-02
  1.86034036e-03 -4.39415686e-02 -4.49320488e-03 -7.89613277e-02]
[ 9.04366840e-03  3.81455931e-04  9.08109695e-02  9.91976634e-02
 -7.97430705e-03  8.03735405e-02 -2.14938536e-01 -3.11112875e-04
 -3.69005874e-02  7.82079354e-04  1.36211012e-02 -3.21092841e-04
  7.64775872e-02  7.35199377e-02 -8.96705664e-04 -2.33902549e-03
  1.78062972e-02  2.32511401e-01 -1.01308823e-02  7.20450655e-04
  5.04471250e-02 -2.06249417e-04 -7.78900809e-04  2.03041919e-03
 -2.93058052e-04  1.14347316e-01  2.30694190e-03 -1.67658791e-01
  1.74972098e-02  1.94464698e-01 -5.46206429e-04  1.41345616e-03
  5.85717633e-02 -1.87960967e-01 -9.29447357e-04 -1.37582228e-01
 -8.47502239e-03  1.09574355e-01 -1.05105527e-03  1.03210635e-01
  3.09669748e-02 -1.00649334e-01 -8.86258145e-04  5.29793128e-02
 -3.70593567e-04 -1.22053377e-01 -1.90432288e-03 -3.08545418e-02
  7.88080215e-04  1.21356383e-01  9.82339084e-02 -9.06371549e-02
 -5.28675446e-04 -2.62069196e-01  3.70326079e-02 -4.69405903e-03
  1.55064687e-01 -1.80083588e-02  3.69482696e-01  7.14383200e-02
 -5.58734522e-04 -2.31675413e-02 -9.60174308e-04  1.24393545e-01]
[ 0.01866872 -0.00579815  0.06004636  0.00332538 -0.00161403  0.16748425
 -0.01431401 -0.00279157  0.01688954  0.00167294 -0.06834494 -0.00795517
 -0.14371918 -0.00272111 -0.00311129 -0.00583733  0.06064498  0.23203191
 -0.00162766 -0.00589962  0.07932245 -0.00956899 -0.00447059  0.00230788
 -0.00086757 -0.01381149  0.0029491  -0.12924078  0.05930375  0.29933906
  0.00215729 -0.00126086  0.34725896 -0.43726254 -0.00211661 -0.07685599
 -0.00152403 -0.13121916 -0.0039186  -0.090894   -0.04947337  0.02912256
 -0.00353537  0.04485575  0.00248935  0.08541929 -0.0052704  -0.00054118
 -0.00057945  0.10880152  0.0553907   0.04405731  0.00402997  0.0364703
 -0.15934601 -0.00181211  0.1310407  -0.0028689   0.03247209  0.06028624
 -0.00172193  0.00079281 -0.00472415  0.0557414 ]
[-3.99566106e-02  6.17184618e-04  9.14963558e-02  1.01051822e-01
  1.45120092e-03  2.47924566e-01  1.16652146e-01 -2.63712695e-03
 -5.99184670e-02  5.09546418e-03 -7.78277665e-02 -1.84930011e-03
 -2.48248771e-01  1.48705123e-02 -3.47558223e-03 -4.93718835e-04
  9.67626050e-02  1.92308590e-01  4.94347420e-04  2.49983277e-03
 -8.52648392e-02  3.70382611e-03  4.62991738e-04  4.46921401e-03
  2.23014876e-03 -1.26012629e-02  2.98809074e-03 -9.64679420e-02
  7.20332935e-02 -6.94017038e-02  3.71327857e-03 -2.73663923e-03
  1.88025340e-01  6.76200092e-02  1.35075487e-03 -7.96816126e-02
  1.16431993e-03  2.28327233e-02 -2.24982575e-03 -1.97006240e-02
 -2.11664159e-02 -9.54860374e-02  2.90158729e-04 -4.27517928e-02
  3.87878274e-04  1.00127771e-01  1.33477675e-03 -2.14864034e-02
  2.82355561e-03  3.64578605e-01  6.01238720e-02  1.44196942e-01
  2.65383325e-03  7.77607262e-02  1.51410252e-01  1.91543670e-03
 -1.87455378e-02 -1.81704410e-03  2.45862126e-01 -1.15090989e-01
 -1.81575364e-03 -4.96901106e-03 -1.71594089e-04  1.12368762e-01]
[-8.6849993e-03 -1.7345840e-03 -2.6273417e-01  1.5701182e-01
 -4.4525270e-03 -3.1370636e-02  2.7077538e-01 -2.4756645e-03
  2.8264545e-02  4.0349402e-03  1.7074889e-01 -3.0705538e-03
  1.5817060e-01 -4.5289282e-02 -4.0832916e-03 -4.0028109e-03
 -2.8744686e-01 -3.7500471e-02 -5.6203953e-03 -1.9616343e-03
 -1.2433021e-01 -2.2312826e-03 -1.3089792e-03  4.8060613e-03
  7.7889400e-04 -4.9411144e-02  5.6296210e-03 -2.7911827e-01
  9.2853017e-02 -5.4921437e-02  3.0012103e-03 -8.5666898e-04
 -3.7379640e-01  1.3596377e-01  9.5077186e-05  8.9284897e-02
 -4.8065409e-03 -9.6805669e-02 -3.1658169e-03 -4.4139527e-02
 -1.9385391e-01 -8.7665908e-02 -3.0064681e-03 -3.7910435e-01
 -8.7141857e-04 -2.6445977e-02 -4.0334258e-03 -1.1997587e-02
  4.0289168e-03 -1.3164163e-01 -1.6939317e-01 -1.1060633e-01
  4.2348891e-03 -7.4241823e-03 -1.1929863e-01 -4.7565550e-03
 -1.7881744e-01 -9.1306958e-03 -2.5723016e-01 -1.3706972e-01
 -1.7950626e-03 -1.0011439e-02 -2.7075547e-03 -7.2558910e-02]
[-7.8408264e-02  1.0809168e-03 -1.7177974e-01 -8.4188275e-02
  3.4691333e-03  1.5230949e-01 -2.3094297e-03 -9.0938185e-05
  6.6898257e-02 -1.4143371e-03 -6.5314449e-02  2.9498504e-03
 -5.3203221e-02 -3.3851687e-02 -4.4000128e-04  4.0491633e-03
 -1.0360489e-01 -3.9970186e-02  2.9276977e-03 -2.5409590e-03
 -7.6876588e-02 -3.2475744e-03  8.9151150e-04 -1.2444056e-03
  3.3900607e-05 -9.2594758e-02 -1.1306390e-03  2.1536971e-02
  1.3025659e-01 -3.7039834e-01  7.0535461e-04 -5.5411551e-04
  1.9649403e-01 -2.1228698e-01  2.1008439e-03 -1.0900432e-01
  3.3377879e-03  1.2347049e-01 -1.2609909e-03 -6.8080530e-02
  1.5089069e-01  1.7411816e-01  1.6418436e-03 -1.5117037e-01
 -3.6803013e-04  1.4997397e-02  3.0890726e-03 -4.7452372e-02
  2.9315022e-04 -4.8439935e-02 -2.6749063e-01 -5.2994784e-02
  8.5826905e-04  2.5648132e-01 -1.3275690e-01  3.5501220e-03
 -1.3242911e-01 -2.8907575e-04 -2.2307488e-01 -4.3022867e-02
 -3.5182748e-04 -2.7065151e-03  1.4755012e-03  3.7662673e-01]
[-8.22524577e-02 -3.76203010e-04 -9.43783298e-02 -7.38171577e-01
 -3.09168221e-03  1.58703566e-01 -9.37003270e-02 -3.31074139e-03
 -1.41868770e-01  4.04253229e-03  7.68829733e-02 -1.22228393e-03
 -4.13969129e-01 -6.48831725e-02 -2.00395659e-03 -1.35901000e-03
 -2.16574788e-01 -9.40439776e-02 -4.73171333e-03 -1.10199006e-04
 -8.16215128e-02 -1.33366138e-03  5.53407066e-04  3.36048356e-03
  2.39587435e-03 -1.46103397e-01  3.24267289e-03 -1.12985668e-03
  4.89003547e-02 -3.69976491e-01  2.45285453e-03  7.80756411e-04
 -3.91867794e-02 -7.37164244e-02 -1.25052291e-03  2.22000554e-02
 -3.55238654e-03 -1.63215548e-01 -3.33684962e-03 -1.64133526e-05
 -1.08669356e-01 -8.91979635e-02 -2.32660747e-03 -5.59026236e-03
 -7.79778406e-04 -3.02977599e-02 -2.53890618e-03  2.85655987e-02
  2.18460664e-05 -3.98407668e-01  8.37809034e-03 -1.10957995e-01
  2.20038323e-03  2.37526357e-01 -2.34633118e-01 -2.11987575e-03
 -2.20172793e-01 -1.52001018e-02 -1.25393167e-01  1.79353487e-02
 -4.43715695e-03 -1.36001538e-02 -1.95279857e-03  6.67794421e-02]
[-5.81113696e-02  7.47054219e-05 -7.33339638e-02  3.91365260e-01
 -5.20839449e-03 -2.42956638e-01  9.89563242e-02  1.41407072e-04
 -1.17513025e-02  4.98220848e-04  2.59307288e-02  4.98057692e-04
  1.04024954e-01  1.62692726e-01 -1.98898255e-03 -2.01200484e-03
 -1.56332731e-01 -2.09818155e-01 -6.47163577e-03 -2.42107688e-03
  4.83632758e-02 -1.56748260e-03 -7.42989010e-04  1.13793206e-03
 -1.20734004e-03  2.81320482e-01  1.97521038e-03 -1.49444461e-01
 -6.29991964e-02  1.74054295e-01  6.99643395e-04 -1.23643782e-03
 -1.98556520e-02 -1.95595130e-01 -1.40817184e-03 -6.54110983e-02
 -5.48209343e-03 -1.00389749e-01 -9.31802148e-04 -1.23776078e-01
  1.41109352e-03 -5.21465540e-02 -1.99758029e-03 -4.37843688e-02
 -1.32421358e-03 -3.52801345e-02 -1.85262342e-03 -2.17312686e-02
 -1.10008346e-03  1.94888413e-01 -9.58654732e-02  2.24256292e-02
  1.31922122e-03 -1.19568422e-01 -3.37539264e-03 -4.21644002e-03
  2.31677666e-02 -1.10332510e-02 -1.92732997e-02 -5.77361211e-02
 -3.71810980e-04 -1.37962559e-02 -1.29576458e-03  4.75187451e-02]
[-5.1073216e-02  2.4864147e-03  4.6704561e-02  2.0028175e-01
 -7.5011444e-04  4.4644248e-02  1.0689306e-01 -4.3181273e-05
 -6.2683150e-02 -2.2284163e-04  1.7020570e-01  2.4940113e-03
  7.9527587e-02 -4.9759027e-02  1.7079383e-03  2.2283834e-03
 -4.3866329e-02 -9.1162160e-02 -1.7211903e-03  2.6448686e-03
  8.5437894e-03  1.2873516e-03 -7.0690084e-04 -1.0109597e-03
  1.3497794e-03  4.5189362e-02 -2.1123234e-03 -9.3552701e-02
 -2.4257025e-02  2.6035365e-01 -1.7587501e-04 -1.2772632e-04
  1.4582148e-01  5.7087932e-02  9.0279011e-04 -4.2095482e-02
 -9.8230189e-04 -8.4054135e-02  6.1523850e-04 -1.7081644e-01
  5.9203159e-02 -3.1470379e-03  2.3374499e-03 -6.1629016e-02
  8.7895314e-05 -5.2353561e-02  1.3635283e-03 -1.9463349e-02
  6.8079703e-04  1.4998993e-01 -4.3696673e-03 -1.2196183e-01
 -1.0336405e-03  7.6301284e-03 -2.0895094e-01  5.9111917e-04
  5.3850923e-02 -1.0600015e-02  6.8042628e-02 -4.7175251e-02
  2.5685033e-04 -1.2858642e-02  2.4051885e-03 -9.2066981e-02]
[-0.12008388 -0.00265681  0.08501887  0.0513779  -0.00922028  0.00849067
  0.05502484  0.00413627 -0.08537671 -0.00294318  0.07505891 -0.00039371
  0.07455645 -0.06832486  0.00293348 -0.00279335 -0.0229586   0.1753335
 -0.01147733  0.00428083  0.02684608  0.00330077 -0.00145141 -0.00330112
 -0.0021514   0.22841251 -0.00225031  0.08529552  0.05678736 -0.10243715
 -0.00264818  0.00101079 -0.10663623  0.05641837 -0.00037682 -0.0463731
 -0.00984804  0.06648421  0.00447655  0.2222956  -0.06024498 -0.08759123
 -0.00412795  0.05420209 -0.00269299  0.00792442 -0.00454113 -0.03202836
 -0.00303891  0.08182742 -0.11437698 -0.14999808 -0.00383381  0.07888061
 -0.10780656 -0.00616051  0.1664726  -0.02377693  0.03957826  0.12854934
  0.00258167 -0.02897438 -0.00368317  0.06727613]
[-8.18542689e-02 -1.00517867e-03  8.18468556e-02  1.26207445e-03
  9.76531242e-04  7.76195303e-02 -5.06996848e-02  3.58448387e-03
 -1.29240707e-01 -4.95150220e-03 -7.00068800e-03 -1.32417399e-03
  2.11826921e-01 -4.60326225e-02 -3.03925714e-04 -1.40506803e-04
  3.85632203e-03 -1.41351163e-01  1.62115335e-04 -6.81541162e-04
 -1.03037253e-01  3.53301479e-03  2.42019864e-03 -1.53260236e-03
 -4.39840136e-03  5.84296249e-02 -1.08044397e-03  3.53702128e-01
  2.32735351e-02 -4.38639931e-02 -4.73080948e-03 -2.33776844e-03
 -8.17879513e-02 -1.25391051e-01 -4.10566659e-04  8.84442031e-02
  7.60820985e-04 -1.73716813e-01  3.31335771e-03 -3.94760184e-02
 -9.19613894e-03  3.42279375e-02 -3.04830202e-04 -7.17737228e-02
 -5.72118617e-04  1.47935450e-01  1.16753377e-04 -3.84775992e-03
 -1.13721960e-03 -5.20229712e-02 -1.01610012e-01 -1.07096657e-01
 -2.26356788e-03 -1.23877890e-01  9.72259790e-02  1.25191151e-03
 -2.55670369e-01 -1.35373119e-02 -8.52633119e-02 -1.11921020e-01
  5.81122143e-03 -1.45295998e-02 -5.12834988e-04 -1.04832575e-01]
[-6.4732455e-02 -6.1128233e-03 -8.9138173e-02 -2.4393083e-01
 -7.7354922e-03  1.5069243e-01  1.8152101e-02 -3.3780113e-03
 -2.1820270e-02  2.6968026e-03 -6.8231381e-02 -5.8141681e-03
 -9.6172489e-02 -2.4236441e-02 -5.2192444e-03 -7.2881924e-03
  6.3876152e-02  1.8425409e-01 -9.8492615e-03 -7.4836216e-03
 -1.7315263e-02 -7.4725472e-03 -3.3246342e-03  3.5859251e-03
 -1.0512068e-03 -1.4145283e-01  4.0107477e-03  1.0159162e-02
 -1.6724417e-02  7.6053172e-02  4.2987667e-04 -7.1238172e-03
  3.8999623e-01  6.2845886e-02 -9.9248427e-04 -5.9478894e-02
 -8.3391825e-03  1.2257896e-01 -4.7734841e-03  9.0653218e-02
  4.2854734e-02 -1.9981535e-02 -5.8431788e-03  1.1952822e-01
  8.1426653e-05  5.5901576e-02 -7.6536685e-03 -3.6817867e-02
  4.0484802e-04  8.7042913e-02  1.4609075e-01  7.9868115e-02
  4.0417961e-03  1.0576952e-01  8.5959025e-02 -6.9576455e-03
 -3.9378274e-02 -1.9705484e-02  7.2041631e-02  4.5562563e-03
  1.1435063e-03 -2.4464637e-02 -5.8125905e-03  8.8665828e-02]
[-3.5916619e-02  1.4678871e-03 -2.1500389e-01  4.9600508e-02
  2.9045811e-03 -9.3889441e-03 -6.8355463e-02  1.0575533e-03
  5.8652475e-02 -7.2982692e-04  2.5459977e-02  3.5302952e-04
 -1.5278500e-02 -2.2965360e-02  1.9605159e-04  1.1905653e-03
  5.3985868e-02 -1.0946248e-02  4.0820339e-03  1.9804265e-03
 -3.4286246e-02  2.5711472e-03  9.9576288e-04 -7.3413522e-04
 -1.3133555e-03  2.1099736e-01 -1.2022882e-03 -6.3552871e-02
  7.4409954e-02 -4.4418655e-02 -1.6744579e-03 -1.0810606e-03
  7.2602049e-02 -2.4891028e-01 -1.1435311e-03 -4.0262185e-02
  3.1293253e-03 -6.3971341e-02  1.5220693e-03  1.4737891e-02
 -3.0848863e-02 -3.7171394e-02  1.3756483e-03 -1.5854649e-01
 -3.8269573e-06  7.7742770e-02  1.5604992e-03  3.2752047e-03
 -1.0822437e-03  1.8683936e-02  1.4321347e-01 -2.3137204e-02
 -1.3219310e-03 -4.8357092e-02 -7.1750723e-02  2.5263021e-03
 -2.0025381e-01  4.3934407e-03  1.0306380e-01  2.1838751e-01
  1.2042974e-03  7.3825726e-03  1.4344143e-03  3.1614885e-02]
[-4.41645980e-02  4.87071183e-03  8.66887048e-02 -8.05197582e-02
  5.64594194e-03  4.69335616e-02  1.00993402e-01  7.15046597e-04
 -3.84037495e-02  8.09125995e-05 -3.02801607e-03  2.74966005e-03
 -2.65376598e-01 -1.14461370e-01 -1.49463740e-04  3.17977369e-03
  3.12339198e-02  4.21482809e-02  5.10573713e-03  3.75305116e-03
  6.74325079e-02  3.86264618e-03  4.39865142e-03  2.52463127e-04
  2.22330520e-04 -1.60096541e-01 -2.08578727e-04 -1.05821015e-02
  5.53225987e-02  2.48562768e-01  7.62149051e-04  8.36631283e-04
 -1.19295813e-01  2.79979911e-02  2.91293068e-03 -4.92228009e-02
  5.51146036e-03  1.35419250e-01  1.45374826e-04 -3.74112502e-02
 -1.29092470e-01 -1.01220198e-01  4.05781483e-03 -1.18742317e-01
 -9.16553603e-04  1.68829501e-01  4.04748134e-03 -6.10356964e-03
  2.13684910e-03  1.28873393e-01 -1.56052604e-01 -9.77300182e-02
 -4.01775091e-04  2.25998387e-02 -1.09311931e-01  4.25639143e-03
  1.26676768e-01 -4.35416726e-03  1.63759053e-01  2.54430205e-01
 -8.71717173e-04 -5.37211727e-03  4.40841680e-03  2.02577859e-02]
[ 1.8401705e-02  3.6022563e-03 -1.2164197e-01  1.0826206e-02
 -9.5449082e-05 -3.0484363e-01  1.5372477e-01  1.2109993e-03
  4.4905618e-02 -1.3369272e-03  3.2695904e-02  2.7759410e-03
  6.8576880e-02  1.2698023e-01  2.6906591e-03  2.1254146e-03
 -7.0741284e-03  1.4964974e-02  8.7695906e-04  3.4577320e-03
  9.8399762e-03  1.8102309e-03 -9.2529046e-04 -2.0068290e-03
 -2.0900397e-03  5.1476862e-02 -2.2744646e-03 -8.2593476e-03
 -5.1221804e-04 -1.2061543e-01 -3.1105466e-03  1.6757451e-03
 -2.1235518e-02  1.7707764e-01 -1.2631636e-03  3.6460187e-03
  2.3595463e-04  1.1646583e-02  1.9677798e-03  3.7971740e-03
 -1.0405707e-01  6.0078185e-02  3.5850995e-03  1.0423479e-01
  1.0301574e-03 -6.3343182e-02  2.3533180e-03 -2.5228316e-02
 -1.9714497e-03 -1.1395645e-01  1.9953832e-01 -1.2168037e-01
 -2.8288309e-03 -1.1273050e-01  1.4855601e-02 -8.3497711e-05
  2.7000835e-02  5.9613017e-03 -1.7558010e-01 -3.1194770e-01
  1.7827321e-03  3.4956553e-03  3.6433232e-03 -2.5767180e-01]
[ 6.6272944e-02 -1.7616511e-03 -8.0546096e-02 -4.8754238e-02
 -3.1025345e-03  5.5655356e-02  5.2047908e-01 -2.7200649e-03
  3.9956409e-02  1.7969437e-03 -5.4086965e-02 -2.4732943e-03
 -1.7166710e-02 -3.5858009e-02 -1.9785801e-03 -2.9116205e-03
  1.9526657e-01 -1.7504483e-01 -3.3772460e-03 -3.5313508e-04
 -1.3596207e-01 -1.9621190e-03 -2.5838900e-03  1.2705555e-03
  1.6879017e-03 -1.3538179e-01  1.0361804e-03  9.8642502e-03
  4.8693161e-02  2.3691960e-01  1.6840439e-03 -1.6062836e-03
  9.2084453e-02 -9.1243878e-02  2.4740095e-03 -3.7248123e-02
 -3.0826719e-03  1.6816385e-01 -2.9082508e-03 -2.5636693e-02
 -7.1426393e-03  1.0121224e-02 -1.7981846e-03 -1.6729295e-01
  9.0894470e-04  3.2627800e-01 -2.2256481e-03 -2.4095904e-02
  3.0231646e-03 -4.6803053e-02 -6.1947978e-03 -1.4345662e-02
  2.0422274e-03 -1.2248383e-01 -1.3410859e-01 -2.0747175e-03
  1.5878353e-01 -9.0391152e-03 -9.2688046e-02 -8.8364452e-02
 -1.0326332e-03 -1.1261520e-02 -2.1711390e-03  7.7386826e-02]
[-1.0124218e-02 -4.3910077e-05 -2.6353016e-03 -2.3824061e-01
 -3.2646984e-03  5.4718666e-03  1.5126456e-01 -9.9818094e-04
 -7.6681755e-02  6.4848090e-04  6.2022347e-02  5.4933463e-04
 -3.7552543e-02 -4.2689912e-02 -1.8129483e-03 -4.1503759e-04
 -1.1840545e-01 -1.6521780e-01 -5.6326436e-03 -2.3411615e-03
 -6.6265106e-02 -3.3801564e-03  5.0844403e-04  1.7937170e-03
 -3.4923302e-03 -1.1199838e-01  1.9374265e-03  2.1711373e-01
  8.0600064e-03 -4.8522040e-02 -1.9219943e-03 -1.9190019e-03
  1.1160417e-01 -5.9283882e-02 -2.9305543e-03  2.7684251e-02
 -3.8924287e-03 -1.4471720e-01 -1.0398795e-03  5.8669299e-02
 -1.3264428e-01  2.3636069e-02 -1.4624614e-04 -1.2259653e-01
 -5.2010827e-04 -1.2084065e-01 -1.2102267e-03 -2.8798729e-02
 -1.7297613e-03 -9.4972581e-02 -6.5267824e-02  1.7714599e-02
  3.5982486e-04 -6.3050210e-02  1.1331428e-01 -1.5311055e-03
 -8.0679376e-03 -9.4071925e-03  5.5778440e-02  5.2426510e-02
  1.8681561e-03 -1.4277411e-02 -2.0929273e-04  2.6677676e-02]
[-5.86118661e-02 -1.69628498e-03  9.88977775e-02 -2.64299393e-01
 -2.21709535e-03 -5.85362595e-03 -1.64254576e-01 -2.74435210e-04
 -2.46474277e-02 -2.70687247e-04 -2.44740047e-04 -4.64763725e-04
 -5.36955409e-02  1.18051032e-02  6.69108122e-04 -1.24638551e-03
  1.48671567e-01 -1.23727303e-02 -2.44431733e-03  9.89742344e-04
  1.25790015e-02  8.84217327e-04  1.43256527e-03 -1.04217767e-03
  1.28520740e-04 -5.61513975e-02 -6.93692302e-04 -3.74242291e-02
  6.09980598e-02  8.96640569e-02  2.26764329e-04 -1.37807619e-05
  2.63130456e-01 -3.43201868e-02 -1.32699823e-03 -1.70156322e-02
 -2.32871156e-03  1.43247992e-01  3.30689101e-04 -4.71657664e-02
 -2.06276495e-03  6.77333400e-02 -2.32975069e-03  1.79874465e-01
 -1.17561291e-03  6.07309192e-02 -2.60053948e-03 -1.01625337e-03
 -1.76557398e-03  1.02683097e-01  7.45786726e-02  2.21399367e-02
 -5.15886524e-04  1.07891895e-01  1.57902628e-01 -1.92795333e-03
  1.41301015e-02 -4.24327748e-03  2.10417256e-01 -1.79675028e-01
 -9.27509158e-04 -6.90946775e-03 -2.39848508e-03 -1.38690755e-01]
[-6.53822571e-02 -1.83742377e-03 -1.21631749e-01 -5.88227808e-02
 -1.22154355e-02 -1.09103937e-02 -1.49215952e-01  7.50486506e-04
 -3.71308587e-02 -2.16911407e-03  1.42292768e-01 -2.72719015e-04
 -4.35729325e-02 -8.82232934e-03  3.31515190e-03 -4.52007866e-03
 -2.24597141e-01 -2.04824433e-01 -1.54295806e-02  4.88462858e-03
 -5.78879043e-02  4.27848240e-03 -3.88788874e-03 -1.69562572e-03
 -1.24753104e-03  1.88611254e-01 -2.14980077e-03  6.52759057e-03
 -6.78808382e-03 -1.25444368e-01 -1.68370933e-03  3.34067526e-03
 -2.32570320e-02  6.66596089e-03 -1.68285472e-03 -2.66436078e-02
 -1.31875025e-02  5.41156083e-02  2.17290036e-03 -2.45289542e-02
 -6.81724474e-02 -6.37210235e-02 -3.91260348e-03  4.73273732e-02
 -2.77850614e-03  6.02922440e-02 -6.77333120e-03 -4.47323881e-02
 -3.61253205e-03  6.27705976e-02  1.57192454e-01  8.62068683e-02
 -1.90862280e-03 -1.21744059e-01 -9.81052816e-02 -9.35010705e-03
  4.19298485e-02 -2.70718746e-02 -3.92379100e-03 -2.33899746e-02
  2.56065432e-05 -3.43279131e-02 -3.30826524e-03  9.01206508e-02]
[-1.7608253e-02 -1.3567825e-03  1.3836850e-01 -2.8187996e-02
 -4.6037151e-03 -3.2334469e-02  9.5337845e-02  2.1769495e-03
 -1.9370086e-02 -4.3561789e-03  1.6040935e-01  7.0339045e-04
  4.2481471e-02 -1.0214552e-01  1.6923918e-03 -7.9542695e-04
 -2.4178686e-02 -1.1963502e-01 -6.5202890e-03 -4.5143400e-04
  1.7637436e-01  5.2548852e-04  3.5175361e-04 -3.4094376e-03
 -2.8427495e-03 -2.9632963e-02 -2.3603193e-03 -4.9393927e-03
  1.1424215e-01  2.1866280e-01 -1.1612801e-03 -1.0159422e-03
 -9.6526347e-02 -2.2001582e-01  3.4549492e-04 -4.7966372e-03
 -5.2612065e-03  4.7074508e-02  1.7215457e-03 -6.6172034e-02
 -2.4985829e-01 -3.2046020e-02 -2.0114346e-03 -1.9423153e-01
 -2.3111675e-03  5.2209973e-02 -2.6839895e-03  6.8209763e-03
 -2.3624697e-03 -5.7834689e-02 -3.7948892e-01 -1.2958013e-03
 -6.7932595e-04 -2.7296561e-01 -2.7967408e-02 -2.7236808e-03
 -9.4120704e-02 -1.2529631e-02  2.8598364e-02  1.7890722e-01
  2.3891171e-03 -1.4123106e-02 -1.7276224e-03 -1.5400809e-01]
[-7.38199669e-05  5.36964461e-03 -8.10486823e-02  1.80963770e-01
  1.04492921e-02 -8.94387960e-02 -4.37131882e-01  1.51644781e-06
 -3.11390758e-02  1.05552340e-03 -1.91498008e-02  3.97054618e-03
  2.13906780e-01 -6.53562918e-02 -1.60019298e-03  6.25560479e-03
  6.65119365e-02  1.05642295e-02  1.14017315e-02  8.52835481e-04
  3.09566185e-02  2.70370365e-04  4.89122653e-03  7.05035578e-04
 -8.69420590e-04  8.34501535e-02  1.11921260e-03 -2.63334125e-01
 -1.68094393e-02 -6.44865856e-02  1.04300794e-03 -1.09239179e-03
 -1.44388825e-01 -7.42103383e-02  3.70097434e-04 -8.38759020e-02
  1.06244329e-02 -8.18409845e-02 -8.90011957e-04  7.40017071e-02
  3.13739129e-03  4.87996638e-03  5.28375246e-03 -1.73112735e-01
 -7.93901621e-04  1.43453240e-01  6.47378806e-03  3.08617763e-02
  7.33592547e-04 -2.49906495e-01 -2.87694335e-02  1.77664179e-02
  4.43875819e-04 -9.91191119e-02 -9.79063883e-02  8.28741677e-03
 -4.74715605e-02  9.68586747e-03 -9.75793004e-02  7.22120032e-02
 -5.42120251e-04  1.54893762e-02  5.30259358e-03  5.83025161e-03]
[-1.52054336e-02 -8.29496566e-05 -2.07266748e-01 -1.18739851e-01
 -6.15214743e-03 -3.63870896e-02  1.61560923e-01 -1.89467659e-03
 -1.76990107e-02  4.89679689e-04  2.20798120e-01 -5.45866380e-04
 -3.13275568e-02  7.26955980e-02 -2.90056661e-04 -2.66871415e-03
 -2.21755579e-02  8.39969050e-03 -7.44670909e-03 -2.72499956e-03
 -8.92793536e-02 -3.60186258e-03 -3.23791150e-03  1.25081709e-03
  1.12506445e-03 -4.62894253e-02  1.61902292e-03  1.24017969e-01
  1.35482177e-01 -4.24295813e-01  1.51466447e-04  8.87804781e-04
 -1.00051835e-02  1.90478697e-01 -3.36805265e-03  1.28798503e-02
 -6.30474137e-03 -1.70782954e-01 -1.67748868e-03 -1.26070902e-01
  1.62345469e-01 -1.36449516e-01 -9.78725962e-04 -2.77581304e-01
  6.41356106e-04 -1.44317359e-01 -2.87982612e-03 -3.39328200e-02
 -8.60633794e-04 -4.42674868e-02 -1.18220448e-01 -5.33686392e-02
  1.05683843e-03 -5.55379428e-02 -7.05943555e-02 -3.88775580e-03
 -4.85825501e-02 -1.22961663e-02 -6.80216253e-02 -2.28476465e-01
 -9.72873589e-04 -1.64949354e-02 -8.69964890e-04  2.97536552e-01]
[-1.18487865e-01 -3.73566960e-04 -2.60037165e-02  1.96980789e-01
 -3.01354984e-03  2.42457479e-01  6.09218962e-02 -1.99632999e-03
 -1.02867551e-01  3.26244975e-03  1.41981885e-01  1.45173038e-03
  4.88529019e-02 -1.47178799e-01 -1.18370738e-03  1.12507725e-03
 -2.33502641e-01  1.14625819e-01 -7.53469300e-03 -1.45015668e-03
 -2.82036532e-02 -1.65339385e-03  4.84232605e-03  2.68029259e-03
  1.69375248e-03  3.06531757e-01  1.77496648e-03  2.72480518e-01
 -1.23342099e-02 -2.27285415e-01  2.55407160e-03 -4.36928203e-05
 -3.25333923e-01  2.38526966e-02  1.92668958e-04  8.27550795e-03
 -4.33994923e-03 -1.86916851e-02 -3.00534652e-03 -7.15469122e-02
 -1.48108438e-01 -4.16302755e-02 -1.50293333e-03 -1.29532173e-01
 -2.75031896e-03 -6.76635131e-02 -1.00691512e-03 -3.18446313e-03
  7.70557614e-04 -4.91091982e-02 -1.01122230e-01 -1.40133917e-01
  2.69587594e-03  4.04688835e-01 -1.18304670e-01  7.43444311e-04
 -8.30182806e-02 -2.46782675e-02 -2.52329409e-02  1.48619741e-01
 -2.29218486e-03 -2.40038093e-02 -1.37501676e-03 -1.39223030e-02]
[ 0.14237502 -0.0050961  -0.00628583  0.18242186 -0.0066798   0.14322211
 -0.16812289  0.00080171  0.01203758 -0.00217912  0.06907956 -0.00428314
  0.03096908  0.18911709  0.00085898 -0.00576471  0.0762829   0.03156681
 -0.00670421  0.0012596  -0.04835214  0.00227696 -0.00486354 -0.00157106
 -0.00131431  0.10993891 -0.00092014  0.01636887 -0.03397372  0.1345807
 -0.00115146  0.00035859 -0.09676611  0.17072357 -0.00076409  0.02743745
 -0.00666073 -0.1253287   0.00069948 -0.08736958 -0.07961136 -0.08143327
 -0.00535882 -0.02331106  0.00088136 -0.22887367 -0.00612015  0.00701496
 -0.00275769  0.18302701 -0.01146516 -0.0559556  -0.00081341  0.04631978
 -0.10572631 -0.00676913  0.05877023 -0.0131665   0.09398719  0.1280516
  0.00046893 -0.00952857 -0.00503979 -0.04478149]
[-0.04883841 -0.00300284 -0.10561325  0.11410581 -0.00626877 -0.09385253
  0.1805895   0.00272434 -0.00152214 -0.00413282  0.08780748 -0.00295138
  0.16515103 -0.01247201  0.00108985 -0.00465834 -0.06274945 -0.05094988
 -0.00714188 -0.00099882  0.05623259  0.00136323 -0.00348568 -0.00313149
 -0.00314064  0.08345813 -0.00311706 -0.23033518  0.0154982  -0.22122312
 -0.0041745  -0.00174185  0.00434949 -0.16871382  0.00117525  0.01647039
 -0.00647791 -0.24280621  0.00268176 -0.03413405  0.10362349 -0.03787844
 -0.00270997 -0.04648102 -0.00033546 -0.02973725 -0.00515117 -0.04177517
 -0.0013457   0.06533854 -0.12199915 -0.04662129 -0.00315422 -0.09281106
 -0.06083807 -0.00588848  0.06847578 -0.01489848 -0.110907    0.1470121
  0.00436149 -0.01722644 -0.00262723 -0.02891581]
[ 1.12175597e-02 -3.10194842e-03 -1.38109341e-01 -1.16119854e-01
 -6.09638030e-03  1.44755185e-01  1.72026098e-01 -3.25756776e-03
 -5.97312227e-02  5.03288209e-03  5.23598827e-02 -2.10892735e-03
 -1.81894958e-01 -2.49413639e-01 -5.78807318e-04 -3.18640750e-03
 -9.57186967e-02  1.24484822e-01 -8.80690943e-03 -2.01163534e-03
  8.03658292e-02 -7.13220856e-04  3.14213918e-03  2.79012322e-03
  2.90065981e-03 -7.21155256e-02  1.36915443e-03 -1.11726113e-01
  1.07073300e-01  1.05749868e-01  2.24324968e-03  1.01609842e-03
 -2.45467573e-01 -1.24608777e-01 -2.16552266e-03 -4.28010225e-02
 -6.94677373e-03 -7.13471323e-02 -1.40418974e-03 -2.83381622e-02
 -1.21796645e-01 -7.37400055e-02 -4.20522876e-03  1.66790724e-01
 -2.30534957e-03  5.81042320e-02 -4.21466911e-03 -2.78681088e-02
  1.10595101e-04 -2.20516518e-01  1.30888373e-01 -1.56795010e-01
  2.01074732e-03  1.24353439e-01 -9.16558728e-02 -4.31625405e-03
  1.32385837e-02 -1.77800134e-02 -3.05167325e-02  3.73415798e-02
 -1.35781453e-03 -2.32799351e-02 -4.04703710e-03 -7.59443492e-02]
[-3.11966836e-01 -1.19753695e+00 -2.73069799e-01 -8.99502859e-02
 -1.06628609e+00 -3.54071170e-01 -4.84724566e-02  1.25453912e-03
 -3.07622254e-01  4.24084574e-05  1.87388152e-01 -1.22158372e+00
 -8.19705799e-02 -3.24804306e-01  7.44506065e-03 -1.16098452e+00
 -1.91195875e-01 -4.08478230e-01 -1.02035201e+00 -6.66062580e-03
 -1.62563190e-01 -1.40052376e-04 -1.23290205e+00  6.50070468e-03
  1.50706130e-03  9.23670754e-02 -2.25554407e-03  5.10948040e-02
  1.68913126e-01  1.26934070e-02  2.39602174e-03 -6.08168593e-05
 -1.63302988e-01  5.80439828e-02  1.73079420e-03  1.14571474e-01
 -1.05341125e+00 -3.27088445e-01 -7.56795891e-03  1.20731086e-01
 -3.04333717e-01 -1.86391816e-01 -1.16961718e+00 -8.11797380e-02
 -1.24669123e+00  2.93024778e-02 -1.13239157e+00 -5.82782030e-01
  9.11074504e-03 -8.76703784e-02 -1.85134023e-01 -3.63095492e-01
  1.54748664e-03 -4.39966947e-01 -1.79555282e-01 -1.10556400e+00
  1.22786924e-01 -8.01349223e-01  1.91466093e-01  3.06491032e-02
  3.39360163e-03 -7.20123112e-01 -1.17671990e+00  4.75226268e-02]
layer 3 Activation
swish
layer 4 Dense
64 64
[-6.57784549e-05 -1.26846862e-04 -5.67447990e-02 -1.75245047e-01
  5.25403209e-03 -3.11282184e-02  7.70679303e-03 -3.57808843e-02
 -2.05629766e-01 -5.41655011e-02 -1.65057525e-01 -6.10071197e-02
  3.81886020e-05  6.30981848e-03 -1.05698235e-01  2.38439278e-03
  9.10656527e-03  1.67081598e-05  6.31539524e-03 -8.19956840e-05
 -4.26357612e-02 -5.60374968e-02  5.71003743e-03  1.22670941e-02
  3.14232784e-05 -5.56600131e-02  9.18445550e-03  1.91824976e-04
  2.13223160e-04  1.36334756e-02 -1.29921164e-05 -5.39758056e-02
  1.19701615e-02 -3.20705399e-02 -1.62890952e-04 -3.38173434e-02
 -2.01028466e-04  4.61197451e-05 -8.43779892e-02 -6.61899539e-05
  3.45476577e-03 -3.86236385e-02 -2.85650324e-02  3.48634878e-03
  1.25966724e-02 -2.35161515e-05  7.99162313e-04  1.22809634e-02
  4.17270046e-03 -3.41896750e-02 -1.09242752e-01  3.55064217e-03
 -2.19396651e-02 -5.06138392e-02 -6.60849214e-02 -1.88044515e-02
 -9.38503537e-03 -8.82657096e-02  5.92333148e-04  8.76445731e-04
  3.78808612e-03  1.46750109e-02 -1.20950273e-04 -1.34287238e-01]
[-6.61033264e-05 -9.55816868e-05 -6.85047135e-02 -1.34826496e-01
  5.71059249e-03 -7.37938448e-04  8.36704485e-03 -4.70302776e-02
 -1.29813150e-01 -3.94162536e-02 -8.26912597e-02 -6.88401386e-02
  2.75656712e-05  6.84880465e-03 -7.81936944e-02  2.53457157e-03
  9.89385601e-03 -3.38236850e-06  6.85119489e-03 -3.47318528e-05
 -1.87282022e-02 -5.73955625e-02  6.20055757e-03  1.34992087e-02
  3.04211098e-05 -1.39402486e-02  9.98089835e-03  1.80332863e-04
  5.65553528e-05  1.52175417e-02  7.01641511e-07 -4.67536636e-02
  1.32305631e-02 -1.79426596e-02 -1.37077383e-04 -3.10926307e-02
 -5.14676140e-06  6.22798398e-05 -8.31197649e-02  1.08209249e-04
  3.74284224e-03 -3.98491398e-02 -3.40031125e-02  3.77547625e-03
  1.40230861e-02  3.89285924e-05  8.02463677e-04  1.36511680e-02
  4.52920981e-03 -3.14984694e-02 -8.86616781e-02  3.85058951e-03
 -6.47901034e-04 -6.77964911e-02 -2.44514495e-02  2.65144906e-03
 -4.38435934e-04 -1.06343605e-01  1.08135551e-04  8.80311418e-04
  4.10457933e-03  1.67970732e-02  8.23738628e-06 -9.59902331e-02]
[-8.4181593e-06  6.1041217e-05 -5.7869073e-02 -1.9094741e-01
  6.3022999e-03  4.7755964e-02  9.0996232e-03 -1.2035996e-02
 -1.9486636e-01 -2.3787495e-02 -1.7755473e-01 -9.2299566e-02
 -1.8578896e-05  7.4683647e-03 -7.7020466e-02  2.9504346e-03
  1.0657127e-02 -1.6039867e-05  7.4843955e-03  8.3456391e-05
 -5.6219913e-02 -6.0836118e-02  6.7868922e-03  1.4463128e-02
  3.5477424e-05 -2.8116118e-02  1.0758165e-02  1.9208275e-04
 -6.1016650e-05  1.6418096e-02  3.2661567e-06 -4.9557942e-03
  1.4255398e-02 -3.9032355e-02 -3.7190293e-05 -1.3486780e-02
 -9.9494442e-05  4.1693827e-05 -3.5720788e-02  3.6992857e-04
  4.2042481e-03 -4.8907824e-02  2.4161784e-02  4.2574671e-03
  1.5144977e-02  2.2102151e-05  8.1736309e-04  1.4765299e-02
  5.0287889e-03 -1.6563212e-02 -1.7247845e-01  4.3101870e-03
  1.8885372e-02 -6.4434312e-02 -1.1265542e-01  3.5159592e-02
  1.1290242e-01 -7.6892272e-02  2.8855639e-04  9.2423940e-04
  4.5780614e-03  1.8526005e-02 -7.4516647e-05 -1.7600536e-01]
[ 1.3861411e-04  1.6198646e-03 -3.8160615e-02  1.5468639e-01
  7.8880871e-03  5.8960587e-01  1.2983718e-02  3.9367743e-02
 -1.1806984e-02  3.2357642e-01 -1.0326359e-01  5.6572963e-02
 -1.2058561e-04  9.8983468e-03  2.0321718e-01  3.4874282e-03
  1.5903262e-02  2.2561044e-05  9.8965112e-03  4.0922750e-05
  1.0697307e-01  8.2830079e-02  8.7114908e-03  2.3605863e-02
  2.1728738e-04  3.3603111e-01  1.6118875e-02  5.5082206e-04
  1.4902272e-04  2.8290674e-02  5.4988643e-05  5.7743568e-02
  2.3605347e-02  3.8879935e-02 -9.6242155e-05  7.1509652e-02
  3.7601490e-03  2.1655527e-04  7.9155244e-02  6.3872925e-04
  4.7820597e-03 -1.4992526e-02  4.9474865e-02  4.8228810e-03
  2.5779512e-02 -1.4607960e-04  1.0618656e-03  2.5203718e-02
  5.8937049e-03  8.7665975e-02  2.5351834e-02  4.9331300e-03
  4.0873444e-01 -3.6198787e-02  1.0660485e-01  5.0842845e-01
  6.5861911e-01 -1.6187111e-02 -2.2959218e-03  1.2642040e-03
  5.2448460e-03  3.4543008e-02  3.9151541e-04 -3.9426792e-02]
[-6.5879336e-05 -9.6584394e-05 -6.4786136e-02 -1.5514573e-01
  5.7102740e-03  4.1093347e-03  8.3665876e-03 -4.2399365e-02
 -1.7713647e-01 -3.5528764e-02 -1.2487301e-01 -7.9943471e-02
  2.7587268e-05  6.8482654e-03 -9.5221706e-02  2.5348726e-03
  9.8936418e-03 -3.2780645e-06  6.8506375e-03 -3.4953664e-05
 -2.5303986e-02 -4.8429374e-02  6.2000528e-03  1.3500740e-02
  3.0427005e-05 -1.5223173e-02  9.9807233e-03  1.8031750e-04
  5.6096585e-05  1.5220754e-02  6.8978193e-07 -5.5023048e-02
  1.3232141e-02 -3.0963512e-02 -1.3726787e-04 -4.4764798e-02
 -5.1041425e-06  6.2253384e-05 -7.8721009e-02  1.1021447e-04
  3.7429328e-03 -4.2873383e-02 -3.3348691e-02  3.7756111e-03
  1.4025419e-02  3.9045219e-05  8.0262480e-04  1.3653403e-02
  4.5291265e-03 -3.0516313e-02 -1.0145400e-01  3.8506833e-03
 -6.5748948e-03 -5.5485837e-02 -4.8958957e-02  2.6957537e-03
  2.7614195e-02 -1.1388899e-01  1.0939994e-04  8.8049349e-04
  4.1045756e-03  1.6803462e-02  7.5103671e-06 -1.1170531e-01]
[ 1.35740047e-04  4.13688744e-04  1.33980028e-02 -2.24494547e-01
  7.03552552e-03 -7.64272511e-02  1.07213324e-02  1.14786983e-01
 -3.33330452e-01  1.48991525e-01 -2.02617839e-01  4.90517989e-02
 -7.86734599e-05  8.33597500e-03  1.37660846e-01  3.45780817e-03
  1.29334545e-02  1.85713925e-05  8.30634963e-03  3.31271949e-05
 -1.39983054e-02  2.13197693e-02  7.42309215e-03  1.93835944e-02
  4.85487471e-05  3.50333788e-02  1.31313810e-02  2.93114164e-04
 -2.42474474e-04  2.34724805e-02 -1.83207412e-05  2.17121035e-01
  1.94134898e-02  1.46428710e-02 -9.22964318e-05  1.59723446e-01
  4.25399892e-04  1.44018792e-04  2.60435790e-01  1.99173082e-04
  4.61945357e-03 -5.07684611e-03  2.14917451e-01  4.71244194e-03
  2.13200804e-02  1.45077574e-04  1.00589124e-03  2.08206214e-02
  5.46470890e-03  1.30139142e-01 -1.86410308e-01  4.76562465e-03
  4.13582921e-02 -4.19020690e-02 -2.35843211e-02 -4.83469330e-02
 -8.84248242e-02  2.84374893e-01  6.55993586e-04  1.14078249e-03
  4.94944071e-03  2.92372406e-02  4.59456001e-04 -1.65450186e-01]
[-3.5177505e-05  1.9387840e-04  2.1546866e-01 -2.8896791e-01
  2.7677719e-03 -5.4983997e-01  2.3533178e-03 -5.8144014e-02
 -5.0394428e-03 -2.9534039e-01  2.0414619e-01 -8.2271539e-02
 -4.6071396e-05  2.7351698e-03 -2.3497272e-01  1.7709567e-03
  1.9700427e-03 -5.4431348e-05  2.6954121e-03  5.8999540e-06
 -1.2583739e-01 -1.0167613e-01  2.7900857e-03  4.1212610e-04
 -1.3478333e-05 -3.0483416e-01  1.9382413e-03  2.1103606e-05
  2.8335731e-04 -1.2398805e-03 -3.9528491e-05 -9.5467553e-02
 -1.6744918e-05 -3.0450029e-02 -5.2094372e-05 -1.0827339e-01
  2.8084789e-04  2.3734563e-05 -1.2349576e-01 -3.7529800e-04
  2.3768689e-03  1.1246025e-01 -1.1745410e-01  2.3944078e-03
 -7.7249476e-04  6.3669177e-05  4.0454377e-04 -5.1230245e-04
  2.6091838e-03 -1.2103304e-01 -8.7920733e-02  2.4166498e-03
 -3.2346302e-01  1.4698327e-01 -1.5946679e-01 -4.4992784e-01
 -7.1685702e-01  1.2740860e-02  1.1790751e-03  4.5206025e-04
  2.4535495e-03 -4.0606246e-03  6.4486155e-04 -4.6784370e-03]
[ 3.75481636e-06 -4.35043970e-04  1.10306661e-03 -5.31530182e-04
 -3.27246700e-04  5.38703229e-04 -3.87245440e-04 -6.15072204e-04
  3.87012056e-04 -3.82308732e-04  1.45229709e-03 -4.47119237e-04
  4.79945229e-05 -3.50227609e-04 -5.33393060e-04 -1.41918150e-04
 -4.44459845e-04  4.54668088e-06 -3.44941625e-04 -4.20333745e-05
 -2.58769607e-04 -2.50766461e-04 -3.35374731e-04 -5.65773225e-04
 -5.54415019e-05 -1.56097725e-04 -4.46129503e-04 -6.85197883e-05
 -9.53495874e-06 -6.36819052e-04 -1.40720658e-06 -1.08567299e-03
 -5.54174359e-04 -9.86887608e-05 -3.49938273e-05 -7.58723007e-04
 -6.48220594e-04 -2.64418468e-05 -6.34904194e-04  2.60619454e-05
 -2.18170724e-04  6.62043050e-04 -1.85530959e-03 -2.22295668e-04
 -5.83484885e-04 -4.89807098e-05 -1.60811396e-06 -5.73023106e-04
 -2.84421461e-04 -7.93798245e-04 -1.49881846e-04 -2.31788843e-04
 -2.49938690e-04  5.39022672e-04 -5.92733617e-04  2.12969622e-04
  4.51424334e-04  1.18421085e-04  2.57442676e-04 -3.63754662e-05
 -2.50724028e-04 -7.04053731e-04 -2.88591196e-04  4.50105697e-04]
[-4.47635721e-05 -9.87583335e-05 -7.94145465e-02 -1.33473486e-01
  5.77935809e-03 -2.88646054e-02  8.45207088e-03 -3.41217518e-02
 -1.23717085e-01 -5.44388928e-02 -1.52324945e-01 -8.67047012e-02
  2.44540533e-05  6.92853378e-03 -1.04621336e-01  2.54804059e-03
  9.98894405e-03 -1.45476724e-06  6.92928303e-03 -3.48446847e-05
 -2.37372778e-02 -5.38082644e-02  6.27714954e-03  1.36324130e-02
  3.15575417e-05 -4.43359502e-02  1.00774737e-02  1.82448552e-04
  6.32253068e-05  1.53610455e-02  2.04924459e-06 -5.87784164e-02
  1.33479554e-02 -2.19459124e-02 -1.35552895e-04 -3.76787223e-02
 -1.03463579e-04  6.60729929e-05 -9.48808491e-02  1.16814546e-04
  3.78718157e-03 -5.84856011e-02 -3.41979712e-02  3.81912338e-03
  1.41437724e-02  2.96057133e-05  8.05782736e-04  1.37811117e-02
  4.58578533e-03 -4.21909802e-02 -1.03317380e-01  3.89737869e-03
 -2.43774988e-02 -4.56564687e-02 -6.56479597e-02 -1.35832410e-02
 -1.34585500e-02 -1.39988527e-01  6.40343860e-05  8.76056147e-04
  4.15365677e-03  1.69576108e-02  1.30150165e-05 -1.17220782e-01]
[ 6.9194249e-07  3.4803798e-04 -1.8033432e-03 -2.2175678e-04
  3.6610058e-04 -7.0284295e-04  2.1373527e-04 -2.0310179e-04
 -1.1938898e-03 -8.7686713e-05 -2.1973993e-03 -3.9038243e-04
 -2.4098019e-05  3.0255923e-04 -3.8904688e-04  1.8737819e-04
  2.4578121e-04 -2.5959473e-06  2.9452017e-04  2.5578011e-06
 -2.8831893e-04 -4.6465240e-04  3.5050628e-04  3.5805267e-04
  3.6462639e-05 -2.1380644e-04  2.4470955e-04  4.3173739e-05
 -5.1840289e-08  4.7039322e-04 -1.5836926e-05  3.3978093e-04
  3.1734497e-04 -5.3325511e-04  1.0898034e-06 -7.6311335e-05
  4.6464481e-04 -2.2586646e-06 -5.1559269e-04 -9.2776700e-06
  3.4905144e-04 -1.4048856e-03  1.3960322e-03  3.5395357e-04
  3.5562253e-04  4.3910346e-05  2.5300502e-05  3.3913815e-04
  4.2251899e-04  9.4639297e-05 -5.3760159e-04  3.6621271e-04
  1.6837970e-04 -1.2355153e-03 -2.0715049e-04 -3.3754570e-04
 -3.9044832e-04 -1.0543480e-03 -3.3926626e-06  3.6692396e-05
  3.9107644e-04  6.5582147e-04  2.4902602e-04 -1.1660082e-03]
[-4.78569797e-04 -4.34366841e-04  1.51186520e-02  2.47122511e-01
 -5.25961071e-02 -1.86964087e-02 -8.20799470e-02 -8.73903781e-02
  2.32501507e-01 -8.39783922e-02  2.57945299e-01 -2.66367197e-02
  9.90761211e-04 -6.44999892e-02 -1.07483022e-01 -2.17934661e-02
 -1.00064665e-01  8.17706896e-05 -6.46318272e-02 -1.50585745e-03
 -3.06467488e-02  4.97417059e-03 -5.75938635e-02 -1.46274447e-01
 -2.32539547e-04 -5.19238189e-02 -1.01175435e-01 -4.37095470e-04
 -2.11310631e-04 -1.70314893e-01 -1.18599739e-04 -4.80599888e-02
 -1.44390851e-01 -4.85573933e-02 -5.80061111e-04 -2.89780777e-02
 -4.96661989e-04 -2.49265722e-04 -1.48325553e-02 -7.35083711e-04
 -3.34647708e-02  2.99855950e-03 -3.63237299e-02 -3.37794982e-02
 -1.55232549e-01 -2.74397345e-04 -4.82882094e-03 -1.51246861e-01
 -4.08440866e-02 -8.82430077e-02  1.11808717e-01 -3.44483331e-02
 -4.63281050e-02 -2.51856409e-02  8.21030363e-02  1.47650931e-02
 -6.71088044e-03  4.90351357e-02  9.43272840e-04 -4.92140837e-03
 -3.68341506e-02 -1.95523098e-01 -5.22593618e-04  1.71191424e-01]
[-6.57127530e-05 -9.68428867e-05 -7.73168579e-02 -1.62973836e-01
  5.71239274e-03  6.96242740e-03  8.36914591e-03 -3.39075141e-02
 -1.60832584e-01 -4.28007357e-02 -1.38049096e-01 -2.14850176e-02
  2.74992344e-05  6.85071666e-03 -5.81041127e-02  2.53601349e-03
  9.89610050e-03 -3.41250006e-06  6.85311155e-03 -3.44756627e-05
 -1.56124858e-02 -2.59046592e-02  6.20243279e-03  1.35019543e-02
  3.04339519e-05 -1.48969088e-02  9.98315960e-03  1.80449540e-04
  5.59586697e-05  1.52207771e-02  6.82080781e-07 -4.22606580e-02
  1.32333627e-02 -2.94402782e-02 -1.36852963e-04 -3.73013765e-02
 -5.29388490e-06  6.22507068e-05 -8.56103748e-02  1.10303263e-04
  3.74448462e-03 -5.78816831e-02 -3.21727097e-02  3.77710536e-03
  1.40261538e-02  3.88897606e-05  8.02685448e-04  1.36542125e-02
  4.53092484e-03 -2.71632914e-02 -8.37921277e-02  3.85222514e-03
 -4.86797979e-03 -5.87548614e-02 -6.05169833e-02  4.34152968e-03
  2.23208517e-02 -1.18348211e-01  1.08845343e-04  8.80633888e-04
  4.10626177e-03  1.68013088e-02  8.53711754e-06 -1.20906748e-01]
[ 1.9270930e-04  1.7579014e-03 -7.4330039e-02  1.4003320e-01
  1.4798034e-03  3.2749686e-01  1.2197172e-03 -6.1160262e-04
  4.6767496e-02  1.8311501e-01 -1.4518126e-02  1.6241587e-03
 -2.1136069e-04  1.4255600e-03  6.4262129e-02  2.2308999e-03
  1.2859438e-03  5.6812609e-05  1.3794815e-03  2.9336888e-04
